SVM-light Version V6.02
2 # kernel type
3 # kernel parameter -d 
0.03 # kernel parameter -g 
1 # kernel parameter -s 
1 # kernel parameter -r 
empty# kernel parameter -u 
20 # highest feature index 
1104 # number of training documents 
397 # number of support vectors plus 1 
0.98781705 # threshold b, each following line is a SV (starting with alpha*y)
-0.15116471704535086595377890716918 1:3.55 2:2.6630001 3:2.3670001 4:2.6630001 5:7.9879999 6:2.6630001 7:1.479 8:11.243 9:7.1009998 10:11.243 11:2.0710001 12:4.1420002 13:3.846 14:3.55 15:3.2539999 16:10.355 17:5.0300002 18:8.5799999 19:1.775 20:4.4380002 #
-0.50000000297951763261750102174119 1:7.7080002 2:2.0829999 3:3.3329999 4:2.2920001 5:6.4580002 6:8.125 7:1.25 8:7.0830002 9:3.9579999 10:8.3330002 11:2.7079999 12:3.9579999 13:3.9579999 14:3.9579999 15:2.7079999 16:7.7080002 17:6.6669998 18:11.667 19:2.2920001 20:3.75 #
-0.46418538053477226279497358518711 1:9.9530001 2:1.738 3:3.9489999 4:4.5809999 5:6.3189998 6:8.8470001 7:2.0539999 8:8.2150002 9:4.2649999 10:9.4790001 11:2.3699999 12:3.4760001 13:3.3180001 14:3.6329999 15:3.7909999 16:7.4250002 17:4.7389998 18:6.0029998 19:1.896 20:3.9489999 #
-0.50000000297951763261750102174119 1:7.7800002 2:1.6210001 3:3.566 4:3.2409999 5:7.618 6:8.1040001 7:2.1070001 8:6.4829998 9:3.7279999 10:12.642 11:2.1070001 12:3.8900001 13:4.052 14:2.7550001 15:3.079 16:5.5110002 17:5.348 18:8.4280005 19:3.079 20:4.862 #
-0.50000000297951763261750102174119 1:8.0080004 2:2.053 3:1.232 4:4.723 5:6.3660002 6:6.9819999 7:0.41100001 8:10.472 9:3.4909999 10:10.883 11:2.2590001 12:3.2850001 13:6.1599998 14:2.053 15:3.0799999 16:6.9819999 17:6.1599998 18:9.0349998 19:1.643 20:4.723 #
2.5000000148975880520652026461903 1:12.329 2:1.826 3:2.0550001 4:1.598 5:7.9910002 6:7.5339999 7:1.598 8:9.132 9:2.5109999 10:11.872 11:2.74 12:3.425 13:3.881 14:4.7950001 15:2.74 16:7.5339999 17:5.7080002 18:5.7080002 19:1.37 20:3.6530001 #
2.3558746374819348190499113115948 1:7.3610001 2:2.6930001 3:3.052 4:5.3860002 5:5.7449999 6:8.2589998 7:1.077 8:8.4379997 9:3.5910001 10:6.822 11:2.6930001 12:4.4879999 13:3.95 14:2.8729999 15:4.4879999 16:9.1560001 17:6.822 18:6.6430001 19:1.975 20:4.4879999 #
2.5000000148975880520652026461903 1:8.5880003 2:1.145 3:2.29 4:4.5799999 5:8.0150003 6:8.3970003 7:1.336 8:8.7790003 9:4.198 10:10.687 11:3.244 12:2.6719999 13:4.0079999 14:3.244 15:3.053 16:8.2060003 17:5.1529999 18:7.8239999 19:1.336 20:3.244 #
2.4556635036617722178675649047364 1:8.1479998 2:1.6670001 3:2.4070001 4:4.2589998 5:5.7410002 6:9.6300001 7:1.296 8:7.5929999 9:3.704 10:12.778 11:1.4809999 12:2.7780001 13:5.9260001 14:2.9630001 15:4.8150001 16:6.8520002 17:5.5560002 18:7.7779999 19:1.4809999 20:3.148 #
1.444119034862352046744149447477 1:8.3929996 2:1.918 3:1.439 4:2.638 5:13.429 6:8.6330004 7:0.95899999 8:7.914 9:2.878 10:12.95 11:3.3570001 12:3.8369999 13:2.878 14:2.638 15:2.878 16:6.954 17:4.5560002 18:6.954 19:1.439 20:3.3570001 #
-0.50000000297951763261750102174119 1:9.5719995 2:0.50400001 3:2.7709999 4:4.5339999 5:6.5489998 6:9.0679998 7:2.0150001 8:9.0679998 9:3.2750001 10:13.35 11:1.008 12:2.5190001 13:4.7859998 14:3.023 15:5.0380001 16:5.7930002 17:4.0300002 18:8.0600004 19:2.267 20:2.7709999 #
-0.50000000297951763261750102174119 1:9.2309999 2:0.92299998 3:2.4619999 4:3.0769999 5:9.2309999 6:8 7:1.2309999 8:8 9:2.4619999 10:12.615 11:4.9229999 12:2.7690001 13:4.6149998 14:3.6919999 15:3.0769999 16:5.8460002 17:3.6919999 18:8.6149998 19:3.0769999 20:2.4619999 #
-0.50000000297951763261750102174119 1:9.2550001 2:0.45100001 3:1.58 4:3.1600001 5:7.223 6:9.7069998 7:0.903 8:10.158 9:3.8369999 10:10.835 11:3.612 12:2.257 13:4.5149999 14:4.7399998 15:4.7399998 16:5.1919999 17:5.6430001 18:7.901 19:0.903 20:3.3859999 #
2.5000000148975880520652026461903 1:11.018 2:0.167 3:5.5089998 4:5.1750002 5:4.6739998 6:6.678 7:2.5039999 8:5.5089998 9:3.6730001 10:10.017 11:3.6730001 12:3.339 13:2.5039999 14:4.007 15:6.678 16:5.8429999 17:6.3439999 18:10.017 19:1.002 20:1.669 #
2.3470776067234533357463988068048 1:6.006 2:0.90100002 3:2.402 4:2.102 5:6.006 6:6.6069999 7:1.201 8:6.3060002 9:4.5050001 10:15.015 11:5.105 12:6.3060002 13:2.7030001 14:2.402 15:2.402 16:9.309 17:6.6069999 18:9.0089998 19:1.502 20:3.6040001 #
2.5000000148975880520652026461903 1:6.4310002 2:0.88300002 3:5.296 4:5.5489998 5:5.4219999 6:6.5570002 7:1.892 8:6.6830001 9:5.6750002 10:10.719 11:2.9000001 12:2.7739999 13:4.414 14:3.405 15:5.6750002 16:9.9619999 17:5.927 18:6.6830001 19:1.261 20:1.892 #
-0.50000000297951763261750102174119 1:7.6700001 2:2.026 3:2.605 4:4.9200001 5:6.802 6:7.381 7:2.3150001 8:6.9460001 9:3.763 10:10.564 11:3.329 12:4.342 13:3.618 14:3.039 15:3.9070001 16:8.8280001 17:5.4990001 18:7.0910001 19:2.3150001 20:3.039 #
-0.50000000297951763261750102174119 1:7.1820002 2:3.5910001 3:2.6240001 4:4.5580001 5:7.1820002 6:8.0109997 7:1.5190001 8:6.7680001 9:4.8340001 10:10.359 11:2.072 12:4.1440001 13:5.3870001 14:3.039 15:2.6240001 16:9.9449997 17:6.3540001 18:5.5250001 19:1.243 20:3.039 #
-0.28288965673768085018480178405298 1:5.9559999 2:0.94 3:4.7020001 4:5.329 5:2.8210001 6:10.031 7:2.194 8:3.448 9:1.881 10:12.539 11:2.5079999 12:4.3889999 13:6.5830002 14:4.0749998 15:3.7620001 16:10.031 17:6.27 18:10.031 19:0.62699997 20:1.881 #
2.1548041148516396958711993647739 1:9.073 2:1.5779999 3:3.3529999 4:3.55 5:8.6789999 6:8.8760004 7:1.5779999 8:9.2700005 9:3.3529999 10:10.454 11:3.3529999 12:3.3529999 13:3.9449999 14:2.9590001 15:3.9449999 16:5.5229998 17:4.1420002 18:8.6789999 19:1.775 20:2.5639999 #
2.0976241097302890104003836313495 1:10.741 2:0.926 3:2.2219999 4:3.8889999 5:7.5929999 6:10 7:2.5929999 8:7.4070001 9:2.5929999 10:12.037 11:3.3329999 12:2.7780001 13:4.6300001 14:3.8889999 15:3.3329999 16:4.4439998 17:6.1110001 18:8.1479998 19:1.4809999 20:1.852 #
1.550648124374633729516403946036 1:10.753 2:1.72 3:2.151 4:2.796 5:7.0970001 6:9.2469997 7:1.075 8:12.258 9:3.0109999 10:8.8170004 11:5.5910001 12:2.5810001 13:2.3659999 14:3.441 15:2.151 16:5.8060002 17:6.0219998 18:7.527 19:2.5810001 20:3.0109999 #
-0.50000000297951763261750102174119 1:9.5349998 2:1.222 3:2.934 4:3.178 5:7.335 6:10.269 7:2.4449999 8:7.8239999 9:3.6670001 10:10.758 11:4.8899999 12:3.4230001 13:2.934 14:3.4230001 15:1.711 16:6.3569999 17:6.112 18:7.8239999 19:1.222 20:2.934 #
-0.50000000297951763261750102174119 1:8.2469997 2:0.34400001 3:5.1550002 4:4.8109999 5:3.9519999 6:6.5289998 7:1.546 8:8.0760002 9:3.9519999 10:10.309 11:4.467 12:3.608 13:2.234 14:4.296 15:6.5289998 16:8.5909996 17:6.1859999 18:8.0760002 19:0.85900003 20:2.234 #
-0.50000000297951763261750102174119 1:12.1 2:2.135 3:2.8469999 4:3.2030001 5:7.473 6:11.388 7:1.779 8:7.473 9:2.8469999 10:10.676 11:2.135 12:2.4909999 13:5.3379998 14:2.4909999 15:2.4909999 16:4.27 17:5.3379998 18:9.2530003 19:1.779 20:2.4909999 #
2.5000000148975880520652026461903 1:8.9289999 2:2.273 3:3.5710001 4:5.6820002 5:5.0320001 6:7.9549999 7:0.32499999 8:6.9809999 9:5.1950002 10:10.877 11:2.9219999 12:5.0320001 13:2.273 14:3.5710001 15:3.247 16:8.6040001 17:6.1690001 18:5.1950002 19:2.4349999 20:3.734 #
2.4413428189990846739476637594635 1:6.4749999 2:1.199 3:1.918 4:2.638 5:6.7150002 6:6.4749999 7:2.158 8:7.1939998 9:6.4749999 10:12.71 11:1.199 12:4.796 13:6.4749999 14:2.398 15:2.638 16:11.99 17:3.8369999 18:7.914 19:1.679 20:3.118 #
2.5000000148975880520652026461903 1:5.882 2:1.961 3:2.8010001 4:2.8010001 5:7.0029998 6:6.1620002 7:3.0810001 8:5.6020002 9:4.7620001 10:14.286 11:1.401 12:2.8010001 13:4.4819999 14:4.2020001 15:2.2409999 16:8.4029999 17:4.2020001 18:9.8039999 19:3.641 20:4.4819999 #
-0.50000000297951763261750102174119 1:7.5040002 2:1.222 3:3.141 4:4.8870001 5:7.8530002 6:7.6789999 7:0.52399999 8:9.4239998 9:4.1880002 10:9.4239998 11:2.0940001 12:3.141 13:4.1880002 14:3.141 15:4.1880002 16:8.901 17:4.5380001 18:7.6789999 19:2.7920001 20:3.49 #
-0.19049247873393054808488500384556 1:5.5300002 2:5.0689998 3:2.3039999 4:5.5300002 5:4.6079998 6:6.9120002 7:1.8430001 8:6.4520001 9:6.4520001 10:6.9120002 11:2.7650001 12:7.8340001 13:4.1469998 14:3.687 15:4.1469998 16:6.9120002 17:5.5300002 18:5.9910002 19:2.7650001 20:4.6079998 #
-0.50000000297951763261750102174119 1:6.2280002 2:1.601 3:2.135 4:3.737 5:7.2950001 6:6.5840001 7:1.068 8:8.7189999 9:4.27 10:13.879 11:1.779 12:4.0929999 13:3.381 14:2.8469999 15:3.381 16:10.142 17:5.8720002 18:6.9400001 19:1.423 20:4.6259999 #
1.8326205974739631088255009672139 1:11.215 2:2.4300001 3:3.3640001 4:2.6170001 5:5.2340002 6:11.776 7:1.495 8:5.7940001 9:3.178 10:9.1590004 11:3.5510001 12:2.4300001 13:4.2989998 14:2.4300001 15:4.2989998 16:6.355 17:5.6069999 18:9.533 19:2.8039999 20:2.4300001 #
2.3662082401063537773211464809719 1:11.891 2:1.365 3:4.2880001 4:2.339 5:7.2119999 6:10.136 7:0.97500002 8:6.0430002 9:4.8730001 10:11.306 11:3.119 12:2.7290001 13:5.4580002 14:2.1440001 15:3.3139999 16:6.823 17:4.8730001 18:7.0180001 19:2.339 20:1.7539999 #
1.0948030227883092102558748592855 1:10.223 2:2.7880001 3:2.4159999 4:2.4159999 5:5.3899999 6:14.87 7:1.487 8:5.7620001 9:3.346 10:11.152 11:2.4159999 12:2.7880001 13:4.8330002 14:2.23 15:3.5320001 16:6.691 17:4.8330002 18:8.1780005 19:2.602 20:2.0450001 #
-0.50000000297951763261750102174119 1:12.83 2:1.132 3:1.132 4:4.151 5:6.415 6:8.6789999 7:1.132 8:6.415 9:2.642 10:13.585 11:1.887 12:4.151 13:4.9060001 14:3.0190001 15:3.7739999 16:6.415 17:5.6599998 18:8.302 19:1.5089999 20:2.2639999 #
-0.50000000297951763261750102174119 1:10.769 2:1.2819999 3:2.0510001 4:3.0769999 5:7.6919999 6:8.4619999 7:1.2819999 8:6.6669998 9:4.1030002 10:12.821 11:2.8210001 12:4.3590002 13:2.5639999 14:2.8210001 15:3.5899999 16:7.1789999 17:7.1789999 18:5.8969998 19:2.0510001 20:3.3329999 #
-0.50000000297951763261750102174119 1:11.236 2:1.124 3:3.3710001 4:4.1199999 5:8.8009996 6:8.6140003 7:1.498 8:7.1160002 9:5.0560002 10:8.2399998 11:4.1199999 12:3.3710001 13:4.3070002 14:3.3710001 15:2.9960001 16:6.3670001 17:5.4310002 18:6.1799998 19:1.498 20:3.184 #
2.5000000148975880520652026461903 1:3.2160001 2:2.632 3:2.339 4:2.632 5:9.3570004 6:5.263 7:2.0469999 8:8.7720003 9:6.4330001 10:13.45 11:1.17 12:5.5560002 13:2.632 14:3.2160001 15:3.5090001 16:8.4799995 17:7.0180001 18:6.4330001 19:1.17 20:4.678 #
2.5000000148975880520652026461903 1:9.5539999 2:1.911 3:2.5480001 4:2.5480001 5:5.7319999 6:4.4590001 7:1.911 8:10.828 9:2.5480001 10:15.924 11:1.911 12:2.5480001 13:3.822 14:3.822 15:3.822 16:7.6430001 17:5.7319999 18:7.006 19:2.5480001 20:3.1849999 #
1.7074383104649717424194932391401 1:7.1290002 2:1.188 3:2.3759999 4:4.3559999 5:5.941 6:8.7130003 7:0.396 8:9.3070002 9:4.3559999 10:11.485 11:3.5639999 12:3.96 13:3.96 14:2.5739999 15:3.7620001 16:6.5349998 17:7.5250001 18:7.921 19:1.98 20:2.97 #
-0.23178495380228164579605731887568 1:9.5860004 2:2.0680001 3:2.444 4:3.3829999 5:5.263 6:7.3309999 7:1.692 8:8.835 9:4.1350002 10:14.474 11:2.444 12:4.323 13:3.7590001 14:2.444 15:3.1949999 16:9.2110004 17:3.5710001 18:7.895 19:1.316 20:2.632 #
-0.13637297064233555587975388334598 1:8.1079998 2:3.243 3:7.027 4:4.3239999 5:2.1619999 6:3.7839999 7:1.622 8:6.4860001 9:5.9460001 10:5.9460001 11:3.7839999 12:4.8649998 13:1.622 14:4.3239999 15:3.243 16:11.892 17:8.6490002 18:7.027 19:1.081 20:4.8649998 #
-0.50000000297951763261750102174119 1:5.6160002 2:1.63 3:5.7969999 4:6.3410001 5:5.072 6:6.8839998 7:1.812 8:9.6009998 9:4.1669998 10:7.428 11:2.355 12:4.348 13:3.4419999 14:3.0799999 15:5.4349999 16:6.1589999 17:6.5219998 18:7.9710002 19:2.8989999 20:3.4419999 #
2.0578591485718664699788860161789 1:10.56 2:0.64700001 3:2.3710001 4:3.8789999 5:6.25 6:8.8360004 7:1.293 8:7.7589998 9:3.664 10:12.931 11:4.9569998 12:3.017 13:3.017 14:2.586 15:4.526 16:5.8189998 17:5.8189998 18:7.3280001 19:2.586 20:2.155 #
1.8684505234383019800503689111792 1:13.265 2:1.02 3:2.0409999 4:1.786 5:6.6329999 6:8.1630001 7:0.50999999 8:7.3979998 9:1.786 10:12.755 11:6.888 12:3.316 13:2.806 14:2.806 15:4.3369999 16:6.1220002 17:4.8470001 18:8.1630001 19:2.5510001 20:2.806 #
1.9414385772683073749789173234603 1:9.5570002 2:1.632 3:2.098 4:3.03 5:6.527 6:10.023 7:0.93199998 8:4.1960001 9:3.73 10:13.287 11:3.263 12:2.7969999 13:3.9630001 14:2.3310001 15:2.7969999 16:10.956 17:4.6620002 18:7.4590001 19:3.03 20:3.73 #
-0.50000000297951763261750102174119 1:7.869 2:1.6390001 3:3.6070001 4:2.951 5:5.0819998 6:9.0159998 7:0.32800001 8:7.2129998 9:3.279 10:11.311 11:4.5900002 12:2.4590001 13:4.5900002 14:3.115 15:3.115 16:8.5249996 17:7.0489998 18:8.033 19:1.967 20:4.2620001 #
-0.50000000297951763261750102174119 1:8.559 2:2.714 3:1.67 4:3.549 5:6.8889999 6:7.098 7:2.0880001 8:7.9330001 9:2.714 10:14.196 11:4.802 12:2.0880001 13:5.2189999 14:3.132 15:2.9230001 16:7.5159998 17:5.2189999 18:7.724 19:0.83499998 20:3.132 #
-0.50000000297951763261750102174119 1:8.8409996 2:0.58899999 3:1.768 4:2.5539999 5:7.8590002 6:9.0369997 7:2.161 8:7.8590002 9:2.5539999 10:14.931 11:5.1079998 12:1.572 13:4.322 14:3.9289999 15:2.358 16:6.0900002 17:5.1079998 18:6.8759999 19:3.3399999 20:3.1429999 #
2.3606189110442983292159624397755 1:5.941 2:1.98 3:4.9499998 4:4.9499998 5:2.97 6:8.9110003 7:2.97 8:8.9110003 9:6.9310002 10:5.941 11:4.9499998 12:4.9499998 13:2.97 14:3.96 15:1.98 16:7.921 17:5.941 18:10.891 19:0 20:1.98 #
2.5000000148975880520652026461903 1:7.5570002 2:1.582 3:3.8659999 4:5.448 5:7.9089999 6:8.0839996 7:1.406 8:7.2059999 9:4.3940001 10:9.3149996 11:2.6359999 12:4.7449999 13:2.6359999 14:3.1630001 15:4.2179999 16:8.0839996 17:7.0300002 18:5.448 19:1.757 20:3.5150001 #
2.1040270269205043618399031402078 1:10.39 2:0.64899999 3:8.4420004 4:9.7399998 5:3.8959999 6:5.1950002 7:1.948 8:5.8439999 9:4.5450001 10:9.7399998 11:2.5969999 12:4.5450001 13:4.5450001 14:4.5450001 15:5.1950002 16:1.948 17:4.5450001 18:9.0909996 19:0.64899999 20:1.948 #
-0.50000000297951763261750102174119 1:7.3249998 2:0.31799999 3:1.592 4:4.777 5:5.414 6:8.2799997 7:2.2290001 8:7.9619999 9:5.7319999 10:9.5539999 11:3.503 12:3.1849999 13:2.8659999 14:2.5480001 15:6.0510001 16:9.5539999 17:7.9619999 18:5.0960002 19:1.592 20:4.4590001 #
-0.50000000297951763261750102174119 1:8.5629997 2:0.917 3:2.141 4:3.6700001 5:5.5050001 6:10.398 7:0.917 8:6.4219999 9:7.9510002 10:8.5629997 11:2.141 12:4.5869999 13:4.8930001 14:3.6700001 15:3.0580001 16:9.4799995 17:7.3390002 18:7.0339999 19:0.61199999 20:2.141 #
-0.44038881029365983810208717841306 1:9.2589998 2:1.235 3:4.0120001 4:6.79 5:5.2470002 6:6.79 7:2.7780001 8:5.2470002 9:4.6300001 10:6.1729999 11:2.4690001 12:2.4690001 13:5.5560002 14:3.086 15:4.9380002 16:11.42 17:6.79 18:6.79 19:2.1600001 20:2.1600001 #
2.5000000148975880520652026461903 1:7.9840002 2:1.597 3:1.796 4:5.3889999 5:6.1880002 6:7.7839999 7:0.59899998 8:7.7839999 9:3.194 10:14.172 11:2.595 12:2.994 13:4.9899998 14:4.3909998 15:3.3929999 16:6.5869999 17:4.5910001 18:9.3809996 19:1.198 20:3.3929999 #
2.5000000148975880520652026461903 1:9.0500002 2:1.929 3:3.1159999 4:3.7090001 5:5.1929998 6:6.973 7:1.484 8:5.1929998 9:2.819 10:13.353 11:3.5610001 12:2.2260001 13:6.2309999 14:3.4119999 15:3.5610001 16:8.4569998 17:4.8959999 18:9.4960003 19:2.0769999 20:3.2639999 #
2.5000000148975880520652026461903 1:7.4180002 2:1.78 3:2.3740001 4:2.671 5:7.4180002 6:8.6049995 7:0.59299999 8:9.1990004 9:5.3410001 10:15.43 11:2.3740001 12:4.4510002 13:4.1539998 14:2.671 15:1.484 16:7.4180002 17:5.638 18:6.2309999 19:0.29699999 20:4.4510002 #
-0.029801454281035297255719740405766 1:10.7 2:2.1140001 3:4.756 4:4.6240001 5:4.6240001 6:11.361 7:2.378 8:4.756 9:2.9059999 10:8.0579996 11:1.849 12:2.51 13:12.814 14:2.378 15:5.2839999 16:4.888 17:4.6240001 18:5.02 19:1.585 20:2.7739999 #
-0.50000000297951763261750102174119 1:7.3740001 2:2.878 3:3.237 4:4.4959998 5:5.3959999 6:7.7340002 7:1.079 8:4.6760001 9:2.698 10:14.388 11:3.0580001 12:2.698 13:4.8559999 14:3.777 15:4.1370001 16:6.6550002 17:6.2950001 18:8.6330004 19:2.3380001 20:3.5969999 #
-0.50000000297951763261750102174119 1:9.6590004 2:0.852 3:5.1139998 4:3.6930001 5:5.3979998 6:8.2390003 7:1.136 8:5.3979998 9:3.977 10:12.216 11:2.273 12:4.5450001 13:3.4089999 14:4.2610002 15:6.25 16:6.5339999 17:4.2610002 18:9.375 19:1.136 20:2.273 #
2.5000000148975880520652026461903 1:6.448 2:0.792 3:5.3169999 4:4.7509999 5:5.4299998 6:7.2399998 7:1.584 8:7.4660001 9:3.846 10:7.8049998 11:2.2620001 12:6.448 13:3.9590001 14:3.6199999 15:3.846 16:11.425 17:7.2399998 18:6.5609999 19:0.792 20:3.1670001 #
2.5000000148975880520652026461903 1:7.118 2:2.257 3:3.6459999 4:4.8610001 5:7.2919998 6:9.2010002 7:0.86799997 8:7.4650002 9:5.0349998 10:6.7709999 11:3.4719999 12:3.819 13:3.819 14:2.431 15:3.125 16:6.9439998 17:6.25 18:8.8540001 19:2.257 20:4.5139999 #
2.2675542578231682178113715053769 1:9.8310003 2:0 3:3.0510001 4:2.0339999 5:11.186 6:5.085 7:1.017 8:6.441 9:1.6950001 10:11.864 11:1.3559999 12:2.0339999 13:4.7459998 14:4.0679998 15:4.0679998 16:8.4750004 17:5.085 18:10.508 19:2.3729999 20:5.085 #
-0.50000000297951763261750102174119 1:8.4750004 2:0.847 3:3.22 4:4.7459998 5:8.4750004 6:8.3050003 7:1.3559999 8:9.6610003 9:4.915 10:7.7969999 11:2.2030001 12:3.3900001 13:4.237 14:2.0339999 15:3.7290001 16:6.9489999 17:6.441 18:6.9489999 19:2.7119999 20:3.559 #
-0.50000000297951763261750102174119 1:6.5500002 2:1.528 3:3.2750001 4:2.1830001 5:8.5150003 6:9.1700001 7:1.3099999 8:9.3889999 9:5.2399998 10:12.664 11:3.0569999 12:4.3670001 13:3.0569999 14:2.8380001 15:2.6199999 16:7.4239998 17:6.1139998 18:6.987 19:1.092 20:2.6199999 #
-0.50000000297951763261750102174119 1:9.677 2:2.0869999 3:1.7079999 4:3.036 5:9.2980003 6:7.9699998 7:1.518 8:7.9699998 9:2.467 10:11.006 11:1.898 12:1.3279999 13:5.3130002 14:2.277 15:4.1750002 16:7.5900002 17:5.3130002 18:8.9180002 19:1.898 20:4.5539999 #
2.5000000148975880520652026461903 1:5.882 2:2.2620001 3:3.1670001 4:1.8099999 5:5.882 6:7.2399998 7:0.90499997 8:4.5250001 9:2.2620001 10:17.646999 11:2.7149999 12:3.1670001 13:4.072 14:4.5250001 15:4.5250001 16:6.335 17:7.2399998 18:7.2399998 19:2.7149999 20:5.882 #
2.5000000148975880520652026461903 1:8.5600004 2:0.58399999 3:4.086 4:2.918 5:6.6149998 6:8.9490004 7:0.19499999 8:6.0310001 9:4.4749999 10:13.23 11:3.1129999 12:4.6690001 13:4.086 14:4.2800002 15:3.1129999 16:4.6690001 17:7.5879998 18:6.0310001 19:2.335 20:4.4749999 #
2.5000000148975880520652026461903 1:7.5469999 2:0.80900002 3:4.5819998 4:7.0079999 5:2.9649999 6:7.5469999 7:2.6949999 8:5.6599998 9:4.0430002 10:10.782 11:2.9649999 12:3.5039999 13:5.3909998 14:5.9299998 15:6.4689999 16:4.5819998 17:3.7739999 18:11.59 19:0.53899997 20:1.617 #
-0.50000000297951763261750102174119 1:8.7889996 2:0.58600003 3:2.9300001 4:3.3199999 5:5.664 6:7.8119998 7:0.391 8:6.836 9:2.734 10:13.867 11:2.539 12:3.9059999 13:7.0310001 14:4.4920001 15:5.4689999 16:5.4689999 17:6.0549998 18:5.664 19:3.125 20:3.3199999 #
-0.50000000297951763261750102174119 1:12.262 2:0.634 3:2.326 4:3.5940001 5:5.7080002 6:12.051 7:1.268 8:7.822 9:2.7479999 10:14.165 11:3.8050001 12:2.5369999 13:4.4400001 14:2.96 15:4.8629999 16:3.171 17:6.131 18:6.342 19:1.268 20:1.903 #
-0.50000000297951763261750102174119 1:12.037 2:0.926 3:3.086 4:5.5560002 5:5.5560002 6:8.0249996 7:1.543 8:6.4809999 9:3.704 10:10.802 11:2.4690001 12:1.852 13:6.79 14:4.0120001 15:4.6300001 16:4.3210001 17:7.099 18:8.3330002 19:0.926 20:1.852 #
2.4193992796733820860310970601859 1:7.171 2:1.594 3:2.3900001 4:4.382 5:6.5739999 6:7.7690001 7:0.79699999 8:10.757 9:3.7850001 10:10.558 11:4.98 12:2.5899999 13:4.382 14:1.992 15:4.382 16:7.7690001 17:6.9720001 18:6.7729998 19:1.793 20:2.5899999 #
2.121126960763666691178741530166 1:7.2870002 2:2.4289999 3:2.8340001 4:3.2390001 5:9.717 6:7.6919999 7:0.405 8:7.6919999 9:7.6919999 10:11.336 11:2.4289999 12:4.4530001 13:3.6440001 14:2.8340001 15:1.619 16:6.4780002 17:5.6680002 18:8.5019999 19:0.81 20:3.2390001 #
-0.053613082570917611202609975862288 1:9.1529999 2:1.017 3:7.4580002 4:9.8310003 5:2.3729999 6:2.3729999 7:1.6950001 8:7.4580002 9:6.7800002 10:7.119 11:2.0339999 12:8.8140001 13:1.6950001 14:9.1529999 15:4.7459998 16:4.7459998 17:3.3900001 18:7.119 19:0 20:3.0510001 #
-0.50000000297951763261750102174119 1:8.6689997 2:2.477 3:3.4059999 4:4.3340001 5:5.263 6:10.526 7:2.1670001 8:8.0500002 9:4.6440001 10:8.0500002 11:3.096 12:2.786 13:3.7149999 14:2.477 15:3.4059999 16:6.5019999 17:5.882 18:10.217 19:2.1670001 20:2.1670001 #
-0.056416074336321168913865875538249 1:7.1599998 2:0.23899999 3:4.7729998 4:8.3529997 5:6.4439998 6:4.7729998 7:2.8640001 8:10.979 9:5.4889998 10:8.592 11:2.3870001 12:4.7729998 13:1.909 14:2.625 15:2.3870001 16:8.8310003 17:8.1149998 18:6.2049999 19:0.23899999 20:2.8640001 #
1.772456015563726117179044194927 1:9.2340002 2:0.78600001 3:1.768 4:4.7150002 5:5.3049998 6:10.02 7:0.58899999 8:6.6799998 9:1.572 10:15.521 11:2.358 12:2.5539999 13:5.697 14:4.5190001 15:4.9120002 16:6.4829998 17:5.3049998 18:7.8590002 19:1.375 20:2.75 #
2.5000000148975880520652026461903 1:11.437 2:0.58700001 3:2.9330001 4:0.88 5:3.812 6:10.264 7:0.29300001 8:9.9709997 9:2.053 10:15.543 11:3.5190001 12:3.2260001 13:4.3990002 14:3.2260001 15:4.1059999 16:4.9850001 17:6.158 18:10.557 19:1.76 20:0.29300001 #
2.3663044626507616641220010933466 1:9.9820004 2:1.848 3:2.5880001 4:2.5880001 5:5.1760001 6:11.46 7:1.294 8:4.0669999 9:1.664 10:17.190001 11:1.479 12:1.848 13:6.2849998 14:3.142 15:4.8060002 16:9.427 17:4.9910002 18:6.4699998 19:1.479 20:2.2179999 #
-0.50000000297951763261750102174119 1:12.621 2:0 3:2.184 4:1.942 5:4.612 6:8.7379999 7:2.184 8:7.7670002 9:2.6700001 10:14.563 11:4.1259999 12:2.184 13:3.398 14:4.369 15:3.641 16:5.8249998 17:5.5830002 18:9.4659996 19:1.942 20:2.184 #
-0.50000000297951763261750102174119 1:9.9350004 2:0.86400002 3:1.296 4:3.24 5:4.1040001 6:9.2869997 7:0.86400002 8:8.2069998 9:1.512 10:14.687 11:4.3200002 12:3.6719999 13:6.0479999 14:4.5359998 15:3.0239999 16:7.559 17:5.4000001 18:8.8549995 19:0.86400002 20:1.728 #
-0.50000000297951763261750102174119 1:11.83 2:0.67000002 3:2.2320001 4:1.786 5:5.5799999 6:12.277 7:0.67000002 8:4.4640002 9:2.0090001 10:14.732 11:3.7950001 12:2.4549999 13:3.7950001 14:3.5710001 15:3.7950001 16:6.9200001 17:4.9109998 18:9.8210001 19:2.2320001 20:2.4549999 #
1.8672347066540915250243415357545 1:9.4619999 2:0.55699998 3:3.5250001 4:3.3399999 5:4.8239999 6:9.276 7:1.113 8:7.7919998 9:3.8959999 10:9.4619999 11:3.711 12:2.783 13:5.7509999 14:2.2260001 15:5.3800001 16:8.349 17:5.7509999 18:8.7200003 19:1.67 20:2.4119999 #
1.840390099133858647917350026546 1:5.6300001 2:1.34 3:3.4849999 4:2.9489999 5:6.434 6:8.3109999 7:0.80400002 8:5.0939999 9:4.5580001 10:15.282 11:4.5580001 12:5.362 13:2.9489999 14:2.4130001 15:4.0209999 16:9.3830004 17:6.1659999 18:6.7020001 19:0.53600001 20:4.0209999 #
-0.50000000297951763261750102174119 1:9.04 2:0.75300002 3:3.3900001 4:4.1430001 5:7.9099998 6:6.026 7:0.565 8:9.7930002 9:4.52 10:12.053 11:2.26 12:4.7080002 13:4.1430001 14:3.766 15:2.825 16:7.533 17:6.026 18:6.026 19:2.072 20:2.448 #
-0.50000000297951763261750102174119 1:9.4020004 2:2.2219999 3:3.7609999 4:4.6149998 5:6.6669998 6:8.3760004 7:0.68400002 8:7.3499999 9:3.7609999 10:9.915 11:2.2219999 12:3.4189999 13:4.1030002 14:3.7609999 15:3.5899999 16:8.2049999 17:5.4699998 18:5.9829998 19:2.2219999 20:4.2740002 #
-0.50000000297951763261750102174119 1:7.112 2:0.99599999 3:4.4099998 4:4.125 5:6.5430002 6:8.25 7:1.28 8:7.2550001 9:3.2720001 10:10.1 11:3.1289999 12:2.987 13:3.698 14:3.2720001 15:6.2589998 16:8.1079998 17:7.3969998 18:6.401 19:1.4220001 20:3.983 #
1.7866019354525024542823530282476 1:15.088 2:0.35100001 3:1.7539999 4:2.105 5:4.9120002 6:8.0699997 7:0.70200002 8:4.9120002 9:2.105 10:11.93 11:6.6669998 12:1.7539999 13:4.211 14:4.5609999 15:5.263 16:4.5609999 17:6.6669998 18:11.579 19:1.053 20:1.7539999 #
2.5000000148975880520652026461903 1:9.8210001 2:2.8269999 3:2.6789999 4:3.5710001 5:5.2080002 6:9.5240002 7:1.488 8:4.9109998 9:1.488 10:13.393 11:3.5710001 12:2.0829999 13:5.3569999 14:2.8269999 15:4.9109998 16:7.2919998 17:4.0180001 18:9.2259998 19:2.2320001 20:3.5710001 #
-0.50000000297951763261750102174119 1:10.396 2:1.98 3:2.4749999 4:3.96 5:5.2810001 6:7.5910001 7:1.155 8:4.125 9:2.3099999 10:16.007 11:2.6400001 12:1.65 13:6.4359999 14:3.96 15:4.125 16:6.9310002 17:5.4460001 18:9.4060001 19:0.82499999 20:3.3 #
-0.50000000297951763261750102174119 1:9.7980003 2:2.177 3:3.421 4:2.9549999 5:4.1989999 6:10.109 7:0.31099999 8:3.733 9:2.0220001 10:15.397 11:2.9549999 12:2.3329999 13:5.2880001 14:3.1099999 15:4.5100002 16:7.4650002 17:6.3759999 18:8.5539999 19:1.8660001 20:3.421 #
-0.50000000297951763261750102174119 1:7.3909998 2:0.21699999 3:5.8699999 4:8.4779997 5:3.043 6:9.783 7:1.522 8:5.8699999 9:4.348 10:9.1300001 11:3.2609999 12:2.391 13:4.348 14:4.348 15:5.652 16:5.4349999 17:5.217 18:10.217 19:0.21699999 20:3.2609999 #
-0.35012078121254097684555972591625 1:6.8400002 2:2.1170001 3:5.2119999 4:5.375 5:6.026 6:7.6550002 7:1.14 8:6.5149999 9:5.0489998 10:9.4460001 11:3.7460001 12:3.5829999 13:3.257 14:2.9319999 15:4.072 16:8.9580002 17:4.8860002 18:6.8400002 19:1.6289999 20:4.723 #
-0.50000000297951763261750102174119 1:6.8559999 2:2.5079999 3:3.177 4:3.177 5:7.6919999 6:7.5250001 7:1.839 8:7.6919999 9:4.1810002 10:7.5250001 11:3.5120001 12:4.849 13:3.5120001 14:1.839 15:2.5079999 16:10.201 17:6.6890001 18:6.02 19:3.3440001 20:5.3509998 #
-0.50000000297951763261750102174119 1:6.1799998 2:2.434 3:4.6820002 4:4.869 5:7.303 6:7.1160002 7:1.311 8:8.052 9:5.8049998 10:9.5509996 11:3.3710001 12:4.1199999 13:3.7449999 14:2.247 15:3.3710001 16:7.4910002 17:5.618 18:6.5539999 19:1.498 20:4.6820002 #
-0.50000000297951763261750102174119 1:12.6 2:0.60000002 3:2.5999999 4:2.8 5:5.8000002 6:9 7:0.80000001 8:8.1999998 9:4 10:11.4 11:5.4000001 12:3.2 13:3.5999999 14:3 15:2.4000001 16:6.4000001 17:3.8 18:8.6000004 19:2 20:3.8 #
-0.50000000297951763261750102174119 1:13.555 2:2.046 3:1.79 4:2.5580001 5:6.3940001 6:7.6729999 7:1.79 8:8.184 9:1.79 10:14.066 11:4.348 12:1.535 13:4.348 14:1.535 15:4.348 16:8.6960001 17:4.6040001 18:8.184 19:1.279 20:1.279 #
-0.50000000297951763261750102174119 1:10.194 2:3.641 3:2.184 4:3.641 5:4.8540001 6:8.2519999 7:2.6700001 8:7.039 9:2.184 10:12.136 11:1.942 12:4.369 13:5.8249998 14:3.8829999 15:4.612 16:6.3109999 17:3.398 18:8.4949999 19:1.699 20:2.6700001 #
2.5000000148975880520652026461903 1:6.5029998 2:3.1630001 3:3.5150001 4:5.6240001 5:7.5570002 6:8.0839996 7:0.70300001 8:7.0300002 9:4.3940001 10:7.381 11:3.691 12:3.691 13:3.691 14:1.933 15:3.5150001 16:8.2600002 17:6.3270001 18:8.2600002 19:1.933 20:4.7449999 #
-0.50000000297951763261750102174119 1:5.6820002 2:1.136 3:0.56800002 4:5.6820002 5:7.9549999 6:6.8179998 7:0.56800002 8:6.8179998 9:5.6820002 10:13.636 11:1.705 12:5.6820002 13:3.4089999 14:5.1139998 15:1.705 16:9.0909996 17:6.25 18:9.0909996 19:0.56800002 20:2.8410001 #
-0.50000000297951763261750102174119 1:7.0830002 2:0.625 3:2.2920001 4:3.9579999 5:6.0419998 6:8.3330002 7:0.208 8:9.7919998 9:4.5830002 10:13.75 11:2.9170001 12:2.7079999 13:5 14:4.7919998 15:3.9579999 16:7.5 17:6.25 18:5.4169998 19:1.0420001 20:3.75 #
-0.44884888233717507022291215434961 1:7.9229999 2:2.4590001 3:3.0050001 4:4.3720002 5:4.645 6:5.7379999 7:1.0930001 8:7.1040001 9:6.2839999 10:9.0159998 11:4.3720002 12:5.191 13:3.825 14:2.7320001 15:5.191 16:10.929 17:6.5570002 18:4.9180002 19:2.4590001 20:2.1860001 #
-0.50000000297951763261750102174119 1:9.7629995 2:0.792 3:3.4300001 4:2.6389999 5:6.3319998 6:7.652 7:1.0549999 8:6.5960002 9:1.5829999 10:11.873 11:5.013 12:4.2220001 13:3.694 14:1.847 15:4.4850001 16:4.2220001 17:6.8600001 18:10.026 19:4.2220001 20:3.694 #
-0.50000000297951763261750102174119 1:10.63 2:1.378 3:3.1500001 4:2.9530001 5:9.0550003 6:10.236 7:1.181 8:7.283 9:2.559 10:8.4650002 11:2.9530001 12:3.543 13:3.543 14:2.362 15:2.9530001 16:6.8899999 17:5.3150001 18:9.2519999 19:2.165 20:4.1339998 #
-0.50000000297951763261750102174119 1:10.619 2:0.66399997 3:2.8759999 4:2.655 5:7.743 6:7.0799999 7:1.327 8:7.5219998 9:3.0969999 10:11.062 11:4.4250002 12:3.0969999 13:4.6459999 14:1.9910001 15:3.319 16:6.4159999 17:6.4159999 18:9.7349997 19:1.549 20:3.7609999 #
-0.50000000297951763261750102174119 1:7.5100002 2:0.79100001 3:3.1619999 4:1.976 5:4.348 6:4.743 7:2.372 8:6.3239999 9:6.3239999 10:15.81 11:2.767 12:1.976 13:3.1619999 14:3.9530001 15:2.767 16:9.4860001 17:5.5339999 18:8.6960001 19:2.767 20:5.5339999 #
-0.50000000297951763261750102174119 1:7.6209998 2:3.421 3:2.6440001 4:2.4879999 5:6.0650001 6:7.1539998 7:1.4 8:6.2210002 9:2.9549999 10:13.219 11:2.799 12:3.421 13:6.2210002 14:2.9549999 15:4.8210001 16:11.353 17:4.1989999 18:6.5320001 19:1.089 20:3.421 #
-0.50000000297951763261750102174119 1:4.7529998 2:0.73100001 3:5.6669998 4:5.8499999 5:4.7529998 6:6.5809999 7:2.3770001 8:7.1300001 9:4.7529998 10:6.2160001 11:2.559 12:6.3990002 13:6.2160001 14:4.0219998 15:5.8499999 16:12.614 17:6.033 18:4.388 19:0.54799998 20:2.559 #
-0.18268496646467036192973409924889 1:14.479 2:0.193 3:3.668 4:2.3169999 5:3.8610001 6:11.004 7:2.51 8:7.1430001 9:0.579 10:14.672 11:3.089 12:1.737 13:4.6329999 14:3.089 15:5.2119999 16:4.4400001 17:3.8610001 18:9.2659998 19:2.1240001 20:2.1240001 #
1.2552248016888754023057117592543 1:9.6079998 2:1.569 3:2.549 4:2.549 5:5.2940001 6:10.196 7:1.569 8:9.2159996 9:2.1570001 10:10 11:1.961 12:3.1370001 13:5.4899998 14:2.3529999 15:5.098 16:8.2349997 17:5.2940001 18:8.6269999 19:2.549 20:2.549 #
-0.50000000297951763261750102174119 1:10.728 2:0.57499999 3:3.0650001 4:5.1719999 5:7.6630001 6:7.6630001 7:1.149 8:6.1300001 9:4.0229998 10:11.686 11:4.2150002 12:2.49 13:3.448 14:3.8310001 15:3.8310001 16:5.9390001 17:5.5560002 18:6.8969998 19:2.49 20:3.448 #
-0.50000000297951763261750102174119 1:7.2420001 2:1.671 3:2.786 4:4.178 5:6.6849999 6:9.1920004 7:2.2279999 8:8.3570004 9:4.4569998 10:13.092 11:2.507 12:4.4569998 13:3.3429999 14:1.393 15:2.786 16:8.3570004 17:4.7350001 18:8.3570004 19:1.393 20:2.786 #
-0.50000000297951763261750102174119 1:10.34 2:2.3150001 3:3.2409999 4:5.401 5:5.401 6:9.1049995 7:0.30899999 8:5.0929999 9:3.2409999 10:10.957 11:2.1600001 12:3.858 13:3.704 14:3.2409999 15:4.9380002 16:8.1789999 17:6.0190001 18:6.9439998 19:1.698 20:3.858 #
-0.50000000297951763261750102174119 1:9.2720003 2:1.325 3:2.428 4:2.6489999 5:5.5190001 6:9.0509996 7:1.104 8:11.7 9:3.753 10:12.362 11:4.1939998 12:2.2079999 13:4.6360002 14:2.2079999 15:1.766 16:9.0509996 17:6.1810002 18:7.506 19:1.325 20:1.766 #
-0.50000000297951763261750102174119 1:10.052 2:0.773 3:1.804 4:2.3199999 5:7.7319999 6:7.9899998 7:0.773 8:11.34 9:2.5769999 10:14.948 11:2.5769999 12:1.546 13:3.8659999 14:2.5769999 15:2.5769999 16:10.825 17:4.6389999 18:7.474 19:1.289 20:2.3199999 #
-0.50000000297951763261750102174119 1:11.419 2:1.038 3:2.076 4:0.34599999 5:6.9200001 6:7.612 7:1.038 8:6.9200001 9:0.69199997 10:13.149 11:2.7679999 12:2.4219999 13:6.9200001 14:3.806 15:5.882 16:7.9580002 17:5.882 18:9.3430004 19:2.076 20:1.73 #
-0.50000000297951763261750102174119 1:7.2059999 2:2.812 3:2.9879999 4:4.0419998 5:6.151 6:8.0839996 7:1.23 8:5.0970001 9:4.3940001 10:15.466 11:3.5150001 12:3.339 13:4.2179999 14:4.3940001 15:3.339 16:7.381 17:5.0970001 18:6.8540001 19:1.757 20:2.6359999 #
-0.50000000297951763261750102174119 1:9.3479996 2:2.391 3:2.826 4:5 5:8.0430002 6:9.3479996 7:2.826 8:6.3039999 9:3.9130001 10:13.478 11:2.609 12:4.5650001 13:4.5650001 14:3.4779999 15:1.739 16:6.5219998 17:5.4349999 18:5.217 19:0.435 20:1.957 #
-0.50000000297951763261750102174119 1:10.377 2:0.94300002 3:1.415 4:1.887 5:8.9619999 6:8.4910002 7:0.472 8:8.0190001 9:6.132 10:14.151 11:1.887 12:3.7739999 13:2.8299999 14:1.887 15:1.887 16:6.6040001 17:5.6599998 18:8.0190001 19:0.94300002 20:5.6599998 #
-0.50000000297951763261750102174119 1:10.27 2:0.81099999 3:2.7030001 4:2.4319999 5:3.243 6:9.4589996 7:1.081 8:9.4589996 9:1.622 10:15.946 11:3.7839999 12:1.622 13:5.4050002 14:2.973 15:4.0539999 16:3.243 17:5.4050002 18:11.622 19:3.5139999 20:1.351 #
-0.50000000297951763261750102174119 1:8.5539999 2:1.5140001 3:4.9959998 4:5.829 5:5.829 6:7.6459999 7:1.211 8:7.9489999 9:4.9959998 10:8.4779997 11:2.7249999 12:3.5580001 13:2.8770001 14:4.921 15:5.223 16:7.3429999 17:5.6020002 18:6.8889999 19:0.98400003 20:2.8770001 #
-0.50000000297951763261750102174119 1:10.697 2:1.244 3:2.7360001 4:2.2390001 5:6.2189999 6:10.199 7:0.995 8:6.2189999 9:2.2390001 10:14.925 11:6.2189999 12:0.995 13:3.7309999 14:3.7309999 15:6.7160001 16:5.7210002 17:3.234 18:6.7160001 19:2.7360001 20:2.4879999 #
-0.50000000297951763261750102174119 1:7.7459998 2:1.937 3:3.1689999 4:4.2249999 5:6.5139999 6:8.2749996 7:1.761 8:6.6900001 9:2.8169999 10:12.5 11:2.8169999 12:3.697 13:3.8729999 14:3.5209999 15:3.1689999 16:7.7459998 17:4.401 18:10.035 19:1.408 20:3.697 #
-0.50000000297951763261750102174119 1:4.684 2:1.8329999 3:3.6659999 4:3.2590001 5:6.9250002 6:3.6659999 7:1.6289999 8:10.387 9:5.092 10:15.479 11:2.648 12:5.9060001 13:2.444 14:3.2590001 15:3.4619999 16:7.9429998 17:5.9060001 18:6.7210002 19:1.018 20:4.073 #
-0.50000000297951763261750102174119 1:5.2519999 2:2.6259999 3:3.2820001 4:4.158 5:9.8470001 6:5.2519999 7:2.6259999 8:8.7530003 9:7.2210002 10:11.816 11:1.5319999 12:4.3759999 13:3.5009999 14:1.969 15:2.188 16:6.5650001 17:8.3149996 18:6.3460002 19:1.094 20:3.2820001 #
-0.50000000297951763261750102174119 1:10.781 2:0.46900001 3:6.875 4:5.7810001 5:2.0309999 6:7.0310001 7:1.719 8:4.6880002 9:2.6559999 10:11.094 11:1.719 12:3.125 13:4.2189999 14:4.6880002 15:10 16:6.25 17:5.1560001 18:9.6879997 19:0.93800002 20:1.094 #
-0.50000000297951763261750102174119 1:7.5380001 2:1.005 3:2.01 4:3.5179999 5:7.5380001 6:7.0349998 7:2.01 8:3.5179999 9:2.513 10:16.08 11:3.0150001 12:2.513 13:4.5229998 14:1.508 15:5.0250001 16:8.04 17:7.0349998 18:7.5380001 19:3.0150001 20:5.0250001 #
-0.50000000297951763261750102174119 1:9.4189997 2:2.405 3:3.8080001 4:2.605 5:4.8099999 6:12.024 7:2.0039999 8:6.6129999 9:3.006 10:9.6190004 11:3.2060001 12:4.0079999 13:3.8080001 14:1.403 15:2.605 16:7.415 17:7.2140002 18:7.2140002 19:3.4070001 20:3.4070001 #
-0.50000000297951763261750102174119 1:8.3190002 2:1.2130001 3:3.813 4:3.813 5:7.2789998 6:7.7989998 7:1.2130001 8:7.6259999 9:6.066 10:9.8789997 11:3.293 12:1.733 13:3.4660001 14:3.1199999 15:3.293 16:7.9720001 17:7.6259999 18:7.7989998 19:1.906 20:2.773 #
-0.50000000297951763261750102174119 1:8.3620005 2:1.045 3:2.9619999 4:3.8329999 5:7.3169999 6:9.408 7:0.87099999 8:9.5819998 9:4.704 10:8.7110004 11:1.742 12:5.401 13:3.3099999 14:3.484 15:2.2650001 16:6.9689999 17:4.704 18:8.3620005 19:2.2650001 20:4.704 #
-0.2942309748685856263250570918899 1:5.0289998 2:0.77399999 3:4.836 4:6.1900001 5:7.737 6:5.6090002 7:1.7410001 8:8.5109997 9:3.868 10:9.8649998 11:3.675 12:4.4489999 13:3.095 14:2.3210001 15:3.4820001 16:9.2840004 17:6.9629998 18:8.1239996 19:1.5470001 20:2.901 #
-0.50000000297951763261750102174119 1:10.49 2:0.93199998 3:2.3310001 4:2.7969999 5:5.1279998 6:10.256 7:1.399 8:10.956 9:3.263 10:14.452 11:2.5639999 12:2.3310001 13:5.1279998 14:1.166 15:2.3310001 16:5.3610001 17:6.0609999 18:10.023 19:0.93199998 20:2.098 #
-0.50000000297951763261750102174119 1:8.4540005 2:0.48300001 3:2.8989999 4:3.382 5:6.2800002 6:8.9370003 7:0.48300001 8:8.2130003 9:3.1400001 10:16.184 11:4.5890002 12:1.691 13:3.6229999 14:2.6570001 15:6.039 16:6.2800002 17:4.5890002 18:7.0050001 19:2.415 20:2.6570001 #
-0.50000000297951763261750102174119 1:9.9560003 2:1.549 3:3.0969999 4:3.0969999 5:7.3010001 6:10.398 7:1.549 8:6.8579998 9:3.54 10:10.841 11:4.8670001 12:2.8759999 13:5.3099999 14:2.2119999 15:3.7609999 16:4.4250002 17:3.319 18:6.8579998 19:3.319 20:4.8670001 #
-0.50000000297951763261750102174119 1:9.8269997 2:0.289 3:2.6010001 4:3.1789999 5:10.405 6:6.3579998 7:0.86699998 8:11.561 9:3.1789999 10:10.116 11:4.335 12:3.757 13:3.757 14:1.156 15:3.757 16:7.5139999 17:5.4910002 18:5.7800002 19:1.734 20:4.335 #
-0.50000000297951763261750102174119 1:7.3499999 2:2.0510001 3:3.7609999 4:4.1030002 5:8.3760004 6:6.8379998 7:1.026 8:7.6919999 9:4.1030002 10:9.0600004 11:3.9319999 12:4.4439998 13:5.6409998 14:2.9059999 15:4.1030002 16:7.1789999 17:5.6409998 18:6.8379998 19:1.709 20:3.2479999 #
-0.50000000297951763261750102174119 1:5.0749998 2:4.3280001 3:3.1340001 4:4.776 5:6.5669999 6:8.9549999 7:1.642 8:7.7610002 9:5.9699998 10:10.896 11:3.4330001 12:3.582 13:3.881 14:2.9849999 15:2.836 16:6.8660002 17:6.4180002 18:6.2690001 19:0.89600003 20:3.7309999 #
-0.43153675793574264307750354419113 1:7.8889999 2:3.625 3:2.132 4:3.4119999 5:5.757 6:7.0359998 7:2.559 8:3.198 9:0.426 10:17.697001 11:3.4119999 12:2.7720001 13:6.3969998 14:2.345 15:2.7720001 16:8.5290003 17:5.3299999 18:10.235 19:1.919 20:2.559 #
-0.50000000297951763261750102174119 1:5.8179998 2:3.273 3:4.7270002 4:2.5450001 5:8 6:10.182 7:0.727 8:4.7270002 9:1.818 10:13.818 11:2.9089999 12:5.8179998 13:3.6359999 14:2.1819999 15:2.5450001 16:9.0909996 17:7.6360002 18:4.7270002 19:1.818 20:4 #
-0.070342919673516940415325393587409 1:3.5969999 2:0.36000001 3:2.158 4:4.3169999 5:6.1149998 6:3.5969999 7:2.158 8:6.1149998 9:11.511 10:14.748 11:3.957 12:4.3169999 13:3.237 14:2.5179999 15:3.5969999 16:6.1149998 17:4.6760001 18:6.835 19:3.5969999 20:6.4749999 #
-0.50000000297951763261750102174119 1:7.5 2:0 3:3.8889999 4:2.5 5:5.2779999 6:9.1669998 7:0.55599999 8:5.8330002 9:4.7220001 10:12.778 11:5.2779999 12:2.5 13:4.4439998 14:5.5560002 15:3.8889999 16:7.7779999 17:5 18:8.0559998 19:1.6670001 20:3.6110001 #
-0.50000000297951763261750102174119 1:7.8239999 2:1.145 3:4.198 4:5.1529999 5:4.9619999 6:7.0609999 7:0.382 8:9.5419998 9:5.5339999 10:10.496 11:4.198 12:3.8169999 13:3.244 14:2.6719999 15:3.053 16:6.2979999 17:7.2519999 18:10.305 19:0.76300001 20:2.099 #
-0.50000000297951763261750102174119 1:9.6459999 2:0.96499997 3:1.929 4:3.5369999 5:7.0739999 6:12.54 7:0.64300001 8:6.1090002 9:6.1090002 10:10.932 11:2.2509999 12:2.2509999 13:4.823 14:3.859 15:2.2509999 16:9.0030003 17:6.4310002 18:5.4660001 19:0 20:4.1799998 #
-0.50000000297951763261750102174119 1:5.7579999 2:2.687 3:4.415 4:4.415 5:7.678 6:8.4449997 7:1.919 8:7.869 9:3.6470001 10:9.0209999 11:1.919 12:3.0710001 13:3.0710001 14:1.727 15:3.0710001 16:9.9809999 17:7.4860001 18:7.678 19:1.727 20:4.415 #
-0.50000000297951763261750102174119 1:8.9390001 2:1.117 3:5.0279999 4:6.4250002 5:6.8439999 6:6.4250002 7:1.117 8:6.006 9:5.1680002 10:7.961 11:3.073 12:5.8660002 13:2.3740001 14:3.2119999 15:4.888 16:7.1230001 17:5.7259998 18:7.402 19:1.117 20:4.1900001 #
-0.50000000297951763261750102174119 1:4.5580001 2:2.849 3:3.4189999 4:3.1340001 5:7.4070001 6:4.2740002 7:2.279 8:6.8379998 9:5.698 10:13.39 11:3.1340001 12:3.704 13:1.994 14:4.2740002 15:2.279 16:7.1230001 17:6.8379998 18:9.4020004 19:2.5639999 20:4.8429999 #
-0.50000000297951763261750102174119 1:8.1049995 2:1.256 3:2.6259999 4:4.1100001 5:4.224 6:6.6209998 7:2.5109999 8:7.0780001 9:3.881 10:14.954 11:1.598 12:2.74 13:5.5939999 14:2.8540001 15:4.1100001 16:8.1049995 17:5.4790001 18:7.5339999 19:3.425 20:3.1960001 #
-0.50000000297951763261750102174119 1:7.1960001 2:1.845 3:2.03 4:4.428 5:5.9039998 6:7.934 7:1.661 8:6.4580002 9:3.6900001 10:13.653 11:2.7679999 12:3.3210001 13:6.4580002 14:3.1370001 15:4.6129999 16:7.934 17:6.0890002 18:6.0890002 19:2.214 20:2.5829999 #
-0.50000000297951763261750102174119 1:11.132 2:0.377 3:3.2079999 4:4.151 5:7.3579998 6:7.3579998 7:2.4530001 8:8.4910002 9:2.8299999 10:14.34 11:3.3959999 12:3.0190001 13:3.585 14:2.8299999 15:2.4530001 16:5.283 17:4.9060001 18:9.434 19:1.132 20:2.2639999 #
-0.50000000297951763261750102174119 1:5.902 2:0.574 3:5.2459998 4:5.9840002 5:3.934 6:5.9840002 7:1.6390001 8:6.3930001 9:6.4749999 10:10.082 11:1.967 12:6.5570002 13:4.0159998 14:3.115 15:4.6719999 16:10.984 17:7.7049999 18:5.902 19:0.41 20:2.4590001 #
-0.50000000297951763261750102174119 1:7.3730001 2:0.92199999 3:0 4:1.8430001 5:5.5300002 6:4.6079998 7:0.461 8:8.2950001 9:5.5300002 10:17.972 11:2.7650001 12:3.2260001 13:4.6079998 14:3.687 15:3.687 16:9.217 17:3.2260001 18:8.7559996 19:1.382 20:6.9120002 #
-0.47181303723712231246167903009336 1:5.8379998 2:1.015 3:2.03 4:1.777 5:9.3909998 6:4.5689998 7:1.523 8:11.168 9:3.046 10:16.750999 11:1.2690001 12:4.0609999 13:4.822 14:3.046 15:2.5380001 16:9.8979998 17:3.8069999 18:6.3449998 19:2.03 20:5.0760002 #
-0.50000000297951763261750102174119 1:11.156 2:1.623 3:2.0280001 4:3.043 5:5.6799998 6:9.1280003 7:1.42 8:7.5050001 9:2.8399999 10:13.387 11:3.8540001 12:3.651 13:2.434 14:2.8399999 15:3.651 16:6.2880001 17:4.2600002 18:7.7080002 19:2.434 20:5.0710001 #
-0.50000000297951763261750102174119 1:9.4879999 2:0.99900001 3:3.2460001 4:4.619 5:5.618 6:7.6149998 7:2.497 8:7.6149998 9:3.6199999 10:9.8629999 11:2.8710001 12:2.497 13:4.3699999 14:2.622 15:5.368 16:7.3660002 17:5.243 18:9.2379999 19:1.124 20:4.1199999 #
-0.50000000297951763261750102174119 1:8.8549995 2:1.728 3:3.24 4:4.1040001 5:5.4000001 6:7.9910002 7:1.512 8:8.6389999 9:3.6719999 10:15.119 11:1.728 12:4.3200002 13:2.8080001 14:3.6719999 15:2.592 16:7.9910002 17:5.184 18:7.559 19:1.512 20:2.3759999 #
-0.50000000297951763261750102174119 1:8.1450005 2:0.60299999 3:3.017 4:3.017 5:8.7480001 6:9.3509998 7:3.017 8:9.3509998 9:3.017 10:9.2010002 11:4.9770002 12:3.1670001 13:4.223 14:1.961 15:2.5639999 16:4.072 17:6.033 18:8.5970001 19:3.9219999 20:3.017 #
-0.50000000297951763261750102174119 1:7.1020002 2:3.125 3:0.28400001 4:5.9660001 5:7.9549999 6:6.25 7:1.42 8:6.25 9:2.273 10:7.6700001 11:4.2610002 12:4.8299999 13:5.3979998 14:2.5569999 15:2.8410001 16:7.3860002 17:7.9549999 18:8.8070002 19:1.989 20:5.6820002 #
-0.03015422057135971195540591338613 1:7.2290001 2:0 3:4.8189998 4:4.8189998 5:2.4100001 6:7.2290001 7:1.205 8:6.0240002 9:1.205 10:4.8189998 11:3.6140001 12:9.6389999 13:2.4100001 14:6.0240002 15:10.843 16:10.843 17:3.6140001 18:8.434 19:0 20:4.8189998 #
-0.50000000297951763261750102174119 1:7.3660002 2:2.026 3:2.21 4:2.947 5:8.4709997 6:8.6560001 7:1.6569999 8:10.313 9:4.6040001 10:12.523 11:2.5780001 12:4.2360001 13:2.5780001 14:2.7620001 15:1.289 16:9.9449997 17:5.7090001 18:5.1570001 19:1.6569999 20:3.3150001 #
-0.50000000297951763261750102174119 1:8.4580002 2:1.493 3:3.8139999 4:4.4780002 5:6.302 6:7.4629998 7:1.327 8:7.131 9:4.3119998 10:10.945 11:2.322 12:4.4780002 13:3.8139999 14:1.493 15:3.98 16:9.6190004 17:6.6329999 18:7.2969999 19:2.1559999 20:2.4879999 #
-0.50000000297951763261750102174119 1:9.0030003 2:0.64300001 3:4.1799998 4:2.4119999 5:5.145 6:10.129 7:2.0899999 8:6.27 9:3.5369999 10:9.4860001 11:3.859 12:5.4660001 13:5.6269999 14:2.572 15:4.3410001 16:9.3249998 17:4.823 18:6.4310002 19:1.447 20:3.2149999 #
-0.32823769911515310315763827020419 1:8.5270004 2:1.55 3:2.7130001 4:5.8140001 5:8.5270004 6:4.2639999 7:1.163 8:7.3639998 9:3.1010001 10:12.791 11:3.4879999 12:1.938 13:6.2020001 14:2.326 15:3.4879999 16:6.5890002 17:4.651 18:10.853 19:0.77499998 20:3.8759999 #
-0.50000000297951763261750102174119 1:13.406 2:0.36199999 3:1.087 4:5.4349999 5:8.3330002 6:9.0579996 7:1.812 8:6.5219998 9:1.812 10:13.406 11:3.6229999 12:1.812 13:2.8989999 14:3.6229999 15:4.348 16:4.71 17:3.2609999 18:9.4200001 19:3.6229999 20:1.449 #
-0.50000000297951763261750102174119 1:8.0310001 2:3.4649999 3:3.4649999 4:3.3069999 5:6.6139998 6:9.4490004 7:1.102 8:5.3540001 9:3.1500001 10:11.496 11:2.9920001 12:2.9920001 13:5.197 14:2.0469999 15:2.9920001 16:5.3540001 17:4.724 18:9.4490004 19:3.78 20:5.039 #
-0.50000000297951763261750102174119 1:11.654 2:1.316 3:2.8199999 4:5.0749998 5:4.1350002 6:9.3979998 7:1.316 8:6.7670002 9:3.5710001 10:12.97 11:2.256 12:3.7590001 13:4.8870001 14:2.256 15:3.3829999 16:7.1430001 17:6.0149999 18:9.2110004 19:0.56400001 20:1.5039999 #
-0.11115987026559120964819271648594 1:9.7980003 2:0.62199998 3:5.3649998 4:5.677 5:5.21 6:8.5539999 7:1.011 8:7.6209998 9:6.3759999 10:9.4090004 11:2.3329999 12:2.799 13:2.4879999 14:4.0440001 15:4.1209998 16:8.7089996 17:5.2880001 18:7.8540001 19:0.69999999 20:2.0220001 #
-0.50000000297951763261750102174119 1:8.2189999 2:1.918 3:3.927 4:5.5710001 5:5.388 6:8.3109999 7:1.6440001 8:8.0369997 9:6.119 10:8.6759996 11:2.648 12:5.2049999 13:3.744 14:2.74 15:3.744 16:6.941 17:4.658 18:7.8540001 19:1.553 20:3.105 #
-0.50000000297951763261750102174119 1:6.0300002 2:1.7589999 3:3.266 4:1.7589999 5:7.789 6:6.7839999 7:1.508 8:8.7939997 9:3.266 10:13.819 11:5.7789998 12:4.5229998 13:2.7639999 14:2.513 15:3.266 16:7.5380001 17:5.0250001 18:7.5380001 19:1.508 20:4.7740002 #
-0.23225673216052883374160842322453 1:8.3330002 2:1.852 3:3.704 4:3.704 5:6.4809999 6:9.2589998 7:1.852 8:0.926 9:4.6300001 10:10.185 11:3.704 12:2.7780001 13:3.704 14:5.5560002 15:4.6300001 16:7.4070001 17:5.5560002 18:11.111 19:1.852 20:2.7780001 #
-0.35970466970107178861226771005022 1:14.667 2:1 3:3.3329999 4:3 5:5.3330002 6:13 7:0.667 8:2.3329999 9:5.3330002 10:8.3330002 11:3 12:1.3329999 13:5 14:4 15:4.3330002 16:7 17:6 18:8.6669998 19:0.667 20:3 #
-0.50000000297951763261750102174119 1:10.738 2:1.007 3:3.3559999 4:3.02 5:6.04 6:8.3889999 7:2.6849999 8:6.711 9:2.6849999 10:7.3829999 11:3.691 12:3.691 13:4.362 14:3.02 15:3.3559999 16:8.7250004 17:7.3829999 18:9.7320004 19:1.678 20:2.349 #
-0.50000000297951763261750102174119 1:9.132 2:1.142 3:1.598 4:3.425 5:6.849 6:11.644 7:1.142 8:12.329 9:5.0229998 10:13.014 11:3.6530001 12:2.5109999 13:3.425 14:1.37 15:1.826 16:6.164 17:5.4790001 18:5.2509999 19:1.598 20:3.425 #
-0.50000000297951763261750102174119 1:9.3100004 2:3.21 3:3.21 4:3.3710001 5:7.0630002 6:9.9519997 7:1.124 8:5.2969999 9:2.8889999 10:9.6309996 11:2.7290001 12:2.8889999 13:3.3710001 14:2.7290001 15:3.05 16:7.5440001 17:7.3839998 18:9.3100004 19:2.0869999 20:3.852 #
-0.50000000297951763261750102174119 1:9.2729998 2:2.3640001 3:2.9089999 4:3.0910001 5:5.4549999 6:7.2729998 7:0.90899998 8:5.2729998 9:2.727 10:14.727 11:3.273 12:1.818 13:5.2729998 14:5.0910001 15:4.9089999 16:8.3640003 17:6.5450001 18:7.0910001 19:2.3640001 20:1.273 #
-0.50000000297951763261750102174119 1:6.4450002 2:2.2869999 3:2.911 4:2.2869999 5:4.3660002 6:6.6529999 7:2.079 8:8.1079998 9:3.7420001 10:14.969 11:3.119 12:3.326 13:5.198 14:3.326 15:2.911 16:9.1479998 17:6.0289998 18:9.3559999 19:1.04 20:2.7030001 #
-0.22216013302701798082239292853046 1:8.4460001 2:2.365 3:2.365 4:3.885 5:5.743 6:7.0949998 7:0.84500003 8:6.4190001 9:3.5469999 10:13.007 11:3.0409999 12:4.223 13:3.7160001 14:3.2090001 15:2.365 16:8.2770004 17:5.4050002 18:7.4320002 19:2.7030001 20:5.9120002 #
-0.50000000297951763261750102174119 1:2.767 2:1.779 3:3.7550001 4:4.1500001 5:8.4980001 6:6.1259999 7:1.383 8:7.7080002 9:5.336 10:12.846 11:2.569 12:3.9530001 13:2.767 14:1.976 15:4.1500001 16:9.8809996 17:7.1149998 18:8.1029997 19:0.98799998 20:4.1500001 #
-0.37653968592479769572634040741832 1:4.2449999 2:3.302 3:3.302 4:4.717 5:8.9619999 6:5.4250002 7:1.179 8:10.849 9:6.368 10:10.849 11:2.8299999 12:7.5469999 13:1.651 14:2.358 15:4.0089998 16:6.8400002 17:4.9530001 18:5.8959999 19:0.472 20:4.2449999 #
-0.3740526469325275438215783196938 1:14.286 2:0.75199997 3:3.3829999 4:2.444 5:4.5110002 6:8.4589996 7:0.75199997 8:9.0229998 9:0.94 10:12.97 11:2.256 12:1.88 13:6.7670002 14:1.316 15:6.2030001 16:5.0749998 17:4.323 18:11.842 19:1.5039999 20:1.316 #
-0.50000000297951763261750102174119 1:9.6459999 2:0.39399999 3:2.165 4:1.969 5:7.0869999 6:7.8740001 7:1.772 8:9.0550003 9:2.559 10:14.173 11:4.3309999 12:2.756 13:6.8899999 14:2.165 15:2.756 16:7.8740001 17:3.346 18:9.2519999 19:1.575 20:2.362 #
-0.50000000297951763261750102174119 1:10.239 2:1.706 3:0.68300003 4:1.706 5:5.802 6:10.58 7:1.365 8:8.191 9:1.706 10:15.358 11:2.3889999 12:3.4130001 13:3.7539999 14:2.0480001 15:2.3889999 16:6.8260002 17:6.4850001 18:7.8499999 19:3.072 20:4.4369998 #
-0.50000000297951763261750102174119 1:9.7919998 2:0.29699999 3:3.2639999 4:4.1539998 5:6.2309999 6:5.3410001 7:1.484 8:9.1990004 9:4.7480001 10:11.573 11:2.967 12:3.2639999 13:4.7480001 14:4.7480001 15:5.638 16:6.5279999 17:6.5279999 18:5.0450001 19:2.3740001 20:2.0769999 #
-0.45312660717411823441125306999311 1:7.2459998 2:3.865 3:3.865 4:3.382 5:8.2130003 6:7.2459998 7:2.415 8:6.2800002 9:1.449 10:14.01 11:1.932 12:2.415 13:2.8989999 14:5.7969999 15:3.382 16:6.763 17:3.865 18:6.763 19:2.8989999 20:5.3140001 #
-0.19906977511038270733934041345492 1:5.671 2:1.512 3:4.915 4:7.3720002 5:7.3720002 6:10.019 7:1.1339999 8:5.671 9:1.701 10:10.019 11:1.701 12:2.457 13:6.6160002 14:4.5370002 15:6.994 16:6.994 17:4.915 18:6.6160002 19:0.75599998 20:3.0250001 #
-0.50000000297951763261750102174119 1:7.8169999 2:1.887 3:4.717 4:6.8730001 5:7.8169999 6:10.243 7:2.0220001 8:4.178 9:3.5039999 10:9.5690002 11:2.9649999 12:2.5610001 13:2.8299999 14:3.0999999 15:5.526 16:7.5469999 17:4.3130002 18:7.1430001 19:1.887 20:3.5039999 #
-0.50000000297951763261750102174119 1:12.457 2:1.3839999 3:3.1140001 4:3.1140001 5:6.5739999 6:12.111 7:2.076 8:8.9969997 9:4.152 10:7.612 11:1.73 12:2.7679999 13:5.1900001 14:2.4219999 15:3.806 16:4.8439999 17:5.5359998 18:6.9200001 19:1.73 20:3.46 #
-0.50000000297951763261750102174119 1:11.085 2:1.887 3:2.5940001 4:1.415 5:5.8959999 6:9.198 7:0.94300002 8:3.7739999 9:2.1229999 10:17.452999 11:3.5380001 12:0.708 13:5.6599998 14:4.0089998 15:4.9530001 16:8.0190001 17:5.4250002 18:8.9619999 19:0.472 20:1.887 #
-0.50000000297951763261750102174119 1:12.167 2:1.141 3:0.75999999 4:3.4219999 5:6.8439999 6:9.8859997 7:2.2809999 8:3.4219999 9:1.141 10:14.449 11:1.901 12:3.0420001 13:4.9429998 14:3.0420001 15:4.9429998 16:7.224 17:4.9429998 18:9.5059996 19:1.901 20:3.0420001 #
-0.50000000297951763261750102174119 1:7.052 2:1.693 3:3.526 4:3.9489999 5:6.3470001 6:7.4749999 7:1.834 8:7.757 9:5.2189999 10:8.4630003 11:3.526 12:4.9369998 13:4.3720002 14:4.7950001 15:2.6800001 16:7.052 17:5.783 18:8.6040001 19:1.2690001 20:3.6670001 #
-0.50000000297951763261750102174119 1:7.5469999 2:2.9159999 3:3.2590001 4:3.7739999 5:6.6900001 6:8.2329998 7:1.372 8:9.2620001 9:3.431 10:9.2620001 11:2.744 12:3.2590001 13:3.602 14:2.0580001 15:4.2880001 16:10.806 17:4.2880001 18:7.033 19:1.715 20:4.46 #
-0.50000000297951763261750102174119 1:7.302 2:2.8570001 3:2.8570001 4:4.2859998 5:6.8249998 6:7.9369998 7:1.1109999 8:8.8889999 9:3.3329999 10:9.6829996 11:1.905 12:3.4920001 13:4.7620001 14:2.8570001 15:3.016 16:6.5079999 17:7.302 18:7.1430001 19:3.016 20:4.921 #
-0.22592538383176025140741671748401 1:10.876 2:0.60399997 3:8.1569996 4:4.8340001 5:2.115 6:8.4589996 7:2.115 8:6.9489999 9:3.625 10:11.178 11:2.7190001 12:1.511 13:3.927 14:2.4170001 15:8.7609997 16:5.7399998 17:6.0419998 18:8.1569996 19:0.60399997 20:1.2079999 #
-0.50000000297951763261750102174119 1:9.573 2:1.552 3:4.2690001 4:4.1399999 5:4.9159999 6:7.6329999 7:1.552 8:7.3740001 9:2.846 10:12.807 11:3.7520001 12:3.881 13:3.7520001 14:3.493 15:4.3979998 16:6.8559999 17:5.3039999 18:7.7620001 19:1.164 20:2.9749999 #
-0.35959082096196703925983229055419 1:11.228 2:1.404 3:6.6669998 4:5.6139998 5:3.8599999 6:5.9650002 7:0.35100001 8:6.316 9:6.6669998 10:7.7189999 11:2.8069999 12:4.211 13:2.8069999 14:6.316 15:4.9120002 16:5.263 17:4.5609999 18:10.175 19:0.35100001 20:2.8069999 #
-0.50000000297951763261750102174119 1:6.1680002 2:3.454 3:4.441 4:6.25 5:3.207 6:7.237 7:2.385 8:7.8119998 9:6.3319998 10:7.895 11:1.562 12:4.1939998 13:2.796 14:2.549 15:4.5229998 16:11.184 17:6.579 18:8.9639997 19:0.493 20:1.974 #
-0.24023023911507357386341254823492 1:9.7010002 2:0.74599999 3:3.7309999 4:8.2089996 5:4.4780002 6:2.2390001 7:2.9849999 8:2.9849999 9:3.7309999 10:8.2089996 11:5.224 12:2.9849999 13:3.7309999 14:3.7309999 15:8.2089996 16:3.7309999 17:7.4629998 18:11.94 19:0.74599999 20:5.224 #
-0.34167443360690008535840433978592 1:13.211 2:2.2360001 3:5.0809999 4:6.098 5:3.049 6:8.3330002 7:1.829 8:1.626 9:2.642 10:11.179 11:2.642 12:2.2360001 13:6.5040002 14:3.4549999 15:6.5040002 16:5.2849998 17:3.862 18:10.366 19:2.033 20:1.829 #
-0.50000000297951763261750102174119 1:8.9829998 2:1.525 3:4.0679998 4:3.898 5:5.9320002 6:8.1359997 7:1.525 8:6.1020002 9:4.5760002 10:13.22 11:2.3729999 12:2.5420001 13:3.898 14:2.7119999 15:4.4070001 16:5.763 17:7.7969999 18:7.4580002 19:1.6950001 20:3.3900001 #
-0.50000000297951763261750102174119 1:10.117 2:0.19499999 3:2.529 4:4.086 5:6.6149998 6:7.7820001 7:1.946 8:5.447 9:2.1400001 10:13.035 11:5.0580001 12:2.529 13:4.4749999 14:5.8369999 15:4.2800002 16:4.8639998 17:5.6420002 18:6.4200001 19:3.5020001 20:3.5020001 #
-0.50000000297951763261750102174119 1:7.1430001 2:1.323 3:2.9100001 4:2.1159999 5:7.4070001 6:8.7299995 7:0.52899998 8:6.349 9:1.587 10:16.931 11:4.2329998 12:2.6459999 13:5.2909999 14:2.381 15:4.4970002 16:5.5560002 17:3.9679999 18:8.9949999 19:4.4970002 20:2.9100001 #
-0.50000000297951763261750102174119 1:6.9910002 2:0.375 3:2.247 4:2.497 5:8.4890003 6:6.6170001 7:2.372 8:10.986 9:3.8699999 10:13.483 11:3.4960001 12:3.7449999 13:3.3710001 14:2.8710001 15:2.122 16:8.1149998 17:6.1170001 18:6.8660002 19:1.248 20:4.1199999 #
-0.50000000297951763261750102174119 1:5.8369999 2:0.389 3:3.1129999 4:8.5600004 5:3.5020001 6:8.1709995 7:3.5020001 8:5.0580001 9:6.2259998 10:11.673 11:3.1129999 12:3.891 13:3.5020001 14:6.6149998 15:5.8369999 16:6.6149998 17:3.5020001 18:9.3389997 19:0.389 20:1.1670001 #
-0.35895920667506775458832635194995 1:4.6919999 2:1.466 3:2.6389999 4:1.76 5:5.8649998 6:9.3839998 7:1.173 8:7.3309999 9:1.76 10:8.5039997 11:2.6389999 12:6.158 13:5.572 14:3.812 15:6.158 16:8.7980003 17:9.677 18:4.9850001 19:2.6389999 20:4.9850001 #
-0.38378232279549495675752268653014 1:11.886 2:4.1339998 3:2.0669999 4:1.55 5:4.3930001 6:8.7860003 7:2.842 8:4.651 9:1.55 10:14.47 11:1.55 12:2.326 13:5.6849999 14:2.0669999 15:6.9770002 16:7.2350001 17:4.9099998 18:7.7519999 19:2.0669999 20:3.1010001 #
-0.50000000297951763261750102174119 1:10.882 2:1.313 3:2.8139999 4:4.5029998 5:7.3169999 6:9.5679998 7:0.93800002 8:8.4429998 9:3.3770001 10:8.6300001 11:3.0020001 12:5.066 13:2.8139999 14:1.876 15:2.0639999 16:7.6919999 17:4.8779998 18:7.3169999 19:2.8139999 20:4.6900001 #
-0.24667584097422229350016209536989 1:10.959 2:2.283 3:2.5880001 4:4.566 5:6.849 6:6.849 7:0.60900003 8:5.4790001 9:3.5009999 10:13.242 11:3.0439999 12:2.74 13:4.1100001 14:2.74 15:3.6530001 16:7.6100001 17:5.9359999 18:7.915 19:1.522 20:3.8050001 #
-0.2975410498096493494557535086642 1:4.2210002 2:1.948 3:1.948 4:1.299 5:8.7659998 6:3.5710001 7:2.9219999 8:6.494 9:2.273 10:17.532 11:3.247 12:4.2210002 13:2.9219999 14:3.247 15:5.8439999 16:10.39 17:4.8699999 18:7.1430001 19:4.2210002 20:2.9219999 #
-0.26395358046315264832770708380849 1:8.2349997 2:1.373 3:2.549 4:3.3329999 5:6.2750001 6:4.5100002 7:2.3529999 8:4.7059999 9:5.2940001 10:16.667 11:0.78399998 12:3.3329999 13:4.7059999 14:5.4899998 15:5.6859999 16:5.4899998 17:4.902 18:7.2550001 19:1.373 20:5.6859999 #
-0.23275188360897083872380619595788 1:9.8839998 2:0.29100001 3:1.744 4:2.6159999 5:4.0700002 6:6.105 7:0.87199998 8:10.465 9:1.744 10:19.476999 11:4.9419999 12:3.779 13:4.9419999 14:3.779 15:3.4879999 16:4.651 17:4.0700002 18:9.5930004 19:1.4529999 20:2.0350001 #
-0.50000000297951763261750102174119 1:13.474 2:0.63200003 3:2.947 4:2.737 5:5.053 6:11.368 7:1.684 8:5.895 9:3.579 10:11.368 11:2.947 12:2.947 13:4.842 14:2.947 15:2.105 16:4.632 17:5.053 18:8.4209995 19:3.579 20:3.789 #
-0.50000000297951763261750102174119 1:12.584 2:1.798 3:2.247 4:0.89899999 5:4.9439998 6:10.337 7:0.89899999 8:8.0900002 9:2.921 10:11.011 11:3.3710001 12:3.3710001 13:4.9439998 14:1.124 15:2.247 16:6.5170002 17:6.0669999 18:10.337 19:2.4719999 20:3.8199999 #
-0.50000000297951763261750102174119 1:8.3500004 2:1.942 3:3.4949999 4:3.3010001 5:5.0489998 6:8.3500004 7:1.359 8:8.9320002 9:3.3010001 10:11.845 11:4.8540001 12:3.3010001 13:5.8249998 14:2.5239999 15:2.9130001 16:8.3500004 17:5.243 18:6.796 19:0.97100002 20:3.3010001 #
-0.45414590867156012787830832166946 1:7.6220002 2:0.30500001 3:2.4389999 4:3.6589999 5:6.098 6:6.098 7:1.524 8:6.098 9:7.3169999 10:12.195 11:2.4389999 12:4.573 13:2.744 14:4.8779998 15:3.3540001 16:9.4510002 17:7.6220002 18:7.3169999 19:0.91500002 20:3.3540001 #
-0.26800057797587772956404705837485 1:6.8969998 2:1.5089999 3:4.3099999 4:4.0949998 5:4.7410002 6:7.3280001 7:1.9400001 8:6.0339999 9:5.388 10:11.422 11:3.664 12:4.526 13:3.448 14:3.664 15:5.8189998 16:4.7410002 17:5.1719999 18:9.9139996 19:2.802 20:2.586 #
-0.50000000297951763261750102174119 1:6.4650002 2:1.926 3:2.8889999 4:5.5019999 5:6.8779998 6:7.428 7:1.651 8:6.052 9:4.402 10:11.004 11:3.3010001 12:3.9890001 13:5.0890002 14:2.3380001 15:3.026 16:8.1160002 17:4.9520001 18:8.8030005 19:1.926 20:4.2639999 #
-0.33676193236429657895669720346632 1:11.875 2:3.75 3:1.875 4:1.25 5:5 6:13.75 7:0 8:10 9:1.875 10:13.75 11:1.875 12:1.25 13:3.125 14:3.75 15:2.5 16:6.25 17:3.75 18:10.625 19:0 20:3.75 #
-0.50000000297951763261750102174119 1:10.409 2:1.487 3:4.8330002 4:2.23 5:4.8330002 6:10.037 7:1.859 8:8.5500002 9:2.974 10:12.268 11:1.115 12:4.0890002 13:2.602 14:2.974 15:4.0890002 16:8.5500002 17:5.5760002 18:8.1780005 19:1.487 20:1.859 #
-0.44424001657828215972045882153907 1:9.7089996 2:0.97100002 3:4.2069998 4:2.589 5:6.796 6:11.974 7:0.324 8:6.4720001 9:6.796 10:7.4429998 11:1.618 12:3.5599999 13:1.942 14:3.5599999 15:5.5019999 16:7.4429998 17:5.5019999 18:8.4139996 19:1.618 20:3.5599999 #
-0.19371124351516377792847833916312 1:8.6680002 2:2.1140001 3:3.171 4:2.96 5:5.2849998 6:6.342 7:1.48 8:9.7250004 9:4.8629999 10:14.799 11:1.691 12:3.5940001 13:4.0170002 14:2.7479999 15:2.1140001 16:7.1880002 17:5.4970002 18:8.2449999 19:0.84600002 20:4.651 #
-0.50000000297951763261750102174119 1:4.7420001 2:2.062 3:3.5050001 4:3.918 5:6.8039999 6:6.1859999 7:1.443 8:8.2469997 9:5.1550002 10:13.608 11:3.711 12:4.3299999 13:2.6800001 14:2.474 15:2.062 16:9.2779999 17:7.2160001 18:8.4540005 19:0.61900002 20:3.5050001 #
-0.41983705153876937909984690122656 1:4.651 2:1.395 3:1.86 4:3.721 5:6.9770002 6:7.9070001 7:2.326 8:8.8369999 9:2.7909999 10:10.233 11:4.1859999 12:1.86 13:4.1859999 14:2.326 15:4.651 16:6.5120001 17:7.9070001 18:10.233 19:2.7909999 20:4.651 #
-0.27869691232593091223534997880051 1:9.4119997 2:1.569 3:6.2750001 4:8.6269999 5:1.176 6:6.6669998 7:0.78399998 8:5.4899998 9:9.8039999 10:10.588 11:1.961 12:1.569 13:5.098 14:3.529 15:5.882 16:2.3529999 17:5.882 18:12.157 19:0.39199999 20:0.78399998 #
-0.28199042173779553799306540895486 1:8.2089996 2:1.493 3:3.98 4:9.2040005 5:1.493 6:8.7060003 7:2.2390001 8:7.2140002 9:4.9749999 10:8.7060003 11:3.483 12:2.9849999 13:5.7210002 14:1.7410001 15:6.7160001 16:3.98 17:5.473 18:9.7010002 19:0.249 20:3.7309999 #
-0.34496156427424745638532499469875 1:5.4980001 2:0 3:2.7490001 4:2.7490001 5:9.6219997 6:10.653 7:1.7180001 8:8.2469997 9:1.031 10:10.997 11:4.1240001 12:3.0929999 13:6.5289998 14:4.1240001 15:6.1859999 16:5.1550002 17:2.7490001 18:7.5599999 19:2.7490001 20:4.467 #
-0.50000000297951763261750102174119 1:9.2189999 2:0.78100002 3:3.438 4:3.5940001 5:5.4689999 6:8.2810001 7:1.719 8:6.4060001 9:3.438 10:9.8439999 11:4.0619998 12:5.3119998 13:6.0939999 14:3.125 15:4.0619998 16:9.375 17:5.3119998 18:6.25 19:1.562 20:2.6559999 #
-0.35536641171160493479774800107407 1:4.5120001 2:3.0569999 3:3.493 4:3.9300001 5:6.987 6:8.2969999 7:1.747 8:8.151 9:6.2589998 10:9.8979998 11:2.766 12:4.803 13:4.803 14:2.766 15:3.493 16:8.7340002 17:5.9679999 18:4.803 19:0.87300003 20:4.658 #
-0.45464925712002546287493487398024 1:7.4920001 2:1.6289999 3:3.257 4:3.9089999 5:4.8860002 6:8.4689999 7:0.32600001 8:6.5149999 9:8.7950001 10:7.4920001 11:4.5599999 12:4.5599999 13:4.2350001 14:3.257 15:4.5599999 16:6.5149999 17:5.8629999 18:8.4689999 19:0.977 20:4.2350001 #
-0.26641310950368463084103609617159 1:6.7729998 2:0.79699999 3:2.3900001 4:5.1789999 5:6.375 6:7.9679999 7:1.1950001 8:1.1950001 9:3.187 10:17.530001 11:1.992 12:3.586 13:4.382 14:1.992 15:6.7729998 16:9.96 17:3.187 18:10.757 19:1.992 20:2.789 #
-0.42875294327623048040720732387854 1:12 2:0.667 3:4 4:2 5:5 6:8.3330002 7:1 8:6 9:1.6670001 10:15.333 11:4.3330002 12:3.6670001 13:5.6669998 14:3.3329999 15:4 16:4.3330002 17:3.3329999 18:11 19:2 20:2.3329999 #
-0.50000000297951763261750102174119 1:4.3049998 2:1.37 3:5.0879998 4:8.0229998 5:7.632 6:6.2620001 7:0.97799999 8:8.0229998 9:3.523 10:8.2189999 11:2.74 12:4.5009999 13:5.4790001 14:2.9349999 15:5.6750002 16:8.2189999 17:6.2620001 18:7.2410002 19:0.97799999 20:2.5439999 #
-0.50000000297951763261750102174119 1:9.2250004 2:2.7679999 3:2.3989999 4:4.059 5:6.4580002 6:7.1960001 7:0.92299998 8:7.3800001 9:4.9819999 10:12.731 11:1.661 12:3.506 13:3.6900001 14:2.5829999 15:4.7969999 16:7.5650001 17:6.6420002 18:6.6420002 19:1.107 20:3.6900001 #
-0.50000000297951763261750102174119 1:8.8380003 2:0.98199999 3:3.273 4:4.7459998 5:6.5469999 6:7.3649998 7:1.473 8:9.9840002 9:4.2550001 10:7.5289998 11:1.964 12:4.9099998 13:3.7639999 14:3.1099999 15:3.437 16:7.3649998 17:5.0739999 18:8.3470001 19:2.619 20:4.4190001 #
-0.50000000297951763261750102174119 1:9.7770004 2:1.238 3:2.723 4:5.0739999 5:3.342 6:9.2819996 7:1.733 8:3.0940001 9:2.599 10:15.223 11:1.733 12:2.1040001 13:5.6929998 14:5.322 15:5.5689998 16:8.2919998 17:5.4460001 18:7.4260001 19:2.1040001 20:2.2279999 #
-0.2321215018603619839598906082756 1:10.599 2:2.257 3:3.1400001 4:5.2010002 5:3.3369999 6:9.7150002 7:4.3179998 8:2.4530001 9:1.472 10:15.505 11:0.98100001 12:1.276 13:8.4399996 14:4.4159999 15:5.9860001 16:8.4399996 17:3.631 18:6.9679999 19:1.178 20:0.68699998 #
-0.37538839062592160855658107720956 1:5.6960001 2:1.688 3:1.899 4:1.477 5:6.9619999 6:8.2279997 7:0.63300002 8:10.338 9:4.2189999 10:15.612 11:2.1099999 12:4.4299998 13:2.954 14:2.743 15:3.3759999 16:12.236 17:6.54 18:4.6409998 19:1.266 20:2.954 #
-0.26953473873243455338766239037795 1:14.173 2:0 3:1.575 4:3.937 5:2.362 6:7.8740001 7:0.787 8:7.0869999 9:3.1500001 10:14.961 11:3.1500001 12:1.575 13:1.575 14:1.575 15:7.0869999 16:3.1500001 17:8.6610003 18:13.386 19:2.362 20:1.575 #
-0.23555376235115665917163596532191 1:8.6689997 2:1.858 3:4.6440001 4:4.0250001 5:5.263 6:5.882 7:2.477 8:6.8109999 9:4.6440001 10:7.4299998 11:2.477 12:4.3340001 13:3.096 14:2.1670001 15:6.5019999 16:11.765 17:7.4299998 18:4.954 19:0.92900002 20:4.6440001 #
-0.46578283138012960273854901060986 1:10.87 2:3.2609999 3:2.174 4:3.2609999 5:7.8260002 6:5.652 7:1.522 8:6.3039999 9:3.4779999 10:13.043 11:2.826 12:3.6960001 13:5 14:2.826 15:3.4779999 16:8.2609997 17:5.4349999 18:7.6090002 19:1.522 20:1.957 #
-0.36825143046848729522224630272831 1:11.089 2:1.751 3:3.891 4:2.1400001 5:7.0040002 6:11.284 7:1.946 8:4.6690001 9:2.335 10:10.117 11:2.335 12:3.3069999 13:2.918 14:1.556 15:3.6960001 16:9.7279997 17:7.198 18:6.4200001 19:2.529 20:4.086 #
-0.48515497799284901248029200360179 1:10.131 2:0.32699999 3:2.6140001 4:1.961 5:5.882 6:7.8429999 7:1.6339999 8:10.131 9:3.9219999 10:13.399 11:4.5749998 12:2.941 13:5.882 14:1.307 15:4.2480001 16:5.882 17:4.5749998 18:7.8429999 19:0.98000002 20:3.9219999 #
-0.23044870775553685793290981109749 1:8.2130003 2:2.8989999 3:2.8989999 4:3.382 5:6.763 6:7.2459998 7:2.8989999 8:10.628 9:5.7969999 10:7.7290001 11:1.932 12:4.8309999 13:0.48300001 14:2.415 15:2.415 16:6.2800002 17:8.6960001 18:5.3140001 19:4.8309999 20:4.348 #
-0.20606833866386337072995615926629 1:15.254 2:1.13 3:5.085 4:9.6049995 5:3.3900001 6:4.52 7:1.13 8:5.6500001 9:4.52 10:10.169 11:3.9549999 12:3.3900001 13:1.6950001 14:5.085 15:6.2150002 16:6.7800002 17:2.26 18:9.04 19:0.565 20:0.565 #
-0.30517377496929593005958736284811 1:12.26 2:0.72100002 3:1.202 4:1.442 5:3.846 6:11.779 7:1.202 8:5.0479999 9:1.442 10:20.433001 11:4.0869999 12:1.923 13:5.5289998 14:3.365 15:3.365 16:6.4899998 17:5.7690001 18:6.7309999 19:1.923 20:1.442 #
-0.38581942676241715028950807209185 1:5.9250002 2:1.257 3:3.95 4:3.77 5:7.1810002 6:7.0019999 7:1.257 8:5.9250002 9:2.513 10:13.465 11:3.95 12:2.513 13:4.8470001 14:2.8729999 15:5.566 16:7.7199998 17:5.9250002 18:8.618 19:2.154 20:3.5910001 #
-0.50000000297951763261750102174119 1:7.5560002 2:0.222 3:4.4439998 4:5.1110001 5:4.8889999 6:7.7779999 7:1.556 8:5.5560002 9:4 10:14 11:3.3329999 12:4 13:4.4439998 14:3.556 15:3.7780001 16:6.8889999 17:6.4439998 18:7.5560002 19:2.8889999 20:2 #
-0.49762098702728135846129475794442 1:6.1360002 2:0.64600003 3:4.198 4:6.566 5:5.1669998 6:7.3200002 7:1.507 8:5.7049999 9:3.552 10:15.823 11:2.4760001 12:2.0450001 13:6.8889999 14:3.552 15:4.9520001 16:6.4590001 17:5.2740002 18:7.8579998 19:1.184 20:2.691 #
-0.20821233641595601748797150776227 1:2.326 2:1.163 3:2.9070001 4:2.326 5:5.2329998 6:5.8140001 7:2.326 8:7.5580001 9:6.9770002 10:8.7209997 11:1.744 12:4.0700002 13:4.651 14:4.651 15:6.395 16:13.372 17:5.8140001 18:9.8839998 19:1.163 20:2.9070001 #
-0.31557311469970594774991923259222 1:5.0630002 2:0.59600002 3:4.7049999 4:5.0630002 5:4.2290001 6:5.658 7:2.9779999 8:6.2540002 9:5.599 10:10.066 11:2.204 12:5.9559999 13:4.6459999 14:3.5739999 15:4.4070001 16:12.091 17:7.0879998 18:5.4790001 19:0.95300001 20:3.395 #
-0.25946948269853209456670128929545 1:8.9390001 2:0.55900002 3:2.2349999 4:2.2349999 5:10.056 6:3.352 7:1.117 8:8.9390001 9:6.704 10:14.525 11:2.793 12:2.793 13:3.352 14:3.352 15:2.2349999 16:3.352 17:5.0279999 18:10.056 19:3.911 20:4.4689999 #
-0.50000000297951763261750102174119 1:9.4139996 2:2.309 3:2.309 4:3.375 5:4.618 6:8.3479996 7:1.776 8:4.4400001 9:2.309 10:14.032 11:3.552 12:3.02 13:5.329 14:5.8610001 15:5.329 16:6.3940001 17:5.684 18:6.927 19:1.776 20:3.197 #
-0.48002658719500296280457973807643 1:9.6350002 2:2.99 3:2.99 4:3.322 5:6.3119998 6:9.6350002 7:0.33199999 8:4.651 9:6.3119998 10:10.631 11:3.654 12:2.99 13:3.987 14:4.3189998 15:3.987 16:7.6409998 17:5.316 18:6.3119998 19:0.66399997 20:4.3189998 #
-0.50000000297951763261750102174119 1:7.3790002 2:2.5239999 3:2.9130001 4:4.4660001 5:6.9899998 6:6.6020002 7:1.165 8:8.3500004 9:2.7179999 10:11.456 11:2.1359999 12:3.1070001 13:5.243 14:2.7179999 15:3.4949999 16:8.5439997 17:5.8249998 18:8.9320002 19:1.553 20:3.8829999 #
-0.28300126359306154721906523263897 1:6.0749998 2:1.869 3:7.4770002 4:8.1780005 5:5.6069999 6:4.9070001 7:2.5699999 8:6.0749998 9:6.776 10:9.5790005 11:3.5050001 12:3.7379999 13:3.5050001 14:5.3740001 15:5.8410001 16:4.6729999 17:3.5050001 18:8.4110003 19:0 20:2.336 #
-0.24549094888458705687739325185248 1:7.237 2:0.65799999 3:8.5530005 4:5.263 5:2.632 6:8.5530005 7:2.632 8:8.5530005 9:4.605 10:7.237 11:3.289 12:0.65799999 13:5.921 14:3.289 15:6.579 16:4.605 17:3.947 18:10.526 19:2.632 20:2.632 #
-0.18105165500283040835860504103039 1:5.9089999 2:2.273 3:5.9089999 4:6.3639998 5:2.727 6:6.8179998 7:0.45500001 8:5 9:4.0910001 10:6.3639998 11:5.4549999 12:5 13:6.3639998 14:5 15:7.2729998 16:4.5450001 17:4.0910001 18:10 19:1.818 20:4.5450001 #
-0.25867615481374106600753748352872 1:8.2969999 2:1.092 3:4.585 4:3.9300001 5:7.2049999 6:10.48 7:3.493 8:6.987 9:3.0569999 10:10.48 11:4.3670001 12:3.0569999 13:3.2750001 14:2.8380001 15:1.528 16:6.3319998 17:7.6420002 18:6.987 19:1.092 20:3.2750001 #
-0.39434855318054728989807244943222 1:12.078 2:1.558 3:3.8959999 4:4.026 5:6.2340002 6:10.649 7:0.77899998 8:8.5710001 9:4.2859998 10:8.7010002 11:2.727 12:2.987 13:3.3770001 14:1.169 15:1.948 16:7.5320001 17:6.494 18:8.8310003 19:1.039 20:3.1170001 #
-0.36107048993223472832525544617965 1:7.54 2:1.3890001 3:2.579 4:3.5710001 5:6.7459998 6:6.349 7:2.1830001 8:7.3410001 9:4.1669998 10:14.087 11:3.3729999 12:4.1669998 13:3.5710001 14:1.587 15:2.579 16:9.1269999 17:5.7540002 18:8.7299995 19:0.59500003 20:4.5630002 #
-0.14001483296395569877468290087563 1:5.2420001 2:1.613 3:4.4349999 4:4.8390002 5:4.8390002 6:5.2420001 7:3.2260001 8:9.677 9:5.645 10:6.855 11:2.4189999 12:11.694 13:0.403 14:6.855 15:0.80599999 16:8.4680004 17:7.2579999 18:8.4680004 19:0.403 20:1.613 #
-0.16293702984370897479671214114205 1:8.1079998 2:1.351 3:4.9549999 4:3.6040001 5:2.2520001 6:13.964 7:1.802 8:5.4050002 9:6.3060002 10:13.063 11:2.7030001 12:5.4050002 13:4.9549999 14:3.1530001 15:2.2520001 16:8.1079998 17:5.4050002 18:3.6040001 19:1.351 20:2.2520001 #
-0.340620915742559482453089003684 1:9.1470003 2:1.98 3:4.164 4:5.461 5:2.457 6:7.2350001 7:2.457 8:7.2350001 9:5.0510001 10:9.0100002 11:3.003 12:3.345 13:4.915 14:4.71 15:3.618 16:8.6009998 17:5.5970001 18:9.625 19:0.75099999 20:1.638 #
-0.4826334121151074629807453675312 1:6.0219998 2:1.505 3:4.3010001 4:5.8060002 5:5.8060002 6:7.527 7:1.29 8:8.3870001 9:5.3759999 10:10.968 11:1.9349999 12:4.5159998 13:2.796 14:2.796 15:3.0109999 16:11.828 17:4.5159998 18:6.237 19:1.505 20:3.8710001 #
-0.30476894495748613200802878964168 1:6.586 2:2.253 3:2.253 4:4.506 5:6.2389998 6:7.6259999 7:2.0799999 8:4.6789999 9:3.6400001 10:12.305 11:2.773 12:3.4660001 13:2.9460001 14:2.5999999 15:3.9860001 16:9.1850004 17:6.4120002 18:9.0120001 19:2.9460001 20:4.506 #
-0.15611255914467100924802878125774 1:6.6669998 2:2.8570001 3:4.9520001 4:4.381 5:3.619 6:6.8569999 7:2.286 8:4.1900001 9:1.143 10:18.476 11:2.286 12:1.905 13:3.8099999 14:4 15:6.4759998 16:8.3809996 17:2.8570001 18:7.619 19:2.286 20:4.9520001 #
-0.19658979379352248262335933759459 1:6.2859998 2:2.8570001 3:3.4289999 4:2.5710001 5:6.8569999 6:4.8569999 7:2.8570001 8:5.7140002 9:3.1429999 10:16.285999 11:3.4289999 12:5.1430001 13:3.4289999 14:2 15:5.1430001 16:6.5710001 17:5.4289999 18:8.5710001 19:1.714 20:3.714 #
-0.20120456224175442550006209785352 1:9.9449997 2:0.73699999 3:6.6300001 4:7.3660002 5:3.131 6:5.7090001 7:2.3940001 8:5.3410001 9:6.4460001 10:8.2869997 11:3.6830001 12:2.3940001 13:3.4990001 14:1.842 15:6.2620001 16:8.1029997 17:8.1029997 18:8.4709997 19:0.73699999 20:0.921 #
-0.24836604907285711463238442320289 1:11.579 2:1.579 3:5.526 4:3.158 5:2.632 6:9.7370005 7:2.895 8:3.947 9:2.368 10:9.474 11:2.105 12:1.316 13:6.053 14:3.421 15:8.684 16:6.842 17:7.368 18:7.895 19:2.105 20:1.316 #
-0.14572610209919614754348060614575 1:8.059 2:0.73299998 3:3.6630001 4:9.5240002 5:6.5929999 6:3.2969999 7:3.2969999 8:8.059 9:5.4949999 10:12.821 11:2.9300001 12:3.2969999 13:4.3959999 14:4.0289998 15:6.5929999 16:3.6630001 17:2.198 18:8.4250002 19:1.465 20:1.465 #
-0.12942583496768117479192028440593 1:5.8330002 2:1.25 3:2.9170001 4:5.4169998 5:2.9170001 6:12.083 7:2.9170001 8:1.6670001 9:1.6670001 10:14.583 11:1.6670001 12:0.833 13:4.1669998 14:4.1669998 15:8.3330002 16:8.75 17:5 18:10 19:2.5 20:3.3329999 #
-0.13715815949183557398427524276485 1:8.5109997 2:4.8629999 3:2.4319999 4:3.3429999 5:6.079 6:8.2069998 7:2.128 8:3.04 9:1.216 10:18.844999 11:3.04 12:0.912 13:7.9029999 14:2.4319999 15:5.7750001 16:7.2950001 17:3.6470001 18:6.6869998 19:1.52 20:2.128 #
-0.10018996099974729341308687935452 1:8.1309996 2:0.34599999 3:7.7849998 4:11.246 5:2.941 6:2.941 7:2.076 8:5.0170002 9:8.8240004 10:9.5159998 11:3.6329999 12:3.9790001 13:2.4219999 14:7.612 15:8.1309996 16:2.7679999 17:4.8439999 18:4.3249998 19:1.211 20:2.2490001 #
-0.31104539777086237517522704365547 1:5.4840002 2:3.0650001 3:3.0650001 4:4.1939998 5:6.9349999 6:8.5480003 7:0.96799999 8:7.0970001 9:4.355 10:11.29 11:2.9030001 12:2.7420001 13:5.645 14:2.0969999 15:3.0650001 16:6.7740002 17:5.1609998 18:7.9029999 19:3.2260001 20:5.4840002 #
-0.12776911206796309761202223853616 1:6.3829999 2:0.53200001 3:4.2550001 4:5.8509998 5:2.6600001 6:7.447 7:1.596 8:10.106 9:8.5109997 10:6.3829999 11:8.5109997 12:3.723 13:4.7870002 14:3.191 15:4.2550001 16:6.915 17:5.3189998 18:4.7870002 19:0.53200001 20:4.2550001 #
-0.10809459107328546478843378508827 1:8.1630001 2:0 3:6.1220002 4:5.1020002 5:2.0409999 6:3.0610001 7:1.02 8:5.1020002 9:3.0610001 10:11.224 11:5.1020002 12:4.0819998 13:8.1630001 14:8.1630001 15:5.1020002 16:6.1220002 17:8.1630001 18:9.184 19:0 20:1.02 #
-0.11706916712983049533303159250863 1:10.36 2:0.44999999 3:1.802 4:2.7030001 5:7.658 6:5.8559999 7:2.7030001 8:8.559 9:8.1079998 10:13.063 11:5.8559999 12:4.0539999 13:4.9549999 14:2.2520001 15:2.2520001 16:2.7030001 17:5.4050002 18:8.559 19:0.44999999 20:2.2520001 #
-0.12105311199286461487645283341408 1:6.7800002 2:1.6950001 3:3.3900001 4:3.8139999 5:3.8139999 6:8.0509996 7:0.42399999 8:5.5079999 9:9.7460003 10:13.983 11:2.5420001 12:3.3900001 13:4.237 14:2.9660001 15:5.5079999 16:8.4750004 17:5.9320002 18:6.3559999 19:0.847 20:2.5420001 #
-0.27388498313677039908142774038424 1:8.7840004 2:1.351 3:3.7160001 4:3.378 5:4.3920002 6:9.1219997 7:2.027 8:8.1079998 9:3.378 10:10.473 11:2.7030001 12:4.0539999 13:4.3920002 14:2.7030001 15:3.0409999 16:7.77 17:5.743 18:10.473 19:1.0140001 20:3.378 #
-0.11923860127553567722635818881827 1:14.719 2:0.866 3:1.299 4:3.03 5:7.7919998 6:15.152 7:2.165 8:7.3590002 9:2.165 10:11.255 11:1.299 12:1.732 13:3.8959999 14:1.299 15:2.165 16:5.1950002 17:4.7620001 18:9.5240002 19:2.165 20:2.165 #
-0.11294683190282381324287541701779 1:14.105 2:0.18099999 3:3.9779999 4:11.212 5:2.7119999 6:4.3400002 7:0.542 8:6.5100002 9:4.882 10:8.1370001 11:2.1700001 12:4.3400002 13:1.989 14:7.2329998 15:7.2329998 16:5.4250002 17:6.691 18:7.776 19:0.18099999 20:0.36199999 #
-0.088197687234801758204838506571832 1:7.5560002 2:1.3329999 3:1.778 4:2.2219999 5:5.3330002 6:6.2220001 7:1.3329999 8:8.4440002 9:1.3329999 10:18.667 11:4 12:1.3329999 13:4.4439998 14:4.4439998 15:8 16:5.3330002 17:6.2220001 18:4.8889999 19:4.4439998 20:2.6670001 #
-0.38914533902931419673265622805047 1:6.697 2:1.37 3:3.5009999 4:4.2620001 5:6.0879998 6:7.4580002 7:1.826 8:6.697 9:5.632 10:11.872 11:3.349 12:4.7179999 13:3.957 14:3.1960001 15:4.414 16:8.3710003 17:5.9359999 18:6.3930001 19:0.76099998 20:3.5009999 #
-0.13152812803324417934014434194978 1:10.73 2:0.42899999 3:0.85799998 4:3.0039999 5:8.5839996 6:8.5839996 7:1.717 8:11.588 9:4.7210002 10:13.734 11:1.717 12:3.0039999 13:5.1500001 14:0.85799998 15:2.1459999 16:3.4330001 17:6.0089998 18:10.3 19:0.42899999 20:3.0039999 #
-0.22578332606260523296448639030132 1:7.309 2:0.42199999 3:4.006 4:6.0440001 5:6.8870001 6:7.5900002 7:1.6160001 8:6.0440001 9:5.3410001 10:9.7679996 11:3.9349999 12:3.5139999 13:4.1459999 14:3.4430001 15:4.9190001 16:5.9029999 17:6.184 18:7.098 19:1.897 20:3.9349999 #
-0.1589117585456387704567760010832 1:5.1690001 2:3.3870001 3:2.674 4:3.5650001 5:8.5559998 6:6.2389998 7:1.783 8:9.9820004 9:3.5650001 10:8.7340002 11:2.852 12:3.9219999 13:3.9219999 14:1.961 15:2.674 16:11.23 17:5.704 18:8.7340002 19:1.783 20:3.5650001 #
-0.086138772155161816290735998791206 1:9.5889997 2:1.37 3:1.37 4:2.74 5:8.2189999 6:1.37 7:1.37 8:5.4790001 9:1.37 10:10.959 11:8.2189999 12:2.74 13:5.4790001 14:2.74 15:5.4790001 16:8.2189999 17:5.4790001 18:12.329 19:4.1100001 20:1.37 #
-0.079795499961256607934778628532513 1:12.791 2:0 3:2.9070001 4:2.326 5:6.9770002 6:10.465 7:0.58099997 8:2.9070001 9:2.9070001 10:12.791 11:1.163 12:8.1400003 13:9.302 14:2.326 15:4.0700002 16:5.8140001 17:2.9070001 18:7.5580001 19:1.744 20:2.326 #
-0.091193879275508676895967141717847 1:8.5290003 2:0.86500001 3:5.3150001 4:2.8429999 5:4.3260002 6:10.26 7:1.2359999 8:5.1919999 9:5.8099999 10:7.4169998 11:4.079 12:4.3260002 13:6.5510001 14:3.832 15:3.7079999 16:5.1919999 17:7.54 18:7.1690001 19:2.349 20:3.461 #
-0.1346968328170828899104094489303 1:8.1879997 2:1.568 3:4.704 4:4.8779998 5:3.6589999 6:8.0139999 7:2.0910001 8:8.3620005 9:5.401 10:12.195 11:4.355 12:3.8329999 13:3.8329999 14:2.4389999 15:3.1359999 16:5.7490001 17:5.7490001 18:9.5819998 19:0.69700003 20:1.568 #
-0.087270962163605733663551689005544 1:11.538 2:0 3:5.5939999 4:3.497 5:3.846 6:7.6919999 7:0 8:11.189 9:3.1470001 10:9.79 11:2.448 12:5.9439998 13:1.748 14:3.1470001 15:6.2940001 16:6.6430001 17:3.1470001 18:11.189 19:1.049 20:2.098 #
-0.067368360123326018196188158526638 1:4.0440001 2:3.309 3:3.309 4:2.2060001 5:8.8240004 6:3.6760001 7:8.8240004 8:2.5739999 9:1.471 10:15.809 11:2.2060001 12:2.5739999 13:6.9850001 14:3.6760001 15:2.941 16:7.7210002 17:5.1469998 18:7.7210002 19:4.0440001 20:2.941 #
-0.087198390561226135631045508489478 1:12.048 2:0.602 3:4.8189998 4:3.6140001 5:2.4100001 6:6.6269999 7:0.602 8:4.8189998 9:3.6140001 10:9.6389999 11:0.602 12:1.205 13:6.6269999 14:1.205 15:7.2290001 16:9.0360003 17:6.6269999 18:11.446 19:3.0120001 20:4.217 #
-0.10627921665773440440538877282961 1:6.6079998 2:4.4050002 3:3.9649999 4:2.2030001 5:6.1669998 6:2.6429999 7:0.88099998 8:5.7270002 9:5.2859998 10:14.097 11:3.0840001 12:3.9649999 13:3.0840001 14:3.9649999 15:3.9649999 16:8.8109999 17:4.4050002 18:10.132 19:1.762 20:4.8460002 #
-0.077756948463223382606024358665309 1:8.1820002 2:2.727 3:0.90899998 4:1.818 5:4.5450001 6:10.909 7:0.90899998 8:13.636 9:0.90899998 10:14.545 11:3.6359999 12:1.818 13:4.5450001 14:1.818 15:2.727 16:7.2729998 17:6.3639998 18:4.5450001 19:3.6359999 20:4.5450001 #
-0.18001195417601648096628252915252 1:12.754 2:1.479 3:3.142 4:4.9910002 5:4.0669999 6:9.7969999 7:0.92400002 8:5.5450001 9:2.4030001 10:15.157 11:2.033 12:3.3269999 13:4.9910002 14:1.848 15:4.2509999 16:6.4699998 17:4.4359999 18:9.7969999 19:0.92400002 20:1.664 #
-0.084485444629672598604308575431787 1:9.533 2:1.623 3:3.8540001 4:2.0280001 5:6.6939998 6:8.1140003 7:2.434 8:8.1140003 9:4.868 10:7.5050001 11:3.448 12:2.6370001 13:3.8540001 14:3.043 15:3.043 16:7.7080002 17:5.6799998 18:9.533 19:2.0280001 20:4.2600002 #
-0.11155797097815015050947806685144 1:4.1139998 2:1.899 3:1.582 4:3.165 5:8.2279997 6:6.329 7:2.848 8:9.177 9:4.7470002 10:15.823 11:3.7969999 12:2.848 13:2.848 14:1.582 15:4.4299998 16:9.8100004 17:7.2779999 18:4.7470002 19:2.2149999 20:2.5320001 #
-0.072096294318305262360802032617357 1:9.6389999 2:3.0120001 3:5.4219999 4:9.0360003 5:3.0120001 6:6.6269999 7:5.4219999 8:7.8309999 9:4.217 10:6.6269999 11:2.4100001 12:3.0120001 13:6.0240002 14:6.0240002 15:4.8189998 16:3.0120001 17:4.8189998 18:5.4219999 19:0.602 20:3.0120001 #
-0.12843337416074931955911608838505 1:8.5509996 2:1.188 3:3.444 4:5.1069999 5:4.276 6:8.1949997 7:1.188 8:5.2259998 9:2.257 10:13.658 11:1.9 12:3.0880001 13:3.444 14:5.2259998 15:7.1259999 16:6.4130001 17:6.0570002 18:7.8379998 19:2.6129999 20:3.207 #
-0.061301483658006611365820504033763 1:11.795 2:1.026 3:0.51300001 4:6.1539998 5:3.0769999 6:10.769 7:0.51300001 8:6.1539998 9:4.6149998 10:8.2049999 11:2.0510001 12:2.0510001 13:10.256 14:4.1030002 15:5.6409998 16:3.5899999 17:5.6409998 18:7.6919999 19:2.5639999 20:3.5899999 #
-0.064158144560724439386945050500799 1:8.4069996 2:0 3:0.442 4:1.327 5:3.9820001 6:3.54 7:2.655 8:12.832 9:2.655 10:19.469 11:5.3099999 12:4.8670001 13:6.1950002 14:3.0969999 15:1.77 16:5.7519999 17:11.504 18:3.54 19:1.327 20:1.327 #
-0.093746206522231784186161007710325 1:7.9660001 2:2.5420001 3:1.864 4:3.898 5:5.763 6:6.7800002 7:1.525 8:8.6440001 9:4.4070001 10:11.186 11:5.4239998 12:3.898 13:6.6100001 14:3.22 15:2.881 16:4.4070001 17:5.9320002 18:7.7969999 19:1.6950001 20:3.559 #
-0.049108257774178001864306963852869 1:7.132 2:0.759 3:4.0970001 4:5.0079999 5:5.9180002 6:6.98 7:1.3660001 8:5.7659998 9:4.8559999 10:10.015 11:3.642 12:3.0350001 13:6.5250001 14:1.973 15:4.704 16:8.4980001 17:7.132 18:7.2839999 19:1.973 20:3.3380001 #
-0.088551919579570773088939006356668 1:3.974 2:1.104 3:4.6360002 4:5.7399998 5:4.6360002 6:8.3889999 7:3.0910001 8:3.0910001 9:2.8699999 10:14.57 11:1.325 12:1.987 13:6.402 14:4.415 15:7.0640001 16:12.583 17:3.0910001 18:7.947 19:0.662 20:2.428 #
-0.067578682994843430886788837597123 1:2.724 2:1.556 3:3.1129999 4:1.1670001 5:3.891 6:6.2259998 7:1.1670001 8:10.506 9:4.6690001 10:6.2259998 11:1.946 12:11.673 13:5.8369999 14:4.6690001 15:2.335 16:9.7279997 17:8.5600004 18:6.2259998 19:1.556 20:6.2259998 #
-0.06532245592106702969381615275779 1:10.924 2:6.303 3:2.1010001 4:4.6220002 5:5.882 6:8.4029999 7:0.83999997 8:7.5630002 9:5.4619999 10:9.2440004 11:3.7820001 12:5.4619999 13:2.1010001 14:2.5209999 15:2.5209999 16:4.2020001 17:2.5209999 18:12.185 19:0.83999997 20:2.5209999 #
-0.052913320261741690619938793815891 1:1.575 2:0.787 3:3.937 4:10.236 5:4.724 6:9.4490004 7:1.575 8:7.0869999 9:13.386 10:4.724 11:5.5120001 12:4.724 13:1.575 14:3.1500001 15:1.575 16:4.724 17:9.4490004 18:9.4490004 19:0 20:2.362 #
-0.27538518413723717115360045681882 1:9.1379995 2:1.207 3:3.448 4:3.448 5:6.0339999 6:8.6210003 7:0.69 8:8.1029997 9:3.276 10:11.724 11:2.7590001 12:3.1029999 13:4.3099999 14:2.931 15:2.2409999 16:8.1029997 17:5.6900001 18:7.7589998 19:2.069 20:5.3449998 #
-0.10560402900425240602100274145414 1:6.9710002 2:0.84100002 3:4.2069998 4:5.5289998 5:5.8889999 6:6.3699999 7:2.6440001 8:5.4089999 9:4.6880002 10:12.861 11:1.803 12:2.7639999 13:4.2069998 14:3.125 15:5.2880001 16:8.4130001 17:5.0479999 18:9.8559999 19:1.322 20:2.7639999 #
-0.12940842836744081978395115584135 1:9.0909996 2:2.398 3:5.2950001 4:7.8920002 5:3.596 6:6.6929998 7:0.89899999 8:6.993 9:5.2950001 10:9.6899996 11:2.8970001 12:3.796 13:4.5949998 14:2.2980001 15:5.0949998 16:4.9949999 17:6.3940001 18:8.4919996 19:1.299 20:2.2980001 #
-0.090082052885492744365159012431832 1:7.9910002 2:2.9679999 3:1.598 4:2.5109999 5:7.3060002 6:5.9359999 7:3.425 8:4.1100001 9:2.5109999 10:18.037001 11:1.826 12:2.283 13:5.0229998 14:4.1100001 15:5.9359999 16:5.7080002 17:5.2509999 18:6.164 19:3.1960001 20:4.1100001 #
-0.057578663157546061679425974944024 1:8.7270002 2:1.818 3:1.818 4:1.455 5:8.3640003 6:5.4549999 7:4 8:13.091 9:4.3639998 10:14.909 11:3.273 12:2.1819999 13:4 14:1.818 15:2.5450001 16:8 17:4.3639998 18:4 19:3.273 20:2.5450001 #
-0.057144727979177446786085425856072 1:5 2:2.0829999 3:2.5 4:2.9170001 5:4.1669998 6:6.6669998 7:2.0829999 8:5.8330002 9:3.3329999 10:13.333 11:2.9170001 12:2.5 13:5 14:5.4169998 15:1.25 16:15.417 17:7.5 18:5.8330002 19:1.25 20:5 #
-0.059006808299610621904029983397777 1:12.371 2:3.0929999 3:1.031 4:4.6389999 5:5.6700001 6:4.6389999 7:2.5769999 8:7.2160001 9:4.1240001 10:8.2469997 11:4.1240001 12:1.031 13:1.546 14:5.6700001 15:3.0929999 16:9.7939997 17:6.7010002 18:7.2160001 19:4.6389999 20:2.5769999 #
-0.082693298852607677318360401841346 1:7.092 2:3.073 3:3.3099999 4:2.3640001 5:5.9099998 6:5.9099998 7:2.128 8:5.4369998 9:4.0190001 10:7.8010001 11:2.5999999 12:3.3099999 13:5.6739998 14:3.3099999 15:5.6739998 16:11.111 17:6.8559999 18:8.5109997 19:3.546 20:2.3640001 #
-0.053160437359448975414011329121422 1:13.158 2:1.316 3:1.316 4:1.316 5:7.895 6:13.158 7:0 8:11.842 9:2.632 10:15.789 11:3.947 12:2.632 13:2.632 14:1.316 15:1.316 16:6.579 17:3.947 18:7.895 19:0 20:1.316 #
-0.042983682719600221910916104661737 1:13.58 2:2.4690001 3:6.1729999 4:4.9380002 5:4.9380002 6:4.9380002 7:3.704 8:6.1729999 9:1.235 10:4.9380002 11:4.9380002 12:4.9380002 13:6.1729999 14:3.704 15:11.111 16:3.704 17:3.704 18:6.1729999 19:1.235 20:1.235 #
-0.052097910908063434221038079385835 1:10.333 2:0.667 3:5.3330002 4:3 5:3 6:6.6669998 7:3 8:8.3330002 9:1 10:12.667 11:3.6670001 12:1.3329999 13:3.6670001 14:5.3330002 15:6 16:9.3330002 17:4 18:8 19:2 20:2.6670001 #
-0.038277569930353888549845464694954 1:8.974 2:0 3:7.6919999 4:17.948999 5:2.5639999 6:5.1279998 7:1.2819999 8:8.974 9:5.1279998 10:6.4099998 11:2.5639999 12:3.846 13:1.2819999 14:5.1279998 15:1.2819999 16:3.846 17:7.6919999 18:8.974 19:0 20:1.2819999 #
-0.064347258108123195352590073525789 1:8.2989998 2:0.41499999 3:7.4689999 4:7.4689999 5:2.49 6:7.8839998 7:3.3199999 8:8.7139997 9:2.905 10:11.203 11:2.075 12:3.3199999 13:3.3199999 14:2.49 15:9.1289997 16:4.9790001 17:4.1490002 18:7.8839998 19:0 20:2.49 #
-0.080655426975960967106438204154983 1:8.0649996 2:0.64499998 3:2.9030001 4:3.8710001 5:6.1290002 6:8.3870001 7:1.29 8:6.1290002 9:8.71 10:9.0319996 11:2.5810001 12:3.5480001 13:5.1609998 14:3.2260001 15:4.1939998 16:5.1609998 17:6.4520001 18:10 19:0.96799999 20:3.5480001 #
-0.086019014357384793179051030165283 1:6.9390001 2:4.4899998 3:3.2650001 4:4.4899998 5:6.9390001 6:6.1220002 7:1.224 8:8.1630001 9:6.1220002 10:9.3879995 11:2.0409999 12:5.3060002 13:2.0409999 14:2.4489999 15:3.2650001 16:5.7140002 17:7.3470001 18:8.5710001 19:1.633 20:4.4899998 #
-0.054808421367891782538528389068233 1:9.967 2:0.33199999 3:7.309 4:6.3119998 5:4.3189998 6:9.6350002 7:2.658 8:3.987 9:3.654 10:10.631 11:2.326 12:1.993 13:4.3189998 14:1.993 15:8.6379995 16:4.3189998 17:6.645 18:7.6409998 19:0.66399997 20:2.658 #
-0.055574903449024340429396318086219 1:3.7869999 2:2.0120001 3:4.1420002 4:4.2600002 5:6.2719998 6:2.4849999 7:1.775 8:6.0359998 9:5.9169998 10:10.769 11:1.775 12:6.0359998 13:8.4020004 14:3.55 15:2.7219999 16:13.491 17:7.6919999 18:5.0890002 19:0.82800001 20:2.9590001 #
-0.055950859017196326317122867521903 1:6.6950002 2:0 3:4.6030002 4:5.0209999 5:2.092 6:8.7869997 7:1.255 8:4.6030002 9:5.8579998 10:6.6950002 11:2.51 12:4.184 13:4.184 14:5.4390001 15:4.6030002 16:8.368 17:8.368 18:9.2049999 19:2.092 20:5.4390001 #
-0.036338172157320332289476283449403 1:9.5410004 2:0.70700002 3:5.3000002 4:2.8269999 5:6.007 6:7.4200001 7:1.0599999 8:3.5339999 9:6.7140002 10:10.954 11:1.413 12:7.0669999 13:4.5939999 14:3.8870001 15:1.767 16:8.4809999 17:8.8339996 18:6.3600001 19:0.70700002 20:2.8269999 #
-0.030396182065702249952554581113873 1:16.455999 2:0 3:3.7969999 4:2.5320001 5:5.0630002 6:12.658 7:0 8:10.127 9:1.266 10:15.19 11:10.127 12:2.5320001 13:3.7969999 14:2.5320001 15:2.5320001 16:0 17:1.266 18:7.5949998 19:0 20:2.5320001 #
-0.029942611417284124841753367718411 1:7.7670002 2:1.942 3:9.2229996 4:11.65 5:0.97100002 6:6.796 7:0.48500001 8:5.3400002 9:5.8249998 10:7.7670002 11:6.3109999 12:6.796 13:0.97100002 14:6.3109999 15:8.2519999 16:4.8540001 17:3.398 18:4.369 19:0.48500001 20:0.48500001 #
-0.030944768656259252770368561868963 1:15.049 2:1.456 3:3.8829999 4:1.942 5:6.796 6:4.369 7:1.942 8:8.7379999 9:3.8829999 10:9.7089996 11:0.97100002 12:2.427 13:3.398 14:3.8829999 15:2.9130001 16:8.2519999 17:6.796 18:10.68 19:0.48500001 20:2.427 #
-0.042876228982011113655126166577247 1:13.031 2:0.56699997 3:3.9660001 4:7.3649998 5:1.133 6:5.6659999 7:0.85000002 8:5.382 9:4.816 10:9.3479996 11:2.266 12:3.6830001 13:3.9660001 14:5.9489999 15:7.6490002 16:7.6490002 17:4.533 18:9.3479996 19:0.56699997 20:2.266 #
-0.027315095107776150157308236998688 1:7.744 2:1.684 3:6.7340002 4:15.825 5:3.3670001 6:8.0810003 7:1.684 8:1.347 9:2.694 10:9.7639999 11:0.67299998 12:1.684 13:5.0510001 14:4.3769999 15:5.3870001 16:6.0609999 17:3.03 18:8.0810003 19:4.04 20:2.694 #
-0.035505664059180583325137092742807 1:6.434 2:1.654 3:2.757 4:2.0220001 5:9.007 6:5.1469998 7:2.2060001 8:8.2720003 9:4.4120002 10:13.419 11:2.3900001 12:3.6760001 13:6.25 14:2.941 15:3.125 16:8.0880003 17:4.0440001 18:4.7789998 19:2.941 20:6.434 #
-0.026184839085745734849064447757883 1:5.217 2:0.87 3:0 4:4.348 5:2.609 6:8.6960001 7:1.739 8:6.9569998 9:11.304 10:13.913 11:0.87 12:5.217 13:2.609 14:6.0869999 15:2.609 16:9.5649996 17:2.609 18:6.0869999 19:0 20:8.6960001 #
-0.026836164198846986644886314365976 1:12.329 2:4.1100001 3:1.37 4:3.6530001 5:3.6530001 6:5.9359999 7:1.37 8:5.0229998 9:0.91299999 10:15.525 11:0.91299999 12:2.74 13:4.1100001 14:2.74 15:5.0229998 16:12.785 17:5.0229998 18:6.849 19:3.1960001 20:2.74 #
-0.03002001339178647643102237907442 1:3.704 2:3.704 3:5.8200002 4:2.1159999 5:3.704 6:6.349 7:3.704 8:4.2329998 9:5.8200002 10:11.64 11:6.349 12:5.2909999 13:1.587 14:2.6459999 15:2.1159999 16:10.582 17:5.8200002 18:5.8200002 19:3.704 20:5.2909999 #
-0.023206567683000792201575279705139 1:12.883 2:0.61299998 3:5.5209999 4:3.0669999 5:2.1470001 6:9.5089998 7:0.92000002 8:6.7480001 9:3.3740001 10:7.6690001 11:0.92000002 12:4.6009998 13:8.2819996 14:2.1470001 15:5.2150002 16:7.362 17:8.2819996 18:8.5889997 19:0.61299998 20:1.534 #
-0.033510549324343129329317747533423 1:3.7969999 2:3.4809999 3:3.165 4:2.848 5:10.759 6:4.7470002 7:3.7969999 8:8.8610001 9:5.3800001 10:9.177 11:2.5320001 12:3.4809999 13:3.165 14:2.5320001 15:2.848 16:9.177 17:6.9619999 18:6.9619999 19:1.899 20:4.4299998 #
-0.018276200913592187402567645904128 1:4.7059999 2:0.588 3:11.765 4:6.4710002 5:4.7059999 6:11.176 7:0.588 8:6.4710002 9:5.882 10:8.8240004 11:0.588 12:4.7059999 13:0.588 14:5.2940001 15:2.3529999 16:6.4710002 17:5.882 18:5.882 19:2.3529999 20:4.7059999 #
-0.014000230208360159647740239563518 1:7.6269999 2:0 3:7.6269999 4:11.017 5:5.9320002 6:4.237 7:2.5420001 8:10.169 9:7.6269999 10:7.6269999 11:0.847 12:4.237 13:4.237 14:3.3900001 15:5.085 16:2.5420001 17:9.3219995 18:4.237 19:0 20:1.6950001 #
-0.013132446218493356096534974142287 1:4.171 2:0.52100003 3:2.503 4:1.9809999 5:6.257 6:12.513 7:0.73000002 8:2.8150001 9:4.6919999 10:6.9860001 11:1.043 12:15.016 13:4.6919999 14:6.3610001 15:1.46 16:14.39 17:9.5930004 18:2.9200001 19:0.104 20:1.251 #
-0.015446876900129479642798102645429 1:8.5369997 2:4.8779998 3:9.7559996 4:14.634 5:6.098 6:3.6589999 7:1.22 8:7.3169999 9:2.4389999 10:3.6589999 11:6.098 12:1.22 13:8.5369997 14:2.4389999 15:1.22 16:3.6589999 17:3.6589999 18:4.8779998 19:0 20:6.098 #
-0.015629722373001787849577937095091 1:7.3390002 2:0.917 3:1.835 4:0.917 5:4.5869999 6:6.4219999 7:5.5050001 8:10.092 9:1.835 10:9.1739998 11:10.092 12:4.5869999 13:1.835 14:0.917 15:0 16:8.257 17:8.257 18:11.927 19:3.6700001 20:1.835 #
-0.013470314560620366695076199903269 1:11.801 2:0.62099999 3:6.211 4:10.559 5:3.1059999 6:1.242 7:0.62099999 8:5.5900002 9:12.422 10:8.0749998 11:2.484 12:4.9689999 13:6.8319998 14:3.1059999 15:1.863 16:4.348 17:3.727 18:5.5900002 19:3.1059999 20:3.727 #
-0.014503880270383118916699416445226 1:6.4520001 2:4.3010001 3:3.2260001 4:7.527 5:6.4520001 6:8.6020002 7:0 8:2.151 9:8.6020002 10:7.527 11:4.3010001 12:9.677 13:1.075 14:8.6020002 15:1.075 16:8.6020002 17:3.2260001 18:5.3759999 19:0 20:3.2260001 #
-0.013247846407463679738181205891578 1:6.2750001 2:0.39199999 3:3.9219999 4:5.6859999 5:4.5100002 6:10 7:1.765 8:5.6859999 9:5.6859999 10:9.8039999 11:1.765 12:4.902 13:4.118 14:10 15:3.529 16:6.0780001 17:9.2159996 18:4.5100002 19:0.588 20:1.569 #
-0.014527726460525677842916536519624 1:9.0319996 2:2.5810001 3:5.1609998 4:8.3870001 5:5.8060002 6:5.8060002 7:1.9349999 8:5.1609998 9:1.9349999 10:7.7420001 11:3.2260001 12:4.5159998 13:4.5159998 14:9.0319996 15:2.5810001 16:5.1609998 17:7.0970001 18:6.4520001 19:0.64499998 20:3.2260001 #
-0.014630756820009038071672691216918 1:11.584 2:1.363 3:4.9400001 4:12.436 5:3.918 6:6.6440001 7:1.193 8:3.4070001 9:6.8140001 10:12.606 11:2.0439999 12:4.2589998 13:4.0890002 14:3.5780001 15:3.4070001 16:6.303 17:4.5999999 18:6.1329999 19:0.17 20:0.51099998 #
-0.03998388488445066973886454775311 1:11.329 2:1.525 3:1.961 4:3.2679999 5:6.3179998 6:8.0609999 7:2.1789999 8:3.4860001 9:2.3970001 10:17.865 11:2.3970001 12:1.961 13:5.0110002 14:3.4860001 15:4.3569999 16:7.625 17:5.2290001 18:6.9720001 19:1.525 20:3.05 #
-0.013345809393270791076702153077349 1:4.145 2:1.036 3:10.881 4:2.332 5:3.109 6:11.917 7:4.9219999 8:5.4400001 9:0.259 10:18.912001 11:1.813 12:4.145 13:9.3260002 14:3.8859999 15:2.332 16:5.6989999 17:3.109 18:2.073 19:2.5910001 20:2.073 #
-0.018642317576038718723863141235597 1:11.836 2:1.932 3:2.6570001 4:1.691 5:4.348 6:7.9710002 7:1.2079999 8:6.763 9:2.174 10:15.942 11:3.1400001 12:4.8309999 13:4.1059999 14:1.932 15:3.382 16:7.7290001 17:5.7969999 18:10.145 19:1.2079999 20:1.2079999 #
-0.016109300113412911015231543387927 1:7.1999998 2:1.6 3:5.5999999 4:4.8000002 5:1.6 6:6.4000001 7:4.8000002 8:6.4000001 9:5.5999999 10:8 11:4 12:8 13:4.8000002 14:2.4000001 15:1.6 16:7.1999998 17:8 18:8 19:1.6 20:2.4000001 #
-0.016786828080545827118763568819304 1:9.8800001 2:0 3:7.7839999 4:8.0839996 5:4.1919999 6:5.3889999 7:0.59899998 8:6.8860002 9:5.9879999 10:6.5869999 11:2.994 12:2.994 13:2.994 14:2.395 15:9.5810003 16:6.2870002 17:5.6890001 18:8.3830004 19:0.29899999 20:2.994 #
-0.012316495806127942397312224898087 1:4.5019999 2:2.572 3:6.4310002 4:6.4310002 5:1.929 6:20.257 7:3.859 8:1.608 9:3.2149999 10:8.3599997 11:0.64300001 12:1.929 13:8.6820002 14:2.2509999 15:8.0389996 16:8.3599997 17:2.2509999 18:4.5019999 19:1.608 20:2.572 #
-0.01203889837853348854235235876331 1:1.852 2:7.4070001 3:12.963 4:9.2589998 5:3.704 6:11.111 7:0 8:3.704 9:5.5560002 10:1.852 11:1.852 12:3.704 13:11.111 14:1.852 15:0 16:3.704 17:1.852 18:11.111 19:1.852 20:5.5560002 #
-0.010651018681523910167086022227068 1:26.818001 2:0 3:4.5450001 4:18.181999 5:0 6:6.8179998 7:0 8:0 9:12.727 10:0.45500001 11:0.45500001 12:0.90899998 13:11.364 14:3.1819999 15:0 16:8.6359997 17:3.1819999 18:2.273 19:0 20:0.45500001 #
-0.01066394096245218588159264783144 1:27.046 2:0 3:1.068 4:20.285 5:2.135 6:9.9639997 7:0.35600001 8:0 9:9.6090002 10:0.35600001 11:0.35600001 12:1.779 13:6.7620001 14:4.6259999 15:1.068 16:10.32 17:2.8469999 18:1.423 19:0 20:0 #
-0.012032402459362542129772677412802 1:11.34 2:0.51499999 3:0 4:0 5:1.031 6:9.2779999 7:2.5769999 8:1.546 9:1.031 10:1.546 11:3.608 12:3.0929999 13:19.587999 14:4.6389999 15:1.546 16:8.2469997 17:10.825 18:8.7629995 19:0.51499999 20:10.309 #
-0.011667053907545835503278830458385 1:30.879 2:0.47499999 3:4.7509999 4:10.689 5:1.425 6:4.9879999 7:0.23800001 8:3.325 9:15.677 10:4.513 11:1.188 12:2.6129999 13:2.375 14:4.7509999 15:2.138 16:5.2259998 17:1.425 18:1.9 19:0.23800001 20:1.188 #
-0.011647454705152207252161211670227 1:5.046 2:1.0700001 3:4.2810001 4:6.881 5:0.76499999 6:25.535 7:1.529 8:3.0580001 9:7.645 10:6.2690001 11:2.599 12:1.376 13:16.514 14:4.8930001 15:4.2810001 16:3.0580001 17:2.4460001 18:1.988 19:0.153 20:0.61199999 #
-0.011363499579444720499754595266495 1:10.207 2:0 3:5.954 4:5.711 5:7.533 6:7.8979998 7:0.36500001 8:1.823 9:10.936 10:3.767 11:0.243 12:10.936 13:5.1030002 14:3.5239999 15:0.36500001 16:14.581 17:8.5050001 18:1.823 19:0.243 20:0.486 #
-0.011577661251239653589228950636425 1:16.667 2:0.49000001 3:3.9219999 4:17.157 5:1.961 6:9.8039999 7:0 8:0.49000001 9:4.902 10:9.3140001 11:2.941 12:0.98000002 13:13.235 14:4.4120002 15:3.9219999 16:3.9219999 17:1.961 18:1.961 19:0.49000001 20:1.471 #
-0.011485955886725679811477540681608 1:20 2:5.3330002 3:5.3330002 4:2.6670001 5:1.3329999 6:6.6669998 7:1.3329999 8:0 9:14.667 10:5.3330002 11:0 12:1.3329999 13:5.3330002 14:4 15:0 16:5.3330002 17:9.3330002 18:5.3330002 19:2.6670001 20:4 #
-0.011528644541601455741908210939073 1:8.5530005 2:10.526 3:4.605 4:4.605 5:4.605 6:11.184 7:3.289 8:3.947 9:3.947 10:5.263 11:3.289 12:2.632 13:1.974 14:5.921 15:4.605 16:4.605 17:5.921 18:4.605 19:1.974 20:3.947 #
-0.013710692072393990126322194100794 1:3.6459999 2:1.562 3:5.7290001 4:5.7290001 5:4.6880002 6:8.8540001 7:1.562 8:6.7709999 9:7.2919998 10:6.7709999 11:2.6040001 12:5.2080002 13:4.1669998 14:2.0829999 15:8.3330002 16:7.2919998 17:6.7709999 18:4.6880002 19:1.562 20:4.6880002 #
-0.011311367029273981799075698972956 1:9.2779999 2:0 3:5.1550002 4:1.031 5:4.1240001 6:5.1550002 7:3.0929999 8:16.495001 9:4.1240001 10:13.402 11:8.2469997 12:4.1240001 13:1.031 14:2.062 15:2.062 16:4.1240001 17:2.062 18:13.402 19:0 20:1.031 #
-0.011261462041787694693395494027754 1:11.194 2:0.74599999 3:6.7160001 4:17.91 5:1.493 6:8.2089996 7:0 8:3.7309999 9:13.433 10:5.224 11:5.9699998 12:0.74599999 13:5.224 14:4.4780002 15:5.9699998 16:2.2390001 17:2.2390001 18:2.2390001 19:0 20:2.2390001 #
-0.010663217784346064667677644877131 1:12.281 2:0 3:5.263 4:13.158 5:0.87699997 6:5.263 7:1.7539999 8:8.7720003 9:19.298 10:7.0180001 11:0.87699997 12:2.632 13:0.87699997 14:6.1399999 15:1.7539999 16:3.5090001 17:2.632 18:6.1399999 19:0 20:1.7539999 #
-0.01095168464839071931216096800199 1:8.4989996 2:2.55 3:2.266 4:3.3989999 5:9.0649996 6:3.6830001 7:1.983 8:6.7989998 9:1.983 10:15.297 11:0.56699997 12:5.099 13:4.816 14:4.533 15:6.7989998 16:5.9489999 17:3.6830001 18:8.2150002 19:3.1159999 20:1.7 #
-0.011698705350630252478016934958305 1:12 2:0 3:2 4:3 5:3 6:9 7:2 8:11 9:0 10:20 11:5 12:4 13:1 14:5 15:6 16:6 17:2 18:6 19:1 20:2 #
-0.011093425254537467999904620796769 1:8.7869997 2:0.41800001 3:2.51 4:7.5310001 5:2.092 6:3.766 7:0.83700001 8:4.6030002 9:7.5310001 10:5.4390001 11:1.674 12:2.9289999 13:16.736 14:5.0209999 15:5.8579998 16:5.4390001 17:5.8579998 18:10.879 19:0.83700001 20:1.255 #
-0.0090707169420182545693798203956248 1:10.082 2:0 3:8.6420002 4:7.2020001 5:1.235 6:6.9959998 7:4.7329998 8:3.704 9:9.6709995 10:2.263 11:1.029 12:11.523 13:2.4690001 14:8.8479996 15:3.2920001 16:9.0530005 17:4.9380002 18:3.086 19:0 20:1.235 #
-0.0095412933151646749097007926820879 1:7.447 2:0 3:6.7379999 4:3.901 5:4.9650002 6:10.993 7:1.418 8:2.4820001 9:8.8649998 10:10.638 11:0.35499999 12:6.7379999 13:1.418 14:5.6739998 15:1.418 16:7.8010001 17:7.8010001 18:6.3829999 19:1.418 20:3.546 #
-0.0088319938579423124674905309916539 1:6.4520001 2:6.4520001 3:11.29 4:6.4520001 5:3.2260001 6:8.0649996 7:0 8:0 9:8.0649996 10:3.2260001 11:4.8390002 12:1.613 13:8.0649996 14:3.2260001 15:11.29 16:3.2260001 17:1.613 18:6.4520001 19:3.2260001 20:3.2260001 #
-0.017796886767860953248998612252763 1:3.8210001 2:2.8239999 3:4.4850001 4:4.3189998 5:3.4879999 6:6.645 7:0.83099997 8:9.1359997 9:6.4780002 10:8.1400003 11:1.827 12:7.4749999 13:5.98 14:4.1529999 15:3.654 16:8.4720001 17:6.1459999 18:6.8109999 19:1.163 20:4.1529999 #
-0.0093152233082511963491167961137762 1:4.4250002 2:2.655 3:4.4250002 4:8.8500004 5:7.0799999 6:7.0799999 7:1.77 8:2.655 9:5.3099999 10:9.7349997 11:3.54 12:5.3099999 13:3.54 14:1.77 15:4.4250002 16:11.504 17:2.655 18:8.8500004 19:2.655 20:1.77 #
-0.010183440801711352019509604360792 1:6.7389998 2:0.359 3:2.1559999 4:3.0550001 5:6.559 6:14.016 7:0.62900001 8:3.145 9:5.0310001 10:5.75 11:1.348 12:12.219 13:4.3130002 14:9.8830004 15:1.707 16:10.692 17:8.5349998 18:2.6059999 19:0 20:1.258 #
-0.0088737857392586372978771080965998 1:8.8500004 2:0.442 3:6.6370001 4:9.2919998 5:2.2119999 6:3.54 7:0.442 8:7.0799999 9:10.619 10:10.619 11:4.4250002 12:3.9820001 13:2.2119999 14:8.8500004 15:6.1950002 16:2.2119999 17:2.655 18:6.6370001 19:0 20:3.0969999 #
-0.0068989546682439676500431247063716 1:17.098 2:0.69099998 3:5.0089998 4:3.9719999 5:3.2820001 6:7.7719998 7:1.727 8:5.3540001 9:0.51800001 10:12.608 11:1.036 12:1.554 13:4.3179998 14:3.8 15:7.2540002 16:4.836 17:6.908 18:9.8450003 19:1.9 20:0.51800001 #
-0.0086534443341590369658256065577007 1:3.6630001 2:1.465 3:3.6630001 4:1.465 5:9.8900003 6:5.1279998 7:2.198 8:10.623 9:3.6630001 10:13.553 11:2.5639999 12:7.3260002 13:3.6630001 14:4.7620001 15:4.0289998 16:9.158 17:2.5639999 18:2.5639999 19:1.832 20:6.2270002 #
-0.0062259665503194162178290937958991 1:17.742001 2:0 3:1.613 4:3.2260001 5:1.613 6:3.2260001 7:0 8:4.8390002 9:6.4520001 10:6.4520001 11:1.613 12:4.8390002 13:3.2260001 14:6.4520001 15:4.8390002 16:11.29 17:11.29 18:3.2260001 19:1.613 20:6.4520001 #
-0.0061346223707242726261301690726668 1:8.75 2:1.25 3:1.25 4:10 5:3.75 6:7.5 7:1.25 8:12.5 9:13.75 10:5 11:1.25 12:2.5 13:3.75 14:3.75 15:3.75 16:2.5 17:2.5 18:11.25 19:0 20:3.75 #
-0.0047137599793136333165000095846153 1:1.878 2:0.331 3:4.6409998 4:6.7399998 5:3.6459999 6:3.0940001 7:2.099 8:9.0609999 9:7.5139999 10:7.6240001 11:0.773 12:12.707 13:2.7620001 14:11.05 15:2.21 16:11.823 17:4.862 18:2.21 19:0.66299999 20:4.309 #
-0.0033986127771758823171155405873378 1:9.1949997 2:0 3:6.8969998 4:12.644 5:2.299 6:3.448 7:0 8:3.448 9:13.793 10:10.345 11:2.299 12:4.598 13:3.448 14:4.598 15:1.149 16:5.7470002 17:3.448 18:4.598 19:2.299 20:5.7470002 #
-0.0037123507456921886644984898140365 1:3.385 2:1.2309999 3:6.7690001 4:6.1539998 5:4 6:3.385 7:1.846 8:7.6919999 9:12.923 10:4.3080001 11:2.154 12:13.538 13:2.7690001 14:4.9229999 15:1.538 16:9.8459997 17:6.1539998 18:3.385 19:0.308 20:3.6919999 #
-0.0038984437657696765361370339064706 1:14.286 2:3.8099999 3:1.905 4:6.6669998 5:1.905 6:4.7620001 7:0 8:8.5710001 9:7.619 10:5.7140002 11:1.905 12:7.619 13:3.8099999 14:5.7140002 15:2.8570001 16:9.5240002 17:6.6669998 18:2.8570001 19:0.95200002 20:2.8570001 #
-0.0038619504403676133130751679800596 1:6.5450001 2:0.727 3:4.7270002 4:8 5:3.6359999 6:6.5450001 7:2.9089999 8:6.5450001 9:10.909 10:12 11:3.273 12:2.1819999 13:5.4549999 14:1.091 15:2.5450001 16:9.4549999 17:2.1819999 18:7.6360002 19:1.455 20:2.1819999 #
-0.0040038404090819747216389856703245 1:4.7210002 2:0.85799998 3:6.4380002 4:6.8670001 5:5.579 6:10.3 7:3.4330001 8:2.1459999 9:3.8629999 10:8.5839996 11:0.85799998 12:2.1459999 13:4.2919998 14:5.1500001 15:5.579 16:16.309 17:3.4330001 18:5.1500001 19:0.42899999 20:3.8629999 #
-0.0031051569051284912299781826305889 1:9.1639996 2:1.768 3:3.2149999 4:4.6620002 5:5.3049998 6:7.717 7:1.125 8:7.0739999 9:4.3410001 10:9.6459999 11:2.8940001 12:3.698 13:5.7880001 14:2.4119999 15:3.3759999 16:9.6459999 17:4.823 18:6.9130001 19:2.0899999 20:4.3410001 #
