SVM-light Version V6.02
2 # kernel type
3 # kernel parameter -d 
0.04 # kernel parameter -g 
1 # kernel parameter -s 
1 # kernel parameter -r 
empty# kernel parameter -u 
20 # highest feature index 
624 # number of training documents 
354 # number of support vectors plus 1 
0.61938383 # threshold b, each following line is a SV (starting with alpha*y)
-0.5000000000062949645496246375842 1:10 2:0.63499999 3:5.8730001 4:6.5079999 5:3.3329999 6:8.4130001 7:1.587 8:2.8570001 9:4.6030002 10:14.921 11:1.7460001 12:3.016 13:5.079 14:5.079 15:3.8099999 16:9.8409996 17:4.1269999 18:5.079 19:2.063 20:1.429 #
-0.0015098855629466848005115764408401 1:7.7080002 2:2.0829999 3:3.3329999 4:2.2920001 5:6.4580002 6:8.125 7:1.25 8:7.0830002 9:3.9579999 10:8.3330002 11:2.7079999 12:3.9579999 13:3.9579999 14:3.9579999 15:2.7079999 16:7.7080002 17:6.6669998 18:11.667 19:2.2920001 20:3.75 #
-0.32600583517377862419195366783242 1:8.8240004 2:0 3:5.882 4:5.882 5:4.4120002 6:7.3530002 7:4.4120002 8:5.882 9:14.706 10:10.294 11:2.941 12:4.4120002 13:7.3530002 14:2.941 15:0 16:2.941 17:4.4120002 18:4.4120002 19:0 20:2.941 #
-0.31463747688562460069761073100381 1:11.607 2:2.6789999 3:1.1160001 4:3.5710001 5:4.6880002 6:10.045 7:2.2320001 8:1.339 9:1.1160001 10:18.304001 11:1.786 12:1.339 13:9.1520004 14:3.125 15:2.2320001 16:7.5890002 17:4.4640002 18:10.714 19:1.562 20:1.339 #
-0.25631035015366665508196319933631 1:8.0080004 2:2.053 3:1.232 4:4.723 5:6.3660002 6:6.9819999 7:0.41100001 8:10.472 9:3.4909999 10:10.883 11:2.2590001 12:3.2850001 13:6.1599998 14:2.053 15:3.0799999 16:6.9819999 17:6.1599998 18:9.0349998 19:1.643 20:4.723 #
2.1388466019641296789188800175907 1:6.3959999 2:0.60900003 3:5.4819999 4:6.9039998 5:2.8429999 6:6.4970002 7:2.7409999 8:2.335 9:5.4819999 10:10.254 11:2.03 12:2.437 13:9.3400002 14:5.5840001 15:7.3099999 16:11.878 17:4.2639999 18:5.888 19:0.50800002 20:1.2180001 #
2.500000000031474822748123187921 1:7.9959998 2:1.706 3:4.7969999 4:5.9699998 5:4.2639999 6:4.9039998 7:1.706 8:5.8639998 9:5.6500001 10:11.727 11:1.599 12:5.1170001 13:5.1170001 14:4.7969999 15:4.691 16:7.5689998 17:5.8639998 18:7.4629998 19:0.53299999 20:2.665 #
1.1011725514417900484431811491959 1:7.0640001 2:1.104 3:5.7399998 4:10.155 5:2.6489999 6:5.0770001 7:0.88300002 8:1.766 9:6.6230001 10:13.687 11:1.766 12:2.8699999 13:5.0770001 14:5.5190001 15:6.8429999 16:8.6090002 17:3.753 18:7.947 19:1.545 20:1.325 #
1.2841881584657173220875847619027 1:8.5839996 2:0.85799998 3:4.7210002 4:6.0089998 5:3.0039999 6:8.5839996 7:3.0039999 8:3.4330001 9:4.7210002 10:15.451 11:3.8629999 12:5.579 13:3.4330001 14:4.7210002 15:6.4380002 16:7.296 17:3.8629999 18:5.579 19:0 20:0.85799998 #
1.6091360956975266915947031520773 1:10.207 2:0 3:5.954 4:5.711 5:7.533 6:7.8979998 7:0.36500001 8:1.823 9:10.936 10:3.767 11:0.243 12:10.936 13:5.1030002 14:3.5239999 15:0.36500001 16:14.581 17:8.5050001 18:1.823 19:0.243 20:0.486 #
-0.5000000000062949645496246375842 1:7.0250001 2:0.82599998 3:6.8179998 4:7.645 5:2.273 6:4.9590001 7:3.306 8:3.9260001 9:4.9590001 10:8.8839998 11:1.653 12:2.8929999 13:7.0250001 14:6.4050002 15:7.4380002 16:11.157 17:2.4790001 18:6.198 19:1.24 20:2.8929999 #
-0.5000000000062949645496246375842 1:7.3579998 2:0.83600003 3:5.5180001 4:7.6919999 5:2.174 6:7.3579998 7:1.839 8:4.1810002 9:5.6859999 10:8.1940002 11:1.6720001 12:3.6789999 13:8.3610001 14:4.348 15:6.8559999 16:10.033 17:5.3509998 18:5.184 19:0.83600003 20:2.8429999 #
-0.5000000000062949645496246375842 1:7.4359999 2:1.643 3:4.355 4:5.7519999 5:4.684 6:6.5739999 7:2.3829999 8:4.355 9:4.0669999 10:12.161 11:2.5469999 12:3.78 13:5.8340001 14:4.5190001 15:4.848 16:7.888 17:5.4229999 18:7.0250001 19:1.561 20:3.164 #
2.500000000031474822748123187921 1:9.2550001 2:0.45100001 3:1.58 4:3.1600001 5:7.223 6:9.7069998 7:0.903 8:10.158 9:3.8369999 10:10.835 11:3.612 12:2.257 13:4.5149999 14:4.7399998 15:4.7399998 16:5.1919999 17:5.6430001 18:7.901 19:0.903 20:3.3859999 #
2.3246286758569953967423771246104 1:8.8669996 2:0.24600001 3:2.217 4:4.1869998 5:8.6210003 6:6.4039998 7:2.217 8:8.3739996 9:2.217 10:10.591 11:2.4630001 12:3.2019999 13:3.448 14:3.6949999 15:4.6799998 16:5.1719999 17:5.665 18:9.3599997 19:3.2019999 20:5.1719999 #
2.3195477946198832519542065710993 1:9.1789999 2:0.48300001 3:4.348 4:3.1400001 5:3.382 6:8.6960001 7:1.691 8:9.1789999 9:3.6229999 10:11.836 11:3.382 12:3.6229999 13:3.6229999 14:4.8309999 15:4.8309999 16:7.0050001 17:2.415 18:9.6619997 19:2.174 20:2.8989999 #
-0.32049219742063839166945626857341 1:12.473 2:0.65600002 3:2.6259999 4:2.188 5:4.5949998 6:9.1899996 7:1.094 8:8.5340004 9:1.969 10:13.348 11:5.033 12:2.188 13:3.9389999 14:3.72 15:5.2519999 16:4.8140001 17:4.8140001 18:8.5340004 19:1.5319999 20:3.5009999 #
-0.5000000000062949645496246375842 1:7.6919999 2:1.748 3:5.2449999 4:7.3429999 5:4.1960001 6:6.6430001 7:1.923 8:6.8179998 9:6.119 10:10.664 11:1.923 12:4.7199998 13:4.895 14:5.4200001 15:4.895 16:4.3709998 17:4.895 18:6.4689999 19:0.52399999 20:3.497 #
-0.5000000000062949645496246375842 1:6.013 2:2.2149999 3:4.7470002 4:7.2779999 5:3.4809999 6:5.0630002 7:2.848 8:5.6960001 9:7.9109998 10:10.759 11:1.899 12:4.7470002 13:6.329 14:4.1139998 15:3.4809999 16:5.3800001 17:4.7470002 18:7.9109998 19:1.899 20:3.4809999 #
2.500000000031474822748123187921 1:9.7770004 2:1.238 3:2.723 4:5.0739999 5:3.342 6:9.2819996 7:1.733 8:3.0940001 9:2.599 10:15.223 11:1.733 12:2.1040001 13:5.6929998 14:5.322 15:5.5689998 16:8.2919998 17:5.4460001 18:7.4260001 19:2.1040001 20:2.2279999 #
2.0245714044863620806324888690142 1:8.1529999 2:1.664 3:4.7420001 4:6.073 5:4.3260002 6:5.5739999 7:2.6619999 8:4.3260002 9:4.6589999 10:13.977 11:3.0780001 12:3.3280001 13:4.3260002 14:3.661 15:4.493 16:10.233 17:5.2410002 18:5.9070001 19:1.747 20:1.83 #
2.500000000031474822748123187921 1:8.7469997 2:1.044 3:3.3940001 4:4.8299999 5:5.0910001 6:7.441 7:2.2190001 8:5.6139998 9:3.3940001 10:11.88 11:2.48 12:3.1329999 13:3.3940001 14:4.4390001 15:5.0910001 16:7.8330002 17:5.6139998 18:9.5299997 19:1.3049999 20:3.5250001 #
-0.5000000000062949645496246375842 1:9.9139996 2:1.863 3:3.3929999 4:4.724 5:4.5910001 6:7.3850002 7:1.929 8:3.7260001 9:3.3269999 10:13.972 11:1.597 12:1.9960001 13:5.1900001 14:5.5890002 15:5.921 16:7.7179999 17:4.5240002 18:8.5159998 19:2.329 20:1.796 #
-0.5000000000062949645496246375842 1:8.5129995 2:1.637 3:4.257 4:4.6500001 5:4.8460002 6:6.4180002 7:2.03 8:5.8280001 9:3.7980001 10:13.36 11:2.358 12:3.2739999 13:4.5190001 14:4.322 15:4.8460002 16:7.5970001 17:4.8460002 18:8.1859999 19:1.899 20:2.816 #
-0.5000000000062949645496246375842 1:8.5509996 2:1.188 3:3.444 4:5.1069999 5:4.276 6:8.1949997 7:1.188 8:5.2259998 9:2.257 10:13.658 11:1.9 12:3.0880001 13:3.444 14:5.2259998 15:7.1259999 16:6.4130001 17:6.0570002 18:7.8379998 19:2.6129999 20:3.207 #
2.0492557542463738506910431169672 1:5.8410001 2:1.168 3:4.2059999 4:8.4110003 5:4.9070001 6:6.0749998 7:1.168 8:8.1780005 9:8.4110003 10:8.1780005 11:3.2709999 12:4.2059999 13:5.1399999 14:2.336 15:4.4390001 16:6.776 17:4.4390001 18:7.4770002 19:0.935 20:4.4390001 #
2.500000000031474822748123187921 1:5.921 2:0.43900001 3:6.579 4:4.3860002 5:4.3860002 6:7.4559999 7:2.1930001 8:7.0180001 9:7.237 10:8.9910002 11:3.5090001 12:5.7020001 13:4.605 14:2.8510001 15:4.8249998 16:7.4559999 17:6.3600001 18:5.263 19:1.096 20:3.7279999 #
2.3661591091778215734109380719019 1:6.25 2:1.316 3:5.592 4:9.2110004 5:5.592 6:5.921 7:1.316 8:4.605 9:7.895 10:9.5389996 11:2.632 12:2.961 13:6.25 14:3.618 15:4.605 16:7.237 17:3.618 18:4.934 19:0.98699999 20:5.921 #
-0.5000000000062949645496246375842 1:5.494 2:1.8150001 3:4.9899998 4:6.9559999 5:6.6030002 6:5.1919999 7:1.21 8:7.3080001 9:6.704 10:10.131 11:3.579 12:4.6880002 13:3.9820001 14:2.47 15:4.5869999 16:8.1149998 17:4.8889999 18:6.6030002 19:1.3609999 20:3.3269999 #
-0.5000000000062949645496246375842 1:5.2750001 2:1.29 3:5.158 4:6.5650001 5:4.2199998 6:4.1030002 7:1.876 8:6.9169998 9:7.855 10:13.365 11:1.641 12:6.6820002 13:3.165 14:3.6340001 15:5.6269999 16:9.4960003 17:5.5100002 18:3.9860001 19:0.82099998 20:2.8139999 #
-0.5000000000062949645496246375842 1:6.9460001 2:0.579 3:6.802 4:6.0780001 5:5.355 6:6.223 7:1.737 8:5.355 9:6.368 10:9.5509996 11:1.881 12:6.368 13:5.21 14:3.184 15:3.039 16:7.8150001 17:5.4990001 18:7.381 19:0.72399998 20:3.9070001 #
1.785326188460771179578046030656 1:8.1630001 2:1.4579999 3:3.9360001 4:4.5190001 5:3.4990001 6:8.309 7:1.749 8:2.77 9:2.6240001 10:17.055 11:2.187 12:2.332 13:4.665 14:6.5599999 15:6.2680001 16:6.8509998 17:4.5190001 18:8.0170002 19:1.749 20:2.77 #
2.0609806513694142182657742523588 1:7.2420001 2:2.855 3:4.6659999 4:7.1030002 5:3.4119999 6:5.0840001 7:2.6459999 8:5.223 9:3.552 10:13.579 11:2.507 12:3.76 13:4.3870001 14:5.2919998 15:4.9439998 16:6.9640002 17:5.0840001 18:6.4070001 19:1.462 20:3.8299999 #
2.2467581831857472707270062528551 1:8.5270004 2:1.55 3:2.7130001 4:5.8140001 5:8.5270004 6:4.2639999 7:1.163 8:7.3639998 9:3.1010001 10:12.791 11:3.4879999 12:1.938 13:6.2020001 14:2.326 15:3.4879999 16:6.5890002 17:4.651 18:10.853 19:0.77499998 20:3.8759999 #
-0.5000000000062949645496246375842 1:10.724 2:1.8099999 3:3.016 4:4.96 5:2.8150001 6:8.3109999 7:2.2119999 8:3.4849999 9:2.346 10:18.767 11:1.206 12:2.279 13:5.7639999 14:5.4289999 15:5.2280002 16:6.3670001 17:4.5580001 18:6.434 19:1.8099999 20:2.48 #
-0.5000000000062949645496246375842 1:9.3170004 2:0.62099999 3:4.0370002 4:5.1240001 5:3.5710001 6:7.9190001 7:1.7079999 8:6.0560002 9:5.1240001 10:11.801 11:2.0190001 12:3.882 13:2.484 14:2.95 15:4.348 16:10.093 17:6.677 18:9.1610003 19:0.46599999 20:2.6400001 #
-0.39624228660489635434061028718133 1:6.9710002 2:0.84100002 3:4.2069998 4:5.5289998 5:5.8889999 6:6.3699999 7:2.6440001 8:5.4089999 9:4.6880002 10:12.861 11:1.803 12:2.7639999 13:4.2069998 14:3.125 15:5.2880001 16:8.4130001 17:5.0479999 18:9.8559999 19:1.322 20:2.7639999 #
2.500000000031474822748123187921 1:6.0560002 2:3.7639999 3:4.9099998 4:5.5650001 5:5.401 6:4.092 7:2.7820001 8:6.5469999 9:6.5469999 10:10.311 11:2.619 12:4.9099998 13:4.2550001 14:3.6010001 15:4.2550001 16:8.0200005 17:4.2550001 18:7.3649998 19:0.98199999 20:3.7639999 #
1.3423300991515594304814840143081 1:5.1279998 2:1.056 3:8.2959995 4:6.6370001 5:5.2789998 6:4.223 7:1.961 8:7.6919999 9:7.8429999 10:9.5019999 11:1.357 12:4.6760001 13:5.4299998 14:3.6199999 15:3.4690001 16:7.3909998 17:6.4860001 18:5.5809999 19:1.207 20:3.1670001 #
1.6853018582991732277065466405475 1:4.151 2:0.99900001 3:5.2270002 4:6.7639999 5:4.381 6:2.6900001 7:2.3829999 8:6.3800001 9:8.993 10:9.9919996 11:1.998 12:7.1479998 13:4.612 14:5.4569998 15:4.612 16:10.3 17:5.9949999 18:4.0739999 19:0.53799999 20:3.3050001 #
-0.5000000000062949645496246375842 1:5.954 2:3.2060001 3:4.2750001 4:5.3439999 5:4.7329998 6:4.2750001 7:1.832 8:5.4959998 9:5.6490002 10:9.4659996 11:2.7479999 12:5.3439999 13:5.3439999 14:5.191 15:4.1220002 16:8.5500002 17:6.8699999 18:5.191 19:2.1370001 20:4.2750001 #
-0.5000000000062949645496246375842 1:5.5229998 2:2.0079999 3:6.276 4:5.4390001 5:4.2680001 6:4.77 7:3.2639999 8:6.4439998 9:6.3600001 10:9.7910004 11:1.925 12:4.2680001 13:5.0209999 14:3.849 15:5.941 16:10.042 17:5.7740002 18:5.2719998 19:0.83700001 20:2.9289999 #
-0.5000000000062949645496246375842 1:4.211 2:0.72899997 3:7.4489999 4:5.1009998 5:4.4530001 6:5.6680002 7:3.158 8:6.073 9:6.8829999 10:8.0159998 11:2.267 12:6.7210002 13:4.0489998 14:3.3199999 15:6.3969998 16:10.04 17:6.2350001 18:4.3720002 19:1.296 20:3.563 #
1.6089726948618761070974869653583 1:5.0479999 2:1.082 3:7.6919999 4:6.0100002 5:3.846 6:3.9660001 7:1.803 8:9.1350002 9:8.0530005 10:14.904 11:0.96200001 12:6.9710002 13:2.1630001 14:3.4860001 15:2.885 16:9.0139999 17:5.2880001 18:4.447 19:0.361 20:2.885 #
1.9382556044874432732427749215276 1:12.162 2:0.676 3:4.73 4:3.378 5:3.378 6:12.162 7:1.351 8:5.4050002 9:8.7840004 10:8.7840004 11:2.027 12:3.378 13:2.027 14:0.676 15:2.027 16:8.1079998 17:7.4320002 18:8.1079998 19:1.351 20:4.0539999 #
2.500000000031474822748123187921 1:8.9899998 2:0.44400001 3:5.7709999 4:10.322 5:2.7750001 6:6.2150002 7:2.4419999 8:5.993 9:5.6599998 10:9.1009998 11:3.6630001 12:3.7739999 13:3.2190001 14:4.6609998 15:7.3249998 16:4.8829999 17:4.6609998 18:6.5479999 19:0.77700001 20:2.7750001 #
-0.26833104227778992179054284861195 1:10.241 2:0.90399998 3:2.711 4:5.1199999 5:3.313 6:6.0240002 7:4.5180001 8:3.9159999 9:3.313 10:8.434 11:3.9159999 12:3.6140001 13:4.8189998 14:4.5180001 15:5.4219999 16:8.1330004 17:6.3249998 18:9.3369999 19:0.301 20:5.1199999 #
-0.5000000000062949645496246375842 1:9.8310003 2:0 3:3.0510001 4:2.0339999 5:11.186 6:5.085 7:1.017 8:6.441 9:1.6950001 10:11.864 11:1.3559999 12:2.0339999 13:4.7459998 14:4.0679998 15:4.0679998 16:8.4750004 17:5.085 18:10.508 19:2.3729999 20:5.085 #
-0.29411112572839576140282247251889 1:9.2309999 2:0.92299998 3:2.4619999 4:3.0769999 5:9.2309999 6:8 7:1.2309999 8:8 9:2.4619999 10:12.615 11:4.9229999 12:2.7690001 13:4.6149998 14:3.6919999 15:3.0769999 16:5.8460002 17:3.6919999 18:8.6149998 19:3.0769999 20:2.4619999 #
2.3122989486524754276786097761942 1:5.7509999 2:0.639 3:5.112 4:5.112 5:3.8340001 6:7.348 7:1.278 8:7.348 9:7.987 10:11.182 11:1.597 12:5.112 13:4.473 14:4.1529999 15:5.112 16:7.987 17:4.7919998 18:7.987 19:1.278 20:1.9170001 #
0.74323605478380672106908377827494 1:7.007 2:1.557 3:5.882 4:7.526 5:3.3740001 6:5.3629999 7:2.1630001 8:5.796 9:4.9310002 10:12.284 11:1.817 12:3.9790001 13:4.2389998 14:4.8439999 15:4.152 16:10.64 17:4.3249998 18:5.4499998 19:1.3839999 20:3.2869999 #
0.098075412287880012196517043321364 1:5.9239998 2:1.403 3:5.7680001 4:6.5469999 5:3.585 6:5.8460002 7:2.6500001 8:5.3779998 9:6.0019999 10:12.159 11:1.793 12:3.585 13:4.9099998 14:6.3909998 15:4.599 16:9.4309998 17:4.4429998 18:6.8590002 19:1.169 20:1.559 #
-0.5000000000062949645496246375842 1:6.3379998 2:2.582 3:4.46 4:5.869 5:5.3990002 6:4.2249999 7:0.93900001 8:7.0419998 9:6.573 10:14.319 11:2.3469999 12:4.46 13:3.9909999 14:4.2249999 15:2.8169999 16:8.9200001 17:3.5209999 18:6.8080001 19:1.174 20:3.9909999 #
-0.5000000000062949645496246375842 1:6.3590002 2:2.1199999 3:5.4860001 4:6.4840002 5:4.1149998 6:4.7379999 7:2.743 8:7.3569999 9:4.9879999 10:11.97 11:2.618 12:5.362 13:3.2420001 14:2.993 15:5.6110001 16:6.7329998 17:5.237 18:6.8579998 19:1.122 20:3.865 #
-0.12359854341186546355935149676952 1:7.5159998 2:1.322 3:4.0359998 4:6.402 5:4.3839998 6:6.1929998 7:2.575 8:6.8200002 9:5.776 10:11.621 11:2.9920001 12:3.132 13:3.4100001 14:3.7579999 15:5.8460002 16:8.2119999 17:5.6370001 18:6.8889999 19:1.183 20:2.296 #
2.0482913290636122205512492655544 1:10.059 2:2.0710001 3:3.846 4:4.1420002 5:8.8760004 6:5.0300002 7:2.0710001 8:4.1420002 9:4.1420002 10:7.3959999 11:2.9590001 12:5.9169998 13:7.1009998 14:5.0300002 15:3.846 16:6.8049998 17:5.0300002 18:6.8049998 19:2.0710001 20:2.6630001 #
1.7890275508629429612739158983459 1:4.4250002 2:2.655 3:4.4250002 4:8.8500004 5:7.0799999 6:7.0799999 7:1.77 8:2.655 9:5.3099999 10:9.7349997 11:3.54 12:5.3099999 13:3.54 14:1.77 15:4.4250002 16:11.504 17:2.655 18:8.8500004 19:2.655 20:1.77 #
1.8198056788997343247160642931703 1:5.9759998 2:0.79699999 3:3.586 4:1.1950001 5:9.1630001 6:11.155 7:0.79699999 8:6.7729998 9:0.79699999 10:12.351 11:3.984 12:3.586 13:5.9759998 14:3.187 15:6.7729998 16:4.382 17:3.984 18:5.5780001 19:3.984 20:5.9759998 #
-0.5000000000062949645496246375842 1:5.7140002 2:5.2379999 3:3.8099999 4:6.1900001 5:5.2379999 6:3.8099999 7:2.8570001 8:4.7620001 9:5.2379999 10:10.952 11:1.429 12:4.2859998 13:3.8099999 14:6.1900001 15:3.8099999 16:7.1430001 17:5.2379999 18:9.0480003 19:1.905 20:3.3329999 #
-0.5000000000062949645496246375842 1:6.75 2:2 3:7.75 4:5.5 5:6.75 6:5.5 7:1.5 8:11 9:9.5 10:8.25 11:2 12:5 13:4.5 14:1 15:1.75 16:6.75 17:4.75 18:4.5 19:0.75 20:4.5 #
-0.5000000000062949645496246375842 1:6.3829999 2:0.53200001 3:4.2550001 4:5.8509998 5:2.6600001 6:7.447 7:1.596 8:10.106 9:8.5109997 10:6.3829999 11:8.5109997 12:3.723 13:4.7870002 14:3.191 15:4.2550001 16:6.915 17:5.3189998 18:4.7870002 19:0.53200001 20:4.2550001 #
1.5037199505538607624544056307059 1:5.5079999 2:1.165 3:5.9320002 4:8.6859999 5:6.25 6:2.648 7:1.483 8:9.2159996 9:5.5079999 10:12.606 11:2.4360001 12:5.7199998 13:4.0250001 14:4.4489999 15:2.8599999 16:7.5209999 17:4.131 18:5.7199998 19:0.95300001 20:3.178 #
1.5481566900725896029911154982983 1:5.5500002 2:1.693 3:5.1739998 4:7.0560002 5:5.5500002 6:2.822 7:2.54 8:7.3379998 9:6.303 10:11.007 11:3.8570001 12:6.4910002 13:2.822 14:5.5500002 15:3.4809999 16:5.2680001 17:5.5500002 18:7.902 19:1.1289999 20:2.9159999 #
1.7276866611992995892421731696231 1:14.173 2:0 3:1.575 4:3.937 5:2.362 6:7.8740001 7:0.787 8:7.0869999 9:3.1500001 10:14.961 11:3.1500001 12:1.575 13:1.575 14:1.575 15:7.0869999 16:3.1500001 17:8.6610003 18:13.386 19:2.362 20:1.575 #
-0.5000000000062949645496246375842 1:5.3920002 2:0.49000001 3:6.618 4:6.8629999 5:4.1669998 6:3.1860001 7:4.4120002 8:7.1079998 9:8.0880003 10:9.8039999 11:1.471 12:5.6370001 13:4.902 14:5.1469998 15:3.431 16:6.618 17:5.882 18:4.6570001 19:2.451 20:3.6760001 #
-0.5000000000062949645496246375842 1:9.408 2:0.69700003 3:5.9229999 4:5.2259998 5:1.3940001 6:6.9689999 7:1.3940001 8:4.5300002 9:8.0139999 10:10.105 11:4.5300002 12:4.1810002 13:3.1359999 14:4.8779998 15:4.5300002 16:7.3169999 17:4.5300002 18:8.7110004 19:0.69700003 20:3.8329999 #
-0.5000000000062949645496246375842 1:5.8369999 2:0.389 3:3.1129999 4:8.5600004 5:3.5020001 6:8.1709995 7:3.5020001 8:5.0580001 9:6.2259998 10:11.673 11:3.1129999 12:3.891 13:3.5020001 14:6.6149998 15:5.8369999 16:6.6149998 17:3.5020001 18:9.3389997 19:0.389 20:1.1670001 #
1.7425934384558463552394869111595 1:11.594 2:0.96600002 3:3.382 4:4.8309999 5:5.7969999 6:13.043 7:0.48300001 8:4.8309999 9:5.3140001 10:5.7969999 11:5.3140001 12:3.865 13:5.3140001 14:4.8309999 15:2.415 16:6.2800002 17:6.763 18:4.8309999 19:0 20:4.348 #
1.6237863312510376623265528905904 1:6.2989998 2:2.362 3:7.8740001 4:3.1500001 5:6.2989998 6:6.2989998 7:3.937 8:9.4490004 9:4.724 10:7.8740001 11:3.937 12:3.937 13:3.937 14:10.236 15:1.575 16:6.2989998 17:3.937 18:3.1500001 19:2.362 20:2.362 #
1.6194129535622987514642545647803 1:30.879 2:0.47499999 3:4.7509999 4:10.689 5:1.425 6:4.9879999 7:0.23800001 8:3.325 9:15.677 10:4.513 11:1.188 12:2.6129999 13:2.375 14:4.7509999 15:2.138 16:5.2259998 17:1.425 18:1.9 19:0.23800001 20:1.188 #
-0.5000000000062949645496246375842 1:8.2449999 2:1.76 3:4.2150002 4:5.4190001 5:4.447 6:8.3369999 7:2.362 8:3.0109999 9:2.825 10:14.961 11:1.9450001 12:2.779 13:6.994 14:4.4000001 15:6.5770001 16:6.855 17:4.493 18:7.04 19:1.436 20:1.899 #
-0.34844551210532265228536630274903 1:9.7980003 2:2.177 3:3.421 4:2.9549999 5:4.1989999 6:10.109 7:0.31099999 8:3.733 9:2.0220001 10:15.397 11:2.9549999 12:2.3329999 13:5.2880001 14:3.1099999 15:4.5100002 16:7.4650002 17:6.3759999 18:8.5539999 19:1.8660001 20:3.421 #
-0.5000000000062949645496246375842 1:9.9820004 2:1.848 3:2.5880001 4:2.5880001 5:5.1760001 6:11.46 7:1.294 8:4.0669999 9:1.664 10:17.190001 11:1.479 12:1.848 13:6.2849998 14:3.142 15:4.8060002 16:9.427 17:4.9910002 18:6.4699998 19:1.479 20:2.2179999 #
1.6349983656564854861414914921625 1:6.0749998 2:1.869 3:7.4770002 4:8.1780005 5:5.6069999 6:4.9070001 7:2.5699999 8:6.0749998 9:6.776 10:9.5790005 11:3.5050001 12:3.7379999 13:3.5050001 14:5.3740001 15:5.8410001 16:4.6729999 17:3.5050001 18:8.4110003 19:0 20:2.336 #
1.6316866155332128140997838272597 1:7.368 2:4.211 3:6.316 4:5.263 5:3.158 6:11.579 7:0 8:4.211 9:6.316 10:6.316 11:7.368 12:5.263 13:2.105 14:6.316 15:7.368 16:7.368 17:2.105 18:4.211 19:1.053 20:2.105 #
1.6119452734936388083042402286083 1:12.752 2:0.671 3:4.027 4:6.711 5:4.027 6:8.7250004 7:0.671 8:4.698 9:9.3959999 10:4.698 11:1.342 12:8.0539999 13:2.013 14:5.369 15:5.369 16:9.3959999 17:4.698 18:3.3559999 19:0.671 20:3.3559999 #
-0.5000000000062949645496246375842 1:5.9489999 2:2.776 3:4.7030001 4:5.3260002 5:7.7620001 6:4.2490001 7:1.02 8:7.1389999 9:6.572 10:10.765 11:3.286 12:5.1560001 13:4.2490001 14:3.3429999 15:4.6459999 16:7.4790001 17:4.5890002 18:7.0819998 19:1.586 20:2.323 #
-0.5000000000062949645496246375842 1:6.1370001 2:0 3:7.2199998 4:10.83 5:3.971 6:7.2199998 7:1.0829999 8:8.3030005 9:5.776 10:10.108 11:3.6099999 12:4.6929998 13:2.888 14:2.527 15:5.415 16:6.4980001 17:4.3319998 18:7.5809999 19:0.722 20:1.0829999 #
-0.5000000000062949645496246375842 1:2.5810001 2:1.613 3:4.8390002 4:6.4520001 5:7.0970001 6:3.5480001 7:2.2579999 8:7.7420001 9:9.0319996 10:10.968 11:4.5159998 12:8.71 13:1.9349999 14:3.8710001 15:3.2260001 16:10.323 17:3.5480001 18:5.1609998 19:0.96799999 20:1.613 #
1.6189443417643960554386239891755 1:14.925 2:0 3:8.9549999 4:4.4780002 5:2.9849999 6:10.448 7:1.493 8:4.4780002 9:14.925 10:14.925 11:2.9849999 12:1.493 13:0 14:1.493 15:1.493 16:2.9849999 17:4.4780002 18:7.4629998 19:0 20:0 #
1.6160286108493184809020704051363 1:4.171 2:0.52100003 3:2.503 4:1.9809999 5:6.257 6:12.513 7:0.73000002 8:2.8150001 9:4.6919999 10:6.9860001 11:1.043 12:15.016 13:4.6919999 14:6.3610001 15:1.46 16:14.39 17:9.5930004 18:2.9200001 19:0.104 20:1.251 #
1.6435206561525128599043910071487 1:10.839 2:0.815 3:2.638 4:4.2210002 5:5.3720002 6:8.7770004 7:1.295 8:1.8710001 9:4.2690001 10:6.5710001 11:1.3430001 12:2.878 13:9.8800001 14:4.3649998 15:2.3499999 16:16.163 17:8.7770004 18:6.1389999 19:0.47999999 20:0.95899999 #
-0.5000000000062949645496246375842 1:12.113 2:2.062 3:3.0929999 4:5.6700001 5:4.1240001 6:6.9590001 7:4.381 8:3.0929999 9:1.289 10:14.175 11:2.835 12:0.51499999 13:5.4120002 14:3.0929999 15:4.8969998 16:9.7939997 17:6.1859999 18:6.4429998 19:1.031 20:2.835 #
-0.5000000000062949645496246375842 1:8.5939999 2:0 3:7.0310001 4:12.5 5:3.125 6:0.78100002 7:1.562 8:3.125 9:6.25 10:13.281 11:3.9059999 12:4.6880002 13:7.0310001 14:3.9059999 15:4.6880002 16:7.8119998 17:3.125 18:5.4689999 19:1.562 20:1.562 #
-0.5000000000062949645496246375842 1:4.0229998 2:2.586 3:9.7700005 4:6.322 5:4.0229998 6:5.1719999 7:0.86199999 8:6.8969998 9:12.356 10:7.7589998 11:1.724 12:4.0229998 13:4.8850002 14:3.7360001 15:1.149 16:10.345 17:7.184 18:4.598 19:0.287 20:2.299 #
1.6022603970306037446391655976186 1:2.299 2:4.598 3:5.7470002 4:6.8969998 5:4.598 6:2.299 7:1.149 8:5.7470002 9:6.8969998 10:9.1949997 11:2.299 12:10.345 13:0 14:6.8969998 15:3.448 16:14.943 17:6.8969998 18:5.7470002 19:0 20:0 #
1.5855194146910194241684166627238 1:3.448 2:4.598 3:4.598 4:9.1949997 5:6.8969998 6:4.598 7:1.149 8:1.149 9:10.345 10:8.0459995 11:4.598 12:5.7470002 13:0 14:11.494 15:5.7470002 16:5.7470002 17:5.7470002 18:5.7470002 19:0 20:1.149 #
1.5597001113583022213759932128596 1:6.4520001 2:4.3010001 3:3.2260001 4:7.527 5:6.4520001 6:8.6020002 7:0 8:2.151 9:8.6020002 10:7.527 11:4.3010001 12:9.677 13:1.075 14:8.6020002 15:1.075 16:8.6020002 17:3.2260001 18:5.3759999 19:0 20:3.2260001 #
-0.5000000000062949645496246375842 1:10.39 2:0.64899999 3:8.4420004 4:9.7399998 5:3.8959999 6:5.1950002 7:1.948 8:5.8439999 9:4.5450001 10:9.7399998 11:2.5969999 12:4.5450001 13:4.5450001 14:4.5450001 15:5.1950002 16:1.948 17:4.5450001 18:9.0909996 19:0.64899999 20:1.948 #
-0.5000000000062949645496246375842 1:11.076 2:0.949 3:4.4299998 4:11.392 5:5.3800001 6:6.013 7:1.899 8:1.899 9:8.2279997 10:10.127 11:4.1139998 12:4.4299998 13:3.165 14:5.0630002 15:4.4299998 16:3.7969999 17:4.4299998 18:4.1139998 19:0.63300002 20:4.4299998 #
-0.45707903417693396264098737447057 1:14.667 2:1 3:3.3329999 4:3 5:5.3330002 6:13 7:0.667 8:2.3329999 9:5.3330002 10:8.3330002 11:3 12:1.3329999 13:5 14:4 15:4.3330002 16:7 17:6 18:8.6669998 19:0.667 20:3 #
1.5842285950462036137054155915393 1:7.7779999 2:4.4439998 3:5.5560002 4:11.111 5:0 6:3.3329999 7:3.3329999 8:1.1109999 9:7.7779999 10:10 11:8.8889999 12:1.1109999 13:4.4439998 14:5.5560002 15:6.6669998 16:7.7779999 17:2.2219999 18:5.5560002 19:0 20:3.3329999 #
1.6156967340426180435031255910872 1:8.75 2:1.25 3:1.25 4:10 5:3.75 6:7.5 7:1.25 8:12.5 9:13.75 10:5 11:1.25 12:2.5 13:3.75 14:3.75 15:3.75 16:2.5 17:2.5 18:11.25 19:0 20:3.75 #
1.7395494848628074713303703902056 1:9.0319996 2:2.5810001 3:5.1609998 4:8.3870001 5:5.8060002 6:5.8060002 7:1.9349999 8:5.1609998 9:1.9349999 10:7.7420001 11:3.2260001 12:4.5159998 13:4.5159998 14:9.0319996 15:2.5810001 16:5.1609998 17:7.0970001 18:6.4520001 19:0.64499998 20:3.2260001 #
-0.5000000000062949645496246375842 1:5.802 2:1.069 3:4.5799999 4:6.7179999 5:6.1069999 6:6.1069999 7:2.29 8:5.6490002 9:4.2750001 10:9.7709999 11:1.832 12:3.5109999 13:4.8850002 14:9.9239998 15:5.0380001 16:7.3280001 17:5.191 18:6.5650001 19:0.76300001 20:2.595 #
-0.5000000000062949645496246375842 1:4.5180001 2:1.807 3:6.0240002 4:9.3369999 5:4.217 6:3.9159999 7:3.0120001 8:5.723 9:8.1330004 10:6.0240002 11:2.108 12:2.711 13:7.8309999 14:3.0120001 15:5.4219999 16:8.1330004 17:5.723 18:6.3249998 19:1.807 20:4.217 #
-0.5000000000062949645496246375842 1:6.5450001 2:2.3559999 3:4.4499998 4:4.974 5:5.4970002 6:6.0209999 7:2.0940001 8:5.4970002 9:7.0679998 10:8.6389999 11:1.832 12:3.927 13:5.4970002 14:4.4499998 15:4.7119999 16:9.6859999 17:3.665 18:7.3299999 19:1.571 20:4.1880002 #
1.7037053597471967236742784734815 1:7.7459998 2:0 3:5.6339998 4:6.3379998 5:2.1129999 6:5.6339998 7:0.704 8:7.7459998 9:4.9299998 10:11.268 11:2.1129999 12:3.5209999 13:7.0419998 14:3.5209999 15:5.6339998 16:7.0419998 17:4.2249999 18:13.38 19:0 20:1.408 #
1.4423522838574793780708205304109 1:10.363 2:1.554 3:4.145 4:8.8079996 5:3.109 6:4.145 7:1.036 8:5.6989999 9:6.7360001 10:16.58 11:3.109 12:6.2179999 13:3.6270001 14:4.6630001 15:4.6630001 16:4.145 17:5.6989999 18:3.6270001 19:1.036 20:1.036 #
1.4096704920298641638964909361675 1:3.974 2:1.104 3:4.6360002 4:5.7399998 5:4.6360002 6:8.3889999 7:3.0910001 8:3.0910001 9:2.8699999 10:14.57 11:1.325 12:1.987 13:6.402 14:4.415 15:7.0640001 16:12.583 17:3.0910001 18:7.947 19:0.662 20:2.428 #
-0.5000000000062949645496246375842 1:5.0370002 2:1.3329999 3:7.4070001 4:5.9260001 5:5.3330002 6:4.1479998 7:1.1849999 8:6.9629998 9:6.5190001 10:12.741 11:2.6670001 12:5.0370002 13:3.852 14:3.1110001 15:4.4439998 16:6.2220001 17:5.1849999 18:6.3699999 19:1.3329999 20:5.1849999 #
-0.3783265005069199604648133572482 1:8.3140001 2:0.23800001 3:2.6129999 4:3.8 5:6.651 6:9.5010004 7:0.713 8:12.589 9:5.9380002 10:10.451 11:3.563 12:2.8499999 13:3.325 14:3.8 15:1.188 16:6.1760001 17:4.9879999 18:9.9759998 19:0.47499999 20:2.8499999 #
-0.5000000000062949645496246375842 1:7.7670002 2:1.942 3:9.2229996 4:11.65 5:0.97100002 6:6.796 7:0.48500001 8:5.3400002 9:5.8249998 10:7.7670002 11:6.3109999 12:6.796 13:0.97100002 14:6.3109999 15:8.2519999 16:4.8540001 17:3.398 18:4.369 19:0.48500001 20:0.48500001 #
0.95646526860842118189509619696764 1:5.0209999 2:0.83700001 3:6.0669999 4:8.9960003 5:3.138 6:5.0209999 7:1.046 8:8.7869997 9:8.7869997 10:7.322 11:1.255 12:4.184 13:7.9499998 14:3.9749999 15:4.8119998 16:7.1129999 17:4.8119998 18:6.276 19:1.464 20:3.138 #
1.6658115315700705583168428347562 1:7.1430001 2:0 3:3.5710001 4:4.1669998 5:4.7620001 6:12.5 7:1.786 8:5.3569999 9:10.119 10:8.9289999 11:2.9760001 12:7.7379999 13:4.1669998 14:4.7620001 15:1.1900001 16:7.1430001 17:7.7379999 18:3.5710001 19:0 20:2.381 #
0.81975065137528180247983300432679 1:7.256 2:1.751 3:5.9219999 4:8.3400002 5:2.5020001 6:3.4200001 7:2.6689999 8:5.5879998 9:9.5909996 10:10.425 11:2.5020001 12:3.003 13:5.5050001 14:5.0040002 15:4.5040002 16:8.3400002 17:4.2540002 18:6.5050001 19:0.5 20:2.4189999 #
-0.5000000000062949645496246375842 1:6.322 2:0 3:7.4710002 4:7.4710002 5:2.8740001 6:2.299 7:1.149 8:5.1719999 9:12.644 10:9.1949997 11:2.299 12:4.0229998 13:2.8740001 14:5.1719999 15:4.0229998 16:10.345 17:5.7470002 18:7.4710002 19:1.149 20:2.299 #
-0.5000000000062949645496246375842 1:4.7470002 2:1.899 3:5.6960001 4:6.6459999 5:3.4809999 6:4.7470002 7:1.7410001 8:5.0630002 9:7.2779999 10:9.8100004 11:2.6900001 12:3.9560001 13:5.8540001 14:4.7470002 15:7.1199999 16:8.8610001 17:6.9619999 18:7.1199999 19:0.79100001 20:0.79100001 #
-0.5000000000062949645496246375842 1:7.0339999 2:1.711 3:4.7529998 4:9.5059996 5:3.802 6:4.9429998 7:1.331 8:3.612 9:9.5059996 10:9.316 11:2.471 12:3.4219999 13:7.0339999 14:6.0840001 15:3.612 16:5.513 17:3.9920001 18:7.414 19:1.521 20:3.4219999 #
1.06535215550024409125740021409 1:6.4790001 2:1.296 3:6.1560001 4:9.3950005 5:3.9960001 6:3.6719999 7:3.348 8:4.7519999 9:5.4000001 10:11.879 11:3.0239999 12:3.348 13:3.4560001 14:4.8600001 15:6.0479999 16:7.0190001 17:5.724 18:5.4000001 19:2.052 20:2.7 #
-0.5000000000062949645496246375842 1:9.9329996 2:0.191 3:4.0110002 4:5.8260002 5:2.865 6:7.4499998 7:1.528 8:7.927 9:4.1069999 10:11.557 11:3.3429999 12:2.674 13:5.2529998 14:3.5339999 15:4.8709998 16:5.6350002 17:5.158 18:9.4560003 19:2.006 20:2.674 #
-0.5000000000062949645496246375842 1:7.5949998 2:0.31600001 3:6.329 4:10.759 5:6.9619999 6:4.7470002 7:1.582 8:6.013 9:3.165 10:13.608 11:3.165 12:3.4809999 13:3.165 14:4.1139998 15:7.2779999 16:6.013 17:2.848 18:5.0630002 19:1.266 20:2.5320001 #
-0.35924335891958875111029669824347 1:9.4879999 2:0.99900001 3:3.2460001 4:4.619 5:5.618 6:7.6149998 7:2.497 8:7.6149998 9:3.6199999 10:9.8629999 11:2.8710001 12:2.497 13:4.3699999 14:2.622 15:5.368 16:7.3660002 17:5.243 18:9.2379999 19:1.124 20:4.1199999 #
-0.5000000000062949645496246375842 1:5.3099999 2:1.327 3:2.2119999 4:1.327 5:7.9650002 6:8.8500004 7:2.2119999 8:7.9650002 9:1.327 10:12.832 11:5.3099999 12:1.77 13:3.54 14:3.9820001 15:6.6370001 16:6.6370001 17:5.7519999 18:6.6370001 19:3.54 20:4.8670001 #
-0.5000000000062949645496246375842 1:7.0339999 2:4.3730001 3:5.7030001 4:7.9850001 5:5.7030001 6:6.4640002 7:2.6619999 8:4.5630002 9:5.7030001 10:9.6960001 11:2.471 12:3.612 13:4.1830001 14:4.3730001 15:4.7529998 16:5.513 17:4.7529998 18:5.323 19:0.56999999 20:4.5630002 #
-0.5000000000062949645496246375842 1:6.5809999 2:1.605 3:5.4569998 4:8.9890003 5:2.7290001 6:5.7779999 7:4.013 8:5.1360002 9:8.6680002 10:11.717 11:3.852 12:3.6919999 13:4.3340001 14:4.013 15:5.4569998 16:4.1729999 17:5.1360002 18:4.9759998 19:1.124 20:2.5680001 #
-0.28224940699079675843208292462805 1:7.7459998 2:1.937 3:3.1689999 4:4.2249999 5:6.5139999 6:8.2749996 7:1.761 8:6.6900001 9:2.8169999 10:12.5 11:2.8169999 12:3.697 13:3.8729999 14:3.5209999 15:3.1689999 16:7.7459998 17:4.401 18:10.035 19:1.408 20:3.697 #
-0.5000000000062949645496246375842 1:9.4219999 2:2.4319999 3:3.3429999 4:3.6470001 5:9.1190004 6:5.1669998 7:1.52 8:4.2550001 9:1.824 10:10.03 11:1.52 12:4.2550001 13:6.6869998 14:7.2950001 15:3.951 16:8.8149996 17:5.1669998 18:6.9910002 19:2.128 20:2.4319999 #
-0.30660384613112029450476825331862 1:9.5690002 2:1.4349999 3:3.8280001 4:7.6560001 5:4.7849998 6:4.3060002 7:1.914 8:6.6989999 9:8.6120005 10:11.483 11:2.8710001 12:4.7849998 13:5.263 14:3.8280001 15:2.8710001 16:2.8710001 17:5.263 18:5.7420001 19:1.4349999 20:4.7849998 #
-0.5000000000062949645496246375842 1:6.5040002 2:0 3:4.0650001 4:8.1300001 5:5.691 6:2.4389999 7:2.4389999 8:8.9429998 9:5.691 10:6.5040002 11:4.8779998 12:5.691 13:1.626 14:5.691 15:4.0650001 16:7.3169999 17:6.5040002 18:6.5040002 19:1.626 20:5.691 #
-0.48056789617897449629069228649314 1:7.447 2:0 3:6.7379999 4:3.901 5:4.9650002 6:10.993 7:1.418 8:2.4820001 9:8.8649998 10:10.638 11:0.35499999 12:6.7379999 13:1.418 14:5.6739998 15:1.418 16:7.8010001 17:7.8010001 18:6.3829999 19:1.418 20:3.546 #
-0.5000000000062949645496246375842 1:4.448 2:2.0109999 3:5.138 4:5.7880001 5:6.2140002 6:3.9809999 7:2.0309999 8:7.5949998 9:6.2350001 10:12.449 11:1.523 12:5.849 13:4.224 14:3.493 15:3.3099999 16:9.7679996 17:5.1789999 18:5.869 19:0.995 20:3.8989999 #
-0.5000000000062949645496246375842 1:7.0310001 2:0.74800003 3:5.2360001 4:5.46 5:4.1880002 6:6.9559999 7:2.3929999 8:5.1609998 9:4.7870002 10:13.762 11:2.244 12:2.767 13:2.9170001 14:4.1139998 15:7.105 16:9.0500002 17:5.7589998 18:6.3579998 19:1.197 20:2.767 #
-0.5000000000062949645496246375842 1:7.5469999 2:0.80900002 3:4.5819998 4:7.0079999 5:2.9649999 6:7.5469999 7:2.6949999 8:5.6599998 9:4.0430002 10:10.782 11:2.9649999 12:3.5039999 13:5.3909998 14:5.9299998 15:6.4689999 16:4.5819998 17:3.7739999 18:11.59 19:0.53899997 20:1.617 #
-0.5000000000062949645496246375842 1:9.1330004 2:2.108 3:2.576 4:3.9809999 5:3.0439999 6:7.494 7:3.279 8:3.513 9:4.684 10:17.096001 11:3.513 12:2.342 13:3.513 14:4.684 15:6.7919998 16:4.9180002 17:5.152 18:7.7280002 19:2.576 20:1.874 #
0.1690599107310025717154644553375 1:7.3800001 2:2.2869999 3:5.198 4:7.4840002 5:5.717 6:3.0150001 7:1.975 8:5.3010001 9:5.4050002 10:12.89 11:2.911 12:3.4300001 13:3.638 14:7.1729999 15:4.2620001 16:6.4450002 17:4.158 18:7.6919999 19:0.83200002 20:2.8069999 #
-0.5000000000062949645496246375842 1:5.204 2:1.357 3:4.5250001 4:8.3710003 5:6.5609999 6:4.5250001 7:2.7149999 8:7.9190001 9:5.4299998 10:12.217 11:3.846 12:4.9770002 13:2.7149999 14:4.2989998 15:3.1670001 16:3.846 17:5.882 18:7.9190001 19:2.036 20:2.4890001 #
-0.45419450728258720095809053418634 1:7.4920001 2:1.6289999 3:3.257 4:3.9089999 5:4.8860002 6:8.4689999 7:0.32600001 8:6.5149999 9:8.7950001 10:7.4920001 11:4.5599999 12:4.5599999 13:4.2350001 14:3.257 15:4.5599999 16:6.5149999 17:5.8629999 18:8.4689999 19:0.977 20:4.2350001 #
-0.5000000000062949645496246375842 1:6.4029999 2:0.81699997 3:3.1340001 4:7.493 5:5.4499998 6:4.0869999 7:2.0439999 8:5.3130002 9:7.493 10:10.627 11:2.8610001 12:4.9050002 13:3.951 14:2.1800001 15:5.0409999 16:7.6290002 17:6.131 18:10.899 19:1.499 20:2.0439999 #
-0.5000000000062949645496246375842 1:6.5149999 2:0.65100002 3:7.4920001 4:8.4689999 5:3.9089999 6:8.1429996 7:1.954 8:2.9319999 9:3.257 10:9.1210003 11:2.9319999 12:0.65100002 13:9.4460001 14:5.5370002 15:4.8860002 16:10.098 17:3.9089999 18:5.8629999 19:1.6289999 20:2.6059999 #
-0.5000000000062949645496246375842 1:9.6450005 2:1.8609999 3:2.707 4:3.3840001 5:5.2449999 6:6.7680001 7:1.8609999 8:3.3840001 9:2.2 10:13.875 11:1.354 12:2.03 13:6.7680001 14:4.9070001 15:5.9219999 16:8.9680004 17:4.7379999 18:8.7989998 19:1.523 20:4.0609999 #
-0.5000000000062949645496246375842 1:6.5419998 2:1.869 3:6.0749998 4:7.4770002 5:3.2709999 6:6.5419998 7:0.46700001 8:4.2059999 9:7.4770002 10:9.3459997 11:3.2709999 12:3.2709999 13:3.7379999 14:6.0749998 15:5.1399999 16:6.5419998 17:2.8039999 18:6.0749998 19:2.8039999 20:7.0089998 #
-0.5000000000062949645496246375842 1:4.6560001 2:0.88700002 3:7.428 4:4.9889998 5:7.428 6:4.8779998 7:1.9960001 8:7.0949998 9:8.2040005 10:10.865 11:1.33 12:8.4259996 13:2.55 14:4.2129998 15:4.5450001 16:7.539 17:4.2129998 18:3.7690001 19:0.333 20:4.6560001 #
-0.5000000000062949645496246375842 1:4.3909998 2:2.3050001 3:4.7199998 4:6.6960001 5:6.3670001 6:4.8299999 7:1.5369999 8:8.7819996 9:6.1469998 10:9.0010004 11:2.8540001 12:4.9400001 13:4.7199998 14:3.9519999 15:4.7199998 16:5.0489998 17:5.7080002 18:6.0370002 19:1.8660001 20:5.3790002 #
-0.5000000000062949645496246375842 1:6.5159998 2:1.705 3:4.0799999 4:6.2729998 5:6.395 6:4.6290002 7:2.01 8:7.6739998 9:7.125 10:11.389 11:2.9230001 12:3.471 13:3.8369999 14:3.5929999 15:2.984 16:8.4650002 17:4.75 18:7.2470002 19:1.34 20:3.5929999 #
-0.5000000000062949645496246375842 1:10.69 2:1.724 3:6.552 4:4.8280001 5:2.7590001 6:13.103 7:2.414 8:5.1719999 9:6.2069998 10:8.276 11:2.414 12:3.448 13:3.793 14:2.069 15:3.1029999 16:5.5170002 17:5.862 18:5.862 19:3.448 20:2.7590001 #
-0.5000000000062949645496246375842 1:8.8500004 2:0.442 3:6.6370001 4:9.2919998 5:2.2119999 6:3.54 7:0.442 8:7.0799999 9:10.619 10:10.619 11:4.4250002 12:3.9820001 13:2.2119999 14:8.8500004 15:6.1950002 16:2.2119999 17:2.655 18:6.6370001 19:0 20:3.0969999 #
-0.41490877699665468236744914065639 1:15.254 2:1.13 3:5.085 4:9.6049995 5:3.3900001 6:4.52 7:1.13 8:5.6500001 9:4.52 10:10.169 11:3.9549999 12:3.3900001 13:1.6950001 14:5.085 15:6.2150002 16:6.7800002 17:2.26 18:9.04 19:0.565 20:0.565 #
-0.5000000000062949645496246375842 1:6.7750001 2:1.921 3:5.763 4:6.0669999 5:4.954 6:5.763 7:2.1229999 8:6.1680002 9:6.1680002 10:8.9989996 11:2.224 12:3.842 13:4.2470002 14:3.7409999 15:5.763 16:7.9879999 17:5.2579999 18:7.7859998 19:1.517 20:2.9319999 #
-0.5000000000062949645496246375842 1:6.2880001 2:1.0140001 3:6.085 4:6.085 5:4.868 6:6.2880001 7:3.8540001 8:6.6939998 9:5.4770002 10:9.533 11:2.8399999 12:3.8540001 13:2.8399999 14:2.8399999 15:4.868 16:10.142 17:3.651 18:9.1280003 19:1.0140001 20:2.6370001 #
-0.39993216446070734004791802362888 1:7.1999998 2:1.6 3:5.5999999 4:4.8000002 5:1.6 6:6.4000001 7:4.8000002 8:6.4000001 9:5.5999999 10:8 11:4 12:8 13:4.8000002 14:2.4000001 15:1.6 16:7.1999998 17:8 18:8 19:1.6 20:2.4000001 #
-0.42584423894768724805359738638799 1:10.769 2:0.34200001 3:2.2219999 4:3.4189999 5:5.4699998 6:13.162 7:0.68400002 8:2.0510001 9:4.7859998 10:9.7440004 11:1.368 12:3.7609999 13:5.1279998 14:6.1539998 15:2.2219999 16:12.479 17:11.966 18:3.2479999 19:0.171 20:0.85500002 #
-0.42235581649004266813207664199581 1:11.594 2:0 3:4.348 4:11.594 5:1.449 6:4.348 7:0 8:5.7969999 9:10.145 10:11.594 11:1.449 12:1.449 13:5.7969999 14:2.8989999 15:10.145 16:4.348 17:1.449 18:5.7969999 19:0 20:5.7969999 #
-0.39762801246614604133711168287846 1:10.169 2:0 3:5.085 4:3.3900001 5:10.169 6:6.7800002 7:0 8:3.3900001 9:10.169 10:5.085 11:3.3900001 12:5.085 13:8.4750004 14:0 15:5.085 16:5.085 17:3.3900001 18:8.4750004 19:1.6950001 20:5.085 #
-0.5000000000062949645496246375842 1:5.882 2:2.1670001 3:6.5019999 4:6.1919999 5:4.3340001 6:4.3340001 7:2.477 8:3.7149999 9:7.7399998 10:11.765 11:2.786 12:4.6440001 13:6.1919999 14:4.954 15:4.3340001 16:4.954 17:3.096 18:8.3590002 19:0.92900002 20:4.6440001 #
-0.39190915844604790052585485682357 1:3.03 2:1.515 3:7.5760002 4:4.5450001 5:6.0609999 6:16.667 7:0 8:6.0609999 9:4.5450001 10:10.606 11:3.03 12:4.5450001 13:4.5450001 14:1.515 15:9.0909996 16:4.5450001 17:3.03 18:4.5450001 19:0 20:4.5450001 #
-0.40292272447361326959125449320709 1:10.753 2:1.72 3:2.151 4:2.796 5:7.0970001 6:9.2469997 7:1.075 8:12.258 9:3.0109999 10:8.8170004 11:5.5910001 12:2.5810001 13:2.3659999 14:3.441 15:2.151 16:5.8060002 17:6.0219998 18:7.527 19:2.5810001 20:3.0109999 #
-0.38394164557782445301725715580687 1:10.185 2:1.852 3:3.704 4:5.5560002 5:3.704 6:12.963 7:2.7780001 8:4.6300001 9:13.889 10:7.4070001 11:1.852 12:4.6300001 13:4.6300001 14:2.7780001 15:2.7780001 16:0.926 17:6.4809999 18:4.6300001 19:0.926 20:3.704 #
-0.372103763697219036554741933287 1:1.575 2:0.787 3:3.937 4:10.236 5:4.724 6:9.4490004 7:1.575 8:7.0869999 9:13.386 10:4.724 11:5.5120001 12:4.724 13:1.575 14:3.1500001 15:1.575 16:4.724 17:9.4490004 18:9.4490004 19:0 20:2.362 #
-0.27138816679381683183436280160095 1:19.672001 2:1.23 3:1.6390001 4:2.869 5:3.6889999 6:6.967 7:0.41 8:5.3280001 9:0.81999999 10:17.212999 11:1.6390001 12:0.81999999 13:5.7379999 14:2.869 15:9.8360004 16:2.869 17:6.967 18:6.967 19:2.049 20:0.41 #
-0.38000142104331974257647175363672 1:9.6389999 2:3.0120001 3:5.4219999 4:9.0360003 5:3.0120001 6:6.6269999 7:5.4219999 8:7.8309999 9:4.217 10:6.6269999 11:2.4100001 12:3.0120001 13:6.0240002 14:6.0240002 15:4.8189998 16:3.0120001 17:4.8189998 18:5.4219999 19:0.602 20:3.0120001 #
-0.395406849462894949276403622207 1:6.7160001 2:0 3:7.4629998 4:11.194 5:1.493 6:4.4780002 7:4.4780002 8:5.9699998 9:7.4629998 10:8.2089996 11:2.2390001 12:2.2390001 13:2.9849999 14:2.2390001 15:2.9849999 16:8.2089996 17:7.4629998 18:6.7160001 19:2.9849999 20:4.4780002 #
-0.33402050420747514403174704966659 1:12.23 2:0 3:4.3169999 4:9.3529997 5:1.439 6:8.6330004 7:4.3169999 8:7.914 9:5.7550001 10:8.6330004 11:4.3169999 12:0.71899998 13:2.878 14:5.7550001 15:3.5969999 16:5.7550001 17:4.3169999 18:7.1939998 19:0 20:2.878 #
-0.5000000000062949645496246375842 1:9.4139996 2:2.309 3:2.309 4:3.375 5:4.618 6:8.3479996 7:1.776 8:4.4400001 9:2.309 10:14.032 11:3.552 12:3.02 13:5.329 14:5.8610001 15:5.329 16:6.3940001 17:5.684 18:6.927 19:1.776 20:3.197 #
-0.04419612255081447477200740081571 1:6.9109998 2:1.22 3:1.423 4:4.8779998 5:7.724 6:9.3500004 7:1.016 8:7.52 9:3.2520001 10:11.992 11:3.4549999 12:2.846 13:4.6750002 14:4.2680001 15:4.2680001 16:7.1139998 17:5.2849998 18:8.9429998 19:1.22 20:2.642 #
-0.5000000000062949645496246375842 1:7.9840002 2:1.597 3:1.796 4:5.3889999 5:6.1880002 6:7.7839999 7:0.59899998 8:7.7839999 9:3.194 10:14.172 11:2.595 12:2.994 13:4.9899998 14:4.3909998 15:3.3929999 16:6.5869999 17:4.5910001 18:9.3809996 19:1.198 20:3.3929999 #
-0.5000000000062949645496246375842 1:8.059 2:0.73299998 3:3.6630001 4:9.5240002 5:6.5929999 6:3.2969999 7:3.2969999 8:8.059 9:5.4949999 10:12.821 11:2.9300001 12:3.2969999 13:4.3959999 14:4.0289998 15:6.5929999 16:3.6630001 17:2.198 18:8.4250002 19:1.465 20:1.465 #
-0.5000000000062949645496246375842 1:6.7680001 2:1.75 3:4.2010002 4:7.3509998 5:4.3169999 6:5.7179999 7:2.3340001 8:5.1339998 9:6.4180002 10:10.152 11:3.0339999 12:3.6170001 13:6.3010001 14:2.9170001 15:5.8340001 16:10.618 17:5.8340001 18:4.3169999 19:1.1670001 20:2.217 #
-0.5000000000062949645496246375842 1:5.6729999 2:1.0549999 3:6.8600001 4:11.741 5:3.1659999 6:7.1240001 7:2.902 8:3.2980001 9:7.1240001 10:8.1789999 11:1.5829999 12:3.562 13:5.5409999 14:4.7490001 15:5.013 16:6.0689998 17:5.013 18:6.9920001 19:1.847 20:2.507 #
-0.45851313832211670895588895291439 1:7.6669998 2:0.333 3:3.6670001 4:3.6670001 5:7.3330002 6:9.3330002 7:1.6670001 8:6.3330002 9:8.3330002 10:11.667 11:1.3329999 12:5.3330002 13:4.3330002 14:3 15:5.3330002 16:7.6669998 17:5 18:4.3330002 19:1 20:2.6670001 #
-0.32469586057504956633223969220126 1:12.457 2:1.3839999 3:3.1140001 4:3.1140001 5:6.5739999 6:12.111 7:2.076 8:8.9969997 9:4.152 10:7.612 11:1.73 12:2.7679999 13:5.1900001 14:2.4219999 15:3.806 16:4.8439999 17:5.5359998 18:6.9200001 19:1.73 20:3.46 #
-0.14438404769241089398157384948718 1:8.1450005 2:0.60299999 3:3.017 4:3.017 5:8.7480001 6:9.3509998 7:3.017 8:9.3509998 9:3.017 10:9.2010002 11:4.9770002 12:3.1670001 13:4.223 14:1.961 15:2.5639999 16:4.072 17:6.033 18:8.5970001 19:3.9219999 20:3.017 #
-0.5000000000062949645496246375842 1:6.5799999 2:1.396 3:4.6859999 4:7.5770001 5:5.9819999 6:6.4809999 7:2.1930001 8:6.1810002 9:5.9819999 10:9.3719997 11:2.6919999 12:4.0879998 13:5.2839999 14:4.0879998 15:5.184 16:7.3779998 17:4.2870002 18:5.3839998 19:1.396 20:3.789 #
-0.5000000000062949645496246375842 1:5.7969999 2:1.739 3:6.9569998 4:8.1160002 5:4.928 6:4.638 7:1.449 8:6.9569998 9:3.4779999 10:11.014 11:2.319 12:6.3769999 13:2.609 14:4.638 15:4.348 16:6.9569998 17:6.3769999 18:4.0580001 19:1.159 20:6.0869999 #
-0.36010368191761427114627736045804 1:8.0209999 2:2.4059999 3:4.8130002 4:8.2889996 5:2.674 6:6.4169998 7:2.1389999 8:9.0909996 9:7.2189999 10:8.8240004 11:5.348 12:4.2779999 13:3.2090001 14:1.604 15:5.348 16:6.684 17:6.4169998 18:4.2779999 19:1.337 20:1.604 #
-0.34976996760442058409523724549217 1:7.2729998 2:0 3:5.8179998 4:2.1819999 5:7.6360002 6:6.5450001 7:0.36399999 8:5.8179998 9:11.273 10:6.9089999 11:0.727 12:10.182 13:2.9089999 14:2.5450001 15:1.455 16:6.9089999 17:10.182 18:8 19:0.36399999 20:2.9089999 #
-0.34015002950966699568624562743935 1:4.7090001 2:0.27700001 3:4.4320002 4:5.54 5:4.1550002 6:5.8169999 7:0.83099997 8:13.296 9:8.033 10:13.019 11:0.83099997 12:6.0939999 13:2.493 14:1.6619999 15:3.0469999 16:5.8169999 17:5.8169999 18:8.5869999 19:1.108 20:4.4320002 #
-0.38001978335064728886649731975922 1:12.281 2:0 3:5.263 4:13.158 5:0.87699997 6:5.263 7:1.7539999 8:8.7720003 9:19.298 10:7.0180001 11:0.87699997 12:2.632 13:0.87699997 14:6.1399999 15:1.7539999 16:3.5090001 17:2.632 18:6.1399999 19:0 20:1.7539999 #
-0.5000000000062949645496246375842 1:8.1540003 2:1.77 3:4.1719999 4:4.994 5:5.2470002 6:5.2470002 7:2.276 8:6.8270001 9:4.362 10:13.401 11:2.276 12:3.2869999 13:3.8559999 14:4.5510001 15:5.4359999 16:7.3959999 17:5.5630002 18:7.2690001 19:1.454 20:2.4649999 #
-0.4892604142871842531903325834719 1:6.283 2:0 3:6.8060002 4:4.7119999 5:1.571 6:3.141 7:1.571 8:5.2360001 9:6.283 10:9.4239998 11:2.618 12:6.8060002 13:3.141 14:5.2360001 15:4.7119999 16:6.8060002 17:9.4239998 18:9.948 19:1.571 20:4.7119999 #
-0.33643516736234557740203854336869 1:9.2390003 2:1.624 3:4.2639999 4:5.178 5:3.2490001 6:10.457 7:2.6400001 8:4.6700001 9:3.553 10:8.2229996 11:2.234 12:4.6700001 13:4.2639999 14:8.6289997 15:4.7719998 16:7.3099999 17:5.6849999 18:5.9899998 19:0.81199998 20:2.5380001 #
-0.37415317899821048941433332402084 1:7.1430001 2:1.724 3:4.6799998 4:4.4330001 5:4.4330001 6:4.9260001 7:1.97 8:3.941 9:5.9109998 10:7.3889999 11:9.1129999 12:6.158 13:3.448 14:3.2019999 15:1.724 16:16.995001 17:5.9109998 18:3.6949999 19:0.98500001 20:2.217 #
-0.37824430031306033317406445348752 1:8.7869997 2:0.41800001 3:2.51 4:7.5310001 5:2.092 6:3.766 7:0.83700001 8:4.6030002 9:7.5310001 10:5.4390001 11:1.674 12:2.9289999 13:16.736 14:5.0209999 15:5.8579998 16:5.4390001 17:5.8579998 18:10.879 19:0.83700001 20:1.255 #
-0.38014362410936491931678915534576 1:1.852 2:7.4070001 3:12.963 4:9.2589998 5:3.704 6:11.111 7:0 8:3.704 9:5.5560002 10:1.852 11:1.852 12:3.704 13:11.111 14:1.852 15:0 16:3.704 17:1.852 18:11.111 19:1.852 20:5.5560002 #
-0.5000000000062949645496246375842 1:5.9829998 2:0.85500002 3:4.4439998 4:6.4959998 5:5.4699998 6:4.4439998 7:3.0769999 8:3.9319999 9:4.9569998 10:12.479 11:2.7349999 12:4.2740002 13:6.6669998 14:4.7859998 15:5.1279998 16:6.6669998 17:5.1279998 18:5.8119998 19:2.5639999 20:4.1030002 #
-0.36294970897129064102415441084304 1:7.2069998 2:1.802 3:5.4050002 4:5.4050002 5:2.7030001 6:9.0089998 7:1.802 8:4.5050001 9:13.514 10:7.2069998 11:1.802 12:2.7030001 13:3.6040001 14:1.802 15:2.7030001 16:6.3060002 17:8.1079998 18:8.1079998 19:0.90100002 20:5.4050002 #
-0.30658054189250627530327619751915 1:3.704 2:3.704 3:5.8200002 4:2.1159999 5:3.704 6:6.349 7:3.704 8:4.2329998 9:5.8200002 10:11.64 11:6.349 12:5.2909999 13:1.587 14:2.6459999 15:2.1159999 16:10.582 17:5.8200002 18:5.8200002 19:3.704 20:5.2909999 #
-0.37448302809415173753038175163965 1:13.58 2:2.4690001 3:6.1729999 4:4.9380002 5:4.9380002 6:4.9380002 7:3.704 8:6.1729999 9:1.235 10:4.9380002 11:4.9380002 12:4.9380002 13:6.1729999 14:3.704 15:11.111 16:3.704 17:3.704 18:6.1729999 19:1.235 20:1.235 #
-0.38058965475957812207852271058073 1:8.5369997 2:4.8779998 3:9.7559996 4:14.634 5:6.098 6:3.6589999 7:1.22 8:7.3169999 9:2.4389999 10:3.6589999 11:6.098 12:1.22 13:8.5369997 14:2.4389999 15:1.22 16:3.6589999 17:3.6589999 18:4.8779998 19:0 20:6.098 #
-0.37983913481957487512374882498989 1:9.8900003 2:8.7910004 3:1.099 4:1.099 5:1.099 6:10.989 7:0 8:6.5929999 9:5.4949999 10:5.4949999 11:1.099 12:10.989 13:5.4949999 14:4.3959999 15:4.3959999 16:7.6919999 17:6.5929999 18:7.6919999 19:0 20:1.099 #
-0.37845583681608468973323056161462 1:9.2779999 2:0 3:5.1550002 4:1.031 5:4.1240001 6:5.1550002 7:3.0929999 8:16.495001 9:4.1240001 10:13.402 11:8.2469997 12:4.1240001 13:1.031 14:2.062 15:2.062 16:4.1240001 17:2.062 18:13.402 19:0 20:1.031 #
-0.37438929397041781355071066172968 1:8.4069996 2:0 3:0.442 4:1.327 5:3.9820001 6:3.54 7:2.655 8:12.832 9:2.655 10:19.469 11:5.3099999 12:4.8670001 13:6.1950002 14:3.0969999 15:1.77 16:5.7519999 17:11.504 18:3.54 19:1.327 20:1.327 #
-0.37882291558620972971027640596731 1:5.217 2:0.87 3:0 4:4.348 5:2.609 6:8.6960001 7:1.739 8:6.9569998 9:11.304 10:13.913 11:0.87 12:5.217 13:2.609 14:6.0869999 15:2.609 16:9.5649996 17:2.609 18:6.0869999 19:0 20:8.6960001 #
-0.5000000000062949645496246375842 1:7.5219998 2:1.0319999 3:6.0469999 4:8.8500004 5:4.4250002 6:6.6370001 7:3.0969999 8:3.9820001 9:5.605 10:8.7019997 11:2.802 12:3.392 13:4.4250002 14:3.54 15:5.3099999 16:6.342 17:5.1620002 18:7.0799999 19:1.327 20:4.7199998 #
-0.5000000000062949645496246375842 1:9.8520002 2:0.86199999 3:4.3099999 4:6.6500001 5:4.4330001 6:6.6500001 7:2.0940001 8:7.882 9:6.527 10:9.7290001 11:2.8329999 12:4.0640001 13:2.586 14:4.6799998 15:4.6799998 16:6.7729998 17:5.665 18:6.4039998 19:0.493 20:2.8329999 #
-0.31783959785529675157178530753299 1:8.2989998 2:0.41499999 3:7.4689999 4:7.4689999 5:2.49 6:7.8839998 7:3.3199999 8:8.7139997 9:2.905 10:11.203 11:2.075 12:3.3199999 13:3.3199999 14:2.49 15:9.1289997 16:4.9790001 17:4.1490002 18:7.8839998 19:0 20:2.49 #
-0.37846126058438145367546212582965 1:8.5530005 2:10.526 3:4.605 4:4.605 5:4.605 6:11.184 7:3.289 8:3.947 9:3.947 10:5.263 11:3.289 12:2.632 13:1.974 14:5.921 15:4.605 16:4.605 17:5.921 18:4.605 19:1.974 20:3.947 #
-0.38084293018945303277433822586318 1:8.974 2:0 3:7.6919999 4:17.948999 5:2.5639999 6:5.1279998 7:1.2819999 8:8.974 9:5.1279998 10:6.4099998 11:2.5639999 12:3.846 13:1.2819999 14:5.1279998 15:1.2819999 16:3.846 17:7.6919999 18:8.974 19:0 20:1.2819999 #
-0.36130289553169903093987613829086 1:18.349001 2:0 3:1.835 4:1.835 5:7.3390002 6:10.092 7:0.917 8:7.3390002 9:4.5869999 10:17.431 11:2.7520001 12:1.835 13:0 14:2.7520001 15:3.6700001 16:4.5869999 17:0.917 18:8.257 19:4.5869999 20:0.917 #
-0.5000000000062949645496246375842 1:4.9390001 2:1.09 3:4.618 4:6.0300002 5:4.875 6:4.6820002 7:1.026 8:8.9160004 9:6.158 10:11.931 11:2.5020001 12:5.5809999 13:3.6559999 14:2.8859999 15:4.618 16:9.3649998 17:5.1960001 18:6.7350001 19:1.283 20:3.9130001 #
-0.5000000000062949645496246375842 1:5.6589999 2:2.829 3:4.6890001 4:5.901 5:4.3649998 6:5.9819999 7:2.668 8:5.1739998 9:4.6079998 10:11.722 11:2.5869999 12:4.4460001 13:5.0120001 14:3.8800001 15:5.8210001 16:8.4879999 17:5.0929999 18:6.1440001 19:1.293 20:3.638 #
-0.4922788146668910513881201040931 1:6.2859998 2:1.143 3:8.2860003 4:6.5710001 5:4.8569999 6:4.5710001 7:2.286 8:4.8569999 9:9.4289999 10:10.286 11:2.8570001 12:4.8569999 13:6.5710001 14:2.8570001 15:5.1430001 16:2.8570001 17:4.5710001 18:5.7140002 19:2 20:4 #
-0.29580713858002871674557354708668 1:7.6090002 2:0.36199999 3:6.5219998 4:2.8989999 5:4.71 6:7.9710002 7:2.174 8:5.7969999 9:8.6960001 10:9.4200001 11:0.72500002 12:4.71 13:3.2609999 14:2.536 15:1.812 16:10.87 17:9.783 18:7.6090002 19:0.36199999 20:2.174 #
-0.36995492509353966603669050527969 1:16.455999 2:0 3:3.7969999 4:2.5320001 5:5.0630002 6:12.658 7:0 8:10.127 9:1.266 10:15.19 11:10.127 12:2.5320001 13:3.7969999 14:2.5320001 15:2.5320001 16:0 17:1.266 18:7.5949998 19:0 20:2.5320001 #
-0.35901890455393747902945733585511 1:4.7059999 2:0.588 3:11.765 4:6.4710002 5:4.7059999 6:11.176 7:0.588 8:6.4710002 9:5.882 10:8.8240004 11:0.588 12:4.7059999 13:0.588 14:5.2940001 15:2.3529999 16:6.4710002 17:5.882 18:5.882 19:2.3529999 20:4.7059999 #
-0.44608391668499552951132613998197 1:10.738 2:1.2079999 3:3.221 4:6.8460002 5:3.0869999 6:7.3829999 7:2.2820001 8:4.2950001 9:3.7579999 10:12.617 11:2.2820001 12:1.745 13:4.698 14:4.8319998 15:7.9190001 16:6.309 17:3.8929999 18:7.651 19:1.6109999 20:3.6240001 #
-0.4591745330310535444517938685749 1:9.967 2:0.99699998 3:2.99 4:4.651 5:3.987 6:5.6479998 7:4.3189998 8:3.987 9:2.99 10:10.299 11:2.658 12:2.326 13:9.967 14:3.322 15:5.316 16:11.296 17:5.316 18:6.645 19:1.329 20:1.993 #
-0.26291848074064644302794135910517 1:7.6919999 2:1.425 3:5.698 4:5.698 5:2.849 6:7.1230001 7:2.5639999 8:4.5580001 9:4.5580001 10:12.821 11:1.994 12:1.994 13:3.704 14:5.9829998 15:8.2620001 16:5.1279998 17:5.1279998 18:7.1230001 19:1.425 20:4.2740002 #
-0.5000000000062949645496246375842 1:9.677 2:2.0869999 3:1.7079999 4:3.036 5:9.2980003 6:7.9699998 7:1.518 8:7.9699998 9:2.467 10:11.006 11:1.898 12:1.3279999 13:5.3130002 14:2.277 15:4.1750002 16:7.5900002 17:5.3130002 18:8.9180002 19:1.898 20:4.5539999 #
-0.2471364478466290537372884728029 1:12.681 2:1.087 3:1.449 4:3.2609999 5:4.348 6:9.0579996 7:1.812 8:4.71 9:2.8989999 10:11.957 11:1.449 12:2.8989999 13:4.71 14:3.2609999 15:2.174 16:6.8839998 17:8.3330002 18:12.681 19:1.812 20:2.536 #
-0.32532895244501947029647226372617 1:12 2:0 3:2 4:3 5:3 6:9 7:2 8:11 9:0 10:20 11:5 12:4 13:1 14:5 15:6 16:6 17:2 18:6 19:1 20:2 #
-0.30773459792729979112024807363923 1:11.801 2:0.62099999 3:6.211 4:10.559 5:3.1059999 6:1.242 7:0.62099999 8:5.5900002 9:12.422 10:8.0749998 11:2.484 12:4.9689999 13:6.8319998 14:3.1059999 15:1.863 16:4.348 17:3.727 18:5.5900002 19:3.1059999 20:3.727 #
-0.36996858745372779297966303602152 1:19.872 2:0.64099997 3:5.1279998 4:11.538 5:1.923 6:1.923 7:0.64099997 8:8.3330002 9:9.6149998 10:8.974 11:1.923 12:2.5639999 13:1.2819999 14:6.4099998 15:6.4099998 16:3.2049999 17:1.923 18:6.4099998 19:0.64099997 20:0.64099997 #
-0.35388545110866531651083732867846 1:12.155 2:3.8670001 3:6.0770001 4:12.707 5:3.8670001 6:9.3920002 7:2.7620001 8:2.7620001 9:11.05 10:6.0770001 11:2.7620001 12:2.21 13:1.6569999 14:1.105 15:4.4200001 16:1.105 17:3.8670001 18:7.7350001 19:0.55199999 20:3.8670001 #
-0.5000000000062949645496246375842 1:9.073 2:1.5779999 3:3.3529999 4:3.55 5:8.6789999 6:8.8760004 7:1.5779999 8:9.2700005 9:3.3529999 10:10.454 11:3.3529999 12:3.3529999 13:3.9449999 14:2.9590001 15:3.9449999 16:5.5229998 17:4.1420002 18:8.6789999 19:1.775 20:2.5639999 #
-0.5000000000062949645496246375842 1:7.5640001 2:1.538 3:4.3590002 4:5.1279998 5:5.1279998 6:6.4099998 7:0.76899999 8:9.2309999 9:5.1279998 10:11.154 11:1.538 12:3.5899999 13:4.1030002 14:3.974 15:3.846 16:7.3080001 17:5.6409998 18:9.7440004 19:0.76899999 20:3.0769999 #
-0.26279224155947894514540053023666 1:7.375 2:0.29499999 3:4.1300001 4:2.95 5:3.835 6:9.1450005 7:2.655 8:9.4399996 9:1.77 10:13.274 11:5.9000001 12:1.77 13:5.0149999 14:2.3599999 15:5.9000001 16:3.54 17:5.605 18:10.619 19:2.655 20:1.77 #
-0.30154616742280043739654615819745 1:14.839 2:0 3:1.9349999 4:2.5810001 5:4.5159998 6:12.903 7:0 8:10.323 9:3.2260001 10:11.613 11:5.1609998 12:1.29 13:2.5810001 14:2.5810001 15:1.9349999 16:9.677 17:2.5810001 18:9.0319996 19:0 20:3.2260001 #
-0.35293232188707052143783471365168 1:7.5139999 2:2.312 3:1.734 4:1.156 5:8.6709995 6:9.8269997 7:2.312 8:7.5139999 9:2.312 10:7.5139999 11:6.9359999 12:3.4679999 13:1.734 14:1.734 15:3.4679999 16:15.029 17:5.7800002 18:4.6240001 19:3.4679999 20:2.8900001 #
-0.32060069634001320260097145364853 1:21.326 2:0.86500001 3:2.017 4:2.3050001 5:4.323 6:11.527 7:1.729 8:4.8990002 9:0.28799999 10:12.68 11:2.5940001 12:2.017 13:7.493 14:1.441 15:4.6110001 16:3.7460001 17:3.7460001 18:8.0690002 19:2.017 20:2.3050001 #
-0.5000000000062949645496246375842 1:6.5139999 2:1.943 3:4.5710001 4:7.6570001 5:3.543 6:7.5430002 7:1.829 8:6.0570002 9:5.5999999 10:11.429 11:2.971 12:4.2290001 13:5.0289998 14:2.971 15:5.257 16:7.3140001 17:5.9429998 18:6.4000001 19:0.68599999 20:2.5139999 #
-0.5000000000062949645496246375842 1:6.9619999 2:0.86299998 3:4.8060002 4:5.8530002 5:4.6209998 6:6.8390002 7:1.4170001 8:5.5450001 9:4.1900001 10:12.877 11:2.8340001 12:4.6209998 13:3.7579999 14:3.8199999 15:5.6069999 16:7.6399999 17:4.868 18:7.7020001 19:2.033 20:3.142 #
-0.37146111537552767289938060457644 1:5.2059999 2:0.86799997 3:5.6399999 4:8.677 5:4.7719998 6:5.6399999 7:1.518 8:8.677 9:6.0739999 10:11.28 11:2.8199999 12:3.905 13:3.0369999 14:3.471 15:4.3379998 16:5.6399999 17:7.375 18:5.8569999 19:1.735 20:3.471 #
-0.41786247673672438640579684943077 1:8.5629997 2:0.917 3:2.141 4:3.6700001 5:5.5050001 6:10.398 7:0.917 8:6.4219999 9:7.9510002 10:8.5629997 11:2.141 12:4.5869999 13:4.8930001 14:3.6700001 15:3.0580001 16:9.4799995 17:7.3390002 18:7.0339999 19:0.61199999 20:2.141 #
-0.37032181554502996423394733938039 1:6.1220002 2:0.292 3:4.9559999 4:4.665 5:5.539 6:5.1020002 7:9.184 8:5.1020002 9:3.3529999 10:10.933 11:2.4779999 12:3.0610001 13:4.2270002 14:7.1430001 15:5.1020002 16:9.6210003 17:4.5190001 18:4.5190001 19:0.72899997 20:3.3529999 #
-0.34716874607393910512342927177087 1:15.104 2:2.0829999 3:4.6880002 4:4.6880002 5:1.562 6:10.417 7:3.125 8:1.562 9:4.1669998 10:8.3330002 11:3.125 12:3.125 13:8.3330002 14:8.8540001 15:4.1669998 16:4.6880002 17:4.1669998 18:3.6459999 19:1.0420001 20:3.125 #
-0.31918762225835278778518500075734 1:9.8360004 2:4.5079999 3:5.7379999 4:5.3280001 5:3.6889999 6:5.7379999 7:2.4590001 8:5.7379999 9:5.7379999 10:6.967 11:3.6889999 12:5.3280001 13:5.7379999 14:3.6889999 15:4.098 16:5.7379999 17:4.9180002 18:5.7379999 19:0.81999999 20:4.5079999 #
-0.35392380558858771433250467453036 1:6.2639999 2:1.119 3:3.915 4:3.3559999 5:5.257 6:4.1389999 7:2.237 8:8.5010004 9:4.8099999 10:11.745 11:3.3559999 12:6.152 13:4.698 14:4.586 15:2.796 16:10.85 17:6.3759999 18:6.152 19:1.454 20:2.237 #
-0.35464801144056756765365889805253 1:5.085 2:0.565 3:7.9099998 4:3.9549999 5:6.7800002 6:9.04 7:1.13 8:3.3900001 9:9.04 10:6.7800002 11:0.565 12:6.2150002 13:2.26 14:4.52 15:7.3449998 16:5.085 17:5.6500001 18:7.3449998 19:2.26 20:5.085 #
-0.28103298848668800680172807915369 1:8.1820002 2:2.727 3:0.90899998 4:1.818 5:4.5450001 6:10.909 7:0.90899998 8:13.636 9:0.90899998 10:14.545 11:3.6359999 12:1.818 13:4.5450001 14:1.818 15:2.727 16:7.2729998 17:6.3639998 18:4.5450001 19:3.6359999 20:4.5450001 #
-0.37582385660667144700042285876407 1:2.74 2:2.74 3:5.4790001 4:6.849 5:2.74 6:5.4790001 7:1.37 8:6.849 9:13.699 10:9.5889997 11:2.74 12:2.74 13:2.74 14:4.1100001 15:1.37 16:6.849 17:6.849 18:10.959 19:0 20:4.1100001 #
-0.31186046306981723974516285124992 1:6.599 2:5.3299999 3:3.8069999 4:7.1069999 5:6.8530002 6:4.822 7:1.777 8:5.3299999 9:4.5689998 10:14.975 11:1.777 12:2.5380001 13:7.868 14:3.046 15:4.5689998 16:5.0760002 17:3.553 18:6.8530002 19:1.2690001 20:2.2839999 #
-0.5000000000062949645496246375842 1:7.9920001 2:1.6390001 3:3.279 4:4.9180002 5:5.3280001 6:5.533 7:2.2539999 8:3.484 9:4.7129998 10:14.959 11:2.2539999 12:2.664 13:5.3280001 14:3.279 15:6.1479998 16:8.1969995 17:4.9180002 18:8.1969995 19:1.844 20:3.0739999 #
-0.34171519976934766615883631857287 1:10.734 2:1.13 3:8.757 4:9.04 5:2.26 6:7.6269999 7:1.4119999 8:4.52 9:5.085 10:8.757 11:1.4119999 12:3.3900001 13:4.237 14:4.237 15:3.9549999 16:8.757 17:4.237 18:6.2150002 19:2.26 20:1.977 #
-0.36644544447802929187929521503975 1:7.652 2:1.847 3:7.652 4:5.8049998 5:2.6389999 6:7.652 7:0.528 8:13.72 9:11.082 10:8.4429998 11:1.319 12:6.3319998 13:3.1659999 14:1.0549999 15:2.1110001 16:8.4429998 17:3.1659999 18:3.694 19:0.264 20:3.4300001 #
-0.38403677329518803862384856984136 1:6.2750001 2:0.39199999 3:3.9219999 4:5.6859999 5:4.5100002 6:10 7:1.765 8:5.6859999 9:5.6859999 10:9.8039999 11:1.765 12:4.902 13:4.118 14:10 15:3.529 16:6.0780001 17:9.2159996 18:4.5100002 19:0.588 20:1.569 #
-0.3336644567152015072863946443249 1:10.39 2:0 3:5.1950002 4:9.0909996 5:4.5450001 6:8.4420004 7:8.4420004 8:3.8959999 9:11.688 10:11.039 11:2.5969999 12:2.5969999 13:1.948 14:2.5969999 15:1.299 16:3.8959999 17:3.8959999 18:5.8439999 19:1.299 20:1.299 #
-0.33543819384429052199436682712985 1:6.6669998 2:5 3:5 4:10 5:4.4439998 6:7.7779999 7:0.55599999 8:5.5560002 9:6.1110001 10:8.3330002 11:3.3329999 12:2.2219999 13:7.2220001 14:2.2219999 15:7.2220001 16:2.7780001 17:4.4439998 18:5 19:1.1109999 20:5 #
-0.27223287539309842797408123260539 1:10.36 2:0.44999999 3:1.802 4:2.7030001 5:7.658 6:5.8559999 7:2.7030001 8:8.559 9:8.1079998 10:13.063 11:5.8559999 12:4.0539999 13:4.9549999 14:2.2520001 15:2.2520001 16:2.7030001 17:5.4050002 18:8.559 19:0.44999999 20:2.2520001 #
-0.29998095578253669568624673047452 1:7.4699998 2:0.241 3:4.8189998 4:3.855 5:4.3369999 6:6.506 7:2.1689999 8:10.843 9:3.855 10:13.253 11:3.6140001 12:4.0960002 13:2.651 14:5.0599999 15:5.0599999 16:6.2649999 17:5.783 18:6.0240002 19:2.4100001 20:1.687 #
-0.32832333049817946646342647909478 1:10.68 2:0 3:0.97100002 4:5.8249998 5:3.8829999 6:5.8249998 7:0 8:6.796 9:7.7670002 10:8.7379999 11:1.942 12:3.8829999 13:5.8249998 14:3.8829999 15:3.8829999 16:3.8829999 17:6.796 18:12.621 19:1.942 20:4.8540001 #
-0.24592921667116010575604434507113 1:17.098 2:0.69099998 3:5.0089998 4:3.9719999 5:3.2820001 6:7.7719998 7:1.727 8:5.3540001 9:0.51800001 10:12.608 11:1.036 12:1.554 13:4.3179998 14:3.8 15:7.2540002 16:4.836 17:6.908 18:9.8450003 19:1.9 20:0.51800001 #
-0.24384385361075769371730359580397 1:14.286 2:0.75199997 3:3.3829999 4:2.444 5:4.5110002 6:8.4589996 7:0.75199997 8:9.0229998 9:0.94 10:12.97 11:2.256 12:1.88 13:6.7670002 14:1.316 15:6.2030001 16:5.0749998 17:4.323 18:11.842 19:1.5039999 20:1.316 #
-0.27169231131547277868776291143149 1:3.796 2:1.168 3:6.8610001 4:5.401 5:5.1090002 6:6.131 7:2.7739999 8:6.277 9:4.9640002 10:8.7589998 11:3.066 12:6.5689998 13:4.0879998 14:3.9419999 15:4.8179998 16:7.737 17:6.5689998 18:5.2550001 19:2.1900001 20:4.526 #
-0.33644304552888271153676669200649 1:11.795 2:2.0510001 3:3.0769999 4:12.308 5:6.6669998 6:5.6409998 7:1.538 8:4.6149998 9:11.795 10:6.6669998 11:1.538 12:6.1539998 13:2.5639999 14:1.538 15:3.0769999 16:4.1030002 17:5.6409998 18:3.5899999 19:1.026 20:4.6149998 #
-0.28230624636603846022708808050083 1:10.7 2:2.1140001 3:4.756 4:4.6240001 5:4.6240001 6:11.361 7:2.378 8:4.756 9:2.9059999 10:8.0579996 11:1.849 12:2.51 13:12.814 14:2.378 15:5.2839999 16:4.888 17:4.6240001 18:5.02 19:1.585 20:2.7739999 #
-0.35190681974600807047082184908504 1:9.7089996 2:0.97100002 3:4.2069998 4:2.589 5:6.796 6:11.974 7:0.324 8:6.4720001 9:6.796 10:7.4429998 11:1.618 12:3.5599999 13:1.942 14:3.5599999 15:5.5019999 16:7.4429998 17:5.5019999 18:8.4139996 19:1.618 20:3.5599999 #
-0.14963865809600002121371176144748 1:11.236 2:1.124 3:3.3710001 4:4.1199999 5:8.8009996 6:8.6140003 7:1.498 8:7.1160002 9:5.0560002 10:8.2399998 11:4.1199999 12:3.3710001 13:4.3070002 14:3.3710001 15:2.9960001 16:6.3670001 17:5.4310002 18:6.1799998 19:1.498 20:3.184 #
-0.23959783600952042070808545304317 1:3.5420001 2:2.4519999 3:6.54 4:5.4499998 5:7.3569999 6:6.2670002 7:2.4519999 8:8.1739998 9:5.4499998 10:9.809 11:2.1800001 12:4.0869999 13:3.8150001 14:2.1800001 15:4.9050002 16:5.4499998 17:3.27 18:9.809 19:1.9069999 20:4.9050002 #
-0.3139714502702872778172604739666 1:9.7629995 2:0.792 3:3.4300001 4:2.6389999 5:6.3319998 6:7.652 7:1.0549999 8:6.5960002 9:1.5829999 10:11.873 11:5.013 12:4.2220001 13:3.694 14:1.847 15:4.4850001 16:4.2220001 17:6.8600001 18:10.026 19:4.2220001 20:3.694 #
-0.3127780472130710642808537613746 1:5.263 2:0.95700002 3:4.7849998 4:3.349 5:10.526 6:3.349 7:0 8:14.354 9:6.6989999 10:14.354 11:1.4349999 12:4.7849998 13:1.914 14:1.914 15:2.8710001 16:5.7420001 17:5.7420001 18:6.2199998 19:0.47799999 20:5.263 #
-0.33244066287101675660764499298239 1:9.5410004 2:0.70700002 3:5.3000002 4:2.8269999 5:6.007 6:7.4200001 7:1.0599999 8:3.5339999 9:6.7140002 10:10.954 11:1.413 12:7.0669999 13:4.5939999 14:3.8870001 15:1.767 16:8.4809999 17:8.8339996 18:6.3600001 19:0.70700002 20:2.8269999 #
-0.30598890178121596061799891685951 1:6.8969998 2:0 3:8.0459995 4:9.1949997 5:3.448 6:5.7470002 7:1.149 8:2.299 9:17.240999 10:8.0459995 11:3.448 12:3.448 13:2.299 14:3.448 15:2.299 16:4.598 17:6.8969998 18:5.7470002 19:2.299 20:3.448 #
-0.30306030914322373837066493251768 1:11.211 2:0.301 3:5.2670002 4:6.9980001 5:2.6340001 6:5.7189999 7:1.279 8:4.289 9:3.3859999 10:8.0509996 11:1.956 12:2.483 13:9.9320002 14:8.9540005 15:5.2670002 16:5.0409999 17:4.5900002 18:7.75 19:1.4299999 20:3.461 #
-0.5000000000062949645496246375842 1:6.283 2:0.87300003 3:3.7520001 4:6.1950002 5:4.4499998 6:6.632 7:2.1819999 8:6.632 9:6.0209999 10:13.176 11:2.1819999 12:3.2290001 13:3.5780001 14:3.316 15:4.0139999 16:10.384 17:5.1479998 18:7.5040002 19:1.483 20:2.967 #
-0.26435215234299497266690082142304 1:7.8309999 2:0.20100001 3:2.0079999 4:1.807 5:8.0319996 6:7.8309999 7:0.80299997 8:12.249 9:4.217 10:13.052 11:2.6099999 12:3.0120001 13:3.0120001 14:1.406 15:2.0079999 16:6.6269999 17:5.2210002 18:11.446 19:0.602 20:6.0240002 #
-0.20712442519291096587608080881182 1:12.329 2:1.826 3:2.0550001 4:1.598 5:7.9910002 6:7.5339999 7:1.598 8:9.132 9:2.5109999 10:11.872 11:2.74 12:3.425 13:3.881 14:4.7950001 15:2.74 16:7.5339999 17:5.7080002 18:5.7080002 19:1.37 20:3.6530001 #
-0.30410287623468684747862766926119 1:6.316 2:1.053 3:2.105 4:3.158 5:6.316 6:8.4209995 7:6.842 8:5.263 9:3.158 10:8.9469995 11:8.9469995 12:3.158 13:3.684 14:3.158 15:1.579 16:9.474 17:6.316 18:7.368 19:0.52600002 20:4.211 #
-0.28137537825752023668002266276744 1:5.9089999 2:2.273 3:5.9089999 4:6.3639998 5:2.727 6:6.8179998 7:0.45500001 8:5 9:4.0910001 10:6.3639998 11:5.4549999 12:5 13:6.3639998 14:5 15:7.2729998 16:4.5450001 17:4.0910001 18:10 19:1.818 20:4.5450001 #
-0.24653952443832249930011357719195 1:8.4849997 2:0.75800002 3:6.5149999 4:7.4239998 5:2.424 6:4.0910001 7:4.2420001 8:3.7880001 9:6.5149999 10:6.2119999 11:1.515 12:3.7880001 13:5.9089999 14:4.5450001 15:7.7270002 16:13.03 17:4.2420001 18:6.0609999 19:0.60600001 20:2.1210001 #
-0.37212535742418151318844365960103 1:8.8559999 2:1.845 3:5.1659999 4:4.7969999 5:4.059 6:7.3800001 7:3.3210001 8:5.9039998 9:3.6900001 10:12.915 11:2.214 12:2.214 13:4.428 14:7.3800001 15:5.9039998 16:4.7969999 17:5.5349998 18:6.2729998 19:1.107 20:2.214 #
-0.19371013909274925612891138371197 1:9.8360004 2:0.546 3:5.191 4:2.4590001 5:4.645 6:6.2839999 7:1.0930001 8:5.7379999 9:3.279 10:15.574 11:4.098 12:3.552 13:3.552 14:4.9180002 15:5.4640002 16:5.4640002 17:5.7379999 18:9.29 19:1.913 20:1.3660001 #
-0.29709317702861876009379216156958 1:9.1949997 2:0 3:6.8969998 4:12.644 5:2.299 6:3.448 7:0 8:3.448 9:13.793 10:10.345 11:2.299 12:4.598 13:3.448 14:4.598 15:1.149 16:5.7470002 17:3.448 18:4.598 19:2.299 20:5.7470002 #
-0.29330224979225799630810911367007 1:5.414 2:1.433 3:8.4390001 4:7.006 5:5.2550001 6:5.7319999 7:7.1659999 8:5.2550001 9:6.21 10:8.1210003 11:2.0699999 12:4.618 13:5.0960002 14:1.911 15:4.9359999 16:5.573 17:3.6619999 18:6.369 19:1.274 20:4.4590001 #
-0.25313780663553442362712075919262 1:13.19 2:2.454 3:1.534 4:1.84 5:2.7609999 6:10.123 7:0.92000002 8:6.7480001 9:0.30700001 10:21.166 11:3.3740001 12:1.84 13:3.9879999 14:3.9879999 15:5.8280001 16:4.6009998 17:3.3740001 18:7.0549998 19:4.2940001 20:0.61299998 #
-0.21006752047125001880978345525364 1:10.01 2:0.191 3:4.48 4:4.7659998 5:5.1479998 6:8.4840002 7:1.049 8:6.8639998 9:4.099 10:9.724 11:4.0040002 12:3.7179999 13:4.29 14:4.5760002 15:3.622 16:5.9099998 17:6.3870001 18:9.2469997 19:0.85799998 20:2.5739999 #
-0.23475855257450453650314159403933 1:13.158 2:1.316 3:1.316 4:1.316 5:7.895 6:13.158 7:0 8:11.842 9:2.632 10:15.789 11:3.947 12:2.632 13:2.632 14:1.316 15:1.316 16:6.579 17:3.947 18:7.895 19:0 20:1.316 #
-0.21469364649712005532755654257926 1:9.0909996 2:0 3:0.82599998 4:4.9590001 5:4.9590001 6:9.9169998 7:0.82599998 8:11.57 9:5.7849998 10:16.528999 11:4.132 12:1.653 13:0.82599998 14:0 15:1.653 16:8.2639999 17:5.7849998 18:7.4380002 19:2.4790001 20:3.306 #
-0.25170324900633528342197564597882 1:15.354 2:0.39399999 3:5.118 4:5.118 5:5.9060001 6:9.0550003 7:1.575 8:3.1500001 9:2.362 10:15.354 11:0.787 12:1.575 13:7.48 14:3.1500001 15:8.2679996 16:3.1500001 17:5.118 18:6.2989998 19:0.39399999 20:0.39399999 #
-0.26288306179471787604740029564709 1:16.4 2:0.80000001 3:2.8 4:1.6 5:6.8000002 6:14.4 7:2 8:7.1999998 9:1.6 10:10 11:1.6 12:2 13:4 14:0.80000001 15:0.80000001 16:7.5999999 17:5.1999998 18:10 19:1.2 20:3.2 #
-0.25035907464809087352719529917522 1:11.146 2:2.2290001 3:2.8659999 4:3.1849999 5:4.4590001 6:4.777 7:2.8659999 8:7.9619999 9:5.0960002 10:7.006 11:3.1849999 12:4.4590001 13:5.414 14:4.1399999 15:2.2290001 16:10.191 17:8.599 18:3.822 19:1.911 20:4.4590001 #
-0.26929876752528270067443827429088 1:15.088 2:0.35100001 3:1.7539999 4:2.105 5:4.9120002 6:8.0699997 7:0.70200002 8:4.9120002 9:2.105 10:11.93 11:6.6669998 12:1.7539999 13:4.211 14:4.5609999 15:5.263 16:4.5609999 17:6.6669998 18:11.579 19:1.053 20:1.7539999 #
-0.26737522618792031181556012597866 1:4.651 2:1.395 3:1.86 4:3.721 5:6.9770002 6:7.9070001 7:2.326 8:8.8369999 9:2.7909999 10:10.233 11:4.1859999 12:1.86 13:4.1859999 14:2.326 15:4.651 16:6.5120001 17:7.9070001 18:10.233 19:2.7909999 20:4.651 #
-0.19974141928881258833960998799739 1:9.8839998 2:0.29100001 3:1.744 4:2.6159999 5:4.0700002 6:6.105 7:0.87199998 8:10.465 9:1.744 10:19.476999 11:4.9419999 12:3.779 13:4.9419999 14:3.779 15:3.4879999 16:4.651 17:4.0700002 18:9.5930004 19:1.4529999 20:2.0350001 #
-0.23349371678830685428174263051915 1:12.883 2:0.61299998 3:5.5209999 4:3.0669999 5:2.1470001 6:9.5089998 7:0.92000002 8:6.7480001 9:3.3740001 10:7.6690001 11:0.92000002 12:4.6009998 13:8.2819996 14:2.1470001 15:5.2150002 16:7.362 17:8.2819996 18:8.5889997 19:0.61299998 20:1.534 #
-0.21964443338183858855927610420622 1:6.6669998 2:1.026 3:5.1279998 4:7.4359999 5:3.5899999 6:5.3850002 7:2.0510001 8:5.1279998 9:6.6669998 10:7.4359999 11:2.0510001 12:2.3080001 13:7.9489999 14:5.3850002 15:8.2049999 16:7.4359999 17:5.3850002 18:5.3850002 19:1.795 20:3.5899999 #
-0.17473269153115433827139213462942 1:7.4879999 2:1.997 3:4.3260002 4:5.6570001 5:8.4860001 6:5.9899998 7:1.331 8:8.9849997 9:5.6570001 10:7.1550002 11:2.9949999 12:4.1599998 13:5.6570001 14:2.829 15:2.1630001 16:7.3210001 17:5.3239999 18:5.4910002 19:2.1630001 20:4.8249998 #
-0.19475267883094063425808428746677 1:8.7180004 2:1.026 3:3.5899999 4:2.5639999 5:5.1279998 6:8.2049999 7:3.5899999 8:11.795 9:2.5639999 10:13.333 11:1.538 12:3.0769999 13:4.6149998 14:1.026 15:0.51300001 16:5.1279998 17:6.6669998 18:7.1789999 19:5.6409998 20:4.1030002 #
-0.20436437757555878103055135852628 1:8.2130003 2:2.8989999 3:2.8989999 4:3.382 5:6.763 6:7.2459998 7:2.8989999 8:10.628 9:5.7969999 10:7.7290001 11:1.932 12:4.8309999 13:0.48300001 14:2.415 15:2.415 16:6.2800002 17:8.6960001 18:5.3140001 19:4.8309999 20:4.348 #
-0.20901926161579748031371650540677 1:8.4029999 2:0.83999997 3:2.5209999 4:1.681 5:6.723 6:10.084 7:4.2020001 8:9.2440004 9:2.5209999 10:15.126 11:5.0419998 12:1.681 13:6.723 14:0.83999997 15:3.3610001 16:3.3610001 17:2.5209999 18:10.084 19:3.3610001 20:1.681 #
-0.238783222630795599616959634659 1:8.2089996 2:1.493 3:3.98 4:9.2040005 5:1.493 6:8.7060003 7:2.2390001 8:7.2140002 9:4.9749999 10:8.7060003 11:3.483 12:2.9849999 13:5.7210002 14:1.7410001 15:6.7160001 16:3.98 17:5.473 18:9.7010002 19:0.249 20:3.7309999 #
-0.20869798072373055286554688336764 1:3.404 2:4.6810002 3:2.9790001 4:5.5320001 5:3.8299999 6:4.2550001 7:2.128 8:5.9569998 9:6.3829999 10:11.489 11:4.6810002 12:4.6810002 13:2.128 14:4.2550001 15:4.6810002 16:10.213 17:6.3829999 18:5.5320001 19:1.702 20:5.1059999 #
-0.20404899004432378029072481240291 1:5.882 2:2.2620001 3:3.1670001 4:1.8099999 5:5.882 6:7.2399998 7:0.90499997 8:4.5250001 9:2.2620001 10:17.646999 11:2.7149999 12:3.1670001 13:4.072 14:4.5250001 15:4.5250001 16:6.335 17:7.2399998 18:7.2399998 19:2.7149999 20:5.882 #
-0.20034035981376899226980015100708 1:9.9560003 2:1.549 3:3.0969999 4:3.0969999 5:7.3010001 6:10.398 7:1.549 8:6.8579998 9:3.54 10:10.841 11:4.8670001 12:2.8759999 13:5.3099999 14:2.2119999 15:3.7609999 16:4.4250002 17:3.319 18:6.8579998 19:3.319 20:4.8670001 #
-0.16756165132411823814884144212556 1:3.9820001 2:3.9820001 3:2.655 4:4.8670001 5:7.5219998 6:4.8670001 7:2.655 8:9.2919998 9:7.0799999 10:7.5219998 11:3.9820001 12:3.54 13:3.0969999 14:2.655 15:4.8670001 16:5.3099999 17:6.1950002 18:9.2919998 19:3.0969999 20:3.54 #
-0.26249104274474488462942645128351 1:7.5879998 2:1.362 3:1.751 4:4.4749999 5:9.9219999 6:9.1440001 7:0.778 8:8.7550001 9:3.6960001 10:9.3389997 11:4.4749999 12:4.2800002 13:4.086 14:3.891 15:3.1129999 16:6.0310001 17:5.0580001 18:7.7820001 19:1.751 20:2.724 #
-0.21377170586003452212864317516505 1:10.781 2:0.46900001 3:6.875 4:5.7810001 5:2.0309999 6:7.0310001 7:1.719 8:4.6880002 9:2.6559999 10:11.094 11:1.719 12:3.125 13:4.2189999 14:4.6880002 15:10 16:6.25 17:5.1560001 18:9.6879997 19:0.93800002 20:1.094 #
-0.23167707399853854077775849873433 1:4.7969999 2:1.476 3:6.6420002 4:9.9630003 5:2.9519999 6:5.1659999 7:2.9519999 8:4.428 9:10.701 10:7.7490001 11:2.9519999 12:4.059 13:4.428 14:4.7969999 15:4.059 16:2.5829999 17:4.7969999 18:7.7490001 19:2.9519999 20:4.7969999 #
-0.23218518099540366717015160702431 1:11.547 2:2.832 3:3.704 4:5.664 5:4.5749998 6:6.7540002 7:2.6140001 8:3.9219999 9:4.3569999 10:11.111 11:2.3970001 12:2.832 13:3.2679999 14:2.6140001 15:5.0110002 16:6.5359998 17:6.5359998 18:11.111 19:0.87099999 20:1.743 #
-0.18019055459154820209022318522329 1:5.8179998 2:3.273 3:4.7270002 4:2.5450001 5:8 6:10.182 7:0.727 8:4.7270002 9:1.818 10:13.818 11:2.9089999 12:5.8179998 13:3.6359999 14:2.1819999 15:2.5450001 16:9.0909996 17:7.6360002 18:4.7270002 19:1.818 20:4 #
-0.16783249149623874485470764739148 1:5.6960001 2:1.688 3:1.899 4:1.477 5:6.9619999 6:8.2279997 7:0.63300002 8:10.338 9:4.2189999 10:15.612 11:2.1099999 12:4.4299998 13:2.954 14:2.743 15:3.3759999 16:12.236 17:6.54 18:4.6409998 19:1.266 20:2.954 #
-0.17059164498496745543398844802141 1:3.7590001 2:0 3:4.1350002 4:1.88 5:6.0149999 6:6.7670002 7:1.5039999 8:12.03 9:5.263 10:15.789 11:5.6389999 12:1.88 13:3.7590001 14:2.632 15:5.263 16:7.5190001 17:5.263 18:6.7670002 19:1.5039999 20:2.632 #
-0.26617172309835623877916077617556 1:10.256 2:2.5639999 3:6.4099998 4:6.1539998 5:2.5639999 6:6.1539998 7:3.5899999 8:6.4099998 9:7.9489999 10:6.1539998 11:2.8210001 12:3.846 13:3.5899999 14:4.6149998 15:5.1279998 16:6.6669998 17:5.3850002 18:5.1279998 19:2.3080001 20:2.3080001 #
-0.16632321282412740326428490789112 1:5.914 2:0.63700002 3:3.276 4:10.737 5:3.4579999 6:6.8239999 7:1.638 8:5.0960002 9:5.0960002 10:9.6450005 11:3.549 12:2.5480001 13:6.8239999 14:2.6389999 15:4.1859999 16:9.6450005 17:8.0979996 18:6.6420002 19:1.8200001 20:1.729 #
-0.26440398766284828324657496523287 1:4.3740001 2:1.789 3:4.1750002 4:7.5549998 5:5.1690001 6:5.7649999 7:2.5840001 8:8.7480001 9:6.5609999 10:10.736 11:5.1690001 12:4.3740001 13:4.573 14:2.187 15:5.1690001 16:5.368 17:4.7709999 18:6.362 19:1.193 20:3.3800001 #
-0.18837986198723785657982432439894 1:17.568001 2:0.44999999 3:2.7030001 4:2.2520001 5:5.4050002 6:11.261 7:1.802 8:4.9549999 9:4.0539999 10:13.063 11:2.7030001 12:0.44999999 13:4.5050001 14:1.351 15:2.2520001 16:5.4050002 17:5.4050002 18:11.261 19:1.351 20:1.802 #
-0.19503625249738268387922346391861 1:7.8889999 2:3.625 3:2.132 4:3.4119999 5:5.757 6:7.0359998 7:2.559 8:3.198 9:0.426 10:17.697001 11:3.4119999 12:2.7720001 13:6.3969998 14:2.345 15:2.7720001 16:8.5290003 17:5.3299999 18:10.235 19:1.919 20:2.559 #
-0.16407635883379156904737783406745 1:11.437 2:0.58700001 3:2.9330001 4:0.88 5:3.812 6:10.264 7:0.29300001 8:9.9709997 9:2.053 10:15.543 11:3.5190001 12:3.2260001 13:4.3990002 14:3.2260001 15:4.1059999 16:4.9850001 17:6.158 18:10.557 19:1.76 20:0.29300001 #
-0.23531971204017199106317548285006 1:6.9369998 2:1.309 3:5.2360001 4:3.4030001 5:6.9369998 6:6.5450001 7:1.4400001 8:9.2930002 9:6.0209999 10:10.864 11:1.4400001 12:4.0580001 13:4.5809999 14:3.141 15:3.927 16:7.0679998 17:4.974 18:9.2930002 19:0.65399998 20:2.8800001 #
-0.20232355614298810908557868515345 1:8.6960001 2:0.93199998 3:1.553 4:5.5900002 5:3.727 6:8.6960001 7:2.174 8:7.7639999 9:8.6960001 10:8.3850002 11:2.484 12:4.0370002 13:5.2800002 14:4.0370002 15:4.348 16:5.2800002 17:6.5219998 18:7.4530001 19:0.31099999 20:4.0370002 #
-0.15754178834491788796512423687091 1:4.8829999 2:3.125 3:4.4920001 4:8.7889996 5:5.2729998 6:6.6409998 7:2.9300001 8:5.2729998 9:5.664 10:11.523 11:2.3440001 12:3.711 13:4.8829999 14:4.1020002 15:2.9300001 16:6.25 17:6.6409998 18:5.8590002 19:0.58600003 20:4.1020002 #
-0.18252354070103404826141968442244 1:6.7280002 2:1.835 3:9.1739998 4:4.5869999 5:3.0580001 6:7.9510002 7:2.141 8:5.5050001 9:1.835 10:13.15 11:3.9760001 12:2.4460001 13:4.5869999 14:3.3640001 15:8.8690004 16:5.5050001 17:4.2810001 18:7.0339999 19:2.4460001 20:1.529 #
-0.14079126206652015085296625329647 1:9.132 2:1.142 3:1.598 4:3.425 5:6.849 6:11.644 7:1.142 8:12.329 9:5.0229998 10:13.014 11:3.6530001 12:2.5109999 13:3.425 14:1.37 15:1.826 16:6.164 17:5.4790001 18:5.2509999 19:1.598 20:3.425 #
-0.17457280216999473965167055666825 1:8.3929996 2:1.918 3:1.439 4:2.638 5:13.429 6:8.6330004 7:0.95899999 8:7.914 9:2.878 10:12.95 11:3.3570001 12:3.8369999 13:2.878 14:2.638 15:2.878 16:6.954 17:4.5560002 18:6.954 19:1.439 20:3.3570001 #
-0.14185326337731962720312139936141 1:9.6079998 2:1.569 3:2.549 4:2.549 5:5.2940001 6:10.196 7:1.569 8:9.2159996 9:2.1570001 10:10 11:1.961 12:3.1370001 13:5.4899998 14:2.3529999 15:5.098 16:8.2349997 17:5.2940001 18:8.6269999 19:2.549 20:2.549 #
-0.1836452874631076814804231389644 1:9.1110001 2:0.43399999 3:2.8199999 4:2.1689999 5:7.809 6:6.941 7:1.952 8:6.0739999 9:3.471 10:13.015 11:2.6029999 12:3.688 13:4.9889998 14:1.952 15:3.2539999 16:6.7249999 17:6.0739999 18:11.063 19:2.3859999 20:3.471 #
-0.10602979086760087878982261599958 1:10.722 2:1.8559999 3:2.6800001 4:2.474 5:7.4229999 6:7.4229999 7:3.299 8:6.598 9:3.711 10:10.103 11:2.474 12:4.1240001 13:3.5050001 14:2.6800001 15:2.474 16:6.598 17:5.9790001 18:7.6290002 19:3.5050001 20:4.7420001 #
-0.1436521272116856873246604209271 1:6.9720001 2:2.2019999 3:2.2019999 4:6.789 5:7.5229998 6:8.257 7:1.651 8:6.0549998 9:2.9360001 10:10.642 11:3.6700001 12:1.651 13:10.459 14:4.0370002 15:4.2199998 16:6.4219999 17:4.2199998 18:6.4219999 19:0.917 20:2.7520001 #
-0.12965779201280089316661303655565 1:12.26 2:0.72100002 3:1.202 4:1.442 5:3.846 6:11.779 7:1.202 8:5.0479999 9:1.442 10:20.433001 11:4.0869999 12:1.923 13:5.5289998 14:3.365 15:3.365 16:6.4899998 17:5.7690001 18:6.7309999 19:1.923 20:1.442 #
-0.12214729664586643220758332972764 1:6.8280001 2:2.8629999 3:4.8460002 4:5.947 5:6.8280001 6:3.9649999 7:2.2030001 8:8.1499996 9:3.5239999 10:9.6920004 11:2.8629999 12:4.8460002 13:3.0840001 14:4.4050002 15:6.1669998 16:6.388 17:4.6259999 18:5.947 19:3.0840001 20:3.744 #
-0.14401256689215979900353659104439 1:8.8240004 2:1.471 3:2.941 4:2.451 5:8.3330002 6:9.8039999 7:5.3920002 8:7.3530002 9:1.961 10:11.765 11:5.3920002 12:2.451 13:1.471 14:0.98000002 15:2.451 16:5.3920002 17:8.3330002 18:7.3530002 19:2.941 20:2.941 #
-0.1406590048130468562082029393423 1:8.8500004 2:0 3:3.54 4:4.4250002 5:5.3099999 6:6.1950002 7:1.77 8:11.504 9:4.4250002 10:12.389 11:4.4250002 12:2.655 13:3.54 14:0.88499999 15:1.77 16:5.3099999 17:9.7349997 18:9.7349997 19:0 20:3.54 #
-0.14292612861136505530978979550127 1:6.9159999 2:1.441 3:5.4759998 4:5.7639999 5:6.3400002 6:5.1869998 7:0.57599998 8:4.323 9:7.2049999 10:12.68 11:3.4579999 12:3.4579999 13:2.5940001 14:3.1700001 15:4.6110001 16:6.6279998 17:6.6279998 18:8.934 19:0.86500001 20:3.7460001 #
-0.16114712308037079657729861992266 1:8.7589998 2:0 3:5.8390002 4:3.2850001 5:5.1090002 6:8.7589998 7:2.1900001 8:4.3800001 9:8.0290003 10:7.664 11:0.36500001 12:6.204 13:3.2850001 14:2.9200001 15:1.46 16:8.0290003 17:10.949 18:9.1239996 19:0.36500001 20:3.2850001 #
-0.15145857125296119383150994508469 1:18.662001 2:0.352 3:2.8169999 4:3.1689999 5:3.5209999 6:8.8030005 7:1.761 8:4.2249999 9:0.704 10:17.254 11:2.1129999 12:0 13:5.6339998 14:2.4649999 15:9.1549997 16:3.8729999 17:4.9299998 18:8.4510002 19:1.761 20:0.352 #
-0.13867873093140364870734515534423 1:12.384 2:2.477 3:3.7149999 4:3.096 5:3.7149999 6:9.2880001 7:0.61900002 8:5.263 9:4.954 10:12.693 11:1.858 12:2.786 13:4.954 14:6.8109999 15:5.573 16:5.263 17:4.954 18:6.8109999 19:0 20:2.786 #
-0.18516566835255646172875287902571 1:6.1360002 2:0.64600003 3:4.198 4:6.566 5:5.1669998 6:7.3200002 7:1.507 8:5.7049999 9:3.552 10:15.823 11:2.4760001 12:2.0450001 13:6.8889999 14:3.552 15:4.9520001 16:6.4590001 17:5.2740002 18:7.8579998 19:1.184 20:2.691 #
-0.10586749648061488660033546693739 1:7.0229998 2:2.1370001 3:4.7329998 4:10.229 5:6.1069999 6:7.6339998 7:2.7479999 8:5.3439999 9:3.9690001 10:8.2440004 11:1.832 12:3.053 13:4.1220002 14:3.8169999 15:5.802 16:8.5500002 17:4.7329998 18:5.954 19:0.611 20:3.359 #
-0.091175147616126245297962782387913 1:12.022 2:0.273 3:2.7320001 4:2.7320001 5:5.4640002 6:6.0110002 7:3.279 8:7.3769999 9:2.1860001 10:16.667 11:3.825 12:3.279 13:3.552 14:2.7320001 15:1.913 16:8.1969995 17:5.7379999 18:9.29 19:0.81999999 20:1.913 #
-0.094853936540406871835706681395095 1:13.23 2:0.389 3:1.556 4:3.1129999 5:4.2800002 6:11.673 7:1.556 8:8.1709995 9:2.335 10:16.341999 11:5.8369999 12:2.724 13:5.8369999 14:1.946 15:1.556 16:7.0040002 17:3.5020001 18:6.6149998 19:0.778 20:1.556 #
-0.11549567963683016191822616747231 1:12.468 2:0.509 3:2.036 4:1.272 5:3.562 6:12.214 7:0 8:8.651 9:1.781 10:13.232 11:4.835 12:3.053 13:3.053 14:2.29 15:4.5799999 16:7.6339998 17:6.1069999 18:8.3970003 19:2.799 20:1.527 #
-0.07674491662905270905614685261753 1:6.5190001 2:1.281 3:5.8210001 4:6.5190001 5:3.9579999 6:4.3070002 7:2.9100001 8:5.006 9:5.8210001 10:6.9850001 11:2.5610001 12:5.4710002 13:5.355 14:3.842 15:5.355 16:12.806 17:6.1700001 18:5.704 19:0.815 20:2.7939999 #
-0.14703121631948090630714887083741 1:10.117 2:0.19499999 3:2.529 4:4.086 5:6.6149998 6:7.7820001 7:1.946 8:5.447 9:2.1400001 10:13.035 11:5.0580001 12:2.529 13:4.4749999 14:5.8369999 15:4.2800002 16:4.8639998 17:5.6420002 18:6.4200001 19:3.5020001 20:3.5020001 #
-0.14101264995353193776317368701712 1:8.2469997 2:0.34400001 3:5.1550002 4:4.8109999 5:3.9519999 6:6.5289998 7:1.546 8:8.0760002 9:3.9519999 10:10.309 11:4.467 12:3.608 13:2.234 14:4.296 15:6.5289998 16:8.5909996 17:6.1859999 18:8.0760002 19:0.85900003 20:2.234 #
-0.31889136863524186749074829094752 1:7.8540001 2:1.341 3:2.49 4:3.6400001 5:7.6630001 6:9.9619999 7:1.341 8:7.8540001 9:3.6400001 10:9.5790005 11:3.448 12:2.6819999 13:4.2150002 14:3.448 15:4.2150002 16:6.513 17:5.3639998 18:9.0039997 19:2.299 20:3.448 #
-0.086426316329033414653792988247005 1:9.1359997 2:0 3:2.2219999 4:4.4439998 5:8.8889999 6:9.3830004 7:1.4809999 8:12.099 9:4.691 10:15.309 11:1.975 12:2.2219999 13:2.9630001 14:0.741 15:2.7160001 16:7.6539998 17:3.457 18:8.3950005 19:0.49399999 20:1.728 #
-0.096588098916371545321624125790549 1:9.5609999 2:1.575 3:3.937 4:4.9489999 5:4.4990001 6:8.2110004 7:1.687 8:4.9489999 9:3.487 10:8.2110004 11:3.1500001 12:2.7 13:11.811 14:4.0489998 15:7.1989999 16:7.7620001 17:3.5999999 18:4.9489999 19:1.012 20:2.7 #
-0.13052333567700774574760202995094 1:8.0839996 2:0.59899998 3:5.8379998 4:7.335 5:1.796 6:7.934 7:1.946 8:3.4430001 9:5.2399998 10:8.9820004 11:2.096 12:4.1919999 13:4.9400001 14:5.0900002 15:4.6409998 16:9.2810001 17:6.2870002 18:7.6350002 19:2.2460001 20:2.395 #
-0.1027975406590496687542213294364 1:10.131 2:0.32699999 3:2.6140001 4:1.961 5:5.882 6:7.8429999 7:1.6339999 8:10.131 9:3.9219999 10:13.399 11:4.5749998 12:2.941 13:5.882 14:1.307 15:4.2480001 16:5.882 17:4.5749998 18:7.8429999 19:0.98000002 20:3.9219999 #
-0.10036062145588726945977242621666 1:8.967 2:1.902 3:2.4460001 4:3.533 5:7.3369999 6:5.1630001 7:1.63 8:8.6960001 9:3.8039999 10:10.87 11:2.717 12:2.717 13:3.2609999 14:3.533 15:3.8039999 16:9.783 17:5.7069998 18:9.5109997 19:1.63 20:2.9890001 #
-0.098836698755300517182931230308895 1:8.9390001 2:1.117 3:5.0279999 4:6.4250002 5:6.8439999 6:6.4250002 7:1.117 8:6.006 9:5.1680002 10:7.961 11:3.073 12:5.8660002 13:2.3740001 14:3.2119999 15:4.888 16:7.1230001 17:5.7259998 18:7.402 19:1.117 20:4.1900001 #
-0.11848420394829908830480746928515 1:11.306 2:0.77999997 3:5.4580002 4:6.0430002 5:2.7290001 6:9.3570004 7:1.365 8:7.7969999 9:4.678 10:8.967 11:1.949 12:3.119 13:3.5090001 14:5.4580002 15:5.6529999 16:6.2379999 17:4.4829998 18:7.7969999 19:0.19499999 20:3.119 #
-0.073208793453896914282807983909152 1:6.1680002 2:3.454 3:4.441 4:6.25 5:3.207 6:7.237 7:2.385 8:7.8119998 9:6.3319998 10:7.895 11:1.562 12:4.1939998 13:2.796 14:2.549 15:4.5229998 16:11.184 17:6.579 18:8.9639997 19:0.493 20:1.974 #
-0.073818228190313597836258452389302 1:5.8429999 2:1.896 3:5.0739999 4:6.612 5:7.073 6:5.5359998 7:0.76899999 8:7.1760001 9:6.4580002 10:10.302 11:3.5880001 12:5.0229998 13:3.6900001 14:2.819 15:4.2030001 16:7.586 17:5.0229998 18:6.868 19:1.4349999 20:3.0239999 #
-0.11371591107766561290493001479263 1:8.9689999 2:1.345 3:2.691 4:3.1389999 5:7.1750002 6:7.848 7:2.4660001 8:6.7259998 9:5.381 10:8.9689999 11:3.812 12:2.691 13:4.7090001 14:2.915 15:2.0179999 16:5.8299999 17:4.9330001 18:10.314 19:2.915 20:5.1570001 #
-0.064405121832399297998605902648706 1:11.573 2:2.1700001 3:2.7119999 4:2.5320001 5:4.882 6:8.4989996 7:1.447 8:3.2550001 9:1.266 10:16.816999 11:3.6170001 12:2.1700001 13:5.6059999 14:4.1589999 15:4.882 16:6.691 17:6.5100002 18:6.8720002 19:2.8929999 20:1.447 #
-0.050801874375471865741271670913193 1:8.2349997 2:4.4120002 3:2.941 4:3.529 5:5 6:4.7059999 7:1.471 8:7.059 9:5 10:15.588 11:3.529 12:2.059 13:6.1760001 14:2.6470001 15:3.8239999 16:6.7649999 17:6.7649999 18:5.5879998 19:1.176 20:3.529 #
-0.097138878584547436179086332685984 1:4.4920001 2:1.418 3:4.9650002 4:8.9829998 5:4.2550001 6:4.9650002 7:2.3640001 8:7.329 9:5.2010002 10:9.6929998 11:2.8369999 12:4.0190001 13:3.546 14:3.3099999 15:5.2010002 16:7.8010001 17:7.092 18:7.329 19:1.891 20:3.3099999 #
-0.073049079589097828946187007659319 1:5.9460001 2:1.898 3:4.3639998 4:6.3249998 5:6.5780001 6:5.4400001 7:2.0239999 8:6.1350002 9:6.388 10:12.903 11:2.846 12:3.7950001 13:3.9849999 14:3.7320001 15:4.0479999 16:7.9060001 17:4.934 18:6.3249998 19:1.265 20:3.1630001 #
-0.050716687942960129997782559030384 1:6.23 2:2.832 3:5.5019999 4:4.612 5:5.178 6:6.3920002 7:2.346 8:6.1490002 9:5.0159998 10:10.275 11:2.832 12:5.3400002 13:3.803 14:3.155 15:4.6929998 16:10.437 17:4.7729998 18:6.23 19:1.375 20:2.832 #
-0.046926732048977903843933745520189 1:10.133 2:1.661 3:5.8140001 4:7.309 5:3.322 6:10.963 7:3.4879999 8:3.8210001 9:4.4850001 10:7.973 11:3.4879999 12:3.8210001 13:3.654 14:3.654 15:6.3119998 16:3.322 17:5.98 18:6.8109999 19:1.163 20:2.8239999 #
-0.071588798434121442282318525940354 1:9.9350004 2:0.86400002 3:1.296 4:3.24 5:4.1040001 6:9.2869997 7:0.86400002 8:8.2069998 9:1.512 10:14.687 11:4.3200002 12:3.6719999 13:6.0479999 14:4.5359998 15:3.0239999 16:7.559 17:5.4000001 18:8.8549995 19:0.86400002 20:1.728 #
-0.051898260019578021373654053149949 1:10.889 2:0.5 3:2.997 4:4.6950002 5:3.8959999 6:7.592 7:1.199 8:4.7950001 9:3.497 10:8.092 11:2.398 12:2.997 13:7.3930001 14:5.4949999 15:6.993 16:9.9899998 17:6.6929998 18:4.5949998 19:1.099 20:4.1960001 #
-0.047191592368535158208420199343891 1:13.77 2:1.311 3:1.967 4:4.5900002 5:4.5900002 6:9.1800003 7:1.967 8:6.5570002 9:3.6070001 10:8.8520002 11:2.2950001 12:3.6070001 13:7.5409999 14:0.98400003 15:3.6070001 16:5.902 17:8.5249996 18:8.1969995 19:0.98400003 20:1.967 #
-0.042416357351677758114050220683566 1:9.8590002 2:1.408 3:2.8169999 4:2.3469999 5:6.1030002 6:11.268 7:0.93900001 8:11.737 9:4.6950002 10:11.737 11:2.8169999 12:3.286 13:0.93900001 14:0.46900001 15:1.408 16:9.3900003 17:5.164 18:7.9809999 19:1.408 20:4.2249999 #
-0.056541264467290498763052397634965 1:6.6669998 2:2.6670001 3:1.6670001 4:4 5:5 6:8.6669998 7:1 8:6.6669998 9:9 10:7.6669998 11:4 12:3.3329999 13:4.3330002 14:4.3330002 15:2.3329999 16:7.3330002 17:6.3330002 18:7 19:2 20:6 #
-0.032490637499235648644191343237253 1:10.377 2:0.94300002 3:1.415 4:1.887 5:8.9619999 6:8.4910002 7:0.472 8:8.0190001 9:6.132 10:14.151 11:1.887 12:3.7739999 13:2.8299999 14:1.887 15:1.887 16:6.6040001 17:5.6599998 18:8.0190001 19:0.94300002 20:5.6599998 #
-0.070901912891148083373238364401914 1:6.5349998 2:1.3200001 3:4.29 4:5.1490002 5:5.1490002 6:5.5450001 7:1.914 8:8.1850004 9:5.809 10:12.145 11:2.244 12:5.677 13:2.904 14:3.6960001 15:4.4879999 16:7.6570001 17:5.677 18:6.5349998 19:1.584 20:3.4979999 #
-0.082120759917437613495394543861039 1:6.6090002 2:2.2030001 3:4.9559999 4:6.3790002 5:5.737 6:5.645 7:2.0190001 8:6.5170002 9:4.8649998 10:9.316 11:2.799 12:5.3239999 13:5.2319999 14:3.6259999 15:5.8280001 16:7.3429999 17:4.8189998 18:6.1040001 19:1.5140001 20:3.1670001 #
-0.047811099747585100727675921916671 1:10.697 2:1.244 3:2.7360001 4:2.2390001 5:6.2189999 6:10.199 7:0.995 8:6.2189999 9:2.2390001 10:14.925 11:6.2189999 12:0.995 13:3.7309999 14:3.7309999 15:6.7160001 16:5.7210002 17:3.234 18:6.7160001 19:2.7360001 20:2.4879999 #
-0.029776113605605718237523404923195 1:9.5539999 2:1.911 3:2.5480001 4:2.5480001 5:5.7319999 6:4.4590001 7:1.911 8:10.828 9:2.5480001 10:15.924 11:1.911 12:2.5480001 13:3.822 14:3.822 15:3.822 16:7.6430001 17:5.7319999 18:7.006 19:2.5480001 20:3.1849999 #
-0.032095790785346849094405996538626 1:11.06 2:3.4560001 3:4.3779998 4:7.8340001 5:4.8390002 6:7.6040001 7:2.3039999 8:2.0739999 9:2.0739999 10:11.29 11:1.613 12:2.0739999 13:5.9910002 14:2.9949999 15:7.6040001 16:6.4520001 17:4.8390002 18:7.8340001 19:1.613 20:2.0739999 #
-0.037960956639227466657970921914966 1:8.3900003 2:2.0409999 3:2.948 4:5.8959999 5:6.1220002 6:6.5760002 7:1.814 8:8.1630001 9:3.628 10:13.379 11:3.855 12:4.0819998 13:3.401 14:4.0819998 15:0.90700001 16:9.0699997 17:4.3080001 18:7.4829998 19:1.3609999 20:2.494 #
-0.055623201945878768259756697034391 1:11.132 2:0.377 3:3.2079999 4:4.151 5:7.3579998 6:7.3579998 7:2.4530001 8:8.4910002 9:2.8299999 10:14.34 11:3.3959999 12:3.0190001 13:3.585 14:2.8299999 15:2.4530001 16:5.283 17:4.9060001 18:9.434 19:1.132 20:2.2639999 #
-0.031464684260787689762395302750519 1:6.7030001 2:1.505 3:3.694 4:4.9250002 5:6.1560001 6:5.4720001 7:1.915 8:6.0190001 9:3.4200001 10:16.278999 11:3.01 12:3.967 13:4.7880001 14:4.5139999 15:4.7880001 16:5.4720001 17:3.694 18:7.3870001 19:2.1889999 20:4.1040001 #
-0.043364404499119157954112324659945 1:6.3460002 2:0.76899999 3:5.3850002 4:6.1539998 5:2.3080001 6:5 7:3.4619999 8:5 9:5.3850002 10:7.8850002 11:1.7309999 12:3.654 13:5.5770001 14:4.6149998 15:8.4619999 16:13.077 17:6.1539998 18:5.5770001 19:0.57700002 20:2.885 #
-0.066608783988379077767305602719716 1:8.7840004 2:1.351 3:3.7160001 4:3.378 5:4.3920002 6:9.1219997 7:2.027 8:8.1079998 9:3.378 10:10.473 11:2.7030001 12:4.0539999 13:4.3920002 14:2.7030001 15:3.0409999 16:7.77 17:5.743 18:10.473 19:1.0140001 20:3.378 #
-0.017291715281147652938376069187143 1:11.579 2:1.579 3:5.526 4:3.158 5:2.632 6:9.7370005 7:2.895 8:3.947 9:2.368 10:9.474 11:2.105 12:1.316 13:6.053 14:3.421 15:8.684 16:6.842 17:7.368 18:7.895 19:2.105 20:1.316 #
-0.015460462078863155058194855939746 1:6.2259998 2:3.5020001 3:5.6420002 4:8.3660002 5:3.3069999 6:7.7820001 7:1.946 8:6.0310001 9:5.2529998 10:6.4200001 11:3.6960001 12:3.891 13:6.0310001 14:3.1129999 15:6.809 16:5.0580001 17:3.891 18:6.4200001 19:2.1400001 20:4.4749999 #
-0.014938379697863353803843899925141 1:12.167 2:1.141 3:0.75999999 4:3.4219999 5:6.8439999 6:9.8859997 7:2.2809999 8:3.4219999 9:1.141 10:14.449 11:1.901 12:3.0420001 13:4.9429998 14:3.0420001 15:4.9429998 16:7.224 17:4.9429998 18:9.5059996 19:1.901 20:3.0420001 #
-0.010529986387398710193097350895641 1:8.6289997 2:2.5380001 3:2.7920001 4:4.3150001 5:5.5840001 6:9.6450005 7:2.5380001 8:4.5689998 9:2.7920001 10:10.66 11:2.7920001 12:2.03 13:2.5380001 14:4.3150001 15:7.3600001 16:8.3760004 17:7.1069999 18:6.0910001 19:0.76099998 20:4.5689998 #
-0.0080222175222592895238449273165315 1:9.7919998 2:0.29699999 3:3.2639999 4:4.1539998 5:6.2309999 6:5.3410001 7:1.484 8:9.1990004 9:4.7480001 10:11.573 11:2.967 12:3.2639999 13:4.7480001 14:4.7480001 15:5.638 16:6.5279999 17:6.5279999 18:5.0450001 19:2.3740001 20:2.0769999 #
-0.0095548605405849692390196636893052 1:11.156 2:1.623 3:2.0280001 4:3.043 5:5.6799998 6:9.1280003 7:1.42 8:7.5050001 9:2.8399999 10:13.387 11:3.8540001 12:3.651 13:2.434 14:2.8399999 15:3.651 16:6.2880001 17:4.2600002 18:7.7080002 19:2.434 20:5.0710001 #
