SVM-light Version V6.02
2 # kernel type
3 # kernel parameter -d 
0.04 # kernel parameter -g 
1 # kernel parameter -s 
1 # kernel parameter -r 
empty# kernel parameter -u 
20 # highest feature index 
624 # number of training documents 
430 # number of support vectors plus 1 
0.88640453 # threshold b, each following line is a SV (starting with alpha*y)
-0.29500351077441788749666784497094 1:10 2:0.63499999 3:5.8730001 4:6.5079999 5:3.3329999 6:8.4130001 7:1.587 8:2.8570001 9:4.6030002 10:14.921 11:1.7460001 12:3.016 13:5.079 14:5.079 15:3.8099999 16:9.8409996 17:4.1269999 18:5.079 19:2.063 20:1.429 #
-0.50000000000630040464244530085125 1:7.7080002 2:2.0829999 3:3.3329999 4:2.2920001 5:6.4580002 6:8.125 7:1.25 8:7.0830002 9:3.9579999 10:8.3330002 11:2.7079999 12:3.9579999 13:3.9579999 14:3.9579999 15:2.7079999 16:7.7080002 17:6.6669998 18:11.667 19:2.2920001 20:3.75 #
-0.080445442360271304793606361727143 1:9.9530001 2:1.738 3:3.9489999 4:4.5809999 5:6.3189998 6:8.8470001 7:2.0539999 8:8.2150002 9:4.2649999 10:9.4790001 11:2.3699999 12:3.4760001 13:3.3180001 14:3.6329999 15:3.7909999 16:7.4250002 17:4.7389998 18:6.0029998 19:1.896 20:3.9489999 #
-0.50000000000630040464244530085125 1:7.1430001 2:2.326 3:5.1500001 4:2.658 5:5.6479998 6:7.309 7:1.329 8:8.4720001 9:3.987 10:11.96 11:2.1589999 12:4.8169999 13:4.8169999 14:1.661 15:4.651 16:8.9700003 17:7.1430001 18:6.9770002 19:0.83099997 20:1.993 #
-0.17563072991958414426072465630568 1:3.404 2:4.6810002 3:2.9790001 4:5.5320001 5:3.8299999 6:4.2550001 7:2.128 8:5.9569998 9:6.3829999 10:11.489 11:4.6810002 12:4.6810002 13:2.128 14:4.2550001 15:4.6810002 16:10.213 17:6.3829999 18:5.5320001 19:1.702 20:5.1059999 #
2.5000000000315019121899240417406 1:6.2880001 2:1.0140001 3:6.085 4:6.085 5:4.868 6:6.2880001 7:3.8540001 8:6.6939998 9:5.4770002 10:9.533 11:2.8399999 12:3.8540001 13:2.8399999 14:2.8399999 15:4.868 16:10.142 17:3.651 18:9.1280003 19:1.0140001 20:2.6370001 #
1.9890501847113764011254488650593 1:6.1880002 2:2.2279999 3:2.4749999 4:3.4649999 5:5.4460001 6:4.9499998 7:1.733 8:12.376 9:3.4649999 10:12.129 11:3.96 12:4.4549999 13:3.7130001 14:2.723 15:4.2080002 16:8.6630001 17:4.2080002 18:6.9310002 19:2.2279999 20:4.4549999 #
1.9568228337745823264270939034759 1:6.5149999 2:0.65100002 3:7.4920001 4:8.4689999 5:3.9089999 6:8.1429996 7:1.954 8:2.9319999 9:3.257 10:9.1210003 11:2.9319999 12:0.65100002 13:9.4460001 14:5.5370002 15:4.8860002 16:10.098 17:3.9089999 18:5.8629999 19:1.6289999 20:2.6059999 #
2.3132721070712198851992980053183 1:10.067 2:1.007 3:4.027 4:3.3559999 5:4.698 6:8.0539999 7:1.342 8:4.362 9:7.0469999 10:10.403 11:4.698 12:4.698 13:4.698 14:2.349 15:5.0339999 16:5.0339999 17:6.711 18:6.711 19:1.342 20:4.362 #
2.1184172792402127249999921332346 1:9.9139996 2:1.863 3:3.3929999 4:4.724 5:4.5910001 6:7.3850002 7:1.929 8:3.7260001 9:3.3269999 10:13.972 11:1.597 12:1.9960001 13:5.1900001 14:5.5890002 15:5.921 16:7.7179999 17:4.5240002 18:8.5159998 19:2.329 20:1.796 #
-0.50000000000630040464244530085125 1:8.2449999 2:1.76 3:4.2150002 4:5.4190001 5:4.447 6:8.3369999 7:2.362 8:3.0109999 9:2.825 10:14.961 11:1.9450001 12:2.779 13:6.994 14:4.4000001 15:6.5770001 16:6.855 17:4.493 18:7.04 19:1.436 20:1.899 #
-0.50000000000630040464244530085125 1:9.4139996 2:2.309 3:2.309 4:3.375 5:4.618 6:8.3479996 7:1.776 8:4.4400001 9:2.309 10:14.032 11:3.552 12:3.02 13:5.329 14:5.8610001 15:5.329 16:6.3940001 17:5.684 18:6.927 19:1.776 20:3.197 #
-0.50000000000630040464244530085125 1:8.1630001 2:1.4579999 3:3.9360001 4:4.5190001 5:3.4990001 6:8.309 7:1.749 8:2.77 9:2.6240001 10:17.055 11:2.187 12:2.332 13:4.665 14:6.5599999 15:6.2680001 16:6.8509998 17:4.5190001 18:8.0170002 19:1.749 20:2.77 #
2.5000000000315019121899240417406 1:9.3190002 2:1.7920001 3:3.763 4:2.688 5:6.4520001 6:6.631 7:1.613 8:8.2440004 9:4.1220002 10:10.753 11:1.7920001 12:3.405 13:3.9430001 14:3.0469999 15:4.1220002 16:8.2440004 17:7.8850002 18:7.7059999 19:1.7920001 20:2.688 #
2.5000000000315019121899240417406 1:8.8590002 2:2.0439999 3:4.5999999 4:4.77 5:5.1110001 6:9.1990004 7:3.066 8:9.1990004 9:4.2589998 10:9.8809996 11:2.2149999 12:3.918 13:3.237 14:3.4070001 15:3.4070001 16:5.9629998 17:6.6440001 18:5.2810001 19:1.533 20:3.4070001 #
2.5000000000315019121899240417406 1:10.801 2:3.3099999 3:3.3099999 4:3.6589999 5:5.9229999 6:8.5369997 7:1.045 8:8.3620005 9:2.6129999 10:9.408 11:3.3099999 12:3.1359999 13:6.6199999 14:2.4389999 15:3.6589999 16:6.7940001 17:5.401 18:8.5369997 19:0.87099999 20:2.2650001 #
-0.50000000000630040464244530085125 1:6.7750001 2:1.921 3:5.763 4:6.0669999 5:4.954 6:5.763 7:2.1229999 8:6.1680002 9:6.1680002 10:8.9989996 11:2.224 12:3.842 13:4.2470002 14:3.7409999 15:5.763 16:7.9879999 17:5.2579999 18:7.7859998 19:1.517 20:2.9319999 #
-0.0181608229901481510459859691764 1:5.3099999 2:1.327 3:2.2119999 4:1.327 5:7.9650002 6:8.8500004 7:2.2119999 8:7.9650002 9:1.327 10:12.832 11:5.3099999 12:1.77 13:3.54 14:3.9820001 15:6.6370001 16:6.6370001 17:5.7519999 18:6.6370001 19:3.54 20:4.8670001 #
-0.50000000000630040464244530085125 1:6.9710002 2:0.84100002 3:4.2069998 4:5.5289998 5:5.8889999 6:6.3699999 7:2.6440001 8:5.4089999 9:4.6880002 10:12.861 11:1.803 12:2.7639999 13:4.2069998 14:3.125 15:5.2880001 16:8.4130001 17:5.0479999 18:9.8559999 19:1.322 20:2.7639999 #
2.4388453604095494675618738256162 1:7.224 2:0.64899999 3:4.8699999 4:7.6300001 5:4.3829999 6:7.3860002 7:3.1659999 8:3.8150001 9:4.0580001 10:12.987 11:1.867 12:1.299 13:9.0909996 14:2.76 15:6.6560001 16:7.7919998 17:4.9510002 18:6.8179998 19:1.0549999 20:1.5420001 #
2.5000000000315019121899240417406 1:8.0310001 2:3.4649999 3:3.4649999 4:3.3069999 5:6.6139998 6:9.4490004 7:1.102 8:5.3540001 9:3.1500001 10:11.496 11:2.9920001 12:2.9920001 13:5.197 14:2.0469999 15:2.9920001 16:5.3540001 17:4.724 18:9.4490004 19:3.78 20:5.039 #
2.5000000000315019121899240417406 1:7.869 2:1.6390001 3:3.6070001 4:2.951 5:5.0819998 6:9.0159998 7:0.32800001 8:7.2129998 9:3.279 10:11.311 11:4.5900002 12:2.4590001 13:4.5900002 14:3.115 15:3.115 16:8.5249996 17:7.0489998 18:8.033 19:1.967 20:4.2620001 #
-0.38139807761878874448058240886894 1:9.4189997 2:2.405 3:3.8080001 4:2.605 5:4.8099999 6:12.024 7:2.0039999 8:6.6129999 9:3.006 10:9.6190004 11:3.2060001 12:4.0079999 13:3.8080001 14:1.403 15:2.605 16:7.415 17:7.2140002 18:7.2140002 19:3.4070001 20:3.4070001 #
-0.50000000000630040464244530085125 1:10.068 2:2.0480001 3:3.072 4:4.4369998 5:6.8260002 6:8.191 7:1.877 8:7.3379998 9:3.5840001 10:9.8979998 11:3.5840001 12:3.2420001 13:5.631 14:1.365 15:3.4130001 16:5.973 17:5.631 18:7.8499999 19:1.536 20:4.4369998 #
-0.50000000000630040464244530085125 1:11.891 2:1.365 3:4.2880001 4:2.339 5:7.2119999 6:10.136 7:0.97500002 8:6.0430002 9:4.8730001 10:11.306 11:3.119 12:2.7290001 13:5.4580002 14:2.1440001 15:3.3139999 16:6.823 17:4.8730001 18:7.0180001 19:2.339 20:1.7539999 #
2.5000000000315019121899240417406 1:5.1490002 2:1.152 3:3.997 4:6.0300002 5:5.9619999 6:5.5560002 7:1.965 8:7.8590002 9:5.9619999 10:12.534 11:2.575 12:3.2520001 13:2.507 14:4.1329999 15:5.3520002 16:8.9429998 17:6.098 18:6.7069998 19:1.558 20:2.71 #
2.5000000000315019121899240417406 1:6.1459999 2:1.6670001 3:5.5209999 4:6.875 5:5.7290001 6:5 7:2.188 8:6.4580002 9:6.4580002 10:8.9580002 11:2.9170001 12:3.5420001 13:5 14:2.7079999 15:6.25 16:5.8330002 17:5 18:7.2919998 19:1.4579999 20:5 #
2.5000000000315019121899240417406 1:6.9369998 2:1.309 3:5.2360001 4:3.4030001 5:6.9369998 6:6.5450001 7:1.4400001 8:9.2930002 9:6.0209999 10:10.864 11:1.4400001 12:4.0580001 13:4.5809999 14:3.141 15:3.927 16:7.0679998 17:4.974 18:9.2930002 19:0.65399998 20:2.8800001 #
-0.50000000000630040464244530085125 1:6.8060002 2:1.571 3:3.665 4:3.665 5:7.3299999 6:5.7589998 7:3.141 8:9.6859999 9:3.665 10:11.257 11:3.665 12:3.4030001 13:3.4030001 14:2.618 15:3.4030001 16:7.3299999 17:7.0679998 18:6.8060002 19:2.0940001 20:3.665 #
-0.0020862561752147540383717227996385 1:5.1220002 2:1.4630001 3:6.2199998 4:7.1950002 5:5.6100001 6:5.9759998 7:2.8050001 8:7.5609999 9:5.8540001 10:11.22 11:2.073 12:3.5369999 13:2.8050001 14:2.8050001 15:6.3410001 16:6.4629998 17:5.244 18:6.2199998 19:1.22 20:4.2680001 #
-0.50000000000630040464244530085125 1:6.2800002 2:1.329 3:5.9180002 4:6.5219998 5:5.072 6:7.1259999 7:1.812 8:8.6960001 9:5.6760001 10:10.749 11:2.174 12:3.865 13:2.8989999 14:2.415 15:6.039 16:6.8839998 17:4.4689999 18:6.2800002 19:0.96600002 20:4.8309999 #
2.1058395720444385013081500801491 1:11.447 2:1.08 3:2.592 4:1.512 5:9.7189999 6:10.367 7:0.648 8:6.6950002 9:3.0239999 10:11.015 11:3.4560001 12:2.1600001 13:4.3200002 14:3.4560001 15:3.6719999 16:8.6389999 17:5.4000001 18:6.9109998 19:2.3759999 20:1.512 #
1.8130842135875653298171528149396 1:9.6459999 2:0.96499997 3:1.929 4:3.5369999 5:7.0739999 6:12.54 7:0.64300001 8:6.1090002 9:6.1090002 10:10.932 11:2.2509999 12:2.2509999 13:4.823 14:3.859 15:2.2509999 16:9.0030003 17:6.4310002 18:5.4660001 19:0 20:4.1799998 #
2.5000000000315019121899240417406 1:7.914 2:1.619 3:3.237 4:6.1149998 5:8.4530001 6:5.5760002 7:1.799 8:5.2160001 9:6.1149998 10:9.7119999 11:1.439 12:4.1370001 13:4.8559999 14:2.698 15:5.9349999 16:8.4530001 17:4.6760001 18:6.835 19:2.3380001 20:2.878 #
-0.50000000000630040464244530085125 1:11.419 2:1.038 3:2.076 4:0.34599999 5:6.9200001 6:7.612 7:1.038 8:6.9200001 9:0.69199997 10:13.149 11:2.7679999 12:2.4219999 13:6.9200001 14:3.806 15:5.882 16:7.9580002 17:5.882 18:9.3430004 19:2.076 20:1.73 #
-0.50000000000630040464244530085125 1:12.626 2:1.515 3:1.768 4:1.768 5:6.566 6:8.3330002 7:0.25299999 8:7.8280001 9:2.7780001 10:14.394 11:3.283 12:2.273 13:3.7880001 14:2.7780001 15:3.283 16:8.5860004 17:6.0609999 18:9.0909996 19:2.02 20:1.01 #
-0.50000000000630040464244530085125 1:8.2019997 2:2.3800001 3:4.4200001 4:6.2049999 5:4.4619999 6:7.8200002 7:2.592 8:3.8670001 9:2.8050001 10:10.327 11:2.3800001 12:2.8050001 13:8.0749998 14:2.7620001 15:7.6919999 16:8.2019997 17:4.2919998 18:7.0120001 19:1.402 20:2.2950001 #
2.5000000000315019121899240417406 1:6.8400002 2:2.1170001 3:5.2119999 4:5.375 5:6.026 6:7.6550002 7:1.14 8:6.5149999 9:5.0489998 10:9.4460001 11:3.7460001 12:3.5829999 13:3.257 14:2.9319999 15:4.072 16:8.9580002 17:4.8860002 18:6.8400002 19:1.6289999 20:4.723 #
2.5000000000315019121899240417406 1:6.3210001 2:0.903 3:4.6960001 4:5.599 5:5.9000001 6:4.6960001 7:1.7460001 8:9.151 9:6.0809999 10:11.138 11:1.7460001 12:5.7800002 13:2.95 14:3.552 15:4.5760002 16:8.5489998 17:4.8769999 18:6.3210001 19:1.626 20:3.793 #
2.5000000000315019121899240417406 1:8.2720003 2:1.034 3:2.954 4:4.4310002 5:5.3179998 6:6.3520002 7:2.5109999 8:8.5670004 9:5.4650002 10:12.851 11:2.954 12:4.1360002 13:3.6930001 14:2.954 15:3.9879999 16:9.158 17:4.7270002 18:7.3860002 19:1.034 20:2.2160001 #
-0.50000000000630040464244530085125 1:5.6440001 2:1.881 3:3.9070001 4:5.21 5:6.802 6:6.0780001 7:1.737 8:7.5250001 9:5.4990001 10:11.288 11:2.75 12:5.21 13:3.473 14:2.171 15:3.329 16:10.275 17:5.789 18:6.5120001 19:1.881 20:3.039 #
-0.50000000000630040464244530085125 1:5.494 2:1.8150001 3:4.9899998 4:6.9559999 5:6.6030002 6:5.1919999 7:1.21 8:7.3080001 9:6.704 10:10.131 11:3.579 12:4.6880002 13:3.9820001 14:2.47 15:4.5869999 16:8.1149998 17:4.8889999 18:6.6030002 19:1.3609999 20:3.3269999 #
-0.50000000000630040464244530085125 1:6.0219998 2:1.505 3:4.3010001 4:5.8060002 5:5.8060002 6:7.527 7:1.29 8:8.3870001 9:5.3759999 10:10.968 11:1.9349999 12:4.5159998 13:2.796 14:2.796 15:3.0109999 16:11.828 17:4.5159998 18:6.237 19:1.505 20:3.8710001 #
2.5000000000315019121899240417406 1:12.587 2:0.233 3:2.7969999 4:1.632 5:5.3610001 6:9.3240004 7:1.166 8:8.3920002 9:2.5639999 10:15.851 11:2.7969999 12:3.497 13:3.73 14:0.93199998 15:2.3310001 16:5.1279998 17:6.0609999 18:10.723 19:2.7969999 20:2.098 #
2.5000000000315019121899240417406 1:11.83 2:0.67000002 3:2.2320001 4:1.786 5:5.5799999 6:12.277 7:0.67000002 8:4.4640002 9:2.0090001 10:14.732 11:3.7950001 12:2.4549999 13:3.7950001 14:3.5710001 15:3.7950001 16:6.9200001 17:4.9109998 18:9.8210001 19:2.2320001 20:2.4549999 #
2.5000000000315019121899240417406 1:10.396 2:1.98 3:2.4749999 4:3.96 5:5.2810001 6:7.5910001 7:1.155 8:4.125 9:2.3099999 10:16.007 11:2.6400001 12:1.65 13:6.4359999 14:3.96 15:4.125 16:6.9310002 17:5.4460001 18:9.4060001 19:0.82499999 20:3.3 #
-0.50000000000630040464244530085125 1:11.256 2:0.48899999 3:2.2839999 4:2.447 5:6.1989999 6:9.625 7:2.447 8:5.3829999 9:2.447 10:16.15 11:4.7309999 12:3.263 13:2.9360001 14:1.794 15:2.6099999 16:5.3829999 17:5.3829999 18:9.4619999 19:2.6099999 20:3.0999999 #
-0.50000000000630040464244530085125 1:9.0500002 2:1.929 3:3.1159999 4:3.7090001 5:5.1929998 6:6.973 7:1.484 8:5.1929998 9:2.819 10:13.353 11:3.5610001 12:2.2260001 13:6.2309999 14:3.4119999 15:3.5610001 16:8.4569998 17:4.8959999 18:9.4960003 19:2.0769999 20:3.2639999 #
-0.50000000000630040464244530085125 1:12.754 2:1.479 3:3.142 4:4.9910002 5:4.0669999 6:9.7969999 7:0.92400002 8:5.5450001 9:2.4030001 10:15.157 11:2.033 12:3.3269999 13:4.9910002 14:1.848 15:4.2509999 16:6.4699998 17:4.4359999 18:9.7969999 19:0.92400002 20:1.664 #
2.5000000000315019121899240417406 1:6.2839999 2:1.192 3:4.9840002 4:5.7420001 5:5.8499999 6:6.0669999 7:1.408 8:8.342 9:7.0419998 10:11.484 11:2.7090001 12:4.4419999 13:3.9000001 14:2.925 15:2.7090001 16:9.2089996 17:6.2839999 18:5.7420001 19:1.3 20:2.3840001 #
2.5000000000315019121899240417406 1:4.5120001 2:3.0569999 3:3.493 4:3.9300001 5:6.987 6:8.2969999 7:1.747 8:8.151 9:6.2589998 10:9.8979998 11:2.766 12:4.803 13:4.803 14:2.766 15:3.493 16:8.7340002 17:5.9679999 18:4.803 19:0.87300003 20:4.658 #
2.2034971171043165050207335298182 1:5.2579999 2:2.062 3:3.5050001 4:5.8759999 5:5.9790001 6:4.6389999 7:2.062 8:8.1440001 9:3.608 10:10.722 11:2.99 12:4.8449998 13:4.6389999 14:4.5359998 15:4.3299999 16:11.134 17:5.052 18:6.598 19:0.82499999 20:3.1960001 #
-0.41378717485149596466698085350799 1:7.9419999 2:1.853 3:4.368 4:5.559 5:5.9559999 6:6.2210002 7:1.655 8:5.8239999 9:5.7579999 10:8.868 11:2.78 12:4.6329999 13:3.905 14:3.7060001 15:4.5 16:8.3389997 17:5.3610001 18:6.1550002 19:1.522 20:5.0960002 #
-0.50000000000630040464244530085125 1:5.723 2:0.90399998 3:4.6690001 4:5.1199999 5:7.3039999 6:7.3800001 7:2.033 8:7.0780001 9:6.099 10:10.09 11:3.6140001 12:4.4429998 13:4.895 14:3.9909999 15:3.539 16:7.6810002 17:4.895 18:6.1750002 19:0.90399998 20:3.464 #
-0.50000000000630040464244530085125 1:7.6409998 2:2.99 3:4.1529999 4:5.316 5:6.3119998 6:7.309 7:0.66399997 8:6.9770002 9:6.645 10:10.133 11:1.993 12:3.1559999 13:3.8210001 14:2.326 15:3.654 16:8.3059998 17:6.4780002 18:5.4819999 19:2.658 20:3.987 #
2.2882757240688960109764593653381 1:9.2729998 2:2.3640001 3:2.9089999 4:3.0910001 5:5.4549999 6:7.2729998 7:0.90899998 8:5.2729998 9:2.727 10:14.727 11:3.273 12:1.818 13:5.2729998 14:5.0910001 15:4.9089999 16:8.3640003 17:6.5450001 18:7.0910001 19:2.3640001 20:1.273 #
2.5000000000315019121899240417406 1:12.262 2:0.634 3:2.326 4:3.5940001 5:5.7080002 6:12.051 7:1.268 8:7.822 9:2.7479999 10:14.165 11:3.8050001 12:2.5369999 13:4.4400001 14:2.96 15:4.8629999 16:3.171 17:6.131 18:6.342 19:1.268 20:1.903 #
2.5000000000315019121899240417406 1:7.6209998 2:3.421 3:2.6440001 4:2.4879999 5:6.0650001 6:7.1539998 7:1.4 8:6.2210002 9:2.9549999 10:13.219 11:2.799 12:3.421 13:6.2210002 14:2.9549999 15:4.8210001 16:11.353 17:4.1989999 18:6.5320001 19:1.089 20:3.421 #
-0.50000000000630040464244530085125 1:11.085 2:1.887 3:2.5940001 4:1.415 5:5.8959999 6:9.198 7:0.94300002 8:3.7739999 9:2.1229999 10:17.452999 11:3.5380001 12:0.708 13:5.6599998 14:4.0089998 15:4.9530001 16:8.0190001 17:5.4250002 18:8.9619999 19:0.472 20:1.887 #
-0.50000000000630040464244530085125 1:7.4699998 2:0.241 3:4.8189998 4:3.855 5:4.3369999 6:6.506 7:2.1689999 8:10.843 9:3.855 10:13.253 11:3.6140001 12:4.0960002 13:2.651 14:5.0599999 15:5.0599999 16:6.2649999 17:5.783 18:6.0240002 19:2.4100001 20:1.687 #
-0.4117351343994106738222171770758 1:9.4219999 2:2.4319999 3:3.3429999 4:3.6470001 5:9.1190004 6:5.1669998 7:1.52 8:4.2550001 9:1.824 10:10.03 11:1.52 12:4.2550001 13:6.6869998 14:7.2950001 15:3.951 16:8.8149996 17:5.1669998 18:6.9910002 19:2.128 20:2.4319999 #
2.5000000000315019121899240417406 1:7.1820002 2:3.5910001 3:2.6240001 4:4.5580001 5:7.1820002 6:8.0109997 7:1.5190001 8:6.7680001 9:4.8340001 10:10.359 11:2.072 12:4.1440001 13:5.3870001 14:3.039 15:2.6240001 16:9.9449997 17:6.3540001 18:5.5250001 19:1.243 20:3.039 #
2.5000000000315019121899240417406 1:4.3909998 2:2.3050001 3:4.7199998 4:6.6960001 5:6.3670001 6:4.8299999 7:1.5369999 8:8.7819996 9:6.1469998 10:9.0010004 11:2.8540001 12:4.9400001 13:4.7199998 14:3.9519999 15:4.7199998 16:5.0489998 17:5.7080002 18:6.0370002 19:1.8660001 20:5.3790002 #
-0.50000000000630040464244530085125 1:5.7930002 2:1.517 3:2.6210001 4:4.6900001 5:5.6550002 6:5.9310002 7:2.345 8:9.1029997 9:6.6209998 10:11.31 11:4 12:2.8970001 13:4.276 14:1.793 15:3.724 16:10.621 17:6.0689998 18:5.6550002 19:2.345 20:3.0339999 #
-0.23833652164936869333189406461315 1:7.5469999 2:2.9159999 3:3.2590001 4:3.7739999 5:6.6900001 6:8.2329998 7:1.372 8:9.2620001 9:3.431 10:9.2620001 11:2.744 12:3.2590001 13:3.602 14:2.0580001 15:4.2880001 16:10.806 17:4.2880001 18:7.033 19:1.715 20:4.46 #
-0.15844249201910071134236090983904 1:6.1139998 2:1.164 3:3.493 4:5.2399998 5:6.2589998 6:8.151 7:1.747 8:7.5689998 9:4.658 10:9.7530003 11:3.0569999 12:3.0569999 13:4.3670001 14:1.892 15:6.4050002 16:10.044 17:5.3860002 18:7.132 19:1.3099999 20:3.2019999 #
2.1852528885222577414992883859668 1:14.286 2:0.75199997 3:3.3829999 4:2.444 5:4.5110002 6:8.4589996 7:0.75199997 8:9.0229998 9:0.94 10:12.97 11:2.256 12:1.88 13:6.7670002 14:1.316 15:6.2030001 16:5.0749998 17:4.323 18:11.842 19:1.5039999 20:1.316 #
2.5000000000315019121899240417406 1:5.9829998 2:0.85500002 3:4.4439998 4:6.4959998 5:5.4699998 6:4.4439998 7:3.0769999 8:3.9319999 9:4.9569998 10:12.479 11:2.7349999 12:4.2740002 13:6.6669998 14:4.7859998 15:5.1279998 16:6.6669998 17:5.1279998 18:5.8119998 19:2.5639999 20:4.1030002 #
2.0280648778281729072148209525039 1:12.928 2:0.56999999 3:3.612 4:2.0910001 5:6.4640002 6:7.605 7:0.95099998 8:8.7449999 9:4.5630002 10:11.977 11:3.0420001 12:3.4219999 13:4.3730001 14:3.0420001 15:3.612 16:7.0339999 17:6.6539998 18:7.224 19:0.56999999 20:1.521 #
-0.50000000000630040464244530085125 1:11.437 2:0.58700001 3:2.9330001 4:0.88 5:3.812 6:10.264 7:0.29300001 8:9.9709997 9:2.053 10:15.543 11:3.5190001 12:3.2260001 13:4.3990002 14:3.2260001 15:4.1059999 16:4.9850001 17:6.158 18:10.557 19:1.76 20:0.29300001 #
-0.50000000000630040464244530085125 1:14.479 2:0.193 3:3.668 4:2.3169999 5:3.8610001 6:11.004 7:2.51 8:7.1430001 9:0.579 10:14.672 11:3.089 12:1.737 13:4.6329999 14:3.089 15:5.2119999 16:4.4400001 17:3.8610001 18:9.2659998 19:2.1240001 20:2.1240001 #
-0.50000000000630040464244530085125 1:12.1 2:2.135 3:2.8469999 4:3.2030001 5:7.473 6:11.388 7:1.779 8:7.473 9:2.8469999 10:10.676 11:2.135 12:2.4909999 13:5.3379998 14:2.4909999 15:2.4909999 16:4.27 17:5.3379998 18:9.2530003 19:1.779 20:2.4909999 #
2.191667889285610737459819574724 1:3.7360001 2:1.099 3:2.6370001 4:3.9560001 5:9.6700001 6:5.0549998 7:1.538 8:10.33 9:4.835 10:12.308 11:4.6149998 12:2.6370001 13:2.198 14:3.7360001 15:4.3959999 16:8.5710001 17:5.4949999 18:7.033 19:1.758 20:4.3959999 #
-0.50000000000630040464244530085125 1:4.46 2:2.855 3:4.3709998 4:4.7280002 5:6.7800002 6:4.8169999 7:2.7650001 8:7.1360002 9:5.7979999 10:11.597 11:2.319 12:4.6389999 13:3.747 14:3.836 15:4.1929998 16:9.5450001 17:6.6009998 18:6.1550002 19:1.16 20:2.4979999 #
-0.50000000000630040464244530085125 1:7.6220002 2:0.30500001 3:2.4389999 4:3.6589999 5:6.098 6:6.098 7:1.524 8:6.098 9:7.3169999 10:12.195 11:2.4389999 12:4.573 13:2.744 14:4.8779998 15:3.3540001 16:9.4510002 17:7.6220002 18:7.3169999 19:0.91500002 20:3.3540001 #
-0.50000000000630040464244530085125 1:5.5999999 2:2.1329999 3:3.733 4:6.6669998 5:5.3330002 6:4.533 7:2.6670001 8:7.1999998 9:6.4000001 10:11.2 11:2.1329999 12:2.6670001 13:3.733 14:5.0669999 15:4.2670002 16:7.467 17:7.7329998 18:7.1999998 19:1.067 20:3.2 #
2.5000000000315019121899240417406 1:10.738 2:1.007 3:3.3559999 4:3.02 5:6.04 6:8.3889999 7:2.6849999 8:6.711 9:2.6849999 10:7.3829999 11:3.691 12:3.691 13:4.362 14:3.02 15:3.3559999 16:8.7250004 17:7.3829999 18:9.7320004 19:1.678 20:2.349 #
1.6512564403627936204799198094406 1:7.447 2:0 3:6.7379999 4:3.901 5:4.9650002 6:10.993 7:1.418 8:2.4820001 9:8.8649998 10:10.638 11:0.35499999 12:6.7379999 13:1.418 14:5.6739998 15:1.418 16:7.8010001 17:7.8010001 18:6.3829999 19:1.418 20:3.546 #
-0.50000000000630040464244530085125 1:9.6350002 2:2.99 3:2.99 4:3.322 5:6.3119998 6:9.6350002 7:0.33199999 8:4.651 9:6.3119998 10:10.631 11:3.654 12:2.99 13:3.987 14:4.3189998 15:3.987 16:7.6409998 17:5.316 18:6.3119998 19:0.66399997 20:4.3189998 #
-0.50000000000630040464244530085125 1:10.01 2:0.191 3:4.48 4:4.7659998 5:5.1479998 6:8.4840002 7:1.049 8:6.8639998 9:4.099 10:9.724 11:4.0040002 12:3.7179999 13:4.29 14:4.5760002 15:3.622 16:5.9099998 17:6.3870001 18:9.2469997 19:0.85799998 20:2.5739999 #
-0.50000000000630040464244530085125 1:9.4619999 2:0.55699998 3:3.5250001 4:3.3399999 5:4.8239999 6:9.276 7:1.113 8:7.7919998 9:3.8959999 10:9.4619999 11:3.711 12:2.783 13:5.7509999 14:2.2260001 15:5.3800001 16:8.349 17:5.7509999 18:8.7200003 19:1.67 20:2.4119999 #
1.6356037822055975450297182760551 1:6.2639999 2:1.119 3:3.915 4:3.3559999 5:5.257 6:4.1389999 7:2.237 8:8.5010004 9:4.8099999 10:11.745 11:3.3559999 12:6.152 13:4.698 14:4.586 15:2.796 16:10.85 17:6.3759999 18:6.152 19:1.454 20:2.237 #
-0.50000000000630040464244530085125 1:4.0510001 2:1.013 3:5.316 4:5.5700002 5:8.3540001 6:4.0510001 7:1.772 8:8.1009998 9:5.823 10:13.165 11:3.7969999 12:3.5439999 13:1.266 14:3.2909999 15:4.3039999 16:8.1009998 17:6.835 18:7.848 19:0.759 20:3.0380001 #
-0.50000000000630040464244530085125 1:4.448 2:2.0109999 3:5.138 4:5.7880001 5:6.2140002 6:3.9809999 7:2.0309999 8:7.5949998 9:6.2350001 10:12.449 11:1.523 12:5.849 13:4.224 14:3.493 15:3.3099999 16:9.7679996 17:5.1789999 18:5.869 19:0.995 20:3.8989999 #
-0.50000000000630040464244530085125 1:5.5079999 2:1.165 3:5.9320002 4:8.6859999 5:6.25 6:2.648 7:1.483 8:9.2159996 9:5.5079999 10:12.606 11:2.4360001 12:5.7199998 13:4.0250001 14:4.4489999 15:2.8599999 16:7.5209999 17:4.131 18:5.7199998 19:0.95300001 20:3.178 #
2.5000000000315019121899240417406 1:8.3190002 2:1.2130001 3:3.813 4:3.813 5:7.2789998 6:7.7989998 7:1.2130001 8:7.6259999 9:6.066 10:9.8789997 11:3.293 12:1.733 13:3.4660001 14:3.1199999 15:3.293 16:7.9720001 17:7.6259999 18:7.7989998 19:1.906 20:2.773 #
2.0518990280576119289435155224055 1:8.6960001 2:0.93199998 3:1.553 4:5.5900002 5:3.727 6:8.6960001 7:2.174 8:7.7639999 9:8.6960001 10:8.3850002 11:2.484 12:4.0370002 13:5.2800002 14:4.0370002 15:4.348 16:5.2800002 17:6.5219998 18:7.4530001 19:0.31099999 20:4.0370002 #
1.4692742538256877704583303057007 1:6.6669998 2:2.6670001 3:1.6670001 4:4 5:5 6:8.6669998 7:1 8:6.6669998 9:9 10:7.6669998 11:4 12:3.3329999 13:4.3330002 14:4.3330002 15:2.3329999 16:7.3330002 17:6.3330002 18:7 19:2 20:6 #
-0.50000000000630040464244530085125 1:9.04 2:0.75300002 3:3.3900001 4:4.1430001 5:7.9099998 6:6.026 7:0.565 8:9.7930002 9:4.52 10:12.053 11:2.26 12:4.7080002 13:4.1430001 14:3.766 15:2.825 16:7.533 17:6.026 18:6.026 19:2.072 20:2.448 #
-0.50000000000630040464244530085125 1:9.2469997 2:2.0550001 3:2.74 4:4.7950001 5:6.507 6:9.2469997 7:1.37 8:7.8769999 9:8.2189999 10:9.5889997 11:0.685 12:3.425 13:3.082 14:3.767 15:2.74 16:7.8769999 17:6.507 18:7.1919999 19:1.37 20:1.712 #
-0.50000000000630040464244530085125 1:7.0830002 2:0.625 3:2.2920001 4:3.9579999 5:6.0419998 6:8.3330002 7:0.208 8:9.7919998 9:4.5830002 10:13.75 11:2.9170001 12:2.7079999 13:5 14:4.7919998 15:3.9579999 16:7.5 17:6.25 18:5.4169998 19:1.0420001 20:3.75 #
2.0078449785566907515033108211355 1:2.5810001 2:1.613 3:4.8390002 4:6.4520001 5:7.0970001 6:3.5480001 7:2.2579999 8:7.7420001 9:9.0319996 10:10.968 11:4.5159998 12:8.71 13:1.9349999 14:3.8710001 15:3.2260001 16:10.323 17:3.5480001 18:5.1609998 19:0.96799999 20:1.613 #
2.3776122270773751843364607339026 1:11.547 2:2.832 3:3.704 4:5.664 5:4.5749998 6:6.7540002 7:2.6140001 8:3.9219999 9:4.3569999 10:11.111 11:2.3970001 12:2.832 13:3.2679999 14:2.6140001 15:5.0110002 16:6.5359998 17:6.5359998 18:11.111 19:0.87099999 20:1.743 #
1.8937674996938527183232281458913 1:5.085 2:0.565 3:7.9099998 4:3.9549999 5:6.7800002 6:9.04 7:1.13 8:3.3900001 9:9.04 10:6.7800002 11:0.565 12:6.2150002 13:2.26 14:4.52 15:7.3449998 16:5.085 17:5.6500001 18:7.3449998 19:2.26 20:5.085 #
-0.50000000000630040464244530085125 1:6.006 2:1.955 3:4.6090002 4:6.145 5:7.1230001 6:4.6090002 7:1.397 8:6.9829998 9:6.006 10:10.615 11:2.5139999 12:3.2119999 13:4.1900001 14:4.1900001 15:7.402 16:8.1009998 17:5.0279999 18:4.4689999 19:1.955 20:3.4920001 #
-0.50000000000630040464244530085125 1:5.8410001 2:1.168 3:4.2059999 4:8.4110003 5:4.9070001 6:6.0749998 7:1.168 8:8.1780005 9:8.4110003 10:8.1780005 11:3.2709999 12:4.2059999 13:5.1399999 14:2.336 15:4.4390001 16:6.776 17:4.4390001 18:7.4770002 19:0.935 20:4.4390001 #
-0.50000000000630040464244530085125 1:5.921 2:0.43900001 3:6.579 4:4.3860002 5:4.3860002 6:7.4559999 7:2.1930001 8:7.0180001 9:7.237 10:8.9910002 11:3.5090001 12:5.7020001 13:4.605 14:2.8510001 15:4.8249998 16:7.4559999 17:6.3600001 18:5.263 19:1.096 20:3.7279999 #
1.6465837052853207200797669429448 1:9.5410004 2:0.70700002 3:5.3000002 4:2.8269999 5:6.007 6:7.4200001 7:1.0599999 8:3.5339999 9:6.7140002 10:10.954 11:1.413 12:7.0669999 13:4.5939999 14:3.8870001 15:1.767 16:8.4809999 17:8.8339996 18:6.3600001 19:0.70700002 20:2.8269999 #
1.7792875266742012030363184749149 1:10.87 2:0.36199999 3:6.5219998 4:3.2609999 5:3.9860001 6:6.5219998 7:3.2609999 8:5.072 9:9.4200001 10:10.145 11:0.36199999 12:3.2609999 13:3.2609999 14:1.812 15:1.812 16:9.0579996 17:10.507 18:6.5219998 19:0 20:3.9860001 #
-0.50000000000630040464244530085125 1:7.6090002 2:0.36199999 3:6.5219998 4:2.8989999 5:4.71 6:7.9710002 7:2.174 8:5.7969999 9:8.6960001 10:9.4200001 11:0.72500002 12:4.71 13:3.2609999 14:2.536 15:1.812 16:10.87 17:9.783 18:7.6090002 19:0.36199999 20:2.174 #
-0.50000000000630040464244530085125 1:10.87 2:3.2609999 3:2.174 4:3.2609999 5:7.8260002 6:5.652 7:1.522 8:6.3039999 9:3.4779999 10:13.043 11:2.826 12:3.6960001 13:5 14:2.826 15:3.4779999 16:8.2609997 17:5.4349999 18:7.6090002 19:1.522 20:1.957 #
-0.50000000000630040464244530085125 1:8.967 2:1.902 3:2.4460001 4:3.533 5:7.3369999 6:5.1630001 7:1.63 8:8.6960001 9:3.8039999 10:10.87 11:2.717 12:2.717 13:3.2609999 14:3.533 15:3.8039999 16:9.783 17:5.7069998 18:9.5109997 19:1.63 20:2.9890001 #
1.8217132071779791324672714836197 1:6.3829999 2:0.53200001 3:4.2550001 4:5.8509998 5:2.6600001 6:7.447 7:1.596 8:10.106 9:8.5109997 10:6.3829999 11:8.5109997 12:3.723 13:4.7870002 14:3.191 15:4.2550001 16:6.915 17:5.3189998 18:4.7870002 19:0.53200001 20:4.2550001 #
-0.50000000000630040464244530085125 1:6.1799998 2:2.434 3:4.6820002 4:4.869 5:7.303 6:7.1160002 7:1.311 8:8.052 9:5.8049998 10:9.5509996 11:3.3710001 12:4.1199999 13:3.7449999 14:2.247 15:3.3710001 16:7.4910002 17:5.618 18:6.5539999 19:1.498 20:4.6820002 #
-0.08241462137947250243819041770621 1:5.263 2:3.3239999 3:4.4320002 4:4.1550002 5:4.9860001 6:5.263 7:2.493 8:7.4790001 9:5.54 10:11.634 11:3.3239999 12:4.7090001 13:4.1550002 14:2.77 15:4.4320002 16:3.878 17:5.54 18:8.033 19:2.77 20:5.8169999 #
-0.32660434609831068275553889179719 1:6.2750001 2:2.789 3:5.0799999 4:6.1750002 5:4.4819999 6:6.8730001 7:1.1950001 8:9.5620003 9:5.9759998 10:8.9639997 11:2.5899999 12:4.98 13:2.888 14:2.191 15:2.49 16:8.1669998 17:7.5700002 18:8.2670002 19:0.89600003 20:2.5899999 #
-0.50000000000630040464244530085125 1:6.283 2:0.87300003 3:3.7520001 4:6.1950002 5:4.4499998 6:6.632 7:2.1819999 8:6.632 9:6.0209999 10:13.176 11:2.1819999 12:3.2290001 13:3.5780001 14:3.316 15:4.0139999 16:10.384 17:5.1479998 18:7.5040002 19:1.483 20:2.967 #
-0.45982050055269291233273065699905 1:8.382 2:1.156 3:3.1789999 4:3.1789999 5:6.3579998 6:7.2249999 7:5.7800002 8:8.382 9:3.1789999 10:11.85 11:2.8900001 12:3.4679999 13:3.1789999 14:3.1789999 15:2.023 16:11.272 17:6.0689998 18:6.9359999 19:0.57800001 20:1.734 #
-0.50000000000630040464244530085125 1:8.526 2:2.131 3:3.197 4:3.73 5:5.8610001 6:6.75 7:1.776 8:7.638 9:5.329 10:11.368 11:1.776 12:4.4400001 13:2.664 14:2.309 15:4.618 16:10.124 17:6.927 18:6.75 19:1.421 20:2.664 #
-0.23376513764754319746330679663515 1:7.5219998 2:1.0319999 3:6.0469999 4:8.8500004 5:4.4250002 6:6.6370001 7:3.0969999 8:3.9820001 9:5.605 10:8.7019997 11:2.802 12:3.392 13:4.4250002 14:3.54 15:5.3099999 16:6.342 17:5.1620002 18:7.0799999 19:1.327 20:4.7199998 #
-0.49779372508739833103064142960648 1:7.1479998 2:1.021 3:4.9689999 4:4.8330002 5:6.1269999 6:7.2839999 7:0.81699997 8:5.7859998 9:5.1059999 10:9.8710003 11:3.812 12:3.608 13:4.0840001 14:3.812 15:4.9689999 16:6.8070002 17:6.3990002 18:7.7600002 19:1.974 20:3.812 #
-0.23586388468974844867531714953657 1:4.1919999 2:4.1919999 3:5.5890002 4:6.7859998 5:6.1880002 6:4.79 7:3.3929999 8:4.9899998 9:5.3889999 10:8.3830004 11:2.994 12:4.1919999 13:5.1900001 14:2.7939999 15:4.3909998 16:7.9840002 17:5.3889999 18:7.3850002 19:0.79799998 20:4.9899998 #
-0.50000000000630040464244530085125 1:6.5349998 2:1.3200001 3:4.29 4:5.1490002 5:5.1490002 6:5.5450001 7:1.914 8:8.1850004 9:5.809 10:12.145 11:2.244 12:5.677 13:2.904 14:3.6960001 15:4.4879999 16:7.6570001 17:5.677 18:6.5349998 19:1.584 20:3.4979999 #
-0.50000000000630040464244530085125 1:4.9089999 2:0.56099999 3:4.6279998 4:3.086 5:7.5739999 6:5.8909998 7:2.1040001 8:9.257 9:4.9089999 10:10.519 11:2.8050001 12:6.0310001 13:4.9089999 14:2.244 15:4.7690001 16:10.519 17:4.9089999 18:6.4520001 19:0.84200001 20:3.086 #
-0.16784602300238740668625325724861 1:14.667 2:1 3:3.3329999 4:3 5:5.3330002 6:13 7:0.667 8:2.3329999 9:5.3330002 10:8.3330002 11:3 12:1.3329999 13:5 14:4 15:4.3330002 16:7 17:6 18:8.6669998 19:0.667 20:3 #
-0.50000000000630040464244530085125 1:9.3100004 2:3.21 3:3.21 4:3.3710001 5:7.0630002 6:9.9519997 7:1.124 8:5.2969999 9:2.8889999 10:9.6309996 11:2.7290001 12:2.8889999 13:3.3710001 14:2.7290001 15:3.05 16:7.5440001 17:7.3839998 18:9.3100004 19:2.0869999 20:3.852 #
-0.50000000000630040464244530085125 1:13.77 2:1.311 3:1.967 4:4.5900002 5:4.5900002 6:9.1800003 7:1.967 8:6.5570002 9:3.6070001 10:8.8520002 11:2.2950001 12:3.6070001 13:7.5409999 14:0.98400003 15:3.6070001 16:5.902 17:8.5249996 18:8.1969995 19:0.98400003 20:1.967 #
-0.23138292773872345953201090651419 1:6.2859998 2:1.143 3:8.2860003 4:6.5710001 5:4.8569999 6:4.5710001 7:2.286 8:4.8569999 9:9.4289999 10:10.286 11:2.8570001 12:4.8569999 13:6.5710001 14:2.8570001 15:5.1430001 16:2.8570001 17:4.5710001 18:5.7140002 19:2 20:4 #
-0.50000000000630040464244530085125 1:6.4310002 2:0.88300002 3:5.296 4:5.5489998 5:5.4219999 6:6.5570002 7:1.892 8:6.6830001 9:5.6750002 10:10.719 11:2.9000001 12:2.7739999 13:4.414 14:3.405 15:5.6750002 16:9.9619999 17:5.927 18:6.6830001 19:1.261 20:1.892 #
-0.50000000000630040464244530085125 1:6.0190001 2:1.359 3:4.4660001 4:5.0489998 5:6.408 6:5.631 7:2.5239999 8:5.0489998 9:5.0489998 10:11.65 11:1.942 12:3.4949999 13:6.796 14:4.6599998 15:6.408 16:7.7670002 17:5.631 18:6.408 19:1.748 20:1.942 #
-0.23091440713430350095691778733453 1:9.5860004 2:2.0680001 3:2.444 4:3.3829999 5:5.263 6:7.3309999 7:1.692 8:8.835 9:4.1350002 10:14.474 11:2.444 12:4.323 13:3.7590001 14:2.444 15:3.1949999 16:9.2110004 17:3.5710001 18:7.895 19:1.316 20:2.632 #
-0.50000000000630040464244530085125 1:9.533 2:1.623 3:3.8540001 4:2.0280001 5:6.6939998 6:8.1140003 7:2.434 8:8.1140003 9:4.868 10:7.5050001 11:3.448 12:2.6370001 13:3.8540001 14:3.043 15:3.043 16:7.7080002 17:5.6799998 18:9.533 19:2.0280001 20:4.2600002 #
-0.50000000000630040464244530085125 1:8.0649996 2:0.64499998 3:2.9030001 4:3.8710001 5:6.1290002 6:8.3870001 7:1.29 8:6.1290002 9:8.71 10:9.0319996 11:2.5810001 12:3.5480001 13:5.1609998 14:3.2260001 15:4.1939998 16:5.1609998 17:6.4520001 18:10 19:0.96799999 20:3.5480001 #
-0.50000000000630040464244530085125 1:8.2969999 2:1.092 3:4.585 4:3.9300001 5:7.2049999 6:10.48 7:3.493 8:6.987 9:3.0569999 10:10.48 11:4.3670001 12:3.0569999 13:3.2750001 14:2.8380001 15:1.528 16:6.3319998 17:7.6420002 18:6.987 19:1.092 20:3.2750001 #
0.88061150606046867395093613595236 1:9.6450005 2:1.8609999 3:2.707 4:3.3840001 5:5.2449999 6:6.7680001 7:1.8609999 8:3.3840001 9:2.2 10:13.875 11:1.354 12:2.03 13:6.7680001 14:4.9070001 15:5.9219999 16:8.9680004 17:4.7379999 18:8.7989998 19:1.523 20:4.0609999 #
-0.50000000000630040464244530085125 1:8.382 2:2.312 3:1.734 4:3.4679999 5:6.0689998 6:7.5139999 7:2.6010001 8:5.2020001 9:1.4450001 10:14.74 11:3.1789999 12:2.023 13:6.6469998 14:3.1789999 15:4.6240001 16:8.96 17:4.335 18:5.7800002 19:4.9130001 20:2.8900001 #
-0.50000000000630040464244530085125 1:4.9429998 2:0.69 3:5.632 4:4.4829998 5:5.632 6:4.9429998 7:1.609 8:8.8509998 9:7.4710002 10:12.299 11:2.184 12:6.2069998 13:3.3329999 14:2.8740001 15:6.2069998 16:7.2410002 17:4.7129998 18:5.7470002 19:1.034 20:3.908 #
-0.48553277925486265642618377569306 1:12.113 2:2.062 3:3.0929999 4:5.6700001 5:4.1240001 6:6.9590001 7:4.381 8:3.0929999 9:1.289 10:14.175 11:2.835 12:0.51499999 13:5.4120002 14:3.0929999 15:4.8969998 16:9.7939997 17:6.1859999 18:6.4429998 19:1.031 20:2.835 #
-0.50000000000630040464244530085125 1:9.7959995 2:1.497 3:3.8099999 4:4.3540001 5:5.3060002 6:7.4829998 7:1.224 8:7.7550001 9:4.3540001 10:10.34 11:3.5369999 12:3.1289999 13:3.6730001 14:2.721 15:2.313 16:7.211 17:6.6669998 18:8.0270004 19:1.633 20:5.1700001 #
-0.45384065338208834372579758564825 1:9.8520002 2:0.86199999 3:4.3099999 4:6.6500001 5:4.4330001 6:6.6500001 7:2.0940001 8:7.882 9:6.527 10:9.7290001 11:2.8329999 12:4.0640001 13:2.586 14:4.6799998 15:4.6799998 16:6.7729998 17:5.665 18:6.4039998 19:0.493 20:2.8329999 #
-0.50000000000630040464244530085125 1:9.4020004 2:2.2219999 3:3.7609999 4:4.6149998 5:6.6669998 6:8.3760004 7:0.68400002 8:7.3499999 9:3.7609999 10:9.915 11:2.2219999 12:3.4189999 13:4.1030002 14:3.7609999 15:3.5899999 16:8.2049999 17:5.4699998 18:5.9829998 19:2.2219999 20:4.2740002 #
-0.50000000000630040464244530085125 1:6.3959999 2:0.60900003 3:5.4819999 4:6.9039998 5:2.8429999 6:6.4970002 7:2.7409999 8:2.335 9:5.4819999 10:10.254 11:2.03 12:2.437 13:9.3400002 14:5.5840001 15:7.3099999 16:11.878 17:4.2639999 18:5.888 19:0.50800002 20:1.2180001 #
-0.50000000000630040464244530085125 1:4.9790001 2:4.5640001 3:4.9790001 4:4.9790001 5:5.3940001 6:6.6389999 7:0.82999998 8:7.8839998 9:6.6389999 10:9.9589996 11:2.49 12:2.905 13:2.905 14:2.905 15:4.1490002 16:8.7139997 17:5.3940001 18:5.3940001 19:2.905 20:5.3940001 #
-0.50000000000630040464244530085125 1:7.3740001 2:2.878 3:3.237 4:4.4959998 5:5.3959999 6:7.7340002 7:1.079 8:4.6760001 9:2.698 10:14.388 11:3.0580001 12:2.698 13:4.8559999 14:3.777 15:4.1370001 16:6.6550002 17:6.2950001 18:8.6330004 19:2.3380001 20:3.5969999 #
-0.45524986042762316529319832625333 1:6.9809999 2:0.87300003 3:5.0609999 4:3.316 5:4.3629999 6:8.5509996 7:2.967 8:8.901 9:4.0139999 10:11.867 11:2.0940001 12:3.665 13:4.1880002 14:3.141 15:2.0940001 16:8.5509996 17:6.283 18:7.6789999 19:2.0940001 20:3.316 #
-0.43370036225570468557677372700709 1:9.2720003 2:1.325 3:2.428 4:2.6489999 5:5.5190001 6:9.0509996 7:1.104 8:11.7 9:3.753 10:12.362 11:4.1939998 12:2.2079999 13:4.6360002 14:2.2079999 15:1.766 16:9.0509996 17:6.1810002 18:7.506 19:1.325 20:1.766 #
-0.50000000000630040464244530085125 1:8.9549999 2:0.597 3:2.9849999 4:2.388 5:5.6719999 6:6.5669999 7:1.791 8:5.6719999 9:6.5669999 10:10.448 11:2.687 12:5.0749998 13:4.1789999 14:4.4780002 15:3.582 16:7.7610002 17:8.9549999 18:6.2690001 19:0.29899999 20:5.0749998 #
-0.20441647502805113112422930043977 1:6.2259998 2:3.5020001 3:5.6420002 4:8.3660002 5:3.3069999 6:7.7820001 7:1.946 8:6.0310001 9:5.2529998 10:6.4200001 11:3.6960001 12:3.891 13:6.0310001 14:3.1129999 15:6.809 16:5.0580001 17:3.891 18:6.4200001 19:2.1400001 20:4.4749999 #
-0.50000000000630040464244530085125 1:12.167 2:1.141 3:0.75999999 4:3.4219999 5:6.8439999 6:9.8859997 7:2.2809999 8:3.4219999 9:1.141 10:14.449 11:1.901 12:3.0420001 13:4.9429998 14:3.0420001 15:4.9429998 16:7.224 17:4.9429998 18:9.5059996 19:1.901 20:3.0420001 #
-0.46585212752381643941390620966558 1:3.5420001 2:2.4519999 3:6.54 4:5.4499998 5:7.3569999 6:6.2670002 7:2.4519999 8:8.1739998 9:5.4499998 10:9.809 11:2.1800001 12:4.0869999 13:3.8150001 14:2.1800001 15:4.9050002 16:5.4499998 17:3.27 18:9.809 19:1.9069999 20:4.9050002 #
-0.50000000000630040464244530085125 1:8.165 2:2.5450001 3:3.181 4:3.3929999 5:5.1960001 6:7.5289998 7:2.0150001 8:6.0450001 9:2.757 10:8.6960001 11:3.7119999 12:4.348 13:6.3629999 14:4.0300002 15:3.924 16:9.1199999 17:6.0450001 18:6.8930001 19:1.909 20:4.1360002 #
-0.50000000000630040464244530085125 1:6.6669998 2:4.2030001 3:3.6229999 4:3.4779999 5:5.507 6:5.9419999 7:0.87 8:8.2609997 9:5.507 10:12.029 11:1.8839999 12:3.9130001 13:5.362 14:3.4779999 15:3.043 16:7.2459998 17:7.5359998 18:7.9710002 19:2.029 20:1.449 #
-0.50000000000630040464244530085125 1:7.803 2:1.301 3:2.7460001 4:4.335 5:5.3470001 6:7.2249999 7:2.6010001 8:6.6469998 9:4.48 10:10.983 11:1.59 12:5.9250002 13:5.2020001 14:2.6010001 15:3.6129999 16:11.272 17:5.6360002 18:6.2140002 19:1.156 20:3.3239999 #
-0.50000000000630040464244530085125 1:12.984 2:1.1390001 3:2.2780001 4:1.367 5:5.9229999 6:9.1120005 7:1.367 8:7.289 9:1.1390001 10:13.895 11:2.2780001 12:2.05 13:4.5560002 14:2.506 15:3.1889999 16:7.289 17:6.3779998 18:10.706 19:1.822 20:2.733 #
-0.50000000000630040464244530085125 1:12.468 2:0.509 3:2.036 4:1.272 5:3.562 6:12.214 7:0 8:8.651 9:1.781 10:13.232 11:4.835 12:3.053 13:3.053 14:2.29 15:4.5799999 16:7.6339998 17:6.1069999 18:8.3970003 19:2.799 20:1.527 #
-0.44531187209193312526167574105784 1:7.908 2:0.255 3:5.3569999 4:7.1430001 5:5.3569999 6:3.316 7:1.786 8:7.1430001 9:8.6730003 10:10.204 11:1.02 12:6.1220002 13:4.0819998 14:3.316 15:3.0610001 16:8.1630001 17:5.612 18:7.1430001 19:0.76499999 20:3.5710001 #
-0.50000000000630040464244530085125 1:11.018 2:0.167 3:5.5089998 4:5.1750002 5:4.6739998 6:6.678 7:2.5039999 8:5.5089998 9:3.6730001 10:10.017 11:3.6730001 12:3.339 13:2.5039999 14:4.007 15:6.678 16:5.8429999 17:6.3439999 18:10.017 19:1.002 20:1.669 #
-0.50000000000630040464244530085125 1:7.5 2:0 3:3.8889999 4:2.5 5:5.2779999 6:9.1669998 7:0.55599999 8:5.8330002 9:4.7220001 10:12.778 11:5.2779999 12:2.5 13:4.4439998 14:5.5560002 15:3.8889999 16:7.7779999 17:5 18:8.0559998 19:1.6670001 20:3.6110001 #
-0.42707980391393768337948699809203 1:7.664 2:1.095 3:2.9200001 4:5.8390002 5:5.474 6:6.204 7:1.825 8:6.934 9:10.584 10:9.4890003 11:1.825 12:4.3800001 13:4.3800001 14:4.3800001 15:5.1090002 16:6.934 17:2.1900001 18:6.204 19:1.095 20:5.474 #
-0.50000000000630040464244530085125 1:8.6960001 2:2.609 3:3.826 4:5.217 5:4.8699999 6:5.3909998 7:1.913 8:9.5649996 9:4.5219998 10:9.5649996 11:2.609 12:4.348 13:3.3039999 14:2.609 15:3.652 16:8.6960001 17:5.0430002 18:9.3909998 19:1.043 20:3.1300001 #
-0.50000000000630040464244530085125 1:6.1859999 2:0.91600001 3:5.2690001 4:4.8109999 5:6.7579999 6:5.4980001 7:1.947 8:9.9659996 9:5.04 10:12.257 11:1.947 12:4.8109999 13:4.2379999 14:1.145 15:3.4360001 16:8.1330004 17:7.2160001 18:6.7579999 19:0.80199999 20:2.8640001 #
-0.18089195999171836515273525947123 1:7.381 2:0.833 3:5.9520001 4:6.3099999 5:6.3099999 6:5.9520001 7:2.5 8:7.2620001 9:5.3569999 10:10.357 11:3.8099999 12:3.8099999 13:2.7379999 14:3.3329999 15:3.6900001 16:7.2620001 17:5.3569999 18:5.8330002 19:1.786 20:4.1669998 #
-0.50000000000630040464244530085125 1:11.573 2:2.1700001 3:2.7119999 4:2.5320001 5:4.882 6:8.4989996 7:1.447 8:3.2550001 9:1.266 10:16.816999 11:3.6170001 12:2.1700001 13:5.6059999 14:4.1589999 15:4.882 16:6.691 17:6.5100002 18:6.8720002 19:2.8929999 20:1.447 #
-0.50000000000630040464244530085125 1:9.2340002 2:0.78600001 3:1.768 4:4.7150002 5:5.3049998 6:10.02 7:0.58899999 8:6.6799998 9:1.572 10:15.521 11:2.358 12:2.5539999 13:5.697 14:4.5190001 15:4.9120002 16:6.4829998 17:5.3049998 18:7.8590002 19:1.375 20:2.75 #
-0.50000000000630040464244530085125 1:12 2:0.667 3:4 4:2 5:5 6:8.3330002 7:1 8:6 9:1.6670001 10:15.333 11:4.3330002 12:3.6670001 13:5.6669998 14:3.3329999 15:4 16:4.3330002 17:3.3329999 18:11 19:2 20:2.3329999 #
-0.074580423896463549082724853178661 1:5.9460001 2:1.898 3:4.3639998 4:6.3249998 5:6.5780001 6:5.4400001 7:2.0239999 8:6.1350002 9:6.388 10:12.903 11:2.846 12:3.7950001 13:3.9849999 14:3.7320001 15:4.0479999 16:7.9060001 17:4.934 18:6.3249998 19:1.265 20:3.1630001 #
-0.50000000000630040464244530085125 1:5.9489999 2:2.776 3:4.7030001 4:5.3260002 5:7.7620001 6:4.2490001 7:1.02 8:7.1389999 9:6.572 10:10.765 11:3.286 12:5.1560001 13:4.2490001 14:3.3429999 15:4.6459999 16:7.4790001 17:4.5890002 18:7.0819998 19:1.586 20:2.323 #
-0.20551748493571436737781255033042 1:5.849 2:0.94300002 3:2.4530001 4:3.7739999 5:7.1700001 6:5.849 7:1.887 8:7.7360001 9:5.283 10:15.66 11:2.4530001 12:4.5279999 13:3.9619999 14:2.075 15:3.585 16:10.377 17:4.151 18:7.5469999 19:1.698 20:3.0190001 #
-0.50000000000630040464244530085125 1:12.681 2:1.087 3:1.449 4:3.2609999 5:4.348 6:9.0579996 7:1.812 8:4.71 9:2.8989999 10:11.957 11:1.449 12:2.8989999 13:4.71 14:3.2609999 15:2.174 16:6.8839998 17:8.3330002 18:12.681 19:1.812 20:2.536 #
-0.50000000000630040464244530085125 1:11.06 2:3.4560001 3:4.3779998 4:7.8340001 5:4.8390002 6:7.6040001 7:2.3039999 8:2.0739999 9:2.0739999 10:11.29 11:1.613 12:2.0739999 13:5.9910002 14:2.9949999 15:7.6040001 16:6.4520001 17:4.8390002 18:7.8340001 19:1.613 20:2.0739999 #
-0.50000000000630040464244530085125 1:8.6090002 2:1.987 3:3.974 4:8.6090002 5:4.6360002 6:5.2979999 7:1.987 8:1.987 9:2.6489999 10:13.907 11:2.6489999 12:1.325 13:5.96 14:3.3110001 15:7.2849998 16:10.596 17:3.3110001 18:7.2849998 19:1.987 20:2.6489999 #
-0.50000000000630040464244530085125 1:7.0120001 2:2.3369999 3:3.339 4:2.8380001 5:7.3460002 6:8.3470001 7:0.50099999 8:7.513 9:3.8399999 10:10.351 11:3.339 12:3.506 13:4.6739998 14:3.0050001 15:3.0050001 16:7.8460002 17:5.0079999 18:7.8460002 19:3.339 20:5.0079999 #
-0.50000000000630040464244530085125 1:6.2919998 2:1.421 3:3.8570001 4:4.3979998 5:6.0219998 6:5.4130001 7:1.421 8:7.375 9:4.1950002 10:12.179 11:2.233 12:4.3979998 13:3.5179999 14:3.5179999 15:5.8189998 16:9.2019997 17:5.8189998 18:7.5780001 19:1.691 20:3.654 #
-0.50000000000630040464244530085125 1:8.1540003 2:1.77 3:4.1719999 4:4.994 5:5.2470002 6:5.2470002 7:2.276 8:6.8270001 9:4.362 10:13.401 11:2.276 12:3.2869999 13:3.8559999 14:4.5510001 15:5.4359999 16:7.3959999 17:5.5630002 18:7.2690001 19:1.454 20:2.4649999 #
-0.50000000000630040464244530085125 1:4.2449999 2:3.302 3:3.302 4:4.717 5:8.9619999 6:5.4250002 7:1.179 8:10.849 9:6.368 10:10.849 11:2.8299999 12:7.5469999 13:1.651 14:2.358 15:4.0089998 16:6.8400002 17:4.9530001 18:5.8959999 19:0.472 20:4.2449999 #
-0.281737790007809851822173641267 1:6.3829999 2:3.191 3:3.723 4:7.447 5:5.3189998 6:6.915 7:3.191 8:4.7870002 9:4.2550001 10:11.17 11:3.191 12:4.2550001 13:6.3829999 14:4.2550001 15:4.2550001 16:6.3829999 17:6.3829999 18:3.191 19:1.596 20:3.723 #
-0.50000000000630040464244530085125 1:7.6669998 2:0.333 3:3.6670001 4:3.6670001 5:7.3330002 6:9.3330002 7:1.6670001 8:6.3330002 9:8.3330002 10:11.667 11:1.3329999 12:5.3330002 13:4.3330002 14:3 15:5.3330002 16:7.6669998 17:5 18:4.3330002 19:1 20:2.6670001 #
-0.50000000000630040464244530085125 1:7.171 2:1.594 3:2.3900001 4:4.382 5:6.5739999 6:7.7690001 7:0.79699999 8:10.757 9:3.7850001 10:10.558 11:4.98 12:2.5899999 13:4.382 14:1.992 15:4.382 16:7.7690001 17:6.9720001 18:6.7729998 19:1.793 20:2.5899999 #
-0.50000000000630040464244530085125 1:9.2559996 2:0.99199998 3:4.132 4:3.471 5:5.289 6:8.099 7:2.9749999 8:6.4460001 9:2.3139999 10:10.413 11:2.9749999 12:3.1400001 13:4.4629998 14:4.2979999 15:4.132 16:9.7519999 17:5.9499998 18:7.2729998 19:1.488 20:3.1400001 #
-0.37079237424055189187299674813403 1:6.7919998 2:2.2639999 3:1.132 4:3.585 5:6.7919998 6:9.6230001 7:1.698 8:6.9809999 9:2.2639999 10:11.698 11:2.642 12:3.0190001 13:7.1700001 14:2.2639999 15:3.7739999 16:8.1129999 17:5.6599998 18:9.434 19:2.075 20:3.0190001 #
-0.36211613643740570012141688494012 1:7.4879999 2:1.997 3:4.3260002 4:5.6570001 5:8.4860001 6:5.9899998 7:1.331 8:8.9849997 9:5.6570001 10:7.1550002 11:2.9949999 12:4.1599998 13:5.6570001 14:2.829 15:2.1630001 16:7.3210001 17:5.3239999 18:5.4910002 19:2.1630001 20:4.8249998 #
-0.50000000000630040464244530085125 1:4.158 2:3.5639999 3:2.7720001 4:6.1389999 5:6.9310002 6:5.3470001 7:2.97 8:7.1290002 9:7.3270001 10:9.5050001 11:0.792 12:5.5450001 13:4.3559999 14:4.7519999 15:2.97 16:8.1190004 17:5.743 18:6.9310002 19:1.386 20:3.5639999 #
-0.50000000000630040464244530085125 1:3.066 2:1.623 3:3.7869999 4:5.3200002 5:6.4920001 6:5.9510002 7:3.1559999 8:7.5739999 9:6.6729999 10:9.6479998 11:2.5250001 12:5.23 13:5.5 14:2.615 15:3.066 16:8.2959995 17:7.4840002 18:6.4920001 19:1.443 20:4.0580001 #
-0.50000000000630040464244530085125 1:12.384 2:2.477 3:3.7149999 4:3.096 5:3.7149999 6:9.2880001 7:0.61900002 8:5.263 9:4.954 10:12.693 11:1.858 12:2.786 13:4.954 14:6.8109999 15:5.573 16:5.263 17:4.954 18:6.8109999 19:0 20:2.786 #
-0.39898314753307495550416206242517 1:12.078 2:1.558 3:3.8959999 4:4.026 5:6.2340002 6:10.649 7:0.77899998 8:8.5710001 9:4.2859998 10:8.7010002 11:2.727 12:2.987 13:3.3770001 14:1.169 15:1.948 16:7.5320001 17:6.494 18:8.8310003 19:1.039 20:3.1170001 #
-0.50000000000630040464244530085125 1:9.7980003 2:0.62199998 3:5.3649998 4:5.677 5:5.21 6:8.5539999 7:1.011 8:7.6209998 9:6.3759999 10:9.4090004 11:2.3329999 12:2.799 13:2.4879999 14:4.0440001 15:4.1209998 16:8.7089996 17:5.2880001 18:7.8540001 19:0.69999999 20:2.0220001 #
-0.50000000000630040464244530085125 1:7.48 2:1.789 3:2.7639999 4:3.74 5:6.3410001 6:6.1789999 7:1.301 8:8.1300001 9:4.8779998 10:10.569 11:2.927 12:3.74 13:3.089 14:2.602 15:3.74 16:10.569 17:6.5040002 18:6.3410001 19:2.276 20:5.0409999 #
-0.50000000000630040464244530085125 1:4.3740001 2:1.789 3:4.1750002 4:7.5549998 5:5.1690001 6:5.7649999 7:2.5840001 8:8.7480001 9:6.5609999 10:10.736 11:5.1690001 12:4.3740001 13:4.573 14:2.187 15:5.1690001 16:5.368 17:4.7709999 18:6.362 19:1.193 20:3.3800001 #
-0.32898513492502506894155089867127 1:6.5500002 2:1.528 3:3.2750001 4:2.1830001 5:8.5150003 6:9.1700001 7:1.3099999 8:9.3889999 9:5.2399998 10:12.664 11:3.0569999 12:4.3670001 13:3.0569999 14:2.8380001 15:2.6199999 16:7.4239998 17:6.1139998 18:6.987 19:1.092 20:2.6199999 #
-0.34755677987929423089497049659258 1:3.5020001 2:1.2079999 3:4.8309999 4:5.1929998 5:3.865 6:4.2270002 7:1.5700001 8:7.7290001 9:5.9180002 10:9.5410004 11:2.174 12:7.7290001 13:4.8309999 14:3.6229999 15:5.3140001 16:13.768 17:6.2800002 18:4.2270002 19:0.96600002 20:3.5020001 #
-0.30482954629540226498818356049014 1:4.7090001 2:0.27700001 3:4.4320002 4:5.54 5:4.1550002 6:5.8169999 7:0.83099997 8:13.296 9:8.033 10:13.019 11:0.83099997 12:6.0939999 13:2.493 14:1.6619999 15:3.0469999 16:5.8169999 17:5.8169999 18:8.5869999 19:1.108 20:4.4320002 #
-0.29753683753284143609363354698871 1:5.2750001 2:1.29 3:5.158 4:6.5650001 5:4.2199998 6:4.1030002 7:1.876 8:6.9169998 9:7.855 10:13.365 11:1.641 12:6.6820002 13:3.165 14:3.6340001 15:5.6269999 16:9.4960003 17:5.5100002 18:3.9860001 19:0.82099998 20:2.8139999 #
-0.50000000000630040464244530085125 1:5.6799998 2:1.345 3:5.381 4:5.2319999 5:6.2779999 6:5.6799998 7:2.2420001 8:6.5770001 9:7.0250001 10:10.314 11:2.0929999 12:4.4840002 13:4.0359998 14:4.0359998 15:4.4840002 16:5.6799998 17:6.1290002 18:6.2779999 19:1.943 20:5.0819998 #
-0.50000000000630040464244530085125 1:10.619 2:0.66399997 3:2.8759999 4:2.655 5:7.743 6:7.0799999 7:1.327 8:7.5219998 9:3.0969999 10:11.062 11:4.4250002 12:3.0969999 13:4.6459999 14:1.9910001 15:3.319 16:6.4159999 17:6.4159999 18:9.7349997 19:1.549 20:3.7609999 #
-0.50000000000630040464244530085125 1:8.073 2:2.0450001 3:2.5829999 4:3.983 5:4.7360001 6:7.1040001 7:1.615 8:5.7049999 9:3.983 10:13.455 11:2.4760001 12:3.767 13:6.3509998 14:2.691 15:3.0139999 16:8.7189999 17:6.8889999 18:6.6739998 19:2.691 20:3.4449999 #
-0.50000000000630040464244530085125 1:10.223 2:2.7880001 3:2.4159999 4:2.4159999 5:5.3899999 6:14.87 7:1.487 8:5.7620001 9:3.346 10:11.152 11:2.4159999 12:2.7880001 13:4.8330002 14:2.23 15:3.5320001 16:6.691 17:4.8330002 18:8.1780005 19:2.602 20:2.0450001 #
-0.23384625744617748566156478773337 1:6.8400002 2:1.887 3:3.066 4:6.368 5:4.4809999 6:4.4809999 7:2.1229999 8:9.434 9:4.717 10:8.4910002 11:3.5380001 12:5.1890001 13:3.302 14:3.5380001 15:7.5469999 16:7.783 17:6.132 18:8.2550001 19:1.179 20:1.651 #
-0.30425405797712778976915615203325 1:7.2069998 2:1.802 3:5.4050002 4:5.4050002 5:2.7030001 6:9.0089998 7:1.802 8:4.5050001 9:13.514 10:7.2069998 11:1.802 12:2.7030001 13:3.6040001 14:1.802 15:2.7030001 16:6.3060002 17:8.1079998 18:8.1079998 19:0.90100002 20:5.4050002 #
-0.50000000000630040464244530085125 1:5.8779998 2:1.4529999 3:5.2179999 4:5.3499999 5:5.02 6:6.605 7:1.321 8:6.671 9:4.6900001 10:13.012 11:2.444 12:2.642 13:3.303 14:3.5669999 15:5.02 16:10.106 17:4.756 18:8.1899996 19:1.849 20:2.9059999 #
-0.47619689817108779017473807471106 1:7.8889999 2:3.625 3:2.132 4:3.4119999 5:5.757 6:7.0359998 7:2.559 8:3.198 9:0.426 10:17.697001 11:3.4119999 12:2.7720001 13:6.3969998 14:2.345 15:2.7720001 16:8.5290003 17:5.3299999 18:10.235 19:1.919 20:2.559 #
-0.50000000000630040464244530085125 1:6.4749999 2:1.199 3:1.918 4:2.638 5:6.7150002 6:6.4749999 7:2.158 8:7.1939998 9:6.4749999 10:12.71 11:1.199 12:4.796 13:6.4749999 14:2.398 15:2.638 16:11.99 17:3.8369999 18:7.914 19:1.679 20:3.118 #
-0.50000000000630040464244530085125 1:10.741 2:0.926 3:2.2219999 4:3.8889999 5:7.5929999 6:10 7:2.5929999 8:7.4070001 9:2.5929999 10:12.037 11:3.3329999 12:2.7780001 13:4.6300001 14:3.8889999 15:3.3329999 16:4.4439998 17:6.1110001 18:8.1479998 19:1.4809999 20:1.852 #
-0.22951117352353295197886495770945 1:14.136 2:0.26199999 3:2.3559999 4:2.618 5:6.8060002 6:9.6859999 7:2.3559999 8:9.1619997 9:4.4499998 10:15.183 11:3.665 12:2.3559999 13:3.4030001 14:1.0470001 15:1.571 16:6.5450001 17:3.4030001 18:7.592 19:1.0470001 20:2.3559999 #
-0.21754594161936005591861942320975 1:10.56 2:0.64700001 3:2.3710001 4:3.8789999 5:6.25 6:8.8360004 7:1.293 8:7.7589998 9:3.664 10:12.931 11:4.9569998 12:3.017 13:3.017 14:2.586 15:4.526 16:5.8189998 17:5.8189998 18:7.3280001 19:2.586 20:2.155 #
-0.28909708957165630716090731766599 1:6.0560002 2:1.477 3:6.0560002 4:5.0219998 5:6.9419999 6:4.2839999 7:2.2160001 8:8.1239996 9:5.1700001 10:9.4530001 11:2.5109999 12:5.3179998 13:3.3970001 14:2.954 15:6.0560002 16:8.5670004 17:5.7610002 18:4.579 19:2.0680001 20:3.9879999 #
-0.50000000000630040464244530085125 1:7.0469999 2:2.349 3:4.1950002 4:4.698 5:7.0469999 6:6.5440001 7:1.846 8:8.7250004 9:4.698 10:9.5640001 11:1.846 12:4.1950002 13:4.362 14:2.349 15:4.027 16:7.5500002 17:4.8660002 18:7.0469999 19:1.846 20:5.2010002 #
-0.35910999934564891145072351719136 1:4.0510001 2:2.2780001 3:4.8099999 4:3.2909999 5:7.0890002 6:7.0890002 7:2.5320001 8:9.3669996 9:4.0510001 10:8.6079998 11:4.0510001 12:4.5570002 13:4.0510001 14:3.2909999 15:5.5700002 16:5.823 17:6.329 18:6.835 19:1.5190001 20:4.8099999 #
-0.33100961012529489524425230229099 1:6.9720001 2:2.2019999 3:2.2019999 4:6.789 5:7.5229998 6:8.257 7:1.651 8:6.0549998 9:2.9360001 10:10.642 11:3.6700001 12:1.651 13:10.459 14:4.0370002 15:4.2199998 16:6.4219999 17:4.2199998 18:6.4219999 19:0.917 20:2.7520001 #
-0.31330638515784359210414322660654 1:6.25 2:1.316 3:5.592 4:9.2110004 5:5.592 6:5.921 7:1.316 8:4.605 9:7.895 10:9.5389996 11:2.632 12:2.961 13:6.25 14:3.618 15:4.605 16:7.237 17:3.618 18:4.934 19:0.98699999 20:5.921 #
-0.50000000000630040464244530085125 1:11.089 2:1.751 3:3.891 4:2.1400001 5:7.0040002 6:11.284 7:1.946 8:4.6690001 9:2.335 10:10.117 11:2.335 12:3.3069999 13:2.918 14:1.556 15:3.6960001 16:9.7279997 17:7.198 18:6.4200001 19:2.529 20:4.086 #
-0.30576934388668797204502425302053 1:9.1470003 2:1.98 3:4.164 4:5.461 5:2.457 6:7.2350001 7:2.457 8:7.2350001 9:5.0510001 10:9.0100002 11:3.003 12:3.345 13:4.915 14:4.71 15:3.618 16:8.6009998 17:5.5970001 18:9.625 19:0.75099999 20:1.638 #
-0.28303024728928255493443089108041 1:4.5539999 2:2.7720001 3:3.96 4:5.5450001 5:3.96 6:6.1389999 7:4.5539999 8:6.1389999 9:4.158 10:8.9110003 11:2.97 12:3.168 13:5.5450001 14:5.941 15:6.5349998 16:12.079 17:3.7620001 18:5.1490002 19:1.7819999 20:2.3759999 #
-0.33009216494468235358894503406191 1:7.1350002 2:1.381 3:5.178 4:8.6309996 5:3.4519999 6:3.7969999 7:2.4170001 8:5.5240002 9:7.25 10:11.277 11:1.4960001 12:4.6030002 13:3.9130001 14:3.9130001 15:4.7179999 16:10.932 17:3.2219999 18:8.1700001 19:0.69 20:2.3010001 #
-0.50000000000630040464244530085125 1:12.329 2:1.826 3:2.0550001 4:1.598 5:7.9910002 6:7.5339999 7:1.598 8:9.132 9:2.5109999 10:11.872 11:2.74 12:3.425 13:3.881 14:4.7950001 15:2.74 16:7.5339999 17:5.7080002 18:5.7080002 19:1.37 20:3.6530001 #
-0.31913922551599183119463987168274 1:11.594 2:0.96600002 3:3.382 4:4.8309999 5:5.7969999 6:13.043 7:0.48300001 8:4.8309999 9:5.3140001 10:5.7969999 11:5.3140001 12:3.865 13:5.3140001 14:4.8309999 15:2.415 16:6.2800002 17:6.763 18:4.8309999 19:0 20:4.348 #
-0.42355350424763338335054640992894 1:7.3249998 2:0.31799999 3:1.592 4:4.777 5:5.414 6:8.2799997 7:2.2290001 8:7.9619999 9:5.7319999 10:9.5539999 11:3.503 12:3.1849999 13:2.8659999 14:2.5480001 15:6.0510001 16:9.5539999 17:7.9619999 18:5.0960002 19:1.592 20:4.4590001 #
-0.35698571268267487166525597785949 1:13.754 2:1.433 3:7.1630001 4:4.2979999 5:4.8709998 6:6.8769999 7:1.719 8:1.146 9:3.438 10:12.321 11:2.579 12:1.146 13:5.158 14:2.006 15:6.8769999 16:5.4439998 17:7.1630001 18:8.309 19:0.86000001 20:3.438 #
-0.39707120086381858525825805372733 1:6.5380001 2:1.7309999 3:3.846 4:8.0769997 5:2.6919999 6:8.0769997 7:2.5 8:5.3850002 9:5.9619999 10:10 11:3.0769999 12:3.2690001 13:5.5770001 14:2.5 15:5.9619999 16:3.846 17:6.7309999 18:7.6919999 19:2.115 20:4.4229999 #
-0.23735121307576126370442182178522 1:8.2189999 2:1.918 3:3.927 4:5.5710001 5:5.388 6:8.3109999 7:1.6440001 8:8.0369997 9:6.119 10:8.6759996 11:2.648 12:5.2049999 13:3.744 14:2.74 15:3.744 16:6.941 17:4.658 18:7.8540001 19:1.553 20:3.105 #
-0.36469797324371322488900659664068 1:11.836 2:1.932 3:2.6570001 4:1.691 5:4.348 6:7.9710002 7:1.2079999 8:6.763 9:2.174 10:15.942 11:3.1400001 12:4.8309999 13:4.1059999 14:1.932 15:3.382 16:7.7290001 17:5.7969999 18:10.145 19:1.2079999 20:1.2079999 #
-0.1980446310645639917957794295944 1:10.409 2:1.487 3:4.8330002 4:2.23 5:4.8330002 6:10.037 7:1.859 8:8.5500002 9:2.974 10:12.268 11:1.115 12:4.0890002 13:2.602 14:2.974 15:4.0890002 16:8.5500002 17:5.5760002 18:8.1780005 19:1.487 20:1.859 #
-0.50000000000630040464244530085125 1:11.654 2:1.316 3:2.8199999 4:5.0749998 5:4.1350002 6:9.3979998 7:1.316 8:6.7670002 9:3.5710001 10:12.97 11:2.256 12:3.7590001 13:4.8870001 14:2.256 15:3.3829999 16:7.1430001 17:6.0149999 18:9.2110004 19:0.56400001 20:1.5039999 #
-0.50000000000630040464244530085125 1:5.987 2:2.0380001 3:4.7129998 4:3.312 5:7.7709999 6:6.7519999 7:2.1659999 8:8.0249996 9:4.0760002 10:9.5539999 11:3.1849999 12:3.822 13:5.8600001 14:3.0569999 15:2.803 16:8.1529999 17:6.369 18:7.006 19:1.529 20:3.822 #
-0.27883502430896500712265151378233 1:11.146 2:2.2290001 3:2.8659999 4:3.1849999 5:4.4590001 6:4.777 7:2.8659999 8:7.9619999 9:5.0960002 10:7.006 11:3.1849999 12:4.4590001 13:5.414 14:4.1399999 15:2.2290001 16:10.191 17:8.599 18:3.822 19:1.911 20:4.4590001 #
-0.40204868821032424541783711902099 1:7.2870002 2:2.4289999 3:2.8340001 4:3.2390001 5:9.717 6:7.6919999 7:0.405 8:7.6919999 9:7.6919999 10:11.336 11:2.4289999 12:4.4530001 13:3.6440001 14:2.8340001 15:1.619 16:6.4780002 17:5.6680002 18:8.5019999 19:0.81 20:3.2390001 #
-0.23869526713072700130346959213057 1:14.173 2:0 3:1.575 4:3.937 5:2.362 6:7.8740001 7:0.787 8:7.0869999 9:3.1500001 10:14.961 11:3.1500001 12:1.575 13:1.575 14:1.575 15:7.0869999 16:3.1500001 17:8.6610003 18:13.386 19:2.362 20:1.575 #
-0.27467069241016073277705800137483 1:11.607 2:2.6789999 3:1.1160001 4:3.5710001 5:4.6880002 6:10.045 7:2.2320001 8:1.339 9:1.1160001 10:18.304001 11:1.786 12:1.339 13:9.1520004 14:3.125 15:2.2320001 16:7.5890002 17:4.4640002 18:10.714 19:1.562 20:1.339 #
-0.24335396203783590807212533491111 1:11.34 2:0.206 3:2.2679999 4:1.8559999 5:5.1550002 6:9.2779999 7:1.443 8:6.1859999 9:1.649 10:17.938 11:3.918 12:2.6800001 13:4.3299999 14:2.2679999 15:2.8870001 16:7.6290002 17:3.299 18:9.4849997 19:1.8559999 20:4.3299999 #
-0.50000000000630040464244530085125 1:6.697 2:1.37 3:3.5009999 4:4.2620001 5:6.0879998 6:7.4580002 7:1.826 8:6.697 9:5.632 10:11.872 11:3.349 12:4.7179999 13:3.957 14:3.1960001 15:4.414 16:8.3710003 17:5.9359999 18:6.3930001 19:0.76099998 20:3.5009999 #
-0.50000000000630040464244530085125 1:6.23 2:2.832 3:5.5019999 4:4.612 5:5.178 6:6.3920002 7:2.346 8:6.1490002 9:5.0159998 10:10.275 11:2.832 12:5.3400002 13:3.803 14:3.155 15:4.6929998 16:10.437 17:4.7729998 18:6.23 19:1.375 20:2.832 #
-0.50000000000630040464244530085125 1:7.4310002 2:2.2620001 3:3.5539999 4:4.6849999 5:6.4619999 6:6.947 7:2.0999999 8:7.5929999 9:4.8470001 10:9.6929998 11:1.939 12:4.1999998 13:3.7160001 14:3.069 15:3.7160001 16:9.6929998 17:4.039 18:8.401 19:1.777 20:3.8770001 #
-0.50000000000630040464244530085125 1:12.473 2:0.65600002 3:2.6259999 4:2.188 5:4.5949998 6:9.1899996 7:1.094 8:8.5340004 9:1.969 10:13.348 11:5.033 12:2.188 13:3.9389999 14:3.72 15:5.2519999 16:4.8140001 17:4.8140001 18:8.5340004 19:1.5319999 20:3.5009999 #
-0.22997956624085894028475252071075 1:12.883 2:0.61299998 3:5.5209999 4:3.0669999 5:2.1470001 6:9.5089998 7:0.92000002 8:6.7480001 9:3.3740001 10:7.6690001 11:0.92000002 12:4.6009998 13:8.2819996 14:2.1470001 15:5.2150002 16:7.362 17:8.2819996 18:8.5889997 19:0.61299998 20:1.534 #
-0.25136886946811431986503748703399 1:10.68 2:0 3:0.97100002 4:5.8249998 5:3.8829999 6:5.8249998 7:0 8:6.796 9:7.7670002 10:8.7379999 11:1.942 12:3.8829999 13:5.8249998 14:3.8829999 15:3.8829999 16:3.8829999 17:6.796 18:12.621 19:1.942 20:4.8540001 #
-0.19332905199999453338399746371579 1:8.2349997 2:4.4120002 3:2.941 4:3.529 5:5 6:4.7059999 7:1.471 8:7.059 9:5 10:15.588 11:3.529 12:2.059 13:6.1760001 14:2.6470001 15:3.8239999 16:6.7649999 17:6.7649999 18:5.5879998 19:1.176 20:3.529 #
-0.16876517047763991974385078265186 1:6.599 2:5.3299999 3:3.8069999 4:7.1069999 5:6.8530002 6:4.822 7:1.777 8:5.3299999 9:4.5689998 10:14.975 11:1.777 12:2.5380001 13:7.868 14:3.046 15:4.5689998 16:5.0760002 17:3.553 18:6.8530002 19:1.2690001 20:2.2839999 #
-0.17956131106571029953933305023384 1:5.8179998 2:3.273 3:4.7270002 4:2.5450001 5:8 6:10.182 7:0.727 8:4.7270002 9:1.818 10:13.818 11:2.9089999 12:5.8179998 13:3.6359999 14:2.1819999 15:2.5450001 16:9.0909996 17:7.6360002 18:4.7270002 19:1.818 20:4 #
-0.31282052746090416306401493784506 1:12.162 2:0.676 3:4.73 4:3.378 5:3.378 6:12.162 7:1.351 8:5.4050002 9:8.7840004 10:8.7840004 11:2.027 12:3.378 13:2.027 14:0.676 15:2.027 16:8.1079998 17:7.4320002 18:8.1079998 19:1.351 20:4.0539999 #
-0.21749659964813322643450987925462 1:17.568001 2:0.44999999 3:2.7030001 4:2.2520001 5:5.4050002 6:11.261 7:1.802 8:4.9549999 9:4.0539999 10:13.063 11:2.7030001 12:0.44999999 13:4.5050001 14:1.351 15:2.2520001 16:5.4050002 17:5.4050002 18:11.261 19:1.351 20:1.802 #
-0.3488911072925632295138598237827 1:8.6689997 2:2.477 3:3.4059999 4:4.3340001 5:5.263 6:10.526 7:2.1670001 8:8.0500002 9:4.6440001 10:8.0500002 11:3.096 12:2.786 13:3.7149999 14:2.477 15:3.4059999 16:6.5019999 17:5.882 18:10.217 19:2.1670001 20:2.1670001 #
-0.26902344784164577973228915652726 1:5.4260001 2:0.77499998 3:3.1010001 4:6.9770002 5:4.651 6:5.4260001 7:2.326 8:3.8759999 9:5.4260001 10:10.853 11:3.1010001 12:4.651 13:5.4260001 14:4.651 15:4.651 16:9.302 17:6.2020001 18:6.9770002 19:1.55 20:4.651 #
-0.24649303167156419447358928209724 1:7.4359999 2:1.643 3:4.355 4:5.7519999 5:4.684 6:6.5739999 7:2.3829999 8:4.355 9:4.0669999 10:12.161 11:2.5469999 12:3.78 13:5.8340001 14:4.5190001 15:4.848 16:7.888 17:5.4229999 18:7.0250001 19:1.561 20:3.164 #
-0.13164887342290357286067603581614 1:7.5149999 2:2.1210001 3:3.9649999 4:6.5929999 5:5.994 6:5.671 7:1.982 8:6.777 9:4.7950001 10:10.327 11:2.444 12:4.6100001 13:5.256 14:3.8269999 15:5.348 16:7.6989999 17:5.256 18:5.901 19:1.199 20:2.72 #
-0.31689448166220884894883624838258 1:8.5600004 2:0.58399999 3:4.086 4:2.918 5:6.6149998 6:8.9490004 7:0.19499999 8:6.0310001 9:4.4749999 10:13.23 11:3.1129999 12:4.6690001 13:4.086 14:4.2800002 15:3.1129999 16:4.6690001 17:7.5879998 18:6.0310001 19:2.335 20:4.4749999 #
-0.39673013692931757834259087758255 1:10.769 2:1.2819999 3:2.0510001 4:3.0769999 5:7.6919999 6:8.4619999 7:1.2819999 8:6.6669998 9:4.1030002 10:12.821 11:2.8210001 12:4.3590002 13:2.5639999 14:2.8210001 15:3.5899999 16:7.1789999 17:7.1789999 18:5.8969998 19:2.0510001 20:3.3329999 #
-0.27987577379117978271239053356112 1:9.967 2:0.99699998 3:2.99 4:4.651 5:3.987 6:5.6479998 7:4.3189998 8:3.987 9:2.99 10:10.299 11:2.658 12:2.326 13:9.967 14:3.322 15:5.316 16:11.296 17:5.316 18:6.645 19:1.329 20:1.993 #
-0.16491662564719644645805374238989 1:9.7629995 2:0.792 3:3.4300001 4:2.6389999 5:6.3319998 6:7.652 7:1.0549999 8:6.5960002 9:1.5829999 10:11.873 11:5.013 12:4.2220001 13:3.694 14:1.847 15:4.4850001 16:4.2220001 17:6.8600001 18:10.026 19:4.2220001 20:3.694 #
-0.24059958646934290205088302627701 1:6.75 2:2 3:7.75 4:5.5 5:6.75 6:5.5 7:1.5 8:11 9:9.5 10:8.25 11:2 12:5 13:4.5 14:1 15:1.75 16:6.75 17:4.75 18:4.5 19:0.75 20:4.5 #
-0.20151166108817686328791296546115 1:9.1330004 2:2.108 3:2.576 4:3.9809999 5:3.0439999 6:7.494 7:3.279 8:3.513 9:4.684 10:17.096001 11:3.513 12:2.342 13:3.513 14:4.684 15:6.7919998 16:4.9180002 17:5.152 18:7.7280002 19:2.576 20:1.874 #
-0.50000000000630040464244530085125 1:6.2280002 2:1.601 3:2.135 4:3.737 5:7.2950001 6:6.5840001 7:1.068 8:8.7189999 9:4.27 10:13.879 11:1.779 12:4.0929999 13:3.381 14:2.8469999 15:3.381 16:10.142 17:5.8720002 18:6.9400001 19:1.423 20:4.6259999 #
-0.33825403173973128678753141684865 1:5.0289998 2:0.77399999 3:4.836 4:6.1900001 5:7.737 6:5.6090002 7:1.7410001 8:8.5109997 9:3.868 10:9.8649998 11:3.675 12:4.4489999 13:3.095 14:2.3210001 15:3.4820001 16:9.2840004 17:6.9629998 18:8.1239996 19:1.5470001 20:2.901 #
-0.21779847136020799580613527268724 1:7.2729998 2:0 3:5.8179998 4:2.1819999 5:7.6360002 6:6.5450001 7:0.36399999 8:5.8179998 9:11.273 10:6.9089999 11:0.727 12:10.182 13:2.9089999 14:2.5450001 15:1.455 16:6.9089999 17:10.182 18:8 19:0.36399999 20:2.9089999 #
-0.23503603284669352668778685711004 1:14.696 2:1.597 3:4.1529999 4:3.5139999 5:4.7919998 6:6.3899999 7:2.556 8:2.556 9:0.639 10:16.933001 11:1.278 12:0.958 13:6.0700002 14:2.556 15:5.7509999 16:6.7090001 17:5.4310002 18:8.3070002 19:1.9170001 20:3.1949999 #
-0.22339782670838248535005732264835 1:17.098 2:0.69099998 3:5.0089998 4:3.9719999 5:3.2820001 6:7.7719998 7:1.727 8:5.3540001 9:0.51800001 10:12.608 11:1.036 12:1.554 13:4.3179998 14:3.8 15:7.2540002 16:4.836 17:6.908 18:9.8450003 19:1.9 20:0.51800001 #
-0.39623710746868251453278730878083 1:9.6079998 2:1.569 3:2.549 4:2.549 5:5.2940001 6:10.196 7:1.569 8:9.2159996 9:2.1570001 10:10 11:1.961 12:3.1370001 13:5.4899998 14:2.3529999 15:5.098 16:8.2349997 17:5.2940001 18:8.6269999 19:2.549 20:2.549 #
-0.34613615953316573259357369352074 1:9.2189999 2:0.78100002 3:3.438 4:3.5940001 5:5.4689999 6:8.2810001 7:1.719 8:6.4060001 9:3.438 10:9.8439999 11:4.0619998 12:5.3119998 13:6.0939999 14:3.125 15:4.0619998 16:9.375 17:5.3119998 18:6.25 19:1.562 20:2.6559999 #
-0.17997398814550649714938401757536 1:10.769 2:0.34200001 3:2.2219999 4:3.4189999 5:5.4699998 6:13.162 7:0.68400002 8:2.0510001 9:4.7859998 10:9.7440004 11:1.368 12:3.7609999 13:5.1279998 14:6.1539998 15:2.2219999 16:12.479 17:11.966 18:3.2479999 19:0.171 20:0.85500002 #
-0.17320094221634968478795713053842 1:5.263 2:0.95700002 3:4.7849998 4:3.349 5:10.526 6:3.349 7:0 8:14.354 9:6.6989999 10:14.354 11:1.4349999 12:4.7849998 13:1.914 14:1.914 15:2.8710001 16:5.7420001 17:5.7420001 18:6.2199998 19:0.47799999 20:5.263 #
-0.24058985285026707190425554472313 1:8.1079998 2:1.351 3:4.9549999 4:3.6040001 5:2.2520001 6:13.964 7:1.802 8:5.4050002 9:6.3060002 10:13.063 11:2.7030001 12:5.4050002 13:4.9549999 14:3.1530001 15:2.2520001 16:8.1079998 17:5.4050002 18:3.6040001 19:1.351 20:2.2520001 #
-0.1590976428230100603311569784637 1:2.299 2:4.598 3:5.7470002 4:6.8969998 5:4.598 6:2.299 7:1.149 8:5.7470002 9:6.8969998 10:9.1949997 11:2.299 12:10.345 13:0 14:6.8969998 15:3.448 16:14.943 17:6.8969998 18:5.7470002 19:0 20:0 #
-0.32492740153378257828009623153775 1:6.0609999 2:0.67299998 3:6.0609999 4:5.3870001 5:3.704 6:7.744 7:1.01 8:7.4070001 9:9.0909996 10:9.0909996 11:2.694 12:3.704 13:3.3670001 14:4.7140002 15:4.3769999 16:6.7340002 17:5.3870001 18:9.4280005 19:1.01 20:2.3570001 #
-0.25988135691317437725444960960886 1:12.457 2:1.3839999 3:3.1140001 4:3.1140001 5:6.5739999 6:12.111 7:2.076 8:8.9969997 9:4.152 10:7.612 11:1.73 12:2.7679999 13:5.1900001 14:2.4219999 15:3.806 16:4.8439999 17:5.5359998 18:6.9200001 19:1.73 20:3.46 #
-0.17117128497077954696337087625579 1:12.371 2:3.0929999 3:1.031 4:4.6389999 5:5.6700001 6:4.6389999 7:2.5769999 8:7.2160001 9:4.1240001 10:8.2469997 11:4.1240001 12:1.031 13:1.546 14:5.6700001 15:3.0929999 16:9.7939997 17:6.7010002 18:7.2160001 19:4.6389999 20:2.5769999 #
-0.430406113214163887903396243928 1:6.4450002 2:2.2869999 3:2.911 4:2.2869999 5:4.3660002 6:6.6529999 7:2.079 8:8.1079998 9:3.7420001 10:14.969 11:3.119 12:3.326 13:5.198 14:3.326 15:2.911 16:9.1479998 17:6.0289998 18:9.3559999 19:1.04 20:2.7030001 #
-0.37454279980704330288432402085164 1:12.621 2:0 3:2.184 4:1.942 5:4.612 6:8.7379999 7:2.184 8:7.7670002 9:2.6700001 10:14.563 11:4.1259999 12:2.184 13:3.398 14:4.369 15:3.641 16:5.8249998 17:5.5830002 18:9.4659996 19:1.942 20:2.184 #
-0.14520166737894926733964950926747 1:10.169 2:0 3:5.085 4:3.3900001 5:10.169 6:6.7800002 7:0 8:3.3900001 9:10.169 10:5.085 11:3.3900001 12:5.085 13:8.4750004 14:0 15:5.085 16:5.085 17:3.3900001 18:8.4750004 19:1.6950001 20:5.085 #
-0.50000000000630040464244530085125 1:8.5880003 2:1.145 3:2.29 4:4.5799999 5:8.0150003 6:8.3970003 7:1.336 8:8.7790003 9:4.198 10:10.687 11:3.244 12:2.6719999 13:4.0079999 14:3.244 15:3.053 16:8.2060003 17:5.1529999 18:7.8239999 19:1.336 20:3.244 #
-0.19687266746860263011420499879023 1:10.059 2:2.0710001 3:3.846 4:4.1420002 5:8.8760004 6:5.0300002 7:2.0710001 8:4.1420002 9:4.1420002 10:7.3959999 11:2.9590001 12:5.9169998 13:7.1009998 14:5.0300002 15:3.846 16:6.8049998 17:5.0300002 18:6.8049998 19:2.0710001 20:2.6630001 #
-0.16830330106146212942874740292609 1:5.7579999 2:2.687 3:4.415 4:4.415 5:7.678 6:8.4449997 7:1.919 8:7.869 9:3.6470001 10:9.0209999 11:1.919 12:3.0710001 13:3.0710001 14:1.727 15:3.0710001 16:9.9809999 17:7.4860001 18:7.678 19:1.727 20:4.415 #
-0.13877488850900809858046613953775 1:10.185 2:1.852 3:3.704 4:5.5560002 5:3.704 6:12.963 7:2.7780001 8:4.6300001 9:13.889 10:7.4070001 11:1.852 12:4.6300001 13:4.6300001 14:2.7780001 15:2.7780001 16:0.926 17:6.4809999 18:4.6300001 19:0.926 20:3.704 #
-0.32002257385593835259385286917677 1:9.8179998 2:1.818 3:2.9089999 4:3.273 5:6 6:8.5450001 7:2 8:6.1820002 9:2.3640001 10:15.273 11:2.3640001 12:2.9089999 13:5.2729998 14:3.0910001 15:4 16:6.5450001 17:5.8179998 18:6.7270002 19:1.455 20:3.6359999 #
-0.1207664569063796600190130448027 1:11.875 2:3.75 3:1.875 4:1.25 5:5 6:13.75 7:0 8:10 9:1.875 10:13.75 11:1.875 12:1.25 13:3.125 14:3.75 15:2.5 16:6.25 17:3.75 18:10.625 19:0 20:3.75 #
-0.41972769758685685159704803481873 1:5.967 2:2.0580001 3:4.9380002 4:3.9089999 5:6.79 6:4.7329998 7:3.4979999 8:6.79 9:5.7610002 10:9.8769999 11:4.3210001 12:4.527 13:5.1440001 14:3.4979999 15:5.7610002 16:8.0249996 17:3.9089999 18:5.7610002 19:1.235 20:3.4979999 #
-0.3493768744298954564975190351106 1:7.9229999 2:2.4590001 3:3.0050001 4:4.3720002 5:4.645 6:5.7379999 7:1.0930001 8:7.1040001 9:6.2839999 10:9.0159998 11:4.3720002 12:5.191 13:3.825 14:2.7320001 15:5.191 16:10.929 17:6.5570002 18:4.9180002 19:2.4590001 20:2.1860001 #
-0.30763023427763647177357597684022 1:8.4580002 2:1.493 3:3.8139999 4:4.4780002 5:6.302 6:7.4629998 7:1.327 8:7.131 9:4.3119998 10:10.945 11:2.322 12:4.4780002 13:3.8139999 14:1.493 15:3.98 16:9.6190004 17:6.6329999 18:7.2969999 19:2.1559999 20:2.4879999 #
-0.12357312240188357554959708295428 1:11.211 2:0.301 3:5.2670002 4:6.9980001 5:2.6340001 6:5.7189999 7:1.279 8:4.289 9:3.3859999 10:8.0509996 11:1.956 12:2.483 13:9.9320002 14:8.9540005 15:5.2670002 16:5.0409999 17:4.5900002 18:7.75 19:1.4299999 20:3.461 #
-0.085546204539570069869114377070218 1:8.059 2:0.73299998 3:3.6630001 4:9.5240002 5:6.5929999 6:3.2969999 7:3.2969999 8:8.059 9:5.4949999 10:12.821 11:2.9300001 12:3.2969999 13:4.3959999 14:4.0289998 15:6.5929999 16:3.6630001 17:2.198 18:8.4250002 19:1.465 20:1.465 #
-0.1314493667305479951412650052589 1:7.5040002 2:1.631 3:4.5679998 4:7.178 5:5.71 6:9.7880001 7:1.4680001 8:5.3829999 9:2.6099999 10:10.114 11:1.4680001 12:2.773 13:8.6459999 14:3.915 15:7.6669998 16:5.71 17:4.7309999 18:6.362 19:0.653 20:2.1210001 #
-0.19365969558523693505591722896497 1:3.9820001 2:3.9820001 3:2.655 4:4.8670001 5:7.5219998 6:4.8670001 7:2.655 8:9.2919998 9:7.0799999 10:7.5219998 11:3.9820001 12:3.54 13:3.0969999 14:2.655 15:4.8670001 16:5.3099999 17:6.1950002 18:9.2919998 19:3.0969999 20:3.54 #
-0.16809419939932293552864450703055 1:7.302 2:2.8570001 3:2.8570001 4:4.2859998 5:6.8249998 6:7.9369998 7:1.1109999 8:8.8889999 9:3.3329999 10:9.6829996 11:1.905 12:3.4920001 13:4.7620001 14:2.8570001 15:3.016 16:6.5079999 17:7.302 18:7.1430001 19:3.016 20:4.921 #
-0.20624250582131536946306482604996 1:6.8280001 2:2.8629999 3:4.8460002 4:5.947 5:6.8280001 6:3.9649999 7:2.2030001 8:8.1499996 9:3.5239999 10:9.6920004 11:2.8629999 12:4.8460002 13:3.0840001 14:4.4050002 15:6.1669998 16:6.388 17:4.6259999 18:5.947 19:3.0840001 20:3.744 #
-0.32627812333209016415480618888978 1:13.942 2:0.48100001 3:1.923 4:2.885 5:6.7309999 6:10.577 7:0.72100002 8:10.096 9:3.125 10:11.779 11:3.365 12:3.125 13:3.6059999 14:1.683 15:2.404 16:6.9710002 17:4.5669999 18:8.8940001 19:1.202 20:1.923 #
-0.12686253968934196878493025906209 1:6.4520001 2:4.3010001 3:3.2260001 4:7.527 5:6.4520001 6:8.6020002 7:0 8:2.151 9:8.6020002 10:7.527 11:4.3010001 12:9.677 13:1.075 14:8.6020002 15:1.075 16:8.6020002 17:3.2260001 18:5.3759999 19:0 20:3.2260001 #
-0.14262065089616937640926153108012 1:3.0610001 2:1.701 3:7.4829998 4:6.4629998 5:4.4219999 6:6.1220002 7:1.02 8:5.4419999 9:12.245 10:9.184 11:1.3609999 12:6.4629998 13:2.381 14:4.4219999 15:2.381 16:3.401 17:5.4419999 18:7.823 19:1.3609999 20:7.823 #
-0.2059399303331607145040038631123 1:3.2160001 2:2.632 3:2.339 4:2.632 5:9.3570004 6:5.263 7:2.0469999 8:8.7720003 9:6.4330001 10:13.45 11:1.17 12:5.5560002 13:2.632 14:3.2160001 15:3.5090001 16:8.4799995 17:7.0180001 18:6.4330001 19:1.17 20:4.678 #
-0.28726331579920327818911118811229 1:2.688 2:2.151 3:6.1830001 4:4.0320001 5:6.7199998 6:5.1079998 7:2.688 8:9.4090004 9:6.4520001 10:11.559 11:3.4949999 12:3.4949999 13:2.957 14:2.957 15:5.914 16:4.0320001 17:4.5700002 18:6.9889998 19:2.957 20:5.645 #
-0.21193882205811256924654628619464 1:9.5690002 2:1.4349999 3:3.8280001 4:7.6560001 5:4.7849998 6:4.3060002 7:1.914 8:6.6989999 9:8.6120005 10:11.483 11:2.8710001 12:4.7849998 13:5.263 14:3.8280001 15:2.8710001 16:2.8710001 17:5.263 18:5.7420001 19:1.4349999 20:4.7849998 #
-0.20360766637765848052765704778722 1:10.241 2:0.90399998 3:2.711 4:5.1199999 5:3.313 6:6.0240002 7:4.5180001 8:3.9159999 9:3.313 10:8.434 11:3.9159999 12:3.6140001 13:4.8189998 14:4.5180001 15:5.4219999 16:8.1330004 17:6.3249998 18:9.3369999 19:0.301 20:5.1199999 #
-0.11382887638134531194111787044676 1:8.8500004 2:0 3:3.54 4:4.4250002 5:5.3099999 6:6.1950002 7:1.77 8:11.504 9:4.4250002 10:12.389 11:4.4250002 12:2.655 13:3.54 14:0.88499999 15:1.77 16:5.3099999 17:9.7349997 18:9.7349997 19:0 20:3.54 #
-0.23545955291711850865254973541596 1:5.414 2:1.433 3:8.4390001 4:7.006 5:5.2550001 6:5.7319999 7:7.1659999 8:5.2550001 9:6.21 10:8.1210003 11:2.0699999 12:4.618 13:5.0960002 14:1.911 15:4.9359999 16:5.573 17:3.6619999 18:6.369 19:1.274 20:4.4590001 #
-0.50000000000630040464244530085125 1:8.4510002 2:1.643 3:3.9909999 4:5.927 5:6.1030002 6:6.5139999 7:2.4649999 8:4.7540002 9:4.46 10:13.263 11:2.8169999 12:2.582 13:4.5770001 14:3.9319999 15:5.5159998 16:6.8660002 17:4.9299998 18:6.5139999 19:1.467 20:3.2279999 #
-0.43898059474973172289224976339028 1:6.4949999 2:0.30199999 3:5.4380002 4:5.8909998 5:5.8909998 6:5.2870002 7:2.266 8:8.1569996 9:4.6830001 10:11.027 11:2.4170001 12:3.927 13:3.625 14:3.927 15:6.6469998 16:6.7979999 17:5.7399998 18:6.9489999 19:1.2079999 20:3.323 #
-0.38247190311021811437441897396639 1:7.415 2:1.002 3:2.806 4:7.6149998 5:5.6110001 6:8.4169998 7:1.603 8:5.21 9:6.2119999 10:9.0179996 11:1.603 12:4.2080002 13:6.0120001 14:3.2060001 15:3.6070001 16:8.2159996 17:5.6110001 18:7.2140002 19:2.0039999 20:3.4070001 #
-0.12726736931354926118942216817231 1:6.2989998 2:2.362 3:7.8740001 4:3.1500001 5:6.2989998 6:6.2989998 7:3.937 8:9.4490004 9:4.724 10:7.8740001 11:3.937 12:3.937 13:3.937 14:10.236 15:1.575 16:6.2989998 17:3.937 18:3.1500001 19:2.362 20:2.362 #
-0.11934676312264083652969759441476 1:8.75 2:1.25 3:1.25 4:10 5:3.75 6:7.5 7:1.25 8:12.5 9:13.75 10:5 11:1.25 12:2.5 13:3.75 14:3.75 15:3.75 16:2.5 17:2.5 18:11.25 19:0 20:3.75 #
-0.10978511928622704252322961337995 1:7.6269999 2:0 3:7.6269999 4:11.017 5:5.9320002 6:4.237 7:2.5420001 8:10.169 9:7.6269999 10:7.6269999 11:0.847 12:4.237 13:4.237 14:3.3900001 15:5.085 16:2.5420001 17:9.3219995 18:4.237 19:0 20:1.6950001 #
-0.25847986044783577419536868546857 1:5.882 2:2.1670001 3:6.5019999 4:6.1919999 5:4.3340001 6:4.3340001 7:2.477 8:3.7149999 9:7.7399998 10:11.765 11:2.786 12:4.6440001 13:6.1919999 14:4.954 15:4.3340001 16:4.954 17:3.096 18:8.3590002 19:0.92900002 20:4.6440001 #
-0.1772238210872180974586598267706 1:4.5180001 2:1.807 3:6.0240002 4:9.3369999 5:4.217 6:3.9159999 7:3.0120001 8:5.723 9:8.1330004 10:6.0240002 11:2.108 12:2.711 13:7.8309999 14:3.0120001 15:5.4219999 16:8.1330004 17:5.723 18:6.3249998 19:1.807 20:4.217 #
-0.32018666996074190977950024716847 1:8.1890001 2:1.961 3:5.0749998 4:4.96 5:5.3060002 6:6.5739999 7:2.7679999 8:6.6900001 9:4.2680001 10:10.15 11:4.152 12:3.806 13:3.806 14:2.076 15:4.2680001 16:6.6900001 17:6.4590001 18:8.8809996 19:0.92299998 20:2.9990001 #
-0.15327697032827150569467278273805 1:11.409 2:1.342 3:5.369 4:2.013 5:7.0469999 6:10.403 7:1.678 8:5.7049999 9:7.7179999 10:7.3829999 11:2.6849999 12:2.349 13:2.349 14:4.362 15:5.7049999 16:4.698 17:3.02 18:8.3889999 19:2.013 20:4.362 #
-0.12121990720997889712240436210777 1:12.26 2:0.72100002 3:1.202 4:1.442 5:3.846 6:11.779 7:1.202 8:5.0479999 9:1.442 10:20.433001 11:4.0869999 12:1.923 13:5.5289998 14:3.365 15:3.365 16:6.4899998 17:5.7690001 18:6.7309999 19:1.923 20:1.442 #
-0.30007168165791470171299692992761 1:9.5819998 2:0.87099999 3:4.1810002 4:3.484 5:4.704 6:8.0139999 7:1.22 8:9.2329998 9:4.1810002 10:9.2329998 11:2.6129999 12:4.5300002 13:3.1359999 14:2.6129999 15:2.7869999 16:8.3620005 17:6.6199999 18:8.1879997 19:3.1359999 20:3.3099999 #
-0.12665165759648361332168065018777 1:8.4029999 2:0.83999997 3:2.5209999 4:1.681 5:6.723 6:10.084 7:4.2020001 8:9.2440004 9:2.5209999 10:15.126 11:5.0419998 12:1.681 13:6.723 14:0.83999997 15:3.3610001 16:3.3610001 17:2.5209999 18:10.084 19:3.3610001 20:1.681 #
-0.11648920450542832316642716250499 1:6.7389998 2:0.359 3:2.1559999 4:3.0550001 5:6.559 6:14.016 7:0.62900001 8:3.145 9:5.0310001 10:5.75 11:1.348 12:12.219 13:4.3130002 14:9.8830004 15:1.707 16:10.692 17:8.5349998 18:2.6059999 19:0 20:1.258 #
-0.11496333784532110355858236516724 1:10.207 2:0 3:5.954 4:5.711 5:7.533 6:7.8979998 7:0.36500001 8:1.823 9:10.936 10:3.767 11:0.243 12:10.936 13:5.1030002 14:3.5239999 15:0.36500001 16:14.581 17:8.5050001 18:1.823 19:0.243 20:0.486 #
-0.11530098371339150831182962519961 1:8.5530005 2:10.526 3:4.605 4:4.605 5:4.605 6:11.184 7:3.289 8:3.947 9:3.947 10:5.263 11:3.289 12:2.632 13:1.974 14:5.921 15:4.605 16:4.605 17:5.921 18:4.605 19:1.974 20:3.947 #
-0.15212779323326111602376897735667 1:11.208 2:1.401 3:6.6550002 4:5.6040001 5:2.102 6:10.683 7:3.152 8:4.553 9:7.5310001 10:6.3049998 11:2.977 12:5.079 13:2.977 14:2.4519999 15:3.152 16:6.3049998 17:5.954 18:8.4060001 19:0.70099998 20:2.802 #
-0.11473234201455036196382053503839 1:9.8900003 2:8.7910004 3:1.099 4:1.099 5:1.099 6:10.989 7:0 8:6.5929999 9:5.4949999 10:5.4949999 11:1.099 12:10.989 13:5.4949999 14:4.3959999 15:4.3959999 16:7.6919999 17:6.5929999 18:7.6919999 19:0 20:1.099 #
-0.11402016290122646280380536154553 1:9.2779999 2:0 3:5.1550002 4:1.031 5:4.1240001 6:5.1550002 7:3.0929999 8:16.495001 9:4.1240001 10:13.402 11:8.2469997 12:4.1240001 13:1.031 14:2.062 15:2.062 16:4.1240001 17:2.062 18:13.402 19:0 20:1.031 #
-0.18948831020452636120232625671633 1:8.0240002 2:2.0710001 3:4.7449999 4:5.177 5:3.9690001 6:8.0240002 7:2.4159999 8:4.8319998 9:3.02 10:10.871 11:2.0710001 12:3.02 13:8.283 14:2.934 15:7.3340001 16:8.8870001 17:5.0910001 18:5.7810001 19:1.035 20:2.4159999 #
-0.22481857221204376573453487253573 1:10.724 2:1.8099999 3:3.016 4:4.96 5:2.8150001 6:8.3109999 7:2.2119999 8:3.4849999 9:2.346 10:18.767 11:1.206 12:2.279 13:5.7639999 14:5.4289999 15:5.2280002 16:6.3670001 17:4.5580001 18:6.434 19:1.8099999 20:2.48 #
-0.11349667807968659427597657440856 1:20 2:5.3330002 3:5.3330002 4:2.6670001 5:1.3329999 6:6.6669998 7:1.3329999 8:0 9:14.667 10:5.3330002 11:0 12:1.3329999 13:5.3330002 14:4 15:0 16:5.3330002 17:9.3330002 18:5.3330002 19:2.6670001 20:4 #
-0.10698882581873137009864649371593 1:8.5939999 2:0 3:7.0310001 4:12.5 5:3.125 6:0.78100002 7:1.562 8:3.125 9:6.25 10:13.281 11:3.9059999 12:4.6880002 13:7.0310001 14:3.9059999 15:4.6880002 16:7.8119998 17:3.125 18:5.4689999 19:1.562 20:1.562 #
-0.11298074920230745388227688863481 1:14.925 2:0 3:8.9549999 4:4.4780002 5:2.9849999 6:10.448 7:1.493 8:4.4780002 9:14.925 10:14.925 11:2.9849999 12:1.493 13:0 14:1.493 15:1.493 16:2.9849999 17:4.4780002 18:7.4629998 19:0 20:0 #
-0.11291094663964175437431691761958 1:30.879 2:0.47499999 3:4.7509999 4:10.689 5:1.425 6:4.9879999 7:0.23800001 8:3.325 9:15.677 10:4.513 11:1.188 12:2.6129999 13:2.375 14:4.7509999 15:2.138 16:5.2259998 17:1.425 18:1.9 19:0.23800001 20:1.188 #
-0.16094292491949330203837575936632 1:2.1789999 2:1.307 3:5.447 4:4.7930002 5:4.7930002 6:2.832 7:1.525 8:8.2790003 9:7.8429999 10:8.9320002 11:2.1789999 12:6.3179998 13:6.5359998 14:5.0110002 15:4.5749998 16:13.072 17:7.1900001 18:4.5749998 19:0.65399998 20:1.961 #
-0.15803395704854988901288948000001 1:7.0250001 2:0.82599998 3:6.8179998 4:7.645 5:2.273 6:4.9590001 7:3.306 8:3.9260001 9:4.9590001 10:8.8839998 11:1.653 12:2.8929999 13:7.0250001 14:6.4050002 15:7.4380002 16:11.157 17:2.4790001 18:6.198 19:1.24 20:2.8929999 #
-0.11236877586441811061046536224239 1:11.194 2:0.74599999 3:6.7160001 4:17.91 5:1.493 6:8.2089996 7:0 8:3.7309999 9:13.433 10:5.224 11:5.9699998 12:0.74599999 13:5.224 14:4.4780002 15:5.9699998 16:2.2390001 17:2.2390001 18:2.2390001 19:0 20:2.2390001 #
-0.35435382056144548723608522777795 1:7.1960001 2:1.845 3:2.03 4:4.428 5:5.9039998 6:7.934 7:1.661 8:6.4580002 9:3.6900001 10:13.653 11:2.7679999 12:3.3210001 13:6.4580002 14:3.1370001 15:4.6129999 16:7.934 17:6.0890002 18:6.0890002 19:2.214 20:2.5829999 #
-0.22144023485306274512396385034663 1:9.8360004 2:0.546 3:5.191 4:2.4590001 5:4.645 6:6.2839999 7:1.0930001 8:5.7379999 9:3.279 10:15.574 11:4.098 12:3.552 13:3.552 14:4.9180002 15:5.4640002 16:5.4640002 17:5.7379999 18:9.29 19:1.913 20:1.3660001 #
-0.22984960235131934869201586479903 1:6.7969999 2:2.092 3:3.7909999 4:3.7909999 5:7.3200002 6:8.6269999 7:5.098 8:7.974 9:4.5749998 10:12.549 11:3.007 12:1.699 13:3.007 14:2.8759999 15:2.484 16:8.8889999 17:4.4439998 18:7.7119999 19:1.046 20:2.2219999 #
-0.15142808980228714132998391050933 1:4.6560001 2:0.88700002 3:7.428 4:4.9889998 5:7.428 6:4.8779998 7:1.9960001 8:7.0949998 9:8.2040005 10:10.865 11:1.33 12:8.4259996 13:2.55 14:4.2129998 15:4.5450001 16:7.539 17:4.2129998 18:3.7690001 19:0.333 20:4.6560001 #
-0.39654623601084210138267849288241 1:6.3379998 2:2.582 3:4.46 4:5.869 5:5.3990002 6:4.2249999 7:0.93900001 8:7.0419998 9:6.573 10:14.319 11:2.3469999 12:4.46 13:3.9909999 14:4.2249999 15:2.8169999 16:8.9200001 17:3.5209999 18:6.8080001 19:1.174 20:3.9909999 #
-0.13028829501214256314511885648244 1:11.795 2:1.026 3:0.51300001 4:6.1539998 5:3.0769999 6:10.769 7:0.51300001 8:6.1539998 9:4.6149998 10:8.2049999 11:2.0510001 12:2.0510001 13:10.256 14:4.1030002 15:5.6409998 16:3.5899999 17:5.6409998 18:7.6919999 19:2.5639999 20:3.5899999 #
-0.23928555912096974300773410959664 1:12.83 2:1.132 3:1.132 4:4.151 5:6.415 6:8.6789999 7:1.132 8:6.415 9:2.642 10:13.585 11:1.887 12:4.151 13:4.9060001 14:3.0190001 15:3.7739999 16:6.415 17:5.6599998 18:8.302 19:1.5089999 20:2.2639999 #
-0.16493506915837391479939810778887 1:8.6049995 2:1.78 3:2.3740001 4:1.484 5:7.7150002 6:5.638 7:0.59299999 8:8.309 9:5.0450001 10:12.166 11:3.5610001 12:5.9349999 13:2.671 14:2.3740001 15:2.0769999 16:10.979 17:5.9349999 18:7.7150002 19:1.78 20:3.2639999 #
-0.11365331417585926299107512704722 1:19.872 2:0.64099997 3:5.1279998 4:11.538 5:1.923 6:1.923 7:0.64099997 8:8.3330002 9:9.6149998 10:8.974 11:1.923 12:2.5639999 13:1.2819999 14:6.4099998 15:6.4099998 16:3.2049999 17:1.923 18:6.4099998 19:0.64099997 20:0.64099997 #
-0.49999999869075656411254726663174 1:5.8429999 2:1.896 3:5.0739999 4:6.612 5:7.073 6:5.5359998 7:0.76899999 8:7.1760001 9:6.4580002 10:10.302 11:3.5880001 12:5.0229998 13:3.6900001 14:2.819 15:4.2030001 16:7.586 17:5.0229998 18:6.868 19:1.4349999 20:3.0239999 #
-0.18090661003560268293988144705509 1:5.2059999 2:0.86799997 3:5.6399999 4:8.677 5:4.7719998 6:5.6399999 7:1.518 8:8.677 9:6.0739999 10:11.28 11:2.8199999 12:3.905 13:3.0369999 14:3.471 15:4.3379998 16:5.6399999 17:7.375 18:5.8569999 19:1.735 20:3.471 #
-0.3666934711669259105981666380103 1:6.947 2:1.895 3:5.158 4:4.421 5:4.947 6:6.421 7:3.053 8:5.053 9:3.263 10:11.789 11:1.684 12:3.053 13:6.211 14:4.737 15:6.105 16:8.9469995 17:5.474 18:6.632 19:1.053 20:3.158 #
-0.11322589434470003988408848272229 1:8.5369997 2:4.8779998 3:9.7559996 4:14.634 5:6.098 6:3.6589999 7:1.22 8:7.3169999 9:2.4389999 10:3.6589999 11:6.098 12:1.22 13:8.5369997 14:2.4389999 15:1.22 16:3.6589999 17:3.6589999 18:4.8779998 19:0 20:6.098 #
-0.11317857116066258604814009913753 1:6.4520001 2:6.4520001 3:11.29 4:6.4520001 5:3.2260001 6:8.0649996 7:0 8:0 9:8.0649996 10:3.2260001 11:4.8390002 12:1.613 13:8.0649996 14:3.2260001 15:11.29 16:3.2260001 17:1.613 18:6.4520001 19:3.2260001 20:3.2260001 #
-0.12798226361382084026452332636836 1:9.2550001 2:0.45100001 3:1.58 4:3.1600001 5:7.223 6:9.7069998 7:0.903 8:10.158 9:3.8369999 10:10.835 11:3.612 12:2.257 13:4.5149999 14:4.7399998 15:4.7399998 16:5.1919999 17:5.6430001 18:7.901 19:0.903 20:3.3859999 #
-0.11878216436908105302361349231433 1:7.7459998 2:0 3:5.6339998 4:6.3379998 5:2.1129999 6:5.6339998 7:0.704 8:7.7459998 9:4.9299998 10:11.268 11:2.1129999 12:3.5209999 13:7.0419998 14:3.5209999 15:5.6339998 16:7.0419998 17:4.2249999 18:13.38 19:0 20:1.408 #
-0.1181118588811031211438518084833 1:7.5139999 2:2.312 3:1.734 4:1.156 5:8.6709995 6:9.8269997 7:2.312 8:7.5139999 9:2.312 10:7.5139999 11:6.9359999 12:3.4679999 13:1.734 14:1.734 15:3.4679999 16:15.029 17:5.7800002 18:4.6240001 19:3.4679999 20:2.8900001 #
-0.1102443462075545221878769552859 1:1.575 2:0.787 3:3.937 4:10.236 5:4.724 6:9.4490004 7:1.575 8:7.0869999 9:13.386 10:4.724 11:5.5120001 12:4.724 13:1.575 14:3.1500001 15:1.575 16:4.724 17:9.4490004 18:9.4490004 19:0 20:2.362 #
-0.11216310474484780801418537521386 1:8.974 2:0 3:7.6919999 4:17.948999 5:2.5639999 6:5.1279998 7:1.2819999 8:8.974 9:5.1279998 10:6.4099998 11:2.5639999 12:3.846 13:1.2819999 14:5.1279998 15:1.2819999 16:3.846 17:7.6919999 18:8.974 19:0 20:1.2819999 #
-0.11520551953074141537936014856314 1:18.349001 2:0 3:1.835 4:1.835 5:7.3390002 6:10.092 7:0.917 8:7.3390002 9:4.5869999 10:17.431 11:2.7520001 12:1.835 13:0 14:2.7520001 15:3.6700001 16:4.5869999 17:0.917 18:8.257 19:4.5869999 20:0.917 #
-0.16656026637459619976766589388717 1:5.9520001 2:1.905 3:3.3329999 4:7.0240002 5:7.2620001 6:5.2379999 7:2.381 8:7.5 9:4.0479999 10:11.19 11:3.6900001 12:4.7620001 13:3.4519999 14:5 15:4.4050002 16:6.5479999 17:5 18:6.5479999 19:1.786 20:2.9760001 #
-0.11067256394802706120916724330527 1:17.742001 2:0 3:1.613 4:3.2260001 5:1.613 6:3.2260001 7:0 8:4.8390002 9:6.4520001 10:6.4520001 11:1.613 12:4.8390002 13:3.2260001 14:6.4520001 15:4.8390002 16:11.29 17:11.29 18:3.2260001 19:1.613 20:6.4520001 #
-0.10900539081199163427005061066666 1:7.3390002 2:0.917 3:1.835 4:0.917 5:4.5869999 6:6.4219999 7:5.5050001 8:10.092 9:1.835 10:9.1739998 11:10.092 12:4.5869999 13:1.835 14:0.917 15:0 16:8.257 17:8.257 18:11.927 19:3.6700001 20:1.835 #
-0.11064562784909751091966256808519 1:3.448 2:4.598 3:4.598 4:9.1949997 5:6.8969998 6:4.598 7:1.149 8:1.149 9:10.345 10:8.0459995 11:4.598 12:5.7470002 13:0 14:11.494 15:5.7470002 16:5.7470002 17:5.7470002 18:5.7470002 19:0 20:1.149 #
-0.3924282930257899648651687130041 1:9.1639996 2:1.768 3:3.2149999 4:4.6620002 5:5.3049998 6:7.717 7:1.125 8:7.0739999 9:4.3410001 10:9.6459999 11:2.8940001 12:3.698 13:5.7880001 14:2.4119999 15:3.3759999 16:9.6459999 17:4.823 18:6.9130001 19:2.0899999 20:4.3410001 #
-0.13759658974364333272610849689954 1:7.401 2:1.48 3:4.112 4:3.783 5:7.566 6:7.566 7:0.82200003 8:8.059 9:6.414 10:9.375 11:2.632 12:4.112 13:3.783 14:1.316 15:3.618 16:8.059 17:4.77 18:7.73 19:1.316 20:6.086 #
-0.27011219732174279739567168689973 1:10.158 2:2.4519999 3:4.3779998 4:2.802 5:5.6040001 6:9.4569998 7:0.87599999 8:10.333 9:4.7290001 10:9.2819996 11:2.4519999 12:3.3269999 13:3.152 14:3.152 15:2.102 16:8.4060001 17:4.553 18:6.1300001 19:2.4519999 20:4.2030001 #
-0.10826789604043642045727580125458 1:7.368 2:4.211 3:6.316 4:5.263 5:3.158 6:11.579 7:0 8:4.211 9:6.316 10:6.316 11:7.368 12:5.263 13:2.105 14:6.316 15:7.368 16:7.368 17:2.105 18:4.211 19:1.053 20:2.105 #
-0.11178384704618479772442185549153 1:10.839 2:0.815 3:2.638 4:4.2210002 5:5.3720002 6:8.7770004 7:1.295 8:1.8710001 9:4.2690001 10:6.5710001 11:1.3430001 12:2.878 13:9.8800001 14:4.3649998 15:2.3499999 16:16.163 17:8.7770004 18:6.1389999 19:0.47999999 20:0.95899999 #
-0.10448870764999582116949738974654 1:10.39 2:0 3:5.1950002 4:9.0909996 5:4.5450001 6:8.4420004 7:8.4420004 8:3.8959999 9:11.688 10:11.039 11:2.5969999 12:2.5969999 13:1.948 14:2.5969999 15:1.299 16:3.8959999 17:3.8959999 18:5.8439999 19:1.299 20:1.299 #
-0.28801627491093195754245925854775 1:9.8039999 2:0.98000002 3:6.427 4:5.882 5:4.1389999 6:8.2790003 7:1.525 8:6.9720001 9:5.2290001 10:9.368 11:2.6140001 12:2.832 13:3.9219999 14:2.941 15:3.595 16:6.427 17:6.2090001 18:8.8240004 19:1.6339999 20:2.3970001 #
-0.30590433175932946197050910086546 1:7.5570002 2:1.582 3:3.8659999 4:5.448 5:7.9089999 6:8.0839996 7:1.406 8:7.2059999 9:4.3940001 10:9.3149996 11:2.6359999 12:4.7449999 13:2.6359999 14:3.1630001 15:4.2179999 16:8.0839996 17:7.0300002 18:5.448 19:1.757 20:3.5150001 #
-0.14729558546058482693119628947898 1:6.448 2:0.792 3:5.3169999 4:4.7509999 5:5.4299998 6:7.2399998 7:1.584 8:7.4660001 9:3.846 10:7.8049998 11:2.2620001 12:6.448 13:3.9590001 14:3.6199999 15:3.846 16:11.425 17:7.2399998 18:6.5609999 19:0.792 20:3.1670001 #
-0.10913640240981266338327060338997 1:8.4770002 2:1.724 3:2.586 4:2.4430001 5:2.155 6:7.902 7:2.586 8:3.3050001 9:1.724 10:6.178 11:4.3099999 12:5.0289998 13:7.902 14:14.943 15:4.7410002 16:8.908 17:4.1669998 18:5.8909998 19:0.71799999 20:4.3099999 #
-0.10373999213163534460768744338566 1:12.155 2:3.8670001 3:6.0770001 4:12.707 5:3.8670001 6:9.3920002 7:2.7620001 8:2.7620001 9:11.05 10:6.0770001 11:2.7620001 12:2.21 13:1.6569999 14:1.105 15:4.4200001 16:1.105 17:3.8670001 18:7.7350001 19:0.55199999 20:3.8670001 #
-0.10937278173936659797504944435786 1:5.217 2:0.87 3:0 4:4.348 5:2.609 6:8.6960001 7:1.739 8:6.9569998 9:11.304 10:13.913 11:0.87 12:5.217 13:2.609 14:6.0869999 15:2.609 16:9.5649996 17:2.609 18:6.0869999 19:0 20:8.6960001 #
-0.10340586379170710329411519978748 1:8.9689999 2:1.345 3:2.691 4:3.1389999 5:7.1750002 6:7.848 7:2.4660001 8:6.7259998 9:5.381 10:8.9689999 11:3.812 12:2.691 13:4.7090001 14:2.915 15:2.0179999 16:5.8299999 17:4.9330001 18:10.314 19:2.915 20:5.1570001 #
-0.10389877279595266523770646927005 1:11.594 2:0 3:4.348 4:11.594 5:1.449 6:4.348 7:0 8:5.7969999 9:10.145 10:11.594 11:1.449 12:1.449 13:5.7969999 14:2.8989999 15:10.145 16:4.348 17:1.449 18:5.7969999 19:0 20:5.7969999 #
-0.10352275729801067860602614700838 1:13.58 2:2.4690001 3:6.1729999 4:4.9380002 5:4.9380002 6:4.9380002 7:3.704 8:6.1729999 9:1.235 10:4.9380002 11:4.9380002 12:4.9380002 13:6.1729999 14:3.704 15:11.111 16:3.704 17:3.704 18:6.1729999 19:1.235 20:1.235 #
-0.06773488476996711304956022559054 1:8.8500004 2:0.442 3:6.6370001 4:9.2919998 5:2.2119999 6:3.54 7:0.442 8:7.0799999 9:10.619 10:10.619 11:4.4250002 12:3.9820001 13:2.2119999 14:8.8500004 15:6.1950002 16:2.2119999 17:2.655 18:6.6370001 19:0 20:3.0969999 #
-0.11646378378285079935317014587781 1:7.0799999 2:1.77 3:4.4250002 4:5.3099999 5:3.54 6:10.619 7:2.655 8:4.4250002 9:15.044 10:4.4250002 11:3.54 12:6.1950002 13:4.4250002 14:2.655 15:2.655 16:5.3099999 17:7.9650002 18:2.655 19:0.88499999 20:4.4250002 #
-0.11993436910788950189310497762563 1:5.3920002 2:0.49000001 3:6.618 4:6.8629999 5:4.1669998 6:3.1860001 7:4.4120002 8:7.1079998 9:8.0880003 10:9.8039999 11:1.471 12:5.6370001 13:4.902 14:5.1469998 15:3.431 16:6.618 17:5.882 18:4.6570001 19:2.451 20:3.6760001 #
-0.17554953510859661047760482688318 1:6.3600001 2:3.5339999 3:2.473 4:4.947 5:4.947 6:6.007 7:3.8870001 8:6.007 9:4.2399998 10:10.954 11:2.473 12:3.1800001 13:4.2399998 14:2.473 15:6.7140002 16:8.1269999 17:4.2399998 18:9.8940001 19:2.1199999 20:3.1800001 #
-0.1007297756046370146298940539964 1:5.9759998 2:0.79699999 3:3.586 4:1.1950001 5:9.1630001 6:11.155 7:0.79699999 8:6.7729998 9:0.79699999 10:12.351 11:3.984 12:3.586 13:5.9759998 14:3.187 15:6.7729998 16:4.382 17:3.984 18:5.5780001 19:3.984 20:5.9759998 #
-0.12813458592204446384599236807844 1:13.23 2:0.389 3:1.556 4:3.1129999 5:4.2800002 6:11.673 7:1.556 8:8.1709995 9:2.335 10:16.341999 11:5.8369999 12:2.724 13:5.8369999 14:1.946 15:1.556 16:7.0040002 17:3.5020001 18:6.6149998 19:0.778 20:1.556 #
-0.096467201632220209162049684437079 1:7.7670002 2:1.942 3:9.2229996 4:11.65 5:0.97100002 6:6.796 7:0.48500001 8:5.3400002 9:5.8249998 10:7.7670002 11:6.3109999 12:6.796 13:0.97100002 14:6.3109999 15:8.2519999 16:4.8540001 17:3.398 18:4.369 19:0.48500001 20:0.48500001 #
-0.14531567814124465853886647437321 1:9.1110001 2:0.43399999 3:2.8199999 4:2.1689999 5:7.809 6:6.941 7:1.952 8:6.0739999 9:3.471 10:13.015 11:2.6029999 12:3.688 13:4.9889998 14:1.952 15:3.2539999 16:6.7249999 17:6.0739999 18:11.063 19:2.3859999 20:3.471 #
-0.095727711647017821317007246761932 1:12.752 2:0.671 3:4.027 4:6.711 5:4.027 6:8.7250004 7:0.671 8:4.698 9:9.3959999 10:4.698 11:1.342 12:8.0539999 13:2.013 14:5.369 15:5.369 16:9.3959999 17:4.698 18:3.3559999 19:0.671 20:3.3559999 #
-0.091789182288539855614217799484322 1:8.5760002 2:4.1350002 3:2.757 4:3.5220001 5:5.8189998 6:5.513 7:1.531 8:7.8099999 9:5.2069998 10:12.864 11:3.063 12:3.5220001 13:3.5220001 14:2.6029999 15:4.2880001 16:6.7379999 17:4.7470002 18:8.1160002 19:1.9910001 20:3.675 #
-0.10892479042865367555581457281733 1:13.158 2:1.316 3:1.316 4:1.316 5:7.895 6:13.158 7:0 8:11.842 9:2.632 10:15.789 11:3.947 12:2.632 13:2.632 14:1.316 15:1.316 16:6.579 17:3.947 18:7.895 19:0 20:1.316 #
-0.14205448067091461239463967558549 1:13.555 2:2.046 3:1.79 4:2.5580001 5:6.3940001 6:7.6729999 7:1.79 8:8.184 9:1.79 10:14.066 11:4.348 12:1.535 13:4.348 14:1.535 15:4.348 16:8.6960001 17:4.6040001 18:8.184 19:1.279 20:1.279 #
-0.096732007009156267818283936321677 1:21.326 2:0.86500001 3:2.017 4:2.3050001 5:4.323 6:11.527 7:1.729 8:4.8990002 9:0.28799999 10:12.68 11:2.5940001 12:2.017 13:7.493 14:1.441 15:4.6110001 16:3.7460001 17:3.7460001 18:8.0690002 19:2.017 20:2.3050001 #
-0.17625274622431513771303457360773 1:5.1690001 2:3.3870001 3:2.674 4:3.5650001 5:8.5559998 6:6.2389998 7:1.783 8:9.9820004 9:3.5650001 10:8.7340002 11:2.852 12:3.9219999 13:3.9219999 14:1.961 15:2.674 16:11.23 17:5.704 18:8.7340002 19:1.783 20:3.5650001 #
-0.25589976450296925136740355810616 1:7.5300002 2:2.2590001 3:2.5599999 4:4.8189998 5:5.572 6:8.1330004 7:1.355 8:10.09 9:4.217 10:10.994 11:4.066 12:2.5599999 13:4.066 14:1.9579999 15:3.464 16:6.4759998 17:6.6269999 18:7.3800001 19:2.108 20:3.7650001 #
-0.11711279033101031077368503474645 1:5.941 2:1.98 3:4.9499998 4:4.9499998 5:2.97 6:8.9110003 7:2.97 8:8.9110003 9:6.9310002 10:5.941 11:4.9499998 12:4.9499998 13:2.97 14:3.96 15:1.98 16:7.921 17:5.941 18:10.891 19:0 20:1.98 #
-0.088768169804755506224758221378579 1:11.795 2:2.0510001 3:3.0769999 4:12.308 5:6.6669998 6:5.6409998 7:1.538 8:4.6149998 9:11.795 10:6.6669998 11:1.538 12:6.1539998 13:2.5639999 14:1.538 15:3.0769999 16:4.1030002 17:5.6409998 18:3.5899999 19:1.026 20:4.6149998 #
-0.099166600141193439466036352314404 1:8.8240004 2:0 3:5.882 4:5.882 5:4.4120002 6:7.3530002 7:4.4120002 8:5.882 9:14.706 10:10.294 11:2.941 12:4.4120002 13:7.3530002 14:2.941 15:0 16:2.941 17:4.4120002 18:4.4120002 19:0 20:2.941 #
-0.091782064954652159416426115967624 1:9.5889997 2:1.37 3:1.37 4:2.74 5:8.2189999 6:1.37 7:1.37 8:5.4790001 9:1.37 10:10.959 11:8.2189999 12:2.74 13:5.4790001 14:2.74 15:5.4790001 16:8.2189999 17:5.4790001 18:12.329 19:4.1100001 20:1.37 #
-0.16684665944659018976814479628956 1:9.7119999 2:3.187 3:2.1240001 4:4.8559999 5:6.98 6:7.2839999 7:1.214 8:6.98 9:4.552 10:12.595 11:2.7309999 12:3.3380001 13:2.5799999 14:3.7939999 15:3.7939999 16:7.132 17:5.6149998 18:7.2839999 19:1.973 20:2.276 #
-0.088854253285054460298475476065505 1:19.672001 2:1.23 3:1.6390001 4:2.869 5:3.6889999 6:6.967 7:0.41 8:5.3280001 9:0.81999999 10:17.212999 11:1.6390001 12:0.81999999 13:5.7379999 14:2.869 15:9.8360004 16:2.869 17:6.967 18:6.967 19:2.049 20:0.41 #
-0.086733993496313832594069026526995 1:4.0229998 2:2.586 3:9.7700005 4:6.322 5:4.0229998 6:5.1719999 7:0.86199999 8:6.8969998 9:12.356 10:7.7589998 11:1.724 12:4.0229998 13:4.8850002 14:3.7360001 15:1.149 16:10.345 17:7.184 18:4.598 19:0.287 20:2.299 #
-0.096689105588183860140460978982446 1:9.6389999 2:3.0120001 3:5.4219999 4:9.0360003 5:3.0120001 6:6.6269999 7:5.4219999 8:7.8309999 9:4.217 10:6.6269999 11:2.4100001 12:3.0120001 13:6.0240002 14:6.0240002 15:4.8189998 16:3.0120001 17:4.8189998 18:5.4219999 19:0.602 20:3.0120001 #
-0.090753921541155066488038016814244 1:9.4119997 2:1.569 3:6.2750001 4:8.6269999 5:1.176 6:6.6669998 7:0.78399998 8:5.4899998 9:9.8039999 10:10.588 11:1.961 12:1.569 13:5.098 14:3.529 15:5.882 16:2.3529999 17:5.882 18:12.157 19:0.39199999 20:0.78399998 #
-0.076322840219316609444710763909825 1:9.1949997 2:0 3:6.8969998 4:12.644 5:2.299 6:3.448 7:0 8:3.448 9:13.793 10:10.345 11:2.299 12:4.598 13:3.448 14:4.598 15:1.149 16:5.7470002 17:3.448 18:4.598 19:2.299 20:5.7470002 #
-0.087125282670786743932644924370834 1:5.8660002 2:3.1470001 3:4.1490002 4:5.1500001 5:5.1500001 6:5.7220001 7:1.717 8:3.0039999 9:4.4349999 10:9.7279997 11:2.575 12:6.4380002 13:7.5819998 14:4.006 15:5.579 16:9.8710003 17:5.1500001 18:4.5780001 19:1.717 20:4.4349999 #
-0.092385458001552095419484089688922 1:5.9089999 2:2.273 3:5.9089999 4:6.3639998 5:2.727 6:6.8179998 7:0.45500001 8:5 9:4.0910001 10:6.3639998 11:5.4549999 12:5 13:6.3639998 14:5 15:7.2729998 16:4.5450001 17:4.0910001 18:10 19:1.818 20:4.5450001 #
-0.087196108808094696662749356619315 1:4.4120002 2:4.4120002 3:5.882 4:7.3530002 5:1.471 6:8.8240004 7:2.941 8:2.941 9:11.765 10:11.765 11:4.4120002 12:2.941 13:2.941 14:0 15:1.471 16:7.3530002 17:7.3530002 18:8.8240004 19:0 20:2.941 #
-0.10301720188784915799296015848086 1:7.0640001 2:1.104 3:5.7399998 4:10.155 5:2.6489999 6:5.0770001 7:0.88300002 8:1.766 9:6.6230001 10:13.687 11:1.766 12:2.8699999 13:5.0770001 14:5.5190001 15:6.8429999 16:8.6090002 17:3.753 18:7.947 19:1.545 20:1.325 #
-0.086614330040597070636820831168734 1:14.286 2:3.8099999 3:1.905 4:6.6669998 5:1.905 6:4.7620001 7:0 8:8.5710001 9:7.619 10:5.7140002 11:1.905 12:7.619 13:3.8099999 14:5.7140002 15:2.8570001 16:9.5240002 17:6.6669998 18:2.8570001 19:0.95200002 20:2.8570001 #
-0.084809603612170381126134088844992 1:6.316 2:1.053 3:2.105 4:3.158 5:6.316 6:8.4209995 7:6.842 8:5.263 9:3.158 10:8.9469995 11:8.9469995 12:3.158 13:3.684 14:3.158 15:1.579 16:9.474 17:6.316 18:7.368 19:0.52600002 20:4.211 #
-0.16748826982637587956759261942352 1:6.4109998 2:1.761 3:5.0560002 4:7.6300001 5:4.6950002 6:5.237 7:2.7539999 8:5.5079999 9:7.0879998 10:10.293 11:2.3929999 12:3.4760001 13:4.605 14:4.5149999 15:6.9070001 16:6.1849999 17:5.1919999 18:5.4180002 19:1.2640001 20:3.612 #
-0.11849766775693457154794430152833 1:4.151 2:0.99900001 3:5.2270002 4:6.7639999 5:4.381 6:2.6900001 7:2.3829999 8:6.3800001 9:8.993 10:9.9919996 11:1.998 12:7.1479998 13:4.612 14:5.4569998 15:4.612 16:10.3 17:5.9949999 18:4.0739999 19:0.53799999 20:3.3050001 #
-0.10644367683097397114799775863503 1:7.4200001 2:2.1919999 3:4.3839998 4:4.2160001 5:7.0830002 6:4.2160001 7:1.686 8:6.5770001 9:6.5770001 10:9.1059999 11:1.855 12:4.7220001 13:4.2160001 14:1.855 15:4.553 16:7.9260001 17:5.3959999 18:5.7340002 19:3.8789999 20:6.408 #
-0.08394846038890760309136851446965 1:15.104 2:2.0829999 3:4.6880002 4:4.6880002 5:1.562 6:10.417 7:3.125 8:1.562 9:4.1669998 10:8.3330002 11:3.125 12:3.125 13:8.3330002 14:8.8540001 15:4.1669998 16:4.6880002 17:4.1669998 18:3.6459999 19:1.0420001 20:3.125 #
-0.091555423994904724938059814576263 1:10.333 2:0.667 3:5.3330002 4:3 5:3 6:6.6669998 7:3 8:8.3330002 9:1 10:12.667 11:3.6670001 12:1.3329999 13:3.6670001 14:5.3330002 15:6 16:9.3330002 17:4 18:8 19:2 20:2.6670001 #
-0.095997758228066082386575885720958 1:2.516 2:0 3:3.7739999 4:5.0310001 5:7.5469999 6:4.4029999 7:1.887 8:13.836 9:6.9180002 10:13.208 11:0.62900001 12:4.4029999 13:2.516 14:1.887 15:3.145 16:4.4029999 17:6.9180002 18:11.95 19:1.258 20:3.7739999 #
-0.08347730914090992215825792754913 1:3.704 2:3.704 3:5.8200002 4:2.1159999 5:3.704 6:6.349 7:3.704 8:4.2329998 9:5.8200002 10:11.64 11:6.349 12:5.2909999 13:1.587 14:2.6459999 15:2.1159999 16:10.582 17:5.8200002 18:5.8200002 19:3.704 20:5.2909999 #
-0.090889272153730396586190920515946 1:6.6669998 2:5 3:5 4:10 5:4.4439998 6:7.7779999 7:0.55599999 8:5.5560002 9:6.1110001 10:8.3330002 11:3.3329999 12:2.2219999 13:7.2220001 14:2.2219999 15:7.2220001 16:2.7780001 17:4.4439998 18:5 19:1.1109999 20:5 #
-0.07753307247853299943862737109157 1:5.191 2:1.069 3:4.1220002 4:15.573 5:2.4430001 6:3.664 7:2.4430001 8:5.954 9:10.992 10:8.7019997 11:2.1370001 12:2.901 13:5.6490002 14:5.4959998 15:6.1069999 16:6.2600002 17:3.9690001 18:4.7329998 19:0.76300001 20:1.832 #
-0.076081634518209845241543121119321 1:11.538 2:0 3:5.5939999 4:3.497 5:3.846 6:7.6919999 7:0 8:11.189 9:3.1470001 10:9.79 11:2.448 12:5.9439998 13:1.748 14:3.1470001 15:6.2940001 16:6.6430001 17:3.1470001 18:11.189 19:1.049 20:2.098 #
-0.10820190812426482007690964337598 1:9.3170004 2:0.62099999 3:4.0370002 4:5.1240001 5:3.5710001 6:7.9190001 7:1.7079999 8:6.0560002 9:5.1240001 10:11.801 11:2.0190001 12:3.882 13:2.484 14:2.95 15:4.348 16:10.093 17:6.677 18:9.1610003 19:0.46599999 20:2.6400001 #
-0.064233746796835508585665763803263 1:7.8169999 2:1.887 3:4.717 4:6.8730001 5:7.8169999 6:10.243 7:2.0220001 8:4.178 9:3.5039999 10:9.5690002 11:2.9649999 12:2.5610001 13:2.8299999 14:3.0999999 15:5.526 16:7.5469999 17:4.3130002 18:7.1430001 19:1.887 20:3.5039999 #
-0.058905270784764422742352252271303 1:12 2:0 3:2 4:3 5:3 6:9 7:2 8:11 9:0 10:20 11:5 12:4 13:1 14:5 15:6 16:6 17:2 18:6 19:1 20:2 #
