SVM-light Version V6.02
2 # kernel type
3 # kernel parameter -d 
0.02 # kernel parameter -g 
1 # kernel parameter -s 
1 # kernel parameter -r 
empty# kernel parameter -u 
20 # highest feature index 
1104 # number of training documents 
813 # number of support vectors plus 1 
-0.60848635 # threshold b, each following line is a SV (starting with alpha*y)
-0.25857506735861152113997718515748 1:14.839 2:0 3:1.9349999 4:2.5810001 5:4.5159998 6:12.903 7:0 8:10.323 9:3.2260001 10:11.613 11:5.1609998 12:1.29 13:2.5810001 14:2.5810001 15:1.9349999 16:9.677 17:2.5810001 18:9.0319996 19:0 20:3.2260001 #
-0.39562579468677172567225852617412 1:11.836 2:1.932 3:2.6570001 4:1.691 5:4.348 6:7.9710002 7:1.2079999 8:6.763 9:2.174 10:15.942 11:3.1400001 12:4.8309999 13:4.1059999 14:1.932 15:3.382 16:7.7290001 17:5.7969999 18:10.145 19:1.2079999 20:1.2079999 #
-0.17374180977161435279754186922219 1:7.54 2:1.3890001 3:2.579 4:3.5710001 5:6.7459998 6:6.349 7:2.1830001 8:7.3410001 9:4.1669998 10:14.087 11:3.3729999 12:4.1669998 13:3.5710001 14:1.587 15:2.579 16:9.1269999 17:5.7540002 18:8.7299995 19:0.59500003 20:4.5630002 #
-0.5000013186035223711201069818344 1:6.7919998 2:2.2639999 3:1.132 4:3.585 5:6.7919998 6:9.6230001 7:1.698 8:6.9809999 9:2.2639999 10:11.698 11:2.642 12:3.0190001 13:7.1700001 14:2.2639999 15:3.7739999 16:8.1129999 17:5.6599998 18:9.434 19:2.075 20:3.0190001 #
-0.5000013186035223711201069818344 1:7.9369998 2:2.1830001 3:2.1830001 4:3.3729999 5:7.3410001 6:7.7379999 7:0.59500003 8:9.3249998 9:3.3729999 10:11.508 11:3.5710001 12:3.175 13:4.7620001 14:1.587 15:3.175 16:5.7540002 17:6.349 18:7.9369998 19:4.5630002 20:3.5710001 #
0.18639281287745931847688041216315 1:2.335 2:0 3:8.1709995 4:4.6690001 5:2.335 6:4.2800002 7:3.1129999 8:7.0040002 9:11.673 10:9.7279997 11:1.946 12:8.9490004 13:3.1129999 14:3.5020001 15:1.556 16:8.1709995 17:7.0040002 18:5.447 19:1.1670001 20:5.8369999 #
0.045333795979769130057857040583258 1:5.974 2:0.56900001 3:6.2589998 4:13.656 5:3.2720001 6:4.552 7:1.4220001 8:3.556 9:8.677 10:12.376 11:2.7030001 12:4.6939998 13:0.99599999 14:5.1209998 15:3.8410001 16:10.811 17:4.4099998 18:5.8319998 19:0.28400001 20:0.99599999 #
0.026126418891198460725533436743717 1:8.3330002 2:1.471 3:3.431 4:4.4120002 5:7.8429999 6:7.3530002 7:2.451 8:8.3330002 9:1.471 10:9.8039999 11:1.961 12:4.902 13:8.8240004 14:1.961 15:5.882 16:4.4120002 17:2.941 18:8.3330002 19:3.431 20:2.451 #
0.30015982721016382095413632669079 1:12 2:4.8000002 3:0 4:2.4000001 5:12.8 6:5.5999999 7:3.2 8:4.8000002 9:4.8000002 10:14.4 11:4 12:0.80000001 13:4.8000002 14:4 15:5.5999999 16:6.4000001 17:1.6 18:4.8000002 19:3.2 20:0 #
0.39120698890565330785307196492795 1:0 2:9.3330002 3:2.6670001 4:4 5:1.3329999 6:10.667 7:0 8:0 9:2.6670001 10:8 11:1.3329999 12:1.3329999 13:12 14:28 15:0 16:4 17:0 18:4 19:0 20:10.667 #
-0.5000013186035223711201069818344 1:6.4790001 2:1.296 3:6.1560001 4:9.3950005 5:3.9960001 6:3.6719999 7:3.348 8:4.7519999 9:5.4000001 10:11.879 11:3.0239999 12:3.348 13:3.4560001 14:4.8600001 15:6.0479999 16:7.0190001 17:5.724 18:5.4000001 19:2.052 20:2.7 #
-0.5000013186035223711201069818344 1:7.8119998 2:1.309 3:4.941 4:6.1659999 5:5.1939998 6:6.757 7:2.4070001 8:4.7719998 9:4.3920002 10:8.6149998 11:3.2520001 12:4.434 13:7.5170002 14:3.632 15:8.1499996 16:5.9970002 17:5.0679998 18:5.3210001 19:1.309 20:2.9560001 #
-0.5000013186035223711201069818344 1:8.2550001 2:3.5650001 3:4.5029998 4:5.816 5:3.7520001 6:7.5050001 7:3.0020001 8:3.1889999 9:2.2509999 10:11.257 11:2.6270001 12:2.8139999 13:8.2550001 14:4.6900001 15:7.3169999 16:6.3790002 17:5.816 18:4.3150001 19:0.93800002 20:3.7520001 #
2.4000063292969073813765135128051 1:6.0300002 2:1.7589999 3:3.266 4:1.7589999 5:7.789 6:6.7839999 7:1.508 8:8.7939997 9:3.266 10:13.819 11:5.7789998 12:4.5229998 13:2.7639999 14:2.513 15:3.266 16:7.5380001 17:5.0250001 18:7.5380001 19:1.508 20:4.7740002 #
2.4000063292969073813765135128051 1:8.8570004 2:2 3:2.5710001 4:2.5710001 5:7.1430001 6:6 7:1.714 8:7.7140002 9:3.1429999 10:11.143 11:2.8570001 12:3.4289999 13:4.5710001 14:2 15:4.2859998 16:6.5710001 17:8.8570004 18:10.571 19:2 20:2 #
2.4000063292969073813765135128051 1:8.5019999 2:2.0239999 3:4.0489998 4:3.2390001 5:7.2870002 6:6.8829999 7:2.0239999 8:7.6919999 9:5.263 10:12.955 11:3.2390001 12:2.0239999 13:2.4289999 14:2.4289999 15:4.0489998 16:9.717 17:3.6440001 18:7.2870002 19:1.619 20:3.6440001 #
-0.5000013186035223711201069818344 1:7.4320002 2:3.378 3:2.027 4:2.7030001 5:6.757 6:7.4320002 7:4.73 8:4.73 9:3.378 10:13.514 11:4.0539999 12:4.0539999 13:0.676 14:4.0539999 15:5.4050002 16:8.7840004 17:6.0809999 18:4.73 19:0.676 20:5.4050002 #
-0.5000013186035223711201069818344 1:8.1529999 2:1.664 3:4.7420001 4:6.073 5:4.3260002 6:5.5739999 7:2.6619999 8:4.3260002 9:4.6589999 10:13.977 11:3.0780001 12:3.3280001 13:4.3260002 14:3.661 15:4.493 16:10.233 17:5.2410002 18:5.9070001 19:1.747 20:1.83 #
-0.5000013186035223711201069818344 1:9.5889997 2:1.37 3:1.37 4:2.74 5:8.2189999 6:1.37 7:1.37 8:5.4790001 9:1.37 10:10.959 11:8.2189999 12:2.74 13:5.4790001 14:2.74 15:5.4790001 16:8.2189999 17:5.4790001 18:12.329 19:4.1100001 20:1.37 #
-0.143793069838675235949665420776 1:7.4310002 2:2.2620001 3:3.5539999 4:4.6849999 5:6.4619999 6:6.947 7:2.0999999 8:7.5929999 9:4.8470001 10:9.6929998 11:1.939 12:4.1999998 13:3.7160001 14:3.069 15:3.7160001 16:9.6929998 17:4.039 18:8.401 19:1.777 20:3.8770001 #
0.51947520198006524871914280083729 1:8.1470003 2:2.596 3:4.4759998 4:5.9980001 5:2.954 6:7.4310002 7:3.4909999 8:3.4909999 9:4.8340001 10:9.0419998 11:1.522 12:2.2379999 13:8.0570002 14:5.8189998 15:8.415 16:7.073 17:5.1030002 18:5.9089999 19:1.253 20:2.1489999 #
0.24937350700627580746271405587322 1:7.9489999 2:1.538 3:5.1279998 4:4.3590002 5:5.3850002 6:7.9489999 7:2.5639999 8:4.6149998 9:5.3850002 10:10 11:2.3080001 12:0.76899999 13:10 14:2.8210001 15:8.2049999 16:7.4359999 17:5.3850002 18:4.3590002 19:1.2819999 20:2.5639999 #
-0.5000013186035223711201069818344 1:7.3579998 2:0.83600003 3:5.5180001 4:7.6919999 5:2.174 6:7.3579998 7:1.839 8:4.1810002 9:5.6859999 10:8.1940002 11:1.6720001 12:3.6789999 13:8.3610001 14:4.348 15:6.8559999 16:10.033 17:5.3509998 18:5.184 19:0.83600003 20:2.8429999 #
-0.5000013186035223711201069818344 1:6.6669998 2:1.026 3:5.1279998 4:7.4359999 5:3.5899999 6:5.3850002 7:2.0510001 8:5.1279998 9:6.6669998 10:7.4359999 11:2.0510001 12:2.3080001 13:7.9489999 14:5.3850002 15:8.2049999 16:7.4359999 17:5.3850002 18:5.3850002 19:1.795 20:3.5899999 #
-0.5000013186035223711201069818344 1:6.3460002 2:0.76899999 3:5.3850002 4:6.1539998 5:2.3080001 6:5 7:3.4619999 8:5 9:5.3850002 10:7.8850002 11:1.7309999 12:3.654 13:5.5770001 14:4.6149998 15:8.4619999 16:13.077 17:6.1539998 18:5.5770001 19:0.57700002 20:2.885 #
2.4000063292969073813765135128051 1:7.5560002 2:0.222 3:4.4439998 4:5.1110001 5:4.8889999 6:7.7779999 7:1.556 8:5.5560002 9:4 10:14 11:3.3329999 12:4 13:4.4439998 14:3.556 15:3.7780001 16:6.8889999 17:6.4439998 18:7.5560002 19:2.8889999 20:2 #
2.4000063292969069372873036627425 1:8.1049995 2:1.256 3:2.6259999 4:4.1100001 5:4.224 6:6.6209998 7:2.5109999 8:7.0780001 9:3.881 10:14.954 11:1.598 12:2.74 13:5.5939999 14:2.8540001 15:4.1100001 16:8.1049995 17:5.4790001 18:7.5339999 19:3.425 20:3.1960001 #
2.4000063292969073813765135128051 1:5.6820002 2:1.136 3:0.56800002 4:5.6820002 5:7.9549999 6:6.8179998 7:0.56800002 8:6.8179998 9:5.6820002 10:13.636 11:1.705 12:5.6820002 13:3.4089999 14:5.1139998 15:1.705 16:9.0909996 17:6.25 18:9.0909996 19:0.56800002 20:2.8410001 #
-0.5000013186035223711201069818344 1:6.7030001 2:1.505 3:3.694 4:4.9250002 5:6.1560001 6:5.4720001 7:1.915 8:6.0190001 9:3.4200001 10:16.278999 11:3.01 12:3.967 13:4.7880001 14:4.5139999 15:4.7880001 16:5.4720001 17:3.694 18:7.3870001 19:2.1889999 20:4.1040001 #
-0.5000013186035223711201069818344 1:8.5129995 2:1.637 3:4.257 4:4.6500001 5:4.8460002 6:6.4180002 7:2.03 8:5.8280001 9:3.7980001 10:13.36 11:2.358 12:3.2739999 13:4.5190001 14:4.322 15:4.8460002 16:7.5970001 17:4.8460002 18:8.1859999 19:1.899 20:2.816 #
-0.5000013186035223711201069818344 1:9.8360004 2:0.546 3:5.191 4:2.4590001 5:4.645 6:6.2839999 7:1.0930001 8:5.7379999 9:3.279 10:15.574 11:4.098 12:3.552 13:3.552 14:4.9180002 15:5.4640002 16:5.4640002 17:5.7379999 18:9.29 19:1.913 20:1.3660001 #
0.18375981074197564324457232487475 1:5.0079999 2:1.226 3:5.8759999 4:7.5630002 5:2.4530001 6:4.9569998 7:2.5039999 8:4.3940001 9:7.2049999 10:7.6139998 11:1.124 12:4.0879998 13:6.4899998 14:4.5479999 15:6.3870001 16:13.388 17:7.5110002 18:5.0079999 19:0.86900002 20:1.788 #
-0.20254800290460112099921730077767 1:10.34 2:2.3150001 3:3.2409999 4:5.401 5:5.401 6:9.1049995 7:0.30899999 8:5.0929999 9:3.2409999 10:10.957 11:2.1600001 12:3.858 13:3.704 14:3.2409999 15:4.9380002 16:8.1789999 17:6.0190001 18:6.9439998 19:1.698 20:3.858 #
0.065755347478602982347339889201976 1:8.4659996 2:1.058 3:2.6459999 4:10.053 5:1.587 6:9.5240002 7:1.058 8:1.587 9:8.4659996 10:10.582 11:2.1159999 12:1.587 13:4.7620001 14:5.8200002 15:9.5240002 16:8.4659996 17:2.6459999 18:5.2909999 19:1.587 20:2.6459999 #
-0.5000013186035223711201069818344 1:6.7680001 2:1.75 3:4.2010002 4:7.3509998 5:4.3169999 6:5.7179999 7:2.3340001 8:5.1339998 9:6.4180002 10:10.152 11:3.0339999 12:3.6170001 13:6.3010001 14:2.9170001 15:5.8340001 16:10.618 17:5.8340001 18:4.3169999 19:1.1670001 20:2.217 #
-0.5000013186035223711201069818344 1:4.0229998 2:2.586 3:9.7700005 4:6.322 5:4.0229998 6:5.1719999 7:0.86199999 8:6.8969998 9:12.356 10:7.7589998 11:1.724 12:4.0229998 13:4.8850002 14:3.7360001 15:1.149 16:10.345 17:7.184 18:4.598 19:0.287 20:2.299 #
-0.5000013186035223711201069818344 1:2.1789999 2:1.307 3:5.447 4:4.7930002 5:4.7930002 6:2.832 7:1.525 8:8.2790003 9:7.8429999 10:8.9320002 11:2.1789999 12:6.3179998 13:6.5359998 14:5.0110002 15:4.5749998 16:13.072 17:7.1900001 18:4.5749998 19:0.65399998 20:1.961 #
0.039850290227469067905197164236597 1:7.5819998 2:2.527 3:3.4070001 4:5.6040001 5:4.7249999 6:5.934 7:3.187 8:6.3740001 9:2.527 10:14.396 11:2.3080001 12:3.7360001 13:5.4949999 14:4.066 15:4.3959999 16:4.5050001 17:4.066 18:9.4510002 19:2.747 20:2.967 #
0.34842392675643329980061935202684 1:7.612 2:1.557 3:4.3249998 4:4.4980001 5:3.9790001 6:5.5359998 7:2.595 8:4.4980001 9:2.941 10:16.09 11:2.7679999 12:4.671 13:3.9790001 14:3.1140001 15:5.0170002 16:7.612 17:6.9200001 18:7.2659998 19:2.4219999 20:2.595 #
1.7092658516815202318639421719126 1:7.9369998 2:0.52899998 3:3.704 4:4.2329998 5:3.175 6:7.4070001 7:1.058 8:5.8200002 9:6.349 10:14.815 11:3.175 12:1.058 13:3.704 14:3.704 15:4.7620001 16:7.4070001 17:5.8200002 18:9.5240002 19:1.587 20:4.2329998 #
-0.5000013186035223711201069818344 1:7.3080001 2:2.0510001 3:3.846 4:4.8720002 5:4.3590002 6:8.8459997 7:2.3080001 8:6.026 9:4.6149998 10:13.974 11:2.5639999 12:5.1279998 13:4.2309999 14:1.795 15:3.846 16:4.8720002 17:6.4099998 18:8.5900002 19:1.538 20:2.8210001 #
-0.5000013186035223711201069818344 1:8.2449999 2:1.76 3:4.2150002 4:5.4190001 5:4.447 6:8.3369999 7:2.362 8:3.0109999 9:2.825 10:14.961 11:1.9450001 12:2.779 13:6.994 14:4.4000001 15:6.5770001 16:6.855 17:4.493 18:7.04 19:1.436 20:1.899 #
-0.5000013186035223711201069818344 1:9.1110001 2:0.43399999 3:2.8199999 4:2.1689999 5:7.809 6:6.941 7:1.952 8:6.0739999 9:3.471 10:13.015 11:2.6029999 12:3.688 13:4.9889998 14:1.952 15:3.2539999 16:6.7249999 17:6.0739999 18:11.063 19:2.3859999 20:3.471 #
-0.5000013186035223711201069818344 1:10.69 2:1.724 3:6.552 4:4.8280001 5:2.7590001 6:13.103 7:2.414 8:5.1719999 9:6.2069998 10:8.276 11:2.414 12:3.448 13:3.793 14:2.069 15:3.1029999 16:5.5170002 17:5.862 18:5.862 19:3.448 20:2.7590001 #
0.27965609333045426954100776129053 1:4.7529998 2:0.73100001 3:5.6669998 4:5.8499999 5:4.7529998 6:6.5809999 7:2.3770001 8:7.1300001 9:4.7529998 10:6.2160001 11:2.559 12:6.3990002 13:6.2160001 14:4.0219998 15:5.8499999 16:12.614 17:6.033 18:4.388 19:0.54799998 20:2.559 #
0.1445040702228943818585804592658 1:5.2329998 2:1.599 3:3.779 4:6.9770002 5:5.0869999 6:2.9070001 7:3.052 8:5.5229998 9:5.6690001 10:10.029 11:1.89 12:5.0869999 13:6.5409999 14:2.7620001 15:5.8140001 16:13.517 17:4.506 18:5.6690001 19:1.599 20:2.7620001 #
-0.5000013186035223711201069818344 1:6.527 2:1.166 3:5.8280001 4:6.8759999 5:4.1960001 6:4.6620002 7:2.448 8:4.5450001 9:5.1279998 10:7.6919999 11:2.5639999 12:6.177 13:3.497 14:3.6129999 15:6.6430001 16:12.121 17:6.6430001 18:5.3610001 19:0.81599998 20:3.497 #
-0.5000013186035223711201069818344 1:4.211 2:0.72899997 3:7.4489999 4:5.1009998 5:4.4530001 6:5.6680002 7:3.158 8:6.073 9:6.8829999 10:8.0159998 11:2.267 12:6.7210002 13:4.0489998 14:3.3199999 15:6.3969998 16:10.04 17:6.2350001 18:4.3720002 19:1.296 20:3.563 #
-0.5000013186035223711201069818344 1:3.5020001 2:1.2079999 3:4.8309999 4:5.1929998 5:3.865 6:4.2270002 7:1.5700001 8:7.7290001 9:5.9180002 10:9.5410004 11:2.174 12:7.7290001 13:4.8309999 14:3.6229999 15:5.3140001 16:13.768 17:6.2800002 18:4.2270002 19:0.96600002 20:3.5020001 #
2.4000063292969073813765135128051 1:9.6590004 2:0.852 3:5.1139998 4:3.6930001 5:5.3979998 6:8.2390003 7:1.136 8:5.3979998 9:3.977 10:12.216 11:2.273 12:4.5450001 13:3.4089999 14:4.2610002 15:6.25 16:6.5339999 17:4.2610002 18:9.375 19:1.136 20:2.273 #
2.4000063292969073813765135128051 1:9.5719995 2:0.50400001 3:2.7709999 4:4.5339999 5:6.5489998 6:9.0679998 7:2.0150001 8:9.0679998 9:3.2750001 10:13.35 11:1.008 12:2.5190001 13:4.7859998 14:3.023 15:5.0380001 16:5.7930002 17:4.0300002 18:8.0600004 19:2.267 20:2.7709999 #
0.64019017933958755062207046648837 1:6.8969998 2:1.5089999 3:4.3099999 4:4.0949998 5:4.7410002 6:7.3280001 7:1.9400001 8:6.0339999 9:5.388 10:11.422 11:3.664 12:4.526 13:3.448 14:3.664 15:5.8189998 16:4.7410002 17:5.1719999 18:9.9139996 19:2.802 20:2.586 #
-0.5000013186035223711201069818344 1:8.5509996 2:1.188 3:3.444 4:5.1069999 5:4.276 6:8.1949997 7:1.188 8:5.2259998 9:2.257 10:13.658 11:1.9 12:3.0880001 13:3.444 14:5.2259998 15:7.1259999 16:6.4130001 17:6.0570002 18:7.8379998 19:2.6129999 20:3.207 #
-0.5000013186035223711201069818344 1:9.1789999 2:0.48300001 3:4.348 4:3.1400001 5:3.382 6:8.6960001 7:1.691 8:9.1789999 9:3.6229999 10:11.836 11:3.382 12:3.6229999 13:3.6229999 14:4.8309999 15:4.8309999 16:7.0050001 17:2.415 18:9.6619997 19:2.174 20:2.8989999 #
-0.5000013186035223711201069818344 1:6.9619999 2:0.86299998 3:4.8060002 4:5.8530002 5:4.6209998 6:6.8390002 7:1.4170001 8:5.5450001 9:4.1900001 10:12.877 11:2.8340001 12:4.6209998 13:3.7579999 14:3.8199999 15:5.6069999 16:7.6399999 17:4.868 18:7.7020001 19:2.033 20:3.142 #
0.52023098740494089220476325863274 1:2.8269999 2:0.824 3:7.1849999 4:6.243 5:5.1830001 6:5.1830001 7:1.296 8:7.5380001 9:7.4200001 10:10.718 11:2.7090001 12:6.3600001 13:4.1220002 14:4.0050001 15:4.2399998 16:9.5410004 17:5.8889999 18:4.3579998 19:1.0599999 20:3.2980001 #
0.52552539966617684008554078900488 1:4.1609998 2:0.55500001 3:5.9640002 4:7.7670002 5:3.1900001 6:5.8249998 7:2.0799999 8:11.512 9:8.0439997 10:9.0150003 11:2.7739999 12:6.796 13:3.6059999 14:1.387 15:5.4089999 16:4.4380002 17:5.8249998 18:6.5190001 19:0.83200002 20:4.3000002 #
1.676665182686287947078085380781 1:6.796 2:0.97100002 3:7.1199999 4:6.1490002 5:4.5310001 6:6.1490002 7:1.294 8:8.0909996 9:6.796 10:7.7670002 11:1.618 12:5.8249998 13:3.2360001 14:2.2650001 15:5.8249998 16:9.0609999 17:7.4429998 18:5.178 19:1.294 20:2.589 #
-0.5000013186035223711201069818344 1:4.6560001 2:0.88700002 3:7.428 4:4.9889998 5:7.428 6:4.8779998 7:1.9960001 8:7.0949998 9:8.2040005 10:10.865 11:1.33 12:8.4259996 13:2.55 14:4.2129998 15:4.5450001 16:7.539 17:4.2129998 18:3.7690001 19:0.333 20:4.6560001 #
-0.5000013186035223711201069818344 1:9.7449999 2:1.5140001 3:5.8660002 4:7.0960002 5:3.122 6:5.487 7:2.5539999 8:5.2030001 9:7.474 10:11.542 11:1.608 12:4.0679998 13:4.0679998 14:3.5 15:4.1630001 16:7.3790002 17:5.1090002 18:6.9060001 19:1.041 20:2.5539999 #
-0.5000013186035223711201069818344 1:7.908 2:0.255 3:5.3569999 4:7.1430001 5:5.3569999 6:3.316 7:1.786 8:7.1430001 9:8.6730003 10:10.204 11:1.02 12:6.1220002 13:4.0819998 14:3.316 15:3.0610001 16:8.1630001 17:5.612 18:7.1430001 19:0.76499999 20:3.5710001 #
1.1523667117810751925333079270786 1:8.6870003 2:2.2219999 3:3.8380001 4:3.434 5:4.848 6:8.283 7:2.2219999 8:3.2320001 9:2.8280001 10:12.929 11:1.6160001 12:2.8280001 13:5.4549999 14:5.0510001 15:5.8590002 16:7.2729998 17:7.0710001 18:7.0710001 19:1.6160001 20:3.6359999 #
0.29081376576748996232169020004221 1:7.3730001 2:0.92199999 3:0 4:1.8430001 5:5.5300002 6:4.6079998 7:0.461 8:8.2950001 9:5.5300002 10:17.972 11:2.7650001 12:3.2260001 13:4.6079998 14:3.687 15:3.687 16:9.217 17:3.2260001 18:8.7559996 19:1.382 20:6.9120002 #
-0.5000013186035223711201069818344 1:6.7459998 2:2.0829999 3:4.6630001 4:6.6960001 5:6.151 6:5.8039999 7:1.339 8:6.052 9:4.1170001 10:11.26 11:3.4230001 12:3.819 13:5.2579999 14:3.5220001 15:5.1589999 16:7.8369999 17:5.8530002 18:5.9029999 19:1.637 20:2.6789999 #
-0.5000013186035223711201069818344 1:7.9920001 2:1.6390001 3:3.279 4:4.9180002 5:5.3280001 6:5.533 7:2.2539999 8:3.484 9:4.7129998 10:14.959 11:2.2539999 12:2.664 13:5.3280001 14:3.279 15:6.1479998 16:8.1969995 17:4.9180002 18:8.1969995 19:1.844 20:3.0739999 #
-0.5000013186035223711201069818344 1:9.2729998 2:2.3640001 3:2.9089999 4:3.0910001 5:5.4549999 6:7.2729998 7:0.90899998 8:5.2729998 9:2.727 10:14.727 11:3.273 12:1.818 13:5.2729998 14:5.0910001 15:4.9089999 16:8.3640003 17:6.5450001 18:7.0910001 19:2.3640001 20:1.273 #
-0.5000013186035223711201069818344 1:8.9829998 2:1.525 3:4.0679998 4:3.898 5:5.9320002 6:8.1359997 7:1.525 8:6.1020002 9:4.5760002 10:13.22 11:2.3729999 12:2.5420001 13:3.898 14:2.7119999 15:4.4070001 16:5.763 17:7.7969999 18:7.4580002 19:1.6950001 20:3.3900001 #
-0.5000013186035223711201069818344 1:10.49 2:0.93199998 3:2.3310001 4:2.7969999 5:5.1279998 6:10.256 7:1.399 8:10.956 9:3.263 10:14.452 11:2.5639999 12:2.3310001 13:5.1279998 14:1.166 15:2.3310001 16:5.3610001 17:6.0609999 18:10.023 19:0.93199998 20:2.098 #
1.3212132798205324935025828381185 1:8.0869999 2:1.476 3:5.1950002 4:7.8509998 5:4.073 6:3.7780001 7:1.653 8:6.789 9:6.73 10:10.744 11:2.007 12:6.198 13:3.8369999 14:5.8439999 15:4.132 16:5.7849998 17:4.073 18:6.0209999 19:0.708 20:5.0180001 #
1.4158309068263184027358647654182 1:6.8889999 2:1.556 3:4.6669998 4:8.8889999 5:5.3330002 6:6.6669998 7:1.3329999 8:6.2220001 9:10.444 10:9.7779999 11:2.444 12:4.8889999 13:3.7780001 14:2.8889999 15:3.556 16:6.2220001 17:4 18:6.2220001 19:0.44400001 20:3.7780001 #
-0.5000013186035223711201069818344 1:3.0610001 2:1.701 3:7.4829998 4:6.4629998 5:4.4219999 6:6.1220002 7:1.02 8:5.4419999 9:12.245 10:9.184 11:1.3609999 12:6.4629998 13:2.381 14:4.4219999 15:2.381 16:3.401 17:5.4419999 18:7.823 19:1.3609999 20:7.823 #
-0.5000013186035223711201069818344 1:6.9060001 2:4.6960001 3:5.2490001 4:9.1160002 5:5.2490001 6:5.6630001 7:2.6240001 8:6.3540001 9:6.0770001 10:6.0770001 11:2.901 12:5.2490001 13:3.7290001 14:4.1440001 15:4.9720001 16:7.7350001 17:4.9720001 18:3.4530001 19:0.96700001 20:3.8670001 #
-0.5000013186035223711201069818344 1:6.013 2:2.2149999 3:4.7470002 4:7.2779999 5:3.4809999 6:5.0630002 7:2.848 8:5.6960001 9:7.9109998 10:10.759 11:1.899 12:4.7470002 13:6.329 14:4.1139998 15:3.4809999 16:5.3800001 17:4.7470002 18:7.9109998 19:1.899 20:3.4809999 #
2.4000063292969073813765135128051 1:9.0050001 2:3.3180001 3:2.8440001 4:2.3699999 5:3.3180001 6:9.0050001 7:0 8:8.5310001 9:3.3180001 10:12.322 11:3.3180001 12:2.8440001 13:4.7389998 14:4.7389998 15:2.8440001 16:8.0570002 17:6.6350002 18:5.6869998 19:2.8440001 20:4.2649999 #
0.50633099774063461406825581434532 1:8.6370001 2:2.4949999 3:2.4949999 4:2.8789999 5:4.9899998 6:6.9099998 7:2.303 8:4.9899998 9:2.4949999 10:10.94 11:2.1110001 12:1.536 13:6.3340001 14:4.6069999 15:5.7579999 16:10.557 17:7.678 18:6.7179999 19:2.4949999 20:3.0710001 #
2.4000063292969073813765135128051 1:8.2189999 2:1.027 3:2.74 4:6.164 5:4.1100001 6:6.507 7:2.0550001 8:7.5339999 9:6.507 10:10.959 11:5.822 12:3.425 13:3.082 14:2.3970001 15:3.425 16:8.5620003 17:5.822 18:6.849 19:0 20:4.7950001 #
0.055036808913547757837747553821828 1:11.969 2:3.089 3:5.4050002 4:5.4050002 5:3.4749999 6:5.4050002 7:3.8610001 8:3.089 9:1.931 10:16.988001 11:0.77200001 12:4.2470002 13:5.4050002 14:5.4050002 15:8.8800001 16:5.4050002 17:2.7030001 18:3.8610001 19:0.77200001 20:1.931 #
-0.5000013186035223711201069818344 1:7.5 2:0 3:3.8889999 4:2.5 5:5.2779999 6:9.1669998 7:0.55599999 8:5.8330002 9:4.7220001 10:12.778 11:5.2779999 12:2.5 13:4.4439998 14:5.5560002 15:3.8889999 16:7.7779999 17:5 18:8.0559998 19:1.6670001 20:3.6110001 #
-0.14900247671445990271799075799208 1:12.162 2:0.676 3:4.73 4:3.378 5:3.378 6:12.162 7:1.351 8:5.4050002 9:8.7840004 10:8.7840004 11:2.027 12:3.378 13:2.027 14:0.676 15:2.027 16:8.1079998 17:7.4320002 18:8.1079998 19:1.351 20:4.0539999 #
0.28144287151942098956780569096736 1:5.5139999 2:2.8110001 3:5.2969999 4:9.1890001 5:5.0809999 6:4.3239999 7:1.946 8:7.5679998 9:9.1890001 10:9.4049997 11:2.1619999 12:4.3239999 13:4.1079998 14:5.0809999 15:4.1079998 16:5.6220002 17:4.973 18:4.973 19:1.081 20:3.243 #
0.014680496045607324684389993763034 1:6.3559999 2:2.5420001 3:7.4860001 4:12.712 5:2.684 6:6.2150002 7:3.1070001 8:2.825 9:2.9660001 10:6.3559999 11:1.271 12:4.3790002 13:6.2150002 14:5.5079999 15:3.8139999 16:11.864 17:4.6609998 18:5.3670001 19:1.13 20:2.5420001 #
0.24735803395676236871025821528747 1:5.2870002 2:2.299 3:5.2870002 4:9.4250002 5:4.368 6:5.0570002 7:2.9890001 8:4.598 9:7.1259999 10:8.5059996 11:2.9890001 12:3.678 13:6.8969998 14:4.138 15:5.5170002 16:7.586 17:4.138 18:5.2870002 19:1.839 20:2.9890001 #
-0.5000013186035223711201069818344 1:6.8839998 2:1.6339999 3:5.8340001 4:5.7179999 5:5.0180001 6:5.9510002 7:2.684 8:5.8340001 9:4.434 10:12.135 11:2.5669999 12:5.6009998 13:3.5009999 14:2.8 15:6.8839998 16:5.6009998 17:5.8340001 18:7.2350001 19:1.1670001 20:2.684 #
-0.5000013186035223711201069818344 1:6.4109998 2:1.761 3:5.0560002 4:7.6300001 5:4.6950002 6:5.237 7:2.7539999 8:5.5079999 9:7.0879998 10:10.293 11:2.3929999 12:3.4760001 13:4.605 14:4.5149999 15:6.9070001 16:6.1849999 17:5.1919999 18:5.4180002 19:1.2640001 20:3.612 #
-0.5000013186035223711201069818344 1:9.7480001 2:0.48699999 3:6.1739998 4:6.9050002 5:3.8180001 6:7.8800001 7:2.7620001 8:4.7930002 9:4.4679999 10:9.5860004 11:1.95 12:3.3310001 13:5.4429998 14:3.737 15:6.6609998 16:5.849 17:4.8740001 18:7.6360002 19:1.056 20:2.8429999 #
2.4000063292969073813765135128051 1:10.73 2:0.42899999 3:0.85799998 4:3.0039999 5:8.5839996 6:8.5839996 7:1.717 8:11.588 9:4.7210002 10:13.734 11:1.717 12:3.0039999 13:5.1500001 14:0.85799998 15:2.1459999 16:3.4330001 17:6.0089998 18:10.3 19:0.42899999 20:3.0039999 #
2.4000063292969073813765135128051 1:9.8269997 2:0.289 3:2.6010001 4:3.1789999 5:10.405 6:6.3579998 7:0.86699998 8:11.561 9:3.1789999 10:10.116 11:4.335 12:3.757 13:3.757 14:1.156 15:3.757 16:7.5139999 17:5.4910002 18:5.7800002 19:1.734 20:4.335 #
1.3463703978986727438638126841397 1:8.5109997 2:4.8629999 3:2.4319999 4:3.3429999 5:6.079 6:8.2069998 7:2.128 8:3.04 9:1.216 10:18.844999 11:3.04 12:0.912 13:7.9029999 14:2.4319999 15:5.7750001 16:7.2950001 17:3.6470001 18:6.6869998 19:1.52 20:2.128 #
-0.5000013186035223711201069818344 1:9.5539999 2:1.911 3:2.5480001 4:2.5480001 5:5.7319999 6:4.4590001 7:1.911 8:10.828 9:2.5480001 10:15.924 11:1.911 12:2.5480001 13:3.822 14:3.822 15:3.822 16:7.6430001 17:5.7319999 18:7.006 19:2.5480001 20:3.1849999 #
-0.5000013186035223711201069818344 1:8.382 2:2.312 3:1.734 4:3.4679999 5:6.0689998 6:7.5139999 7:2.6010001 8:5.2020001 9:1.4450001 10:14.74 11:3.1789999 12:2.023 13:6.6469998 14:3.1789999 15:4.6240001 16:8.96 17:4.335 18:5.7800002 19:4.9130001 20:2.8900001 #
-0.5000013186035223711201069818344 1:6.2729998 2:0 3:2.9519999 4:2.9519999 5:7.3800001 6:6.2729998 7:2.5829999 8:9.2250004 9:3.6900001 10:16.605 11:4.059 12:4.428 13:5.5349998 14:2.5829999 15:1.476 16:6.2729998 17:4.428 18:8.4870005 19:2.5829999 20:2.214 #
0.22158896880228318160277467541164 1:7.2270002 2:1.1799999 3:6.342 4:8.2600002 5:3.9820001 6:6.6370001 7:2.655 8:3.835 9:5.3099999 10:8.8500004 11:2.655 12:3.54 13:4.1300001 14:3.835 15:5.7519999 16:6.4899998 17:5.9000001 18:7.375 19:1.327 20:4.7199998 #
2.4000063292969073813765135128051 1:6.5929999 2:1.954 3:5.6170001 4:7.204 5:3.9070001 6:4.2740002 7:3.053 8:7.0819998 9:5.7389998 10:10.379 11:3.175 12:3.6630001 13:4.7620001 14:3.9070001 15:6.105 16:7.448 17:4.3959999 18:7.6919999 19:0.244 20:2.8080001 #
2.295676758478474521751877546194 1:7.6789999 2:1.669 3:7.3460002 4:7.0120001 5:3.0050001 6:7.0120001 7:1.669 8:6.8449998 9:6.177 10:10.017 11:2.1700001 12:3.6730001 13:4.007 14:4.1739998 15:5.8429999 16:5.1750002 17:4.6739998 18:8.3470001 19:0.33399999 20:3.1719999 #
-0.5000013186035223711201069818344 1:5.6729999 2:1.0549999 3:6.8600001 4:11.741 5:3.1659999 6:7.1240001 7:2.902 8:3.2980001 9:7.1240001 10:8.1789999 11:1.5829999 12:3.562 13:5.5409999 14:4.7490001 15:5.013 16:6.0689998 17:5.013 18:6.9920001 19:1.847 20:2.507 #
-0.5000013186035223711201069818344 1:6.25 2:1.316 3:5.592 4:9.2110004 5:5.592 6:5.921 7:1.316 8:4.605 9:7.895 10:9.5389996 11:2.632 12:2.961 13:6.25 14:3.618 15:4.605 16:7.237 17:3.618 18:4.934 19:0.98699999 20:5.921 #
-0.5000013186035223711201069818344 1:6.0749998 2:1.869 3:7.4770002 4:8.1780005 5:5.6069999 6:4.9070001 7:2.5699999 8:6.0749998 9:6.776 10:9.5790005 11:3.5050001 12:3.7379999 13:3.5050001 14:5.3740001 15:5.8410001 16:4.6729999 17:3.5050001 18:8.4110003 19:0 20:2.336 #
0.025596756929778287370513822907014 1:10.833 2:0 3:4.1669998 4:1.6670001 5:5.8330002 6:4.1669998 7:5 8:10 9:2.5 10:13.333 11:4.1669998 12:3.3329999 13:2.5 14:3.3329999 15:7.5 16:5.8330002 17:4.1669998 18:6.6669998 19:3.3329999 20:1.6670001 #
2.4000063292969073813765135128051 1:13.244 2:1.339 3:2.2320001 4:2.53 5:5.506 6:7.5890002 7:2.381 8:6.3990002 9:2.0829999 10:16.815001 11:4.9109998 12:1.637 13:4.0180001 14:2.381 15:4.0180001 16:6.994 17:4.3150001 18:7.4400001 19:2.381 20:1.786 #
0.0084222271916837981864389917063818 1:3.5450001 2:0.122 3:7.579 4:6.2350001 5:5.5009999 6:6.724 7:2.934 8:5.5009999 9:6.2350001 10:8.3129997 11:0.97799999 12:6.6009998 13:3.6670001 14:2.2 15:3.9119999 16:8.802 17:5.5009999 18:8.3129997 19:1.834 20:5.5009999 #
-0.5000013186035223711201069818344 1:13.406 2:0.36199999 3:1.087 4:5.4349999 5:8.3330002 6:9.0579996 7:1.812 8:6.5219998 9:1.812 10:13.406 11:3.6229999 12:1.812 13:2.8989999 14:3.6229999 15:4.348 16:4.71 17:3.2609999 18:9.4200001 19:3.6229999 20:1.449 #
-0.5000013186035223711201069818344 1:11.579 2:1.579 3:5.526 4:3.158 5:2.632 6:9.7370005 7:2.895 8:3.947 9:2.368 10:9.474 11:2.105 12:1.316 13:6.053 14:3.421 15:8.684 16:6.842 17:7.368 18:7.895 19:2.105 20:1.316 #
-0.5000013186035223711201069818344 1:3.7360001 2:1.099 3:2.6370001 4:3.9560001 5:9.6700001 6:5.0549998 7:1.538 8:10.33 9:4.835 10:12.308 11:4.6149998 12:2.6370001 13:2.198 14:3.7360001 15:4.3959999 16:8.5710001 17:5.4949999 18:7.033 19:1.758 20:4.3959999 #
0.19265538542499702212573708948185 1:5.5739999 2:5.0679998 3:4.0539999 4:5.743 5:5.4050002 6:5.4050002 7:4.223 8:2.5339999 9:4.73 10:10.473 11:2.5339999 12:3.885 13:6.4190001 14:4.3920002 15:6.9260001 16:8.9530001 17:5.5739999 18:4.0539999 19:1.689 20:2.365 #
2.4000063292969073813765135128051 1:8.5030003 2:1.479 3:5.5450001 4:6.4699998 5:5.915 6:7.2090001 7:2.957 8:3.882 9:5.3600001 10:10.906 11:2.957 12:3.3269999 13:2.957 14:4.0669999 15:5.1760001 16:6.8390002 17:4.9910002 18:6.2849998 19:1.109 20:4.0669999 #
-0.5000013186035223711201069818344 1:7.6919999 2:1.748 3:5.2449999 4:7.3429999 5:4.1960001 6:6.6430001 7:1.923 8:6.8179998 9:6.119 10:10.664 11:1.923 12:4.7199998 13:4.895 14:5.4200001 15:4.895 16:4.3709998 17:4.895 18:6.4689999 19:0.52399999 20:3.497 #
-0.5000013186035223711201069818344 1:5.8990002 2:2.5280001 3:3.9330001 4:6.461 5:5.0560002 6:7.0219998 7:3.3710001 8:4.2129998 9:5.8990002 10:9.5509996 11:2.809 12:3.0899999 13:5.3369999 14:5.618 15:4.7750001 16:7.5840001 17:5.0560002 18:6.7420001 19:1.6849999 20:3.3710001 #
-0.5000013186035223711201069818344 1:6.5139999 2:1.943 3:4.5710001 4:7.6570001 5:3.543 6:7.5430002 7:1.829 8:6.0570002 9:5.5999999 10:11.429 11:2.971 12:4.2290001 13:5.0289998 14:2.971 15:5.257 16:7.3140001 17:5.9429998 18:6.4000001 19:0.68599999 20:2.5139999 #
0.58099724481103409701177042734344 1:12 2:0.211 3:5.263 4:4.421 5:1.263 6:8.632 7:2.737 8:4.421 9:0.84200001 10:10.737 11:2.316 12:2.105 13:6.947 14:3.368 15:8.632 16:6.947 17:7.579 18:9.474 19:0.63200003 20:1.474 #
0.31372668420167793001951395126525 1:5.8379998 2:1.015 3:2.03 4:1.777 5:9.3909998 6:4.5689998 7:1.523 8:11.168 9:3.046 10:16.750999 11:1.2690001 12:4.0609999 13:4.822 14:3.046 15:2.5380001 16:9.8979998 17:3.8069999 18:6.3449998 19:2.03 20:5.0760002 #
1.1247009886016099411421009790502 1:4.1139998 2:1.899 3:1.582 4:3.165 5:8.2279997 6:6.329 7:2.848 8:9.177 9:4.7470002 10:15.823 11:3.7969999 12:2.848 13:2.848 14:1.582 15:4.4299998 16:9.8100004 17:7.2779999 18:4.7470002 19:2.2149999 20:2.5320001 #
-0.15328565446873920752324238492292 1:12.457 2:1.3839999 3:3.1140001 4:3.1140001 5:6.5739999 6:12.111 7:2.076 8:8.9969997 9:4.152 10:7.612 11:1.73 12:2.7679999 13:5.1900001 14:2.4219999 15:3.806 16:4.8439999 17:5.5359998 18:6.9200001 19:1.73 20:3.46 #
-0.5000013186035223711201069818344 1:4.5180001 2:1.807 3:6.0240002 4:9.3369999 5:4.217 6:3.9159999 7:3.0120001 8:5.723 9:8.1330004 10:6.0240002 11:2.108 12:2.711 13:7.8309999 14:3.0120001 15:5.4219999 16:8.1330004 17:5.723 18:6.3249998 19:1.807 20:4.217 #
-0.5000013186035223711201069818344 1:6.006 2:0.90100002 3:2.402 4:2.102 5:6.006 6:6.6069999 7:1.201 8:6.3060002 9:4.5050001 10:15.015 11:5.105 12:6.3060002 13:2.7030001 14:2.402 15:2.402 16:9.309 17:6.6069999 18:9.0089998 19:1.502 20:3.6040001 #
-0.5000013186035223711201069818344 1:5.882 2:2.2620001 3:3.1670001 4:1.8099999 5:5.882 6:7.2399998 7:0.90499997 8:4.5250001 9:2.2620001 10:17.646999 11:2.7149999 12:3.1670001 13:4.072 14:4.5250001 15:4.5250001 16:6.335 17:7.2399998 18:7.2399998 19:2.7149999 20:5.882 #
0.32257663801142882897821095866675 1:3.5350001 2:3.03 3:5.0510001 4:6.0609999 5:4.04 6:7.0710001 7:2.02 8:6.566 9:5.5560002 10:10.606 11:2.02 12:5.0510001 13:5.5560002 14:5.0510001 15:4.5450001 16:6.566 17:4.04 18:9.0909996 19:0.505 20:4.04 #
2.3103205559022708115435307263397 1:6.9330001 2:1.867 3:2.6670001 4:6.4000001 5:8 6:7.7329998 7:3.733 8:4.8000002 9:3.733 10:10.667 11:3.467 12:1.867 13:5.5999999 14:3.2 15:4.533 16:5.3330002 17:4.8000002 18:8.533 19:2.4000001 20:3.733 #
2.4000063292969073813765135128051 1:7.6599998 2:0.63 3:3.7780001 4:5.3520002 5:6.506 6:4.8270001 7:1.469 8:7.3449998 9:7.2399998 10:9.5489998 11:1.784 12:5.0370002 13:5.3520002 14:3.882 15:2.8329999 16:7.6599998 17:5.0370002 18:7.6599998 19:1.679 20:4.7220001 #
-0.5000013186035223711201069818344 1:6.0560002 2:3.7639999 3:4.9099998 4:5.5650001 5:5.401 6:4.092 7:2.7820001 8:6.5469999 9:6.5469999 10:10.311 11:2.619 12:4.9099998 13:4.2550001 14:3.6010001 15:4.2550001 16:8.0200005 17:4.2550001 18:7.3649998 19:0.98199999 20:3.7639999 #
-0.5000013186035223711201069818344 1:6.6090002 2:2.2030001 3:4.9559999 4:6.3790002 5:5.737 6:5.645 7:2.0190001 8:6.5170002 9:4.8649998 10:9.316 11:2.799 12:5.3239999 13:5.2319999 14:3.6259999 15:5.8280001 16:7.3429999 17:4.8189998 18:6.1040001 19:1.5140001 20:3.1670001 #
-0.5000013186035223711201069818344 1:5.6799998 2:1.345 3:5.381 4:5.2319999 5:6.2779999 6:5.6799998 7:2.2420001 8:6.5770001 9:7.0250001 10:10.314 11:2.0929999 12:4.4840002 13:4.0359998 14:4.0359998 15:4.4840002 16:5.6799998 17:6.1290002 18:6.2779999 19:1.943 20:5.0819998 #
0.74514497133878943024853924725903 1:7.5 2:2.5 3:1.25 4:1.875 5:6.875 6:6.25 7:3.125 8:7.5 9:1.25 10:16.875 11:1.875 12:2.5 13:0.625 14:4.375 15:3.125 16:9.375 17:5.625 18:10 19:3.125 20:4.375 #
2.4000063292969073813765135128051 1:11.039 2:1.623 3:3.247 4:2.273 5:3.5710001 6:8.1169996 7:1.623 8:6.8179998 9:2.5969999 10:18.181999 11:2.9219999 12:3.8959999 13:3.5710001 14:3.5710001 15:4.8699999 16:4.5450001 17:5.1950002 18:7.4679999 19:2.5969999 20:2.273 #
0.78012150878076713667041985900141 1:6.8179998 2:2.273 3:0.75800002 4:2.273 5:5.303 6:7.5760002 7:0.75800002 8:9.0909996 9:3.03 10:15.152 11:3.03 12:1.515 13:4.5450001 14:4.5450001 15:3.03 16:6.8179998 17:2.273 18:14.394 19:2.273 20:4.5450001 #
-0.5000013186035223711201069818344 1:10.781 2:0.46900001 3:6.875 4:5.7810001 5:2.0309999 6:7.0310001 7:1.719 8:4.6880002 9:2.6559999 10:11.094 11:1.719 12:3.125 13:4.2189999 14:4.6880002 15:10 16:6.25 17:5.1560001 18:9.6879997 19:0.93800002 20:1.094 #
-0.5000013186035223711201069818344 1:7.7459998 2:0 3:5.6339998 4:6.3379998 5:2.1129999 6:5.6339998 7:0.704 8:7.7459998 9:4.9299998 10:11.268 11:2.1129999 12:3.5209999 13:7.0419998 14:3.5209999 15:5.6339998 16:7.0419998 17:4.2249999 18:13.38 19:0 20:1.408 #
-0.5000013186035223711201069818344 1:11.547 2:2.832 3:3.704 4:5.664 5:4.5749998 6:6.7540002 7:2.6140001 8:3.9219999 9:4.3569999 10:11.111 11:2.3970001 12:2.832 13:3.2679999 14:2.6140001 15:5.0110002 16:6.5359998 17:6.5359998 18:11.111 19:0.87099999 20:1.743 #
0.054683874647751484765478835470276 1:4.598 2:1.149 3:5.2550001 4:4.4330001 5:8.7030001 6:3.612 7:2.135 8:7.3889999 9:7.3889999 10:11.002 11:2.4630001 12:5.4190001 13:2.9560001 14:3.2839999 15:3.2839999 16:8.3739996 17:5.4190001 18:5.5830002 19:2.4630001 20:5.0900002 #
1.7908230437941083934560992929619 1:6.1570001 2:3.1849999 3:4.2459998 4:3.822 5:5.3080001 6:3.822 7:1.274 8:7.2189999 9:5.7319999 10:12.102 11:3.1849999 12:5.9450002 13:2.9719999 14:3.822 15:2.76 16:11.253 17:5.7319999 18:7.006 19:1.4859999 20:2.9719999 #
-0.019194787297181624408093369993367 1:7.302 2:2.8570001 3:2.8570001 4:4.2859998 5:6.8249998 6:7.9369998 7:1.1109999 8:8.8889999 9:3.3329999 10:9.6829996 11:1.905 12:3.4920001 13:4.7620001 14:2.8570001 15:3.016 16:6.5079999 17:7.302 18:7.1430001 19:3.016 20:4.921 #
-0.5000013186035223711201069818344 1:6.5159998 2:1.705 3:4.0799999 4:6.2729998 5:6.395 6:4.6290002 7:2.01 8:7.6739998 9:7.125 10:11.389 11:2.9230001 12:3.471 13:3.8369999 14:3.5929999 15:2.984 16:8.4650002 17:4.75 18:7.2470002 19:1.34 20:3.5929999 #
-0.5000013186035223711201069818344 1:6.3210001 2:0.903 3:4.6960001 4:5.599 5:5.9000001 6:4.6960001 7:1.7460001 8:9.151 9:6.0809999 10:11.138 11:1.7460001 12:5.7800002 13:2.95 14:3.552 15:4.5760002 16:8.5489998 17:4.8769999 18:6.3210001 19:1.626 20:3.793 #
-0.5000013186035223711201069818344 1:4.9390001 2:1.09 3:4.618 4:6.0300002 5:4.875 6:4.6820002 7:1.026 8:8.9160004 9:6.158 10:11.931 11:2.5020001 12:5.5809999 13:3.6559999 14:2.8859999 15:4.618 16:9.3649998 17:5.1960001 18:6.7350001 19:1.283 20:3.9130001 #
1.2283816882590634644856208979036 1:12.78 2:0.44800001 3:6.5019999 4:5.605 5:2.2420001 6:6.9510002 7:1.794 8:6.0539999 9:1.5700001 10:10.314 11:0.89700001 12:3.3629999 13:5.1570001 14:3.1389999 15:8.9689999 16:6.7259998 17:6.2779999 18:9.4169998 19:0.67299998 20:1.1210001 #
1.1581896259762092249445686320541 1:13.211 2:2.2360001 3:5.0809999 4:6.098 5:3.049 6:8.3330002 7:1.829 8:1.626 9:2.642 10:11.179 11:2.642 12:2.2360001 13:6.5040002 14:3.4549999 15:6.5040002 16:5.2849998 17:3.862 18:10.366 19:2.033 20:1.829 #
1.1451917892677287991176626746892 1:9.4659996 2:0.17200001 3:4.9910002 4:6.1960001 5:3.6140001 6:8.6059999 7:1.549 8:4.6469998 9:6.54 10:9.6389999 11:2.582 12:3.9590001 13:5.8520002 14:3.6140001 15:6.368 16:5.336 17:5.6799998 18:7.7449999 19:0.51599997 20:2.9260001 #
-0.5000013186035223711201069818344 1:11.409 2:1.342 3:5.369 4:2.013 5:7.0469999 6:10.403 7:1.678 8:5.7049999 9:7.7179999 10:7.3829999 11:2.6849999 12:2.349 13:2.349 14:4.362 15:5.7049999 16:4.698 17:3.02 18:8.3889999 19:2.013 20:4.362 #
-0.5000013186035223711201069818344 1:11.076 2:0.949 3:4.4299998 4:11.392 5:5.3800001 6:6.013 7:1.899 8:1.899 9:8.2279997 10:10.127 11:4.1139998 12:4.4299998 13:3.165 14:5.0630002 15:4.4299998 16:3.7969999 17:4.4299998 18:4.1139998 19:0.63300002 20:4.4299998 #
-0.5000013186035223711201069818344 1:11.146 2:2.2290001 3:2.8659999 4:3.1849999 5:4.4590001 6:4.777 7:2.8659999 8:7.9619999 9:5.0960002 10:7.006 11:3.1849999 12:4.4590001 13:5.414 14:4.1399999 15:2.2290001 16:10.191 17:8.599 18:3.822 19:1.911 20:4.4590001 #
1.0640910430516172802128949115286 1:4.777 2:1.592 3:4.4590001 4:6.369 5:5.7319999 6:4.777 7:3.1849999 8:6.369 9:7.3249998 10:14.013 11:2.2290001 12:5.414 13:4.1399999 14:3.503 15:4.777 16:5.414 17:5.0960002 18:6.369 19:0.95499998 20:3.503 #
-0.13284410448652442249262151108269 1:8.2189999 2:1.918 3:3.927 4:5.5710001 5:5.388 6:8.3109999 7:1.6440001 8:8.0369997 9:6.119 10:8.6759996 11:2.648 12:5.2049999 13:3.744 14:2.74 15:3.744 16:6.941 17:4.658 18:7.8540001 19:1.553 20:3.105 #
1.5307029250926880159511256351834 1:4.684 2:1.8329999 3:3.6659999 4:3.2590001 5:6.9250002 6:3.6659999 7:1.6289999 8:10.387 9:5.092 10:15.479 11:2.648 12:5.9060001 13:2.444 14:3.2590001 15:3.4619999 16:7.9429998 17:5.9060001 18:6.7210002 19:1.018 20:4.073 #
-0.5000013186035223711201069818344 1:5.1279998 2:1.056 3:8.2959995 4:6.6370001 5:5.2789998 6:4.223 7:1.961 8:7.6919999 9:7.8429999 10:9.5019999 11:1.357 12:4.6760001 13:5.4299998 14:3.6199999 15:3.4690001 16:7.3909998 17:6.4860001 18:5.5809999 19:1.207 20:3.1670001 #
-0.5000013186035223711201069818344 1:3.2160001 2:2.632 3:2.339 4:2.632 5:9.3570004 6:5.263 7:2.0469999 8:8.7720003 9:6.4330001 10:13.45 11:1.17 12:5.5560002 13:2.632 14:3.2160001 15:3.5090001 16:8.4799995 17:7.0180001 18:6.4330001 19:1.17 20:4.678 #
-0.5000013186035223711201069818344 1:5.2750001 2:1.29 3:5.158 4:6.5650001 5:4.2199998 6:4.1030002 7:1.876 8:6.9169998 9:7.855 10:13.365 11:1.641 12:6.6820002 13:3.165 14:3.6340001 15:5.6269999 16:9.4960003 17:5.5100002 18:3.9860001 19:0.82099998 20:2.8139999 #
0.73891618617747556463370983692585 1:11.584 2:1.363 3:4.9400001 4:12.436 5:3.918 6:6.6440001 7:1.193 8:3.4070001 9:6.8140001 10:12.606 11:2.0439999 12:4.2589998 13:4.0890002 14:3.5780001 15:3.4070001 16:6.303 17:4.5999999 18:6.1329999 19:0.17 20:0.51099998 #
2.1273674447058321668180269625736 1:10.83 2:5.0539999 3:1.444 4:2.888 5:8.3030005 6:10.469 7:2.527 8:4.6929998 9:4.3319998 10:10.83 11:1.8049999 12:2.1659999 13:2.1659999 14:2.888 15:2.527 16:5.415 17:8.3030005 18:6.8590002 19:1.444 20:5.0539999 #
0.43203050324187852737622961285524 1:10.135 2:1.351 3:5.743 4:6.757 5:3.378 6:5.743 7:1.351 8:5.4050002 9:3.0409999 10:6.4190001 11:2.027 12:3.7160001 13:7.4320002 14:2.365 15:11.824 16:5.4050002 17:6.0809999 18:5.743 19:3.0409999 20:3.0409999 #
-0.5000013186035223711201069818344 1:14.098 2:1.316 3:3.7590001 4:4.323 5:3.947 6:7.3309999 7:1.5039999 8:4.323 9:1.316 10:13.722 11:2.444 12:1.692 13:8.0830002 14:1.692 15:5.6389999 16:6.579 17:4.323 18:8.6470003 19:1.128 20:4.1350002 #
-0.5000013186035223711201069818344 1:5.882 2:1.961 3:2.8010001 4:2.8010001 5:7.0029998 6:6.1620002 7:3.0810001 8:5.6020002 9:4.7620001 10:14.286 11:1.401 12:2.8010001 13:4.4819999 14:4.2020001 15:2.2409999 16:8.4029999 17:4.2020001 18:9.8039999 19:3.641 20:4.4819999 #
-0.5000013186035223711201069818344 1:13.504 2:0.233 3:5.006 4:5.006 5:3.3759999 6:8.033 7:2.5610001 8:3.9579999 9:1.513 10:12.456 11:1.513 12:1.397 13:5.704 14:3.26 15:8.2650003 16:4.8889999 17:6.5190001 18:9.0799999 19:1.863 20:1.863 #
1.2936083108818070552814560869592 1:4.941 2:1.186 3:4.1500001 4:7.7080002 5:2.964 6:5.5339999 7:1.383 8:10.672 9:8.4980001 10:12.055 11:1.976 12:4.1500001 13:3.3599999 14:3.9530001 15:3.1619999 16:7.3119998 17:5.336 18:7.7080002 19:0.39500001 20:3.5569999 #
0.12552122753575850611085229502351 1:4.112 2:1.165 3:6.5110002 4:7.9510002 5:5.3460002 6:3.6329999 7:1.645 8:9.5270004 9:7.539 10:12.063 11:1.508 12:6.7849998 13:2.947 14:3.4960001 15:3.1530001 16:9.4589996 17:6.237 18:4.0440001 19:0.54799998 20:2.3299999 #
1.2582561451451310663429694614024 1:6.4060001 2:0.71200001 3:4.9819999 4:4.27 5:6.0500002 6:4.9819999 7:0.35600001 8:8.1850004 9:6.4060001 10:13.167 11:1.779 12:3.2030001 13:4.6259999 14:2.8469999 15:4.9819999 16:11.388 17:3.915 18:4.9819999 19:2.135 20:4.6259999 #
-0.5000013186035223711201069818344 1:5.5229998 2:2.0079999 3:6.276 4:5.4390001 5:4.2680001 6:4.77 7:3.2639999 8:6.4439998 9:6.3600001 10:9.7910004 11:1.925 12:4.2680001 13:5.0209999 14:3.849 15:5.941 16:10.042 17:5.7740002 18:5.2719998 19:0.83700001 20:2.9289999 #
-0.5000013186035223711201069818344 1:5.9039998 2:1.107 3:5.4429998 4:7.3800001 5:4.8889999 6:3.1370001 7:1.845 8:7.3800001 9:6.6420002 10:11.9 11:2.7679999 12:5.1659999 13:3.2290001 14:5.8119998 15:3.506 16:6.6420002 17:5.6269999 18:7.4720001 19:1.107 20:3.0439999 #
-0.5000013186035223711201069818344 1:7.256 2:1.751 3:5.9219999 4:8.3400002 5:2.5020001 6:3.4200001 7:2.6689999 8:5.5879998 9:9.5909996 10:10.425 11:2.5020001 12:3.003 13:5.5050001 14:5.0040002 15:4.5040002 16:8.3400002 17:4.2540002 18:6.5050001 19:0.5 20:2.4189999 #
2.4000063292969073813765135128051 1:14.774 2:0.46700001 3:3.888 4:1.8660001 5:4.355 6:8.3979998 7:1.089 8:3.888 9:1.5549999 10:13.219 11:2.4879999 12:0.778 13:6.0650001 14:3.266 15:6.9980001 16:5.132 17:6.6869998 18:8.5539999 19:2.799 20:3.733 #
2.4000063292969073813765135128051 1:12.037 2:0.926 3:3.086 4:5.5560002 5:5.5560002 6:8.0249996 7:1.543 8:6.4809999 9:3.704 10:10.802 11:2.4690001 12:1.852 13:6.79 14:4.0120001 15:4.6300001 16:4.3210001 17:7.099 18:8.3330002 19:0.926 20:1.852 #
0.39878296788408074124987479081028 1:9.8129997 2:2.8039999 3:1.636 4:5.3740001 5:3.9719999 6:5.8410001 7:0.935 8:3.2709999 9:1.168 10:11.215 11:2.8039999 12:2.5699999 13:7.0089998 14:4.2059999 15:7.9439998 16:8.1780005 17:5.1399999 18:11.215 19:1.869 20:3.0369999 #
-0.5000013186035223711201069818344 1:12.045 2:2.727 3:4.3179998 4:6.3639998 5:3.4089999 6:10 7:1.818 8:1.818 9:1.818 10:8.6359997 11:1.364 12:1.818 13:8.1820002 14:3.6359999 15:8.6359997 16:5.9089999 17:5.4549999 18:8.8640003 19:1.136 20:2.0450001 #
-0.5000013186035223711201069818344 1:13.03 2:0.90899998 3:2.273 4:1.061 5:3.7880001 6:9.3940001 7:1.212 8:6.5149999 9:0.75800002 10:18.788 11:4.848 12:1.364 13:4.848 14:3.3329999 15:5.303 16:5.303 17:5.7579999 18:7.5760002 19:3.1819999 20:0.75800002 #
-0.5000013186035223711201069818344 1:12.26 2:0.72100002 3:1.202 4:1.442 5:3.846 6:11.779 7:1.202 8:5.0479999 9:1.442 10:20.433001 11:4.0869999 12:1.923 13:5.5289998 14:3.365 15:3.365 16:6.4899998 17:5.7690001 18:6.7309999 19:1.923 20:1.442 #
1.3368588536171142067132677766494 1:6.073 2:1.619 3:5.8699999 4:8.9069996 5:4.2509999 6:5.0609999 7:0.81 8:4.2509999 9:9.1090002 10:9.3120003 11:4.0489998 12:3.036 13:4.2509999 14:6.2750001 15:3.2390001 16:8.0970001 17:5.263 18:6.073 19:1.215 20:3.2390001 #
-0.42174260952409520220030003656575 1:4.5120001 2:3.0569999 3:3.493 4:3.9300001 5:6.987 6:8.2969999 7:1.747 8:8.151 9:6.2589998 10:9.8979998 11:2.766 12:4.803 13:4.803 14:2.766 15:3.493 16:8.7340002 17:5.9679999 18:4.803 19:0.87300003 20:4.658 #
-0.5000013186035223711201069818344 1:6.9460001 2:0.579 3:6.802 4:6.0780001 5:5.355 6:6.223 7:1.737 8:5.355 9:6.368 10:9.5509996 11:1.881 12:6.368 13:5.21 14:3.184 15:3.039 16:7.8150001 17:5.4990001 18:7.381 19:0.72399998 20:3.9070001 #
-0.5000013186035223711201069818344 1:6.1459999 2:1.6670001 3:5.5209999 4:6.875 5:5.7290001 6:5 7:2.188 8:6.4580002 9:6.4580002 10:8.9580002 11:2.9170001 12:3.5420001 13:5 14:2.7079999 15:6.25 16:5.8330002 17:5 18:7.2919998 19:1.4579999 20:5 #
-0.5000013186035223711201069818344 1:5.8410001 2:1.168 3:4.2059999 4:8.4110003 5:4.9070001 6:6.0749998 7:1.168 8:8.1780005 9:8.4110003 10:8.1780005 11:3.2709999 12:4.2059999 13:5.1399999 14:2.336 15:4.4390001 16:6.776 17:4.4390001 18:7.4770002 19:0.935 20:4.4390001 #
0.52871244543818429750814402723336 1:10.592 2:2.181 3:1.869 4:2.181 5:2.8039999 6:7.165 7:0.62300003 8:7.165 9:1.558 10:17.445 11:4.0500002 12:2.4920001 13:6.8540001 14:2.8039999 15:4.6729999 16:4.9840002 17:4.6729999 18:8.7229996 19:3.7379999 20:3.427 #
1.0401651078271489936355465033557 1:10.599 2:2.257 3:3.1400001 4:5.2010002 5:3.3369999 6:9.7150002 7:4.3179998 8:2.4530001 9:1.472 10:15.505 11:0.98100001 12:1.276 13:8.4399996 14:4.4159999 15:5.9860001 16:8.4399996 17:3.631 18:6.9679999 19:1.178 20:0.68699998 #
1.7431455529702750695264512614813 1:13.068 2:1.42 3:0.852 4:2.5569999 5:5.1139998 6:8.2390003 7:1.42 8:3.125 9:2.273 10:16.761 11:1.989 12:2.5569999 13:4.5450001 14:1.705 15:7.6700001 16:9.6590004 17:4.8299999 18:8.8070002 19:1.42 20:1.989 #
-0.5000013186035223711201069818344 1:9.1330004 2:2.108 3:2.576 4:3.9809999 5:3.0439999 6:7.494 7:3.279 8:3.513 9:4.684 10:17.096001 11:3.513 12:2.342 13:3.513 14:4.684 15:6.7919998 16:4.9180002 17:5.152 18:7.7280002 19:2.576 20:1.874 #
-0.5000013186035223711201069818344 1:7.7779999 2:4.4439998 3:5.5560002 4:11.111 5:0 6:3.3329999 7:3.3329999 8:1.1109999 9:7.7779999 10:10 11:8.8889999 12:1.1109999 13:4.4439998 14:5.5560002 15:6.6669998 16:7.7779999 17:2.2219999 18:5.5560002 19:0 20:3.3329999 #
-0.5000013186035223711201069818344 1:9.6890001 2:0 3:4.0219998 4:5.8499999 5:4.9359999 6:6.2160001 7:2.194 8:5.6669998 9:3.839 10:16.819 11:2.7420001 12:3.6559999 13:3.473 14:4.0219998 15:5.6669998 16:4.9359999 17:5.8499999 18:5.6669998 19:2.194 20:2.559 #
1.4949258584217308687414060841547 1:5.369 2:2.013 3:6.4879999 4:6.04 5:4.9219999 6:7.8299999 7:2.461 8:6.2639999 9:6.9349999 10:9.3959999 11:2.237 12:4.2509999 13:4.474 14:2.461 15:3.579 16:7.1589999 17:4.698 18:7.1589999 19:2.461 20:3.803 #
2.2214522928142219626579390023835 1:6.1950002 2:2.2119999 3:5.7519999 4:3.687 5:4.7199998 6:8.2600002 7:1.475 8:6.4899998 9:4.4250002 10:10.324 11:1.9170001 12:5.1620002 13:6.0469999 14:2.507 15:4.1300001 16:8.1120005 17:4.8670001 18:6.342 19:2.655 20:4.7199998 #
0.41437621583878425646219056943664 1:4.6669998 2:3.3329999 3:5.3330002 4:7.3330002 5:4 6:5.3330002 7:3.3329999 8:9.3330002 9:7.3330002 10:5.3330002 11:1.3329999 12:3.3329999 13:8 14:2 15:4 16:6 17:6 18:6 19:1.3329999 20:6.6669998 #
-0.5000013186035223711201069818344 1:5.954 2:3.2060001 3:4.2750001 4:5.3439999 5:4.7329998 6:4.2750001 7:1.832 8:5.4959998 9:5.6490002 10:9.4659996 11:2.7479999 12:5.3439999 13:5.3439999 14:5.191 15:4.1220002 16:8.5500002 17:6.8699999 18:5.191 19:2.1370001 20:4.2750001 #
-0.5000013186035223711201069818344 1:6.5450001 2:2.3559999 3:4.4499998 4:4.974 5:5.4970002 6:6.0209999 7:2.0940001 8:5.4970002 9:7.0679998 10:8.6389999 11:1.832 12:3.927 13:5.4970002 14:4.4499998 15:4.7119999 16:9.6859999 17:3.665 18:7.3299999 19:1.571 20:4.1880002 #
-0.5000013186035223711201069818344 1:7.4200001 2:2.1919999 3:4.3839998 4:4.2160001 5:7.0830002 6:4.2160001 7:1.686 8:6.5770001 9:6.5770001 10:9.1059999 11:1.855 12:4.7220001 13:4.2160001 14:1.855 15:4.553 16:7.9260001 17:5.3959999 18:5.7340002 19:3.8789999 20:6.408 #
0.024919635597812010707752250482372 1:8.2349997 2:1.373 3:2.549 4:3.3329999 5:6.2750001 6:4.5100002 7:2.3529999 8:4.7059999 9:5.2940001 10:16.667 11:0.78399998 12:3.3329999 13:4.7059999 14:5.4899998 15:5.6859999 16:5.4899998 17:4.902 18:7.2550001 19:1.373 20:5.6859999 #
0.85768470149268039026679844027967 1:8.0959997 2:0 3:5.4699998 4:7.4400001 5:3.063 6:6.1269999 7:1.313 8:5.2519999 9:3.5009999 10:14.223 11:3.063 12:4.158 13:5.2519999 14:5.4699998 15:7.8769999 16:6.1269999 17:4.5949998 18:5.2519999 19:2.188 20:1.5319999 #
-0.5000013186035223711201069818344 1:9.7980003 2:0.62199998 3:5.3649998 4:5.677 5:5.21 6:8.5539999 7:1.011 8:7.6209998 9:6.3759999 10:9.4090004 11:2.3329999 12:2.799 13:2.4879999 14:4.0440001 15:4.1209998 16:8.7089996 17:5.2880001 18:7.8540001 19:0.69999999 20:2.0220001 #
-0.5000013186035223711201069818344 1:5.8369999 2:0.389 3:3.1129999 4:8.5600004 5:3.5020001 6:8.1709995 7:3.5020001 8:5.0580001 9:6.2259998 10:11.673 11:3.1129999 12:3.891 13:3.5020001 14:6.6149998 15:5.8369999 16:6.6149998 17:3.5020001 18:9.3389997 19:0.389 20:1.1670001 #
-0.5000013186035223711201069818344 1:9.8179998 2:1.818 3:2.9089999 4:3.273 5:6 6:8.5450001 7:2 8:6.1820002 9:2.3640001 10:15.273 11:2.3640001 12:2.9089999 13:5.2729998 14:3.0910001 15:4 16:6.5450001 17:5.8179998 18:6.7270002 19:1.455 20:3.6359999 #
-0.5000013186035223711201069818344 1:9.6450005 2:1.8609999 3:2.707 4:3.3840001 5:5.2449999 6:6.7680001 7:1.8609999 8:3.3840001 9:2.2 10:13.875 11:1.354 12:2.03 13:6.7680001 14:4.9070001 15:5.9219999 16:8.9680004 17:4.7379999 18:8.7989998 19:1.523 20:4.0609999 #
0.69940188058081231847751269015134 1:3.7969999 2:3.4809999 3:3.165 4:2.848 5:10.759 6:4.7470002 7:3.7969999 8:8.8610001 9:5.3800001 10:9.177 11:2.5320001 12:3.4809999 13:3.165 14:2.5320001 15:2.848 16:9.177 17:6.9619999 18:6.9619999 19:1.899 20:4.4299998 #
0.016786966162438243799215342733078 1:4.6830001 2:1.145 3:6.0349998 4:5.099 5:5.723 6:4.2659998 7:1.7690001 8:7.4920001 9:7.0760002 10:8.9490004 11:1.873 12:13.007 13:4.3699999 14:2.7060001 15:3.7460001 16:8.3249998 17:4.6830001 18:3.0179999 19:2.1849999 20:3.8499999 #
-0.5000013186035223711201069818344 1:8.073 2:2.0450001 3:2.5829999 4:3.983 5:4.7360001 6:7.1040001 7:1.615 8:5.7049999 9:3.983 10:13.455 11:2.4760001 12:3.767 13:6.3509998 14:2.691 15:3.0139999 16:8.7189999 17:6.8889999 18:6.6739998 19:2.691 20:3.4449999 #
-0.5000013186035223711201069818344 1:5.0479999 2:1.082 3:7.6919999 4:6.0100002 5:3.846 6:3.9660001 7:1.803 8:9.1350002 9:8.0530005 10:14.904 11:0.96200001 12:6.9710002 13:2.1630001 14:3.4860001 15:2.885 16:9.0139999 17:5.2880001 18:4.447 19:0.361 20:2.885 #
-0.5000013186035223711201069818344 1:9.3190002 2:1.7920001 3:3.763 4:2.688 5:6.4520001 6:6.631 7:1.613 8:8.2440004 9:4.1220002 10:10.753 11:1.7920001 12:3.405 13:3.9430001 14:3.0469999 15:4.1220002 16:8.2440004 17:7.8850002 18:7.7059999 19:1.7920001 20:2.688 #
2.4000063292969073813765135128051 1:6.7420001 2:0.67400002 3:4.27 4:5.7870002 5:6.8540001 6:5.3930001 7:2.079 8:6.6849999 9:4.9439998 10:11.124 11:2.5840001 12:4.1009998 13:2.9779999 14:4.1570001 15:6.4039998 16:6.5170002 17:4.6630001 18:6.8540001 19:2.809 20:4.382 #
1.36291978809581149079122042167 1:6.7659998 2:1.835 3:3.8989999 4:6.5370002 5:6.4219999 6:3.8989999 7:3.326 8:5.1609998 9:4.1279998 10:10.78 11:3.4400001 12:3.6700001 13:3.4400001 14:5.5050001 15:6.1929998 16:7.7979999 17:4.8169999 18:6.651 19:1.4910001 20:4.243 #
0.59816025544161477434101925609866 1:8.2469997 2:0 3:4.467 4:5.842 5:4.8109999 6:7.2160001 7:0.68699998 8:5.1550002 9:4.1240001 10:8.2469997 11:1.375 12:6.1859999 13:4.467 14:4.1240001 15:8.2469997 16:8.9350004 17:4.8109999 18:7.5599999 19:0.34400001 20:5.1550002 #
-0.5000013186035223711201069818344 1:5.967 2:2.0580001 3:4.9380002 4:3.9089999 5:6.79 6:4.7329998 7:3.4979999 8:6.79 9:5.7610002 10:9.8769999 11:4.3210001 12:4.527 13:5.1440001 14:3.4979999 15:5.7610002 16:8.0249996 17:3.9089999 18:5.7610002 19:1.235 20:3.4979999 #
-0.5000013186035223711201069818344 1:6.658 2:1.556 3:4.1939998 4:6.7010002 5:5.2309999 6:5.8800001 7:2.5079999 8:5.6199999 9:4.4099998 10:9.9440002 11:3.4590001 12:4.1069999 13:4.8850002 14:3.848 15:7.1339998 16:8.776 17:4.9720001 18:6.1389999 19:1.2539999 20:2.724 #
-0.5000013186035223711201069818344 1:5.9829998 2:0.85500002 3:4.4439998 4:6.4959998 5:5.4699998 6:4.4439998 7:3.0769999 8:3.9319999 9:4.9569998 10:12.479 11:2.7349999 12:4.2740002 13:6.6669998 14:4.7859998 15:5.1279998 16:6.6669998 17:5.1279998 18:5.8119998 19:2.5639999 20:4.1030002 #
1.846886377229993270177033082291 1:8.5439997 2:1.899 3:3.165 4:3.165 5:8.2279997 6:6.329 7:1.899 8:3.4809999 9:2.848 10:13.291 11:1.899 12:2.5320001 13:6.013 14:3.7969999 15:2.5320001 16:7.2779999 17:8.2279997 18:7.9109998 19:1.899 20:5.0630002 #
1.6871727320915108627730205625994 1:9.7659998 2:3.125 3:2.734 4:2.734 5:3.9059999 6:7.0310001 7:3.516 8:6.6409998 9:2.3440001 10:14.062 11:3.125 12:3.516 13:2.734 14:5.0780001 15:5.0780001 16:6.25 17:7.8119998 18:7.4219999 19:1.9529999 20:1.1720001 #
1.5472681084701813691850702525699 1:9.2589998 2:1.235 3:4.0120001 4:6.79 5:5.2470002 6:6.79 7:2.7780001 8:5.2470002 9:4.6300001 10:6.1729999 11:2.4690001 12:2.4690001 13:5.5560002 14:3.086 15:4.9380002 16:11.42 17:6.79 18:6.79 19:2.1600001 20:2.1600001 #
-0.5000013186035223711201069818344 1:8.8669996 2:0.24600001 3:2.217 4:4.1869998 5:8.6210003 6:6.4039998 7:2.217 8:8.3739996 9:2.217 10:10.591 11:2.4630001 12:3.2019999 13:3.448 14:3.6949999 15:4.6799998 16:5.1719999 17:5.665 18:9.3599997 19:3.2019999 20:5.1719999 #
-0.5000013186035223711201069818344 1:9.7629995 2:0.792 3:3.4300001 4:2.6389999 5:6.3319998 6:7.652 7:1.0549999 8:6.5960002 9:1.5829999 10:11.873 11:5.013 12:4.2220001 13:3.694 14:1.847 15:4.4850001 16:4.2220001 17:6.8600001 18:10.026 19:4.2220001 20:3.694 #
-0.5000013186035223711201069818344 1:7.7800002 2:1.6210001 3:3.566 4:3.2409999 5:7.618 6:8.1040001 7:2.1070001 8:6.4829998 9:3.7279999 10:12.642 11:2.1070001 12:3.8900001 13:4.052 14:2.7550001 15:3.079 16:5.5110002 17:5.348 18:8.4280005 19:3.079 20:4.862 #
2.4000063292969073813765135128051 1:6.9819999 2:1.465 3:5.0409999 4:6.6420002 5:3.7809999 6:5.79 7:3.1340001 8:5.756 9:4.7680001 10:10.082 11:2.6570001 12:4.223 13:4.8369999 14:4.1209998 15:4.6659999 16:8.8900003 17:5.756 18:7.493 19:1.226 20:2.691 #
2.4000063292969073813765135128051 1:8.3620005 2:0.87099999 3:4.5300002 4:5.5749998 5:6.9689999 6:7.1430001 7:2.6129999 8:4.704 9:1.568 10:11.847 11:2.7869999 12:3.3099999 13:8.1879997 14:2.7869999 15:5.401 16:8.3620005 17:4.355 18:6.098 19:1.22 20:3.3099999 #
2.4000063292969073813765135128051 1:6.395 2:1.9680001 3:4.4980001 4:6.0440001 5:4.3569999 6:5.9029999 7:2.6700001 8:5.1999998 9:4.3569999 10:11.103 11:2.7409999 12:3.9349999 13:5.2709999 14:5.3410001 15:4.5679998 16:9.6280003 17:5.3410001 18:6.184 19:2.0380001 20:2.46 #
-0.5000013186035223711201069818344 1:7.7049999 2:1.35 3:6.1160002 4:5.7979999 5:3.336 6:7.4660001 7:3.0179999 8:4.8449998 9:4.8449998 10:8.1809998 11:2.145 12:4.1300001 13:6.0370002 14:3.733 15:5.7189999 16:9.7700005 17:4.7659998 18:6.434 19:1.4299999 20:3.177 #
-0.5000013186035223711201069818344 1:8.0240002 2:2.0710001 3:4.7449999 4:5.177 5:3.9690001 6:8.0240002 7:2.4159999 8:4.8319998 9:3.02 10:10.871 11:2.0710001 12:3.02 13:8.283 14:2.934 15:7.3340001 16:8.8870001 17:5.0910001 18:5.7810001 19:1.035 20:2.4159999 #
-0.5000013186035223711201069818344 1:8.0839996 2:0.59899998 3:5.8379998 4:7.335 5:1.796 6:7.934 7:1.946 8:3.4430001 9:5.2399998 10:8.9820004 11:2.096 12:4.1919999 13:4.9400001 14:5.0900002 15:4.6409998 16:9.2810001 17:6.2870002 18:7.6350002 19:2.2460001 20:2.395 #
0.27517462437870165992137572175125 1:10.603 2:1.4630001 3:3.473 4:2.559 5:6.5809999 6:7.4949999 7:1.645 8:5.8499999 9:3.839 10:14.077 11:2.3770001 12:2.0109999 13:4.7529998 14:2.925 15:4.5700002 16:5.119 17:3.473 18:8.2270002 19:4.5700002 20:4.388 #
2.4000063292969073813765135128051 1:5.993 2:4.1199999 3:3.3710001 4:5.993 5:5.618 6:9.7379999 7:1.124 8:6.3670001 9:4.1199999 10:11.236 11:3.3710001 12:4.1199999 13:2.247 14:3.7449999 15:2.9960001 16:7.1160002 17:2.9960001 18:9.3629999 19:2.247 20:4.1199999 #
-0.5000013186035223711201069818344 1:5.849 2:0.94300002 3:2.4530001 4:3.7739999 5:7.1700001 6:5.849 7:1.887 8:7.7360001 9:5.283 10:15.66 11:2.4530001 12:4.5279999 13:3.9619999 14:2.075 15:3.585 16:10.377 17:4.151 18:7.5469999 19:1.698 20:3.0190001 #
-0.5000013186035223711201069818344 1:8.5760002 2:4.1350002 3:2.757 4:3.5220001 5:5.8189998 6:5.513 7:1.531 8:7.8099999 9:5.2069998 10:12.864 11:3.063 12:3.5220001 13:3.5220001 14:2.6029999 15:4.2880001 16:6.7379999 17:4.7470002 18:8.1160002 19:1.9910001 20:3.675 #
-0.5000013186035223711201069818344 1:9.4219999 2:2.4319999 3:3.3429999 4:3.6470001 5:9.1190004 6:5.1669998 7:1.52 8:4.2550001 9:1.824 10:10.03 11:1.52 12:4.2550001 13:6.6869998 14:7.2950001 15:3.951 16:8.8149996 17:5.1669998 18:6.9910002 19:2.128 20:2.4319999 #
1.2290919263962325480576964764623 1:9.4060001 2:0.99000001 3:5.4460001 4:6.4359999 5:3.96 6:7.921 7:0.99000001 8:4.4549999 9:6.9310002 10:8.9110003 11:1.98 12:3.96 13:4.4549999 14:3.4649999 15:4.4549999 16:9.4060001 17:5.4460001 18:7.921 19:0.99000001 20:2.4749999 #
-0.5000013186035223711201069818344 1:16.455999 2:0 3:3.7969999 4:2.5320001 5:5.0630002 6:12.658 7:0 8:10.127 9:1.266 10:15.19 11:10.127 12:2.5320001 13:3.7969999 14:2.5320001 15:2.5320001 16:0 17:1.266 18:7.5949998 19:0 20:2.5320001 #
0.19498785102574003880171460423298 1:7.2399998 2:1.8099999 3:5.882 4:8.5970001 5:5.882 6:4.072 7:2.2620001 8:5.204 9:8.1450005 10:7.2399998 11:1.584 12:6.1090002 13:4.5250001 14:2.941 15:2.941 16:7.6919999 17:4.5250001 18:4.2989998 19:2.7149999 20:6.335 #
-0.5000013186035223711201069818344 1:4.7470002 2:1.899 3:5.6960001 4:6.6459999 5:3.4809999 6:4.7470002 7:1.7410001 8:5.0630002 9:7.2779999 10:9.8100004 11:2.6900001 12:3.9560001 13:5.8540001 14:4.7470002 15:7.1199999 16:8.8610001 17:6.9619999 18:7.1199999 19:0.79100001 20:0.79100001 #
-0.5000013186035223711201069818344 1:8.9899998 2:0.44400001 3:5.7709999 4:10.322 5:2.7750001 6:6.2150002 7:2.4419999 8:5.993 9:5.6599998 10:9.1009998 11:3.6630001 12:3.7739999 13:3.2190001 14:4.6609998 15:7.3249998 16:4.8829999 17:4.6609998 18:6.5479999 19:0.77700001 20:2.7750001 #
-0.5000013186035223711201069818344 1:9.408 2:0.69700003 3:5.9229999 4:5.2259998 5:1.3940001 6:6.9689999 7:1.3940001 8:4.5300002 9:8.0139999 10:10.105 11:4.5300002 12:4.1810002 13:3.1359999 14:4.8779998 15:4.5300002 16:7.3169999 17:4.5300002 18:8.7110004 19:0.69700003 20:3.8329999 #
-0.5000013186035223711201069818344 1:6.7810001 2:2.1889999 3:3.8440001 4:6.8870001 5:6.5139999 6:6.086 7:1.655 8:7.3140001 9:4.645 10:11.265 11:3.4170001 12:4.2709999 13:4.7519999 14:3.47 15:5.2859998 16:5.98 17:4.8590002 18:6.3000002 19:1.335 20:3.1500001 #
0.51760055762902601461661333814845 1:7.2459998 2:3.865 3:3.865 4:3.382 5:8.2130003 6:7.2459998 7:2.415 8:6.2800002 9:1.449 10:14.01 11:1.932 12:2.415 13:2.8989999 14:5.7969999 15:3.382 16:6.763 17:3.865 18:6.763 19:2.8989999 20:5.3140001 #
0.10182717525681993231412292288951 1:8.4989996 2:2.55 3:2.266 4:3.3989999 5:9.0649996 6:3.6830001 7:1.983 8:6.7989998 9:1.983 10:15.297 11:0.56699997 12:5.099 13:4.816 14:4.533 15:6.7989998 16:5.9489999 17:3.6830001 18:8.2150002 19:3.1159999 20:1.7 #
-0.5000013186035223711201069818344 1:5.9489999 2:3.0550001 3:3.698 4:3.698 5:7.5560002 6:6.1090002 7:4.1799998 8:6.27 9:4.823 10:13.183 11:2.4119999 12:4.0190001 13:3.859 14:3.5369999 15:3.698 16:7.395 17:5.3049998 18:5.6269999 19:2.733 20:2.8940001 #
-0.5000013186035223711201069818344 1:5.1690001 2:3.3870001 3:2.674 4:3.5650001 5:8.5559998 6:6.2389998 7:1.783 8:9.9820004 9:3.5650001 10:8.7340002 11:2.852 12:3.9219999 13:3.9219999 14:1.961 15:2.674 16:11.23 17:5.704 18:8.7340002 19:1.783 20:3.5650001 #
-0.5000013186035223711201069818344 1:7.8169999 2:1.887 3:4.717 4:6.8730001 5:7.8169999 6:10.243 7:2.0220001 8:4.178 9:3.5039999 10:9.5690002 11:2.9649999 12:2.5610001 13:2.8299999 14:3.0999999 15:5.526 16:7.5469999 17:4.3130002 18:7.1430001 19:1.887 20:3.5039999 #
1.0352480223147357829560633035726 1:11.228 2:1.404 3:6.6669998 4:5.6139998 5:3.8599999 6:5.9650002 7:0.35100001 8:6.316 9:6.6669998 10:7.7189999 11:2.8069999 12:4.211 13:2.8069999 14:6.316 15:4.9120002 16:5.263 17:4.5609999 18:10.175 19:0.35100001 20:2.8069999 #
0.70834824482955627278357724208036 1:6.7800002 2:1.6950001 3:3.3900001 4:3.8139999 5:3.8139999 6:8.0509996 7:0.42399999 8:5.5079999 9:9.7460003 10:13.983 11:2.5420001 12:3.3900001 13:4.237 14:2.9660001 15:5.5079999 16:8.4750004 17:5.9320002 18:6.3559999 19:0.847 20:2.5420001 #
0.03138129303591317281751926770994 1:7.1999998 2:1.6 3:0.80000001 4:1.6 5:6.4000001 6:4 7:3.2 8:10.4 9:3.2 10:16.799999 11:4 12:0 13:6.4000001 14:3.2 15:7.1999998 16:4 17:3.2 18:8 19:6.4000001 20:2.4000001 #
-0.5000013186035223711201069818344 1:8.4849997 2:0.75800002 3:6.5149999 4:7.4239998 5:2.424 6:4.0910001 7:4.2420001 8:3.7880001 9:6.5149999 10:6.2119999 11:1.515 12:3.7880001 13:5.9089999 14:4.5450001 15:7.7270002 16:13.03 17:4.2420001 18:6.0609999 19:0.60600001 20:2.1210001 #
-0.5000013186035223711201069818344 1:7.007 2:1.557 3:5.882 4:7.526 5:3.3740001 6:5.3629999 7:2.1630001 8:5.796 9:4.9310002 10:12.284 11:1.817 12:3.9790001 13:4.2389998 14:4.8439999 15:4.152 16:10.64 17:4.3249998 18:5.4499998 19:1.3839999 20:3.2869999 #
-0.5000013186035223711201069818344 1:6.3590002 2:2.1199999 3:5.4860001 4:6.4840002 5:4.1149998 6:4.7379999 7:2.743 8:7.3569999 9:4.9879999 10:11.97 11:2.618 12:5.362 13:3.2420001 14:2.993 15:5.6110001 16:6.7329998 17:5.237 18:6.8579998 19:1.122 20:3.865 #
0.14264947779155934259875948555418 1:9.3409996 2:3.0220001 3:1.923 4:3.0220001 5:6.0440001 6:5.4949999 7:1.923 8:6.0440001 9:3.846 10:7.6919999 11:3.0220001 12:3.2969999 13:5.4949999 14:3.5710001 15:3.2969999 16:9.3409996 17:5.2199998 18:10.44 19:3.846 20:4.1209998 #
0.81715240207185635412656665721443 1:9.4960003 2:2.671 3:3.5610001 4:1.484 5:5.0450001 6:5.3410001 7:2.3740001 8:8.6049995 9:3.2639999 10:8.309 11:5.3410001 12:3.858 13:5.638 14:1.187 15:3.5610001 16:10.089 17:5.9349999 18:7.4180002 19:2.3740001 20:4.4510002 #
1.0978134279618665392064258412574 1:10.773 2:3.3150001 3:2.21 4:3.8670001 5:6.6300001 6:5.5250001 7:1.6569999 8:6.3540001 9:3.5910001 10:6.6300001 11:2.21 12:4.1440001 13:4.9720001 14:2.21 15:3.8670001 16:8.5640001 17:5.5250001 18:9.9449997 19:4.1440001 20:3.8670001 #
-0.5000013186035223711201069818344 1:8.0649996 2:0.64499998 3:2.9030001 4:3.8710001 5:6.1290002 6:8.3870001 7:1.29 8:6.1290002 9:8.71 10:9.0319996 11:2.5810001 12:3.5480001 13:5.1609998 14:3.2260001 15:4.1939998 16:5.1609998 17:6.4520001 18:10 19:0.96799999 20:3.5480001 #
-0.5000013186035223711201069818344 1:12.883 2:0.61299998 3:5.5209999 4:3.0669999 5:2.1470001 6:9.5089998 7:0.92000002 8:6.7480001 9:3.3740001 10:7.6690001 11:0.92000002 12:4.6009998 13:8.2819996 14:2.1470001 15:5.2150002 16:7.362 17:8.2819996 18:8.5889997 19:0.61299998 20:1.534 #
-0.5000013186035223711201069818344 1:8.7589998 2:0 3:5.8390002 4:3.2850001 5:5.1090002 6:8.7589998 7:2.1900001 8:4.3800001 9:8.0290003 10:7.664 11:0.36500001 12:6.204 13:3.2850001 14:2.9200001 15:1.46 16:8.0290003 17:10.949 18:9.1239996 19:0.36500001 20:3.2850001 #
1.6111734104843966619569073372986 1:3.846 2:2.747 3:5.7690001 4:5.7690001 5:3.0220001 6:5.4949999 7:1.099 8:8.2419996 9:3.5710001 10:12.088 11:2.747 12:5.2199998 13:4.1209998 14:4.6700001 15:5.2199998 16:10.989 17:5.4949999 18:5.4949999 19:0.54900002 20:3.846 #
-0.5000013186035223711201069818344 1:11.795 2:2.0510001 3:3.0769999 4:12.308 5:6.6669998 6:5.6409998 7:1.538 8:4.6149998 9:11.795 10:6.6669998 11:1.538 12:6.1539998 13:2.5639999 14:1.538 15:3.0769999 16:4.1030002 17:5.6409998 18:3.5899999 19:1.026 20:4.6149998 #
2.1402177898007574974315048166318 1:6.8249998 2:0.88999999 3:5.3410001 4:6.7259998 5:4.7480001 6:5.1430001 7:2.868 8:5.9349999 9:4.6490002 10:8.5059996 11:3.066 12:4.9460001 13:4.8470001 14:3.3629999 15:7.0229998 16:9.8909998 17:5.2420001 18:6.0339999 19:1.0880001 20:2.868 #
-0.5000013186035223711201069818344 1:5.6589999 2:2.829 3:4.6890001 4:5.901 5:4.3649998 6:5.9819999 7:2.668 8:5.1739998 9:4.6079998 10:11.722 11:2.5869999 12:4.4460001 13:5.0120001 14:3.8800001 15:5.8210001 16:8.4879999 17:5.0929999 18:6.1440001 19:1.293 20:3.638 #
-0.5000013186035223711201069818344 1:5.8660002 2:3.1470001 3:4.1490002 4:5.1500001 5:5.1500001 6:5.7220001 7:1.717 8:3.0039999 9:4.4349999 10:9.7279997 11:2.575 12:6.4380002 13:7.5819998 14:4.006 15:5.579 16:9.8710003 17:5.1500001 18:4.5780001 19:1.717 20:4.4349999 #
-0.5000013186035223711201069818344 1:5.4260001 2:0.77499998 3:3.1010001 4:6.9770002 5:4.651 6:5.4260001 7:2.326 8:3.8759999 9:5.4260001 10:10.853 11:3.1010001 12:4.651 13:5.4260001 14:4.651 15:4.651 16:9.302 17:6.2020001 18:6.9770002 19:1.55 20:4.651 #
2.1124616209888835705044130008901 1:8.5200005 2:0.213 3:5.4310002 4:3.1949999 5:3.408 6:7.881 7:1.171 8:4.473 9:6.9219999 10:7.987 11:1.597 12:7.5609999 13:3.0880001 14:5.5380001 15:2.6619999 16:9.2650003 17:8.0939999 18:6.9219999 19:1.0650001 20:5.0050001 #
0.037109078915612159210724030344863 1:9.4980001 2:0 3:5.5560002 4:5.7350001 5:1.613 6:10.394 7:1.7920001 8:3.5840001 9:3.405 10:7.1680002 11:1.434 12:6.631 13:6.0929999 14:5.197 15:4.48 16:9.4980001 17:10.394 18:6.2719998 19:0.17900001 20:1.075 #
0.39621503851717210231697663402883 1:14.462 2:3.0769999 3:4.6149998 4:7.0770001 5:1.538 6:10.154 7:1.846 8:1.538 9:0.308 10:7.0770001 11:1.538 12:0.61500001 13:8.3079996 14:1.2309999 15:8.6149998 16:10.462 17:7.0770001 18:8.9230003 19:0.61500001 20:0.92299998 #
-0.36930850222893768508569678488129 1:13.555 2:2.046 3:1.79 4:2.5580001 5:6.3940001 6:7.6729999 7:1.79 8:8.184 9:1.79 10:14.066 11:4.348 12:1.535 13:4.348 14:1.535 15:4.348 16:8.6960001 17:4.6040001 18:8.184 19:1.279 20:1.279 #
-0.5000013186035223711201069818344 1:11.06 2:3.4560001 3:4.3779998 4:7.8340001 5:4.8390002 6:7.6040001 7:2.3039999 8:2.0739999 9:2.0739999 10:11.29 11:1.613 12:2.0739999 13:5.9910002 14:2.9949999 15:7.6040001 16:6.4520001 17:4.8390002 18:7.8340001 19:1.613 20:2.0739999 #
-0.5000013186035223711201069818344 1:15.254 2:1.13 3:5.085 4:9.6049995 5:3.3900001 6:4.52 7:1.13 8:5.6500001 9:4.52 10:10.169 11:3.9549999 12:3.3900001 13:1.6950001 14:5.085 15:6.2150002 16:6.7800002 17:2.26 18:9.04 19:0.565 20:0.565 #
2.4000063292969073813765135128051 1:6.8509998 2:3.365 3:4.928 4:5.1680002 5:6.6110001 6:4.6880002 7:2.5239999 8:5.6490002 9:4.8080001 10:11.659 11:2.6440001 12:4.2069998 13:4.447 14:2.2839999 15:5.2880001 16:6.3699999 17:5.8889999 18:6.8509998 19:1.442 20:4.3270001 #
1.7105041151606761307135684546665 1:5.0510001 2:2.253 3:5.2059999 4:7.2259998 5:4.973 6:5.5939999 7:2.9530001 8:5.1279998 9:5.75 10:11.5 11:2.3310001 12:4.1960001 13:5.3610001 14:5.2839999 15:5.5170002 16:6.527 17:5.3610001 18:5.9829998 19:1.166 20:2.642 #
0.19747195061580202768425351678161 1:7.2080002 2:2.437 3:3.553 4:7.3099999 5:5.178 6:4.8730001 7:2.944 8:3.553 9:3.9590001 10:12.284 11:1.117 12:3.553 13:6.2940001 14:4.8730001 15:5.4819999 16:9.7460003 17:4.7719998 18:6.4970002 19:1.2180001 20:3.1470001 #
-0.5000013186035223711201069818344 1:7.2989998 2:1.825 3:4.8660002 4:5.961 5:2.7980001 6:4.7449999 7:1.825 8:6.448 9:4.9879999 10:12.044 11:3.4059999 12:5.2309999 13:5.1090002 14:4.6230001 15:5.2309999 16:7.2989998 17:6.8130002 18:6.5689998 19:0.36500001 20:2.5550001 #
-0.5000013186035223711201069818344 1:5.5999999 2:2.1329999 3:3.733 4:6.6669998 5:5.3330002 6:4.533 7:2.6670001 8:7.1999998 9:6.4000001 10:11.2 11:2.1329999 12:2.6670001 13:3.733 14:5.0669999 15:4.2670002 16:7.467 17:7.7329998 18:7.1999998 19:1.067 20:3.2 #
-0.5000013186035223711201069818344 1:5.006 2:2.0139999 3:4.6609998 4:5.1209998 5:6.9039998 6:4.6030002 7:2.0710001 8:6.6739998 9:5.178 10:10.99 11:3.74 12:3.4519999 13:4.085 14:4.2579999 15:6.2140002 16:6.9039998 17:5.2930002 18:8.1700001 19:1.784 20:2.8770001 #
0.38889603090539687224591602898727 1:14.105 2:0.18099999 3:3.9779999 4:11.212 5:2.7119999 6:4.3400002 7:0.542 8:6.5100002 9:4.882 10:8.1370001 11:2.1700001 12:4.3400002 13:1.989 14:7.2329998 15:7.2329998 16:5.4250002 17:6.691 18:7.776 19:0.18099999 20:0.36199999 #
0.3182036284431650763337984244572 1:5.8330002 2:1.25 3:2.9170001 4:5.4169998 5:2.9170001 6:12.083 7:2.9170001 8:1.6670001 9:1.6670001 10:14.583 11:1.6670001 12:0.833 13:4.1669998 14:4.1669998 15:8.3330002 16:8.75 17:5 18:10 19:2.5 20:3.3329999 #
0.93954710479330039163414767244831 1:11.178 2:0 3:6.6469998 4:9.9700003 5:3.0209999 6:4.8340001 7:1.2079999 8:6.9489999 9:3.625 10:13.595 11:3.0209999 12:4.23 13:1.511 14:6.0419998 15:6.9489999 16:4.8340001 17:5.1360002 18:6.6469998 19:0 20:0.60399997 #
-0.5000013186035223711201069818344 1:14.696 2:1.597 3:4.1529999 4:3.5139999 5:4.7919998 6:6.3899999 7:2.556 8:2.556 9:0.639 10:16.933001 11:1.278 12:0.958 13:6.0700002 14:2.556 15:5.7509999 16:6.7090001 17:5.4310002 18:8.3070002 19:1.9170001 20:3.1949999 #
-0.5000013186035223711201069818344 1:12.752 2:0.671 3:4.027 4:6.711 5:4.027 6:8.7250004 7:0.671 8:4.698 9:9.3959999 10:4.698 11:1.342 12:8.0539999 13:2.013 14:5.369 15:5.369 16:9.3959999 17:4.698 18:3.3559999 19:0.671 20:3.3559999 #
-0.5000013186035223711201069818344 1:10.839 2:0.815 3:2.638 4:4.2210002 5:5.3720002 6:8.7770004 7:1.295 8:1.8710001 9:4.2690001 10:6.5710001 11:1.3430001 12:2.878 13:9.8800001 14:4.3649998 15:2.3499999 16:16.163 17:8.7770004 18:6.1389999 19:0.47999999 20:0.95899999 #
1.9080763681762662464791446836898 1:5.0749998 2:2.256 3:4.323 4:5.0749998 5:6.7670002 6:6.2030001 7:1.692 8:4.8870001 9:6.3909998 10:9.7740002 11:2.256 12:3.947 13:6.3909998 14:3.0079999 15:4.1350002 16:7.1430001 17:6.9549999 18:8.835 19:1.692 20:3.1949999 #
0.14170563565388921700716196028225 1:12.972 2:0 3:4.717 4:7.783 5:1.415 6:3.5380001 7:0.472 8:2.8299999 9:5.4250002 10:7.5469999 11:0.472 12:3.302 13:7.783 14:3.302 15:9.9060001 16:10.849 17:6.6040001 18:6.6040001 19:0.236 20:4.2449999 #
-0.5000013186035223711201069818344 1:7.914 2:1.619 3:3.237 4:6.1149998 5:8.4530001 6:5.5760002 7:1.799 8:5.2160001 9:6.1149998 10:9.7119999 11:1.439 12:4.1370001 13:4.8559999 14:2.698 15:5.9349999 16:8.4530001 17:4.6760001 18:6.835 19:2.3380001 20:2.878 #
-0.5000013186035223711201069818344 1:6.0190001 2:1.359 3:4.4660001 4:5.0489998 5:6.408 6:5.631 7:2.5239999 8:5.0489998 9:5.0489998 10:11.65 11:1.942 12:3.4949999 13:6.796 14:4.6599998 15:6.408 16:7.7670002 17:5.631 18:6.408 19:1.748 20:1.942 #
-0.5000013186035223711201069818344 1:6.947 2:1.895 3:5.158 4:4.421 5:4.947 6:6.421 7:3.053 8:5.053 9:3.263 10:11.789 11:1.684 12:3.053 13:6.211 14:4.737 15:6.105 16:8.9469995 17:5.474 18:6.632 19:1.053 20:3.158 #
0.52472698424808217332326876203297 1:11.696 2:0.146 3:5.4089999 4:7.0180001 5:3.655 6:6.2870002 7:2.1930001 8:3.8010001 9:10.088 10:7.164 11:0.58499998 12:3.3629999 13:2.4849999 14:3.655 15:4.8249998 16:11.988 17:4.5320001 18:5.1170001 19:2.0469999 20:3.947 #
0.19805499144881613671209663607442 1:11.591 2:3.1819999 3:2.9549999 4:1.818 5:4.3179998 6:6.8179998 7:1.136 8:3.4089999 9:1.364 10:16.818001 11:2.273 12:2.727 13:10 14:2.727 15:6.1360002 16:8.4090004 17:5.4549999 18:5.6820002 19:1.818 20:1.364 #
-0.37214277206979562429012275970308 1:9.1639996 2:1.768 3:3.2149999 4:4.6620002 5:5.3049998 6:7.717 7:1.125 8:7.0739999 9:4.3410001 10:9.6459999 11:2.8940001 12:3.698 13:5.7880001 14:2.4119999 15:3.3759999 16:9.6459999 17:4.823 18:6.9130001 19:2.0899999 20:4.3410001 #
-0.5000013186035223711201069818344 1:3.704 2:3.704 3:5.8200002 4:2.1159999 5:3.704 6:6.349 7:3.704 8:4.2329998 9:5.8200002 10:11.64 11:6.349 12:5.2909999 13:1.587 14:2.6459999 15:2.1159999 16:10.582 17:5.8200002 18:5.8200002 19:3.704 20:5.2909999 #
-0.5000013186035223711201069818344 1:7.6269999 2:0 3:7.6269999 4:11.017 5:5.9320002 6:4.237 7:2.5420001 8:10.169 9:7.6269999 10:7.6269999 11:0.847 12:4.237 13:4.237 14:3.3900001 15:5.085 16:2.5420001 17:9.3219995 18:4.237 19:0 20:1.6950001 #
-0.5000013186035223711201069818344 1:8.5939999 2:0 3:7.0310001 4:12.5 5:3.125 6:0.78100002 7:1.562 8:3.125 9:6.25 10:13.281 11:3.9059999 12:4.6880002 13:7.0310001 14:3.9059999 15:4.6880002 16:7.8119998 17:3.125 18:5.4689999 19:1.562 20:1.562 #
1.452806361434952675537601862743 1:4.6560001 2:0.60699999 3:4.6560001 4:6.4780002 5:9.3120003 6:7.2870002 7:2.227 8:4.2509999 9:6.073 10:10.121 11:3.846 12:3.6440001 13:5.6680002 14:4.2509999 15:7.085 16:5.6680002 17:5.6680002 18:5.8699999 19:0.405 20:2.227 #
1.6459131534060995605273092223797 1:7.0040002 2:3.3069999 3:3.891 4:3.6960001 5:5.2529998 6:8.1709995 7:1.362 8:5.2529998 9:4.6690001 10:12.062 11:1.556 12:3.6960001 13:7.0040002 14:1.556 15:6.4200001 16:9.1440001 17:6.0310001 18:5.447 19:1.751 20:2.724 #
-0.5000013186035223711201069818344 1:8.4510002 2:1.643 3:3.9909999 4:5.927 5:6.1030002 6:6.5139999 7:2.4649999 8:4.7540002 9:4.46 10:13.263 11:2.8169999 12:2.582 13:4.5770001 14:3.9319999 15:5.5159998 16:6.8660002 17:4.9299998 18:6.5139999 19:1.467 20:3.2279999 #
-0.5000013186035223711201069818344 1:8.4759998 2:1.931 3:4.3990002 4:4.8280001 5:3.8629999 6:7.5110002 7:1.717 8:5.2579999 9:6.1160002 10:10.086 11:1.502 12:2.1459999 13:4.6139998 14:4.7210002 15:6.8670001 16:10.622 17:6.1160002 18:5.7940001 19:1.395 20:2.039 #
-0.5000013186035223711201069818344 1:5.3109999 2:1.3660001 3:4.552 4:5.4629998 5:5.3109999 6:7.5869999 7:2.8829999 8:6.3730001 9:6.677 10:11.988 11:3.187 12:3.9449999 13:3.187 14:3.642 15:6.3730001 16:6.3730001 17:4.2490001 18:6.0700002 19:0.759 20:4.704 #
0.47174907945976674028543129679747 1:7.744 2:1.684 3:6.7340002 4:15.825 5:3.3670001 6:8.0810003 7:1.684 8:1.347 9:2.694 10:9.7639999 11:0.67299998 12:1.684 13:5.0510001 14:4.3769999 15:5.3870001 16:6.0609999 17:3.03 18:8.0810003 19:4.04 20:2.694 #
0.44270495675013865621849618037231 1:8.007 2:0.178 3:4.9819999 4:15.48 5:2.313 6:3.559 7:2.6689999 8:7.651 9:9.0749998 10:11.744 11:1.601 12:3.381 13:1.423 14:4.9819999 15:4.6259999 16:6.0500002 17:3.0250001 18:4.9819999 19:0.71200001 20:3.559 #
0.75561906461063799156363529618829 1:4.8130002 2:0.26699999 3:4.5450001 4:6.4169998 5:5.0799999 6:4.2779999 7:1.872 8:12.299 9:6.684 10:12.299 11:2.941 12:5.6149998 13:2.674 14:8.0209999 15:2.674 16:5.348 17:6.684 18:4.5450001 19:0 20:2.941 #
-0.5000013186035223711201069818344 1:2.5810001 2:1.613 3:4.8390002 4:6.4520001 5:7.0970001 6:3.5480001 7:2.2579999 8:7.7420001 9:9.0319996 10:10.968 11:4.5159998 12:8.71 13:1.9349999 14:3.8710001 15:3.2260001 16:10.323 17:3.5480001 18:5.1609998 19:0.96799999 20:1.613 #
-0.5000013186035223711201069818344 1:5.191 2:1.069 3:4.1220002 4:15.573 5:2.4430001 6:3.664 7:2.4430001 8:5.954 9:10.992 10:8.7019997 11:2.1370001 12:2.901 13:5.6490002 14:5.4959998 15:6.1069999 16:6.2600002 17:3.9690001 18:4.7329998 19:0.76300001 20:1.832 #
-0.5000013186035223711201069818344 1:3.066 2:1.623 3:3.7869999 4:5.3200002 5:6.4920001 6:5.9510002 7:3.1559999 8:7.5739999 9:6.6729999 10:9.6479998 11:2.5250001 12:5.23 13:5.5 14:2.615 15:3.066 16:8.2959995 17:7.4840002 18:6.4920001 19:1.443 20:4.0580001 #
1.248896012589266746317662182264 1:7.414 2:2.5320001 3:3.6170001 4:4.5209999 5:5.967 6:7.5949998 7:1.989 8:5.4250002 9:3.7969999 10:12.477 11:2.7119999 12:2.1700001 13:2.3510001 14:4.3400002 15:5.967 16:6.8720002 17:5.0630002 18:7.2329998 19:2.5320001 20:5.4250002 #
-0.5000013186035223711201069818344 1:9.7629995 2:1.479 3:3.2539999 4:3.846 5:3.55 6:8.5799999 7:2.9590001 8:4.1420002 9:2.9590001 10:8.2840004 11:5.6209998 12:5.6209998 13:3.55 14:5.0300002 15:6.5089998 16:7.3959999 17:6.5089998 18:5.0300002 19:0.88800001 20:5.0300002 #
-0.5000013186035223711201069818344 1:12.281 2:0 3:5.263 4:13.158 5:0.87699997 6:5.263 7:1.7539999 8:8.7720003 9:19.298 10:7.0180001 11:0.87699997 12:2.632 13:0.87699997 14:6.1399999 15:1.7539999 16:3.5090001 17:2.632 18:6.1399999 19:0 20:1.7539999 #
-0.5000013186035223711201069818344 1:7.6919999 2:1.425 3:5.698 4:5.698 5:2.849 6:7.1230001 7:2.5639999 8:4.5580001 9:4.5580001 10:12.821 11:1.994 12:1.994 13:3.704 14:5.9829998 15:8.2620001 16:5.1279998 17:5.1279998 18:7.1230001 19:1.425 20:4.2740002 #
-0.5000013186035223711201069818344 1:6.8280001 2:2.8629999 3:4.8460002 4:5.947 5:6.8280001 6:3.9649999 7:2.2030001 8:8.1499996 9:3.5239999 10:9.6920004 11:2.8629999 12:4.8460002 13:3.0840001 14:4.4050002 15:6.1669998 16:6.388 17:4.6259999 18:5.947 19:3.0840001 20:3.744 #
-0.5000013186035223711201069818344 1:6.8470001 2:2.342 3:3.063 4:4.5050001 5:5.586 6:7.5679998 7:1.441 8:7.5679998 9:3.243 10:12.793 11:3.4230001 12:3.7839999 13:5.586 14:2.8829999 15:5.586 16:5.586 17:5.0450001 18:6.6669998 19:2.523 20:3.964 #
0.25316045345695553647757947146602 1:5.2859998 2:0.96899998 3:4.8460002 4:12.423 5:1.938 6:2.9960001 7:2.2909999 8:4.2290001 9:10.661 10:11.013 11:2.3789999 12:3.9649999 13:4.053 14:6.8720002 15:5.4629998 16:7.5770001 17:7.0479999 18:4.1409998 19:0.44100001 20:1.41 #
0.79265346084674814797210729011567 1:2.326 2:1.163 3:2.9070001 4:2.326 5:5.2329998 6:5.8140001 7:2.326 8:7.5580001 9:6.9770002 10:8.7209997 11:1.744 12:4.0700002 13:4.651 14:4.651 15:6.395 16:13.372 17:5.8140001 18:9.8839998 19:1.163 20:2.9070001 #
0.70654550980829466944044270348968 1:8.5710001 2:0.75199997 3:4.9619999 4:13.985 5:1.353 6:5.7140002 7:1.654 8:4.3610001 9:7.0679998 10:9.323 11:0.75199997 12:1.8049999 13:5.5640001 14:6.4660001 15:7.368 16:6.4660001 17:5.5640001 18:5.7140002 19:0.15000001 20:2.4059999 #
-0.5000013186035223711201069818344 1:7.1350002 2:1.381 3:5.178 4:8.6309996 5:3.4519999 6:3.7969999 7:2.4170001 8:5.5240002 9:7.25 10:11.277 11:1.4960001 12:4.6030002 13:3.9130001 14:3.9130001 15:4.7179999 16:10.932 17:3.2219999 18:8.1700001 19:0.69 20:2.3010001 #
-0.5000013186035223711201069818344 1:4.4250002 2:2.655 3:4.4250002 4:8.8500004 5:7.0799999 6:7.0799999 7:1.77 8:2.655 9:5.3099999 10:9.7349997 11:3.54 12:5.3099999 13:3.54 14:1.77 15:4.4250002 16:11.504 17:2.655 18:8.8500004 19:2.655 20:1.77 #
-0.5000013186035223711201069818344 1:10.016 2:0.62599999 3:6.1030002 4:7.0419998 5:5.164 6:4.382 7:1.252 8:5.0079999 9:8.2939997 10:11.268 11:1.5650001 12:6.1030002 13:3.756 14:5.947 15:3.756 16:6.8860002 17:5.164 18:3.4430001 19:0 20:4.2249999 #
2.4000063292969073813765135128051 1:7.6139998 2:2.7920001 3:5.5840001 4:3.553 5:5.8379998 6:6.599 7:2.03 8:7.868 9:5.0760002 10:10.406 11:4.3150001 12:3.046 13:3.8069999 14:3.553 15:4.5689998 16:5.3299999 17:4.3150001 18:6.8530002 19:2.5380001 20:4.3150001 #
1.9986238180702882161199340771418 1:6.3829999 2:0.94599998 3:2.3640001 4:4.0190001 5:6.619 6:7.092 7:2.5999999 8:7.092 9:4.4920001 10:9.4560003 11:2.8369999 12:4.2550001 13:5.9099998 14:2.5999999 15:7.329 16:8.0380001 17:8.7469997 18:4.0190001 19:2.128 20:3.073 #
0.25469677191903583590715243190061 1:5.6069999 2:3.7379999 3:7.0089998 4:8.4110003 5:2.8039999 6:2.8039999 7:1.402 8:4.2059999 9:5.1399999 10:12.15 11:2.336 12:3.7379999 13:6.0749998 14:3.2709999 15:10.28 16:7.9439998 17:3.7379999 18:4.2059999 19:2.336 20:2.8039999 #
-0.5000013186035223711201069818344 1:10.377 2:0.94300002 3:1.415 4:1.887 5:8.9619999 6:8.4910002 7:0.472 8:8.0190001 9:6.132 10:14.151 11:1.887 12:3.7739999 13:2.8299999 14:1.887 15:1.887 16:6.6040001 17:5.6599998 18:8.0190001 19:0.94300002 20:5.6599998 #
-0.5000013186035223711201069818344 1:5.882 2:1.502 3:3.6300001 4:3.1289999 5:7.5089998 6:5.882 7:1.502 8:7.3839998 9:5.257 10:8.8859997 11:2.753 12:5.757 13:5.382 14:2.753 15:3.2539999 16:6.5079999 17:6.1329999 18:8.0100002 19:3.2539999 20:5.632 #
-0.5000013186035223711201069818344 1:6.1139998 2:2.1830001 3:1.747 4:3.9300001 5:7.2049999 6:5.4590001 7:1.747 8:9.1700001 9:4.585 10:11.354 11:4.585 12:5.0219998 13:3.493 14:1.965 15:2.6199999 16:6.987 17:5.895 18:7.2049999 19:2.6199999 20:6.1139998 #
-0.5000013186035223711201069818344 1:7.4920001 2:0.65100002 3:2.28 4:3.5829999 5:5.8629999 6:6.5149999 7:2.6059999 8:5.2119999 9:6.1890001 10:14.332 11:2.6059999 12:3.5829999 13:2.9319999 14:3.5829999 15:5.8629999 16:5.2119999 17:7.4920001 18:9.4460001 19:1.303 20:3.257 #
-0.39622940905702253022724335096427 1:6.9369998 2:1.309 3:5.2360001 4:3.4030001 5:6.9369998 6:6.5450001 7:1.4400001 8:9.2930002 9:6.0209999 10:10.864 11:1.4400001 12:4.0580001 13:4.5809999 14:3.141 15:3.927 16:7.0679998 17:4.974 18:9.2930002 19:0.65399998 20:2.8800001 #
0.82796036323503829912340279406635 1:6.1950002 2:1.1059999 3:3.7609999 4:8.1859999 5:5.7519999 6:5.3099999 7:2.8759999 8:7.0799999 9:7.3010001 10:9.9560003 11:2.8759999 12:5.0879998 13:6.1950002 14:4.4250002 15:2.8759999 16:7.0799999 17:3.0969999 18:6.6370001 19:1.327 20:2.8759999 #
-0.5000013186035223711201069818344 1:5.0209999 2:0.83700001 3:6.0669999 4:8.9960003 5:3.138 6:5.0209999 7:1.046 8:8.7869997 9:8.7869997 10:7.322 11:1.255 12:4.184 13:7.9499998 14:3.9749999 15:4.8119998 16:7.1129999 17:4.8119998 18:6.276 19:1.464 20:3.138 #
-0.5000013186035223711201069818344 1:5.0370002 2:1.3329999 3:7.4070001 4:5.9260001 5:5.3330002 6:4.1479998 7:1.1849999 8:6.9629998 9:6.5190001 10:12.741 11:2.6670001 12:5.0370002 13:3.852 14:3.1110001 15:4.4439998 16:6.2220001 17:5.1849999 18:6.3699999 19:1.3329999 20:5.1849999 #
-0.5000013186035223711201069818344 1:7.0339999 2:1.711 3:4.7529998 4:9.5059996 5:3.802 6:4.9429998 7:1.331 8:3.612 9:9.5059996 10:9.316 11:2.471 12:3.4219999 13:7.0339999 14:6.0840001 15:3.612 16:5.513 17:3.9920001 18:7.414 19:1.521 20:3.4219999 #
1.6196969424126756997850407060469 1:3.155 2:1.262 3:2.5239999 4:4.7319999 5:5.994 6:5.994 7:2.2079999 8:10.41 9:3.7850001 10:12.303 11:3.155 12:3.155 13:4.4159999 14:2.839 15:3.155 16:5.994 17:6.625 18:6.9400001 19:4.7319999 20:6.625 #
1.3547618878505525152888822049135 1:7.1020002 2:3.125 3:0.28400001 4:5.9660001 5:7.9549999 6:6.25 7:1.42 8:6.25 9:2.273 10:7.6700001 11:4.2610002 12:4.8299999 13:5.3979998 14:2.5569999 15:2.8410001 16:7.3860002 17:7.9549999 18:8.8070002 19:1.989 20:5.6820002 #
1.1476654709509790386334771028487 1:5.5300002 2:5.0689998 3:2.3039999 4:5.5300002 5:4.6079998 6:6.9120002 7:1.8430001 8:6.4520001 9:6.4520001 10:6.9120002 11:2.7650001 12:7.8340001 13:4.1469998 14:3.687 15:4.1469998 16:6.9120002 17:5.5300002 18:5.9910002 19:2.7650001 20:4.6079998 #
-0.5000013186035223711201069818344 1:7.9229999 2:2.4590001 3:3.0050001 4:4.3720002 5:4.645 6:5.7379999 7:1.0930001 8:7.1040001 9:6.2839999 10:9.0159998 11:4.3720002 12:5.191 13:3.825 14:2.7320001 15:5.191 16:10.929 17:6.5570002 18:4.9180002 19:2.4590001 20:2.1860001 #
-0.5000013186035223711201069818344 1:6.586 2:2.253 3:2.253 4:4.506 5:6.2389998 6:7.6259999 7:2.0799999 8:4.6789999 9:3.6400001 10:12.305 11:2.773 12:3.4660001 13:2.9460001 14:2.5999999 15:3.9860001 16:9.1850004 17:6.4120002 18:9.0120001 19:2.9460001 20:4.506 #
-0.5000013186035223711201069818344 1:8.4460001 2:2.365 3:2.365 4:3.885 5:5.743 6:7.0949998 7:0.84500003 8:6.4190001 9:3.5469999 10:13.007 11:3.0409999 12:4.223 13:3.7160001 14:3.2090001 15:2.365 16:8.2770004 17:5.4050002 18:7.4320002 19:2.7030001 20:5.9120002 #
0.65446562020415921523408542270772 1:6.237 2:1.8710001 3:6.0289998 4:8.9399996 5:5.4050002 6:6.8610001 7:1.663 8:6.0289998 9:7.0689998 10:7.9000001 11:1.247 12:3.326 13:7.0689998 14:3.95 15:6.237 16:7.0689998 17:2.2869999 18:5.8210001 19:2.079 20:2.911 #
-0.5000013186035223711201069818344 1:4.3049998 2:1.37 3:5.0879998 4:8.0229998 5:7.632 6:6.2620001 7:0.97799999 8:8.0229998 9:3.523 10:8.2189999 11:2.74 12:4.5009999 13:5.4790001 14:2.9349999 15:5.6750002 16:8.2189999 17:6.2620001 18:7.2410002 19:0.97799999 20:2.5439999 #
0.22615862524564428470696952899743 1:5.085 2:3.3900001 3:4.237 4:8.0509996 5:5.5079999 6:5.9320002 7:1.6950001 8:5.5079999 9:9.7460003 10:10.593 11:2.119 12:2.5420001 13:5.085 14:5.085 15:2.5420001 16:7.6269999 17:3.8139999 18:8.0509996 19:2.119 20:1.271 #
-0.5000013186035223711201069818344 1:4.1919999 2:4.1919999 3:5.5890002 4:6.7859998 5:6.1880002 6:4.79 7:3.3929999 8:4.9899998 9:5.3889999 10:8.3830004 11:2.994 12:4.1919999 13:5.1900001 14:2.7939999 15:4.3909998 16:7.9840002 17:5.3889999 18:7.3850002 19:0.79799998 20:4.9899998 #
-0.5000013186035223711201069818344 1:6.2259998 2:3.5020001 3:5.6420002 4:8.3660002 5:3.3069999 6:7.7820001 7:1.946 8:6.0310001 9:5.2529998 10:6.4200001 11:3.6960001 12:3.891 13:6.0310001 14:3.1129999 15:6.809 16:5.0580001 17:3.891 18:6.4200001 19:2.1400001 20:4.4749999 #
-0.5000013186035223711201069818344 1:6.901 2:4.5570002 3:5.8590002 4:8.5939999 5:5.7290001 6:6.5100002 7:2.0829999 8:3.125 9:5.7290001 10:7.1609998 11:3.125 12:4.5570002 13:5.0780001 14:2.865 15:4.6880002 16:5.8590002 17:7.0310001 18:4.427 19:1.1720001 20:4.948 #
2.4000063292969073813765135128051 1:7.1599998 2:0.23899999 3:4.7729998 4:8.3529997 5:6.4439998 6:4.7729998 7:2.8640001 8:10.979 9:5.4889998 10:8.592 11:2.3870001 12:4.7729998 13:1.909 14:2.625 15:2.3870001 16:8.8310003 17:8.1149998 18:6.2049999 19:0.23899999 20:2.8640001 #
-0.5000013186035223711201069818344 1:5.7509999 2:0.639 3:5.112 4:5.112 5:3.8340001 6:7.348 7:1.278 8:7.348 9:7.987 10:11.182 11:1.597 12:5.112 13:4.473 14:4.1529999 15:5.112 16:7.987 17:4.7919998 18:7.987 19:1.278 20:1.9170001 #
-0.5000013186035223711201069818344 1:5.9239998 2:1.403 3:5.7680001 4:6.5469999 5:3.585 6:5.8460002 7:2.6500001 8:5.3779998 9:6.0019999 10:12.159 11:1.793 12:3.585 13:4.9099998 14:6.3909998 15:4.599 16:9.4309998 17:4.4429998 18:6.8590002 19:1.169 20:1.559 #
-0.5000013186035223711201069818344 1:7.4699998 2:0.241 3:4.8189998 4:3.855 5:4.3369999 6:6.506 7:2.1689999 8:10.843 9:3.855 10:13.253 11:3.6140001 12:4.0960002 13:2.651 14:5.0599999 15:5.0599999 16:6.2649999 17:5.783 18:6.0240002 19:2.4100001 20:1.687 #
0.26725489354856152290906834423367 1:6.8309999 2:3.552 3:6.0110002 4:6.8309999 5:3.825 6:6.5570002 7:2.7320001 8:6.8309999 9:6.2839999 10:5.7379999 11:2.7320001 12:3.552 13:6.5570002 14:1.3660001 15:5.191 16:3.825 17:5.4640002 18:9.0159998 19:2.7320001 20:4.3720002 #
0.46294044818108909256082483807404 1:4.3010001 2:7.527 3:4.8390002 4:6.4520001 5:4.8390002 6:4.8390002 7:1.075 8:6.4520001 9:3.2260001 10:6.4520001 11:2.151 12:8.0649996 13:4.8390002 14:1.075 15:6.4520001 16:8.0649996 17:6.4520001 18:3.2260001 19:1.075 20:8.6020002 #
0.8180104230842377699417511394131 1:6.1539998 2:6.6669998 3:6.1539998 4:8.7180004 5:3.0769999 6:6.1539998 7:2.0510001 8:3.5899999 9:7.6919999 10:7.6919999 11:1.026 12:4.6149998 13:5.1279998 14:4.1030002 15:2.0510001 16:8.2049999 17:5.6409998 18:4.6149998 19:1.026 20:5.6409998 #
-0.5000013186035223711201069818344 1:10.241 2:0.90399998 3:2.711 4:5.1199999 5:3.313 6:6.0240002 7:4.5180001 8:3.9159999 9:3.313 10:8.434 11:3.9159999 12:3.6140001 13:4.8189998 14:4.5180001 15:5.4219999 16:8.1330004 17:6.3249998 18:9.3369999 19:0.301 20:5.1199999 #
-0.5000013186035223711201069818344 1:6.5040002 2:0 3:4.0650001 4:8.1300001 5:5.691 6:2.4389999 7:2.4389999 8:8.9429998 9:5.691 10:6.5040002 11:4.8779998 12:5.691 13:1.626 14:5.691 15:4.0650001 16:7.3169999 17:6.5040002 18:6.5040002 19:1.626 20:5.691 #
-0.5000013186035223711201069818344 1:6.7160001 2:0 3:7.4629998 4:11.194 5:1.493 6:4.4780002 7:4.4780002 8:5.9699998 9:7.4629998 10:8.2089996 11:2.2390001 12:2.2390001 13:2.9849999 14:2.2390001 15:2.9849999 16:8.2089996 17:7.4629998 18:6.7160001 19:2.9849999 20:4.4780002 #
2.4000063292969073813765135128051 1:5.8730001 2:1.4680001 3:4.7309999 4:3.915 5:5.2199998 6:5.2199998 7:1.142 8:8.809 9:5.0570002 10:9.9510002 11:2.6099999 12:4.8940001 13:5.546 14:3.4260001 15:4.2410002 16:9.625 17:7.8299999 18:6.6880002 19:1.4680001 20:2.2839999 #
-0.5000013186035223711201069818344 1:21.326 2:0.86500001 3:2.017 4:2.3050001 5:4.323 6:11.527 7:1.729 8:4.8990002 9:0.28799999 10:12.68 11:2.5940001 12:2.017 13:7.493 14:1.441 15:4.6110001 16:3.7460001 17:3.7460001 18:8.0690002 19:2.017 20:2.3050001 #
1.0213261354233607036690045788419 1:6.2750001 2:3.204 3:3.605 4:7.21 5:3.204 6:8.8120003 7:2.1359999 8:5.474 9:6.4089999 10:10.013 11:2.5369999 12:5.073 13:3.7379999 14:2.5369999 15:4.539 16:9.2119999 17:4.9400001 18:6.9429998 19:1.869 20:2.27 #
-0.5000013186035223711201069818344 1:7.132 2:0.759 3:4.0970001 4:5.0079999 5:5.9180002 6:6.98 7:1.3660001 8:5.7659998 9:4.8559999 10:10.015 11:3.642 12:3.0350001 13:6.5250001 14:1.973 15:4.704 16:8.4980001 17:7.132 18:7.2839999 19:1.973 20:3.3380001 #
-0.5000013186035223711201069818344 1:6.8210001 2:0.87099999 3:4.3540001 4:5.0799999 5:4.0640001 6:6.0960002 7:1.451 8:6.8210001 9:4.4990001 10:10.885 11:2.7579999 12:4.79 13:4.4990001 14:3.483 15:5.0799999 16:9.724 17:5.8060002 18:6.3860002 19:1.742 20:4.79 #
-0.5000013186035223711201069818344 1:6.8699999 2:2.4430001 3:3.5109999 4:5.954 5:5.3439999 6:4.8850002 7:2.1370001 8:5.954 9:4.1220002 10:9.0080004 11:2.901 12:4.2750001 13:5.954 14:2.4430001 15:6.4120002 16:9.4659996 17:7.9390001 18:5.954 19:0.76300001 20:3.664 #
0.4440739527384712226343310703669 1:9.7010002 2:0.74599999 3:3.7309999 4:8.2089996 5:4.4780002 6:2.2390001 7:2.9849999 8:2.9849999 9:3.7309999 10:8.2089996 11:5.224 12:2.9849999 13:3.7309999 14:3.7309999 15:8.2089996 16:3.7309999 17:7.4629998 18:11.94 19:0.74599999 20:5.224 #
0.9664861450800195097343703309889 1:6.4520001 2:0.80599999 3:6.4520001 4:7.6609998 5:4.4349999 6:3.6289999 7:2.016 8:6.4520001 9:6.0479999 10:12.5 11:3.2260001 12:2.4189999 13:2.016 14:2.4189999 15:3.2260001 16:4.8390002 17:7.6609998 18:7.2579999 19:2.016 20:8.4680004 #
0.58893793071602118516238988377154 1:9.132 2:1.37 3:2.283 4:4.1100001 5:3.1960001 6:8.6759996 7:1.37 8:5.4790001 9:3.1960001 10:8.6759996 11:4.1100001 12:2.74 13:5.9359999 14:9.132 15:2.74 16:15.525 17:5.9359999 18:4.566 19:0.45699999 20:1.37 #
-0.5000013186035223711201069818344 1:17.098 2:0.69099998 3:5.0089998 4:3.9719999 5:3.2820001 6:7.7719998 7:1.727 8:5.3540001 9:0.51800001 10:12.608 11:1.036 12:1.554 13:4.3179998 14:3.8 15:7.2540002 16:4.836 17:6.908 18:9.8450003 19:1.9 20:0.51800001 #
-0.5000013186035223711201069818344 1:4.4120002 2:4.4120002 3:5.882 4:7.3530002 5:1.471 6:8.8240004 7:2.941 8:2.941 9:11.765 10:11.765 11:4.4120002 12:2.941 13:2.941 14:0 15:1.471 16:7.3530002 17:7.3530002 18:8.8240004 19:0 20:2.941 #
-0.5000013186035223711201069818344 1:14.479 2:0.193 3:3.668 4:2.3169999 5:3.8610001 6:11.004 7:2.51 8:7.1430001 9:0.579 10:14.672 11:3.089 12:1.737 13:4.6329999 14:3.089 15:5.2119999 16:4.4400001 17:3.8610001 18:9.2659998 19:2.1240001 20:2.1240001 #
2.4000063292969073813765135128051 1:6.9770002 2:2.7479999 3:5.0739999 4:2.96 5:5.9200001 6:4.651 7:2.5369999 8:7.822 9:5.2849998 10:11.416 11:3.8050001 12:3.5940001 13:3.5940001 14:2.5369999 15:4.0170002 16:8.6680002 17:6.7649999 18:7.6110001 19:1.057 20:2.96 #
-0.5000013186035223711201069818344 1:5.7140002 2:5.2379999 3:3.8099999 4:6.1900001 5:5.2379999 6:3.8099999 7:2.8570001 8:4.7620001 9:5.2379999 10:10.952 11:1.429 12:4.2859998 13:3.8099999 14:6.1900001 15:3.8099999 16:7.1430001 17:5.2379999 18:9.0480003 19:1.905 20:3.3329999 #
-0.5000013186035223711201069818344 1:4.158 2:3.5639999 3:2.7720001 4:6.1389999 5:6.9310002 6:5.3470001 7:2.97 8:7.1290002 9:7.3270001 10:9.5050001 11:0.792 12:5.5450001 13:4.3559999 14:4.7519999 15:2.97 16:8.1190004 17:5.743 18:6.9310002 19:1.386 20:3.5639999 #
-0.5000013186035223711201069818344 1:6.5799999 2:1.396 3:4.6859999 4:7.5770001 5:5.9819999 6:6.4809999 7:2.1930001 8:6.1810002 9:5.9819999 10:9.3719997 11:2.6919999 12:4.0879998 13:5.2839999 14:4.0879998 15:5.184 16:7.3779998 17:4.2870002 18:5.3839998 19:1.396 20:3.789 #
2.2744421343787735168007202446461 1:10.27 2:0.81099999 3:2.7030001 4:2.4319999 5:3.243 6:9.4589996 7:1.081 8:9.4589996 9:1.622 10:15.946 11:3.7839999 12:1.622 13:5.4050002 14:2.973 15:4.0539999 16:3.243 17:5.4050002 18:11.622 19:3.5139999 20:1.351 #
0.56408017900592832827300071585341 1:15.493 2:0 3:4.2249999 4:8.4510002 5:0 6:4.2249999 7:0 8:9.8590002 9:4.2249999 10:9.8590002 11:1.408 12:1.408 13:1.408 14:1.408 15:4.2249999 16:9.8590002 17:4.2249999 18:15.493 19:1.408 20:2.8169999 #
-0.5000013186035223711201069818344 1:11.573 2:2.1700001 3:2.7119999 4:2.5320001 5:4.882 6:8.4989996 7:1.447 8:3.2550001 9:1.266 10:16.816999 11:3.6170001 12:2.1700001 13:5.6059999 14:4.1589999 15:4.882 16:6.691 17:6.5100002 18:6.8720002 19:2.8929999 20:1.447 #
-0.5000013186035223711201069818344 1:11.329 2:1.525 3:1.961 4:3.2679999 5:6.3179998 6:8.0609999 7:2.1789999 8:3.4860001 9:2.3970001 10:17.865 11:2.3970001 12:1.961 13:5.0110002 14:3.4860001 15:4.3569999 16:7.625 17:5.2290001 18:6.9720001 19:1.525 20:3.05 #
-0.5000013186035223711201069818344 1:9.8839998 2:0.29100001 3:1.744 4:2.6159999 5:4.0700002 6:6.105 7:0.87199998 8:10.465 9:1.744 10:19.476999 11:4.9419999 12:3.779 13:4.9419999 14:3.779 15:3.4879999 16:4.651 17:4.0700002 18:9.5930004 19:1.4529999 20:2.0350001 #
0.33519745984045412612317704770248 1:4.8299999 2:3.977 3:3.4089999 4:7.6700001 5:3.6930001 6:5.3979998 7:2.5569999 8:3.977 9:6.5339999 10:11.364 11:1.42 12:2.273 13:4.2610002 14:6.5339999 15:5.9660001 16:7.9549999 17:5.1139998 18:9.375 19:0.852 20:2.8410001 #
1.3654502415918718938314668776002 1:5.1869998 2:1.66 3:5.3940001 4:7.8839998 5:6.8460002 6:4.3569999 7:2.2820001 8:6.224 9:7.2610002 10:9.7510004 11:3.3199999 12:5.809 13:4.9790001 14:4.1490002 15:4.7719998 16:6.0170002 17:3.9419999 18:5.6020002 19:0.82999998 20:3.734 #
0.060655075097559144059466973430972 1:5.8579998 2:1.255 3:5.8579998 4:6.276 5:7.5310001 6:2.51 7:1.674 8:6.6950002 9:6.276 10:8.368 11:2.092 12:6.276 13:4.6030002 14:3.3469999 15:2.9289999 16:8.7869997 17:4.6030002 18:8.368 19:1.255 20:5.4390001 #
-0.5000013186035223711201069818344 1:8.2019997 2:2.3800001 3:4.4200001 4:6.2049999 5:4.4619999 6:7.8200002 7:2.592 8:3.8670001 9:2.8050001 10:10.327 11:2.3800001 12:2.8050001 13:8.0749998 14:2.7620001 15:7.6919999 16:8.2019997 17:4.2919998 18:7.0120001 19:1.402 20:2.2950001 #
-0.5000013186035223711201069818344 1:3.5420001 2:2.4519999 3:6.54 4:5.4499998 5:7.3569999 6:6.2670002 7:2.4519999 8:8.1739998 9:5.4499998 10:9.809 11:2.1800001 12:4.0869999 13:3.8150001 14:2.1800001 15:4.9050002 16:5.4499998 17:3.27 18:9.809 19:1.9069999 20:4.9050002 #
-0.5000013186035223711201069818344 1:5.5079999 2:1.165 3:5.9320002 4:8.6859999 5:6.25 6:2.648 7:1.483 8:9.2159996 9:5.5079999 10:12.606 11:2.4360001 12:5.7199998 13:4.0250001 14:4.4489999 15:2.8599999 16:7.5209999 17:4.131 18:5.7199998 19:0.95300001 20:3.178 #
0.5498971235495516696190065886185 1:11.013 2:1.762 3:5.7270002 4:7.0479999 5:2.8629999 6:7.7090001 7:1.322 8:1.982 9:1.982 10:18.282 11:0.66100001 12:1.322 13:7.4889998 14:3.744 15:7.4889998 16:6.388 17:3.0840001 18:7.0479999 19:1.762 20:1.322 #
1.0299973144534904090363625073223 1:9.5469999 2:2.3870001 3:4.0570002 4:5.2509999 5:3.5799999 6:9.5469999 7:2.148 8:4.5349998 9:2.148 10:14.081 11:1.671 12:3.1029999 13:6.2049999 14:7.1599998 15:5.4889998 16:5.4889998 17:4.296 18:6.6830001 19:2.148 20:0.477 #
-0.5000013186035223711201069818344 1:9.9329996 2:0.191 3:4.0110002 4:5.8260002 5:2.865 6:7.4499998 7:1.528 8:7.927 9:4.1069999 10:11.557 11:3.3429999 12:2.674 13:5.2529998 14:3.5339999 15:4.8709998 16:5.6350002 17:5.158 18:9.4560003 19:2.006 20:2.674 #
0.33493829927634499732391759607708 1:4.8600001 2:1.869 3:7.29 4:8.224 5:5.6069999 6:6.1680002 7:3.178 8:7.29 9:7.664 10:8.7849998 11:2.6170001 12:4.2989998 13:4.4860001 14:2.4300001 15:5.421 16:5.421 17:3.7379999 18:5.421 19:0.74800003 20:4.4860001 #
-0.5000013186035223711201069818344 1:10.724 2:1.8099999 3:3.016 4:4.96 5:2.8150001 6:8.3109999 7:2.2119999 8:3.4849999 9:2.346 10:18.767 11:1.206 12:2.279 13:5.7639999 14:5.4289999 15:5.2280002 16:6.3670001 17:4.5580001 18:6.434 19:1.8099999 20:2.48 #
-0.5000013186035223711201069818344 1:10.738 2:1.2079999 3:3.221 4:6.8460002 5:3.0869999 6:7.3829999 7:2.2820001 8:4.2950001 9:3.7579999 10:12.617 11:2.2820001 12:1.745 13:4.698 14:4.8319998 15:7.9190001 16:6.309 17:3.8929999 18:7.651 19:1.6109999 20:3.6240001 #
-0.5000013186035223711201069818344 1:5.085 2:0.565 3:7.9099998 4:3.9549999 5:6.7800002 6:9.04 7:1.13 8:3.3900001 9:9.04 10:6.7800002 11:0.565 12:6.2150002 13:2.26 14:4.52 15:7.3449998 16:5.085 17:5.6500001 18:7.3449998 19:2.26 20:5.085 #
-0.5000013186035223711201069818344 1:18.349001 2:0 3:1.835 4:1.835 5:7.3390002 6:10.092 7:0.917 8:7.3390002 9:4.5869999 10:17.431 11:2.7520001 12:1.835 13:0 14:2.7520001 15:3.6700001 16:4.5869999 17:0.917 18:8.257 19:4.5869999 20:0.917 #
-0.5000013186035223711201069818344 1:5.217 2:0.87 3:0 4:4.348 5:2.609 6:8.6960001 7:1.739 8:6.9569998 9:11.304 10:13.913 11:0.87 12:5.217 13:2.609 14:6.0869999 15:2.609 16:9.5649996 17:2.609 18:6.0869999 19:0 20:8.6960001 #
2.4000063292969073813765135128051 1:7.7880001 2:1.947 3:3.717 4:5.8410001 5:3.1860001 6:6.9029999 7:3.1860001 8:12.212 9:4.4250002 10:10.973 11:2.1240001 12:4.4250002 13:3.717 14:3.3629999 15:5.3099999 16:5.3099999 17:4.6020002 18:7.6110001 19:1.062 20:2.3010001 #
0.45905613540384837545360596777755 1:6.5679998 2:1.271 3:4.6609998 4:7.6269999 5:2.119 6:8.8979998 7:2.3310001 8:6.3559999 9:5.085 10:9.5340004 11:2.119 12:4.237 13:3.8139999 14:2.3310001 15:7.415 16:8.0509996 17:4.237 18:8.6859999 19:1.483 20:3.178 #
-0.5000013186035223711201069818344 1:8.1890001 2:1.961 3:5.0749998 4:4.96 5:5.3060002 6:6.5739999 7:2.7679999 8:6.6900001 9:4.2680001 10:10.15 11:4.152 12:3.806 13:3.806 14:2.076 15:4.2680001 16:6.6900001 17:6.4590001 18:8.8809996 19:0.92299998 20:2.9990001 #
-0.5000013186035223711201069818344 1:8.6960001 2:2.609 3:3.826 4:5.217 5:4.8699999 6:5.3909998 7:1.913 8:9.5649996 9:4.5219998 10:9.5649996 11:2.609 12:4.348 13:3.3039999 14:2.609 15:3.652 16:8.6960001 17:5.0430002 18:9.3909998 19:1.043 20:3.1300001 #
-0.5000013186035223711201069818344 1:8.0830002 2:2.309 3:6.0050001 4:7.1589999 5:5.7740002 6:6.928 7:3.6949999 8:6.2360001 9:3.9260001 10:9.2379999 11:3.233 12:3.0020001 13:3.233 14:3.6949999 15:6.467 16:6.0050001 17:4.388 18:7.3899999 19:1.155 20:2.079 #
0.1188734406689164191384122659656 1:9.8839998 2:1.357 3:3.6819999 4:7.7519999 5:4.8449998 6:4.8449998 7:4.0700002 8:2.326 9:4.2639999 10:16.278999 11:1.744 12:1.744 13:6.5890002 14:3.8759999 15:6.9770002 16:6.2020001 17:2.7130001 18:6.395 19:1.357 20:3.1010001 #
0.47645166200100291797880913691188 1:3.073 2:1.655 3:2.3640001 4:1.891 5:4.0190001 6:6.619 7:2.128 8:9.9289999 9:8.0380001 10:9.9289999 11:8.0380001 12:8.9829998 13:2.3640001 14:2.128 15:2.3640001 16:6.8559999 17:5.2010002 18:4.0190001 19:1.891 20:8.5109997 #
0.6699109400235745415130850233254 1:9.033 2:0.792 3:6.973 4:6.4980001 5:3.487 6:9.6669998 7:1.585 8:3.803 9:3.3280001 10:9.033 11:2.536 12:1.585 13:6.4980001 14:3.645 15:7.7649999 16:3.803 17:4.1199999 18:6.8150001 19:3.9619999 20:5.0710001 #
-0.5000013186035223711201069818344 1:7.224 2:0.64899999 3:4.8699999 4:7.6300001 5:4.3829999 6:7.3860002 7:3.1659999 8:3.8150001 9:4.0580001 10:12.987 11:1.867 12:1.299 13:9.0909996 14:2.76 15:6.6560001 16:7.7919998 17:4.9510002 18:6.8179998 19:1.0549999 20:1.5420001 #
-0.5000013186035223711201069818344 1:8.6090002 2:1.987 3:3.974 4:8.6090002 5:4.6360002 6:5.2979999 7:1.987 8:1.987 9:2.6489999 10:13.907 11:2.6489999 12:1.325 13:5.96 14:3.3110001 15:7.2849998 16:10.596 17:3.3110001 18:7.2849998 19:1.987 20:2.6489999 #
-0.5000013186035223711201069818344 1:6.599 2:5.3299999 3:3.8069999 4:7.1069999 5:6.8530002 6:4.822 7:1.777 8:5.3299999 9:4.5689998 10:14.975 11:1.777 12:2.5380001 13:7.868 14:3.046 15:4.5689998 16:5.0760002 17:3.553 18:6.8530002 19:1.2690001 20:2.2839999 #
2.4000063292969073813765135128051 1:10.04 2:1.0039999 3:5.2210002 4:6.6269999 5:3.0120001 6:8.6350002 7:2.6099999 8:4.618 9:6.4260001 10:10.643 11:4.4180002 12:3.0120001 13:2.8110001 14:3.0120001 15:4.8189998 16:7.0279999 17:5.02 18:8.2329998 19:0.80299997 20:2.0079999 #
0.25552611484049647661009885268868 1:9.9449997 2:0.73699999 3:6.6300001 4:7.3660002 5:3.131 6:5.7090001 7:2.3940001 8:5.3410001 9:6.4460001 10:8.2869997 11:3.6830001 12:2.3940001 13:3.4990001 14:1.842 15:6.2620001 16:8.1029997 17:8.1029997 18:8.4709997 19:0.73699999 20:0.921 #
0.20683399734679625003863634447043 1:4.6479998 2:1.499 3:4.348 4:5.9970002 5:4.4980001 6:5.5469999 7:2.099 8:6.1469998 9:6.7470002 10:7.796 11:3.448 12:5.697 13:4.348 14:4.948 15:4.0479999 16:7.1960001 17:7.1960001 18:8.9960003 19:1.799 20:2.9990001 #
-0.5000013186035223711201069818344 1:5.921 2:0.43900001 3:6.579 4:4.3860002 5:4.3860002 6:7.4559999 7:2.1930001 8:7.0180001 9:7.237 10:8.9910002 11:3.5090001 12:5.7020001 13:4.605 14:2.8510001 15:4.8249998 16:7.4559999 17:6.3600001 18:5.263 19:1.096 20:3.7279999 #
-0.5000013186035223711201069818344 1:8.0209999 2:2.4059999 3:4.8130002 4:8.2889996 5:2.674 6:6.4169998 7:2.1389999 8:9.0909996 9:7.2189999 10:8.8240004 11:5.348 12:4.2779999 13:3.2090001 14:1.604 15:5.348 16:6.684 17:6.4169998 18:4.2779999 19:1.337 20:1.604 #
-0.5000013186035223711201069818344 1:10.256 2:2.5639999 3:6.4099998 4:6.1539998 5:2.5639999 6:6.1539998 7:3.5899999 8:6.4099998 9:7.9489999 10:6.1539998 11:2.8210001 12:3.846 13:3.5899999 14:4.6149998 15:5.1279998 16:6.6669998 17:5.3850002 18:5.1279998 19:2.3080001 20:2.3080001 #
0.9834387440453826734199083148269 1:8.7690001 2:1.1799999 3:4.3839998 4:8.0939999 5:4.8899999 6:6.7449999 7:1.518 8:2.0239999 9:4.0469999 10:13.491 11:3.204 12:1.686 13:5.3959999 14:4.0469999 15:6.7449999 16:10.287 17:5.059 18:5.3959999 19:0.84299999 20:2.1919999 #
-0.22646744647449415510642722892953 1:10.738 2:1.007 3:3.3559999 4:3.02 5:6.04 6:8.3889999 7:2.6849999 8:6.711 9:2.6849999 10:7.3829999 11:3.691 12:3.691 13:4.362 14:3.02 15:3.3559999 16:8.7250004 17:7.3829999 18:9.7320004 19:1.678 20:2.349 #
0.14453560883113431012603200542799 1:4.6950002 2:0.704 3:3.404 4:4.5770001 5:2.3469999 6:5.869 7:3.052 8:5.2820001 9:6.573 10:5.7509999 11:2.582 12:10.798 13:10.563 14:8.5679998 15:2.23 16:11.033 17:4.9299998 18:4.9299998 19:0.58700001 20:1.526 #
