SVM-light Version V6.02
2 # kernel type
3 # kernel parameter -d 
0.02 # kernel parameter -g 
1 # kernel parameter -s 
1 # kernel parameter -r 
empty# kernel parameter -u 
20 # highest feature index 
1104 # number of training documents 
364 # number of support vectors plus 1 
0.85560113 # threshold b, each following line is a SV (starting with alpha*y)
-0.18007225075393423763259193037811 1:5.7690001 2:1.648 3:5.2199998 4:4.9450002 5:5.2199998 6:6.5929999 7:1.374 8:8.5159998 9:6.0440001 10:7.6919999 11:1.923 12:7.6919999 13:7.967 14:1.923 15:5.2199998 16:6.3189998 17:6.0440001 18:4.1209998 19:1.648 20:4.1209998 #
-0.23305549561012936510273618750944 1:6.9109998 2:1.22 3:1.423 4:4.8779998 5:7.724 6:9.3500004 7:1.016 8:7.52 9:3.2520001 10:11.992 11:3.4549999 12:2.846 13:4.6750002 14:4.2680001 15:4.2680001 16:7.1139998 17:5.2849998 18:8.9429998 19:1.22 20:2.642 #
-0.1421184698021815961954672502543 1:8.2130003 2:2.8989999 3:2.8989999 4:3.382 5:6.763 6:7.2459998 7:2.8989999 8:10.628 9:5.7969999 10:7.7290001 11:1.932 12:4.8309999 13:0.48300001 14:2.415 15:2.415 16:6.2800002 17:8.6960001 18:5.3140001 19:4.8309999 20:4.348 #
-0.36876744146316875472280116809998 1:3.7590001 2:0 3:4.1350002 4:1.88 5:6.0149999 6:6.7670002 7:1.5039999 8:12.03 9:5.263 10:15.789 11:5.6389999 12:1.88 13:3.7590001 14:2.632 15:5.263 16:7.5190001 17:5.263 18:6.7670002 19:1.5039999 20:2.632 #
-0.50000132133699493053313744894695 1:9.1110001 2:0.43399999 3:2.8199999 4:2.1689999 5:7.809 6:6.941 7:1.952 8:6.0739999 9:3.471 10:13.015 11:2.6029999 12:3.688 13:4.9889998 14:1.952 15:3.2539999 16:6.7249999 17:6.0739999 18:11.063 19:2.3859999 20:3.471 #
2.0000052853479797221325497957878 1:5.882 2:2.1670001 3:6.5019999 4:6.1919999 5:4.3340001 6:4.3340001 7:2.477 8:3.7149999 9:7.7399998 10:11.765 11:2.786 12:4.6440001 13:6.1919999 14:4.954 15:4.3340001 16:4.954 17:3.096 18:8.3590002 19:0.92900002 20:4.6440001 #
2.0000052853479797221325497957878 1:4.3740001 2:1.789 3:4.1750002 4:7.5549998 5:5.1690001 6:5.7649999 7:2.5840001 8:8.7480001 9:6.5609999 10:10.736 11:5.1690001 12:4.3740001 13:4.573 14:2.187 15:5.1690001 16:5.368 17:4.7709999 18:6.362 19:1.193 20:3.3800001 #
1.6529215403703312325944807525957 1:10.185 2:1.852 3:3.704 4:5.5560002 5:3.704 6:12.963 7:2.7780001 8:4.6300001 9:13.889 10:7.4070001 11:1.852 12:4.6300001 13:4.6300001 14:2.7780001 15:2.7780001 16:0.926 17:6.4809999 18:4.6300001 19:0.926 20:3.704 #
2.0000052853479797221325497957878 1:8.1450005 2:0.60299999 3:3.017 4:3.017 5:8.7480001 6:9.3509998 7:3.017 8:9.3509998 9:3.017 10:9.2010002 11:4.9770002 12:3.1670001 13:4.223 14:1.961 15:2.5639999 16:4.072 17:6.033 18:8.5970001 19:3.9219999 20:3.017 #
1.7570373944220034623242554516764 1:8.5369997 2:4.8779998 3:9.7559996 4:14.634 5:6.098 6:3.6589999 7:1.22 8:7.3169999 9:2.4389999 10:3.6589999 11:6.098 12:1.22 13:8.5369997 14:2.4389999 15:1.22 16:3.6589999 17:3.6589999 18:4.8779998 19:0 20:6.098 #
-0.50000132133699493053313744894695 1:6.2859998 2:1.143 3:8.2860003 4:6.5710001 5:4.8569999 6:4.5710001 7:2.286 8:4.8569999 9:9.4289999 10:10.286 11:2.8570001 12:4.8569999 13:6.5710001 14:2.8570001 15:5.1430001 16:2.8570001 17:4.5710001 18:5.7140002 19:2 20:4 #
-0.13932058794169685511654677156912 1:11.419 2:1.038 3:2.076 4:0.34599999 5:6.9200001 6:7.612 7:1.038 8:6.9200001 9:0.69199997 10:13.149 11:2.7679999 12:2.4219999 13:6.9200001 14:3.806 15:5.882 16:7.9580002 17:5.882 18:9.3430004 19:2.076 20:1.73 #
-0.3159497407614737518599667964736 1:4.1609998 2:0.55500001 3:5.9640002 4:7.7670002 5:3.1900001 6:5.8249998 7:2.0799999 8:11.512 9:8.0439997 10:9.0150003 11:2.7739999 12:6.796 13:3.6059999 14:1.387 15:5.4089999 16:4.4380002 17:5.8249998 18:6.5190001 19:0.83200002 20:4.3000002 #
2.0000052853479797221325497957878 1:10.728 2:0.57499999 3:3.0650001 4:5.1719999 5:7.6630001 6:7.6630001 7:1.149 8:6.1300001 9:4.0229998 10:11.686 11:4.2150002 12:2.49 13:3.448 14:3.8310001 15:3.8310001 16:5.9390001 17:5.5560002 18:6.8969998 19:2.49 20:3.448 #
2.0000052853479797221325497957878 1:5.7930002 2:1.517 3:2.6210001 4:4.6900001 5:5.6550002 6:5.9310002 7:2.345 8:9.1029997 9:6.6209998 10:11.31 11:4 12:2.8970001 13:4.276 14:1.793 15:3.724 16:10.621 17:6.0689998 18:5.6550002 19:2.345 20:3.0339999 #
2.0000052853479797221325497957878 1:9.7480001 2:0.48699999 3:6.1739998 4:6.9050002 5:3.8180001 6:7.8800001 7:2.7620001 8:4.7930002 9:4.4679999 10:9.5860004 11:1.95 12:3.3310001 13:5.4429998 14:3.737 15:6.6609998 16:5.849 17:4.8740001 18:7.6360002 19:1.056 20:2.8429999 #
-0.50000132133699493053313744894695 1:9.967 2:0.33199999 3:7.309 4:6.3119998 5:4.3189998 6:9.6350002 7:2.658 8:3.987 9:3.654 10:10.631 11:2.326 12:1.993 13:4.3189998 14:1.993 15:8.6379995 16:4.3189998 17:6.645 18:7.6409998 19:0.66399997 20:2.658 #
-0.50000132133699493053313744894695 1:7.5469999 2:0.80900002 3:4.5819998 4:7.0079999 5:2.9649999 6:7.5469999 7:2.6949999 8:5.6599998 9:4.0430002 10:10.782 11:2.9649999 12:3.5039999 13:5.3909998 14:5.9299998 15:6.4689999 16:4.5819998 17:3.7739999 18:11.59 19:0.53899997 20:1.617 #
-0.1417562811967527924839060915474 1:30.879 2:0.47499999 3:4.7509999 4:10.689 5:1.425 6:4.9879999 7:0.23800001 8:3.325 9:15.677 10:4.513 11:1.188 12:2.6129999 13:2.375 14:4.7509999 15:2.138 16:5.2259998 17:1.425 18:1.9 19:0.23800001 20:1.188 #
2.0000052853479797221325497957878 1:6.9460001 2:0.579 3:6.802 4:6.0780001 5:5.355 6:6.223 7:1.737 8:5.355 9:6.368 10:9.5509996 11:1.881 12:6.368 13:5.21 14:3.184 15:3.039 16:7.8150001 17:5.4990001 18:7.381 19:0.72399998 20:3.9070001 #
2.0000052853479797221325497957878 1:6.75 2:2 3:7.75 4:5.5 5:6.75 6:5.5 7:1.5 8:11 9:9.5 10:8.25 11:2 12:5 13:4.5 14:1 15:1.75 16:6.75 17:4.75 18:4.5 19:0.75 20:4.5 #
2.0000052853479797221325497957878 1:9.8360004 2:4.5079999 3:5.7379999 4:5.3280001 5:3.6889999 6:5.7379999 7:2.4590001 8:5.7379999 9:5.7379999 10:6.967 11:3.6889999 12:5.3280001 13:5.7379999 14:3.6889999 15:4.098 16:5.7379999 17:4.9180002 18:5.7379999 19:0.81999999 20:4.5079999 #
-0.1347792509115534886898757349627 1:8.1429996 2:2.28 3:5.8629999 4:7.8179998 5:1.303 6:3.9089999 7:1.6289999 8:0.977 9:12.052 10:16.287001 11:0.65100002 12:4.5599999 13:4.5599999 14:7.1659999 15:7.4920001 16:4.2350001 17:3.5829999 18:5.8629999 19:0.977 20:0.65100002 #
-0.50000132133699493053313744894695 1:7.2270002 2:1.1799999 3:6.342 4:8.2600002 5:3.9820001 6:6.6370001 7:2.655 8:3.835 9:5.3099999 10:8.8500004 11:2.655 12:3.54 13:4.1300001 14:3.835 15:5.7519999 16:6.4899998 17:5.9000001 18:7.375 19:1.327 20:4.7199998 #
-0.11233802278023016785191146027501 1:1.575 2:0.787 3:3.937 4:10.236 5:4.724 6:9.4490004 7:1.575 8:7.0869999 9:13.386 10:4.724 11:5.5120001 12:4.724 13:1.575 14:3.1500001 15:1.575 16:4.724 17:9.4490004 18:9.4490004 19:0 20:2.362 #
2.0000052853479797221325497957878 1:4.651 2:1.395 3:1.86 4:3.721 5:6.9770002 6:7.9070001 7:2.326 8:8.8369999 9:2.7909999 10:10.233 11:4.1859999 12:1.86 13:4.1859999 14:2.326 15:4.651 16:6.5120001 17:7.9070001 18:10.233 19:2.7909999 20:4.651 #
2.0000052853479797221325497957878 1:11.579 2:1.579 3:5.526 4:3.158 5:2.632 6:9.7370005 7:2.895 8:3.947 9:2.368 10:9.474 11:2.105 12:1.316 13:6.053 14:3.421 15:8.684 16:6.842 17:7.368 18:7.895 19:2.105 20:1.316 #
2.0000052853479797221325497957878 1:11.34 2:0.206 3:2.2679999 4:1.8559999 5:5.1550002 6:9.2779999 7:1.443 8:6.1859999 9:1.649 10:17.938 11:3.918 12:2.6800001 13:4.3299999 14:2.2679999 15:2.8870001 16:7.6290002 17:3.299 18:9.4849997 19:1.8559999 20:4.3299999 #
-0.50000132133699493053313744894695 1:9.9560003 2:1.549 3:3.0969999 4:3.0969999 5:7.3010001 6:10.398 7:1.549 8:6.8579998 9:3.54 10:10.841 11:4.8670001 12:2.8759999 13:5.3099999 14:2.2119999 15:3.7609999 16:4.4250002 17:3.319 18:6.8579998 19:3.319 20:4.8670001 #
-0.50000132133699493053313744894695 1:13.265 2:1.02 3:2.0409999 4:1.786 5:6.6329999 6:8.1630001 7:0.50999999 8:7.3979998 9:1.786 10:12.755 11:6.888 12:3.316 13:2.806 14:2.806 15:4.3369999 16:6.1220002 17:4.8470001 18:8.1630001 19:2.5510001 20:2.806 #
-0.50000132133699493053313744894695 1:10.56 2:0.64700001 3:2.3710001 4:3.8789999 5:6.25 6:8.8360004 7:1.293 8:7.7589998 9:3.664 10:12.931 11:4.9569998 12:3.017 13:3.017 14:2.586 15:4.526 16:5.8189998 17:5.8189998 18:7.3280001 19:2.586 20:2.155 #
2.0000052853479797221325497957878 1:7.5219998 2:1.0319999 3:6.0469999 4:8.8500004 5:4.4250002 6:6.6370001 7:3.0969999 8:3.9820001 9:5.605 10:8.7019997 11:2.802 12:3.392 13:4.4250002 14:3.54 15:5.3099999 16:6.342 17:5.1620002 18:7.0799999 19:1.327 20:4.7199998 #
2.0000052853479797221325497957878 1:7.6919999 2:1.748 3:5.2449999 4:7.3429999 5:4.1960001 6:6.6430001 7:1.923 8:6.8179998 9:6.119 10:10.664 11:1.923 12:4.7199998 13:4.895 14:5.4200001 15:4.895 16:4.3709998 17:4.895 18:6.4689999 19:0.52399999 20:3.497 #
2.0000052853479797221325497957878 1:6.013 2:2.2149999 3:4.7470002 4:7.2779999 5:3.4809999 6:5.0630002 7:2.848 8:5.6960001 9:7.9109998 10:10.759 11:1.899 12:4.7470002 13:6.329 14:4.1139998 15:3.4809999 16:5.3800001 17:4.7470002 18:7.9109998 19:1.899 20:3.4809999 #
-0.50000132133699493053313744894695 1:7.7340002 2:0.94999999 3:5.02 4:8.9549999 5:2.714 6:6.6490002 7:2.0350001 8:3.256 9:7.0560002 10:8.1409998 11:2.171 12:4.0710001 13:8.8199997 14:4.0710001 15:4.7490001 16:8.4119997 17:5.2919998 18:6.513 19:0.54299998 20:2.849 #
-0.50000132133699493053313744894695 1:8.533 2:1.067 3:6.4000001 4:5.5999999 5:3.467 6:8.533 7:3.733 8:3.2 9:5.5999999 10:7.1999998 11:1.867 12:3.733 13:5.0669999 14:5.5999999 15:7.467 16:7.7329998 17:4.8000002 18:5.3330002 19:0.26699999 20:4.8000002 #
-0.50000132133699493053313744894695 1:7.8119998 2:1.309 3:4.941 4:6.1659999 5:5.1939998 6:6.757 7:2.4070001 8:4.7719998 9:4.3920002 10:8.6149998 11:3.2520001 12:4.434 13:7.5170002 14:3.632 15:8.1499996 16:5.9970002 17:5.0679998 18:5.3210001 19:1.309 20:2.9560001 #
2.0000052853479797221325497957878 1:9.7629995 2:0.792 3:3.4300001 4:2.6389999 5:6.3319998 6:7.652 7:1.0549999 8:6.5960002 9:1.5829999 10:11.873 11:5.013 12:4.2220001 13:3.694 14:1.847 15:4.4850001 16:4.2220001 17:6.8600001 18:10.026 19:4.2220001 20:3.694 #
2.0000052853479797221325497957878 1:9.2309999 2:0.92299998 3:2.4619999 4:3.0769999 5:9.2309999 6:8 7:1.2309999 8:8 9:2.4619999 10:12.615 11:4.9229999 12:2.7690001 13:4.6149998 14:3.6919999 15:3.0769999 16:5.8460002 17:3.6919999 18:8.6149998 19:3.0769999 20:2.4619999 #
2.0000052853479797221325497957878 1:10.117 2:0.19499999 3:2.529 4:4.086 5:6.6149998 6:7.7820001 7:1.946 8:5.447 9:2.1400001 10:13.035 11:5.0580001 12:2.529 13:4.4749999 14:5.8369999 15:4.2800002 16:4.8639998 17:5.6420002 18:6.4200001 19:3.5020001 20:3.5020001 #
-0.20345025000109318025209859115421 1:5.204 2:1.357 3:4.5250001 4:8.3710003 5:6.5609999 6:4.5250001 7:2.7149999 8:7.9190001 9:5.4299998 10:12.217 11:3.846 12:4.9770002 13:2.7149999 14:4.2989998 15:3.1670001 16:3.846 17:5.882 18:7.9190001 19:2.036 20:2.4890001 #
-0.50000132133699493053313744894695 1:8.8669996 2:0.24600001 3:2.217 4:4.1869998 5:8.6210003 6:6.4039998 7:2.217 8:8.3739996 9:2.217 10:10.591 11:2.4630001 12:3.2019999 13:3.448 14:3.6949999 15:4.6799998 16:5.1719999 17:5.665 18:9.3599997 19:3.2019999 20:5.1719999 #
-0.33435052766352796327353757988021 1:6.8060002 2:1.571 3:3.665 4:3.665 5:7.3299999 6:5.7589998 7:3.141 8:9.6859999 9:3.665 10:11.257 11:3.665 12:3.4030001 13:3.4030001 14:2.618 15:3.4030001 16:7.3299999 17:7.0679998 18:6.8060002 19:2.0940001 20:3.665 #
2.0000052853479797221325497957878 1:6.6669998 2:1.026 3:5.1279998 4:7.4359999 5:3.5899999 6:5.3850002 7:2.0510001 8:5.1279998 9:6.6669998 10:7.4359999 11:2.0510001 12:2.3080001 13:7.9489999 14:5.3850002 15:8.2049999 16:7.4359999 17:5.3850002 18:5.3850002 19:1.795 20:3.5899999 #
1.518139449897159654057077204925 1:6.2259998 2:3.5020001 3:5.6420002 4:8.3660002 5:3.3069999 6:7.7820001 7:1.946 8:6.0310001 9:5.2529998 10:6.4200001 11:3.6960001 12:3.891 13:6.0310001 14:3.1129999 15:6.809 16:5.0580001 17:3.891 18:6.4200001 19:2.1400001 20:4.4749999 #
2.0000052853479797221325497957878 1:6.0190001 2:1.359 3:4.4660001 4:5.0489998 5:6.408 6:5.631 7:2.5239999 8:5.0489998 9:5.0489998 10:11.65 11:1.942 12:3.4949999 13:6.796 14:4.6599998 15:6.408 16:7.7670002 17:5.631 18:6.408 19:1.748 20:1.942 #
-0.50000132133699493053313744894695 1:7.6789999 2:1.669 3:7.3460002 4:7.0120001 5:3.0050001 6:7.0120001 7:1.669 8:6.8449998 9:6.177 10:10.017 11:2.1700001 12:3.6730001 13:4.007 14:4.1739998 15:5.8429999 16:5.1750002 17:4.6739998 18:8.3470001 19:0.33399999 20:3.1719999 #
-0.16711516747351543021871123073652 1:8.9329996 2:0.74400002 3:6.6999998 4:5.7069998 5:4.7150002 6:4.467 7:3.2260001 8:4.467 9:4.2179999 10:12.903 11:2.9779999 12:2.73 13:5.9549999 14:5.7069998 15:7.1960001 16:4.7150002 17:4.2179999 18:6.948 19:1.2410001 20:2.233 #
-0.50000132133699493053313744894695 1:10.39 2:0.64899999 3:8.4420004 4:9.7399998 5:3.8959999 6:5.1950002 7:1.948 8:5.8439999 9:4.5450001 10:9.7399998 11:2.5969999 12:4.5450001 13:4.5450001 14:4.5450001 15:5.1950002 16:1.948 17:4.5450001 18:9.0909996 19:0.64899999 20:1.948 #
2.0000052853479797221325497957878 1:12 2:0 3:2 4:3 5:3 6:9 7:2 8:11 9:0 10:20 11:5 12:4 13:1 14:5 15:6 16:6 17:2 18:6 19:1 20:2 #
-0.50000132133699493053313744894695 1:6.9330001 2:1.867 3:2.6670001 4:6.4000001 5:8 6:7.7329998 7:3.733 8:4.8000002 9:3.733 10:10.667 11:3.467 12:1.867 13:5.5999999 14:3.2 15:4.533 16:5.3330002 17:4.8000002 18:8.533 19:2.4000001 20:3.733 #
-0.36568186621271431269164509103575 1:8.1890001 2:1.961 3:5.0749998 4:4.96 5:5.3060002 6:6.5739999 7:2.7679999 8:6.6900001 9:4.2680001 10:10.15 11:4.152 12:3.806 13:3.806 14:2.076 15:4.2680001 16:6.6900001 17:6.4590001 18:8.8809996 19:0.92299998 20:2.9990001 #
-0.35637890836078789380536591124837 1:7.585 2:1.198 3:4.9899998 4:5.3889999 5:2.994 6:6.3870001 7:2.395 8:4.79 9:5.5890002 10:11.178 11:2.1960001 12:5.9879999 13:5.1900001 14:6.1880002 15:5.9879999 16:6.7859998 17:4.79 18:5.9879999 19:1.198 20:3.194 #
2.0000052853479797221325497957878 1:4.7059999 2:0.588 3:11.765 4:6.4710002 5:4.7059999 6:11.176 7:0.588 8:6.4710002 9:5.882 10:8.8240004 11:0.588 12:4.7059999 13:0.588 14:5.2940001 15:2.3529999 16:6.4710002 17:5.882 18:5.882 19:2.3529999 20:4.7059999 #
2.0000052853479797221325497957878 1:6.7160001 2:0 3:7.4629998 4:11.194 5:1.493 6:4.4780002 7:4.4780002 8:5.9699998 9:7.4629998 10:8.2089996 11:2.2390001 12:2.2390001 13:2.9849999 14:2.2390001 15:2.9849999 16:8.2089996 17:7.4629998 18:6.7160001 19:2.9849999 20:4.4780002 #
1.8242723789634482933763592882315 1:11.076 2:0.949 3:4.4299998 4:11.392 5:5.3800001 6:6.013 7:1.899 8:1.899 9:8.2279997 10:10.127 11:4.1139998 12:4.4299998 13:3.165 14:5.0630002 15:4.4299998 16:3.7969999 17:4.4299998 18:4.1139998 19:0.63300002 20:4.4299998 #
-0.50000132133699493053313744894695 1:7.7319999 2:3.0929999 3:5.1550002 4:7.2160001 5:3.608 6:6.7010002 7:3.0929999 8:8.7629995 9:7.7319999 10:6.1859999 11:2.5769999 12:4.6389999 13:4.6389999 14:3.0929999 15:4.1240001 16:6.1859999 17:5.1550002 18:6.7010002 19:1.031 20:2.5769999 #
-0.46607270232096353890227646843414 1:10.734 2:1.13 3:8.757 4:9.04 5:2.26 6:7.6269999 7:1.4119999 8:4.52 9:5.085 10:8.757 11:1.4119999 12:3.3900001 13:4.237 14:4.237 15:3.9549999 16:8.757 17:4.237 18:6.2150002 19:2.26 20:1.977 #
-0.50000132133699493053313744894695 1:5.8410001 2:1.168 3:4.2059999 4:8.4110003 5:4.9070001 6:6.0749998 7:1.168 8:8.1780005 9:8.4110003 10:8.1780005 11:3.2709999 12:4.2059999 13:5.1399999 14:2.336 15:4.4390001 16:6.776 17:4.4390001 18:7.4770002 19:0.935 20:4.4390001 #
1.8173325860764972805583283843589 1:5.3099999 2:1.327 3:2.2119999 4:1.327 5:7.9650002 6:8.8500004 7:2.2119999 8:7.9650002 9:1.327 10:12.832 11:5.3099999 12:1.77 13:3.54 14:3.9820001 15:6.6370001 16:6.6370001 17:5.7519999 18:6.6370001 19:3.54 20:4.8670001 #
1.831707417425975092939438582107 1:1.852 2:7.4070001 3:12.963 4:9.2589998 5:3.704 6:11.111 7:0 8:3.704 9:5.5560002 10:1.852 11:1.852 12:3.704 13:11.111 14:1.852 15:0 16:3.704 17:1.852 18:11.111 19:1.852 20:5.5560002 #
-0.36426550646467115157633998023812 1:5.9829998 2:0.85500002 3:4.4439998 4:6.4959998 5:5.4699998 6:4.4439998 7:3.0769999 8:3.9319999 9:4.9569998 10:12.479 11:2.7349999 12:4.2740002 13:6.6669998 14:4.7859998 15:5.1279998 16:6.6669998 17:5.1279998 18:5.8119998 19:2.5639999 20:4.1030002 #
-0.28823759719679803437131226928614 1:9.408 2:0.69700003 3:5.9229999 4:5.2259998 5:1.3940001 6:6.9689999 7:1.3940001 8:4.5300002 9:8.0139999 10:10.105 11:4.5300002 12:4.1810002 13:3.1359999 14:4.8779998 15:4.5300002 16:7.3169999 17:4.5300002 18:8.7110004 19:0.69700003 20:3.8329999 #
-0.50000132133699493053313744894695 1:7.375 2:0.29499999 3:4.1300001 4:2.95 5:3.835 6:9.1450005 7:2.655 8:9.4399996 9:1.77 10:13.274 11:5.9000001 12:1.77 13:5.0149999 14:2.3599999 15:5.9000001 16:3.54 17:5.605 18:10.619 19:2.655 20:1.77 #
2.0000052853479797221325497957878 1:10.256 2:2.5639999 3:6.4099998 4:6.1539998 5:2.5639999 6:6.1539998 7:3.5899999 8:6.4099998 9:7.9489999 10:6.1539998 11:2.8210001 12:3.846 13:3.5899999 14:4.6149998 15:5.1279998 16:6.6669998 17:5.3850002 18:5.1279998 19:2.3080001 20:2.3080001 #
1.8797434429999808624955903724185 1:8.2089996 2:1.493 3:3.98 4:9.2040005 5:1.493 6:8.7060003 7:2.2390001 8:7.2140002 9:4.9749999 10:8.7060003 11:3.483 12:2.9849999 13:5.7210002 14:1.7410001 15:6.7160001 16:3.98 17:5.473 18:9.7010002 19:0.249 20:3.7309999 #
2.0000052853479797221325497957878 1:7.1999998 2:1.6 3:5.5999999 4:4.8000002 5:1.6 6:6.4000001 7:4.8000002 8:6.4000001 9:5.5999999 10:8 11:4 12:8 13:4.8000002 14:2.4000001 15:1.6 16:7.1999998 17:8 18:8 19:1.6 20:2.4000001 #
-0.50000132133699493053313744894695 1:9.033 2:0.792 3:6.973 4:6.4980001 5:3.487 6:9.6669998 7:1.585 8:3.803 9:3.3280001 10:9.033 11:2.536 12:1.585 13:6.4980001 14:3.645 15:7.7649999 16:3.803 17:4.1199999 18:6.8150001 19:3.9619999 20:5.0710001 #
-0.50000132133699493053313744894695 1:12 2:0.211 3:5.263 4:4.421 5:1.263 6:8.632 7:2.737 8:4.421 9:0.84200001 10:10.737 11:2.316 12:2.105 13:6.947 14:3.368 15:8.632 16:6.947 17:7.579 18:9.474 19:0.63200003 20:1.474 #
-0.50000132133699493053313744894695 1:9.5240002 2:2.619 3:3.8099999 4:6.6669998 5:5.2379999 6:7.8569999 7:3.095 8:1.6670001 9:3.095 10:6.1900001 11:3.5710001 12:4.0479999 13:7.619 14:2.619 15:6.9050002 16:5.4759998 17:6.9050002 18:9.2860003 19:0.47600001 20:3.3329999 #
1.7686945410674972389841741460259 1:8.4029999 2:0.83999997 3:2.5209999 4:1.681 5:6.723 6:10.084 7:4.2020001 8:9.2440004 9:2.5209999 10:15.126 11:5.0419998 12:1.681 13:6.723 14:0.83999997 15:3.3610001 16:3.3610001 17:2.5209999 18:10.084 19:3.3610001 20:1.681 #
2.0000052853479797221325497957878 1:4.0229998 2:2.586 3:9.7700005 4:6.322 5:4.0229998 6:5.1719999 7:0.86199999 8:6.8969998 9:12.356 10:7.7589998 11:1.724 12:4.0229998 13:4.8850002 14:3.7360001 15:1.149 16:10.345 17:7.184 18:4.598 19:0.287 20:2.299 #
2.0000052853479797221325497957878 1:7.2069998 2:1.802 3:5.4050002 4:5.4050002 5:2.7030001 6:9.0089998 7:1.802 8:4.5050001 9:13.514 10:7.2069998 11:1.802 12:2.7030001 13:3.6040001 14:1.802 15:2.7030001 16:6.3060002 17:8.1079998 18:8.1079998 19:0.90100002 20:5.4050002 #
-0.17091339486354167886972277301538 1:5.5300002 2:5.0689998 3:2.3039999 4:5.5300002 5:4.6079998 6:6.9120002 7:1.8430001 8:6.4520001 9:6.4520001 10:6.9120002 11:2.7650001 12:7.8340001 13:4.1469998 14:3.687 15:4.1469998 16:6.9120002 17:5.5300002 18:5.9910002 19:2.7650001 20:4.6079998 #
-0.19463042960787252377841127781721 1:8.3330002 2:1.471 3:3.431 4:4.4120002 5:7.8429999 6:7.3530002 7:2.451 8:8.3330002 9:1.471 10:9.8039999 11:1.961 12:4.902 13:8.8240004 14:1.961 15:5.882 16:4.4120002 17:2.941 18:8.3330002 19:3.431 20:2.451 #
-0.31334455784899595265358129836386 1:8.7180004 2:1.026 3:3.5899999 4:2.5639999 5:5.1279998 6:8.2049999 7:3.5899999 8:11.795 9:2.5639999 10:13.333 11:1.538 12:3.0769999 13:4.6149998 14:1.026 15:0.51300001 16:5.1279998 17:6.6669998 18:7.1789999 19:5.6409998 20:4.1030002 #
1.6318914172898644210363272577524 1:13.58 2:2.4690001 3:6.1729999 4:4.9380002 5:4.9380002 6:4.9380002 7:3.704 8:6.1729999 9:1.235 10:4.9380002 11:4.9380002 12:4.9380002 13:6.1729999 14:3.704 15:11.111 16:3.704 17:3.704 18:6.1729999 19:1.235 20:1.235 #
1.9506239095137634098620083022979 1:15.104 2:2.0829999 3:4.6880002 4:4.6880002 5:1.562 6:10.417 7:3.125 8:1.562 9:4.1669998 10:8.3330002 11:3.125 12:3.125 13:8.3330002 14:8.8540001 15:4.1669998 16:4.6880002 17:4.1669998 18:3.6459999 19:1.0420001 20:3.125 #
1.8084922061238748458578129429952 1:5.9089999 2:2.273 3:5.9089999 4:6.3639998 5:2.727 6:6.8179998 7:0.45500001 8:5 9:4.0910001 10:6.3639998 11:5.4549999 12:5 13:6.3639998 14:5 15:7.2729998 16:4.5450001 17:4.0910001 18:10 19:1.818 20:4.5450001 #
-0.30423508078213035155101806594757 1:12.26 2:0.72100002 3:1.202 4:1.442 5:3.846 6:11.779 7:1.202 8:5.0479999 9:1.442 10:20.433001 11:4.0869999 12:1.923 13:5.5289998 14:3.365 15:3.365 16:6.4899998 17:5.7690001 18:6.7309999 19:1.923 20:1.442 #
-0.40513021331628518151291018511984 1:13.19 2:2.454 3:1.534 4:1.84 5:2.7609999 6:10.123 7:0.92000002 8:6.7480001 9:0.30700001 10:21.166 11:3.3740001 12:1.84 13:3.9879999 14:3.9879999 15:5.8280001 16:4.6009998 17:3.3740001 18:7.0549998 19:4.2940001 20:0.61299998 #
-0.50000132133699493053313744894695 1:9.8839998 2:0.29100001 3:1.744 4:2.6159999 5:4.0700002 6:6.105 7:0.87199998 8:10.465 9:1.744 10:19.476999 11:4.9419999 12:3.779 13:4.9419999 14:3.779 15:3.4879999 16:4.651 17:4.0700002 18:9.5930004 19:1.4529999 20:2.0350001 #
-0.50000132133699493053313744894695 1:7.7360001 2:1.433 3:8.0229998 4:3.7249999 5:4.585 6:7.4499998 7:2.865 8:7.4499998 9:7.4499998 10:7.4499998 11:2.2920001 12:5.7309999 13:5.4439998 14:2.865 15:3.152 16:4.2979999 17:5.158 18:8.309 19:1.719 20:2.865 #
-0.50000132133699493053313744894695 1:6.4169998 2:0.89099997 3:4.9910002 4:8.5559998 5:4.4559999 6:7.3080001 7:2.1389999 8:5.348 9:8.1999998 10:8.0209999 11:3.2090001 12:2.852 13:4.2779999 14:3.3870001 15:5.704 16:3.743 17:3.9219999 18:7.487 19:2.674 20:6.4169998 #
-0.50000132133699493053313744894695 1:6.053 2:1.316 3:7.632 4:6.053 5:3.684 6:5.263 7:2.105 8:6.053 9:6.579 10:8.4209995 11:3.158 12:5.789 13:5.263 14:3.158 15:6.579 16:5.263 17:4.211 18:8.9469995 19:1.579 20:2.895 #
1.5560049756454903402413947333116 1:11.795 2:2.0510001 3:3.0769999 4:12.308 5:6.6669998 6:5.6409998 7:1.538 8:4.6149998 9:11.795 10:6.6669998 11:1.538 12:6.1539998 13:2.5639999 14:1.538 15:3.0769999 16:4.1030002 17:5.6409998 18:3.5899999 19:1.026 20:4.6149998 #
1.2361781491942440691644833350438 1:12.155 2:3.8670001 3:6.0770001 4:12.707 5:3.8670001 6:9.3920002 7:2.7620001 8:2.7620001 9:11.05 10:6.0770001 11:2.7620001 12:2.21 13:1.6569999 14:1.105 15:4.4200001 16:1.105 17:3.8670001 18:7.7350001 19:0.55199999 20:3.8670001 #
1.4719671430302496695219360844931 1:7.652 2:1.847 3:7.652 4:5.8049998 5:2.6389999 6:7.652 7:0.528 8:13.72 9:11.082 10:8.4429998 11:1.319 12:6.3319998 13:3.1659999 14:1.0549999 15:2.1110001 16:8.4429998 17:3.1659999 18:3.694 19:0.264 20:3.4300001 #
-0.43237766571979796559332953620469 1:4.1139998 2:1.899 3:1.582 4:3.165 5:8.2279997 6:6.329 7:2.848 8:9.177 9:4.7470002 10:15.823 11:3.7969999 12:2.848 13:2.848 14:1.582 15:4.4299998 16:9.8100004 17:7.2779999 18:4.7470002 19:2.2149999 20:2.5320001 #
-0.50000132133699493053313744894695 1:8.3929996 2:1.918 3:1.439 4:2.638 5:13.429 6:8.6330004 7:0.95899999 8:7.914 9:2.878 10:12.95 11:3.3570001 12:3.8369999 13:2.878 14:2.638 15:2.878 16:6.954 17:4.5560002 18:6.954 19:1.439 20:3.3570001 #
-0.50000132133699493053313744894695 1:11.211 2:0.301 3:5.2670002 4:6.9980001 5:2.6340001 6:5.7189999 7:1.279 8:4.289 9:3.3859999 10:8.0509996 11:1.956 12:2.483 13:9.9320002 14:8.9540005 15:5.2670002 16:5.0409999 17:4.5900002 18:7.75 19:1.4299999 20:3.461 #
2.0000052853479797221325497957878 1:7.0339999 2:1.711 3:4.7529998 4:9.5059996 5:3.802 6:4.9429998 7:1.331 8:3.612 9:9.5059996 10:9.316 11:2.471 12:3.4219999 13:7.0339999 14:6.0840001 15:3.612 16:5.513 17:3.9920001 18:7.414 19:1.521 20:3.4219999 #
-0.50000132133699493053313744894695 1:9.5690002 2:1.4349999 3:3.8280001 4:7.6560001 5:4.7849998 6:4.3060002 7:1.914 8:6.6989999 9:8.6120005 10:11.483 11:2.8710001 12:4.7849998 13:5.263 14:3.8280001 15:2.8710001 16:2.8710001 17:5.263 18:5.7420001 19:1.4349999 20:4.7849998 #
-0.28840001197078291017561468834174 1:7.4000001 2:1.268 3:4.4400001 4:7.6110001 5:5.0739999 6:5.2849998 7:2.96 8:5.2849998 9:7.1880002 10:9.7250004 11:0.84600002 12:4.2280002 13:4.2280002 14:4.8629999 15:5.0739999 16:6.9770002 17:5.4970002 18:6.5539999 19:1.691 20:3.8050001 #
-0.50000132133699493053313744894695 1:7.9089999 2:1.6670001 3:4.0619998 4:6.7119999 5:5.6859999 6:6.9689999 7:2.5220001 8:4.7030001 9:4.3179998 10:9.5340004 11:2.8640001 12:3.4200001 13:6.2849998 14:3.8050001 15:7.5250001 16:7.0539999 17:5.0450001 18:6.1989999 19:1.026 20:2.6930001 #
1.5478061002560217218615434831008 1:8.8240004 2:1.471 3:2.941 4:2.451 5:8.3330002 6:9.8039999 7:5.3920002 8:7.3530002 9:1.961 10:11.765 11:5.3920002 12:2.451 13:1.471 14:0.98000002 15:2.451 16:5.3920002 17:8.3330002 18:7.3530002 19:2.941 20:2.941 #
1.2308580499038050959370593773201 1:6.6669998 2:5 3:5 4:10 5:4.4439998 6:7.7779999 7:0.55599999 8:5.5560002 9:6.1110001 10:8.3330002 11:3.3329999 12:2.2219999 13:7.2220001 14:2.2219999 15:7.2220001 16:2.7780001 17:4.4439998 18:5 19:1.1109999 20:5 #
-0.50000132133699493053313744894695 1:5.8140001 2:1.163 3:5.2329998 4:0.58099997 5:4.651 6:10.465 7:4.651 8:10.465 9:2.9070001 10:10.465 11:6.395 12:1.744 13:5.8140001 14:1.744 15:2.9070001 16:5.2329998 17:3.4879999 18:7.5580001 19:6.395 20:2.326 #
-0.50000132133699493053313744894695 1:7.9369998 2:2.1830001 3:2.1830001 4:3.3729999 5:7.3410001 6:7.7379999 7:0.59500003 8:9.3249998 9:3.3729999 10:11.508 11:3.5710001 12:3.175 13:4.7620001 14:1.587 15:3.175 16:5.7540002 17:6.349 18:7.9369998 19:4.5630002 20:3.5710001 #
-0.50000132133699493053313744894695 1:11.132 2:0.377 3:3.2079999 4:4.151 5:7.3579998 6:7.3579998 7:2.4530001 8:8.4910002 9:2.8299999 10:14.34 11:3.3959999 12:3.0190001 13:3.585 14:2.8299999 15:2.4530001 16:5.283 17:4.9060001 18:9.434 19:1.132 20:2.2639999 #
0.84004596016530519442255808826303 1:9.6389999 2:3.0120001 3:5.4219999 4:9.0360003 5:3.0120001 6:6.6269999 7:5.4219999 8:7.8309999 9:4.217 10:6.6269999 11:2.4100001 12:3.0120001 13:6.0240002 14:6.0240002 15:4.8189998 16:3.0120001 17:4.8189998 18:5.4219999 19:0.602 20:3.0120001 #
-0.50000132133699493053313744894695 1:8.9899998 2:0.44400001 3:5.7709999 4:10.322 5:2.7750001 6:6.2150002 7:2.4419999 8:5.993 9:5.6599998 10:9.1009998 11:3.6630001 12:3.7739999 13:3.2190001 14:4.6609998 15:7.3249998 16:4.8829999 17:4.6609998 18:6.5479999 19:0.77700001 20:2.7750001 #
-0.50000132133699493053313744894695 1:5.5560002 2:1.434 3:6.0929999 4:6.8099999 5:3.9430001 6:5.914 7:2.5090001 8:4.8390002 9:5.914 10:7.8850002 11:2.8670001 12:3.2260001 13:7.527 14:2.8670001 15:6.9889998 16:7.348 17:4.1220002 18:6.631 19:1.613 20:5.914 #
-0.50000132133699493053313744894695 1:8.0209999 2:2.4059999 3:4.8130002 4:8.2889996 5:2.674 6:6.4169998 7:2.1389999 8:9.0909996 9:7.2189999 10:8.8240004 11:5.348 12:4.2779999 13:3.2090001 14:1.604 15:5.348 16:6.684 17:6.4169998 18:4.2779999 19:1.337 20:1.604 #
1.9324239403543472803903569001704 1:7.1430001 2:1.323 3:2.9100001 4:2.1159999 5:7.4070001 6:8.7299995 7:0.52899998 8:6.349 9:1.587 10:16.931 11:4.2329998 12:2.6459999 13:5.2909999 14:2.381 15:4.4970002 16:5.5560002 17:3.9679999 18:8.9949999 19:4.4970002 20:2.9100001 #
-0.50000132133699493053313744894695 1:10.603 2:1.4630001 3:3.473 4:2.559 5:6.5809999 6:7.4949999 7:1.645 8:5.8499999 9:3.839 10:14.077 11:2.3770001 12:2.0109999 13:4.7529998 14:2.925 15:4.5700002 16:5.119 17:3.473 18:8.2270002 19:4.5700002 20:4.388 #
-0.50000132133699493053313744894695 1:11.83 2:0.67000002 3:2.2320001 4:1.786 5:5.5799999 6:12.277 7:0.67000002 8:4.4640002 9:2.0090001 10:14.732 11:3.7950001 12:2.4549999 13:3.7950001 14:3.5710001 15:3.7950001 16:6.9200001 17:4.9109998 18:9.8210001 19:2.2320001 20:2.4549999 #
-0.17871625954873876507278396275069 1:11.447 2:1.08 3:2.592 4:1.512 5:9.7189999 6:10.367 7:0.648 8:6.6950002 9:3.0239999 10:11.015 11:3.4560001 12:2.1600001 13:4.3200002 14:3.4560001 15:3.6719999 16:8.6389999 17:5.4000001 18:6.9109998 19:2.3759999 20:1.512 #
-0.50000132133699493053313744894695 1:7.0339999 2:4.3730001 3:5.7030001 4:7.9850001 5:5.7030001 6:6.4640002 7:2.6619999 8:4.5630002 9:5.7030001 10:9.6960001 11:2.471 12:3.612 13:4.1830001 14:4.3730001 15:4.7529998 16:5.513 17:4.7529998 18:5.323 19:0.56999999 20:4.5630002 #
-0.50000132133699493053313744894695 1:5.6729999 2:1.0549999 3:6.8600001 4:11.741 5:3.1659999 6:7.1240001 7:2.902 8:3.2980001 9:7.1240001 10:8.1789999 11:1.5829999 12:3.562 13:5.5409999 14:4.7490001 15:5.013 16:6.0689998 17:5.013 18:6.9920001 19:1.847 20:2.507 #
-0.50000132133699493053313744894695 1:6.901 2:4.5570002 3:5.8590002 4:8.5939999 5:5.7290001 6:6.5100002 7:2.0829999 8:3.125 9:5.7290001 10:7.1609998 11:3.125 12:4.5570002 13:5.0780001 14:2.865 15:4.6880002 16:5.8590002 17:7.0310001 18:4.427 19:1.1720001 20:4.948 #
-0.50000132133699493053313744894695 1:7.5879998 2:1.362 3:1.751 4:4.4749999 5:9.9219999 6:9.1440001 7:0.778 8:8.7550001 9:3.6960001 10:9.3389997 11:4.4749999 12:4.2800002 13:4.086 14:3.891 15:3.1129999 16:6.0310001 17:5.0580001 18:7.7820001 19:1.751 20:2.724 #
-0.50000132133699493053313744894695 1:6.2729998 2:0 3:2.9519999 4:2.9519999 5:7.3800001 6:6.2729998 7:2.5829999 8:9.2250004 9:3.6900001 10:16.605 11:4.059 12:4.428 13:5.5349998 14:2.5829999 15:1.476 16:6.2729998 17:4.428 18:8.4870005 19:2.5829999 20:2.214 #
-0.32029768770921407394780544564128 1:7.1149998 2:0.79100001 3:5.138 4:3.5569999 5:3.9530001 6:7.1149998 7:1.581 8:7.1149998 9:5.138 10:11.067 11:5.9289999 12:5.5339999 13:5.138 14:8.6960001 15:1.581 16:5.5339999 17:3.9530001 18:5.9289999 19:2.767 20:2.372 #
-0.13415902197911136473074122932303 1:6.967 2:0 3:2.869 4:5.7379999 5:4.098 6:7.3769999 7:1.6390001 8:5.7379999 9:7.7870002 10:10.246 11:2.049 12:6.967 13:4.5079999 14:4.098 15:5.7379999 16:3.6889999 17:7.7870002 18:6.5570002 19:1.6390001 20:4.5079999 #
-0.41659307848562265874647891905624 1:6.237 2:1.8710001 3:6.0289998 4:8.9399996 5:5.4050002 6:6.8610001 7:1.663 8:6.0289998 9:7.0689998 10:7.9000001 11:1.247 12:3.326 13:7.0689998 14:3.95 15:6.237 16:7.0689998 17:2.2869999 18:5.8210001 19:2.079 20:2.911 #
-0.50000132133699493053313744894695 1:5.1869998 2:2.882 3:4.0349998 4:7.493 5:5.7639999 6:5.1869998 7:3.7460001 8:5.7639999 9:5.4759998 10:10.663 11:2.882 12:2.3050001 13:10.375 14:4.323 15:4.8990002 16:4.8990002 17:3.7460001 18:5.4759998 19:2.3050001 20:2.5940001 #
-0.50000132133699493053313744894695 1:4.632 2:1.053 3:6.105 4:5.684 5:3.579 6:3.789 7:1.895 8:9.0530005 9:9.474 10:9.0530005 11:1.895 12:5.895 13:5.474 14:3.158 15:3.579 16:8.842 17:6.316 18:5.684 19:0.84200001 20:4 #
-0.20116068216717419847583414593828 1:5.2470002 2:2.4690001 3:1.852 4:2.4690001 5:7.099 6:4.6300001 7:2.4690001 8:11.42 9:4.9380002 10:7.4070001 11:4.9380002 12:3.395 13:4.6300001 14:1.852 15:2.7780001 16:11.111 17:6.4809999 18:8.3330002 19:1.235 20:5.2470002 #
-0.33389073778206501685872353846207 1:2.335 2:0 3:8.1709995 4:4.6690001 5:2.335 6:4.2800002 7:3.1129999 8:7.0040002 9:11.673 10:9.7279997 11:1.946 12:8.9490004 13:3.1129999 14:3.5020001 15:1.556 16:8.1709995 17:7.0040002 18:5.447 19:1.1670001 20:5.8369999 #
-0.50000132133699493053313744894695 1:6.6989999 2:2.1530001 3:4.7849998 4:5.9809999 5:5.263 6:4.5450001 7:2.8710001 8:3.589 9:7.895 10:11.244 11:2.632 12:2.632 13:5.9809999 14:4.3060002 15:5.7420001 16:5.5019999 17:5.5019999 18:7.4159999 19:1.4349999 20:3.8280001 #
-0.50000132133699493053313744894695 1:7.309 2:0.42199999 3:4.006 4:6.0440001 5:6.8870001 6:7.5900002 7:1.6160001 8:6.0440001 9:5.3410001 10:9.7679996 11:3.9349999 12:3.5139999 13:4.1459999 14:3.4430001 15:4.9190001 16:5.9029999 17:6.184 18:7.098 19:1.897 20:3.9349999 #
-0.50000132133699493053313744894695 1:6.1539998 2:0.65899998 3:5.4949999 4:7.033 5:4.3959999 6:4.3959999 7:1.978 8:5.934 9:7.2529998 10:12.088 11:1.099 12:6.8130002 13:4.1760001 14:6.5929999 15:5.7140002 16:3.0769999 17:3.9560001 18:6.8130002 19:1.319 20:5.0549998 #
-0.50000132133699493053313744894695 1:8.6730003 2:3.0610001 3:5.612 4:8.6730003 5:3.0610001 6:6.6329999 7:3.5710001 8:7.6529999 9:10.204 10:7.6529999 11:2.5510001 12:2.0409999 13:3.5710001 14:2.5510001 15:4.0819998 16:6.1220002 17:4.0819998 18:4.592 19:1.531 20:4.0819998 #
-0.50000132133699493053313744894695 1:8.8240004 2:0 3:5.882 4:5.882 5:4.4120002 6:7.3530002 7:4.4120002 8:5.882 9:14.706 10:10.294 11:2.941 12:4.4120002 13:7.3530002 14:2.941 15:0 16:2.941 17:4.4120002 18:4.4120002 19:0 20:2.941 #
-0.3852835676805627107555096699798 1:9.8809996 2:0.86900002 3:3.6919999 4:6.8400002 5:2.1719999 6:4.0170002 7:1.086 8:3.9089999 9:9.5550003 10:7.5999999 11:1.6289999 12:5.2119999 13:8.6859999 14:5.3200002 15:7.3829999 16:8.3599997 17:6.8400002 18:4.8860002 19:0.65100002 20:1.4119999 #
-0.50000132133699493053313744894695 1:3.5350001 2:3.03 3:5.0510001 4:6.0609999 5:4.04 6:7.0710001 7:2.02 8:6.566 9:5.5560002 10:10.606 11:2.02 12:5.0510001 13:5.5560002 14:5.0510001 15:4.5450001 16:6.566 17:4.04 18:9.0909996 19:0.505 20:4.04 #
-0.50000132133699493053313744894695 1:5.6409998 2:1.026 3:5.1279998 4:7.6919999 5:5.1279998 6:5.6409998 7:3.0769999 8:6.1539998 9:2.5639999 10:9.2309999 11:3.0769999 12:1.538 13:6.1539998 14:3.0769999 15:3.0769999 16:4.6149998 17:8.7180004 18:10.256 19:2.5639999 20:5.6409998 #
-0.12482655267349793137832136835641 1:7.2290001 2:0.40200001 3:4.4180002 4:8.0319996 5:1.205 6:6.8270001 7:1.6059999 8:4.0159998 9:6.0240002 10:10.04 11:3.6140001 12:2.8110001 13:9.2370005 14:4.8189998 15:6.0240002 16:8.835 17:6.0240002 18:5.2210002 19:0.40200001 20:3.2130001 #
-0.50000132133699493053313744894695 1:7.1220002 2:1.632 3:6.5279999 4:7.5669999 5:3.4119999 6:8.9020004 7:1.78 8:6.0830002 9:10.534 10:6.8249998 11:3.2639999 12:5.0450001 13:3.7090001 14:4.7480001 15:4.4510002 16:4.1539998 17:6.0830002 18:6.5279999 19:0 20:1.632 #
-0.50000132133699493053313744894695 1:12.039 2:0 3:7.3839998 4:6.5809999 5:3.21 6:7.0630002 7:0.64200002 8:5.7779999 9:7.3839998 10:8.8280001 11:2.5680001 12:5.1360002 13:2.8889999 14:8.6680002 15:3.5309999 16:5.1360002 17:4.013 18:6.2600002 19:0.32100001 20:2.5680001 #
-0.50000132133699493053313744894695 1:6.5419998 2:1.869 3:6.0749998 4:7.4770002 5:3.2709999 6:6.5419998 7:0.46700001 8:4.2059999 9:7.4770002 10:9.3459997 11:3.2709999 12:3.2709999 13:3.7379999 14:6.0749998 15:5.1399999 16:6.5419998 17:2.8039999 18:6.0749998 19:2.8039999 20:7.0089998 #
-0.50000132133699493053313744894695 1:5.7690001 2:2.3499999 3:5.1279998 4:7.9060001 5:3.4189999 6:4.915 7:4.2740002 8:6.8379998 9:6.197 10:8.974 11:2.3499999 12:4.915 13:4.487 14:2.9909999 15:6.6240001 16:5.7690001 17:5.7690001 18:5.7690001 19:0.64099997 20:4.915 #
-0.50000132133699493053313744894695 1:6.0609999 2:0.25299999 3:8.0810003 4:9.5959997 5:3.5350001 6:4.7979999 7:3.03 8:7.0710001 9:4.5450001 10:9.5959997 11:2.7780001 12:3.7880001 13:5.8080001 14:3.03 15:4.5450001 16:7.0710001 17:3.283 18:5.0510001 19:2.7780001 20:5.303 #
-0.50000132133699493053313744894695 1:10.697 2:1.244 3:2.7360001 4:2.2390001 5:6.2189999 6:10.199 7:0.995 8:6.2189999 9:2.2390001 10:14.925 11:6.2189999 12:0.995 13:3.7309999 14:3.7309999 15:6.7160001 16:5.7210002 17:3.234 18:6.7160001 19:2.7360001 20:2.4879999 #
1.5135813848348547150379772574524 1:10.133 2:1.661 3:5.8140001 4:7.309 5:3.322 6:10.963 7:3.4879999 8:3.8210001 9:4.4850001 10:7.973 11:3.4879999 12:3.8210001 13:3.654 14:3.654 15:6.3119998 16:3.322 17:5.98 18:6.8109999 19:1.163 20:2.8239999 #
-0.50000132133699493053313744894695 1:10.69 2:1.724 3:6.552 4:4.8280001 5:2.7590001 6:13.103 7:2.414 8:5.1719999 9:6.2069998 10:8.276 11:2.414 12:3.448 13:3.793 14:2.069 15:3.1029999 16:5.5170002 17:5.862 18:5.862 19:3.448 20:2.7590001 #
-0.1554994356239923769535948849807 1:8.7589998 2:0 3:5.8390002 4:3.2850001 5:5.1090002 6:8.7589998 7:2.1900001 8:4.3800001 9:8.0290003 10:7.664 11:0.36500001 12:6.204 13:3.2850001 14:2.9200001 15:1.46 16:8.0290003 17:10.949 18:9.1239996 19:0.36500001 20:3.2850001 #
-0.21503716683264120779206507449999 1:7.447 2:0 3:6.7379999 4:3.901 5:4.9650002 6:10.993 7:1.418 8:2.4820001 9:8.8649998 10:10.638 11:0.35499999 12:6.7379999 13:1.418 14:5.6739998 15:1.418 16:7.8010001 17:7.8010001 18:6.3829999 19:1.418 20:3.546 #
-0.50000132133699493053313744894695 1:5.9759998 2:0.79699999 3:3.586 4:1.1950001 5:9.1630001 6:11.155 7:0.79699999 8:6.7729998 9:0.79699999 10:12.351 11:3.984 12:3.586 13:5.9759998 14:3.187 15:6.7729998 16:4.382 17:3.984 18:5.5780001 19:3.984 20:5.9759998 #
-0.33944042422022707716777745190484 1:6.8179998 2:2.273 3:0.75800002 4:2.273 5:5.303 6:7.5760002 7:0.75800002 8:9.0909996 9:3.03 10:15.152 11:3.03 12:1.515 13:4.5450001 14:4.5450001 15:3.03 16:6.8179998 17:2.273 18:14.394 19:2.273 20:4.5450001 #
-0.50000132133699493053313744894695 1:6.0300002 2:1.7589999 3:3.266 4:1.7589999 5:7.789 6:6.7839999 7:1.508 8:8.7939997 9:3.266 10:13.819 11:5.7789998 12:4.5229998 13:2.7639999 14:2.513 15:3.266 16:7.5380001 17:5.0250001 18:7.5380001 19:1.508 20:4.7740002 #
-0.47830840652150247160889762199076 1:2.74 2:2.74 3:5.4790001 4:6.849 5:2.74 6:5.4790001 7:1.37 8:6.849 9:13.699 10:9.5889997 11:2.74 12:2.74 13:2.74 14:4.1100001 15:1.37 16:6.849 17:6.849 18:10.959 19:0 20:4.1100001 #
-0.42642890062984062371498339416576 1:6.8969998 2:0 3:8.0459995 4:9.1949997 5:3.448 6:5.7470002 7:1.149 8:2.299 9:17.240999 10:8.0459995 11:3.448 12:3.448 13:2.299 14:3.448 15:2.299 16:4.598 17:6.8969998 18:5.7470002 19:2.299 20:3.448 #
-0.50000132133699493053313744894695 1:7.256 2:1.751 3:5.9219999 4:8.3400002 5:2.5020001 6:3.4200001 7:2.6689999 8:5.5879998 9:9.5909996 10:10.425 11:2.5020001 12:3.003 13:5.5050001 14:5.0040002 15:4.5040002 16:8.3400002 17:4.2540002 18:6.5050001 19:0.5 20:2.4189999 #
-0.50000132133699493053313744894695 1:8.2969999 2:1.092 3:4.585 4:3.9300001 5:7.2049999 6:10.48 7:3.493 8:6.987 9:3.0569999 10:10.48 11:4.3670001 12:3.0569999 13:3.2750001 14:2.8380001 15:1.528 16:6.3319998 17:7.6420002 18:6.987 19:1.092 20:3.2750001 #
-0.17659597439016902487018967349286 1:12.037 2:0.926 3:3.086 4:5.5560002 5:5.5560002 6:8.0249996 7:1.543 8:6.4809999 9:3.704 10:10.802 11:2.4690001 12:1.852 13:6.79 14:4.0120001 15:4.6300001 16:4.3210001 17:7.099 18:8.3330002 19:0.926 20:1.852 #
-0.081456417956978180439087111608387 1:13.504 2:0.233 3:5.006 4:5.006 5:3.3759999 6:8.033 7:2.5610001 8:3.9579999 9:1.513 10:12.456 11:1.513 12:1.397 13:5.704 14:3.26 15:8.2650003 16:4.8889999 17:6.5190001 18:9.0799999 19:1.863 20:1.863 #
-0.50000132133699493053313744894695 1:5.7140002 2:1.818 3:6.2340002 4:10.779 5:2.987 6:7.013 7:2.0780001 8:4.2859998 9:8.3120003 10:5.974 11:2.5969999 12:4.026 13:4.4159999 14:2.727 15:4.5450001 16:8.5710001 17:5.8439999 18:6.2340002 19:3.1170001 20:2.727 #
-0.27309568837073355807021357577469 1:9.96 2:1.726 3:7.171 4:7.3039999 5:2.523 6:9.2959995 7:3.3199999 8:3.0539999 9:5.046 10:9.4289999 11:1.461 12:2.523 13:6.9060001 14:3.3199999 15:5.046 16:8.632 17:4.5149999 18:6.2420001 19:1.1950001 20:1.3279999 #
-0.15150437797987847954317430776427 1:20.903999 2:1.6950001 3:1.6950001 4:10.734 5:5.085 6:10.169 7:1.6950001 8:1.13 9:1.13 10:14.124 11:1.13 12:1.6950001 13:4.52 14:2.825 15:8.4750004 16:4.52 17:2.825 18:2.825 19:1.6950001 20:1.13 #
-0.50000132133699493053313744894695 1:13.244 2:1.339 3:2.2320001 4:2.53 5:5.506 6:7.5890002 7:2.381 8:6.3990002 9:2.0829999 10:16.815001 11:4.9109998 12:1.637 13:4.0180001 14:2.381 15:4.0180001 16:6.994 17:4.3150001 18:7.4400001 19:2.381 20:1.786 #
-0.50000132133699493053313744894695 1:11.463 2:0.97600001 3:1.4630001 4:3.415 5:5.1220002 6:10.244 7:0.97600001 8:8.5369997 9:2.4389999 10:16.341 11:4.3899999 12:3.171 13:3.171 14:3.902 15:3.6589999 16:5.6100001 17:3.902 18:6.3410001 19:2.4389999 20:2.4389999 #
-0.30072861556552876738379609378171 1:11.364 2:6.8179998 3:4.5450001 4:2.273 5:1.515 6:6.8179998 7:0 8:6.8179998 9:3.03 10:7.5760002 11:3.03 12:0.75800002 13:5.303 14:5.303 15:9.8479996 16:8.3330002 17:11.364 18:2.273 19:2.273 20:0.75800002 #
1.4282848206300671201063323678682 1:8.8409996 2:0.58899999 3:1.768 4:2.5539999 5:7.8590002 6:9.0369997 7:2.161 8:7.8590002 9:2.5539999 10:14.931 11:5.1079998 12:1.572 13:4.322 14:3.9289999 15:2.358 16:6.0900002 17:5.1079998 18:6.8759999 19:3.3399999 20:3.1429999 #
-0.50000132133699493053313744894695 1:4.7969999 2:1.476 3:6.6420002 4:9.9630003 5:2.9519999 6:5.1659999 7:2.9519999 8:4.428 9:10.701 10:7.7490001 11:2.9519999 12:4.059 13:4.428 14:4.7969999 15:4.059 16:2.5829999 17:4.7969999 18:7.7490001 19:2.9519999 20:4.7969999 #
-0.50000132133699493053313744894695 1:5.1279998 2:1.056 3:8.2959995 4:6.6370001 5:5.2789998 6:4.223 7:1.961 8:7.6919999 9:7.8429999 10:9.5019999 11:1.357 12:4.6760001 13:5.4299998 14:3.6199999 15:3.4690001 16:7.3909998 17:6.4860001 18:5.5809999 19:1.207 20:3.1670001 #
-0.50000132133699493053313744894695 1:6.5809999 2:1.605 3:5.4569998 4:8.9890003 5:2.7290001 6:5.7779999 7:4.013 8:5.1360002 9:8.6680002 10:11.717 11:3.852 12:3.6919999 13:4.3340001 14:4.013 15:5.4569998 16:4.1729999 17:5.1360002 18:4.9759998 19:1.124 20:2.5680001 #
-0.39443466413460093189513600009377 1:7.5380001 2:1.005 3:2.01 4:3.5179999 5:7.5380001 6:7.0349998 7:2.01 8:3.5179999 9:2.513 10:16.08 11:3.0150001 12:2.513 13:4.5229998 14:1.508 15:5.0250001 16:8.04 17:7.0349998 18:7.5380001 19:3.0150001 20:5.0250001 #
-0.15948439484510590347099423524924 1:7.8889999 2:3.625 3:2.132 4:3.4119999 5:5.757 6:7.0359998 7:2.559 8:3.198 9:0.426 10:17.697001 11:3.4119999 12:2.7720001 13:6.3969998 14:2.345 15:2.7720001 16:8.5290003 17:5.3299999 18:10.235 19:1.919 20:2.559 #
-0.50000132133699493053313744894695 1:8.382 2:2.312 3:1.734 4:3.4679999 5:6.0689998 6:7.5139999 7:2.6010001 8:5.2020001 9:1.4450001 10:14.74 11:3.1789999 12:2.023 13:6.6469998 14:3.1789999 15:4.6240001 16:8.96 17:4.335 18:5.7800002 19:4.9130001 20:2.8900001 #
-0.50000132133699493053313744894695 1:8.6960001 2:0.93199998 3:1.553 4:5.5900002 5:3.727 6:8.6960001 7:2.174 8:7.7639999 9:8.6960001 10:8.3850002 11:2.484 12:4.0370002 13:5.2800002 14:4.0370002 15:4.348 16:5.2800002 17:6.5219998 18:7.4530001 19:0.31099999 20:4.0370002 #
-0.40243729808116862622924259085266 1:7.263 2:1.117 3:4.4689999 4:6.704 5:5.5869999 6:5.5869999 7:1.117 8:12.291 9:9.4969997 10:10.056 11:3.352 12:2.2349999 13:3.911 14:1.676 15:3.911 16:5.0279999 17:5.0279999 18:6.145 19:2.2349999 20:2.793 #
-0.50000132133699493053313744894695 1:11.801 2:0.62099999 3:6.211 4:10.559 5:3.1059999 6:1.242 7:0.62099999 8:5.5900002 9:12.422 10:8.0749998 11:2.484 12:4.9689999 13:6.8319998 14:3.1059999 15:1.863 16:4.348 17:3.727 18:5.5900002 19:3.1059999 20:3.727 #
-0.50000132133699493053313744894695 1:9.0319996 2:2.5810001 3:5.1609998 4:8.3870001 5:5.8060002 6:5.8060002 7:1.9349999 8:5.1609998 9:1.9349999 10:7.7420001 11:3.2260001 12:4.5159998 13:4.5159998 14:9.0319996 15:2.5810001 16:5.1609998 17:7.0970001 18:6.4520001 19:0.64499998 20:3.2260001 #
-0.50000132133699493053313744894695 1:7.1999998 2:1.6 3:0.80000001 4:1.6 5:6.4000001 6:4 7:3.2 8:10.4 9:3.2 10:16.799999 11:4 12:0 13:6.4000001 14:3.2 15:7.1999998 16:4 17:3.2 18:8 19:6.4000001 20:2.4000001 #
-0.50000132133699493053313744894695 1:3.6900001 2:0.73799998 3:2.5829999 4:2.214 5:10.701 6:5.1659999 7:3.3210001 8:5.5349998 9:5.5349998 10:12.177 11:5.5349998 12:1.845 13:2.9519999 14:3.3210001 15:4.428 16:6.6420002 17:7.7490001 18:7.7490001 19:2.9519999 20:5.1659999 #
-0.50000132133699493053313744894695 1:6.1539998 2:6.6669998 3:6.1539998 4:8.7180004 5:3.0769999 6:6.1539998 7:2.0510001 8:3.5899999 9:7.6919999 10:7.6919999 11:1.026 12:4.6149998 13:5.1279998 14:4.1030002 15:2.0510001 16:8.2049999 17:5.6409998 18:4.6149998 19:1.026 20:5.6409998 #
-0.4480865851247959330549974765745 1:13.253 2:0 3:5.1199999 4:12.651 5:2.711 6:6.6269999 7:0.301 8:3.313 9:13.253 10:6.928 11:0.90399998 12:2.711 13:2.4100001 14:5.1199999 15:0.90399998 16:8.1330004 17:7.2290001 18:5.1199999 19:1.205 20:2.108 #
-0.50000132133699493053313744894695 1:4.6669998 2:3.3329999 3:5.3330002 4:7.3330002 5:4 6:5.3330002 7:3.3329999 8:9.3330002 9:7.3330002 10:5.3330002 11:1.3329999 12:3.3329999 13:8 14:2 15:4 16:6 17:6 18:6 19:1.3329999 20:6.6669998 #
-0.50000132133699493053313744894695 1:12.23 2:0 3:4.3169999 4:9.3529997 5:1.439 6:8.6330004 7:4.3169999 8:7.914 9:5.7550001 10:8.6330004 11:4.3169999 12:0.71899998 13:2.878 14:5.7550001 15:3.5969999 16:5.7550001 17:4.3169999 18:7.1939998 19:0 20:2.878 #
-0.50000132133699493053313744894695 1:8.0570002 2:0.237 3:6.1609998 4:4.5019999 5:2.9619999 6:7.8200002 7:0.59200001 8:4.5019999 9:4.7389998 10:9.8339996 11:3.1989999 12:4.1469998 13:6.1609998 14:7.4640002 15:7.1090002 16:5.9239998 17:4.7389998 18:6.7540002 19:1.54 20:3.5550001 #
-0.50000132133699493053313744894695 1:7.237 2:0.65799999 3:8.5530005 4:5.263 5:2.632 6:8.5530005 7:2.632 8:8.5530005 9:4.605 10:7.237 11:3.289 12:0.65799999 13:5.921 14:3.289 15:6.579 16:4.605 17:3.947 18:10.526 19:2.632 20:2.632 #
-0.27620521864553382318518970350851 1:5.085 2:3.3900001 3:4.237 4:8.0509996 5:5.5079999 6:5.9320002 7:1.6950001 8:5.5079999 9:9.7460003 10:10.593 11:2.119 12:2.5420001 13:5.085 14:5.085 15:2.5420001 16:7.6269999 17:3.8139999 18:8.0509996 19:2.119 20:1.271 #
-0.50000132133699493053313744894695 1:6.8889999 2:1.556 3:4.6669998 4:8.8889999 5:5.3330002 6:6.6669998 7:1.3329999 8:6.2220001 9:10.444 10:9.7779999 11:2.444 12:4.8889999 13:3.7780001 14:2.8889999 15:3.556 16:6.2220001 17:4 18:6.2220001 19:0.44400001 20:3.7780001 #
-0.24473785707789197374495415715501 1:14.462 2:3.0769999 3:4.6149998 4:7.0770001 5:1.538 6:10.154 7:1.846 8:1.538 9:0.308 10:7.0770001 11:1.538 12:0.61500001 13:8.3079996 14:1.2309999 15:8.6149998 16:10.462 17:7.0770001 18:8.9230003 19:0.61500001 20:0.92299998 #
-0.40675746136555052112626640337112 1:9.7010002 2:0.74599999 3:3.7309999 4:8.2089996 5:4.4780002 6:2.2390001 7:2.9849999 8:2.9849999 9:3.7309999 10:8.2089996 11:5.224 12:2.9849999 13:3.7309999 14:3.7309999 15:8.2089996 16:3.7309999 17:7.4629998 18:11.94 19:0.74599999 20:5.224 #
-0.38467515475750441167335225145507 1:9.8800001 2:0 3:7.7839999 4:8.0839996 5:4.1919999 6:5.3889999 7:0.59899998 8:6.8860002 9:5.9879999 10:6.5869999 11:2.994 12:2.994 13:2.994 14:2.395 15:9.5810003 16:6.2870002 17:5.6890001 18:8.3830004 19:0.29899999 20:2.994 #
-0.50000132133699493053313744894695 1:7.9660001 2:2.5420001 3:1.864 4:3.898 5:5.763 6:6.7800002 7:1.525 8:8.6440001 9:4.4070001 10:11.186 11:5.4239998 12:3.898 13:6.6100001 14:3.22 15:2.881 16:4.4070001 17:5.9320002 18:7.7969999 19:1.6950001 20:3.559 #
-0.37737637209238683588807816704502 1:8.5710001 2:0.75199997 3:4.9619999 4:13.985 5:1.353 6:5.7140002 7:1.654 8:4.3610001 9:7.0679998 10:9.323 11:0.75199997 12:1.8049999 13:5.5640001 14:6.4660001 15:7.368 16:6.4660001 17:5.5640001 18:5.7140002 19:0.15000001 20:2.4059999 #
-0.50000132133699493053313744894695 1:11.584 2:1.363 3:4.9400001 4:12.436 5:3.918 6:6.6440001 7:1.193 8:3.4070001 9:6.8140001 10:12.606 11:2.0439999 12:4.2589998 13:4.0890002 14:3.5780001 15:3.4070001 16:6.303 17:4.5999999 18:6.1329999 19:0.17 20:0.51099998 #
-0.34489176954531564067707449794398 1:3.675 2:0.26199999 3:12.336 4:9.4490004 5:3.1500001 6:5.2490001 7:1.312 8:5.7740002 9:11.024 10:3.675 11:2.625 12:8.1359997 13:3.1500001 14:4.4619999 15:3.937 16:8.3990002 17:6.0370002 18:3.675 19:0.52499998 20:3.1500001 #
-0.50000132133699493053313744894695 1:10.239 2:1.706 3:0.68300003 4:1.706 5:5.802 6:10.58 7:1.365 8:8.191 9:1.706 10:15.358 11:2.3889999 12:3.4130001 13:3.7539999 14:2.0480001 15:2.3889999 16:6.8260002 17:6.4850001 18:7.8499999 19:3.072 20:4.4369998 #
-0.19885767677684254572945121708472 1:12.587 2:0.233 3:2.7969999 4:1.632 5:5.3610001 6:9.3240004 7:1.166 8:8.3920002 9:2.5639999 10:15.851 11:2.7969999 12:3.497 13:3.73 14:0.93199998 15:2.3310001 16:5.1279998 17:6.0609999 18:10.723 19:2.7969999 20:2.098 #
-0.042699780914057988701060253333708 1:11.156 2:1.623 3:2.0280001 4:3.043 5:5.6799998 6:9.1280003 7:1.42 8:7.5050001 9:2.8399999 10:13.387 11:3.8540001 12:3.651 13:2.434 14:2.8399999 15:3.651 16:6.2880001 17:4.2600002 18:7.7080002 19:2.434 20:5.0710001 #
-0.35259462543513142573914365129895 1:8.5530005 2:10.526 3:4.605 4:4.605 5:4.605 6:11.184 7:3.289 8:3.947 9:3.947 10:5.263 11:3.289 12:2.632 13:1.974 14:5.921 15:4.605 16:4.605 17:5.921 18:4.605 19:1.974 20:3.947 #
-0.36645951046206759471601799305063 1:6.316 2:1.053 3:2.105 4:3.158 5:6.316 6:8.4209995 7:6.842 8:5.263 9:3.158 10:8.9469995 11:8.9469995 12:3.158 13:3.684 14:3.158 15:1.579 16:9.474 17:6.316 18:7.368 19:0.52600002 20:4.211 #
-0.23443256446789986768841629327653 1:5.414 2:1.433 3:8.4390001 4:7.006 5:5.2550001 6:5.7319999 7:7.1659999 8:5.2550001 9:6.21 10:8.1210003 11:2.0699999 12:4.618 13:5.0960002 14:1.911 15:4.9359999 16:5.573 17:3.6619999 18:6.369 19:1.274 20:4.4590001 #
-0.50000132133699493053313744894695 1:5.9250002 2:1.257 3:3.95 4:3.77 5:7.1810002 6:7.0019999 7:1.257 8:5.9250002 9:2.513 10:13.465 11:3.95 12:2.513 13:4.8470001 14:2.8729999 15:5.566 16:7.7199998 17:5.9250002 18:8.618 19:2.154 20:3.5910001 #
-0.50000132133699493053313744894695 1:9.7469997 2:0.97500002 3:2.7290001 4:4.4829998 5:6.823 6:6.4330001 7:1.949 8:7.4070001 9:2.5339999 10:16.179001 11:3.3139999 12:1.949 13:3.119 14:3.704 15:3.5090001 16:5.848 17:5.848 18:9.1619997 19:1.949 20:2.339 #
-0.33236613847413798428220843561576 1:8.1079998 2:3.243 3:7.027 4:4.3239999 5:2.1619999 6:3.7839999 7:1.622 8:6.4860001 9:5.9460001 10:5.9460001 11:3.7839999 12:4.8649998 13:1.622 14:4.3239999 15:3.243 16:11.892 17:8.6490002 18:7.027 19:1.081 20:4.8649998 #
-0.50000132133699493053313744894695 1:8.5290003 2:0.86500001 3:5.3150001 4:2.8429999 5:4.3260002 6:10.26 7:1.2359999 8:5.1919999 9:5.8099999 10:7.4169998 11:4.079 12:4.3260002 13:6.5510001 14:3.832 15:3.7079999 16:5.1919999 17:7.54 18:7.1690001 19:2.349 20:3.461 #
-0.37721349674724746758869287077687 1:9.0229998 2:3.2579999 3:4.2610002 4:4.7620001 5:4.2610002 6:8.0200005 7:3.0079999 8:4.5110002 9:5.5139999 10:11.779 11:2.256 12:4.0100002 13:5.013 14:4.7620001 15:4.0100002 16:3.7590001 17:4.0100002 18:4.2610002 19:1.253 20:8.2709999 #
-0.1769120119482311959124842815072 1:10.33 2:1.758 3:2.6370001 4:4.1760001 5:5.4949999 6:6.8130002 7:1.319 8:7.9120002 9:4.3959999 10:5.4949999 11:5.4949999 12:3.2969999 13:9.4510002 14:5.934 15:2.198 16:6.5929999 17:3.516 18:5.934 19:2.418 20:4.835 #
-0.40511461271300747144508136443619 1:10.753 2:1.72 3:2.151 4:2.796 5:7.0970001 6:9.2469997 7:1.075 8:12.258 9:3.0109999 10:8.8170004 11:5.5910001 12:2.5810001 13:2.3659999 14:3.441 15:2.151 16:5.8060002 17:6.0219998 18:7.527 19:2.5810001 20:3.0109999 #
-0.38733929968210872862854898812657 1:10.39 2:0 3:5.1950002 4:9.0909996 5:4.5450001 6:8.4420004 7:8.4420004 8:3.8959999 9:11.688 10:11.039 11:2.5969999 12:2.5969999 13:1.948 14:2.5969999 15:1.299 16:3.8959999 17:3.8959999 18:5.8439999 19:1.299 20:1.299 #
-0.38343721781124751046831988787744 1:9.073 2:1.5779999 3:3.3529999 4:3.55 5:8.6789999 6:8.8760004 7:1.5779999 8:9.2700005 9:3.3529999 10:10.454 11:3.3529999 12:3.3529999 13:3.9449999 14:2.9590001 15:3.9449999 16:5.5229998 17:4.1420002 18:8.6789999 19:1.775 20:2.5639999 #
-0.40601203061237639557745637830521 1:11.39 2:1.367 3:4.5560002 4:5.467 5:2.6199999 6:5.125 7:2.506 8:2.733 9:4.4419999 10:7.973 11:1.936 12:6.3779998 13:8.3140001 14:6.4920001 15:5.467 16:9.2259998 17:5.809 18:5.0110002 19:0.56900001 20:2.6199999 #
-0.19783493138796381938249169252231 1:3.8199999 2:0.67900002 3:5.6880002 4:6.3670001 5:4.414 6:6.112 7:1.0190001 8:6.6209998 9:9.677 10:9.677 11:1.528 12:6.112 13:4.4990001 14:2.632 15:3.2260001 16:6.961 17:7.7249999 18:8.5740004 19:1.358 20:3.3110001 #
-0.196579105180001906250097931661 1:6.283 2:0 3:6.8060002 4:4.7119999 5:1.571 6:3.141 7:1.571 8:5.2360001 9:6.283 10:9.4239998 11:2.618 12:6.8060002 13:3.141 14:5.2360001 15:4.7119999 16:6.8060002 17:9.4239998 18:9.948 19:1.571 20:4.7119999 #
-0.43249438897903080825102506423718 1:8.0310001 2:3.4649999 3:3.4649999 4:3.3069999 5:6.6139998 6:9.4490004 7:1.102 8:5.3540001 9:3.1500001 10:11.496 11:2.9920001 12:2.9920001 13:5.197 14:2.0469999 15:2.9920001 16:5.3540001 17:4.724 18:9.4490004 19:3.78 20:5.039 #
-0.50000132133699493053313744894695 1:8.0830002 2:2.309 3:6.0050001 4:7.1589999 5:5.7740002 6:6.928 7:3.6949999 8:6.2360001 9:3.9260001 10:9.2379999 11:3.233 12:3.0020001 13:3.233 14:3.6949999 15:6.467 16:6.0050001 17:4.388 18:7.3899999 19:1.155 20:2.079 #
-0.31216184317386796998050613183295 1:12.752 2:0.671 3:4.027 4:6.711 5:4.027 6:8.7250004 7:0.671 8:4.698 9:9.3959999 10:4.698 11:1.342 12:8.0539999 13:2.013 14:5.369 15:5.369 16:9.3959999 17:4.698 18:3.3559999 19:0.671 20:3.3559999 #
-0.37386197777710006295848188528907 1:6.3829999 2:0.53200001 3:4.2550001 4:5.8509998 5:2.6600001 6:7.447 7:1.596 8:10.106 9:8.5109997 10:6.3829999 11:8.5109997 12:3.723 13:4.7870002 14:3.191 15:4.2550001 16:6.915 17:5.3189998 18:4.7870002 19:0.53200001 20:4.2550001 #
-0.21898179859508429268011298063357 1:7.7779999 2:4.4439998 3:5.5560002 4:11.111 5:0 6:3.3329999 7:3.3329999 8:1.1109999 9:7.7779999 10:10 11:8.8889999 12:1.1109999 13:4.4439998 14:5.5560002 15:6.6669998 16:7.7779999 17:2.2219999 18:5.5560002 19:0 20:3.3329999 #
-0.40590978299998869971432213787921 1:8.7889996 2:0.58600003 3:2.9300001 4:3.3199999 5:5.664 6:7.8119998 7:0.391 8:6.836 9:2.734 10:13.867 11:2.539 12:3.9059999 13:7.0310001 14:4.4920001 15:5.4689999 16:5.4689999 17:6.0549998 18:5.664 19:3.125 20:3.3199999 #
-0.050803633472936253479002033373035 1:4.5180001 2:1.807 3:6.0240002 4:9.3369999 5:4.217 6:3.9159999 7:3.0120001 8:5.723 9:8.1330004 10:6.0240002 11:2.108 12:2.711 13:7.8309999 14:3.0120001 15:5.4219999 16:8.1330004 17:5.723 18:6.3249998 19:1.807 20:4.217 #
-0.41839160897908855840654496205389 1:6.25 2:1.316 3:5.592 4:9.2110004 5:5.592 6:5.921 7:1.316 8:4.605 9:7.895 10:9.5389996 11:2.632 12:2.961 13:6.25 14:3.618 15:4.605 16:7.237 17:3.618 18:4.934 19:0.98699999 20:5.921 #
-0.21510376745850565138873378145945 1:17.112 2:0.53500003 3:2.1389999 4:2.674 5:2.674 6:18.181999 7:1.604 8:2.1389999 9:2.1389999 10:11.23 11:2.674 12:0.53500003 13:3.743 14:7.487 15:5.348 16:5.348 17:6.9520001 18:5.882 19:0 20:1.604 #
-0.19351069815403965090894189415849 1:8.974 2:0 3:7.6919999 4:17.948999 5:2.5639999 6:5.1279998 7:1.2819999 8:8.974 9:5.1279998 10:6.4099998 11:2.5639999 12:3.846 13:1.2819999 14:5.1279998 15:1.2819999 16:3.846 17:7.6919999 18:8.974 19:0 20:1.2819999 #
-0.3902533707751550395848028074397 1:10.373 2:2.431 3:4.5380001 4:3.079 5:4.2140002 6:4.3759999 7:4.862 8:6.9689999 9:4.2140002 10:6.645 11:2.5929999 12:4.052 13:8.7519999 14:1.783 15:3.566 16:8.5900002 17:5.9970002 18:8.4280005 19:0.972 20:3.566 #
-0.19658755718080392349556007047795 1:12 2:4.8000002 3:0 4:2.4000001 5:12.8 6:5.5999999 7:3.2 8:4.8000002 9:4.8000002 10:14.4 11:4 12:0.80000001 13:4.8000002 14:4 15:5.5999999 16:6.4000001 17:1.6 18:4.8000002 19:3.2 20:0 #
-0.50000132133699493053313744894695 1:10.27 2:0.81099999 3:2.7030001 4:2.4319999 5:3.243 6:9.4589996 7:1.081 8:9.4589996 9:1.622 10:15.946 11:3.7839999 12:1.622 13:5.4050002 14:2.973 15:4.0539999 16:3.243 17:5.4050002 18:11.622 19:3.5139999 20:1.351 #
-0.17135888924929817966891221203696 1:4.118 2:1.176 3:7.059 4:8.8240004 5:2.941 6:5.882 7:0 8:3.529 9:14.118 10:12.353 11:1.765 12:6.4710002 13:1.176 14:5.882 15:0.588 16:11.765 17:5.2940001 18:4.7059999 19:0 20:2.3529999 #
-0.26176743934786433909422953547619 1:5.6160002 2:1.63 3:5.7969999 4:6.3410001 5:5.072 6:6.8839998 7:1.812 8:9.6009998 9:4.1669998 10:7.428 11:2.355 12:4.348 13:3.4419999 14:3.0799999 15:5.4349999 16:6.1589999 17:6.5219998 18:7.9710002 19:2.8989999 20:3.4419999 #
-0.48188531800856093667562163318507 1:10.067 2:1.007 3:4.027 4:3.3559999 5:4.698 6:8.0539999 7:1.342 8:4.362 9:7.0469999 10:10.403 11:4.698 12:4.698 13:4.698 14:2.349 15:5.0339999 16:5.0339999 17:6.711 18:6.711 19:1.342 20:4.362 #
-0.24327655321808328015009692535386 1:3.684 2:1.579 3:10 4:6.316 5:7.895 6:5.789 7:0.52600002 8:4.737 9:10 10:9.474 11:3.158 12:4.737 13:3.158 14:5.263 15:3.158 16:7.368 17:2.632 18:5.263 19:1.053 20:4.211 #
-0.21085567131957119735297112583794 1:13.935 2:0.245 3:3.484 4:3.8269999 5:1.521 6:14.181 7:3.1400001 8:2.257 9:5.8390002 10:5.6430001 11:2.5020001 12:5.447 13:5.447 14:8.342 15:2.6010001 16:11.629 17:3.8269999 18:4.711 19:0.245 20:1.178 #
-0.22401701913276653166384733140148 1:7.368 2:4.211 3:6.316 4:5.263 5:3.158 6:11.579 7:0 8:4.211 9:6.316 10:6.316 11:7.368 12:5.263 13:2.105 14:6.316 15:7.368 16:7.368 17:2.105 18:4.211 19:1.053 20:2.105 #
-0.50000132133699493053313744894695 1:9.5349998 2:1.222 3:2.934 4:3.178 5:7.335 6:10.269 7:2.4449999 8:7.8239999 9:3.6670001 10:10.758 11:4.8899999 12:3.4230001 13:2.934 14:3.4230001 15:1.711 16:6.3569999 17:6.112 18:7.8239999 19:1.222 20:2.934 #
-0.23487054716269462062427919590846 1:8.434 2:1.205 3:3.2130001 4:3.414 5:7.4299998 6:8.434 7:3.6140001 8:6.6269999 9:2.8110001 10:10.241 11:3.2130001 12:3.2130001 13:4.217 14:3.6140001 15:2.6099999 16:7.4299998 17:5.823 18:8.6350002 19:2.2090001 20:3.6140001 #
-0.2456619673009836080090906307305 1:7.6040001 2:2.7650001 3:8.0649996 4:9.4469995 5:2.9949999 6:9.908 7:2.5350001 8:2.3039999 9:3.4560001 10:9.217 11:1.613 12:1.613 13:4.8390002 14:3.4560001 15:2.9949999 16:7.1430001 17:7.1430001 18:9.217 19:2.5350001 20:1.152 #
-0.49388551876343900204346937243827 1:6.5679998 2:1.271 3:4.6609998 4:7.6269999 5:2.119 6:8.8979998 7:2.3310001 8:6.3559999 9:5.085 10:9.5340004 11:2.119 12:4.237 13:3.8139999 14:2.3310001 15:7.415 16:8.0509996 17:4.237 18:8.6859999 19:1.483 20:3.178 #
-0.2239150234339042644382544722248 1:6.993 2:6.993 3:6.6430001 4:8.3920002 5:5.2449999 6:2.098 7:4.1960001 8:3.497 9:5.5939999 10:5.5939999 11:1.399 12:8.3920002 13:4.1960001 14:4.5450001 15:5.5939999 16:7.6919999 17:4.895 18:5.5939999 19:0.699 20:1.748 #
-0.46519106377512059458112503307348 1:4.6760001 2:1.439 3:3.5969999 4:4.6760001 5:8.2729998 6:6.835 7:5.0359998 8:8.2729998 9:3.957 10:13.669 11:3.237 12:3.237 13:3.5969999 14:3.957 15:3.957 16:5.0359998 17:2.878 18:6.835 19:2.878 20:3.957 #
-0.50000132133699493053313744894695 1:5.9089999 2:2.727 3:4.7729998 4:6.3639998 5:5.6820002 6:5.9089999 7:4.3179998 8:4.5450001 9:6.8179998 10:9.5450001 11:2.9549999 12:3.4089999 13:4.0910001 14:3.8640001 15:3.8640001 16:5.4549999 17:5.6820002 18:7.5 19:2.273 20:4.3179998 #
-0.44047263533141417513050441812084 1:9.4849997 2:1.626 3:2.71 4:5.691 5:3.7939999 6:9.4849997 7:3.523 8:2.168 9:1.897 10:11.924 11:1.897 12:2.71 13:5.4200001 14:4.336 15:7.3169999 16:3.2520001 17:6.2329998 18:10.027 19:2.168 20:4.336 #
-0.16780538177681417200126645639102 1:3.4030001 2:1.1339999 3:4.915 4:6.2379999 5:4.7259998 6:5.1040001 7:1.89 8:6.994 9:8.1289997 10:10.208 11:1.512 12:4.7259998 13:5.4819999 14:5.671 15:2.6470001 16:13.043 17:6.427 18:4.7259998 19:0.94499999 20:2.079 #
-0.20061738919864754993049871245603 1:8.0190001 2:1.415 3:5.6599998 4:3.5380001 5:5.6599998 6:5.1890001 7:3.5380001 8:3.5380001 9:3.5380001 10:10.142 11:2.5940001 12:2.358 13:7.3109999 14:4.717 15:11.792 16:7.0749998 17:4.4809999 18:4.9530001 19:0.708 20:3.7739999 #
-0.50000132133699493053313744894695 1:7.8540001 2:1.341 3:2.49 4:3.6400001 5:7.6630001 6:9.9619999 7:1.341 8:7.8540001 9:3.6400001 10:9.5790005 11:3.448 12:2.6819999 13:4.2150002 14:3.448 15:4.2150002 16:6.513 17:5.3639998 18:9.0039997 19:2.299 20:3.448 #
-0.35618563706293704385075216123369 1:7.5339999 2:2.5109999 3:2.5109999 4:3.1960001 5:9.5889997 6:7.5339999 7:2.5109999 8:8.9040003 9:3.881 10:9.5889997 11:3.881 12:3.425 13:6.3930001 14:2.0550001 15:2.5109999 16:5.7080002 17:4.7950001 18:6.849 19:2.74 20:3.881 #
-0.36034716038955039163482751973788 1:5.882 2:2.2620001 3:3.1670001 4:1.8099999 5:5.882 6:7.2399998 7:0.90499997 8:4.5250001 9:2.2620001 10:17.646999 11:2.7149999 12:3.1670001 13:4.072 14:4.5250001 15:4.5250001 16:6.335 17:7.2399998 18:7.2399998 19:2.7149999 20:5.882 #
-0.34729203788717916134842766950896 1:5.0640001 2:1.888 3:7.21 4:4.6350002 5:4.8070002 6:5.322 7:1.974 8:6.2659998 9:7.1240001 10:8.7550001 11:2.575 12:5.0640001 13:4.7210002 14:3.0039999 15:3.948 16:9.0129995 17:6.2659998 18:6.8670001 19:1.974 20:3.5190001 #
-0.20702676406389841634592130503734 1:11.594 2:0 3:4.348 4:11.594 5:1.449 6:4.348 7:0 8:5.7969999 9:10.145 10:11.594 11:1.449 12:1.449 13:5.7969999 14:2.8989999 15:10.145 16:4.348 17:1.449 18:5.7969999 19:0 20:5.7969999 #
-0.16171064475521984560302257705189 1:8.3100004 2:1.6619999 3:7.4790001 4:6.0939999 5:3.6010001 6:3.878 7:3.0469999 8:6.6479998 9:7.756 10:10.249 11:3.6010001 12:3.3239999 13:3.878 14:4.9860001 15:4.9860001 16:6.3709998 17:4.9860001 18:6.6479998 19:1.108 20:1.385 #
-0.13921747519533478332220965967281 1:10.833 2:0 3:4.1669998 4:1.6670001 5:5.8330002 6:4.1669998 7:5 8:10 9:2.5 10:13.333 11:4.1669998 12:3.3329999 13:2.5 14:3.3329999 15:7.5 16:5.8330002 17:4.1669998 18:6.6669998 19:3.3329999 20:1.6670001 #
-0.13602827034667278049973049292021 1:16.455999 2:0 3:3.7969999 4:2.5320001 5:5.0630002 6:12.658 7:0 8:10.127 9:1.266 10:15.19 11:10.127 12:2.5320001 13:3.7969999 14:2.5320001 15:2.5320001 16:0 17:1.266 18:7.5949998 19:0 20:2.5320001 #
-0.1471779162397250373395252154296 1:5.7360001 2:2.244 3:1.7460001 4:5.4860001 5:1.4960001 6:7.4809999 7:5.237 8:1.995 9:4.4889998 10:9.4759998 11:1.4960001 12:1.247 13:15.711 14:13.965 15:7.7309999 16:6.2340002 17:2.244 18:3.2420001 19:1.4960001 20:1.247 #
-0.37040175577939787876502464314399 1:9.0349998 2:0.61299998 3:4.1350002 4:9.0349998 5:4.9000001 6:9.342 7:3.369 8:4.5939999 9:6.4320002 10:11.945 11:2.6029999 12:3.369 13:5.2069998 14:1.9910001 15:4.9000001 16:5.9720001 17:2.757 18:4.441 19:1.9910001 20:3.369 #
-0.34027567205397518668164025257283 1:8.7819996 2:0.2 3:6.5869999 4:6.9860001 5:3.9920001 6:8.5830002 7:1.597 8:8.3830004 9:4.1919999 10:9.1820002 11:1.796 12:2.395 13:4.5910001 14:4.9899998 15:5.5890002 16:5.3889999 17:6.5869999 18:7.585 19:0 20:2.595 #
-0.027902068294815340898651356837945 1:6.5139999 2:1.943 3:4.5710001 4:7.6570001 5:3.543 6:7.5430002 7:1.829 8:6.0570002 9:5.5999999 10:11.429 11:2.971 12:4.2290001 13:5.0289998 14:2.971 15:5.257 16:7.3140001 17:5.9429998 18:6.4000001 19:0.68599999 20:2.5139999 #
-0.12183147530633332833449600229869 1:5.2420001 2:1.613 3:4.4349999 4:4.8390002 5:4.8390002 6:5.2420001 7:3.2260001 8:9.677 9:5.645 10:6.855 11:2.4189999 12:11.694 13:0.403 14:6.855 15:0.80599999 16:8.4680004 17:7.2579999 18:8.4680004 19:0.403 20:1.613 #
-0.14420105884047140776260675920639 1:5.046 2:1.0700001 3:4.2810001 4:6.881 5:0.76499999 6:25.535 7:1.529 8:3.0580001 9:7.645 10:6.2690001 11:2.599 12:1.376 13:16.514 14:4.8930001 15:4.2810001 16:3.0580001 17:2.4460001 18:1.988 19:0.153 20:0.61199999 #
-0.15706801210431942106282576787635 1:13.586 2:1.7819999 3:4.677 4:5.1220002 5:1.7819999 6:7.572 7:1.114 8:4.0089998 9:2.0039999 10:8.2410002 11:1.7819999 12:2.895 13:15.59 14:4.9000001 15:5.3449998 16:5.7909999 17:6.6820002 18:4.454 19:1.559 20:1.114 #
-0.50000132133699493053313744894695 1:5.2870002 2:2.299 3:5.2870002 4:9.4250002 5:4.368 6:5.0570002 7:2.9890001 8:4.598 9:7.1259999 10:8.5059996 11:2.9890001 12:3.678 13:6.8969998 14:4.138 15:5.5170002 16:7.586 17:4.138 18:5.2870002 19:1.839 20:2.9890001 #
-0.37696729592668148933753968776728 1:7.3509998 2:1.189 3:6.8109999 4:6.9190001 5:5.1890001 6:7.5679998 7:2.0539999 8:3.892 9:3.5680001 10:7.027 11:4 12:4.4320002 13:9.0810003 14:2.9189999 15:5.5139999 16:7.4590001 17:4.757 18:4.2160001 19:1.946 20:4.1079998 #
-0.20133586533074093738449050761119 1:9.1949997 2:0 3:6.8969998 4:12.644 5:2.299 6:3.448 7:0 8:3.448 9:13.793 10:10.345 11:2.299 12:4.598 13:3.448 14:4.598 15:1.149 16:5.7470002 17:3.448 18:4.598 19:2.299 20:5.7470002 #
-0.14461393166233124651931518656056 1:9.5240002 2:0 3:2.381 4:4.7620001 5:4.7620001 6:7.1430001 7:0 8:2.381 9:7.1430001 10:14.286 11:2.381 12:2.381 13:7.1430001 14:2.381 15:7.1430001 16:4.7620001 17:0 18:11.905 19:9.5240002 20:0 #
-0.32078574203678256182570294186007 1:7.8709998 2:0.89399999 3:5.9029999 4:5.9029999 5:5.546 6:4.4720001 7:3.0409999 8:4.8299999 9:8.2290001 10:10.733 11:2.862 12:6.0819998 13:4.1139998 14:2.862 15:5.0089998 16:6.0819998 17:4.1139998 18:5.546 19:1.61 20:4.2930002 #
-0.30522816348496467631079553939344 1:7.4920001 2:3.0179999 3:7.8039999 4:6.348 5:4.1620002 6:5.5149999 7:3.642 8:4.6830001 9:6.5560002 10:8.2209997 11:1.977 12:3.3299999 13:2.914 14:3.0179999 15:6.6599998 16:7.388 17:5.099 18:7.2839999 19:1.977 20:2.914 #
-0.14439279704341020926783301092655 1:0 2:9.3330002 3:2.6670001 4:4 5:1.3329999 6:10.667 7:0 8:0 9:2.6670001 10:8 11:1.3329999 12:1.3329999 13:12 14:28 15:0 16:4 17:0 18:4 19:0 20:10.667 #
-0.11574568535186029183403633169291 1:27.046 2:0 3:1.068 4:20.285 5:2.135 6:9.9639997 7:0.35600001 8:0 9:9.6090002 10:0.35600001 11:0.35600001 12:1.779 13:6.7620001 14:4.6259999 15:1.068 16:10.32 17:2.8469999 18:1.423 19:0 20:0 #
-0.19617534575649103745220713790332 1:10.241 2:0.90399998 3:2.711 4:5.1199999 5:3.313 6:6.0240002 7:4.5180001 8:3.9159999 9:3.313 10:8.434 11:3.9159999 12:3.6140001 13:4.8189998 14:4.5180001 15:5.4219999 16:8.1330004 17:6.3249998 18:9.3369999 19:0.301 20:5.1199999 #
-0.24976779526604830916625132886111 1:7.8740001 2:3.4119999 3:3.937 4:3.1500001 5:5.2490001 6:5.7740002 7:1.312 8:7.612 9:4.987 10:8.3990002 11:5.7740002 12:3.675 13:6.0370002 14:1.05 15:2.625 16:8.1359997 17:6.5619998 18:6.2989998 19:3.1500001 20:4.987 #
-0.14212945926625514259100668823521 1:11.34 2:0.51499999 3:0 4:0 5:1.031 6:9.2779999 7:2.5769999 8:1.546 9:1.031 10:1.546 11:3.608 12:3.0929999 13:19.587999 14:4.6389999 15:1.546 16:8.2469997 17:10.825 18:8.7629995 19:0.51499999 20:10.309 #
-0.14560994794561016307810064063233 1:9.8900003 2:8.7910004 3:1.099 4:1.099 5:1.099 6:10.989 7:0 8:6.5929999 9:5.4949999 10:5.4949999 11:1.099 12:10.989 13:5.4949999 14:4.3959999 15:4.3959999 16:7.6919999 17:6.5929999 18:7.6919999 19:0 20:1.099 #
-0.14431863211093243215543679980328 1:8.7869997 2:0.41800001 3:2.51 4:7.5310001 5:2.092 6:3.766 7:0.83700001 8:4.6030002 9:7.5310001 10:5.4390001 11:1.674 12:2.9289999 13:16.736 14:5.0209999 15:5.8579998 16:5.4390001 17:5.8579998 18:10.879 19:0.83700001 20:1.255 #
-0.40112819368608265691023007093463 1:7.6090002 2:0.36199999 3:6.5219998 4:2.8989999 5:4.71 6:7.9710002 7:2.174 8:5.7969999 9:8.6960001 10:9.4200001 11:0.72500002 12:4.71 13:3.2609999 14:2.536 15:1.812 16:10.87 17:9.783 18:7.6090002 19:0.36199999 20:2.174 #
-0.3108967114946734611180545471143 1:12.147 2:1.13 3:5.085 4:3.3900001 5:7.3449998 6:10.452 7:3.9549999 8:6.4970002 9:2.26 10:9.3219995 11:2.5420001 12:4.802 13:3.3900001 14:2.5420001 15:3.6719999 16:5.9320002 17:3.6719999 18:5.085 19:2.825 20:3.9549999 #
-0.13795529624814820146561089586612 1:6.1859999 2:0 3:2.062 4:11.34 5:4.1240001 6:4.1240001 7:0 8:7.2160001 9:4.1240001 10:12.371 11:3.0929999 12:1.031 13:7.2160001 14:2.062 15:1.031 16:9.2779999 17:11.34 18:8.2469997 19:0 20:5.1550002 #
-0.13321343037852895196948566081119 1:11.917 2:0.333 3:3.75 4:3 5:0.833 6:16.417 7:1.0829999 8:3.6670001 9:1.1670001 10:7.0830002 11:0.667 12:2.1670001 13:1.25 14:4.5830002 15:2.5829999 16:16.333 17:13.833 18:3.0829999 19:0.583 20:5.6669998 #
-0.13231898453485421707220837106433 1:4.145 2:1.036 3:10.881 4:2.332 5:3.109 6:11.917 7:4.9219999 8:5.4400001 9:0.259 10:18.912001 11:1.813 12:4.145 13:9.3260002 14:3.8859999 15:2.332 16:5.6989999 17:3.109 18:2.073 19:2.5910001 20:2.073 #
-0.11927811016860331849720466834697 1:4.171 2:0.52100003 3:2.503 4:1.9809999 5:6.257 6:12.513 7:0.73000002 8:2.8150001 9:4.6919999 10:6.9860001 11:1.043 12:15.016 13:4.6919999 14:6.3610001 15:1.46 16:14.39 17:9.5930004 18:2.9200001 19:0.104 20:1.251 #
-0.36648480165226493543428887278424 1:10.494 2:1.029 3:5.3499999 4:4.527 5:3.704 6:6.3790002 7:2.0580001 8:7.6129999 9:3.2920001 10:12.346 11:4.9380002 12:2.4690001 13:4.3210001 14:3.2920001 15:7.2020001 16:5.1440001 17:3.9089999 18:6.1729999 19:2.675 20:3.086 #
-0.34466538928677786790544246287027 1:13.211 2:2.2360001 3:5.0809999 4:6.098 5:3.049 6:8.3330002 7:1.829 8:1.626 9:2.642 10:11.179 11:2.642 12:2.2360001 13:6.5040002 14:3.4549999 15:6.5040002 16:5.2849998 17:3.862 18:10.366 19:2.033 20:1.829 #
-0.21226370429029481345928331847972 1:10.714 2:1.531 3:3.0610001 4:1.531 5:6.1220002 6:7.6529999 7:1.531 8:2.5510001 9:4.0819998 10:12.245 11:1.531 12:3.0610001 13:4.592 14:5.612 15:6.1220002 16:5.612 17:6.6329999 18:7.1430001 19:4.592 20:4.0819998 #
-0.12647928356693396989562927501538 1:3.283 2:1.2309999 3:5.335 4:7.5240002 5:1.368 6:4.3779998 7:3.625 8:2.8039999 9:10.739 10:3.967 11:1.026 12:3.625 13:4.7880001 14:3.352 15:10.192 16:20.246 17:4.651 18:4.309 19:0.82099998 20:2.7360001 #
-0.13410712107953567939766514882649 1:14.925 2:0 3:8.9549999 4:4.4780002 5:2.9849999 6:10.448 7:1.493 8:4.4780002 9:14.925 10:14.925 11:2.9849999 12:1.493 13:0 14:1.493 15:1.493 16:2.9849999 17:4.4780002 18:7.4629998 19:0 20:0 #
-0.12176741869448634569828016083193 1:19.872 2:0.64099997 3:5.1279998 4:11.538 5:1.923 6:1.923 7:0.64099997 8:8.3330002 9:9.6149998 10:8.974 11:1.923 12:2.5639999 13:1.2819999 14:6.4099998 15:6.4099998 16:3.2049999 17:1.923 18:6.4099998 19:0.64099997 20:0.64099997 #
-0.19700117297347591316380999160174 1:7.5040002 2:1.631 3:4.5679998 4:7.178 5:5.71 6:9.7880001 7:1.4680001 8:5.3829999 9:2.6099999 10:10.114 11:1.4680001 12:2.773 13:8.6459999 14:3.915 15:7.6669998 16:5.71 17:4.7309999 18:6.362 19:0.653 20:2.1210001 #
-0.1216749286255072864948445499067 1:9.5740004 2:1.862 3:4.2550001 4:6.1170001 5:3.457 6:8.7770004 7:0.79799998 8:1.33 9:1.33 10:11.702 11:0.266 12:0.266 13:10.106 14:5.585 15:12.234 16:7.9790001 17:5.8509998 18:5.3189998 19:1.862 20:1.33 #
-0.21704839460326286193492251186399 1:12.78 2:0.44800001 3:6.5019999 4:5.605 5:2.2420001 6:6.9510002 7:1.794 8:6.0539999 9:1.5700001 10:10.314 11:0.89700001 12:3.3629999 13:5.1570001 14:3.1389999 15:8.9689999 16:6.7259998 17:6.2779999 18:9.4169998 19:0.67299998 20:1.1210001 #
-0.35856777160679270677334784522827 1:4.3800001 2:1.277 3:5.474 4:4.7449999 5:6.204 6:5.474 7:1.642 8:8.5769997 9:9.6719999 10:9.1239996 11:2.007 12:5.8390002 13:4.927 14:2.9200001 15:2.9200001 16:7.1170001 17:4.3800001 18:6.204 19:2.737 20:4.3800001 #
-0.11378158026966947447000677584583 1:5.0479999 2:1.082 3:7.6919999 4:6.0100002 5:3.846 6:3.9660001 7:1.803 8:9.1350002 9:8.0530005 10:14.904 11:0.96200001 12:6.9710002 13:2.1630001 14:3.4860001 15:2.885 16:9.0139999 17:5.2880001 18:4.447 19:0.361 20:2.885 #
-0.20231077814739420461798147243826 1:11.228 2:1.404 3:6.6669998 4:5.6139998 5:3.8599999 6:5.9650002 7:0.35100001 8:6.316 9:6.6669998 10:7.7189999 11:2.8069999 12:4.211 13:2.8069999 14:6.316 15:4.9120002 16:5.263 17:4.5609999 18:10.175 19:0.35100001 20:2.8069999 #
-0.39738066360221824258047718103626 1:8.559 2:2.714 3:1.67 4:3.549 5:6.8889999 6:7.098 7:2.0880001 8:7.9330001 9:2.714 10:14.196 11:4.802 12:2.0880001 13:5.2189999 14:3.132 15:2.9230001 16:7.5159998 17:5.2189999 18:7.724 19:0.83499998 20:3.132 #
-0.11783508360334087050613760538909 1:8.75 2:1.25 3:1.25 4:10 5:3.75 6:7.5 7:1.25 8:12.5 9:13.75 10:5 11:1.25 12:2.5 13:3.75 14:3.75 15:3.75 16:2.5 17:2.5 18:11.25 19:0 20:3.75 #
-0.11662355602945126409331066952291 1:7.2290001 2:0 3:4.8189998 4:4.8189998 5:2.4100001 6:7.2290001 7:1.205 8:6.0240002 9:1.205 10:4.8189998 11:3.6140001 12:9.6389999 13:2.4100001 14:6.0240002 15:10.843 16:10.843 17:3.6140001 18:8.434 19:0 20:4.8189998 #
-0.13418858029076166649140589015587 1:9.1429996 2:1.714 3:2.286 4:6.2859998 5:1.143 6:5.1430001 7:2.8570001 8:3.4289999 9:5.1430001 10:9.1429996 11:3.4289999 12:1.143 13:3.4289999 14:6.8569999 15:11.429 16:10.286 17:9.7139997 18:5.1430001 19:1.143 20:1.143 #
-0.15165625628247225709088752410025 1:13.23 2:0.389 3:1.556 4:3.1129999 5:4.2800002 6:11.673 7:1.556 8:8.1709995 9:2.335 10:16.341999 11:5.8369999 12:2.724 13:5.8369999 14:1.946 15:1.556 16:7.0040002 17:3.5020001 18:6.6149998 19:0.778 20:1.556 #
-0.1744410151730241276268884575984 1:12.473 2:0.65600002 3:2.6259999 4:2.188 5:4.5949998 6:9.1899996 7:1.094 8:8.5340004 9:1.969 10:13.348 11:5.033 12:2.188 13:3.9389999 14:3.72 15:5.2519999 16:4.8140001 17:4.8140001 18:8.5340004 19:1.5319999 20:3.5009999 #
-0.069549951535740089925141660387453 1:15.088 2:0.35100001 3:1.7539999 4:2.105 5:4.9120002 6:8.0699997 7:0.70200002 8:4.9120002 9:2.105 10:11.93 11:6.6669998 12:1.7539999 13:4.211 14:4.5609999 15:5.263 16:4.5609999 17:6.6669998 18:11.579 19:1.053 20:1.7539999 #
-0.11489514053477960231486321163175 1:10.082 2:0 3:8.6420002 4:7.2020001 5:1.235 6:6.9959998 7:4.7329998 8:3.704 9:9.6709995 10:2.263 11:1.029 12:11.523 13:2.4690001 14:8.8479996 15:3.2920001 16:9.0530005 17:4.9380002 18:3.086 19:0 20:1.235 #
-0.10680125658417474743266950554244 1:10.207 2:0 3:5.954 4:5.711 5:7.533 6:7.8979998 7:0.36500001 8:1.823 9:10.936 10:3.767 11:0.243 12:10.936 13:5.1030002 14:3.5239999 15:0.36500001 16:14.581 17:8.5050001 18:1.823 19:0.243 20:0.486 #
-0.14159116252025413795756492163491 1:5.0890002 2:3.053 3:4.0710001 4:5.598 5:4.5799999 6:4.0710001 7:2.29 8:4.3260002 9:6.8699999 10:6.6160002 11:1.527 12:4.0710001 13:8.651 14:4.3260002 15:1.527 16:9.6689997 17:9.415 18:9.9239998 19:2.036 20:2.29 #
-0.16224903153749761774982118822663 1:9.2390003 2:1.624 3:4.2639999 4:5.178 5:3.2490001 6:10.457 7:2.6400001 8:4.6700001 9:3.553 10:8.2229996 11:2.234 12:4.6700001 13:4.2639999 14:8.6289997 15:4.7719998 16:7.3099999 17:5.6849999 18:5.9899998 19:0.81199998 20:2.5380001 #
-0.12338128039296727966878108873061 1:7.5139999 2:2.312 3:1.734 4:1.156 5:8.6709995 6:9.8269997 7:2.312 8:7.5139999 9:2.312 10:7.5139999 11:6.9359999 12:3.4679999 13:1.734 14:1.734 15:3.4679999 16:15.029 17:5.7800002 18:4.6240001 19:3.4679999 20:2.8900001 #
-0.11459797855870626492880148816766 1:10.667 2:1.3329999 3:8.6669998 4:2 5:2.6670001 6:10 7:4.6669998 8:1.3329999 9:3.3329999 10:10 11:2.6670001 12:0.667 13:15.333 14:3.3329999 15:5.3330002 16:6.6669998 17:4 18:7.3330002 19:0 20:0 #
-0.18693840609346404346702286147774 1:7.1599998 2:0.23899999 3:4.7729998 4:8.3529997 5:6.4439998 6:4.7729998 7:2.8640001 8:10.979 9:5.4889998 10:8.592 11:2.3870001 12:4.7729998 13:1.909 14:2.625 15:2.3870001 16:8.8310003 17:8.1149998 18:6.2049999 19:0.23899999 20:2.8640001 #
-0.26444701285000793422597098469851 1:4.77 2:2.862 3:5.6370001 4:7.2849998 5:3.99 6:5.724 7:2.862 8:5.4640002 9:7.112 10:10.494 11:2.428 12:4.0760002 13:4.5970001 14:4.25 15:5.8109999 16:5.4640002 17:6.0710001 18:5.8109999 19:1.301 20:3.99 #
-0.11360045283311301367312751153804 1:26.818001 2:0 3:4.5450001 4:18.181999 5:0 6:6.8179998 7:0 8:0 9:12.727 10:0.45500001 11:0.45500001 12:0.90899998 13:11.364 14:3.1819999 15:0 16:8.6359997 17:3.1819999 18:2.273 19:0 20:0.45500001 #
-0.10115725857906390783291783463937 1:3.03 2:1.515 3:7.5760002 4:4.5450001 5:6.0609999 6:16.667 7:0 8:6.0609999 9:4.5450001 10:10.606 11:3.03 12:4.5450001 13:4.5450001 14:1.515 15:9.0909996 16:4.5450001 17:3.03 18:4.5450001 19:0 20:4.5450001 #
-0.10010435695459994620559740496901 1:6.8629999 2:6.8629999 3:1.961 4:2.941 5:8.8240004 6:2.941 7:3.9219999 8:4.902 9:1.961 10:14.706 11:0.98000002 12:0 13:3.9219999 14:0.98000002 15:3.9219999 16:17.646999 17:3.9219999 18:7.8429999 19:2.941 20:1.961 #
-0.096481286760896109444551882461383 1:6.6950002 2:0 3:4.6030002 4:5.0209999 5:2.092 6:8.7869997 7:1.255 8:4.6030002 9:5.8579998 10:6.6950002 11:2.51 12:4.184 13:4.184 14:5.4390001 15:4.6030002 16:8.368 17:8.368 18:9.2049999 19:2.092 20:5.4390001 #
-0.042675746791250246392479539281339 1:9.0319996 2:0.64499998 3:4.5159998 4:5.8060002 5:4.5159998 6:9.677 7:1.9349999 8:5.8060002 9:7.0970001 10:7.0970001 11:1.9349999 12:4.5159998 13:3.2260001 14:5.1609998 15:4.5159998 16:6.4520001 17:3.8710001 18:8.3870001 19:2.5810001 20:3.2260001 #
-0.097592336108885999190754034771089 1:12.281 2:0 3:5.263 4:13.158 5:0.87699997 6:5.263 7:1.7539999 8:8.7720003 9:19.298 10:7.0180001 11:0.87699997 12:2.632 13:0.87699997 14:6.1399999 15:1.7539999 16:3.5090001 17:2.632 18:6.1399999 19:0 20:1.7539999 #
-0.092811006853650207526484905429243 1:9.7559996 2:1.626 3:2.4389999 4:6.5040002 5:2.4389999 6:4.8779998 7:3.2520001 8:3.2520001 9:1.626 10:21.138 11:2.4389999 12:0.81300002 13:5.691 14:9.7559996 15:3.2520001 16:8.1300001 17:5.691 18:4.0650001 19:3.2520001 20:0 #
-0.083173473485446361430639683476329 1:7.1430001 2:1.724 3:4.6799998 4:4.4330001 5:4.4330001 6:4.9260001 7:1.97 8:3.941 9:5.9109998 10:7.3889999 11:9.1129999 12:6.158 13:3.448 14:3.2019999 15:1.724 16:16.995001 17:5.9109998 18:3.6949999 19:0.98500001 20:2.217 #
-0.10743441304059618557342759004314 1:12.883 2:0.61299998 3:5.5209999 4:3.0669999 5:2.1470001 6:9.5089998 7:0.92000002 8:6.7480001 9:3.3740001 10:7.6690001 11:0.92000002 12:4.6009998 13:8.2819996 14:2.1470001 15:5.2150002 16:7.362 17:8.2819996 18:8.5889997 19:0.61299998 20:1.534 #
-0.23917552432922542515747466040921 1:5.0209999 2:0.83700001 3:6.0669999 4:8.9960003 5:3.138 6:5.0209999 7:1.046 8:8.7869997 9:8.7869997 10:7.322 11:1.255 12:4.184 13:7.9499998 14:3.9749999 15:4.8119998 16:7.1129999 17:4.8119998 18:6.276 19:1.464 20:3.138 #
-0.082519831337191540399089717539027 1:10.169 2:0 3:5.085 4:3.3900001 5:10.169 6:6.7800002 7:0 8:3.3900001 9:10.169 10:5.085 11:3.3900001 12:5.085 13:8.4750004 14:0 15:5.085 16:5.085 17:3.3900001 18:8.4750004 19:1.6950001 20:5.085 #
-0.11523383170228436445103881169416 1:7.5 2:2.5 3:1.25 4:1.875 5:6.875 6:6.25 7:3.125 8:7.5 9:1.25 10:16.875 11:1.875 12:2.5 13:0.625 14:4.375 15:3.125 16:9.375 17:5.625 18:10 19:3.125 20:4.375 #
-0.079212408683402374398596634819114 1:3.385 2:1.2309999 3:6.7690001 4:6.1539998 5:4 6:3.385 7:1.846 8:7.6919999 9:12.923 10:4.3080001 11:2.154 12:13.538 13:2.7690001 14:4.9229999 15:1.538 16:9.8459997 17:6.1539998 18:3.385 19:0.308 20:3.6919999 #
-0.074733898093545497731682303310663 1:3.073 2:1.655 3:2.3640001 4:1.891 5:4.0190001 6:6.619 7:2.128 8:9.9289999 9:8.0380001 10:9.9289999 11:8.0380001 12:8.9829998 13:2.3640001 14:2.128 15:2.3640001 16:6.8559999 17:5.2010002 18:4.0190001 19:1.891 20:8.5109997 #
-0.22978221476955382196472044142865 1:6.073 2:1.619 3:5.8699999 4:8.9069996 5:4.2509999 6:5.0609999 7:0.81 8:4.2509999 9:9.1090002 10:9.3120003 11:4.0489998 12:3.036 13:4.2509999 14:6.2750001 15:3.2390001 16:8.0970001 17:5.263 18:6.073 19:1.215 20:3.2390001 #
-0.12825303644310148687424089075648 1:7.2729998 2:0 3:5.8179998 4:2.1819999 5:7.6360002 6:6.5450001 7:0.36399999 8:5.8179998 9:11.273 10:6.9089999 11:0.727 12:10.182 13:2.9089999 14:2.5450001 15:1.455 16:6.9089999 17:10.182 18:8 19:0.36399999 20:2.9089999 #
-0.078757729115962654686811106330424 1:7.7670002 2:1.942 3:9.2229996 4:11.65 5:0.97100002 6:6.796 7:0.48500001 8:5.3400002 9:5.8249998 10:7.7670002 11:6.3109999 12:6.796 13:0.97100002 14:6.3109999 15:8.2519999 16:4.8540001 17:3.398 18:4.369 19:0.48500001 20:0.48500001 #
-0.079357492988049768700697939038946 1:9.2779999 2:0 3:5.1550002 4:1.031 5:4.1240001 6:5.1550002 7:3.0929999 8:16.495001 9:4.1240001 10:13.402 11:8.2469997 12:4.1240001 13:1.031 14:2.062 15:2.062 16:4.1240001 17:2.062 18:13.402 19:0 20:1.031 #
-0.091335186214935054627162003271224 1:8.1820002 2:2.727 3:0.90899998 4:1.818 5:4.5450001 6:10.909 7:0.90899998 8:13.636 9:0.90899998 10:14.545 11:3.6359999 12:1.818 13:4.5450001 14:1.818 15:2.727 16:7.2729998 17:6.3639998 18:4.5450001 19:3.6359999 20:4.5450001 #
-0.089357301163234204022245421583648 1:5.263 2:3.947 3:1.316 4:5.263 5:6.579 6:1.316 7:2.632 8:13.158 9:2.632 10:7.895 11:3.947 12:2.632 13:2.632 14:2.632 15:5.263 16:7.895 17:5.263 18:6.579 19:3.947 20:9.2110004 #
-0.085901284855370227400150895391562 1:7.744 2:1.684 3:6.7340002 4:15.825 5:3.3670001 6:8.0810003 7:1.684 8:1.347 9:2.694 10:9.7639999 11:0.67299998 12:1.684 13:5.0510001 14:4.3769999 15:5.3870001 16:6.0609999 17:3.03 18:8.0810003 19:4.04 20:2.694 #
-0.057258758492898492731271176126029 1:15.493 2:0 3:4.2249999 4:8.4510002 5:0 6:4.2249999 7:0 8:9.8590002 9:4.2249999 10:9.8590002 11:1.408 12:1.408 13:1.408 14:1.408 15:4.2249999 16:9.8590002 17:4.2249999 18:15.493 19:1.408 20:2.8169999 #
-0.058684941286822972505987650038151 1:6.6389999 2:2.075 3:4.9790001 4:6.6389999 5:7.0539999 6:5.809 7:2.905 8:5.3940001 9:6.6389999 10:10.788 11:1.245 12:4.5640001 13:1.66 14:10.373 15:6.224 16:2.49 17:6.224 18:2.075 19:2.905 20:3.3199999 #
-0.11762296791206816592989525815938 1:8.9289999 2:0.44600001 3:2.6789999 4:8.4820004 5:3.125 6:5.8039999 7:1.786 8:7.5890002 9:8.9289999 10:8.0360003 11:2.6789999 12:4.9109998 13:3.125 14:2.2320001 15:5.8039999 16:8.4820004 17:6.25 18:4.9109998 19:2.6789999 20:3.125 #
-0.10455041866906883418764095949882 1:10.059 2:2.0710001 3:3.846 4:4.1420002 5:8.8760004 6:5.0300002 7:2.0710001 8:4.1420002 9:4.1420002 10:7.3959999 11:2.9590001 12:5.9169998 13:7.1009998 14:5.0300002 15:3.846 16:6.8049998 17:5.0300002 18:6.8049998 19:2.0710001 20:2.6630001 #
-0.069700885439599444270974970550014 1:10.68 2:0 3:0.97100002 4:5.8249998 5:3.8829999 6:5.8249998 7:0 8:6.796 9:7.7670002 10:8.7379999 11:1.942 12:3.8829999 13:5.8249998 14:3.8829999 15:3.8829999 16:3.8829999 17:6.796 18:12.621 19:1.942 20:4.8540001 #
-0.088172863244777119340334081698529 1:3.7869999 2:2.0120001 3:4.1420002 4:4.2600002 5:6.2719998 6:2.4849999 7:1.775 8:6.0359998 9:5.9169998 10:10.769 11:1.775 12:6.0359998 13:8.4020004 14:3.55 15:2.7219999 16:13.491 17:7.6919999 18:5.0890002 19:0.82800001 20:2.9590001 #
-0.066659773337111344337913010349439 1:7.1430001 2:0 3:3.5710001 4:4.1669998 5:4.7620001 6:12.5 7:1.786 8:5.3569999 9:10.119 10:8.9289999 11:2.9760001 12:7.7379999 13:4.1669998 14:4.7620001 15:1.1900001 16:7.1430001 17:7.7379999 18:3.5710001 19:0 20:2.381 #
-0.087906246908938223683094292937312 1:10.581 2:1.6390001 3:6.1100001 4:8.1969995 5:1.341 6:12.817 7:1.937 8:2.2349999 9:7.0040002 10:5.8119998 11:1.192 12:1.6390001 13:9.8360004 14:1.788 15:6.855 16:9.6870003 17:4.7690001 18:5.2160001 19:0.447 20:0.89399999 #
-0.059788212011474904661323392929262 1:4.6950002 2:0.704 3:3.404 4:4.5770001 5:2.3469999 6:5.869 7:3.052 8:5.2820001 9:6.573 10:5.7509999 11:2.582 12:10.798 13:10.563 14:8.5679998 15:2.23 16:11.033 17:4.9299998 18:4.9299998 19:0.58700001 20:1.526 #
-0.064457024067286969315482281217555 1:18.349001 2:0 3:1.835 4:1.835 5:7.3390002 6:10.092 7:0.917 8:7.3390002 9:4.5869999 10:17.431 11:2.7520001 12:1.835 13:0 14:2.7520001 15:3.6700001 16:4.5869999 17:0.917 18:8.257 19:4.5869999 20:0.917 #
-0.074558577375518186869385317550041 1:6.2989998 2:2.362 3:7.8740001 4:3.1500001 5:6.2989998 6:6.2989998 7:3.937 8:9.4490004 9:4.724 10:7.8740001 11:3.937 12:3.937 13:3.937 14:10.236 15:1.575 16:6.2989998 17:3.937 18:3.1500001 19:2.362 20:2.362 #
-0.037708285951927433821140311920317 1:3.625 2:1.635 3:4.691 4:4.8330002 5:6.112 6:5.1170001 7:2.914 8:8.3870001 9:7.5339999 10:8.9549999 11:1.99 12:12.509 13:2.6300001 14:2.9849999 15:2.4159999 16:8.7419996 17:5.3299999 18:5.402 19:0.71100003 20:3.483 #
-0.083228925244772627989320312735799 1:5.7140002 2:1.039 3:1.558 4:2.5969999 5:9.0909996 6:4.9349999 7:2.8570001 8:8.052 9:4.1560001 10:14.545 11:3.3770001 12:4.1560001 13:4.6750002 14:1.818 15:4.4159999 16:6.494 17:4.9349999 18:7.7919998 19:3.1170001 20:4.6750002 #
-0.16809952347199660915855190523871 1:5.5040002 2:1.765 3:5.4000001 4:5.5040002 5:4.0500002 6:5.4000001 7:1.973 8:3.842 9:6.5419998 10:11.111 11:1.661 12:4.777 13:6.3340001 14:4.3610001 15:4.5689998 16:9.2419996 17:6.0229998 18:7.7880001 19:1.558 20:2.596 #
-0.082461350992075244104029252412147 1:11.146 2:2.2290001 3:2.8659999 4:3.1849999 5:4.4590001 6:4.777 7:2.8659999 8:7.9619999 9:5.0960002 10:7.006 11:3.1849999 12:4.4590001 13:5.414 14:4.1399999 15:2.2290001 16:10.191 17:8.599 18:3.822 19:1.911 20:4.4590001 #
-0.049570494959327054962372471891285 1:3.5710001 2:1.429 3:7.8569999 4:4.2859998 5:3.5710001 6:4.2859998 7:0.71399999 8:9.2860003 9:3.5710001 10:14.286 11:5 12:2.1429999 13:4.2859998 14:3.5710001 15:1.429 16:7.8569999 17:10 18:3.5710001 19:2.8570001 20:6.4289999 #
-0.054130972748284142403996099801589 1:11.696 2:0.146 3:5.4089999 4:7.0180001 5:3.655 6:6.2870002 7:2.1930001 8:3.8010001 9:10.088 10:7.164 11:0.58499998 12:3.3629999 13:2.4849999 14:3.655 15:4.8249998 16:11.988 17:4.5320001 18:5.1170001 19:2.0469999 20:3.947 #
-0.056160480037777051054437293942101 1:6.1799998 2:0 3:3.3710001 4:8.9890003 5:6.7420001 6:4.494 7:0.56199998 8:3.9330001 9:12.36 10:11.798 11:0.56199998 12:5.618 13:2.247 14:3.3710001 15:3.3710001 16:6.7420001 17:2.809 18:8.427 19:1.124 20:7.303 #
-0.033516451411459070863774201143315 1:3.448 2:4.598 3:4.598 4:9.1949997 5:6.8969998 6:4.598 7:1.149 8:1.149 9:10.345 10:8.0459995 11:4.598 12:5.7470002 13:0 14:11.494 15:5.7470002 16:5.7470002 17:5.7470002 18:5.7470002 19:0 20:1.149 #
-0.12203276640895857618751563222759 1:7.5560002 2:0.222 3:4.4439998 4:5.1110001 5:4.8889999 6:7.7779999 7:1.556 8:5.5560002 9:4 10:14 11:3.3329999 12:4 13:4.4439998 14:3.556 15:3.7780001 16:6.8889999 17:6.4439998 18:7.5560002 19:2.8889999 20:2 #
-0.035032695166466509828495645706425 1:1.878 2:0.331 3:4.6409998 4:6.7399998 5:3.6459999 6:3.0940001 7:2.099 8:9.0609999 9:7.5139999 10:7.6240001 11:0.773 12:12.707 13:2.7620001 14:11.05 15:2.21 16:11.823 17:4.862 18:2.21 19:0.66299999 20:4.309 #
-0.059093064778409552795235271105412 1:3.3110001 2:1.325 3:4.6360002 4:9.934 5:2.6489999 6:5.2979999 7:2.6489999 8:5.96 9:8.6090002 10:10.596 11:3.3110001 12:4.6360002 13:5.96 14:1.325 15:4.6360002 16:7.947 17:8.6090002 18:4.6360002 19:1.325 20:2.6489999 #
-0.037334899477011421198291429845995 1:12.162 2:0.676 3:4.73 4:3.378 5:3.378 6:12.162 7:1.351 8:5.4050002 9:8.7840004 10:8.7840004 11:2.027 12:3.378 13:2.027 14:0.676 15:2.027 16:8.1079998 17:7.4320002 18:8.1079998 19:1.351 20:4.0539999 #
-0.022682912985224561175368052090562 1:10.7 2:2.1140001 3:4.756 4:4.6240001 5:4.6240001 6:11.361 7:2.378 8:4.756 9:2.9059999 10:8.0579996 11:1.849 12:2.51 13:12.814 14:2.378 15:5.2839999 16:4.888 17:4.6240001 18:5.02 19:1.585 20:2.7739999 #
-0.035193253620659864511210912496608 1:21.326 2:0.86500001 3:2.017 4:2.3050001 5:4.323 6:11.527 7:1.729 8:4.8990002 9:0.28799999 10:12.68 11:2.5940001 12:2.017 13:7.493 14:1.441 15:4.6110001 16:3.7460001 17:3.7460001 18:8.0690002 19:2.017 20:2.3050001 #
-0.12190342205329907088184882013593 1:5.369 2:2.013 3:6.4879999 4:6.04 5:4.9219999 6:7.8299999 7:2.461 8:6.2639999 9:6.9349999 10:9.3959999 11:2.237 12:4.2509999 13:4.474 14:2.461 15:3.579 16:7.1589999 17:4.698 18:7.1589999 19:2.461 20:3.803 #
-0.064718437860442040721054013374669 1:4.112 2:1.165 3:6.5110002 4:7.9510002 5:5.3460002 6:3.6329999 7:1.645 8:9.5270004 9:7.539 10:12.063 11:1.508 12:6.7849998 13:2.947 14:3.4960001 15:3.1530001 16:9.4589996 17:6.237 18:4.0440001 19:0.54799998 20:2.3299999 #
-0.044407395201618349300787258471246 1:6.5450001 2:0.727 3:4.7270002 4:8 5:3.6359999 6:6.5450001 7:2.9089999 8:6.5450001 9:10.909 10:12 11:3.273 12:2.1819999 13:5.4549999 14:1.091 15:2.5450001 16:9.4549999 17:2.1819999 18:7.6360002 19:1.455 20:2.1819999 #
-0.030540609328237357245061645016904 1:9.1529999 2:1.017 3:7.4580002 4:9.8310003 5:2.3729999 6:2.3729999 7:1.6950001 8:7.4580002 9:6.7800002 10:7.119 11:2.0339999 12:8.8140001 13:1.6950001 14:9.1529999 15:4.7459998 16:4.7459998 17:3.3900001 18:7.119 19:0 20:3.0510001 #
-0.016969252662892748279022114843428 1:6.0139999 2:0.76700002 3:4.5110002 4:15.649 5:1.35 6:2.24 7:2.2709999 8:4.3569999 9:9.6350002 10:13.01 11:1.872 12:4.112 13:1.35 14:10.586 15:4.2340002 16:8.3769999 17:4.1729999 18:4.1420002 19:0.30700001 20:1.043 #
-0.022911364634590421912596625020342 1:5.4460001 2:8.4160004 3:4.4549999 4:1.98 5:7.921 6:15.347 7:0.99000001 8:6.9310002 9:2.97 10:12.376 11:2.4749999 12:5.941 13:3.96 14:1.98 15:1.485 16:3.96 17:3.4649999 18:6.4359999 19:1.98 20:1.485 #
-0.018048582894732642656343557518994 1:8.4069996 2:0 3:0.442 4:1.327 5:3.9820001 6:3.54 7:2.655 8:12.832 9:2.655 10:19.469 11:5.3099999 12:4.8670001 13:6.1950002 14:3.0969999 15:1.77 16:5.7519999 17:11.504 18:3.54 19:1.327 20:1.327 #
-0.025378108111318589679150647953065 1:12.432 2:2.1619999 3:6.2160001 4:5.4050002 5:2.7030001 6:2.973 7:4.8649998 8:5.9460001 9:2.973 10:7.5679998 11:1.622 12:2.973 13:5.4050002 14:4.5949998 15:2.973 16:14.324 17:4.0539999 18:5.6760001 19:1.622 20:3.5139999 #
-0.011750592215905908410888969228836 1:8.8570004 2:2 3:2.5710001 4:2.5710001 5:7.1430001 6:6 7:1.714 8:7.7140002 9:3.1429999 10:11.143 11:2.8570001 12:3.4289999 13:4.5710001 14:2 15:4.2859998 16:6.5710001 17:8.8570004 18:10.571 19:2 20:2 #
-0.068574554485473379616955469373352 1:6.2750001 2:2.789 3:5.0799999 4:6.1750002 5:4.4819999 6:6.8730001 7:1.1950001 8:9.5620003 9:5.9759998 10:8.9639997 11:2.5899999 12:4.98 13:2.888 14:2.191 15:2.49 16:8.1669998 17:7.5700002 18:8.2670002 19:0.89600003 20:2.5899999 #
-0.022159417711952386631502065483801 1:2.299 2:4.598 3:5.7470002 4:6.8969998 5:4.598 6:2.299 7:1.149 8:5.7470002 9:6.8969998 10:9.1949997 11:2.299 12:10.345 13:0 14:6.8969998 15:3.448 16:14.943 17:6.8969998 18:5.7470002 19:0 20:0 #
-0.012269330005778813358352508089411 1:8.8360004 2:1.0779999 3:4.0949998 4:6.8969998 5:3.017 6:5.8189998 7:1.0779999 8:5.8189998 9:9.052 10:6.6810002 11:0.86199999 12:5.6030002 13:4.9569998 14:3.8789999 15:1.9400001 16:12.284 17:5.8189998 18:9.698 19:0.86199999 20:1.724 #
-0.025334266202446869414854901947365 1:8.2550001 2:3.5650001 3:4.5029998 4:5.816 5:3.7520001 6:7.5050001 7:3.0020001 8:3.1889999 9:2.2509999 10:11.257 11:2.6270001 12:2.8139999 13:8.2550001 14:4.6900001 15:7.3169999 16:6.3790002 17:5.816 18:4.3150001 19:0.93800002 20:3.7520001 #
-0.071739194343881165782939035580057 1:4.6479998 2:1.499 3:4.348 4:5.9970002 5:4.4980001 6:5.5469999 7:2.099 8:6.1469998 9:6.7470002 10:7.796 11:3.448 12:5.697 13:4.348 14:4.948 15:4.0479999 16:7.1960001 17:7.1960001 18:8.9960003 19:1.799 20:2.9990001 #
-0.020258150790326692053389123771012 1:2.724 2:1.556 3:3.1129999 4:1.1670001 5:3.891 6:6.2259998 7:1.1670001 8:10.506 9:4.6690001 10:6.2259998 11:1.946 12:11.673 13:5.8369999 14:4.6690001 15:2.335 16:9.7279997 17:8.5600004 18:6.2259998 19:1.556 20:6.2259998 #
-0.020699208889066247896160177788261 1:9.8310003 2:0 3:3.0510001 4:2.0339999 5:11.186 6:5.085 7:1.017 8:6.441 9:1.6950001 10:11.864 11:1.3559999 12:2.0339999 13:4.7459998 14:4.0679998 15:4.0679998 16:8.4750004 17:5.085 18:10.508 19:2.3729999 20:5.085 #
-0.018098699102296500473840978884255 1:11.607 2:2.6789999 3:1.1160001 4:3.5710001 5:4.6880002 6:10.045 7:2.2320001 8:1.339 9:1.1160001 10:18.304001 11:1.786 12:1.339 13:9.1520004 14:3.125 15:2.2320001 16:7.5890002 17:4.4640002 18:10.714 19:1.562 20:1.339 #
-0.026315294398087843430467103189585 1:5.1700001 2:1.329 3:6.9419999 4:5.7610002 5:4.2839999 6:3.9879999 7:2.954 8:6.3520002 9:4.7270002 10:7.829 11:2.954 12:5.1700001 13:8.1239996 14:4.7270002 15:7.6810002 16:9.0100002 17:4.8740001 18:5.4650002 19:0.88599998 20:1.773 #
-0.019644800611443486576535022436474 1:7.2459998 2:3.865 3:3.865 4:3.382 5:8.2130003 6:7.2459998 7:2.415 8:6.2800002 9:1.449 10:14.01 11:1.932 12:2.415 13:2.8989999 14:5.7969999 15:3.382 16:6.763 17:3.865 18:6.763 19:2.8989999 20:5.3140001 #
-0.027222219559956677137346758854619 1:4.6830001 2:1.145 3:6.0349998 4:5.099 5:5.723 6:4.2659998 7:1.7690001 8:7.4920001 9:7.0760002 10:8.9490004 11:1.873 12:13.007 13:4.3699999 14:2.7060001 15:3.7460001 16:8.3249998 17:4.6830001 18:3.0179999 19:2.1849999 20:3.8499999 #
-0.020911353071964844385632886769599 1:5.0159998 2:4.0749998 3:3.918 4:5.7989998 5:4.2319999 6:5.9559999 7:2.3510001 8:5.7989998 9:4.0749998 10:9.875 11:2.8210001 12:5.6430001 13:6.5830002 14:4.0749998 15:3.7620001 16:6.8969998 17:7.21 18:5.1719999 19:2.194 20:4.5450001 #
-0.010454748724231065562517706268864 1:11.594 2:0.96600002 3:3.382 4:4.8309999 5:5.7969999 6:13.043 7:0.48300001 8:4.8309999 9:5.3140001 10:5.7969999 11:5.3140001 12:3.865 13:5.3140001 14:4.8309999 15:2.415 16:6.2800002 17:6.763 18:4.8309999 19:0 20:4.348 #
-0.0092711721971438960931966022371853 1:4.6919999 2:1.466 3:2.6389999 4:1.76 5:5.8649998 6:9.3839998 7:1.173 8:7.3309999 9:1.76 10:8.5039997 11:2.6389999 12:6.158 13:5.572 14:3.812 15:6.158 16:8.7980003 17:9.677 18:4.9850001 19:2.6389999 20:4.9850001 #
-0.0059461918513508196793004856317566 1:4.3010001 2:7.527 3:4.8390002 4:6.4520001 5:4.8390002 6:4.8390002 7:1.075 8:6.4520001 9:3.2260001 10:6.4520001 11:2.151 12:8.0649996 13:4.8390002 14:1.075 15:6.4520001 16:8.0649996 17:6.4520001 18:3.2260001 19:1.075 20:8.6020002 #
-0.0060398368668673971249027943031251 1:5.8709998 2:0.75800002 3:6.6290002 4:5.303 5:3.4089999 6:3.4089999 7:4.5450001 8:3.977 9:9.2799997 10:8.7119999 11:2.4619999 12:4.3559999 13:5.6820002 14:3.977 15:3.977 16:16.098 17:3.598 18:5.303 19:0.37900001 20:2.273 #
-0.0019216309093666550204815290925353 1:8.9390001 2:0.55900002 3:2.2349999 4:2.2349999 5:10.056 6:3.352 7:1.117 8:8.9390001 9:6.704 10:14.525 11:2.793 12:2.793 13:3.352 14:3.352 15:2.2349999 16:3.352 17:5.0279999 18:10.056 19:3.911 20:4.4689999 #
-0.0026874867296345882061725518497042 1:8.5939999 2:0 3:7.0310001 4:12.5 5:3.125 6:0.78100002 7:1.562 8:3.125 9:6.25 10:13.281 11:3.9059999 12:4.6880002 13:7.0310001 14:3.9059999 15:4.6880002 16:7.8119998 17:3.125 18:5.4689999 19:1.562 20:1.562 #
