SVM-light Version V6.02
2 # kernel type
3 # kernel parameter -d 
0.04 # kernel parameter -g 
1 # kernel parameter -s 
1 # kernel parameter -r 
empty# kernel parameter -u 
20 # highest feature index 
1104 # number of training documents 
564 # number of support vectors plus 1 
0.84961508 # threshold b, each following line is a SV (starting with alpha*y)
-0.068638288950240017305404194303264 1:9.9560003 2:1.549 3:3.0969999 4:3.0969999 5:7.3010001 6:10.398 7:1.549 8:6.8579998 9:3.54 10:10.841 11:4.8670001 12:2.8759999 13:5.3099999 14:2.2119999 15:3.7609999 16:4.4250002 17:3.319 18:6.8579998 19:3.319 20:4.8670001 #
-0.094963578631531056495340692436002 1:6.7870002 2:0 3:0.90499997 4:4.5250001 5:6.335 6:5.882 7:2.2620001 8:7.2399998 9:3.1670001 10:14.48 11:2.2620001 12:1.8099999 13:4.5250001 14:2.2620001 15:5.4299998 16:9.0500002 17:5.882 18:7.6919999 19:2.7149999 20:6.7870002 #
-0.057102061152312720559987013757564 1:7.7350001 2:0.55199999 3:3.131 4:5.8930001 5:4.4200001 6:7.7350001 7:0.73699999 8:8.8400002 9:5.1570001 10:10.866 11:4.9720001 12:4.4200001 13:3.6830001 14:2.947 15:4.4200001 16:4.9720001 17:6.8140001 18:9.7609997 19:0.55199999 20:2.3940001 #
-0.16659151833864321856637502605736 1:7.5560002 2:0.222 3:4.4439998 4:5.1110001 5:4.8889999 6:7.7779999 7:1.556 8:5.5560002 9:4 10:14 11:3.3329999 12:4 13:4.4439998 14:3.556 15:3.7780001 16:6.8889999 17:6.4439998 18:7.5560002 19:2.8889999 20:2 #
-0.08784330916674222555773354770281 1:8.6599998 2:0.412 3:1.031 4:1.8559999 5:7.835 6:10.103 7:0.412 8:11.34 9:5.9790001 10:11.959 11:3.299 12:3.5050001 13:3.918 14:2.062 15:1.443 16:7.835 17:6.3920002 18:6.3920002 19:2.2679999 20:3.299 #
1.9081434926708515931181864289101 1:7.7459998 2:0 3:5.6339998 4:6.3379998 5:2.1129999 6:5.6339998 7:0.704 8:7.7459998 9:4.9299998 10:11.268 11:2.1129999 12:3.5209999 13:7.0419998 14:3.5209999 15:5.6339998 16:7.0419998 17:4.2249999 18:13.38 19:0 20:1.408 #
1.0631829608731995229220501641976 1:7.3800001 2:2.2869999 3:5.198 4:7.4840002 5:5.717 6:3.0150001 7:1.975 8:5.3010001 9:5.4050002 10:12.89 11:2.911 12:3.4300001 13:3.638 14:7.1729999 15:4.2620001 16:6.4450002 17:4.158 18:7.6919999 19:0.83200002 20:2.8069999 #
1.8309943236869099525421233920497 1:6.2989998 2:2.362 3:7.8740001 4:3.1500001 5:6.2989998 6:6.2989998 7:3.937 8:9.4490004 9:4.724 10:7.8740001 11:3.937 12:3.937 13:3.937 14:10.236 15:1.575 16:6.2989998 17:3.937 18:3.1500001 19:2.362 20:2.362 #
2.5000000000343454154005939926719 1:8.7469997 2:1.044 3:3.3940001 4:4.8299999 5:5.0910001 6:7.441 7:2.2190001 8:5.6139998 9:3.3940001 10:11.88 11:2.48 12:3.1329999 13:3.3940001 14:4.4390001 15:5.0910001 16:7.8330002 17:5.6139998 18:9.5299997 19:1.3049999 20:3.5250001 #
1.356440132910104567898201821663 1:7.256 2:1.751 3:5.9219999 4:8.3400002 5:2.5020001 6:3.4200001 7:2.6689999 8:5.5879998 9:9.5909996 10:10.425 11:2.5020001 12:3.003 13:5.5050001 14:5.0040002 15:4.5040002 16:8.3400002 17:4.2540002 18:6.5050001 19:0.5 20:2.4189999 #
-0.50000000000686906087565830603126 1:8.5129995 2:1.637 3:4.257 4:4.6500001 5:4.8460002 6:6.4180002 7:2.03 8:5.8280001 9:3.7980001 10:13.36 11:2.358 12:3.2739999 13:4.5190001 14:4.322 15:4.8460002 16:7.5970001 17:4.8460002 18:8.1859999 19:1.899 20:2.816 #
-0.50000000000686906087565830603126 1:6.7950001 2:1.625 3:6.204 4:6.9419999 5:4.579 6:3.9879999 7:1.625 8:5.3179998 9:7.829 10:11.521 11:2.6589999 12:4.579 13:4.1360002 14:5.0219998 15:4.1360002 16:7.9759998 17:4.4310002 18:5.4650002 19:2.2160001 20:2.954 #
-0.50000000000686906087565830603126 1:6.5929999 2:1.954 3:5.6170001 4:7.204 5:3.9070001 6:4.2740002 7:3.053 8:7.0819998 9:5.7389998 10:10.379 11:3.175 12:3.6630001 13:4.7620001 14:3.9070001 15:6.105 16:7.448 17:4.3959999 18:7.6919999 19:0.244 20:2.8080001 #
2.5000000000343454154005939926719 1:7.0830002 2:0.625 3:2.2920001 4:3.9579999 5:6.0419998 6:8.3330002 7:0.208 8:9.7919998 9:4.5830002 10:13.75 11:2.9170001 12:2.7079999 13:5 14:4.7919998 15:3.9579999 16:7.5 17:6.25 18:5.4169998 19:1.0420001 20:3.75 #
2.5000000000343454154005939926719 1:8.8669996 2:0.24600001 3:2.217 4:4.1869998 5:8.6210003 6:6.4039998 7:2.217 8:8.3739996 9:2.217 10:10.591 11:2.4630001 12:3.2019999 13:3.448 14:3.6949999 15:4.6799998 16:5.1719999 17:5.665 18:9.3599997 19:3.2019999 20:5.1719999 #
2.1161165694528127900753133872058 1:5.9759998 2:0.79699999 3:3.586 4:1.1950001 5:9.1630001 6:11.155 7:0.79699999 8:6.7729998 9:0.79699999 10:12.351 11:3.984 12:3.586 13:5.9759998 14:3.187 15:6.7729998 16:4.382 17:3.984 18:5.5780001 19:3.984 20:5.9759998 #
-0.10678903385284549409917076445709 1:11.795 2:2.0510001 3:3.0769999 4:12.308 5:6.6669998 6:5.6409998 7:1.538 8:4.6149998 9:11.795 10:6.6669998 11:1.538 12:6.1539998 13:2.5639999 14:1.538 15:3.0769999 16:4.1030002 17:5.6409998 18:3.5899999 19:1.026 20:4.6149998 #
-0.50000000000686906087565830603126 1:8.5509996 2:1.188 3:3.444 4:5.1069999 5:4.276 6:8.1949997 7:1.188 8:5.2259998 9:2.257 10:13.658 11:1.9 12:3.0880001 13:3.444 14:5.2259998 15:7.1259999 16:6.4130001 17:6.0570002 18:7.8379998 19:2.6129999 20:3.207 #
-0.3600398640961943730331995539018 1:8.5030003 2:1.479 3:5.5450001 4:6.4699998 5:5.915 6:7.2090001 7:2.957 8:3.882 9:5.3600001 10:10.906 11:2.957 12:3.3269999 13:2.957 14:4.0669999 15:5.1760001 16:6.8390002 17:4.9910002 18:6.2849998 19:1.109 20:4.0669999 #
2.5000000000343454154005939926719 1:6.0560002 2:3.7639999 3:4.9099998 4:5.5650001 5:5.401 6:4.092 7:2.7820001 8:6.5469999 9:6.5469999 10:10.311 11:2.619 12:4.9099998 13:4.2550001 14:3.6010001 15:4.2550001 16:8.0200005 17:4.2550001 18:7.3649998 19:0.98199999 20:3.7639999 #
2.5000000000343454154005939926719 1:7.2989998 2:1.825 3:4.8660002 4:5.961 5:2.7980001 6:4.7449999 7:1.825 8:6.448 9:4.9879999 10:12.044 11:3.4059999 12:5.2309999 13:5.1090002 14:4.6230001 15:5.2309999 16:7.2989998 17:6.8130002 18:6.5689998 19:0.36500001 20:2.5550001 #
2.5000000000343454154005939926719 1:6.4109998 2:1.761 3:5.0560002 4:7.6300001 5:4.6950002 6:5.237 7:2.7539999 8:5.5079999 9:7.0879998 10:10.293 11:2.3929999 12:3.4760001 13:4.605 14:4.5149999 15:6.9070001 16:6.1849999 17:5.1919999 18:5.4180002 19:1.2640001 20:3.612 #
-0.36134979290544472219082194897055 1:4.77 2:2.862 3:5.6370001 4:7.2849998 5:3.99 6:5.724 7:2.862 8:5.4640002 9:7.112 10:10.494 11:2.428 12:4.0760002 13:4.5970001 14:4.25 15:5.8109999 16:5.4640002 17:6.0710001 18:5.8109999 19:1.301 20:3.99 #
-0.50000000000686906087565830603126 1:7.4000001 2:1.268 3:4.4400001 4:7.6110001 5:5.0739999 6:5.2849998 7:2.96 8:5.2849998 9:7.1880002 10:9.7250004 11:0.84600002 12:4.2280002 13:4.2280002 14:4.8629999 15:5.0739999 16:6.9770002 17:5.4970002 18:6.5539999 19:1.691 20:3.8050001 #
-0.50000000000686906087565830603126 1:5.0510001 2:2.253 3:5.2059999 4:7.2259998 5:4.973 6:5.5939999 7:2.9530001 8:5.1279998 9:5.75 10:11.5 11:2.3310001 12:4.1960001 13:5.3610001 14:5.2839999 15:5.5170002 16:6.527 17:5.3610001 18:5.9829998 19:1.166 20:2.642 #
2.4347914964523935665852150123101 1:8.1630001 2:1.4579999 3:3.9360001 4:4.5190001 5:3.4990001 6:8.309 7:1.749 8:2.77 9:2.6240001 10:17.055 11:2.187 12:2.332 13:4.665 14:6.5599999 15:6.2680001 16:6.8509998 17:4.5190001 18:8.0170002 19:1.749 20:2.77 #
2.5000000000343454154005939926719 1:9.7770004 2:1.238 3:2.723 4:5.0739999 5:3.342 6:9.2819996 7:1.733 8:3.0940001 9:2.599 10:15.223 11:1.733 12:2.1040001 13:5.6929998 14:5.322 15:5.5689998 16:8.2919998 17:5.4460001 18:7.4260001 19:2.1040001 20:2.2279999 #
2.5000000000343454154005939926719 1:9.6890001 2:0 3:4.0219998 4:5.8499999 5:4.9359999 6:6.2160001 7:2.194 8:5.6669998 9:3.839 10:16.819 11:2.7420001 12:3.6559999 13:3.473 14:4.0219998 15:5.6669998 16:4.9359999 17:5.8499999 18:5.6669998 19:2.194 20:2.559 #
-0.50000000000686906087565830603126 1:10.724 2:1.8099999 3:3.016 4:4.96 5:2.8150001 6:8.3109999 7:2.2119999 8:3.4849999 9:2.346 10:18.767 11:1.206 12:2.279 13:5.7639999 14:5.4289999 15:5.2280002 16:6.3670001 17:4.5580001 18:6.434 19:1.8099999 20:2.48 #
-0.50000000000686906087565830603126 1:9.1330004 2:2.108 3:2.576 4:3.9809999 5:3.0439999 6:7.494 7:3.279 8:3.513 9:4.684 10:17.096001 11:3.513 12:2.342 13:3.513 14:4.684 15:6.7919998 16:4.9180002 17:5.152 18:7.7280002 19:2.576 20:1.874 #
-0.50000000000686906087565830603126 1:10.47 2:1.709 3:4.0599999 4:5.342 5:3.632 6:8.5469999 7:1.709 8:1.709 9:4.2740002 10:13.675 11:2.3499999 12:2.7780001 13:5.1279998 14:4.7010002 15:4.7010002 16:7.2649999 17:4.7010002 18:8.3330002 19:3.4189999 20:1.4960001 #
1.9551543679194027802736854937393 1:6.4790001 2:1.296 3:6.1560001 4:9.3950005 5:3.9960001 6:3.6719999 7:3.348 8:4.7519999 9:5.4000001 10:11.879 11:3.0239999 12:3.348 13:3.4560001 14:4.8600001 15:6.0479999 16:7.0190001 17:5.724 18:5.4000001 19:2.052 20:2.7 #
2.0918128509815527849013960803859 1:5.9239998 2:1.403 3:5.7680001 4:6.5469999 5:3.585 6:5.8460002 7:2.6500001 8:5.3779998 9:6.0019999 10:12.159 11:1.793 12:3.585 13:4.9099998 14:6.3909998 15:4.599 16:9.4309998 17:4.4429998 18:6.8590002 19:1.169 20:1.559 #
2.5000000000343454154005939926719 1:5.7509999 2:0.639 3:5.112 4:5.112 5:3.8340001 6:7.348 7:1.278 8:7.348 9:7.987 10:11.182 11:1.597 12:5.112 13:4.473 14:4.1529999 15:5.112 16:7.987 17:4.7919998 18:7.987 19:1.278 20:1.9170001 #
-0.50000000000686906087565830603126 1:6.9310002 2:1.563 3:5.993 4:7.8169999 5:2.293 6:5.6799998 7:2.7620001 8:3.96 9:6.618 10:10.318 11:1.615 12:2.918 13:6.2529998 14:5.6279998 15:7.0349998 16:9.901 17:4.3769999 18:5.6799998 19:0.57300001 20:2.0840001 #
-0.50000000000686906087565830603126 1:6.744 2:2.3069999 3:3.8150001 4:7.5419998 5:4.8800001 6:3.638 7:3.549 8:6.0339999 9:5.3239999 10:13.753 11:2.839 12:4.4369998 13:3.638 14:3.904 15:4.9689999 16:8.2519999 17:4.9689999 18:5.8559999 19:0.70999998 20:2.839 #
-0.50000000000686906087565830603126 1:6.0549998 2:0.58600003 3:5.2729998 4:5.664 5:3.3199999 6:3.9059999 7:1.758 8:6.6409998 9:4.6880002 10:11.328 11:2.3440001 12:6.25 13:5.4689999 14:5.0780001 15:4.2969999 16:9.375 17:5.2729998 18:7.2270002 19:1.758 20:3.711 #
1.7482049981779483882604608879774 1:13.014 2:0.685 3:5.4790001 4:4.1100001 5:4.7950001 6:10.274 7:0.685 8:7.5339999 9:7.5339999 10:5.4790001 11:3.425 12:4.7950001 13:2.0550001 14:0 15:4.1100001 16:8.9040003 17:5.4790001 18:7.5339999 19:1.37 20:2.74 #
1.8262229932100864093769132523448 1:12.162 2:0.676 3:4.73 4:3.378 5:3.378 6:12.162 7:1.351 8:5.4050002 9:8.7840004 10:8.7840004 11:2.027 12:3.378 13:2.027 14:0.676 15:2.027 16:8.1079998 17:7.4320002 18:8.1079998 19:1.351 20:4.0539999 #
2.5000000000343454154005939926719 1:5.1279998 2:1.056 3:8.2959995 4:6.6370001 5:5.2789998 6:4.223 7:1.961 8:7.6919999 9:7.8429999 10:9.5019999 11:1.357 12:4.6760001 13:5.4299998 14:3.6199999 15:3.4690001 16:7.3909998 17:6.4860001 18:5.5809999 19:1.207 20:3.1670001 #
-0.42938471513243120503133809506835 1:9.6450005 2:1.8609999 3:2.707 4:3.3840001 5:5.2449999 6:6.7680001 7:1.8609999 8:3.3840001 9:2.2 10:13.875 11:1.354 12:2.03 13:6.7680001 14:4.9070001 15:5.9219999 16:8.9680004 17:4.7379999 18:8.7989998 19:1.523 20:4.0609999 #
-0.50000000000686906087565830603126 1:4.3800001 2:1.277 3:5.474 4:4.7449999 5:6.204 6:5.474 7:1.642 8:8.5769997 9:9.6719999 10:9.1239996 11:2.007 12:5.8390002 13:4.927 14:2.9200001 15:2.9200001 16:7.1170001 17:4.3800001 18:6.204 19:2.737 20:4.3800001 #
-0.054810265802067735518843250019927 1:5.7690001 2:1.648 3:5.2199998 4:4.9450002 5:5.2199998 6:6.5929999 7:1.374 8:8.5159998 9:6.0440001 10:7.6919999 11:1.923 12:7.6919999 13:7.967 14:1.923 15:5.2199998 16:6.3189998 17:6.0440001 18:4.1209998 19:1.648 20:4.1209998 #
1.4681771983515301549516607337864 1:7.007 2:1.557 3:5.882 4:7.526 5:3.3740001 6:5.3629999 7:2.1630001 8:5.796 9:4.9310002 10:12.284 11:1.817 12:3.9790001 13:4.2389998 14:4.8439999 15:4.152 16:10.64 17:4.3249998 18:5.4499998 19:1.3839999 20:3.2869999 #
2.5000000000343454154005939926719 1:8.1529999 2:1.664 3:4.7420001 4:6.073 5:4.3260002 6:5.5739999 7:2.6619999 8:4.3260002 9:4.6589999 10:13.977 11:3.0780001 12:3.3280001 13:4.3260002 14:3.661 15:4.493 16:10.233 17:5.2410002 18:5.9070001 19:1.747 20:1.83 #
1.1518227248192192124776056516566 1:7.1350002 2:1.381 3:5.178 4:8.6309996 5:3.4519999 6:3.7969999 7:2.4170001 8:5.5240002 9:7.25 10:11.277 11:1.4960001 12:4.6030002 13:3.9130001 14:3.9130001 15:4.7179999 16:10.932 17:3.2219999 18:8.1700001 19:0.69 20:2.3010001 #
-0.50000000000686906087565830603126 1:8.3100004 2:1.6619999 3:7.4790001 4:6.0939999 5:3.6010001 6:3.878 7:3.0469999 8:6.6479998 9:7.756 10:10.249 11:3.6010001 12:3.3239999 13:3.878 14:4.9860001 15:4.9860001 16:6.3709998 17:4.9860001 18:6.6479998 19:1.108 20:1.385 #
-0.50000000000686906087565830603126 1:5.1929998 2:0.53299999 3:7.5900002 4:8.2559996 5:4.2610002 6:6.125 7:2.2639999 8:5.9920001 9:8.9209995 10:9.4540005 11:2.6630001 12:3.9949999 13:4.1279998 14:3.329 15:4.7940001 16:8.9209995 17:4.3940001 18:5.9920001 19:1.864 20:1.332 #
-0.50000000000686906087565830603126 1:5.8010001 2:0.829 3:8.5640001 4:5.2490001 5:3.3150001 6:5.2490001 7:0.55199999 8:7.4590001 9:7.7350001 10:13.536 11:2.7620001 12:3.3150001 13:4.1440001 14:2.7620001 15:4.9720001 16:10.221 17:5.8010001 18:4.4200001 19:0.829 20:2.4860001 #
2.5000000000343454154005939926719 1:5.8410001 2:1.168 3:4.2059999 4:8.4110003 5:4.9070001 6:6.0749998 7:1.168 8:8.1780005 9:8.4110003 10:8.1780005 11:3.2709999 12:4.2059999 13:5.1399999 14:2.336 15:4.4390001 16:6.776 17:4.4390001 18:7.4770002 19:0.935 20:4.4390001 #
1.8988147064259481844317178911297 1:7.664 2:1.095 3:2.9200001 4:5.8390002 5:5.474 6:6.204 7:1.825 8:6.934 9:10.584 10:9.4890003 11:1.825 12:4.3800001 13:4.3800001 14:4.3800001 15:5.1090002 16:6.934 17:2.1900001 18:6.204 19:1.095 20:5.474 #
2.5000000000343454154005939926719 1:9.1789999 2:0.48300001 3:4.348 4:3.1400001 5:3.382 6:8.6960001 7:1.691 8:9.1789999 9:3.6229999 10:11.836 11:3.382 12:3.6229999 13:3.6229999 14:4.8309999 15:4.8309999 16:7.0050001 17:2.415 18:9.6619997 19:2.174 20:2.8989999 #
-0.50000000000686906087565830603126 1:7.1799998 2:1.567 3:4.5040002 4:5.3520002 5:4.8959999 6:5.6789999 7:1.762 8:6.1360002 9:5.2220001 10:12.272 11:2.7420001 12:3.8510001 13:3.721 14:3.655 15:4.5040002 16:8.6160002 17:4.7649999 18:8.6160002 19:1.9579999 20:3.003 #
-0.013626119004206599383266507174994 1:6.9710002 2:0.84100002 3:4.2069998 4:5.5289998 5:5.8889999 6:6.3699999 7:2.6440001 8:5.4089999 9:4.6880002 10:12.861 11:1.803 12:2.7639999 13:4.2069998 14:3.125 15:5.2880001 16:8.4130001 17:5.0479999 18:9.8559999 19:1.322 20:2.7639999 #
-0.50000000000686906087565830603126 1:6.1459999 2:1.6670001 3:5.5209999 4:6.875 5:5.7290001 6:5 7:2.188 8:6.4580002 9:6.4580002 10:8.9580002 11:2.9170001 12:3.5420001 13:5 14:2.7079999 15:6.25 16:5.8330002 17:5 18:7.2919998 19:1.4579999 20:5 #
2.3146484569088969784900200465927 1:5.0479999 2:1.082 3:7.6919999 4:6.0100002 5:3.846 6:3.9660001 7:1.803 8:9.1350002 9:8.0530005 10:14.904 11:0.96200001 12:6.9710002 13:2.1630001 14:3.4860001 15:2.885 16:9.0139999 17:5.2880001 18:4.447 19:0.361 20:2.885 #
1.8434666139554873875994189802441 1:6.0749998 2:1.869 3:7.4770002 4:8.1780005 5:5.6069999 6:4.9070001 7:2.5699999 8:6.0749998 9:6.776 10:9.5790005 11:3.5050001 12:3.7379999 13:3.5050001 14:5.3740001 15:5.8410001 16:4.6729999 17:3.5050001 18:8.4110003 19:0 20:2.336 #
2.5000000000343454154005939926719 1:3.5020001 2:1.2079999 3:4.8309999 4:5.1929998 5:3.865 6:4.2270002 7:1.5700001 8:7.7290001 9:5.9180002 10:9.5410004 11:2.174 12:7.7290001 13:4.8309999 14:3.6229999 15:5.3140001 16:13.768 17:6.2800002 18:4.2270002 19:0.96600002 20:3.5020001 #
-0.50000000000686906087565830603126 1:4.112 2:1.165 3:6.5110002 4:7.9510002 5:5.3460002 6:3.6329999 7:1.645 8:9.5270004 9:7.539 10:12.063 11:1.508 12:6.7849998 13:2.947 14:3.4960001 15:3.1530001 16:9.4589996 17:6.237 18:4.0440001 19:0.54799998 20:2.3299999 #
-0.50000000000686906087565830603126 1:5.5139999 2:2.8110001 3:5.2969999 4:9.1890001 5:5.0809999 6:4.3239999 7:1.946 8:7.5679998 9:9.1890001 10:9.4049997 11:2.1619999 12:4.3239999 13:4.1079998 14:5.0809999 15:4.1079998 16:5.6220002 17:4.973 18:4.973 19:1.081 20:3.243 #
-0.50000000000686906087565830603126 1:5.5139999 2:1.8380001 3:4.973 4:9.6219997 5:4.6490002 6:3.7839999 7:2.27 8:5.4050002 9:7.6760001 10:11.568 11:2.8110001 12:4.8649998 13:3.243 14:6.8109999 15:4.8649998 16:5.8379998 17:4.5409999 18:5.1890001 19:1.405 20:3.135 #
2.1813317882744880371603812818648 1:9.7449999 2:1.5140001 3:5.8660002 4:7.0960002 5:3.122 6:5.487 7:2.5539999 8:5.2030001 9:7.474 10:11.542 11:1.608 12:4.0679998 13:4.0679998 14:3.5 15:4.1630001 16:7.3790002 17:5.1090002 18:6.9060001 19:1.041 20:2.5539999 #
2.5000000000343454154005939926719 1:5.921 2:0.43900001 3:6.579 4:4.3860002 5:4.3860002 6:7.4559999 7:2.1930001 8:7.0180001 9:7.237 10:8.9910002 11:3.5090001 12:5.7020001 13:4.605 14:2.8510001 15:4.8249998 16:7.4559999 17:6.3600001 18:5.263 19:1.096 20:3.7279999 #
1.9531034864960392649635423367727 1:6.0609999 2:0.67299998 3:6.0609999 4:5.3870001 5:3.704 6:7.744 7:1.01 8:7.4070001 9:9.0909996 10:9.0909996 11:2.694 12:3.704 13:3.3670001 14:4.7140002 15:4.3769999 16:6.7340002 17:5.3870001 18:9.4280005 19:1.01 20:2.3570001 #
-0.50000000000686906087565830603126 1:4.2670002 2:1.299 3:6.1220002 4:4.0819998 5:3.711 6:8.5340004 7:1.299 8:5.9369998 9:8.9049997 10:11.317 11:2.5969999 12:6.8649998 13:5.0089998 14:2.9679999 15:4.4530001 16:7.0500002 17:5.7509999 18:6.3080001 19:0.74199998 20:2.783 #
-0.50000000000686906087565830603126 1:8.0959997 2:0 3:5.4699998 4:7.4400001 5:3.063 6:6.1269999 7:1.313 8:5.2519999 9:3.5009999 10:14.223 11:3.063 12:4.158 13:5.2519999 14:5.4699998 15:7.8769999 16:6.1269999 17:4.5949998 18:5.2519999 19:2.188 20:1.5319999 #
-0.36614480566816870465984834481787 1:9.1470003 2:1.98 3:4.164 4:5.461 5:2.457 6:7.2350001 7:2.457 8:7.2350001 9:5.0510001 10:9.0100002 11:3.003 12:3.345 13:4.915 14:4.71 15:3.618 16:8.6009998 17:5.5970001 18:9.625 19:0.75099999 20:1.638 #
2.1363134533294760863952888030326 1:5.5079999 2:1.165 3:5.9320002 4:8.6859999 5:6.25 6:2.648 7:1.483 8:9.2159996 9:5.5079999 10:12.606 11:2.4360001 12:5.7199998 13:4.0250001 14:4.4489999 15:2.8599999 16:7.5209999 17:4.131 18:5.7199998 19:0.95300001 20:3.178 #
-0.085668416499610988701363112340914 1:12.048 2:0.602 3:4.8189998 4:3.6140001 5:2.4100001 6:6.6269999 7:0.602 8:4.8189998 9:3.6140001 10:9.6389999 11:0.602 12:1.205 13:6.6269999 14:1.205 15:7.2290001 16:9.0360003 17:6.6269999 18:11.446 19:3.0120001 20:4.217 #
2.0841284064321881075443343434017 1:5.5500002 2:1.693 3:5.1739998 4:7.0560002 5:5.5500002 6:2.822 7:2.54 8:7.3379998 9:6.303 10:11.007 11:3.8570001 12:6.4910002 13:2.822 14:5.5500002 15:3.4809999 16:5.2680001 17:5.5500002 18:7.902 19:1.1289999 20:2.9159999 #
-0.50000000000686906087565830603126 1:7.908 2:0.255 3:5.3569999 4:7.1430001 5:5.3569999 6:3.316 7:1.786 8:7.1430001 9:8.6730003 10:10.204 11:1.02 12:6.1220002 13:4.0819998 14:3.316 15:3.0610001 16:8.1630001 17:5.612 18:7.1430001 19:0.76499999 20:3.5710001 #
-0.50000000000686906087565830603126 1:8.0869999 2:1.476 3:5.1950002 4:7.8509998 5:4.073 6:3.7780001 7:1.653 8:6.789 9:6.73 10:10.744 11:2.007 12:6.198 13:3.8369999 14:5.8439999 15:4.132 16:5.7849998 17:4.073 18:6.0209999 19:0.708 20:5.0180001 #
-0.50000000000686906087565830603126 1:7.6919999 2:1.748 3:5.2449999 4:7.3429999 5:4.1960001 6:6.6430001 7:1.923 8:6.8179998 9:6.119 10:10.664 11:1.923 12:4.7199998 13:4.895 14:5.4200001 15:4.895 16:4.3709998 17:4.895 18:6.4689999 19:0.52399999 20:3.497 #
2.0708998970265755090736092824955 1:4.4250002 2:2.655 3:4.4250002 4:8.8500004 5:7.0799999 6:7.0799999 7:1.77 8:2.655 9:5.3099999 10:9.7349997 11:3.54 12:5.3099999 13:3.54 14:1.77 15:4.4250002 16:11.504 17:2.655 18:8.8500004 19:2.655 20:1.77 #
1.8006954688984069257173814548878 1:7.1430001 2:0 3:3.5710001 4:4.1669998 5:4.7620001 6:12.5 7:1.786 8:5.3569999 9:10.119 10:8.9289999 11:2.9760001 12:7.7379999 13:4.1669998 14:4.7620001 15:1.1900001 16:7.1430001 17:7.7379999 18:3.5710001 19:0 20:2.381 #
1.8397628496191522629032988334075 1:6.4520001 2:4.3010001 3:3.2260001 4:7.527 5:6.4520001 6:8.6020002 7:0 8:2.151 9:8.6020002 10:7.527 11:4.3010001 12:9.677 13:1.075 14:8.6020002 15:1.075 16:8.6020002 17:3.2260001 18:5.3759999 19:0 20:3.2260001 #
-0.36052331074629273555132158435299 1:5.5229998 2:2.0079999 3:6.276 4:5.4390001 5:4.2680001 6:4.77 7:3.2639999 8:6.4439998 9:6.3600001 10:9.7910004 11:1.925 12:4.2680001 13:5.0209999 14:3.849 15:5.941 16:10.042 17:5.7740002 18:5.2719998 19:0.83700001 20:2.9289999 #
-0.15540366053939533297345576556836 1:15.088 2:0.35100001 3:1.7539999 4:2.105 5:4.9120002 6:8.0699997 7:0.70200002 8:4.9120002 9:2.105 10:11.93 11:6.6669998 12:1.7539999 13:4.211 14:4.5609999 15:5.263 16:4.5609999 17:6.6669998 18:11.579 19:1.053 20:1.7539999 #
-0.50000000000686906087565830603126 1:2.1789999 2:1.307 3:5.447 4:4.7930002 5:4.7930002 6:2.832 7:1.525 8:8.2790003 9:7.8429999 10:8.9320002 11:2.1789999 12:6.3179998 13:6.5359998 14:5.0110002 15:4.5749998 16:13.072 17:7.1900001 18:4.5749998 19:0.65399998 20:1.961 #
1.7939593658153385469233853655169 1:10.016 2:0.62599999 3:6.1030002 4:7.0419998 5:5.164 6:4.382 7:1.252 8:5.0079999 9:8.2939997 10:11.268 11:1.5650001 12:6.1030002 13:3.756 14:5.947 15:3.756 16:6.8860002 17:5.164 18:3.4430001 19:0 20:4.2249999 #
2.5000000000343454154005939926719 1:6.25 2:1.316 3:5.592 4:9.2110004 5:5.592 6:5.921 7:1.316 8:4.605 9:7.895 10:9.5389996 11:2.632 12:2.961 13:6.25 14:3.618 15:4.605 16:7.237 17:3.618 18:4.934 19:0.98699999 20:5.921 #
1.9318192511723517590382925845915 1:9.0319996 2:2.5810001 3:5.1609998 4:8.3870001 5:5.8060002 6:5.8060002 7:1.9349999 8:5.1609998 9:1.9349999 10:7.7420001 11:3.2260001 12:4.5159998 13:4.5159998 14:9.0319996 15:2.5810001 16:5.1609998 17:7.0970001 18:6.4520001 19:0.64499998 20:3.2260001 #
-0.50000000000686906087565830603126 1:10.631 2:0.83099997 3:5.1500001 4:9.1359997 5:2.658 6:5.1500001 7:1.827 8:3.322 9:6.1459999 10:11.462 11:2.1589999 12:4.8169999 13:3.987 14:5.8140001 15:5.1500001 16:9.6350002 17:4.4850001 18:3.987 19:1.827 20:1.827 #
-0.30301115293600056066480874505942 1:6.2989998 2:2.0999999 3:4.724 4:7.8740001 5:5.7740002 6:6.8239999 7:2.0999999 8:3.937 9:7.612 10:10.761 11:1.312 12:4.4619999 13:4.987 14:3.675 15:9.1859999 16:4.724 17:3.937 18:4.1989999 19:2.0999999 20:3.4119999 #
-0.50000000000686906087565830603126 1:3.6900001 2:1.476 3:9.9630003 4:8.4870005 5:4.7969999 6:4.428 7:1.476 8:7.0110002 9:5.1659999 10:12.915 11:1.476 12:5.5349998 13:5.5349998 14:3.6900001 15:3.3210001 16:7.3800001 17:4.428 18:5.9039998 19:1.107 20:2.214 #
1.8225860812446879055670478919637 1:2.299 2:4.598 3:5.7470002 4:6.8969998 5:4.598 6:2.299 7:1.149 8:5.7470002 9:6.8969998 10:9.1949997 11:2.299 12:10.345 13:0 14:6.8969998 15:3.448 16:14.943 17:6.8969998 18:5.7470002 19:0 20:0 #
1.8802750933441167990878284399514 1:10.839 2:0.815 3:2.638 4:4.2210002 5:5.3720002 6:8.7770004 7:1.295 8:1.8710001 9:4.2690001 10:6.5710001 11:1.3430001 12:2.878 13:9.8800001 14:4.3649998 15:2.3499999 16:16.163 17:8.7770004 18:6.1389999 19:0.47999999 20:0.95899999 #
1.9118299275712766771562201029155 1:14.173 2:0 3:1.575 4:3.937 5:2.362 6:7.8740001 7:0.787 8:7.0869999 9:3.1500001 10:14.961 11:3.1500001 12:1.575 13:1.575 14:1.575 15:7.0869999 16:3.1500001 17:8.6610003 18:13.386 19:2.362 20:1.575 #
-0.50000000000686906087565830603126 1:4.941 2:1.186 3:4.1500001 4:7.7080002 5:2.964 6:5.5339999 7:1.383 8:10.672 9:8.4980001 10:12.055 11:1.976 12:4.1500001 13:3.3599999 14:3.9530001 15:3.1619999 16:7.3119998 17:5.336 18:7.7080002 19:0.39500001 20:3.5569999 #
-0.50000000000686906087565830603126 1:5.4980001 2:0 3:2.7490001 4:2.7490001 5:9.6219997 6:10.653 7:1.7180001 8:8.2469997 9:1.031 10:10.997 11:4.1240001 12:3.0929999 13:6.5289998 14:4.1240001 15:6.1859999 16:5.1550002 17:2.7490001 18:7.5599999 19:2.7490001 20:4.467 #
-0.50000000000686906087565830603126 1:7.4920001 2:1.6289999 3:3.257 4:3.9089999 5:4.8860002 6:8.4689999 7:0.32600001 8:6.5149999 9:8.7950001 10:7.4920001 11:4.5599999 12:4.5599999 13:4.2350001 14:3.257 15:4.5599999 16:6.5149999 17:5.8629999 18:8.4689999 19:0.977 20:4.2350001 #
2.5000000000343454154005939926719 1:8.9899998 2:0.44400001 3:5.7709999 4:10.322 5:2.7750001 6:6.2150002 7:2.4419999 8:5.993 9:5.6599998 10:9.1009998 11:3.6630001 12:3.7739999 13:3.2190001 14:4.6609998 15:7.3249998 16:4.8829999 17:4.6609998 18:6.5479999 19:0.77700001 20:2.7750001 #
1.7680432631488551820098109601531 1:14.286 2:3.8099999 3:1.905 4:6.6669998 5:1.905 6:4.7620001 7:0 8:8.5710001 9:7.619 10:5.7140002 11:1.905 12:7.619 13:3.8099999 14:5.7140002 15:2.8570001 16:9.5240002 17:6.6669998 18:2.8570001 19:0.95200002 20:2.8570001 #
2.1037814587054883830319340631831 1:3.974 2:1.104 3:4.6360002 4:5.7399998 5:4.6360002 6:8.3889999 7:3.0910001 8:3.0910001 9:2.8699999 10:14.57 11:1.325 12:1.987 13:6.402 14:4.415 15:7.0640001 16:12.583 17:3.0910001 18:7.947 19:0.662 20:2.428 #
-0.50000000000686906087565830603126 1:5.5999999 2:0.40000001 3:6 4:7.5999999 5:4 6:5.1999998 7:2 8:6.4000001 9:7.5999999 10:8 11:2.8 12:6 13:7.1999998 14:2.8 15:4.4000001 16:6.8000002 17:8.3999996 18:3.5999999 19:1.2 20:4 #
-0.50000000000686906087565830603126 1:5.7140002 2:5.2379999 3:3.8099999 4:6.1900001 5:5.2379999 6:3.8099999 7:2.8570001 8:4.7620001 9:5.2379999 10:10.952 11:1.429 12:4.2859998 13:3.8099999 14:6.1900001 15:3.8099999 16:7.1430001 17:5.2379999 18:9.0480003 19:1.905 20:3.3329999 #
-0.50000000000686906087565830603126 1:5.8369999 2:0.389 3:3.1129999 4:8.5600004 5:3.5020001 6:8.1709995 7:3.5020001 8:5.0580001 9:6.2259998 10:11.673 11:3.1129999 12:3.891 13:3.5020001 14:6.6149998 15:5.8369999 16:6.6149998 17:3.5020001 18:9.3389997 19:0.389 20:1.1670001 #
1.8501639844346176033695883234031 1:30.879 2:0.47499999 3:4.7509999 4:10.689 5:1.425 6:4.9879999 7:0.23800001 8:3.325 9:15.677 10:4.513 11:1.188 12:2.6129999 13:2.375 14:4.7509999 15:2.138 16:5.2259998 17:1.425 18:1.9 19:0.23800001 20:1.188 #
1.6098719429354135801446545883664 1:4.171 2:0.52100003 3:2.503 4:1.9809999 5:6.257 6:12.513 7:0.73000002 8:2.8150001 9:4.6919999 10:6.9860001 11:1.043 12:15.016 13:4.6919999 14:6.3610001 15:1.46 16:14.39 17:9.5930004 18:2.9200001 19:0.104 20:1.251 #
1.8477697682113418675697857906925 1:14.925 2:0 3:8.9549999 4:4.4780002 5:2.9849999 6:10.448 7:1.493 8:4.4780002 9:14.925 10:14.925 11:2.9849999 12:1.493 13:0 14:1.493 15:1.493 16:2.9849999 17:4.4780002 18:7.4629998 19:0 20:0 #
-0.50000000000686906087565830603126 1:8.6730003 2:3.0610001 3:5.612 4:8.6730003 5:3.0610001 6:6.6329999 7:3.5710001 8:7.6529999 9:10.204 10:7.6529999 11:2.5510001 12:2.0409999 13:3.5710001 14:2.5510001 15:4.0819998 16:6.1220002 17:4.0819998 18:4.592 19:1.531 20:4.0819998 #
-0.50000000000686906087565830603126 1:5.8330002 2:1.25 3:2.9170001 4:5.4169998 5:2.9170001 6:12.083 7:2.9170001 8:1.6670001 9:1.6670001 10:14.583 11:1.6670001 12:0.833 13:4.1669998 14:4.1669998 15:8.3330002 16:8.75 17:5 18:10 19:2.5 20:3.3329999 #
-0.50000000000686906087565830603126 1:6.5450001 2:0.727 3:4.7270002 4:8 5:3.6359999 6:6.5450001 7:2.9089999 8:6.5450001 9:10.909 10:12 11:3.273 12:2.1819999 13:5.4549999 14:1.091 15:2.5450001 16:9.4549999 17:2.1819999 18:7.6360002 19:1.455 20:2.1819999 #
1.840024932824896986005569488043 1:8.75 2:1.25 3:1.25 4:10 5:3.75 6:7.5 7:1.25 8:12.5 9:13.75 10:5 11:1.25 12:2.5 13:3.75 14:3.75 15:3.75 16:2.5 17:2.5 18:11.25 19:0 20:3.75 #
1.8319762369626753084617121203337 1:7.7779999 2:4.4439998 3:5.5560002 4:11.111 5:0 6:3.3329999 7:3.3329999 8:1.1109999 9:7.7779999 10:10 11:8.8889999 12:1.1109999 13:4.4439998 14:5.5560002 15:6.6669998 16:7.7779999 17:2.2219999 18:5.5560002 19:0 20:3.3329999 #
1.7342602237945254906037462205859 1:12.752 2:0.671 3:4.027 4:6.711 5:4.027 6:8.7250004 7:0.671 8:4.698 9:9.3959999 10:4.698 11:1.342 12:8.0539999 13:2.013 14:5.369 15:5.369 16:9.3959999 17:4.698 18:3.3559999 19:0.671 20:3.3559999 #
-0.4806121206452205196768545647501 1:5.494 2:1.8150001 3:4.9899998 4:6.9559999 5:6.6030002 6:5.1919999 7:1.21 8:7.3080001 9:6.704 10:10.131 11:3.579 12:4.6880002 13:3.9820001 14:2.47 15:4.5869999 16:8.1149998 17:4.8889999 18:6.6030002 19:1.3609999 20:3.3269999 #
-0.50000000000686906087565830603126 1:6.3379998 2:2.582 3:4.46 4:5.869 5:5.3990002 6:4.2249999 7:0.93900001 8:7.0419998 9:6.573 10:14.319 11:2.3469999 12:4.46 13:3.9909999 14:4.2249999 15:2.8169999 16:8.9200001 17:3.5209999 18:6.8080001 19:1.174 20:3.9909999 #
-0.23910377101851532088971907796804 1:5.8579998 2:1.255 3:5.8579998 4:6.276 5:7.5310001 6:2.51 7:1.674 8:6.6950002 9:6.276 10:8.368 11:2.092 12:6.276 13:4.6030002 14:3.3469999 15:2.9289999 16:8.7869997 17:4.6030002 18:8.368 19:1.255 20:5.4390001 #
1.7945058892627325786151004649582 1:8.1079998 2:1.351 3:4.9549999 4:3.6040001 5:2.2520001 6:13.964 7:1.802 8:5.4050002 9:6.3060002 10:13.063 11:2.7030001 12:5.4050002 13:4.9549999 14:3.1530001 15:2.2520001 16:8.1079998 17:5.4050002 18:3.6040001 19:1.351 20:2.2520001 #
1.5891427648650588988488152608625 1:6.7389998 2:0.359 3:2.1559999 4:3.0550001 5:6.559 6:14.016 7:0.62900001 8:3.145 9:5.0310001 10:5.75 11:1.348 12:12.219 13:4.3130002 14:9.8830004 15:1.707 16:10.692 17:8.5349998 18:2.6059999 19:0 20:1.258 #
1.8387548361637420235581430461025 1:5.0209999 2:0.83700001 3:6.0669999 4:8.9960003 5:3.138 6:5.0209999 7:1.046 8:8.7869997 9:8.7869997 10:7.322 11:1.255 12:4.184 13:7.9499998 14:3.9749999 15:4.8119998 16:7.1129999 17:4.8119998 18:6.276 19:1.464 20:3.138 #
-0.46521072804977148251737162354402 1:9.6590004 2:0.852 3:5.1139998 4:3.6930001 5:5.3979998 6:8.2390003 7:1.136 8:5.3979998 9:3.977 10:12.216 11:2.273 12:4.5450001 13:3.4089999 14:4.2610002 15:6.25 16:6.5339999 17:4.2610002 18:9.375 19:1.136 20:2.273 #
-0.50000000000686906087565830603126 1:9.2340002 2:0.78600001 3:1.768 4:4.7150002 5:5.3049998 6:10.02 7:0.58899999 8:6.6799998 9:1.572 10:15.521 11:2.358 12:2.5539999 13:5.697 14:4.5190001 15:4.9120002 16:6.4829998 17:5.3049998 18:7.8590002 19:1.375 20:2.75 #
-0.50000000000686906087565830603126 1:10.333 2:0.667 3:5.3330002 4:3 5:3 6:6.6669998 7:3 8:8.3330002 9:1 10:12.667 11:3.6670001 12:1.3329999 13:3.6670001 14:5.3330002 15:6 16:9.3330002 17:4 18:8 19:2 20:2.6670001 #
-0.50000000000686906087565830603126 1:6.8179998 2:2.9549999 3:5.9089999 4:5.2270002 5:3.4089999 6:3.4089999 7:3.1819999 8:4.0910001 9:7.7270002 10:10.455 11:3.4089999 12:4.0910001 13:5.9089999 14:3.4089999 15:5 16:7.0450001 17:3.6359999 18:7.2729998 19:2.273 20:4.7729998 #
-0.50000000000686906087565830603126 1:4.8600001 2:1.869 3:7.29 4:8.224 5:5.6069999 6:6.1680002 7:3.178 8:7.29 9:7.664 10:8.7849998 11:2.6170001 12:4.2989998 13:4.4860001 14:2.4300001 15:5.421 16:5.421 17:3.7379999 18:5.421 19:0.74800003 20:4.4860001 #
-0.50000000000686906087565830603126 1:5.2729998 2:1.534 3:6.1360002 4:6.52 5:4.027 6:5.6570001 7:2.3010001 8:7.862 9:8.0539999 10:10.547 11:1.2460001 12:6.04 13:3.6429999 14:4.1230001 15:4.027 16:7.6700001 17:5.6570001 18:6.1360002 19:1.0549999 20:2.493 #
-0.50000000000686906087565830603126 1:8.7690001 2:1.1799999 3:4.3839998 4:8.0939999 5:4.8899999 6:6.7449999 7:1.518 8:2.0239999 9:4.0469999 10:13.491 11:3.204 12:1.686 13:5.3959999 14:4.0469999 15:6.7449999 16:10.287 17:5.059 18:5.3959999 19:0.84299999 20:2.1919999 #
-0.50000000000686906087565830603126 1:7.4699998 2:0.241 3:4.8189998 4:3.855 5:4.3369999 6:6.506 7:2.1689999 8:10.843 9:3.855 10:13.253 11:3.6140001 12:4.0960002 13:2.651 14:5.0599999 15:5.0599999 16:6.2649999 17:5.783 18:6.0240002 19:2.4100001 20:1.687 #
-0.48814308468544398422750418831129 1:7.5 2:0 3:3.8889999 4:2.5 5:5.2779999 6:9.1669998 7:0.55599999 8:5.8330002 9:4.7220001 10:12.778 11:5.2779999 12:2.5 13:4.4439998 14:5.5560002 15:3.8889999 16:7.7779999 17:5 18:8.0559998 19:1.6670001 20:3.6110001 #
-0.50000000000686906087565830603126 1:7.6789999 2:1.669 3:7.3460002 4:7.0120001 5:3.0050001 6:7.0120001 7:1.669 8:6.8449998 9:6.177 10:10.017 11:2.1700001 12:3.6730001 13:4.007 14:4.1739998 15:5.8429999 16:5.1750002 17:4.6739998 18:8.3470001 19:0.33399999 20:3.1719999 #
-0.50000000000686906087565830603126 1:6.7659998 2:1.835 3:3.8989999 4:6.5370002 5:6.4219999 6:3.8989999 7:3.326 8:5.1609998 9:4.1279998 10:10.78 11:3.4400001 12:3.6700001 13:3.4400001 14:5.5050001 15:6.1929998 16:7.7979999 17:4.8169999 18:6.651 19:1.4910001 20:4.243 #
-0.18384556961883974368632266305212 1:5.5999999 2:2.1329999 3:3.733 4:6.6669998 5:5.3330002 6:4.533 7:2.6670001 8:7.1999998 9:6.4000001 10:11.2 11:2.1329999 12:2.6670001 13:3.733 14:5.0669999 15:4.2670002 16:7.467 17:7.7329998 18:7.1999998 19:1.067 20:3.2 #
-0.50000000000686906087565830603126 1:7.612 2:1.557 3:4.3249998 4:4.4980001 5:3.9790001 6:5.5359998 7:2.595 8:4.4980001 9:2.941 10:16.09 11:2.7679999 12:4.671 13:3.9790001 14:3.1140001 15:5.0170002 16:7.612 17:6.9200001 18:7.2659998 19:2.4219999 20:2.595 #
-0.44213145397366998556876183101849 1:5.9559999 2:0.94 3:4.7020001 4:5.329 5:2.8210001 6:10.031 7:2.194 8:3.448 9:1.881 10:12.539 11:2.5079999 12:4.3889999 13:6.5830002 14:4.0749998 15:3.7620001 16:10.031 17:6.27 18:10.031 19:0.62699997 20:1.881 #
-0.50000000000686906087565830603126 1:5.9130001 2:1.5420001 3:5.9130001 4:4.6269999 5:3.8559999 6:7.198 7:2.3139999 8:2.8280001 9:7.4549999 10:13.111 11:1.285 12:4.6269999 13:3.599 14:3.085 15:5.6560001 16:10.026 17:4.8839998 18:8.2259998 19:1.028 20:2.8280001 #
-0.50000000000686906087565830603126 1:6.8800001 2:0.491 3:5.4050002 4:8.8450003 5:3.931 6:5.1599998 7:2.7030001 8:6.1430001 9:7.3709998 10:8.8450003 11:1.474 12:4.914 13:4.914 14:6.388 15:7.125 16:3.931 17:6.388 18:5.8969998 19:0.73699999 20:2.457 #
-0.50000000000686906087565830603126 1:6.5799999 2:1.396 3:4.6859999 4:7.5770001 5:5.9819999 6:6.4809999 7:2.1930001 8:6.1810002 9:5.9819999 10:9.3719997 11:2.6919999 12:4.0879998 13:5.2839999 14:4.0879998 15:5.184 16:7.3779998 17:4.2870002 18:5.3839998 19:1.396 20:3.789 #
-0.32218065941957652054128402596689 1:5.2870002 2:2.299 3:5.2870002 4:9.4250002 5:4.368 6:5.0570002 7:2.9890001 8:4.598 9:7.1259999 10:8.5059996 11:2.9890001 12:3.678 13:6.8969998 14:4.138 15:5.5170002 16:7.586 17:4.138 18:5.2870002 19:1.839 20:2.9890001 #
-0.37574712332696991179403767091571 1:10.599 2:2.257 3:3.1400001 4:5.2010002 5:3.3369999 6:9.7150002 7:4.3179998 8:2.4530001 9:1.472 10:15.505 11:0.98100001 12:1.276 13:8.4399996 14:4.4159999 15:5.9860001 16:8.4399996 17:3.631 18:6.9679999 19:1.178 20:0.68699998 #
-0.48415528793798728868225111909851 1:11.538 2:0 3:5.5939999 4:3.497 5:3.846 6:7.6919999 7:0 8:11.189 9:3.1470001 10:9.79 11:2.448 12:5.9439998 13:1.748 14:3.1470001 15:6.2940001 16:6.6430001 17:3.1470001 18:11.189 19:1.049 20:2.098 #
-0.50000000000686906087565830603126 1:11.178 2:0 3:6.6469998 4:9.9700003 5:3.0209999 6:4.8340001 7:1.2079999 8:6.9489999 9:3.625 10:13.595 11:3.0209999 12:4.23 13:1.511 14:6.0419998 15:6.9489999 16:4.8340001 17:5.1360002 18:6.6469998 19:0 20:0.60399997 #
-0.50000000000686906087565830603126 1:7.2779999 2:0.53899997 3:5.1209998 4:4.0430002 5:3.7739999 6:5.3909998 7:2.6949999 8:7.8169999 9:6.7389998 10:10.243 11:1.617 12:6.1989999 13:4.8520002 14:2.9649999 15:5.1209998 16:7.5469999 17:4.8520002 18:7.0079999 19:2.1559999 20:4.0430002 #
-0.013184375827850848550415463478203 1:5.0640001 2:1.888 3:7.21 4:4.6350002 5:4.8070002 6:5.322 7:1.974 8:6.2659998 9:7.1240001 10:8.7550001 11:2.575 12:5.0640001 13:4.7210002 14:3.0039999 15:3.948 16:9.0129995 17:6.2659998 18:6.8670001 19:1.974 20:3.5190001 #
-0.50000000000686906087565830603126 1:5.618 2:0.80299997 3:7.0630002 4:5.618 5:4.6550002 6:7.7049999 7:2.0869999 8:6.7420001 9:8.3470001 10:7.7049999 11:3.05 12:6.421 13:4.8150001 14:1.926 15:3.21 16:8.8280001 17:4.013 18:5.7779999 19:1.926 20:3.6919999 #
-0.50000000000686906087565830603126 1:8.8299999 2:2.2590001 3:5.3390002 4:7.803 5:3.4909999 6:5.7490001 7:2.875 8:4.1069999 9:4.723 10:11.499 11:3.2850001 12:4.5170002 13:4.5170002 14:4.1069999 15:6.5710001 16:8.2139997 17:4.5170002 18:3.901 19:1.027 20:2.6689999 #
-0.40696170803651104952436412531824 1:9.8310003 2:0 3:3.0510001 4:2.0339999 5:11.186 6:5.085 7:1.017 8:6.441 9:1.6950001 10:11.864 11:1.3559999 12:2.0339999 13:4.7459998 14:4.0679998 15:4.0679998 16:8.4750004 17:5.085 18:10.508 19:2.3729999 20:5.085 #
-0.50000000000686906087565830603126 1:8.059 2:0.73299998 3:3.6630001 4:9.5240002 5:6.5929999 6:3.2969999 7:3.2969999 8:8.059 9:5.4949999 10:12.821 11:2.9300001 12:3.2969999 13:4.3959999 14:4.0289998 15:6.5929999 16:3.6630001 17:2.198 18:8.4250002 19:1.465 20:1.465 #
-0.50000000000686906087565830603126 1:6.8889999 2:1.556 3:4.6669998 4:8.8889999 5:5.3330002 6:6.6669998 7:1.3329999 8:6.2220001 9:10.444 10:9.7779999 11:2.444 12:4.8889999 13:3.7780001 14:2.8889999 15:3.556 16:6.2220001 17:4 18:6.2220001 19:0.44400001 20:3.7780001 #
-0.50000000000686906087565830603126 1:6.073 2:1.619 3:5.8699999 4:8.9069996 5:4.2509999 6:5.0609999 7:0.81 8:4.2509999 9:9.1090002 10:9.3120003 11:4.0489998 12:3.036 13:4.2509999 14:6.2750001 15:3.2390001 16:8.0970001 17:5.263 18:6.073 19:1.215 20:3.2390001 #
-0.4565371789980933181496425277146 1:7.6669998 2:0.333 3:3.6670001 4:3.6670001 5:7.3330002 6:9.3330002 7:1.6670001 8:6.3330002 9:8.3330002 10:11.667 11:1.3329999 12:5.3330002 13:4.3330002 14:3 15:5.3330002 16:7.6669998 17:5 18:4.3330002 19:1 20:2.6670001 #
-0.50000000000686906087565830603126 1:3.846 2:2.747 3:5.7690001 4:5.7690001 5:3.0220001 6:5.4949999 7:1.099 8:8.2419996 9:3.5710001 10:12.088 11:2.747 12:5.2199998 13:4.1209998 14:4.6700001 15:5.2199998 16:10.989 17:5.4949999 18:5.4949999 19:0.54900002 20:3.846 #
-0.22147827047608800721256727683794 1:6.1570001 2:3.1849999 3:4.2459998 4:3.822 5:5.3080001 6:3.822 7:1.274 8:7.2189999 9:5.7319999 10:12.102 11:3.1849999 12:5.9450002 13:2.9719999 14:3.822 15:2.76 16:11.253 17:5.7319999 18:7.006 19:1.4859999 20:2.9719999 #
-0.50000000000686906087565830603126 1:5.0370002 2:1.3329999 3:7.4070001 4:5.9260001 5:5.3330002 6:4.1479998 7:1.1849999 8:6.9629998 9:6.5190001 10:12.741 11:2.6670001 12:5.0370002 13:3.852 14:3.1110001 15:4.4439998 16:6.2220001 17:5.1849999 18:6.3699999 19:1.3329999 20:5.1849999 #
-0.50000000000686906087565830603126 1:9.408 2:0.69700003 3:5.9229999 4:5.2259998 5:1.3940001 6:6.9689999 7:1.3940001 8:4.5300002 9:8.0139999 10:10.105 11:4.5300002 12:4.1810002 13:3.1359999 14:4.8779998 15:4.5300002 16:7.3169999 17:4.5300002 18:8.7110004 19:0.69700003 20:3.8329999 #
-0.43362478685766325803285781148588 1:10.69 2:1.724 3:6.552 4:4.8280001 5:2.7590001 6:13.103 7:2.414 8:5.1719999 9:6.2069998 10:8.276 11:2.414 12:3.448 13:3.793 14:2.069 15:3.1029999 16:5.5170002 17:5.862 18:5.862 19:3.448 20:2.7590001 #
-0.38647169349880200472924229870841 1:11.208 2:1.401 3:6.6550002 4:5.6040001 5:2.102 6:10.683 7:3.152 8:4.553 9:7.5310001 10:6.3049998 11:2.977 12:5.079 13:2.977 14:2.4519999 15:3.152 16:6.3049998 17:5.954 18:8.4060001 19:0.70099998 20:2.802 #
-0.50000000000686906087565830603126 1:7.5159998 2:1.322 3:4.0359998 4:6.402 5:4.3839998 6:6.1929998 7:2.575 8:6.8200002 9:5.776 10:11.621 11:2.9920001 12:3.132 13:3.4100001 14:3.7579999 15:5.8460002 16:8.2119999 17:5.6370001 18:6.8889999 19:1.183 20:2.296 #
-0.50000000000686906087565830603126 1:5.2909999 2:2.6459999 3:2.9979999 4:5.6440001 5:4.4089999 6:4.2329998 7:2.6459999 8:5.1149998 9:9.8769999 10:12.875 11:2.4690001 12:4.9380002 13:3.8800001 14:6.1729999 15:5.467 16:7.2309999 17:5.467 18:6.526 19:0.88200003 20:1.235 #
-0.45807365691884938119216030827374 1:7.375 2:0.21699999 3:3.688 4:7.158 5:5.6399999 6:5.6399999 7:1.952 8:5.8569999 9:7.592 10:13.666 11:2.1689999 12:2.3859999 13:7.375 14:3.0369999 15:3.688 16:6.2909999 17:4.5549998 18:5.2059999 19:2.1689999 20:4.3379998 #
-0.38194958850509519443505723756971 1:11.076 2:0.949 3:4.4299998 4:11.392 5:5.3800001 6:6.013 7:1.899 8:1.899 9:8.2279997 10:10.127 11:4.1139998 12:4.4299998 13:3.165 14:5.0630002 15:4.4299998 16:3.7969999 17:4.4299998 18:4.1139998 19:0.63300002 20:4.4299998 #
-0.34889808901849778122183920459065 1:8.5710001 2:0.75199997 3:4.9619999 4:13.985 5:1.353 6:5.7140002 7:1.654 8:4.3610001 9:7.0679998 10:9.323 11:0.75199997 12:1.8049999 13:5.5640001 14:6.4660001 15:7.368 16:6.4660001 17:5.5640001 18:5.7140002 19:0.15000001 20:2.4059999 #
-0.44782754140430230949121437333815 1:8.1309996 2:0.34599999 3:7.7849998 4:11.246 5:2.941 6:2.941 7:2.076 8:5.0170002 9:8.8240004 10:9.5159998 11:3.6329999 12:3.9790001 13:2.4219999 14:7.612 15:8.1309996 16:2.7679999 17:4.8439999 18:4.3249998 19:1.211 20:2.2490001 #
-0.50000000000686906087565830603126 1:6.9819999 2:1.465 3:5.0409999 4:6.6420002 5:3.7809999 6:5.79 7:3.1340001 8:5.756 9:4.7680001 10:10.082 11:2.6570001 12:4.223 13:4.8369999 14:4.1209998 15:4.6659999 16:8.8900003 17:5.756 18:7.493 19:1.226 20:2.691 #
-0.50000000000686906087565830603126 1:6.4559999 2:2.0420001 3:5.9949999 4:6.0939999 5:3.5239999 6:5.27 7:4.0510001 8:5.105 9:5.237 10:10.079 11:2.0090001 12:4.0510001 13:4.974 14:4.381 15:4.447 16:9.9799995 17:5.4349999 18:6.5549998 19:1.6799999 20:2.635 #
-0.50000000000686906087565830603126 1:6.395 2:1.9680001 3:4.4980001 4:6.0440001 5:4.3569999 6:5.9029999 7:2.6700001 8:5.1999998 9:4.3569999 10:11.103 11:2.7409999 12:3.9349999 13:5.2709999 14:5.3410001 15:4.5679998 16:9.6280003 17:5.3410001 18:6.184 19:2.0380001 20:2.46 #
-0.33482511154769123429275623493595 1:6.3829999 2:0.53200001 3:4.2550001 4:5.8509998 5:2.6600001 6:7.447 7:1.596 8:10.106 9:8.5109997 10:6.3829999 11:8.5109997 12:3.723 13:4.7870002 14:3.191 15:4.2550001 16:6.915 17:5.3189998 18:4.7870002 19:0.53200001 20:4.2550001 #
-0.23133704526803192114137175394717 1:3.6459999 2:1.562 3:5.7290001 4:5.7290001 5:4.6880002 6:8.8540001 7:1.562 8:6.7709999 9:7.2919998 10:6.7709999 11:2.6040001 12:5.2080002 13:4.1669998 14:2.0829999 15:8.3330002 16:7.2919998 17:6.7709999 18:4.6880002 19:1.562 20:4.6880002 #
-0.26694454318371280132637934912054 1:10.87 2:0.36199999 3:6.5219998 4:3.2609999 5:3.9860001 6:6.5219998 7:3.2609999 8:5.072 9:9.4200001 10:10.145 11:0.36199999 12:3.2609999 13:3.2609999 14:1.812 15:1.812 16:9.0579996 17:10.507 18:6.5219998 19:0 20:3.9860001 #
-0.10373170963663798371801050279828 1:6.1069999 2:1.272 3:5.3439999 4:4.0710001 5:4.835 6:5.0890002 7:1.527 8:7.3790002 9:6.3610001 10:10.178 11:1.781 12:6.8699999 13:6.1069999 14:4.3260002 15:3.562 16:5.8520002 17:6.8699999 18:6.1069999 19:1.781 20:4.5799999 #
-0.50000000000686906087565830603126 1:6.1370001 2:0 3:7.2199998 4:10.83 5:3.971 6:7.2199998 7:1.0829999 8:8.3030005 9:5.776 10:10.108 11:3.6099999 12:4.6929998 13:2.888 14:2.527 15:5.415 16:6.4980001 17:4.3319998 18:7.5809999 19:0.722 20:1.0829999 #
-0.50000000000686906087565830603126 1:10.39 2:0.64899999 3:8.4420004 4:9.7399998 5:3.8959999 6:5.1950002 7:1.948 8:5.8439999 9:4.5450001 10:9.7399998 11:2.5969999 12:4.5450001 13:4.5450001 14:4.5450001 15:5.1950002 16:1.948 17:4.5450001 18:9.0909996 19:0.64899999 20:1.948 #
-0.36182133774337732479153828535345 1:4.6669998 2:3.3329999 3:5.3330002 4:7.3330002 5:4 6:5.3330002 7:3.3329999 8:9.3330002 9:7.3330002 10:5.3330002 11:1.3329999 12:3.3329999 13:8 14:2 15:4 16:6 17:6 18:6 19:1.3329999 20:6.6669998 #
-0.3233320960700588053704507274233 1:9.7629995 2:0.792 3:3.4300001 4:2.6389999 5:6.3319998 6:7.652 7:1.0549999 8:6.5960002 9:1.5829999 10:11.873 11:5.013 12:4.2220001 13:3.694 14:1.847 15:4.4850001 16:4.2220001 17:6.8600001 18:10.026 19:4.2220001 20:3.694 #
-0.50000000000686906087565830603126 1:4.5180001 2:1.807 3:6.0240002 4:9.3369999 5:4.217 6:3.9159999 7:3.0120001 8:5.723 9:8.1330004 10:6.0240002 11:2.108 12:2.711 13:7.8309999 14:3.0120001 15:5.4219999 16:8.1330004 17:5.723 18:6.3249998 19:1.807 20:4.217 #
-0.43312772571210350625037222016545 1:9.4139996 2:2.309 3:2.309 4:3.375 5:4.618 6:8.3479996 7:1.776 8:4.4400001 9:2.309 10:14.032 11:3.552 12:3.02 13:5.329 14:5.8610001 15:5.329 16:6.3940001 17:5.684 18:6.927 19:1.776 20:3.197 #
-0.50000000000686906087565830603126 1:9.5469999 2:2.3870001 3:4.0570002 4:5.2509999 5:3.5799999 6:9.5469999 7:2.148 8:4.5349998 9:2.148 10:14.081 11:1.671 12:3.1029999 13:6.2049999 14:7.1599998 15:5.4889998 16:5.4889998 17:4.296 18:6.6830001 19:2.148 20:0.477 #
-0.21681333479958506127438511157379 1:9.2729998 2:2.3640001 3:2.9089999 4:3.0910001 5:5.4549999 6:7.2729998 7:0.90899998 8:5.2729998 9:2.727 10:14.727 11:3.273 12:1.818 13:5.2729998 14:5.0910001 15:4.9089999 16:8.3640003 17:6.5450001 18:7.0910001 19:2.3640001 20:1.273 #
-0.50000000000686906087565830603126 1:5.2750001 2:1.29 3:5.158 4:6.5650001 5:4.2199998 6:4.1030002 7:1.876 8:6.9169998 9:7.855 10:13.365 11:1.641 12:6.6820002 13:3.165 14:3.6340001 15:5.6269999 16:9.4960003 17:5.5100002 18:3.9860001 19:0.82099998 20:2.8139999 #
-0.46522294516881951276232598502247 1:4.8130002 2:0.26699999 3:4.5450001 4:6.4169998 5:5.0799999 6:4.2779999 7:1.872 8:12.299 9:6.684 10:12.299 11:2.941 12:5.6149998 13:2.674 14:8.0209999 15:2.674 16:5.348 17:6.684 18:4.5450001 19:0 20:2.941 #
-0.50000000000686906087565830603126 1:9.8520002 2:0.86199999 3:4.3099999 4:6.6500001 5:4.4330001 6:6.6500001 7:2.0940001 8:7.882 9:6.527 10:9.7290001 11:2.8329999 12:4.0640001 13:2.586 14:4.6799998 15:4.6799998 16:6.7729998 17:5.665 18:6.4039998 19:0.493 20:2.8329999 #
-0.50000000000686906087565830603126 1:6.6669998 2:2.8570001 3:4.9520001 4:4.381 5:3.619 6:6.8569999 7:2.286 8:4.1900001 9:1.143 10:18.476 11:2.286 12:1.905 13:3.8099999 14:4 15:6.4759998 16:8.3809996 17:2.8570001 18:7.619 19:2.286 20:4.9520001 #
-0.42608105794610107164288592684898 1:6.098 2:2.4389999 3:7.073 4:4.8779998 5:3.415 6:6.3410001 7:2.1949999 8:2.1949999 9:2.6830001 10:14.634 11:0.73199999 12:2.1949999 13:6.829 14:3.171 15:8.0489998 16:10 17:3.171 18:9.0240002 19:1.707 20:3.171 #
-0.35533632117067226463547058301629 1:9.9820004 2:1.848 3:2.5880001 4:2.5880001 5:5.1760001 6:11.46 7:1.294 8:4.0669999 9:1.664 10:17.190001 11:1.479 12:1.848 13:6.2849998 14:3.142 15:4.8060002 16:9.427 17:4.9910002 18:6.4699998 19:1.479 20:2.2179999 #
-0.50000000000686906087565830603126 1:6.1950002 2:1.1059999 3:3.7609999 4:8.1859999 5:5.7519999 6:5.3099999 7:2.8759999 8:7.0799999 9:7.3010001 10:9.9560003 11:2.8759999 12:5.0879998 13:6.1950002 14:4.4250002 15:2.8759999 16:7.0799999 17:3.0969999 18:6.6370001 19:1.327 20:2.8759999 #
-0.50000000000686906087565830603126 1:5.1869998 2:1.66 3:5.3940001 4:7.8839998 5:6.8460002 6:4.3569999 7:2.2820001 8:6.224 9:7.2610002 10:9.7510004 11:3.3199999 12:5.809 13:4.9790001 14:4.1490002 15:4.7719998 16:6.0170002 17:3.9419999 18:5.6020002 19:0.82999998 20:3.734 #
-0.50000000000686906087565830603126 1:3.8199999 2:0.67900002 3:5.6880002 4:6.3670001 5:4.414 6:6.112 7:1.0190001 8:6.6209998 9:9.677 10:9.677 11:1.528 12:6.112 13:4.4990001 14:2.632 15:3.2260001 16:6.961 17:7.7249999 18:8.5740004 19:1.358 20:3.3110001 #
-0.50000000000686906087565830603126 1:5.026 2:2.381 3:4.7620001 4:8.8620005 5:2.381 6:4.8940001 7:1.72 8:4.4970002 9:5.6880002 10:12.831 11:2.9100001 12:4.3649998 13:4.3649998 14:8.0690002 15:5.9520001 16:6.8779998 17:5.2909999 18:5.2909999 19:1.984 20:1.852 #
-0.37169103595745600632227478854475 1:8.0150003 2:2.29 3:4.198 4:6.8699999 5:2.29 6:3.4349999 7:3.8169999 8:4.198 9:3.053 10:13.74 11:3.053 12:3.8169999 13:6.1069999 14:5.3439999 15:6.1069999 16:4.5799999 17:6.4889998 18:6.4889998 19:3.053 20:3.053 #
-0.36373637360818272812323925791134 1:8.5939999 2:0 3:7.0310001 4:12.5 5:3.125 6:0.78100002 7:1.562 8:3.125 9:6.25 10:13.281 11:3.9059999 12:4.6880002 13:7.0310001 14:3.9059999 15:4.6880002 16:7.8119998 17:3.125 18:5.4689999 19:1.562 20:1.562 #
-0.50000000000686906087565830603126 1:6.053 2:1.316 3:7.632 4:6.053 5:3.684 6:5.263 7:2.105 8:6.053 9:6.579 10:8.4209995 11:3.158 12:5.789 13:5.263 14:3.158 15:6.579 16:5.263 17:4.211 18:8.9469995 19:1.579 20:2.895 #
-0.29134433172580237458859642174502 1:6.796 2:0.97100002 3:7.1199999 4:6.1490002 5:4.5310001 6:6.1490002 7:1.294 8:8.0909996 9:6.796 10:7.7670002 11:1.618 12:5.8249998 13:3.2360001 14:2.2650001 15:5.8249998 16:9.0609999 17:7.4429998 18:5.178 19:1.294 20:2.589 #
-0.50000000000686906087565830603126 1:6.237 2:1.8710001 3:6.0289998 4:8.9399996 5:5.4050002 6:6.8610001 7:1.663 8:6.0289998 9:7.0689998 10:7.9000001 11:1.247 12:3.326 13:7.0689998 14:3.95 15:6.237 16:7.0689998 17:2.2869999 18:5.8210001 19:2.079 20:2.911 #
-0.35938799354665240670669845712837 1:7.447 2:0 3:6.7379999 4:3.901 5:4.9650002 6:10.993 7:1.418 8:2.4820001 9:8.8649998 10:10.638 11:0.35499999 12:6.7379999 13:1.418 14:5.6739998 15:1.418 16:7.8010001 17:7.8010001 18:6.3829999 19:1.418 20:3.546 #
-0.35804150496354603117055148686632 1:11.696 2:0.146 3:5.4089999 4:7.0180001 5:3.655 6:6.2870002 7:2.1930001 8:3.8010001 9:10.088 10:7.164 11:0.58499998 12:3.3629999 13:2.4849999 14:3.655 15:4.8249998 16:11.988 17:4.5320001 18:5.1170001 19:2.0469999 20:3.947 #
-0.15853974495422806789690639561741 1:12.681 2:1.087 3:1.449 4:3.2609999 5:4.348 6:9.0579996 7:1.812 8:4.71 9:2.8989999 10:11.957 11:1.449 12:2.8989999 13:4.71 14:3.2609999 15:2.174 16:6.8839998 17:8.3330002 18:12.681 19:1.812 20:2.536 #
-0.50000000000686906087565830603126 1:6.3590002 2:2.1199999 3:5.4860001 4:6.4840002 5:4.1149998 6:4.7379999 7:2.743 8:7.3569999 9:4.9879999 10:11.97 11:2.618 12:5.362 13:3.2420001 14:2.993 15:5.6110001 16:6.7329998 17:5.237 18:6.8579998 19:1.122 20:3.865 #
-0.50000000000686906087565830603126 1:7.5640001 2:1.538 3:4.3590002 4:5.1279998 5:5.1279998 6:6.4099998 7:0.76899999 8:9.2309999 9:5.1279998 10:11.154 11:1.538 12:3.5899999 13:4.1030002 14:3.974 15:3.846 16:7.3080001 17:5.6409998 18:9.7440004 19:0.76899999 20:3.0769999 #
-0.41041190410602612637092079239665 1:6.5139999 2:1.943 3:4.5710001 4:7.6570001 5:3.543 6:7.5430002 7:1.829 8:6.0570002 9:5.5999999 10:11.429 11:2.971 12:4.2290001 13:5.0289998 14:2.971 15:5.257 16:7.3140001 17:5.9429998 18:6.4000001 19:0.68599999 20:2.5139999 #
-0.21494025426270801926165177064831 1:4.0229998 2:2.586 3:9.7700005 4:6.322 5:4.0229998 6:5.1719999 7:0.86199999 8:6.8969998 9:12.356 10:7.7589998 11:1.724 12:4.0229998 13:4.8850002 14:3.7360001 15:1.149 16:10.345 17:7.184 18:4.598 19:0.287 20:2.299 #
-0.31677802849978298205257942754542 1:6.322 2:0 3:7.4710002 4:7.4710002 5:2.8740001 6:2.299 7:1.149 8:5.1719999 9:12.644 10:9.1949997 11:2.299 12:4.0229998 13:2.8740001 14:5.1719999 15:4.0229998 16:10.345 17:5.7470002 18:7.4710002 19:1.149 20:2.299 #
-0.18330390681306227285141119409673 1:6.1999998 2:0.23 3:5.052 4:6.3150001 5:2.526 6:4.9369998 7:1.033 8:4.822 9:7.118 10:7.4629998 11:1.607 12:5.2810001 13:8.8400002 14:2.296 15:4.3629999 16:18.485001 17:5.855 18:4.7069998 19:0.91799998 20:1.952 #
-0.41944056739336427197528678334493 1:6.7800002 2:1.6950001 3:3.3900001 4:3.8139999 5:3.8139999 6:8.0509996 7:0.42399999 8:5.5079999 9:9.7460003 10:13.983 11:2.5420001 12:3.3900001 13:4.237 14:2.9660001 15:5.5079999 16:8.4750004 17:5.9320002 18:6.3559999 19:0.847 20:2.5420001 #
-0.32674079701402686248812301528233 1:12.113 2:2.062 3:3.0929999 4:5.6700001 5:4.1240001 6:6.9590001 7:4.381 8:3.0929999 9:1.289 10:14.175 11:2.835 12:0.51499999 13:5.4120002 14:3.0929999 15:4.8969998 16:9.7939997 17:6.1859999 18:6.4429998 19:1.031 20:2.835 #
-0.34667801626701932882212986442028 1:7.9369998 2:0.52899998 3:3.704 4:4.2329998 5:3.175 6:7.4070001 7:1.058 8:5.8200002 9:6.349 10:14.815 11:3.175 12:1.058 13:3.704 14:3.704 15:4.7620001 16:7.4070001 17:5.8200002 18:9.5240002 19:1.587 20:4.2329998 #
-0.50000000000686906087565830603126 1:3.5869999 2:0.89700001 3:6.5019999 4:5.381 5:3.5869999 6:3.1389999 7:2.4660001 8:6.7259998 9:9.1929998 10:10.538 11:1.345 12:6.9510002 13:4.0359998 14:2.4660001 15:4.4840002 16:13.453 17:4.4840002 18:6.2779999 19:1.1210001 20:3.3629999 #
-0.26431376883970925106837057683151 1:5.2329998 2:1.599 3:3.779 4:6.9770002 5:5.0869999 6:2.9070001 7:3.052 8:5.5229998 9:5.6690001 10:10.029 11:1.89 12:5.0869999 13:6.5409999 14:2.7620001 15:5.8140001 16:13.517 17:4.506 18:5.6690001 19:1.599 20:2.7620001 #
-0.26137798604899659116185262064391 1:6.2750001 2:0.39199999 3:3.9219999 4:5.6859999 5:4.5100002 6:10 7:1.765 8:5.6859999 9:5.6859999 10:9.8039999 11:1.765 12:4.902 13:4.118 14:10 15:3.529 16:6.0780001 17:9.2159996 18:4.5100002 19:0.588 20:1.569 #
-0.50000000000686906087565830603126 1:8.2449999 2:1.76 3:4.2150002 4:5.4190001 5:4.447 6:8.3369999 7:2.362 8:3.0109999 9:2.825 10:14.961 11:1.9450001 12:2.779 13:6.994 14:4.4000001 15:6.5770001 16:6.855 17:4.493 18:7.04 19:1.436 20:1.899 #
-0.50000000000686906087565830603126 1:7.0339999 2:1.711 3:4.7529998 4:9.5059996 5:3.802 6:4.9429998 7:1.331 8:3.612 9:9.5059996 10:9.316 11:2.471 12:3.4219999 13:7.0339999 14:6.0840001 15:3.612 16:5.513 17:3.9920001 18:7.414 19:1.521 20:3.4219999 #
-0.23814839816885799428369807628769 1:9.4119997 2:1.569 3:6.2750001 4:8.6269999 5:1.176 6:6.6669998 7:0.78399998 8:5.4899998 9:9.8039999 10:10.588 11:1.961 12:1.569 13:5.098 14:3.529 15:5.882 16:2.3529999 17:5.882 18:12.157 19:0.39199999 20:0.78399998 #
-0.30822921571191541634249233538867 1:6.5040002 2:0 3:4.0650001 4:8.1300001 5:5.691 6:2.4389999 7:2.4389999 8:8.9429998 9:5.691 10:6.5040002 11:4.8779998 12:5.691 13:1.626 14:5.691 15:4.0650001 16:7.3169999 17:6.5040002 18:6.5040002 19:1.626 20:5.691 #
-0.31805317991691367529583089890366 1:5.7969999 2:1.739 3:6.9569998 4:8.1160002 5:4.928 6:4.638 7:1.449 8:6.9569998 9:3.4779999 10:11.014 11:2.319 12:6.3769999 13:2.609 14:4.638 15:4.348 16:6.9569998 17:6.3769999 18:4.0580001 19:1.159 20:6.0869999 #
-0.29732101246635173064092327877006 1:3.8210001 2:2.8239999 3:4.4850001 4:4.3189998 5:3.4879999 6:6.645 7:0.83099997 8:9.1359997 9:6.4780002 10:8.1400003 11:1.827 12:7.4749999 13:5.98 14:4.1529999 15:3.654 16:8.4720001 17:6.1459999 18:6.8109999 19:1.163 20:4.1529999 #
-0.23425709317565546196959758162848 1:5.974 2:0.56900001 3:6.2589998 4:13.656 5:3.2720001 6:4.552 7:1.4220001 8:3.556 9:8.677 10:12.376 11:2.7030001 12:4.6939998 13:0.99599999 14:5.1209998 15:3.8410001 16:10.811 17:4.4099998 18:5.8319998 19:0.28400001 20:0.99599999 #
-0.21955272974808670571889024358825 1:4.7210002 2:0.85799998 3:6.4380002 4:6.8670001 5:5.579 6:10.3 7:3.4330001 8:2.1459999 9:3.8629999 10:8.5839996 11:0.85799998 12:2.1459999 13:4.2919998 14:5.1500001 15:5.579 16:16.309 17:3.4330001 18:5.1500001 19:0.42899999 20:3.8629999 #
-0.30583504629259600227086934864928 1:9.7089996 2:0.97100002 3:4.2069998 4:2.589 5:6.796 6:11.974 7:0.324 8:6.4720001 9:6.796 10:7.4429998 11:1.618 12:3.5599999 13:1.942 14:3.5599999 15:5.5019999 16:7.4429998 17:5.5019999 18:8.4139996 19:1.618 20:3.5599999 #
-0.20771874180286320488164619746385 1:7.0799999 2:1.77 3:4.4250002 4:5.3099999 5:3.54 6:10.619 7:2.655 8:4.4250002 9:15.044 10:4.4250002 11:3.54 12:6.1950002 13:4.4250002 14:2.655 15:2.655 16:5.3099999 17:7.9650002 18:2.655 19:0.88499999 20:4.4250002 #
-0.21804167722644901550310692073253 1:6.1950002 2:0.88499999 3:3.54 4:1.77 5:4.4250002 6:13.274 7:0.88499999 8:6.1950002 9:5.3099999 10:7.9650002 11:6.1950002 12:3.54 13:7.0799999 14:7.0799999 15:4.4250002 16:7.9650002 17:5.3099999 18:3.54 19:1.77 20:2.655 #
-0.2636815238937853522749321655283 1:7.7670002 2:1.942 3:9.2229996 4:11.65 5:0.97100002 6:6.796 7:0.48500001 8:5.3400002 9:5.8249998 10:7.7670002 11:6.3109999 12:6.796 13:0.97100002 14:6.3109999 15:8.2519999 16:4.8540001 17:3.398 18:4.369 19:0.48500001 20:0.48500001 #
-0.50000000000686906087565830603126 1:6.0609999 2:0.25299999 3:8.0810003 4:9.5959997 5:3.5350001 6:4.7979999 7:3.03 8:7.0710001 9:4.5450001 10:9.5959997 11:2.7780001 12:3.7880001 13:5.8080001 14:3.03 15:4.5450001 16:7.0710001 17:3.283 18:5.0510001 19:2.7780001 20:5.303 #
-0.20406961049998564861063243824901 1:6.7160001 2:0 3:7.4629998 4:11.194 5:1.493 6:4.4780002 7:4.4780002 8:5.9699998 9:7.4629998 10:8.2089996 11:2.2390001 12:2.2390001 13:2.9849999 14:2.2390001 15:2.9849999 16:8.2089996 17:7.4629998 18:6.7160001 19:2.9849999 20:4.4780002 #
-0.22908124566789841991543141830334 1:7.263 2:1.117 3:4.4689999 4:6.704 5:5.5869999 6:5.5869999 7:1.117 8:12.291 9:9.4969997 10:10.056 11:3.352 12:2.2349999 13:3.911 14:1.676 15:3.911 16:5.0279999 17:5.0279999 18:6.145 19:2.2349999 20:2.793 #
-0.31201159052322063880424707349448 1:9.5719995 2:0.50400001 3:2.7709999 4:4.5339999 5:6.5489998 6:9.0679998 7:2.0150001 8:9.0679998 9:3.2750001 10:13.35 11:1.008 12:2.5190001 13:4.7859998 14:3.023 15:5.0380001 16:5.7930002 17:4.0300002 18:8.0600004 19:2.267 20:2.7709999 #
-0.090796748345892686060665255354252 1:13.406 2:0.36199999 3:1.087 4:5.4349999 5:8.3330002 6:9.0579996 7:1.812 8:6.5219998 9:1.812 10:13.406 11:3.6229999 12:1.812 13:2.8989999 14:3.6229999 15:4.348 16:4.71 17:3.2609999 18:9.4200001 19:3.6229999 20:1.449 #
-0.3009515359814824431161639495258 1:9.6389999 2:0.602 3:6.6269999 4:7.8309999 5:4.8189998 6:3.6140001 7:0.602 8:6.0240002 9:5.4219999 10:8.434 11:1.807 12:5.4219999 13:3.6140001 14:4.8189998 15:3.6140001 16:12.651 17:7.2290001 18:5.4219999 19:0 20:1.807 #
-0.50000000000686906087565830603126 1:6.5159998 2:1.705 3:4.0799999 4:6.2729998 5:6.395 6:4.6290002 7:2.01 8:7.6739998 9:7.125 10:11.389 11:2.9230001 12:3.471 13:3.8369999 14:3.5929999 15:2.984 16:8.4650002 17:4.75 18:7.2470002 19:1.34 20:3.5929999 #
-0.31925059270397820876397076972353 1:9.0050001 2:3.3180001 3:2.8440001 4:2.3699999 5:3.3180001 6:9.0050001 7:0 8:8.5310001 9:3.3180001 10:12.322 11:3.3180001 12:2.8440001 13:4.7389998 14:4.7389998 15:2.8440001 16:8.0570002 17:6.6350002 18:5.6869998 19:2.8440001 20:4.2649999 #
-0.50000000000686906087565830603126 1:7.585 2:1.198 3:4.9899998 4:5.3889999 5:2.994 6:6.3870001 7:2.395 8:4.79 9:5.5890002 10:11.178 11:2.1960001 12:5.9879999 13:5.1900001 14:6.1880002 15:5.9879999 16:6.7859998 17:4.79 18:5.9879999 19:1.198 20:3.194 #
-0.24072646378628045904513044206396 1:6.1799998 2:0 3:3.3710001 4:8.9890003 5:6.7420001 6:4.494 7:0.56199998 8:3.9330001 9:12.36 10:11.798 11:0.56199998 12:5.618 13:2.247 14:3.3710001 15:3.3710001 16:6.7420001 17:2.809 18:8.427 19:1.124 20:7.303 #
-0.30721144793796972827237823366886 1:6.7729998 2:0.79699999 3:2.3900001 4:5.1789999 5:6.375 6:7.9679999 7:1.1950001 8:1.1950001 9:3.187 10:17.530001 11:1.992 12:3.586 13:4.382 14:1.992 15:6.7729998 16:9.96 17:3.187 18:10.757 19:1.992 20:2.789 #
-0.20600632537048249592892545933864 1:14.105 2:0.18099999 3:3.9779999 4:11.212 5:2.7119999 6:4.3400002 7:0.542 8:6.5100002 9:4.882 10:8.1370001 11:2.1700001 12:4.3400002 13:1.989 14:7.2329998 15:7.2329998 16:5.4250002 17:6.691 18:7.776 19:0.18099999 20:0.36199999 #
-0.49284852785063637536921987702954 1:4.7470002 2:1.899 3:5.6960001 4:6.6459999 5:3.4809999 6:4.7470002 7:1.7410001 8:5.0630002 9:7.2779999 10:9.8100004 11:2.6900001 12:3.9560001 13:5.8540001 14:4.7470002 15:7.1199999 16:8.8610001 17:6.9619999 18:7.1199999 19:0.79100001 20:0.79100001 #
-0.42512268504513667233268847667205 1:5.3870001 2:1.6569999 3:4.9720001 4:7.0440001 5:3.7290001 6:6.2150002 7:2.6240001 8:4.4200001 9:4.6960001 10:11.74 11:0.829 12:2.072 13:7.1820002 14:4.8340001 15:6.3540001 16:12.017 17:5.8010001 18:4.5580001 19:1.796 20:2.072 #
-0.38563484339332754213813814203604 1:6.5739999 2:0.199 3:5.677 4:10.558 5:2.789 6:6.375 7:0.99599999 8:3.0880001 9:8.4659996 10:9.6610003 11:2.092 12:5.5780001 13:6.1750002 14:4.5819998 15:5.777 16:9.1630001 17:2.9879999 18:6.5739999 19:0.498 20:2.191 #
-0.23267407930811165317486199910491 1:5.6960001 2:1.688 3:1.899 4:1.477 5:6.9619999 6:8.2279997 7:0.63300002 8:10.338 9:4.2189999 10:15.612 11:2.1099999 12:4.4299998 13:2.954 14:2.743 15:3.3759999 16:12.236 17:6.54 18:4.6409998 19:1.266 20:2.954 #
-0.20069714677992811502349468355533 1:11.594 2:0 3:4.348 4:11.594 5:1.449 6:4.348 7:0 8:5.7969999 9:10.145 10:11.594 11:1.449 12:1.449 13:5.7969999 14:2.8989999 15:10.145 16:4.348 17:1.449 18:5.7969999 19:0 20:5.7969999 #
-0.1951576704345590052014358661836 1:9.132 2:1.37 3:2.283 4:4.1100001 5:3.1960001 6:8.6759996 7:1.37 8:5.4790001 9:3.1960001 10:8.6759996 11:4.1100001 12:2.74 13:5.9359999 14:9.132 15:2.74 16:15.525 17:5.9359999 18:4.566 19:0.45699999 20:1.37 #
-0.50000000000686906087565830603126 1:9.9329996 2:0.191 3:4.0110002 4:5.8260002 5:2.865 6:7.4499998 7:1.528 8:7.927 9:4.1069999 10:11.557 11:3.3429999 12:2.674 13:5.2529998 14:3.5339999 15:4.8709998 16:5.6350002 17:5.158 18:9.4560003 19:2.006 20:2.674 #
-0.16732712274208574876332988878858 1:7.7360001 2:1.433 3:8.0229998 4:3.7249999 5:4.585 6:7.4499998 7:2.865 8:7.4499998 9:7.4499998 10:7.4499998 11:2.2920001 12:5.7309999 13:5.4439998 14:2.865 15:3.152 16:4.2979999 17:5.158 18:8.309 19:1.719 20:2.865 #
-0.33899428306038736913308184739435 1:9.5690002 2:1.4349999 3:3.8280001 4:7.6560001 5:4.7849998 6:4.3060002 7:1.914 8:6.6989999 9:8.6120005 10:11.483 11:2.8710001 12:4.7849998 13:5.263 14:3.8280001 15:2.8710001 16:2.8710001 17:5.263 18:5.7420001 19:1.4349999 20:4.7849998 #
-0.1859739469770031183859515522272 1:8.9390001 2:0.55900002 3:2.2349999 4:2.2349999 5:10.056 6:3.352 7:1.117 8:8.9390001 9:6.704 10:14.525 11:2.793 12:2.793 13:3.352 14:3.352 15:2.2349999 16:3.352 17:5.0279999 18:10.056 19:3.911 20:4.4689999 #
-0.33901457482336616600093748274958 1:8.5629997 2:0.917 3:2.141 4:3.6700001 5:5.5050001 6:10.398 7:0.917 8:6.4219999 9:7.9510002 10:8.5629997 11:2.141 12:4.5869999 13:4.8930001 14:3.6700001 15:3.0580001 16:9.4799995 17:7.3390002 18:7.0339999 19:0.61199999 20:2.141 #
-0.18179249710156333841304387988203 1:5.96 2:3.753 3:2.8699999 4:1.987 5:10.155 6:6.402 7:2.6489999 8:6.6230001 9:4.415 10:9.4919996 11:2.428 12:3.3110001 13:5.5190001 14:2.8699999 15:4.1939998 16:4.6360002 17:7.0640001 18:6.1810002 19:2.2079999 20:7.2849998 #
-0.20358022635090872176633070012031 1:11.039 2:1.623 3:3.247 4:2.273 5:3.5710001 6:8.1169996 7:1.623 8:6.8179998 9:2.5969999 10:18.181999 11:2.9219999 12:3.8959999 13:3.5710001 14:3.5710001 15:4.8699999 16:4.5450001 17:5.1950002 18:7.4679999 19:2.5969999 20:2.273 #
-0.50000000000686906087565830603126 1:6.908 2:1.614 3:4.2610002 4:5.4229999 5:4.777 6:5.487 7:2.1949999 8:7.3600001 9:5.0999999 10:13.234 11:2.8410001 12:4.842 13:3.2279999 14:3.4860001 15:4.454 16:7.1009998 17:6.7789998 18:6.3270001 19:1.614 20:2.97 #
-0.22365118314904186558322862765635 1:7.2919998 2:0.347 3:4.8610001 4:8.6809998 5:5.2080002 6:7.6389999 7:2.431 8:4.8610001 9:7.9860001 10:10.417 11:2.431 12:2.0829999 13:4.8610001 14:4.8610001 15:2.0829999 16:6.25 17:5.9029999 18:9.375 19:0.347 20:2.0829999 #
-0.18872052102076178337064504830778 1:6.8179998 2:2.273 3:0.75800002 4:2.273 5:5.303 6:7.5760002 7:0.75800002 8:9.0909996 9:3.03 10:15.152 11:3.03 12:1.515 13:4.5450001 14:4.5450001 15:3.03 16:6.8179998 17:2.273 18:14.394 19:2.273 20:4.5450001 #
-0.19505076737086596283532458073751 1:6.8969998 2:0 3:6.8969998 4:4.138 5:2.7590001 6:11.034 7:2.069 8:4.138 9:2.7590001 10:11.034 11:0.69 12:5.5170002 13:4.138 14:5.5170002 15:7.586 16:5.5170002 17:2.069 18:13.103 19:0.69 20:3.448 #
-0.19660443003766925329500736552291 1:5.217 2:0.87 3:0 4:4.348 5:2.609 6:8.6960001 7:1.739 8:6.9569998 9:11.304 10:13.913 11:0.87 12:5.217 13:2.609 14:6.0869999 15:2.609 16:9.5649996 17:2.609 18:6.0869999 19:0 20:8.6960001 #
-0.31488873153555163586503340411582 1:7.2270002 2:1.1799999 3:6.342 4:8.2600002 5:3.9820001 6:6.6370001 7:2.655 8:3.835 9:5.3099999 10:8.8500004 11:2.655 12:3.54 13:4.1300001 14:3.835 15:5.7519999 16:6.4899998 17:5.9000001 18:7.375 19:1.327 20:4.7199998 #
-0.31883556938788965018360954672971 1:3.349 2:2.8710001 3:5.263 4:9.0909996 5:6.2199998 6:1.914 7:2.8710001 8:4.7849998 9:7.6560001 10:11.962 11:2.392 12:4.3060002 13:4.7849998 14:3.8280001 15:3.8280001 16:6.6989999 17:3.8280001 18:6.6989999 19:3.349 20:4.3060002 #
-0.36052442008502694203997407385032 1:7.1220002 2:1.632 3:6.5279999 4:7.5669999 5:3.4119999 6:8.9020004 7:1.78 8:6.0830002 9:10.534 10:6.8249998 11:3.2639999 12:5.0450001 13:3.7090001 14:4.7480001 15:4.4510002 16:4.1539998 17:6.0830002 18:6.5279999 19:0 20:1.632 #
-0.15926854302822013309537396708038 1:9.8269997 2:0.289 3:2.6010001 4:3.1789999 5:10.405 6:6.3579998 7:0.86699998 8:11.561 9:3.1789999 10:10.116 11:4.335 12:3.757 13:3.757 14:1.156 15:3.757 16:7.5139999 17:5.4910002 18:5.7800002 19:1.734 20:4.335 #
-0.24756541693324607411597071404685 1:4.1609998 2:0.55500001 3:5.9640002 4:7.7670002 5:3.1900001 6:5.8249998 7:2.0799999 8:11.512 9:8.0439997 10:9.0150003 11:2.7739999 12:6.796 13:3.6059999 14:1.387 15:5.4089999 16:4.4380002 17:5.8249998 18:6.5190001 19:0.83200002 20:4.3000002 #
-0.16303755003223099895315328922152 1:3.7590001 2:0 3:4.1350002 4:1.88 5:6.0149999 6:6.7670002 7:1.5039999 8:12.03 9:5.263 10:15.789 11:5.6389999 12:1.88 13:3.7590001 14:2.632 15:5.263 16:7.5190001 17:5.263 18:6.7670002 19:1.5039999 20:2.632 #
-0.48797248055918279741050014308712 1:2.8269999 2:0.824 3:7.1849999 4:6.243 5:5.1830001 6:5.1830001 7:1.296 8:7.5380001 9:7.4200001 10:10.718 11:2.7090001 12:6.3600001 13:4.1220002 14:4.0050001 15:4.2399998 16:9.5410004 17:5.8889999 18:4.3579998 19:1.0599999 20:3.2980001 #
-0.22250973148372288346052982888068 1:8.6090002 2:1.987 3:3.974 4:8.6090002 5:4.6360002 6:5.2979999 7:1.987 8:1.987 9:2.6489999 10:13.907 11:2.6489999 12:1.325 13:5.96 14:3.3110001 15:7.2849998 16:10.596 17:3.3110001 18:7.2849998 19:1.987 20:2.6489999 #
-0.50000000000686906087565830603126 1:7.2080002 2:2.437 3:3.553 4:7.3099999 5:5.178 6:4.8730001 7:2.944 8:3.553 9:3.9590001 10:12.284 11:1.117 12:3.553 13:6.2940001 14:4.8730001 15:5.4819999 16:9.7460003 17:4.7719998 18:6.4970002 19:1.2180001 20:3.1470001 #
-0.2202418607900986646797036883072 1:8.1590004 2:1.692 3:4.8759999 4:9.0550003 5:2.5869999 6:5.8709998 7:2.786 8:2.289 9:4.8759999 10:14.726 11:1.692 12:1.294 13:3.3829999 14:9.4530001 15:8.1590004 16:7.5619998 17:5.8709998 18:4.1789999 19:0.69700003 20:0.796 #
-0.14186427264358700273128022217861 1:17.098 2:0.69099998 3:5.0089998 4:3.9719999 5:3.2820001 6:7.7719998 7:1.727 8:5.3540001 9:0.51800001 10:12.608 11:1.036 12:1.554 13:4.3179998 14:3.8 15:7.2540002 16:4.836 17:6.908 18:9.8450003 19:1.9 20:0.51800001 #
-0.18792365019203596809838074932486 1:14.249 2:0 3:7.888 4:5.8520002 5:1.018 6:3.053 7:0.25400001 8:4.835 9:5.0890002 10:10.687 11:1.781 12:4.5799999 13:3.3080001 14:9.6689997 15:4.5799999 16:7.3790002 17:7.3790002 18:5.3439999 19:1.527 20:1.527 #
-0.22249022630550718826469847044791 1:5.0929999 2:0.463 3:4.1669998 4:5.5560002 5:2.3150001 6:4.1669998 7:4.6300001 8:8.3330002 9:6.4809999 10:13.426 11:1.852 12:8.7959995 13:1.3890001 14:4.1669998 15:5.5560002 16:8.3330002 17:6.0190001 18:3.704 19:1.3890001 20:4.1669998 #
-0.3850170073051232266791998881672 1:6.1160002 2:1.835 3:5.1989999 4:7.9510002 5:3.9760001 6:6.4219999 7:2.7520001 8:4.8930001 9:8.5629997 10:8.5629997 11:1.223 12:3.0580001 13:3.9760001 14:6.1160002 15:3.3640001 16:10.398 17:4.5869999 18:6.7280002 19:2.141 20:2.141 #
-0.17045850653639132987748894265678 1:1.878 2:0.331 3:4.6409998 4:6.7399998 5:3.6459999 6:3.0940001 7:2.099 8:9.0609999 9:7.5139999 10:7.6240001 11:0.773 12:12.707 13:2.7620001 14:11.05 15:2.21 16:11.823 17:4.862 18:2.21 19:0.66299999 20:4.309 #
-0.11177079614845131239064812689321 1:8.5240002 2:1.8710001 3:4.3660002 4:4.158 5:7.6919999 6:10.603 7:4.158 8:6.8610001 9:2.7030001 10:8.9399996 11:2.911 12:4.158 13:2.7030001 14:2.911 15:2.7030001 16:5.198 17:4.5739999 18:8.316 19:1.8710001 20:4.7820001 #
-0.16020601000884118758627039369458 1:9.073 2:1.5779999 3:3.3529999 4:3.55 5:8.6789999 6:8.8760004 7:1.5779999 8:9.2700005 9:3.3529999 10:10.454 11:3.3529999 12:3.3529999 13:3.9449999 14:2.9590001 15:3.9449999 16:5.5229998 17:4.1420002 18:8.6789999 19:1.775 20:2.5639999 #
-0.41470866097767045133082319807727 1:6.4029999 2:0.81699997 3:3.1340001 4:7.493 5:5.4499998 6:4.0869999 7:2.0439999 8:5.3130002 9:7.493 10:10.627 11:2.8610001 12:4.9050002 13:3.951 14:2.1800001 15:5.0409999 16:7.6290002 17:6.131 18:10.899 19:1.499 20:2.0439999 #
-0.25164297595028478626844048449129 1:5.941 2:1.98 3:4.9499998 4:4.9499998 5:2.97 6:8.9110003 7:2.97 8:8.9110003 9:6.9310002 10:5.941 11:4.9499998 12:4.9499998 13:2.97 14:3.96 15:1.98 16:7.921 17:5.941 18:10.891 19:0 20:1.98 #
-0.50000000000686906087565830603126 1:5.8779998 2:1.4529999 3:5.2179999 4:5.3499999 5:5.02 6:6.605 7:1.321 8:6.671 9:4.6900001 10:13.012 11:2.444 12:2.642 13:3.303 14:3.5669999 15:5.02 16:10.106 17:4.756 18:8.1899996 19:1.849 20:2.9059999 #
-0.21228992078481570549008949910785 1:8.2349997 2:1.373 3:2.549 4:3.3329999 5:6.2750001 6:4.5100002 7:2.3529999 8:4.7059999 9:5.2940001 10:16.667 11:0.78399998 12:3.3329999 13:4.7059999 14:5.4899998 15:5.6859999 16:5.4899998 17:4.902 18:7.2550001 19:1.373 20:5.6859999 #
-0.30474571879325124124093804311997 1:11.584 2:1.363 3:4.9400001 4:12.436 5:3.918 6:6.6440001 7:1.193 8:3.4070001 9:6.8140001 10:12.606 11:2.0439999 12:4.2589998 13:4.0890002 14:3.5780001 15:3.4070001 16:6.303 17:4.5999999 18:6.1329999 19:0.17 20:0.51099998 #
-0.21796311207642143914497978585132 1:6.6669998 2:5 3:5 4:10 5:4.4439998 6:7.7779999 7:0.55599999 8:5.5560002 9:6.1110001 10:8.3330002 11:3.3329999 12:2.2219999 13:7.2220001 14:2.2219999 15:7.2220001 16:2.7780001 17:4.4439998 18:5 19:1.1109999 20:5 #
-0.36740819552925746416249808135035 1:7.862 2:2.201 3:2.516 4:5.3460002 5:4.4029999 6:7.2329998 7:5.0310001 8:4.0879998 9:5.3460002 10:14.151 11:2.8299999 12:3.4590001 13:2.8299999 14:4.0879998 15:4.717 16:6.9180002 17:5.9749999 18:7.5469999 19:1.572 20:1.887 #
-0.1875871322660272733084951823912 1:8.8549995 2:1.728 3:3.24 4:4.1040001 5:5.4000001 6:7.9910002 7:1.512 8:8.6389999 9:3.6719999 10:15.119 11:1.728 12:4.3200002 13:2.8080001 14:3.6719999 15:2.592 16:7.9910002 17:5.184 18:7.559 19:1.512 20:2.3759999 #
-0.18211498555732535953310957665963 1:12.23 2:0 3:4.3169999 4:9.3529997 5:1.439 6:8.6330004 7:4.3169999 8:7.914 9:5.7550001 10:8.6330004 11:4.3169999 12:0.71899998 13:2.878 14:5.7550001 15:3.5969999 16:5.7550001 17:4.3169999 18:7.1939998 19:0 20:2.878 #
-0.17505130974664057097456293377036 1:17.742001 2:0 3:1.613 4:3.2260001 5:1.613 6:3.2260001 7:0 8:4.8390002 9:6.4520001 10:6.4520001 11:1.613 12:4.8390002 13:3.2260001 14:6.4520001 15:4.8390002 16:11.29 17:11.29 18:3.2260001 19:1.613 20:6.4520001 #
-0.27482004550426103461902016533713 1:11.228 2:1.404 3:6.6669998 4:5.6139998 5:3.8599999 6:5.9650002 7:0.35100001 8:6.316 9:6.6669998 10:7.7189999 11:2.8069999 12:4.211 13:2.8069999 14:6.316 15:4.9120002 16:5.263 17:4.5609999 18:10.175 19:0.35100001 20:2.8069999 #
-0.42786732268279958901757709099911 1:5.1090002 2:1.095 3:6.7519999 4:4.7449999 5:6.204 6:2.737 7:3.467 8:8.7589998 9:6.0219998 10:10.036 11:2.007 12:6.7519999 13:4.5619998 14:2.9200001 15:4.3800001 16:8.9420004 17:5.2919998 18:5.8390002 19:1.642 20:2.737 #
-0.24315955310317302617839629874652 1:3.5350001 2:3.03 3:5.0510001 4:6.0609999 5:4.04 6:7.0710001 7:2.02 8:6.566 9:5.5560002 10:10.606 11:2.02 12:5.0510001 13:5.5560002 14:5.0510001 15:4.5450001 16:6.566 17:4.04 18:9.0909996 19:0.505 20:4.04 #
-0.26527499498108503273030578384351 1:4.651 2:1.395 3:1.86 4:3.721 5:6.9770002 6:7.9070001 7:2.326 8:8.8369999 9:2.7909999 10:10.233 11:4.1859999 12:1.86 13:4.1859999 14:2.326 15:4.651 16:6.5120001 17:7.9070001 18:10.233 19:2.7909999 20:4.651 #
-0.24691559235069446276433779985382 1:7.2399998 2:1.8099999 3:5.882 4:8.5970001 5:5.882 6:4.072 7:2.2620001 8:5.204 9:8.1450005 10:7.2399998 11:1.584 12:6.1090002 13:4.5250001 14:2.941 15:2.941 16:7.6919999 17:4.5250001 18:4.2989998 19:2.7149999 20:6.335 #
-0.13217321844288115739729505548894 1:14.839 2:0 3:1.9349999 4:2.5810001 5:4.5159998 6:12.903 7:0 8:10.323 9:3.2260001 10:11.613 11:5.1609998 12:1.29 13:2.5810001 14:2.5810001 15:1.9349999 16:9.677 17:2.5810001 18:9.0319996 19:0 20:3.2260001 #
-0.14372394898464788126624114283914 1:6.1350002 2:0.92000002 3:3.9879999 4:4.6009998 5:2.454 6:8.8959999 7:1.994 8:3.221 9:4.2940001 10:7.2090001 11:2.1470001 12:3.8340001 13:14.264 14:2.7609999 15:4.908 16:12.577 17:6.5949998 18:5.2150002 19:0.46000001 20:3.5280001 #
-0.23983664270786134165014402697125 1:9.7919998 2:0.29699999 3:3.2639999 4:4.1539998 5:6.2309999 6:5.3410001 7:1.484 8:9.1990004 9:4.7480001 10:11.573 11:2.967 12:3.2639999 13:4.7480001 14:4.7480001 15:5.638 16:6.5279999 17:6.5279999 18:5.0450001 19:2.3740001 20:2.0769999 #
-0.17420332813250327674836626101751 1:8 2:1.3329999 3:5.3330002 4:5.1849999 5:4.5929999 6:4.4439998 7:2.5190001 8:6.9629998 9:5.4809999 10:12.444 11:1.926 12:2.3699999 13:6.0739999 14:3.2590001 15:7.5560002 16:6.9629998 17:3.852 18:6.8150001 19:0.296 20:4.5929999 #
-0.2856507538906554732882625557977 1:4.7529998 2:0.73100001 3:5.6669998 4:5.8499999 5:4.7529998 6:6.5809999 7:2.3770001 8:7.1300001 9:4.7529998 10:6.2160001 11:2.559 12:6.3990002 13:6.2160001 14:4.0219998 15:5.8499999 16:12.614 17:6.033 18:4.388 19:0.54799998 20:2.559 #
-0.16484916171197730450082019615365 1:7.5560002 2:1.3329999 3:1.778 4:2.2219999 5:5.3330002 6:6.2220001 7:1.3329999 8:8.4440002 9:1.3329999 10:18.667 11:4 12:1.3329999 13:4.4439998 14:4.4439998 15:8 16:5.3330002 17:6.2220001 18:4.8889999 19:4.4439998 20:2.6670001 #
-0.16574889117804014748713825611048 1:13.935 2:0.245 3:3.484 4:3.8269999 5:1.521 6:14.181 7:3.1400001 8:2.257 9:5.8390002 10:5.6430001 11:2.5020001 12:5.447 13:5.447 14:8.342 15:2.6010001 16:11.629 17:3.8269999 18:4.711 19:0.245 20:1.178 #
-0.19593087762901301163154244022735 1:11.013 2:1.762 3:5.7270002 4:7.0479999 5:2.8629999 6:7.7090001 7:1.322 8:1.982 9:1.982 10:18.282 11:0.66100001 12:1.322 13:7.4889998 14:3.744 15:7.4889998 16:6.388 17:3.0840001 18:7.0479999 19:1.762 20:1.322 #
-0.18271522672130885434071956296975 1:9.7010002 2:0.74599999 3:3.7309999 4:8.2089996 5:4.4780002 6:2.2390001 7:2.9849999 8:2.9849999 9:3.7309999 10:8.2089996 11:5.224 12:2.9849999 13:3.7309999 14:3.7309999 15:8.2089996 16:3.7309999 17:7.4629998 18:11.94 19:0.74599999 20:5.224 #
-0.15884802888305291079795722453127 1:3.03 2:1.515 3:7.5760002 4:4.5450001 5:6.0609999 6:16.667 7:0 8:6.0609999 9:4.5450001 10:10.606 11:3.03 12:4.5450001 13:4.5450001 14:1.515 15:9.0909996 16:4.5450001 17:3.03 18:4.5450001 19:0 20:4.5450001 #
-0.16020243495594363447587227256008 1:8.1820002 2:2.727 3:0.90899998 4:1.818 5:4.5450001 6:10.909 7:0.90899998 8:13.636 9:0.90899998 10:14.545 11:3.6359999 12:1.818 13:4.5450001 14:1.818 15:2.727 16:7.2729998 17:6.3639998 18:4.5450001 19:3.6359999 20:4.5450001 #
-0.15417621292325167647874195608892 1:5.8140001 2:1.163 3:5.2329998 4:0.58099997 5:4.651 6:10.465 7:4.651 8:10.465 9:2.9070001 10:10.465 11:6.395 12:1.744 13:5.8140001 14:1.744 15:2.9070001 16:5.2329998 17:3.4879999 18:7.5580001 19:6.395 20:2.326 #
-0.1587856383285306260955138668578 1:7.1430001 2:1.724 3:4.6799998 4:4.4330001 5:4.4330001 6:4.9260001 7:1.97 8:3.941 9:5.9109998 10:7.3889999 11:9.1129999 12:6.158 13:3.448 14:3.2019999 15:1.724 16:16.995001 17:5.9109998 18:3.6949999 19:0.98500001 20:2.217 #
-0.35857813202861610335503428359516 1:6.4689999 2:0.52399999 3:6.119 4:5.9439998 5:4.895 6:6.2940001 7:1.224 8:4.7199998 9:7.1680002 10:10.49 11:2.7969999 12:4.895 13:3.671 14:4.1960001 15:4.1960001 16:8.217 17:5.2449999 18:5.9439998 19:2.622 20:4.3709998 #
-0.16216099134477099386053566831833 1:2.74 2:2.74 3:5.4790001 4:6.849 5:2.74 6:5.4790001 7:1.37 8:6.849 9:13.699 10:9.5889997 11:2.74 12:2.74 13:2.74 14:4.1100001 15:1.37 16:6.849 17:6.849 18:10.959 19:0 20:4.1100001 #
-0.16159132826539163163559464919672 1:7.6269999 2:0 3:7.6269999 4:11.017 5:5.9320002 6:4.237 7:2.5420001 8:10.169 9:7.6269999 10:7.6269999 11:0.847 12:4.237 13:4.237 14:3.3900001 15:5.085 16:2.5420001 17:9.3219995 18:4.237 19:0 20:1.6950001 #
-0.14940372567044504781286207162339 1:12.281 2:0 3:5.263 4:13.158 5:0.87699997 6:5.263 7:1.7539999 8:8.7720003 9:19.298 10:7.0180001 11:0.87699997 12:2.632 13:0.87699997 14:6.1399999 15:1.7539999 16:3.5090001 17:2.632 18:6.1399999 19:0 20:1.7539999 #
-0.15355509362678962381743019705027 1:15.493 2:0 3:4.2249999 4:8.4510002 5:0 6:4.2249999 7:0 8:9.8590002 9:4.2249999 10:9.8590002 11:1.408 12:1.408 13:1.408 14:1.408 15:4.2249999 16:9.8590002 17:4.2249999 18:15.493 19:1.408 20:2.8169999 #
-0.16771180299412755121402085478621 1:5.2420001 2:1.613 3:4.4349999 4:4.8390002 5:4.8390002 6:5.2420001 7:3.2260001 8:9.677 9:5.645 10:6.855 11:2.4189999 12:11.694 13:0.403 14:6.855 15:0.80599999 16:8.4680004 17:7.2579999 18:8.4680004 19:0.403 20:1.613 #
-0.4650416443286354839514729064831 1:6.013 2:2.2149999 3:4.7470002 4:7.2779999 5:3.4809999 6:5.0630002 7:2.848 8:5.6960001 9:7.9109998 10:10.759 11:1.899 12:4.7470002 13:6.329 14:4.1139998 15:3.4809999 16:5.3800001 17:4.7470002 18:7.9109998 19:1.899 20:3.4809999 #
-0.40026726799555328861757175218372 1:5.2059999 2:0.86799997 3:5.6399999 4:8.677 5:4.7719998 6:5.6399999 7:1.518 8:8.677 9:6.0739999 10:11.28 11:2.8199999 12:3.905 13:3.0369999 14:3.471 15:4.3379998 16:5.6399999 17:7.375 18:5.8569999 19:1.735 20:3.471 #
-0.20803421676753097724343888330623 1:7.6919999 2:1.425 3:5.698 4:5.698 5:2.849 6:7.1230001 7:2.5639999 8:4.5580001 9:4.5580001 10:12.821 11:1.994 12:1.994 13:3.704 14:5.9829998 15:8.2620001 16:5.1279998 17:5.1279998 18:7.1230001 19:1.425 20:4.2740002 #
-0.15023899452686306776882929625572 1:9.2779999 2:0 3:5.1550002 4:1.031 5:4.1240001 6:5.1550002 7:3.0929999 8:16.495001 9:4.1240001 10:13.402 11:8.2469997 12:4.1240001 13:1.031 14:2.062 15:2.062 16:4.1240001 17:2.062 18:13.402 19:0 20:1.031 #
-0.15119385299849597004140377976 1:4.145 2:1.036 3:10.881 4:2.332 5:3.109 6:11.917 7:4.9219999 8:5.4400001 9:0.259 10:18.912001 11:1.813 12:4.145 13:9.3260002 14:3.8859999 15:2.332 16:5.6989999 17:3.109 18:2.073 19:2.5910001 20:2.073 #
-0.14696714571442257013522691977414 1:8.7869997 2:0.41800001 3:2.51 4:7.5310001 5:2.092 6:3.766 7:0.83700001 8:4.6030002 9:7.5310001 10:5.4390001 11:1.674 12:2.9289999 13:16.736 14:5.0209999 15:5.8579998 16:5.4390001 17:5.8579998 18:10.879 19:0.83700001 20:1.255 #
-0.17274401689005822180256188858039 1:8.007 2:0.178 3:4.9819999 4:15.48 5:2.313 6:3.559 7:2.6689999 8:7.651 9:9.0749998 10:11.744 11:1.601 12:3.381 13:1.423 14:4.9819999 15:4.6259999 16:6.0500002 17:3.0250001 18:4.9819999 19:0.71200001 20:3.559 #
-0.18809160363288607298315469051886 1:8.8500004 2:0.442 3:6.6370001 4:9.2919998 5:2.2119999 6:3.54 7:0.442 8:7.0799999 9:10.619 10:10.619 11:4.4250002 12:3.9820001 13:2.2119999 14:8.8500004 15:6.1950002 16:2.2119999 17:2.655 18:6.6370001 19:0 20:3.0969999 #
-0.14968859172145421165822654074873 1:6.8629999 2:6.8629999 3:1.961 4:2.941 5:8.8240004 6:2.941 7:3.9219999 8:4.902 9:1.961 10:14.706 11:0.98000002 12:0 13:3.9219999 14:0.98000002 15:3.9219999 16:17.646999 17:3.9219999 18:7.8429999 19:2.941 20:1.961 #
-0.16494092643070415449280119446485 1:7.652 2:1.847 3:7.652 4:5.8049998 5:2.6389999 6:7.652 7:0.528 8:13.72 9:11.082 10:8.4429998 11:1.319 12:6.3319998 13:3.1659999 14:1.0549999 15:2.1110001 16:8.4429998 17:3.1659999 18:3.694 19:0.264 20:3.4300001 #
-0.14139884481052156228741978338803 1:26.818001 2:0 3:4.5450001 4:18.181999 5:0 6:6.8179998 7:0 8:0 9:12.727 10:0.45500001 11:0.45500001 12:0.90899998 13:11.364 14:3.1819999 15:0 16:8.6359997 17:3.1819999 18:2.273 19:0 20:0.45500001 #
-0.15017683268627451953491913627659 1:11.917 2:0.333 3:3.75 4:3 5:0.833 6:16.417 7:1.0829999 8:3.6670001 9:1.1670001 10:7.0830002 11:0.667 12:2.1670001 13:1.25 14:4.5830002 15:2.5829999 16:16.333 17:13.833 18:3.0829999 19:0.583 20:5.6669998 #
-0.2266353916256845235643879732379 1:8.5769997 2:1.277 3:4.5619998 4:6.934 5:2.007 6:5.8390002 7:2.372 8:2.737 9:5.6570001 10:10.766 11:2.5550001 12:5.474 13:2.007 14:9.6719999 15:5.474 16:9.3070002 17:5.6570001 18:5.6570001 19:2.1900001 20:1.277 #
-0.15095620722645539113493384775211 1:9.8900003 2:8.7910004 3:1.099 4:1.099 5:1.099 6:10.989 7:0 8:6.5929999 9:5.4949999 10:5.4949999 11:1.099 12:10.989 13:5.4949999 14:4.3959999 15:4.3959999 16:7.6919999 17:6.5929999 18:7.6919999 19:0 20:1.099 #
-0.15190608910796946084964531564765 1:5.4460001 2:8.4160004 3:4.4549999 4:1.98 5:7.921 6:15.347 7:0.99000001 8:6.9310002 9:2.97 10:12.376 11:2.4749999 12:5.941 13:3.96 14:1.98 15:1.485 16:3.96 17:3.4649999 18:6.4359999 19:1.98 20:1.485 #
-0.29802747309155441790551321901148 1:9.677 2:2.0869999 3:1.7079999 4:3.036 5:9.2980003 6:7.9699998 7:1.518 8:7.9699998 9:2.467 10:11.006 11:1.898 12:1.3279999 13:5.3130002 14:2.277 15:4.1750002 16:7.5900002 17:5.3130002 18:8.9180002 19:1.898 20:4.5539999 #
-0.15119955642521726302263118668634 1:8.4069996 2:0 3:0.442 4:1.327 5:3.9820001 6:3.54 7:2.655 8:12.832 9:2.655 10:19.469 11:5.3099999 12:4.8670001 13:6.1950002 14:3.0969999 15:1.77 16:5.7519999 17:11.504 18:3.54 19:1.327 20:1.327 #
-0.15094547691110665743607910371793 1:20 2:5.3330002 3:5.3330002 4:2.6670001 5:1.3329999 6:6.6669998 7:1.3329999 8:0 9:14.667 10:5.3330002 11:0 12:1.3329999 13:5.3330002 14:4 15:0 16:5.3330002 17:9.3330002 18:5.3330002 19:2.6670001 20:4 #
-0.3307420880449323252747717560851 1:7.7319999 2:3.0929999 3:5.1550002 4:7.2160001 5:3.608 6:6.7010002 7:3.0929999 8:8.7629995 9:7.7319999 10:6.1859999 11:2.5769999 12:4.6389999 13:4.6389999 14:3.0929999 15:4.1240001 16:6.1859999 17:5.1550002 18:6.7010002 19:1.031 20:2.5769999 #
-0.15022743980167974076067594069173 1:0 2:9.3330002 3:2.6670001 4:4 5:1.3329999 6:10.667 7:0 8:0 9:2.6670001 10:8 11:1.3329999 12:1.3329999 13:12 14:28 15:0 16:4 17:0 18:4 19:0 20:10.667 #
-0.15016648955538891563321612920845 1:5.046 2:1.0700001 3:4.2810001 4:6.881 5:0.76499999 6:25.535 7:1.529 8:3.0580001 9:7.645 10:6.2690001 11:2.599 12:1.376 13:16.514 14:4.8930001 15:4.2810001 16:3.0580001 17:2.4460001 18:1.988 19:0.153 20:0.61199999 #
-0.17421084234090514208936895101942 1:10.117 2:0.19499999 3:2.529 4:4.086 5:6.6149998 6:7.7820001 7:1.946 8:5.447 9:2.1400001 10:13.035 11:5.0580001 12:2.529 13:4.4749999 14:5.8369999 15:4.2800002 16:4.8639998 17:5.6420002 18:6.4200001 19:3.5020001 20:3.5020001 #
-0.26622936028845101130713146631024 1:9.8360004 2:0.546 3:5.191 4:2.4590001 5:4.645 6:6.2839999 7:1.0930001 8:5.7379999 9:3.279 10:15.574 11:4.098 12:3.552 13:3.552 14:4.9180002 15:5.4640002 16:5.4640002 17:5.7379999 18:9.29 19:1.913 20:1.3660001 #
-0.41106314469826110702399546426022 1:5.8709998 2:1.398 3:7.6420002 4:8.0150003 5:2.8889999 6:6.0580001 7:2.05 8:5.3119998 9:7.0830002 10:8.9469995 11:2.7030001 12:5.592 13:4.3800001 14:3.5409999 15:4.7529998 16:9.04 17:5.4990001 18:6.3369999 19:1.3049999 20:1.584 #
-0.18367159924920462010788924089866 1:4.6560001 2:0.88700002 3:7.428 4:4.9889998 5:7.428 6:4.8779998 7:1.9960001 8:7.0949998 9:8.2040005 10:10.865 11:1.33 12:8.4259996 13:2.55 14:4.2129998 15:4.5450001 16:7.539 17:4.2129998 18:3.7690001 19:0.333 20:4.6560001 #
-0.15035257669528767632272092669155 1:11.34 2:0.51499999 3:0 4:0 5:1.031 6:9.2779999 7:2.5769999 8:1.546 9:1.031 10:1.546 11:3.608 12:3.0929999 13:19.587999 14:4.6389999 15:1.546 16:8.2469997 17:10.825 18:8.7629995 19:0.51499999 20:10.309 #
-0.15005953584788719878950757902203 1:1.852 2:7.4070001 3:12.963 4:9.2589998 5:3.704 6:11.111 7:0 8:3.704 9:5.5560002 10:1.852 11:1.852 12:3.704 13:11.111 14:1.852 15:0 16:3.704 17:1.852 18:11.111 19:1.852 20:5.5560002 #
-0.14988951737527564378460454008746 1:16.667 2:0.49000001 3:3.9219999 4:17.157 5:1.961 6:9.8039999 7:0 8:0.49000001 9:4.902 10:9.3140001 11:2.941 12:0.98000002 13:13.235 14:4.4120002 15:3.9219999 16:3.9219999 17:1.961 18:1.961 19:0.49000001 20:1.471 #
-0.14947037531933524134863944254903 1:5.7360001 2:2.244 3:1.7460001 4:5.4860001 5:1.4960001 6:7.4809999 7:5.237 8:1.995 9:4.4889998 10:9.4759998 11:1.4960001 12:1.247 13:15.711 14:13.965 15:7.7309999 16:6.2340002 17:2.244 18:3.2420001 19:1.4960001 20:1.247 #
-0.28454391473178763938278734713094 1:6.2210002 2:1.498 3:8.0649996 4:5.184 5:4.3779998 6:6.4520001 7:3.687 8:6.5669999 9:7.1430001 10:7.1430001 11:2.5350001 12:2.4189999 13:5.5300002 14:3.802 15:5.5300002 16:5.9910002 17:4.954 18:7.1430001 19:2.0739999 20:3.687 #
-0.19617773946456698586082723068102 1:6.0380001 2:3.3959999 3:3.0190001 4:6.7919998 5:2.642 6:3.0190001 7:1.887 8:6.415 9:7.5469999 10:10.943 11:4.5279999 12:7.1700001 13:3.7739999 14:4.9060001 15:4.9060001 16:8.6789999 17:4.151 18:3.3959999 19:2.2639999 20:4.5279999 #
-0.14530566522923604733108504660777 1:8.4770002 2:1.724 3:2.586 4:2.4430001 5:2.155 6:7.902 7:2.586 8:3.3050001 9:1.724 10:6.178 11:4.3099999 12:5.0289998 13:7.902 14:14.943 15:4.7410002 16:8.908 17:4.1669998 18:5.8909998 19:0.71799999 20:4.3099999 #
-0.14477736411399061422500267326541 1:17.112 2:0.53500003 3:2.1389999 4:2.674 5:2.674 6:18.181999 7:1.604 8:2.1389999 9:2.1389999 10:11.23 11:2.674 12:0.53500003 13:3.743 14:7.487 15:5.348 16:5.348 17:6.9520001 18:5.882 19:0 20:1.604 #
-0.14724134453211390471949471248081 1:20.903999 2:1.6950001 3:1.6950001 4:10.734 5:5.085 6:10.169 7:1.6950001 8:1.13 9:1.13 10:14.124 11:1.13 12:1.6950001 13:4.52 14:2.825 15:8.4750004 16:4.52 17:2.825 18:2.825 19:1.6950001 20:1.13 #
-0.14835883486171883016702111035556 1:4.5019999 2:2.572 3:6.4310002 4:6.4310002 5:1.929 6:20.257 7:3.859 8:1.608 9:3.2149999 10:8.3599997 11:0.64300001 12:1.929 13:8.6820002 14:2.2509999 15:8.0389996 16:8.3599997 17:2.2509999 18:4.5019999 19:1.608 20:2.572 #
-0.15858935174842328508226785288571 1:2.326 2:1.163 3:2.9070001 4:2.326 5:5.2329998 6:5.8140001 7:2.326 8:7.5580001 9:6.9770002 10:8.7209997 11:1.744 12:4.0700002 13:4.651 14:4.651 15:6.395 16:13.372 17:5.8140001 18:9.8839998 19:1.163 20:2.9070001 #
-0.21818534082218188352442211908055 1:6.9369998 2:1.309 3:5.2360001 4:3.4030001 5:6.9369998 6:6.5450001 7:1.4400001 8:9.2930002 9:6.0209999 10:10.864 11:1.4400001 12:4.0580001 13:4.5809999 14:3.141 15:3.927 16:7.0679998 17:4.974 18:9.2930002 19:0.65399998 20:2.8800001 #
-0.14834406178311451696139044997835 1:6.4520001 2:6.4520001 3:11.29 4:6.4520001 5:3.2260001 6:8.0649996 7:0 8:0 9:8.0649996 10:3.2260001 11:4.8390002 12:1.613 13:8.0649996 14:3.2260001 15:11.29 16:3.2260001 17:1.613 18:6.4520001 19:3.2260001 20:3.2260001 #
-0.14434024617877283525047005241504 1:11.18 2:0 3:4.9689999 4:9.3170004 5:3.1059999 6:6.211 7:1.863 8:6.8319998 9:14.907 10:8.6960001 11:1.242 12:1.242 13:1.242 14:2.484 15:1.242 16:4.9689999 17:5.5900002 18:9.3170004 19:1.242 20:4.348 #
-0.1480520669862062099753075017361 1:16.455999 2:0 3:3.7969999 4:2.5320001 5:5.0630002 6:12.658 7:0 8:10.127 9:1.266 10:15.19 11:10.127 12:2.5320001 13:3.7969999 14:2.5320001 15:2.5320001 16:0 17:1.266 18:7.5949998 19:0 20:2.5320001 #
-0.1473388892562767227278897053111 1:11.194 2:0.74599999 3:6.7160001 4:17.91 5:1.493 6:8.2089996 7:0 8:3.7309999 9:13.433 10:5.224 11:5.9699998 12:0.74599999 13:5.224 14:4.4780002 15:5.9699998 16:2.2390001 17:2.2390001 18:2.2390001 19:0 20:2.2390001 #
-0.15829360216295593200008795520262 1:6.6389999 2:2.075 3:4.9790001 4:6.6389999 5:7.0539999 6:5.809 7:2.905 8:5.3940001 9:6.6389999 10:10.788 11:1.245 12:4.5640001 13:1.66 14:10.373 15:6.224 16:2.49 17:6.224 18:2.075 19:2.905 20:3.3199999 #
-0.13876958202519282248310616978415 1:13.58 2:2.4690001 3:6.1729999 4:4.9380002 5:4.9380002 6:4.9380002 7:3.704 8:6.1729999 9:1.235 10:4.9380002 11:4.9380002 12:4.9380002 13:6.1729999 14:3.704 15:11.111 16:3.704 17:3.704 18:6.1729999 19:1.235 20:1.235 #
-0.14514913069955057145499210946582 1:11.364 2:6.8179998 3:4.5450001 4:2.273 5:1.515 6:6.8179998 7:0 8:6.8179998 9:3.03 10:7.5760002 11:3.03 12:0.75800002 13:5.303 14:5.303 15:9.8479996 16:8.3330002 17:11.364 18:2.273 19:2.273 20:0.75800002 #
-0.18432331953324512796577039352997 1:12.078 2:1.558 3:3.8959999 4:4.026 5:6.2340002 6:10.649 7:0.77899998 8:8.5710001 9:4.2859998 10:8.7010002 11:2.727 12:2.987 13:3.3770001 14:1.169 15:1.948 16:7.5320001 17:6.494 18:8.8310003 19:1.039 20:3.1170001 #
-0.21876384989562619454162017973431 1:5.085 2:3.3900001 3:4.237 4:8.0509996 5:5.5079999 6:5.9320002 7:1.6950001 8:5.5079999 9:9.7460003 10:10.593 11:2.119 12:2.5420001 13:5.085 14:5.085 15:2.5420001 16:7.6269999 17:3.8139999 18:8.0509996 19:2.119 20:1.271 #
-0.19390071181666773680873916418932 1:9.6459999 2:0.96499997 3:1.929 4:3.5369999 5:7.0739999 6:12.54 7:0.64300001 8:6.1090002 9:6.1090002 10:10.932 11:2.2509999 12:2.2509999 13:4.823 14:3.859 15:2.2509999 16:9.0030003 17:6.4310002 18:5.4660001 19:0 20:4.1799998 #
-0.14224449603605537895134602877079 1:5.263 2:3.947 3:1.316 4:5.263 5:6.579 6:1.316 7:2.632 8:13.158 9:2.632 10:7.895 11:3.947 12:2.632 13:2.632 14:2.632 15:5.263 16:7.895 17:5.263 18:6.579 19:3.947 20:9.2110004 #
-0.14696976857327367915750926385954 1:3.283 2:1.2309999 3:5.335 4:7.5240002 5:1.368 6:4.3779998 7:3.625 8:2.8039999 9:10.739 10:3.967 11:1.026 12:3.625 13:4.7880001 14:3.352 15:10.192 16:20.246 17:4.651 18:4.309 19:0.82099998 20:2.7360001 #
-0.13777263903695913249691784585593 1:10.667 2:1.3329999 3:8.6669998 4:2 5:2.6670001 6:10 7:4.6669998 8:1.3329999 9:3.3329999 10:10 11:2.6670001 12:0.667 13:15.333 14:3.3329999 15:5.3330002 16:6.6669998 17:4 18:7.3330002 19:0 20:0 #
-0.27956785236367004410240610923211 1:5.1399999 2:1.402 3:5.6069999 4:6.5419998 5:4.2059999 6:2.336 7:2.336 8:7.0089998 9:7.0089998 10:9.3459997 11:0.935 12:6.5419998 13:5.6069999 14:4.6729999 15:6.0749998 16:10.748 17:5.6069999 18:4.2059999 19:1.869 20:2.8039999 #
-0.17260672502788282356434024222835 1:3.7869999 2:2.0120001 3:4.1420002 4:4.2600002 5:6.2719998 6:2.4849999 7:1.775 8:6.0359998 9:5.9169998 10:10.769 11:1.775 12:6.0359998 13:8.4020004 14:3.55 15:2.7219999 16:13.491 17:7.6919999 18:5.0890002 19:0.82800001 20:2.9590001 #
-0.23126918368746424148341134241491 1:10.964 2:1.089 3:4.4320002 4:5.3649998 5:4.355 6:7.0760002 7:1.8660001 8:6.454 9:5.132 10:9.8760004 11:2.4879999 12:3.3440001 13:3.1099999 14:3.888 15:5.21 16:8.7869997 17:4.5879998 18:7.8540001 19:1.166 20:2.9549999 #
-0.14424457158811312962320982933306 1:8.5530005 2:10.526 3:4.605 4:4.605 5:4.605 6:11.184 7:3.289 8:3.947 9:3.947 10:5.263 11:3.289 12:2.632 13:1.974 14:5.921 15:4.605 16:4.605 17:5.921 18:4.605 19:1.974 20:3.947 #
-0.13356848233724627483809399564052 1:14.462 2:3.0769999 3:4.6149998 4:7.0770001 5:1.538 6:10.154 7:1.846 8:1.538 9:0.308 10:7.0770001 11:1.538 12:0.61500001 13:8.3079996 14:1.2309999 15:8.6149998 16:10.462 17:7.0770001 18:8.9230003 19:0.61500001 20:0.92299998 #
-0.14275336549876949110426949118846 1:9.5240002 2:0 3:2.381 4:4.7620001 5:4.7620001 6:7.1430001 7:0 8:2.381 9:7.1430001 10:14.286 11:2.381 12:2.381 13:7.1430001 14:2.381 15:7.1430001 16:4.7620001 17:0 18:11.905 19:9.5240002 20:0 #
-0.12663887162145273657110067233589 1:9.4060001 2:0.99000001 3:5.4460001 4:6.4359999 5:3.96 6:7.921 7:0.99000001 8:4.4549999 9:6.9310002 10:8.9110003 11:1.98 12:3.96 13:4.4549999 14:3.4649999 15:4.4549999 16:9.4060001 17:5.4460001 18:7.921 19:0.99000001 20:2.4749999 #
-0.15106261783107960416927539881726 1:9.9449997 2:0.73699999 3:6.6300001 4:7.3660002 5:3.131 6:5.7090001 7:2.3940001 8:5.3410001 9:6.4460001 10:8.2869997 11:3.6830001 12:2.3940001 13:3.4990001 14:1.842 15:6.2620001 16:8.1029997 17:8.1029997 18:8.4709997 19:0.73699999 20:0.921 #
-0.2510229092817065077447580279113 1:9.7980003 2:0.62199998 3:5.3649998 4:5.677 5:5.21 6:8.5539999 7:1.011 8:7.6209998 9:6.3759999 10:9.4090004 11:2.3329999 12:2.799 13:2.4879999 14:4.0440001 15:4.1209998 16:8.7089996 17:5.2880001 18:7.8540001 19:0.69999999 20:2.0220001 #
-0.13181258960037192662362315331848 1:11.801 2:0.62099999 3:6.211 4:10.559 5:3.1059999 6:1.242 7:0.62099999 8:5.5900002 9:12.422 10:8.0749998 11:2.484 12:4.9689999 13:6.8319998 14:3.1059999 15:1.863 16:4.348 17:3.727 18:5.5900002 19:3.1059999 20:3.727 #
-0.14076568265583852546107834768918 1:18.349001 2:0 3:1.835 4:1.835 5:7.3390002 6:10.092 7:0.917 8:7.3390002 9:4.5869999 10:17.431 11:2.7520001 12:1.835 13:0 14:2.7520001 15:3.6700001 16:4.5869999 17:0.917 18:8.257 19:4.5869999 20:0.917 #
-0.13993265559478515469571391349746 1:7.3390002 2:0.917 3:1.835 4:0.917 5:4.5869999 6:6.4219999 7:5.5050001 8:10.092 9:1.835 10:9.1739998 11:10.092 12:4.5869999 13:1.835 14:0.917 15:0 16:8.257 17:8.257 18:11.927 19:3.6700001 20:1.835 #
-0.14014785871298598984857619598188 1:7.744 2:1.684 3:6.7340002 4:15.825 5:3.3670001 6:8.0810003 7:1.684 8:1.347 9:2.694 10:9.7639999 11:0.67299998 12:1.684 13:5.0510001 14:4.3769999 15:5.3870001 16:6.0609999 17:3.03 18:8.0810003 19:4.04 20:2.694 #
-0.19113558233845406864048754869145 1:5.9520001 2:1.905 3:3.3329999 4:7.0240002 5:7.2620001 6:5.2379999 7:2.381 8:7.5 9:4.0479999 10:11.19 11:3.6900001 12:4.7620001 13:3.4519999 14:5 15:4.4050002 16:6.5479999 17:5 18:6.5479999 19:1.786 20:2.9760001 #
-0.13444589910710411095884353471774 1:7.2290001 2:0 3:4.8189998 4:4.8189998 5:2.4100001 6:7.2290001 7:1.205 8:6.0240002 9:1.205 10:4.8189998 11:3.6140001 12:9.6389999 13:2.4100001 14:6.0240002 15:10.843 16:10.843 17:3.6140001 18:8.434 19:0 20:4.8189998 #
-0.14302382650785938622561843658332 1:6.1859999 2:0 3:2.062 4:11.34 5:4.1240001 6:4.1240001 7:0 8:7.2160001 9:4.1240001 10:12.371 11:3.0929999 12:1.031 13:7.2160001 14:2.062 15:1.031 16:9.2779999 17:11.34 18:8.2469997 19:0 20:5.1550002 #
-0.14072580518011906791642218195193 1:8.1429996 2:2.28 3:5.8629999 4:7.8179998 5:1.303 6:3.9089999 7:1.6289999 8:0.977 9:12.052 10:16.287001 11:0.65100002 12:4.5599999 13:4.5599999 14:7.1659999 15:7.4920001 16:4.2350001 17:3.5829999 18:5.8629999 19:0.977 20:0.65100002 #
-0.12292189687452770296971493735327 1:13.586 2:1.7819999 3:4.677 4:5.1220002 5:1.7819999 6:7.572 7:1.114 8:4.0089998 9:2.0039999 10:8.2410002 11:1.7819999 12:2.895 13:15.59 14:4.9000001 15:5.3449998 16:5.7909999 17:6.6820002 18:4.454 19:1.559 20:1.114 #
-0.13733746136413577110246819756867 1:3.073 2:1.655 3:2.3640001 4:1.891 5:4.0190001 6:6.619 7:2.128 8:9.9289999 9:8.0380001 10:9.9289999 11:8.0380001 12:8.9829998 13:2.3640001 14:2.128 15:2.3640001 16:6.8559999 17:5.2010002 18:4.0190001 19:1.891 20:8.5109997 #
-0.13685137911743669447695026519796 1:3.385 2:1.2309999 3:6.7690001 4:6.1539998 5:4 6:3.385 7:1.846 8:7.6919999 9:12.923 10:4.3080001 11:2.154 12:13.538 13:2.7690001 14:4.9229999 15:1.538 16:9.8459997 17:6.1539998 18:3.385 19:0.308 20:3.6919999 #
-0.13263987963285139848323979094857 1:4.6950002 2:0.704 3:3.404 4:4.5770001 5:2.3469999 6:5.869 7:3.052 8:5.2820001 9:6.573 10:5.7509999 11:2.582 12:10.798 13:10.563 14:8.5679998 15:2.23 16:11.033 17:4.9299998 18:4.9299998 19:0.58700001 20:1.526 #
-0.12312451366075216618867216311628 1:7.2729998 2:0 3:5.8179998 4:2.1819999 5:7.6360002 6:6.5450001 7:0.36399999 8:5.8179998 9:11.273 10:6.9089999 11:0.727 12:10.182 13:2.9089999 14:2.5450001 15:1.455 16:6.9089999 17:10.182 18:8 19:0.36399999 20:2.9089999 #
-0.14845288453693566976809847801633 1:7.2069998 2:1.802 3:5.4050002 4:5.4050002 5:2.7030001 6:9.0089998 7:1.802 8:4.5050001 9:13.514 10:7.2069998 11:1.802 12:2.7030001 13:3.6040001 14:1.802 15:2.7030001 16:6.3060002 17:8.1079998 18:8.1079998 19:0.90100002 20:5.4050002 #
-0.19383909630115148114981593607808 1:11.329 2:1.525 3:1.961 4:3.2679999 5:6.3179998 6:8.0609999 7:2.1789999 8:3.4860001 9:2.3970001 10:17.865 11:2.3970001 12:1.961 13:5.0110002 14:3.4860001 15:4.3569999 16:7.625 17:5.2290001 18:6.9720001 19:1.525 20:3.05 #
-0.10992378431108618119793618461699 1:19.672001 2:1.23 3:1.6390001 4:2.869 5:3.6889999 6:6.967 7:0.41 8:5.3280001 9:0.81999999 10:17.212999 11:1.6390001 12:0.81999999 13:5.7379999 14:2.869 15:9.8360004 16:2.869 17:6.967 18:6.967 19:2.049 20:0.41 #
-0.13483921811916604882597425785207 1:14.667 2:1 3:3.3329999 4:3 5:5.3330002 6:13 7:0.667 8:2.3329999 9:5.3330002 10:8.3330002 11:3 12:1.3329999 13:5 14:4 15:4.3330002 16:7 17:6 18:8.6669998 19:0.667 20:3 #
-0.13648538467271847940409656985139 1:7.5139999 2:2.312 3:1.734 4:1.156 5:8.6709995 6:9.8269997 7:2.312 8:7.5139999 9:2.312 10:7.5139999 11:6.9359999 12:3.4679999 13:1.734 14:1.734 15:3.4679999 16:15.029 17:5.7800002 18:4.6240001 19:3.4679999 20:2.8900001 #
-0.13285220142583628599730616315355 1:12 2:4.8000002 3:0 4:2.4000001 5:12.8 6:5.5999999 7:3.2 8:4.8000002 9:4.8000002 10:14.4 11:4 12:0.80000001 13:4.8000002 14:4 15:5.5999999 16:6.4000001 17:1.6 18:4.8000002 19:3.2 20:0 #
-0.13866191611803541094971592428919 1:9.5889997 2:1.37 3:1.37 4:2.74 5:8.2189999 6:1.37 7:1.37 8:5.4790001 9:1.37 10:10.959 11:8.2189999 12:2.74 13:5.4790001 14:2.74 15:5.4790001 16:8.2189999 17:5.4790001 18:12.329 19:4.1100001 20:1.37 #
-0.12510557538821859280275816672656 1:21.326 2:0.86500001 3:2.017 4:2.3050001 5:4.323 6:11.527 7:1.729 8:4.8990002 9:0.28799999 10:12.68 11:2.5940001 12:2.017 13:7.493 14:1.441 15:4.6110001 16:3.7460001 17:3.7460001 18:8.0690002 19:2.017 20:2.3050001 #
-0.13720149482197893653356857157632 1:8.8240004 2:0 3:5.882 4:5.882 5:4.4120002 6:7.3530002 7:4.4120002 8:5.882 9:14.706 10:10.294 11:2.941 12:4.4120002 13:7.3530002 14:2.941 15:0 16:2.941 17:4.4120002 18:4.4120002 19:0 20:2.941 #
-0.1758993266722691795056476848913 1:6.9910002 2:0.375 3:2.247 4:2.497 5:8.4890003 6:6.6170001 7:2.372 8:10.986 9:3.8699999 10:13.483 11:3.4960001 12:3.7449999 13:3.3710001 14:2.8710001 15:2.122 16:8.1149998 17:6.1170001 18:6.8660002 19:1.248 20:4.1199999 #
-0.11952691460952601099076986201908 1:11.146 2:2.2290001 3:2.8659999 4:3.1849999 5:4.4590001 6:4.777 7:2.8659999 8:7.9619999 9:5.0960002 10:7.006 11:3.1849999 12:4.4590001 13:5.414 14:4.1399999 15:2.2290001 16:10.191 17:8.599 18:3.822 19:1.911 20:4.4590001 #
-0.13891154305243952338244639577169 1:4.7059999 2:0.588 3:11.765 4:6.4710002 5:4.7059999 6:11.176 7:0.588 8:6.4710002 9:5.882 10:8.8240004 11:0.588 12:4.7059999 13:0.588 14:5.2940001 15:2.3529999 16:6.4710002 17:5.882 18:5.882 19:2.3529999 20:4.7059999 #
-0.14261300237576321481292040971312 1:27.046 2:0 3:1.068 4:20.285 5:2.135 6:9.9639997 7:0.35600001 8:0 9:9.6090002 10:0.35600001 11:0.35600001 12:1.779 13:6.7620001 14:4.6259999 15:1.068 16:10.32 17:2.8469999 18:1.423 19:0 20:0 #
-0.12796480068030724464023251130129 1:4.0440001 2:3.309 3:3.309 4:2.2060001 5:8.8240004 6:3.6760001 7:8.8240004 8:2.5739999 9:1.471 10:15.809 11:2.2060001 12:2.5739999 13:6.9850001 14:3.6760001 15:2.941 16:7.7210002 17:5.1469998 18:7.7210002 19:4.0440001 20:2.941 #
-0.12904007048346954888984328135848 1:12.155 2:3.8670001 3:6.0770001 4:12.707 5:3.8670001 6:9.3920002 7:2.7620001 8:2.7620001 9:11.05 10:6.0770001 11:2.7620001 12:2.21 13:1.6569999 14:1.105 15:4.4200001 16:1.105 17:3.8670001 18:7.7350001 19:0.55199999 20:3.8670001 #
-0.20654808026250895403030938268785 1:8.7840004 2:1.351 3:3.7160001 4:3.378 5:4.3920002 6:9.1219997 7:2.027 8:8.1079998 9:3.378 10:10.473 11:2.7030001 12:4.0539999 13:4.3920002 14:2.7030001 15:3.0409999 16:7.77 17:5.743 18:10.473 19:1.0140001 20:3.378 #
-0.12698794178967853785167108071619 1:7.9840002 2:1.597 3:1.796 4:5.3889999 5:6.1880002 6:7.7839999 7:0.59899998 8:7.7839999 9:3.194 10:14.172 11:2.595 12:2.994 13:4.9899998 14:4.3909998 15:3.3929999 16:6.5869999 17:4.5910001 18:9.3809996 19:1.198 20:3.3929999 #
-0.19580212347677433681880643234763 1:6.1360002 2:0.64600003 3:4.198 4:6.566 5:5.1669998 6:7.3200002 7:1.507 8:5.7049999 9:3.552 10:15.823 11:2.4760001 12:2.0450001 13:6.8889999 14:3.552 15:4.9520001 16:6.4590001 17:5.2740002 18:7.8579998 19:1.184 20:2.691 #
-0.12988770640679911383408295932895 1:6.993 2:6.993 3:6.6430001 4:8.3920002 5:5.2449999 6:2.098 7:4.1960001 8:3.497 9:5.5939999 10:5.5939999 11:1.399 12:8.3920002 13:4.1960001 14:4.5450001 15:5.5939999 16:7.6919999 17:4.895 18:5.5939999 19:0.699 20:1.748 #
-0.12241401179172742286205277650879 1:15.104 2:2.0829999 3:4.6880002 4:4.6880002 5:1.562 6:10.417 7:3.125 8:1.562 9:4.1669998 10:8.3330002 11:3.125 12:3.125 13:8.3330002 14:8.8540001 15:4.1669998 16:4.6880002 17:4.1669998 18:3.6459999 19:1.0420001 20:3.125 #
-0.13510820984166907465784390751651 1:6.2270002 2:0.54900002 3:5.3109999 4:4.579 5:2.9300001 6:7.3260002 7:3.48 8:3.846 9:6.96 10:8.059 11:2.198 12:7.1430001 13:5.1279998 14:11.172 15:4.7620001 16:6.777 17:4.2119999 18:3.6630001 19:0.73299998 20:4.9450002 #
-0.15666585684646563980670919136173 1:10.738 2:1.2079999 3:3.221 4:6.8460002 5:3.0869999 6:7.3829999 7:2.2820001 8:4.2950001 9:3.7579999 10:12.617 11:2.2820001 12:1.745 13:4.698 14:4.8319998 15:7.9190001 16:6.309 17:3.8929999 18:7.651 19:1.6109999 20:3.6240001 #
-0.17005368791736594213936939468113 1:7.3909998 2:0.21699999 3:5.8699999 4:8.4779997 5:3.043 6:9.783 7:1.522 8:5.8699999 9:4.348 10:9.1300001 11:3.2609999 12:2.391 13:4.348 14:4.348 15:5.652 16:5.4349999 17:5.217 18:10.217 19:0.21699999 20:3.2609999 #
-0.23659754792979603710278979633586 1:9.0459995 2:2.796 3:5.428 4:4.276 5:4.112 6:3.289 7:1.974 8:6.086 9:4.605 10:12.664 11:1.974 12:2.632 13:3.947 14:5.263 15:5.592 16:6.414 17:4.934 18:7.73 19:2.796 20:4.441 #
-0.12822524325551876156481512225582 1:8.5200005 2:0.213 3:5.4310002 4:3.1949999 5:3.408 6:7.881 7:1.171 8:4.473 9:6.9219999 10:7.987 11:1.597 12:7.5609999 13:3.0880001 14:5.5380001 15:2.6619999 16:9.2650003 17:8.0939999 18:6.9219999 19:1.0650001 20:5.0050001 #
-0.13269467779581686772694126830174 1:12.329 2:4.1100001 3:1.37 4:3.6530001 5:3.6530001 6:5.9359999 7:1.37 8:5.0229998 9:0.91299999 10:15.525 11:0.91299999 12:2.74 13:4.1100001 14:2.74 15:5.0229998 16:12.785 17:5.0229998 18:6.849 19:3.1960001 20:2.74 #
