SVM-light Version V6.02
2 # kernel type
3 # kernel parameter -d 
0.02 # kernel parameter -g 
1 # kernel parameter -s 
1 # kernel parameter -r 
empty# kernel parameter -u 
20 # highest feature index 
624 # number of training documents 
547 # number of support vectors plus 1 
-0.075075908 # threshold b, each following line is a SV (starting with alpha*y)
-0.13551587381166846357771760267497 1:10 2:0.63499999 3:5.8730001 4:6.5079999 5:3.3329999 6:8.4130001 7:1.587 8:2.8570001 9:4.6030002 10:14.921 11:1.7460001 12:3.016 13:5.079 14:5.079 15:3.8099999 16:9.8409996 17:4.1269999 18:5.079 19:2.063 20:1.429 #
-0.50000126421251644970311645010952 1:7.7080002 2:2.0829999 3:3.3329999 4:2.2920001 5:6.4580002 6:8.125 7:1.25 8:7.0830002 9:3.9579999 10:8.3330002 11:2.7079999 12:3.9579999 13:3.9579999 14:3.9579999 15:2.7079999 16:7.7080002 17:6.6669998 18:11.667 19:2.2920001 20:3.75 #
-0.50000126421251644970311645010952 1:9.9530001 2:1.738 3:3.9489999 4:4.5809999 5:6.3189998 6:8.8470001 7:2.0539999 8:8.2150002 9:4.2649999 10:9.4790001 11:2.3699999 12:3.4760001 13:3.3180001 14:3.6329999 15:3.7909999 16:7.4250002 17:4.7389998 18:6.0029998 19:1.896 20:3.9489999 #
-0.50000126421251644970311645010952 1:7.1430001 2:2.326 3:5.1500001 4:2.658 5:5.6479998 6:7.309 7:1.329 8:8.4720001 9:3.987 10:11.96 11:2.1589999 12:4.8169999 13:4.8169999 14:1.661 15:4.651 16:8.9700003 17:7.1430001 18:6.9770002 19:0.83099997 20:1.993 #
-0.37013755775970436090460680134129 1:5.1690001 2:3.3870001 3:2.674 4:3.5650001 5:8.5559998 6:6.2389998 7:1.783 8:9.9820004 9:3.5650001 10:8.7340002 11:2.852 12:3.9219999 13:3.9219999 14:1.961 15:2.674 16:11.23 17:5.704 18:8.7340002 19:1.783 20:3.5650001 #
1.2003008520940432468648850772297 1:9.3170004 2:0.62099999 3:4.0370002 4:5.1240001 5:3.5710001 6:7.9190001 7:1.7079999 8:6.0560002 9:5.1240001 10:11.801 11:2.0190001 12:3.882 13:2.484 14:2.95 15:4.348 16:10.093 17:6.677 18:9.1610003 19:0.46599999 20:2.6400001 #
-0.20433336046147981823750683361141 1:7.2069998 2:1.802 3:5.4050002 4:5.4050002 5:2.7030001 6:9.0089998 7:1.802 8:4.5050001 9:13.514 10:7.2069998 11:1.802 12:2.7030001 13:3.6040001 14:1.802 15:2.7030001 16:6.3060002 17:8.1079998 18:8.1079998 19:0.90100002 20:5.4050002 #
2.3000055623654240832820505602285 1:7.0339999 2:4.3730001 3:5.7030001 4:7.9850001 5:5.7030001 6:6.4640002 7:2.6619999 8:4.5630002 9:5.7030001 10:9.6960001 11:2.471 12:3.612 13:4.1830001 14:4.3730001 15:4.7529998 16:5.513 17:4.7529998 18:5.323 19:0.56999999 20:4.5630002 #
-0.50000126421251644970311645010952 1:7.302 2:2.8570001 3:2.8570001 4:4.2859998 5:6.8249998 6:7.9369998 7:1.1109999 8:8.8889999 9:3.3329999 10:9.6829996 11:1.905 12:3.4920001 13:4.7620001 14:2.8570001 15:3.016 16:6.5079999 17:7.302 18:7.1430001 19:3.016 20:4.921 #
2.3000058153775753133629677904537 1:7.4959998 2:1.595 3:3.5090001 4:3.5090001 5:4.7849998 6:6.2199998 7:1.7539999 8:8.1339998 9:3.668 10:10.686 11:2.711 12:3.349 13:3.668 14:3.1900001 15:4.1469998 16:7.8150001 17:6.2199998 18:8.4530001 19:3.03 20:6.0609999 #
-0.50000126421251644970311645010952 1:7.1799998 2:1.567 3:4.5040002 4:5.3520002 5:4.8959999 6:5.6789999 7:1.762 8:6.1360002 9:5.2220001 10:12.272 11:2.7420001 12:3.8510001 13:3.721 14:3.655 15:4.5040002 16:8.6160002 17:4.7649999 18:8.6160002 19:1.9579999 20:3.003 #
-0.50000126421251644970311645010952 1:7.5159998 2:1.322 3:4.0359998 4:6.402 5:4.3839998 6:6.1929998 7:2.575 8:6.8200002 9:5.776 10:11.621 11:2.9920001 12:3.132 13:3.4100001 14:3.7579999 15:5.8460002 16:8.2119999 17:5.6370001 18:6.8889999 19:1.183 20:2.296 #
-0.50000126421251644970311645010952 1:6.4109998 2:1.761 3:5.0560002 4:7.6300001 5:4.6950002 6:5.237 7:2.7539999 8:5.5079999 9:7.0879998 10:10.293 11:2.3929999 12:3.4760001 13:4.605 14:4.5149999 15:6.9070001 16:6.1849999 17:5.1919999 18:5.4180002 19:1.2640001 20:3.612 #
2.3000058153775753133629677904537 1:9.2720003 2:1.325 3:2.428 4:2.6489999 5:5.5190001 6:9.0509996 7:1.104 8:11.7 9:3.753 10:12.362 11:4.1939998 12:2.2079999 13:4.6360002 14:2.2079999 15:1.766 16:9.0509996 17:6.1810002 18:7.506 19:1.325 20:1.766 #
2.3000058153775753133629677904537 1:9.5349998 2:1.222 3:2.934 4:3.178 5:7.335 6:10.269 7:2.4449999 8:7.8239999 9:3.6670001 10:10.758 11:4.8899999 12:3.4230001 13:2.934 14:3.4230001 15:1.711 16:6.3569999 17:6.112 18:7.8239999 19:1.222 20:2.934 #
1.5876686916219318046472608330077 1:9.4189997 2:2.405 3:3.8080001 4:2.605 5:4.8099999 6:12.024 7:2.0039999 8:6.6129999 9:3.006 10:9.6190004 11:3.2060001 12:4.0079999 13:3.8080001 14:1.403 15:2.605 16:7.415 17:7.2140002 18:7.2140002 19:3.4070001 20:3.4070001 #
-0.50000126421251644970311645010952 1:9.5539999 2:1.911 3:2.5480001 4:2.5480001 5:5.7319999 6:4.4590001 7:1.911 8:10.828 9:2.5480001 10:15.924 11:1.911 12:2.5480001 13:3.822 14:3.822 15:3.822 16:7.6430001 17:5.7319999 18:7.006 19:2.5480001 20:3.1849999 #
-0.50000126421251644970311645010952 1:11.156 2:1.623 3:2.0280001 4:3.043 5:5.6799998 6:9.1280003 7:1.42 8:7.5050001 9:2.8399999 10:13.387 11:3.8540001 12:3.651 13:2.434 14:2.8399999 15:3.651 16:6.2880001 17:4.2600002 18:7.7080002 19:2.434 20:5.0710001 #
-0.50000126421251644970311645010952 1:8.8409996 2:0.58899999 3:1.768 4:2.5539999 5:7.8590002 6:9.0369997 7:2.161 8:7.8590002 9:2.5539999 10:14.931 11:5.1079998 12:1.572 13:4.322 14:3.9289999 15:2.358 16:6.0900002 17:5.1079998 18:6.8759999 19:3.3399999 20:3.1429999 #
2.3000058153775753133629677904537 1:8.2189999 2:1.918 3:3.927 4:5.5710001 5:5.388 6:8.3109999 7:1.6440001 8:8.0369997 9:6.119 10:8.6759996 11:2.648 12:5.2049999 13:3.744 14:2.74 15:3.744 16:6.941 17:4.658 18:7.8540001 19:1.553 20:3.105 #
2.3000058153775753133629677904537 1:7.3499999 2:2.0510001 3:3.7609999 4:4.1030002 5:8.3760004 6:6.8379998 7:1.026 8:7.6919999 9:4.1030002 10:9.0600004 11:3.9319999 12:4.4439998 13:5.6409998 14:2.9059999 15:4.1030002 16:7.1789999 17:5.6409998 18:6.8379998 19:1.709 20:3.2479999 #
-0.47852930221536138510884939023526 1:9.6079998 2:1.569 3:2.549 4:2.549 5:5.2940001 6:10.196 7:1.569 8:9.2159996 9:2.1570001 10:10 11:1.961 12:3.1370001 13:5.4899998 14:2.3529999 15:5.098 16:8.2349997 17:5.2940001 18:8.6269999 19:2.549 20:2.549 #
-0.50000126421251644970311645010952 1:5.6700001 2:2.339 3:4.7480001 4:4.8899999 5:6.9450002 6:4.8899999 7:2.4809999 8:6.9450002 9:5.3860002 10:10.135 11:2.2679999 12:5.0320001 13:3.6849999 14:3.6140001 15:3.5439999 16:8.7880001 17:6.0949998 18:6.52 19:1.4170001 20:4.6069999 #
-0.50000126421251644970311645010952 1:5.9359999 2:2.1429999 3:4.4520001 4:6.2649999 5:6.1009998 6:5.6059999 7:1.566 8:6.5949998 9:5.3590002 10:9.316 11:2.556 12:4.204 13:3.4619999 14:3.875 15:5.6059999 16:7.7490001 17:6.1830001 18:7.9970002 19:1.484 20:3.5450001 #
-0.50000126421251644970311645010952 1:6.8400002 2:2.1170001 3:5.2119999 4:5.375 5:6.026 6:7.6550002 7:1.14 8:6.5149999 9:5.0489998 10:9.4460001 11:3.7460001 12:3.5829999 13:3.257 14:2.9319999 15:4.072 16:8.9580002 17:4.8860002 18:6.8400002 19:1.6289999 20:4.723 #
2.3000058153775753133629677904537 1:11.329 2:1.525 3:1.961 4:3.2679999 5:6.3179998 6:8.0609999 7:2.1789999 8:3.4860001 9:2.3970001 10:17.865 11:2.3970001 12:1.961 13:5.0110002 14:3.4860001 15:4.3569999 16:7.625 17:5.2290001 18:6.9720001 19:1.525 20:3.05 #
2.3000058153775753133629677904537 1:13.406 2:0.36199999 3:1.087 4:5.4349999 5:8.3330002 6:9.0579996 7:1.812 8:6.5219998 9:1.812 10:13.406 11:3.6229999 12:1.812 13:2.8989999 14:3.6229999 15:4.348 16:4.71 17:3.2609999 18:9.4200001 19:3.6229999 20:1.449 #
2.3000058153775753133629677904537 1:12.621 2:0 3:2.184 4:1.942 5:4.612 6:8.7379999 7:2.184 8:7.7670002 9:2.6700001 10:14.563 11:4.1259999 12:2.184 13:3.398 14:4.369 15:3.641 16:5.8249998 17:5.5830002 18:9.4659996 19:1.942 20:2.184 #
-0.50000126421251644970311645010952 1:11.654 2:1.316 3:2.8199999 4:5.0749998 5:4.1350002 6:9.3979998 7:1.316 8:6.7670002 9:3.5710001 10:12.97 11:2.256 12:3.7590001 13:4.8870001 14:2.256 15:3.3829999 16:7.1430001 17:6.0149999 18:9.2110004 19:0.56400001 20:1.5039999 #
-0.50000126421251644970311645010952 1:12.915 2:1.476 3:2.5829999 4:4.428 5:5.1659999 6:8.8559999 7:2.9519999 8:4.428 9:1.476 10:14.76 11:1.107 12:2.5829999 13:5.1659999 14:2.9519999 15:4.7969999 16:7.0110002 17:5.1659999 18:8.8559999 19:1.845 20:1.476 #
-0.50000126421251644970311645010952 1:12.078 2:1.558 3:3.8959999 4:4.026 5:6.2340002 6:10.649 7:0.77899998 8:8.5710001 9:4.2859998 10:8.7010002 11:2.727 12:2.987 13:3.3770001 14:1.169 15:1.948 16:7.5320001 17:6.494 18:8.8310003 19:1.039 20:3.1170001 #
0.16893337178741701931627972044225 1:6.006 2:1.955 3:4.6090002 4:6.145 5:7.1230001 6:4.6090002 7:1.397 8:6.9829998 9:6.006 10:10.615 11:2.5139999 12:3.2119999 13:4.1900001 14:4.1900001 15:7.402 16:8.1009998 17:5.0279999 18:4.4689999 19:1.955 20:3.4920001 #
0.97524443191665843855275852547493 1:5.6440001 2:1.881 3:3.9070001 4:5.21 5:6.802 6:6.0780001 7:1.737 8:7.5250001 9:5.4990001 10:11.288 11:2.75 12:5.21 13:3.473 14:2.171 15:3.329 16:10.275 17:5.789 18:6.5120001 19:1.881 20:3.039 #
-0.50000126421251644970311645010952 1:6.0609999 2:0.67299998 3:6.0609999 4:5.3870001 5:3.704 6:7.744 7:1.01 8:7.4070001 9:9.0909996 10:9.0909996 11:2.694 12:3.704 13:3.3670001 14:4.7140002 15:4.3769999 16:6.7340002 17:5.3870001 18:9.4280005 19:1.01 20:2.3570001 #
-0.50000126421251644970311645010952 1:6.8060002 2:1.571 3:3.665 4:3.665 5:7.3299999 6:5.7589998 7:3.141 8:9.6859999 9:3.665 10:11.257 11:3.665 12:3.4030001 13:3.4030001 14:2.618 15:3.4030001 16:7.3299999 17:7.0679998 18:6.8060002 19:2.0940001 20:3.665 #
-0.50000126421251644970311645010952 1:5.263 2:3.3239999 3:4.4320002 4:4.1550002 5:4.9860001 6:5.263 7:2.493 8:7.4790001 9:5.54 10:11.634 11:3.3239999 12:4.7090001 13:4.1550002 14:2.77 15:4.4320002 16:3.878 17:5.54 18:8.033 19:2.77 20:5.8169999 #
-0.50000126421251644970311645010952 1:5.967 2:2.0580001 3:4.9380002 4:3.9089999 5:6.79 6:4.7329998 7:3.4979999 8:6.79 9:5.7610002 10:9.8769999 11:4.3210001 12:4.527 13:5.1440001 14:3.4979999 15:5.7610002 16:8.0249996 17:3.9089999 18:5.7610002 19:1.235 20:3.4979999 #
0.53476007368578359901789553987328 1:11.132 2:0.377 3:3.2079999 4:4.151 5:7.3579998 6:7.3579998 7:2.4530001 8:8.4910002 9:2.8299999 10:14.34 11:3.3959999 12:3.0190001 13:3.585 14:2.8299999 15:2.4530001 16:5.283 17:4.9060001 18:9.434 19:1.132 20:2.2639999 #
2.3000058153775753133629677904537 1:13.474 2:0.63200003 3:2.947 4:2.737 5:5.053 6:11.368 7:1.684 8:5.895 9:3.579 10:11.368 11:2.947 12:2.947 13:4.842 14:2.947 15:2.105 16:4.632 17:5.053 18:8.4209995 19:3.579 20:3.789 #
0.84873573966836124427004506287631 1:14.136 2:0.26199999 3:2.3559999 4:2.618 5:6.8060002 6:9.6859999 7:2.3559999 8:9.1619997 9:4.4499998 10:15.183 11:3.665 12:2.3559999 13:3.4030001 14:1.0470001 15:1.571 16:6.5450001 17:3.4030001 18:7.592 19:1.0470001 20:2.3559999 #
-0.50000126421251644970311645010952 1:11.256 2:0.48899999 3:2.2839999 4:2.447 5:6.1989999 6:9.625 7:2.447 8:5.3829999 9:2.447 10:16.15 11:4.7309999 12:3.263 13:2.9360001 14:1.794 15:2.6099999 16:5.3829999 17:5.3829999 18:9.4619999 19:2.6099999 20:3.0999999 #
-0.50000126421251644970311645010952 1:10.223 2:2.7880001 3:2.4159999 4:2.4159999 5:5.3899999 6:14.87 7:1.487 8:5.7620001 9:3.346 10:11.152 11:2.4159999 12:2.7880001 13:4.8330002 14:2.23 15:3.5320001 16:6.691 17:4.8330002 18:8.1780005 19:2.602 20:2.0450001 #
-0.50000126421251644970311645010952 1:11.085 2:1.887 3:2.5940001 4:1.415 5:5.8959999 6:9.198 7:0.94300002 8:3.7739999 9:2.1229999 10:17.452999 11:3.5380001 12:0.708 13:5.6599998 14:4.0089998 15:4.9530001 16:8.0190001 17:5.4250002 18:8.9619999 19:0.472 20:1.887 #
0.14269035039666150277426481807197 1:5.006 2:2.0139999 3:4.6609998 4:5.1209998 5:6.9039998 6:4.6030002 7:2.0710001 8:6.6739998 9:5.178 10:10.99 11:3.74 12:3.4519999 13:4.085 14:4.2579999 15:6.2140002 16:6.9039998 17:5.2930002 18:8.1700001 19:1.784 20:2.8770001 #
0.16779816436597350115533799908007 1:8.6960001 2:2.609 3:3.826 4:5.217 5:4.8699999 6:5.3909998 7:1.913 8:9.5649996 9:4.5219998 10:9.5649996 11:2.609 12:4.348 13:3.3039999 14:2.609 15:3.652 16:8.6960001 17:5.0430002 18:9.3909998 19:1.043 20:3.1300001 #
-0.50000126421251644970311645010952 1:2.299 2:4.598 3:5.7470002 4:6.8969998 5:4.598 6:2.299 7:1.149 8:5.7470002 9:6.8969998 10:9.1949997 11:2.299 12:10.345 13:0 14:6.8969998 15:3.448 16:14.943 17:6.8969998 18:5.7470002 19:0 20:0 #
-0.50000126421251644970311645010952 1:5.9460001 2:1.898 3:4.3639998 4:6.3249998 5:6.5780001 6:5.4400001 7:2.0239999 8:6.1350002 9:6.388 10:12.903 11:2.846 12:3.7950001 13:3.9849999 14:3.7320001 15:4.0479999 16:7.9060001 17:4.934 18:6.3249998 19:1.265 20:3.1630001 #
-0.50000126421251644970311645010952 1:6.2919998 2:1.421 3:3.8570001 4:4.3979998 5:6.0219998 6:5.4130001 7:1.421 8:7.375 9:4.1950002 10:12.179 11:2.233 12:4.3979998 13:3.5179999 14:3.5179999 15:5.8189998 16:9.2019997 17:5.8189998 18:7.5780001 19:1.691 20:3.654 #
-0.50000126421251644970311645010952 1:6.8280001 2:2.8629999 3:4.8460002 4:5.947 5:6.8280001 6:3.9649999 7:2.2030001 8:8.1499996 9:3.5239999 10:9.6920004 11:2.8629999 12:4.8460002 13:3.0840001 14:4.4050002 15:6.1669998 16:6.388 17:4.6259999 18:5.947 19:3.0840001 20:3.744 #
2.3000058153775753133629677904537 1:9.7980003 2:2.177 3:3.421 4:2.9549999 5:4.1989999 6:10.109 7:0.31099999 8:3.733 9:2.0220001 10:15.397 11:2.9549999 12:2.3329999 13:5.2880001 14:3.1099999 15:4.5100002 16:7.4650002 17:6.3759999 18:8.5539999 19:1.8660001 20:3.421 #
0.54945905832116337386139548470965 1:14.696 2:1.597 3:4.1529999 4:3.5139999 5:4.7919998 6:6.3899999 7:2.556 8:2.556 9:0.639 10:16.933001 11:1.278 12:0.958 13:6.0700002 14:2.556 15:5.7509999 16:6.7090001 17:5.4310002 18:8.3070002 19:1.9170001 20:3.1949999 #
1.3199266687137420905884255262208 1:13.504 2:0.233 3:5.006 4:5.006 5:3.3759999 6:8.033 7:2.5610001 8:3.9579999 9:1.513 10:12.456 11:1.513 12:1.397 13:5.704 14:3.26 15:8.2650003 16:4.8889999 17:6.5190001 18:9.0799999 19:1.863 20:1.863 #
-0.50000126421251644970311645010952 1:7.869 2:1.6390001 3:3.6070001 4:2.951 5:5.0819998 6:9.0159998 7:0.32800001 8:7.2129998 9:3.279 10:11.311 11:4.5900002 12:2.4590001 13:4.5900002 14:3.115 15:3.115 16:8.5249996 17:7.0489998 18:8.033 19:1.967 20:4.2620001 #
-0.50000126421251644970311645010952 1:10.753 2:1.72 3:2.151 4:2.796 5:7.0970001 6:9.2469997 7:1.075 8:12.258 9:3.0109999 10:8.8170004 11:5.5910001 12:2.5810001 13:2.3659999 14:3.441 15:2.151 16:5.8060002 17:6.0219998 18:7.527 19:2.5810001 20:3.0109999 #
-0.50000126421251644970311645010952 1:9.5819998 2:0.87099999 3:4.1810002 4:3.484 5:4.704 6:8.0139999 7:1.22 8:9.2329998 9:4.1810002 10:9.2329998 11:2.6129999 12:4.5300002 13:3.1359999 14:2.6129999 15:2.7869999 16:8.3620005 17:6.6199999 18:8.1879997 19:3.1359999 20:3.3099999 #
1.1218219835945852924652399451588 1:6.4359999 2:1.733 3:2.723 4:5.6929998 5:5.6929998 6:8.1680002 7:1.98 8:8.1680002 9:5.198 10:11.881 11:2.97 12:5.4460001 13:2.4749999 14:3.4649999 15:4.4549999 16:6.9310002 17:2.723 18:7.178 19:1.98 20:4.7030001 #
0.080425721001946559596262886771001 1:6.9060001 2:4.6960001 3:5.2490001 4:9.1160002 5:5.2490001 6:5.6630001 7:2.6240001 8:6.3540001 9:6.0770001 10:6.0770001 11:2.901 12:5.2490001 13:3.7290001 14:4.1440001 15:4.9720001 16:7.7350001 17:4.9720001 18:3.4530001 19:0.96700001 20:3.8670001 #
-0.50000126421251644970311645010952 1:5.8410001 2:1.168 3:4.2059999 4:8.4110003 5:4.9070001 6:6.0749998 7:1.168 8:8.1780005 9:8.4110003 10:8.1780005 11:3.2709999 12:4.2059999 13:5.1399999 14:2.336 15:4.4390001 16:6.776 17:4.4390001 18:7.4770002 19:0.935 20:4.4390001 #
-0.50000126421251644970311645010952 1:4.3740001 2:1.789 3:4.1750002 4:7.5549998 5:5.1690001 6:5.7649999 7:2.5840001 8:8.7480001 9:6.5609999 10:10.736 11:5.1690001 12:4.3740001 13:4.573 14:2.187 15:5.1690001 16:5.368 17:4.7709999 18:6.362 19:1.193 20:3.3800001 #
-0.50000126421251644970311645010952 1:6.5799999 2:1.396 3:4.6859999 4:7.5770001 5:5.9819999 6:6.4809999 7:2.1930001 8:6.1810002 9:5.9819999 10:9.3719997 11:2.6919999 12:4.0879998 13:5.2839999 14:4.0879998 15:5.184 16:7.3779998 17:4.2870002 18:5.3839998 19:1.396 20:3.789 #
2.3000058153775753133629677904537 1:9.4879999 2:0.99900001 3:3.2460001 4:4.619 5:5.618 6:7.6149998 7:2.497 8:7.6149998 9:3.6199999 10:9.8629999 11:2.8710001 12:2.497 13:4.3699999 14:2.622 15:5.368 16:7.3660002 17:5.243 18:9.2379999 19:1.124 20:4.1199999 #
2.3000058153775753133629677904537 1:9.3100004 2:3.21 3:3.21 4:3.3710001 5:7.0630002 6:9.9519997 7:1.124 8:5.2969999 9:2.8889999 10:9.6309996 11:2.7290001 12:2.8889999 13:3.3710001 14:2.7290001 15:3.05 16:7.5440001 17:7.3839998 18:9.3100004 19:2.0869999 20:3.852 #
-0.50000126421251644970311645010952 1:6.586 2:2.253 3:2.253 4:4.506 5:6.2389998 6:7.6259999 7:2.0799999 8:4.6789999 9:3.6400001 10:12.305 11:2.773 12:3.4660001 13:2.9460001 14:2.5999999 15:3.9860001 16:9.1850004 17:6.4120002 18:9.0120001 19:2.9460001 20:4.506 #
-0.50000126421251644970311645010952 1:8.9829998 2:1.525 3:4.0679998 4:3.898 5:5.9320002 6:8.1359997 7:1.525 8:6.1020002 9:4.5760002 10:13.22 11:2.3729999 12:2.5420001 13:3.898 14:2.7119999 15:4.4070001 16:5.763 17:7.7969999 18:7.4580002 19:1.6950001 20:3.3900001 #
-0.50000126421251644970311645010952 1:7.4920001 2:0.65100002 3:2.28 4:3.5829999 5:5.8629999 6:6.5149999 7:2.6059999 8:5.2119999 9:6.1890001 10:14.332 11:2.6059999 12:3.5829999 13:2.9319999 14:3.5829999 15:5.8629999 16:5.2119999 17:7.4920001 18:9.4460001 19:1.303 20:3.257 #
1.0492445002672978748847754104645 1:7.8119998 2:1.309 3:4.941 4:6.1659999 5:5.1939998 6:6.757 7:2.4070001 8:4.7719998 9:4.3920002 10:8.6149998 11:3.2520001 12:4.434 13:7.5170002 14:3.632 15:8.1499996 16:5.9970002 17:5.0679998 18:5.3210001 19:1.309 20:2.9560001 #
0.10324900675694256846348650924483 1:8.5240002 2:1.8710001 3:4.3660002 4:4.158 5:7.6919999 6:10.603 7:4.158 8:6.8610001 9:2.7030001 10:8.9399996 11:2.911 12:4.158 13:2.7030001 14:2.911 15:2.7030001 16:5.198 17:4.5739999 18:8.316 19:1.8710001 20:4.7820001 #
1.2525662489865649895648402889492 1:7.7979999 2:2.2939999 3:4.4720001 4:5.2750001 5:4.1279998 6:8.7159996 7:1.72 8:4.3579998 9:5.619 10:8.257 11:1.6059999 12:2.0639999 13:7.9130001 14:3.5550001 15:7.454 16:9.8620005 17:4.0139999 18:6.1929998 19:1.4910001 20:3.211 #
-0.50000126421251644970311645010952 1:7.7049999 2:1.35 3:6.1160002 4:5.7979999 5:3.336 6:7.4660001 7:3.0179999 8:4.8449998 9:4.8449998 10:8.1809998 11:2.145 12:4.1300001 13:6.0370002 14:3.733 15:5.7189999 16:9.7700005 17:4.7659998 18:6.434 19:1.4299999 20:3.177 #
-0.50000126421251644970311645010952 1:7.914 2:1.619 3:3.237 4:6.1149998 5:8.4530001 6:5.5760002 7:1.799 8:5.2160001 9:6.1149998 10:9.7119999 11:1.439 12:4.1370001 13:4.8559999 14:2.698 15:5.9349999 16:8.4530001 17:4.6760001 18:6.835 19:2.3380001 20:2.878 #
-0.50000126421251644970311645010952 1:3.5020001 2:1.2079999 3:4.8309999 4:5.1929998 5:3.865 6:4.2270002 7:1.5700001 8:7.7290001 9:5.9180002 10:9.5410004 11:2.174 12:7.7290001 13:4.8309999 14:3.6229999 15:5.3140001 16:13.768 17:6.2800002 18:4.2270002 19:0.96600002 20:3.5020001 #
1.0908368237901835406944428541465 1:7.3740001 2:2.878 3:3.237 4:4.4959998 5:5.3959999 6:7.7340002 7:1.079 8:4.6760001 9:2.698 10:14.388 11:3.0580001 12:2.698 13:4.8559999 14:3.777 15:4.1370001 16:6.6550002 17:6.2950001 18:8.6330004 19:2.3380001 20:3.5969999 #
2.3000058153775753133629677904537 1:5.9250002 2:1.257 3:3.95 4:3.77 5:7.1810002 6:7.0019999 7:1.257 8:5.9250002 9:2.513 10:13.465 11:3.95 12:2.513 13:4.8470001 14:2.8729999 15:5.566 16:7.7199998 17:5.9250002 18:8.618 19:2.154 20:3.5910001 #
2.262209147015589394413836998865 1:6.5079999 2:1.302 3:2.8199999 4:3.2539999 5:6.5079999 6:6.941 7:2.3859999 8:6.2909999 9:2.6029999 10:13.232 11:2.6029999 12:4.7719998 13:6.2909999 14:2.6029999 15:5.4229999 16:7.592 17:7.809 18:6.941 19:1.302 20:2.8199999 #
-0.50000126421251644970311645010952 1:8.3500004 2:1.942 3:3.4949999 4:3.3010001 5:5.0489998 6:8.3500004 7:1.359 8:8.9320002 9:3.3010001 10:11.845 11:4.8540001 12:3.3010001 13:5.8249998 14:2.5239999 15:2.9130001 16:8.3500004 17:5.243 18:6.796 19:0.97100002 20:3.3010001 #
-0.50000126421251644970311645010952 1:10.396 2:1.98 3:2.4749999 4:3.96 5:5.2810001 6:7.5910001 7:1.155 8:4.125 9:2.3099999 10:16.007 11:2.6400001 12:1.65 13:6.4359999 14:3.96 15:4.125 16:6.9310002 17:5.4460001 18:9.4060001 19:0.82499999 20:3.3 #
-0.43711420971401582225013271454372 1:7.0799999 2:1.77 3:4.4250002 4:5.3099999 5:3.54 6:10.619 7:2.655 8:4.4250002 9:15.044 10:4.4250002 11:3.54 12:6.1950002 13:4.4250002 14:2.655 15:2.655 16:5.3099999 17:7.9650002 18:2.655 19:0.88499999 20:4.4250002 #
1.7997153459610581993644018439227 1:10.68 2:0 3:0.97100002 4:5.8249998 5:3.8829999 6:5.8249998 7:0 8:6.796 9:7.7670002 10:8.7379999 11:1.942 12:3.8829999 13:5.8249998 14:3.8829999 15:3.8829999 16:3.8829999 17:6.796 18:12.621 19:1.942 20:4.8540001 #
1.9093565748470875398368207243038 1:5.4260001 2:0.77499998 3:3.1010001 4:6.9770002 5:4.651 6:5.4260001 7:2.326 8:3.8759999 9:5.4260001 10:10.853 11:3.1010001 12:4.651 13:5.4260001 14:4.651 15:4.651 16:9.302 17:6.2020001 18:6.9770002 19:1.55 20:4.651 #
0.66204509423748492125127995677758 1:3.704 2:3.704 3:5.8200002 4:2.1159999 5:3.704 6:6.349 7:3.704 8:4.2329998 9:5.8200002 10:11.64 11:6.349 12:5.2909999 13:1.587 14:2.6459999 15:2.1159999 16:10.582 17:5.8200002 18:5.8200002 19:3.704 20:5.2909999 #
-0.50000126421251644970311645010952 1:5.0289998 2:0.77399999 3:4.836 4:6.1900001 5:7.737 6:5.6090002 7:1.7410001 8:8.5109997 9:3.868 10:9.8649998 11:3.675 12:4.4489999 13:3.095 14:2.3210001 15:3.4820001 16:9.2840004 17:6.9629998 18:8.1239996 19:1.5470001 20:2.901 #
-0.50000126421251644970311645010952 1:4.7470002 2:1.899 3:5.6960001 4:6.6459999 5:3.4809999 6:4.7470002 7:1.7410001 8:5.0630002 9:7.2779999 10:9.8100004 11:2.6900001 12:3.9560001 13:5.8540001 14:4.7470002 15:7.1199999 16:8.8610001 17:6.9619999 18:7.1199999 19:0.79100001 20:0.79100001 #
-0.50000126421251644970311645010952 1:6.0560002 2:3.7639999 3:4.9099998 4:5.5650001 5:5.401 6:4.092 7:2.7820001 8:6.5469999 9:6.5469999 10:10.311 11:2.619 12:4.9099998 13:4.2550001 14:3.6010001 15:4.2550001 16:8.0200005 17:4.2550001 18:7.3649998 19:0.98199999 20:3.7639999 #
1.0407422966372446015981267919415 1:8.6680002 2:2.1140001 3:3.171 4:2.96 5:5.2849998 6:6.342 7:1.48 8:9.7250004 9:4.8629999 10:14.799 11:1.691 12:3.5940001 13:4.0170002 14:2.7479999 15:2.1140001 16:7.1880002 17:5.4970002 18:8.2449999 19:0.84600002 20:4.651 #
0.93983580191780768942066970339511 1:12.022 2:0.273 3:2.7320001 4:2.7320001 5:5.4640002 6:6.0110002 7:3.279 8:7.3769999 9:2.1860001 10:16.667 11:3.825 12:3.279 13:3.552 14:2.7320001 15:1.913 16:8.1969995 17:5.7379999 18:9.29 19:0.81999999 20:1.913 #
2.3000058153775753133629677904537 1:6.9910002 2:0.375 3:2.247 4:2.497 5:8.4890003 6:6.6170001 7:2.372 8:10.986 9:3.8699999 10:13.483 11:3.4960001 12:3.7449999 13:3.3710001 14:2.8710001 15:2.122 16:8.1149998 17:6.1170001 18:6.8660002 19:1.248 20:4.1199999 #
-0.50000126421251644970311645010952 1:10.052 2:0.773 3:1.804 4:2.3199999 5:7.7319999 6:7.9899998 7:0.773 8:11.34 9:2.5769999 10:14.948 11:2.5769999 12:1.546 13:3.8659999 14:2.5769999 15:2.5769999 16:10.825 17:4.6389999 18:7.474 19:1.289 20:2.3199999 #
-0.50000126421251644970311645010952 1:7.3660002 2:2.026 3:2.21 4:2.947 5:8.4709997 6:8.6560001 7:1.6569999 8:10.313 9:4.6040001 10:12.523 11:2.5780001 12:4.2360001 13:2.5780001 14:2.7620001 15:1.289 16:9.9449997 17:5.7090001 18:5.1570001 19:1.6569999 20:3.3150001 #
-0.50000126421251644970311645010952 1:9.132 2:1.142 3:1.598 4:3.425 5:6.849 6:11.644 7:1.142 8:12.329 9:5.0229998 10:13.014 11:3.6530001 12:2.5109999 13:3.425 14:1.37 15:1.826 16:6.164 17:5.4790001 18:5.2509999 19:1.598 20:3.425 #
-0.035375994712810693298976616461005 1:10.131 2:0.32699999 3:2.6140001 4:1.961 5:5.882 6:7.8429999 7:1.6339999 8:10.131 9:3.9219999 10:13.399 11:4.5749998 12:2.941 13:5.882 14:1.307 15:4.2480001 16:5.882 17:4.5749998 18:7.8429999 19:0.98000002 20:3.9219999 #
0.82971708112345510244267643429339 1:6.7750001 2:1.921 3:5.763 4:6.0669999 5:4.954 6:5.763 7:2.1229999 8:6.1680002 9:6.1680002 10:8.9989996 11:2.224 12:3.842 13:4.2470002 14:3.7409999 15:5.763 16:7.9879999 17:5.2579999 18:7.7859998 19:1.517 20:2.9319999 #
0.35617803821411608833358286574367 1:5.7140002 2:5.2379999 3:3.8099999 4:6.1900001 5:5.2379999 6:3.8099999 7:2.8570001 8:4.7620001 9:5.2379999 10:10.952 11:1.429 12:4.2859998 13:3.8099999 14:6.1900001 15:3.8099999 16:7.1430001 17:5.2379999 18:9.0480003 19:1.905 20:3.3329999 #
-0.50000126421251644970311645010952 1:7.2420001 2:2.855 3:4.6659999 4:7.1030002 5:3.4119999 6:5.0840001 7:2.6459999 8:5.223 9:3.552 10:13.579 11:2.507 12:3.76 13:4.3870001 14:5.2919998 15:4.9439998 16:6.9640002 17:5.0840001 18:6.4070001 19:1.462 20:3.8299999 #
-0.50000126421251644970311645010952 1:7.9959998 2:1.706 3:4.7969999 4:5.9699998 5:4.2639999 6:4.9039998 7:1.706 8:5.8639998 9:5.6500001 10:11.727 11:1.599 12:5.1170001 13:5.1170001 14:4.7969999 15:4.691 16:7.5689998 17:5.8639998 18:7.4629998 19:0.53299999 20:2.665 #
-0.50000126421251644970311645010952 1:6.3210001 2:0.903 3:4.6960001 4:5.599 5:5.9000001 6:4.6960001 7:1.7460001 8:9.151 9:6.0809999 10:11.138 11:1.7460001 12:5.7800002 13:2.95 14:3.552 15:4.5760002 16:8.5489998 17:4.8769999 18:6.3210001 19:1.626 20:3.793 #
1.2399104952363211307186929843738 1:11.875 2:3.75 3:1.875 4:1.25 5:5 6:13.75 7:0 8:10 9:1.875 10:13.75 11:1.875 12:1.25 13:3.125 14:3.75 15:2.5 16:6.25 17:3.75 18:10.625 19:0 20:3.75 #
1.8004802393319452313846795732388 1:9.3479996 2:2.391 3:2.826 4:5 5:8.0430002 6:9.3479996 7:2.826 8:6.3039999 9:3.9130001 10:13.478 11:2.609 12:4.5650001 13:4.5650001 14:3.4779999 15:1.739 16:6.5219998 17:5.4349999 18:5.217 19:0.435 20:1.957 #
1.6195949643703104747771703841863 1:8.1820002 2:2.727 3:0.90899998 4:1.818 5:4.5450001 6:10.909 7:0.90899998 8:13.636 9:0.90899998 10:14.545 11:3.6359999 12:1.818 13:4.5450001 14:1.818 15:2.727 16:7.2729998 17:6.3639998 18:4.5450001 19:3.6359999 20:4.5450001 #
-0.50000126421251644970311645010952 1:10.49 2:0.93199998 3:2.3310001 4:2.7969999 5:5.1279998 6:10.256 7:1.399 8:10.956 9:3.263 10:14.452 11:2.5639999 12:2.3310001 13:5.1279998 14:1.166 15:2.3310001 16:5.3610001 17:6.0609999 18:10.023 19:0.93199998 20:2.098 #
-0.50000126421251644970311645010952 1:11.437 2:0.58700001 3:2.9330001 4:0.88 5:3.812 6:10.264 7:0.29300001 8:9.9709997 9:2.053 10:15.543 11:3.5190001 12:3.2260001 13:4.3990002 14:3.2260001 15:4.1059999 16:4.9850001 17:6.158 18:10.557 19:1.76 20:0.29300001 #
-0.50000126421251644970311645010952 1:10.741 2:0.926 3:2.2219999 4:3.8889999 5:7.5929999 6:10 7:2.5929999 8:7.4070001 9:2.5929999 10:12.037 11:3.3329999 12:2.7780001 13:4.6300001 14:3.8889999 15:3.3329999 16:4.4439998 17:6.1110001 18:8.1479998 19:1.4809999 20:1.852 #
-0.50000126421251644970311645010952 1:10.781 2:0.46900001 3:6.875 4:5.7810001 5:2.0309999 6:7.0310001 7:1.719 8:4.6880002 9:2.6559999 10:11.094 11:1.719 12:3.125 13:4.2189999 14:4.6880002 15:10 16:6.25 17:5.1560001 18:9.6879997 19:0.93800002 20:1.094 #
1.3544196324053836555378893535817 1:6.5139999 2:1.943 3:4.5710001 4:7.6570001 5:3.543 6:7.5430002 7:1.829 8:6.0570002 9:5.5999999 10:11.429 11:2.971 12:4.2290001 13:5.0289998 14:2.971 15:5.257 16:7.3140001 17:5.9429998 18:6.4000001 19:0.68599999 20:2.5139999 #
2.3000058153775753133629677904537 1:5.0370002 2:1.3329999 3:7.4070001 4:5.9260001 5:5.3330002 6:4.1479998 7:1.1849999 8:6.9629998 9:6.5190001 10:12.741 11:2.6670001 12:5.0370002 13:3.852 14:3.1110001 15:4.4439998 16:6.2220001 17:5.1849999 18:6.3699999 19:1.3329999 20:5.1849999 #
-0.50000126421251644970311645010952 1:6.1799998 2:2.434 3:4.6820002 4:4.869 5:7.303 6:7.1160002 7:1.311 8:8.052 9:5.8049998 10:9.5509996 11:3.3710001 12:4.1199999 13:3.7449999 14:2.247 15:3.3710001 16:7.4910002 17:5.618 18:6.5539999 19:1.498 20:4.6820002 #
-0.50000126421251644970311645010952 1:6.2839999 2:1.192 3:4.9840002 4:5.7420001 5:5.8499999 6:6.0669999 7:1.408 8:8.342 9:7.0419998 10:11.484 11:2.7090001 12:4.4419999 13:3.9000001 14:2.925 15:2.7090001 16:9.2089996 17:6.2839999 18:5.7420001 19:1.3 20:2.3840001 #
-0.50000126421251644970311645010952 1:6.1459999 2:1.6670001 3:5.5209999 4:6.875 5:5.7290001 6:5 7:2.188 8:6.4580002 9:6.4580002 10:8.9580002 11:2.9170001 12:3.5420001 13:5 14:2.7079999 15:6.25 16:5.8330002 17:5 18:7.2919998 19:1.4579999 20:5 #
0.85824792384558057367627270650701 1:13.158 2:1.316 3:1.316 4:1.316 5:7.895 6:13.158 7:0 8:11.842 9:2.632 10:15.789 11:3.947 12:2.632 13:2.632 14:1.316 15:1.316 16:6.579 17:3.947 18:7.895 19:0 20:1.316 #
-0.50000126421251644970311645010952 1:15.088 2:0.35100001 3:1.7539999 4:2.105 5:4.9120002 6:8.0699997 7:0.70200002 8:4.9120002 9:2.105 10:11.93 11:6.6669998 12:1.7539999 13:4.211 14:4.5609999 15:5.263 16:4.5609999 17:6.6669998 18:11.579 19:1.053 20:1.7539999 #
-0.50000126421251644970311645010952 1:18.349001 2:0 3:1.835 4:1.835 5:7.3390002 6:10.092 7:0.917 8:7.3390002 9:4.5869999 10:17.431 11:2.7520001 12:1.835 13:0 14:2.7520001 15:3.6700001 16:4.5869999 17:0.917 18:8.257 19:4.5869999 20:0.917 #
-0.50000126421251644970311645010952 1:12.6 2:0.60000002 3:2.5999999 4:2.8 5:5.8000002 6:9 7:0.80000001 8:8.1999998 9:4 10:11.4 11:5.4000001 12:3.2 13:3.5999999 14:3 15:2.4000001 16:6.4000001 17:3.8 18:8.6000004 19:2 20:3.8 #
2.3000058153775753133629677904537 1:8.0570002 2:2.5280001 3:3.4760001 4:3.7909999 5:7.7410002 6:5.8449998 7:1.738 8:7.2670002 9:4.5809999 10:8.5310001 11:2.3699999 12:4.5809999 13:4.1069999 14:2.3699999 15:3.3180001 16:10.111 17:3.9489999 18:6.9510002 19:3.4760001 20:5.2129998 #
0.052321642097885368016818574687932 1:7.381 2:0.833 3:5.9520001 4:6.3099999 5:6.3099999 6:5.9520001 7:2.5 8:7.2620001 9:5.3569999 10:10.357 11:3.8099999 12:3.8099999 13:2.7379999 14:3.3329999 15:3.6900001 16:7.2620001 17:5.3569999 18:5.8330002 19:1.786 20:4.1669998 #
0.64565230267453221912887784128543 1:6.0560002 2:1.477 3:6.0560002 4:5.0219998 5:6.9419999 6:4.2839999 7:2.2160001 8:8.1239996 9:5.1700001 10:9.4530001 11:2.5109999 12:5.3179998 13:3.3970001 14:2.954 15:6.0560002 16:8.5670004 17:5.7610002 18:4.579 19:2.0680001 20:3.9879999 #
-0.50000126421251644970311645010952 1:6.836 2:1.758 3:4.4920001 4:4.4920001 5:7.2270002 6:6.0549998 7:1.9529999 8:7.2270002 9:3.9059999 10:9.1800003 11:3.9059999 12:4.8829999 13:3.3199999 14:2.9300001 15:4.8829999 16:8.7889996 17:4.1020002 18:7.8119998 19:3.125 20:3.125 #
-0.50000126421251644970311645010952 1:7.6700001 2:2.026 3:2.605 4:4.9200001 5:6.802 6:7.381 7:2.3150001 8:6.9460001 9:3.763 10:10.564 11:3.329 12:4.342 13:3.618 14:3.039 15:3.9070001 16:8.8280001 17:5.4990001 18:7.0910001 19:2.3150001 20:3.039 #
-0.50000126421251644970311645010952 1:7.9580002 2:1.952 3:3.7539999 4:4.204 5:5.8559999 6:7.0570002 7:1.952 8:5.2550001 9:2.553 10:11.411 11:3.4530001 12:3.904 13:4.204 14:5.105 15:5.4050002 16:7.9580002 17:6.006 18:6.4559999 19:1.652 20:3.904 #
1.0817357711343986714780385227641 1:17.568001 2:0.44999999 3:2.7030001 4:2.2520001 5:5.4050002 6:11.261 7:1.802 8:4.9549999 9:4.0539999 10:13.063 11:2.7030001 12:0.44999999 13:4.5050001 14:1.351 15:2.2520001 16:5.4050002 17:5.4050002 18:11.261 19:1.351 20:1.802 #
1.261529026834177669158520984638 1:12.384 2:2.477 3:3.7149999 4:3.096 5:3.7149999 6:9.2880001 7:0.61900002 8:5.263 9:4.954 10:12.693 11:1.858 12:2.786 13:4.954 14:6.8109999 15:5.573 16:5.263 17:4.954 18:6.8109999 19:0 20:2.786 #
0.5298614049053751440254700355581 1:4.5710001 2:0 3:5.4289999 4:7.4289999 5:5.4289999 6:5.7140002 7:1.429 8:14 9:7.7140002 10:12.571 11:1.714 12:4 13:3.1429999 14:0.28600001 15:4 16:3.1429999 17:6.5710001 18:8 19:0.57099998 20:4.2859998 #
-0.50000126421251644970311645010952 1:10.724 2:1.8099999 3:3.016 4:4.96 5:2.8150001 6:8.3109999 7:2.2119999 8:3.4849999 9:2.346 10:18.767 11:1.206 12:2.279 13:5.7639999 14:5.4289999 15:5.2280002 16:6.3670001 17:4.5580001 18:6.434 19:1.8099999 20:2.48 #
-0.50000126421251644970311645010952 1:11.579 2:1.579 3:5.526 4:3.158 5:2.632 6:9.7370005 7:2.895 8:3.947 9:2.368 10:9.474 11:2.105 12:1.316 13:6.053 14:3.421 15:8.684 16:6.842 17:7.368 18:7.895 19:2.105 20:1.316 #
-0.50000126421251644970311645010952 1:9.9820004 2:1.848 3:2.5880001 4:2.5880001 5:5.1760001 6:11.46 7:1.294 8:4.0669999 9:1.664 10:17.190001 11:1.479 12:1.848 13:6.2849998 14:3.142 15:4.8060002 16:9.427 17:4.9910002 18:6.4699998 19:1.479 20:2.2179999 #
-0.26446863804097880956689436970919 1:7.0339999 2:1.711 3:4.7529998 4:9.5059996 5:3.802 6:4.9429998 7:1.331 8:3.612 9:9.5059996 10:9.316 11:2.471 12:3.4219999 13:7.0339999 14:6.0840001 15:3.612 16:5.513 17:3.9920001 18:7.414 19:1.521 20:3.4219999 #
2.3000058153775753133629677904537 1:7.309 2:0.42199999 3:4.006 4:6.0440001 5:6.8870001 6:7.5900002 7:1.6160001 8:6.0440001 9:5.3410001 10:9.7679996 11:3.9349999 12:3.5139999 13:4.1459999 14:3.4430001 15:4.9190001 16:5.9029999 17:6.184 18:7.098 19:1.897 20:3.9349999 #
2.3000058153775753133629677904537 1:6.0219998 2:1.505 3:4.3010001 4:5.8060002 5:5.8060002 6:7.527 7:1.29 8:8.3870001 9:5.3759999 10:10.968 11:1.9349999 12:4.5159998 13:2.796 14:2.796 15:3.0109999 16:11.828 17:4.5159998 18:6.237 19:1.505 20:3.8710001 #
-0.50000126421251644970311645010952 1:6.5159998 2:1.705 3:4.0799999 4:6.2729998 5:6.395 6:4.6290002 7:2.01 8:7.6739998 9:7.125 10:11.389 11:2.9230001 12:3.471 13:3.8369999 14:3.5929999 15:2.984 16:8.4650002 17:4.75 18:7.2470002 19:1.34 20:3.5929999 #
-0.50000126421251644970311645010952 1:4.9429998 2:0.69 3:5.632 4:4.4829998 5:5.632 6:4.9429998 7:1.609 8:8.8509998 9:7.4710002 10:12.299 11:2.184 12:6.2069998 13:3.3329999 14:2.8740001 15:6.2069998 16:7.2410002 17:4.7129998 18:5.7470002 19:1.034 20:3.908 #
-0.50000126421251644970311645010952 1:7.4200001 2:2.1919999 3:4.3839998 4:4.2160001 5:7.0830002 6:4.2160001 7:1.686 8:6.5770001 9:6.5770001 10:9.1059999 11:1.855 12:4.7220001 13:4.2160001 14:1.855 15:4.553 16:7.9260001 17:5.3959999 18:5.7340002 19:3.8789999 20:6.408 #
1.6006636639218392303973814705387 1:12.883 2:0.61299998 3:5.5209999 4:3.0669999 5:2.1470001 6:9.5089998 7:0.92000002 8:6.7480001 9:3.3740001 10:7.6690001 11:0.92000002 12:4.6009998 13:8.2819996 14:2.1470001 15:5.2150002 16:7.362 17:8.2819996 18:8.5889997 19:0.61299998 20:1.534 #
1.7493831291303878483489597783773 1:9.1330004 2:2.108 3:2.576 4:3.9809999 5:3.0439999 6:7.494 7:3.279 8:3.513 9:4.684 10:17.096001 11:3.513 12:2.342 13:3.513 14:4.684 15:6.7919998 16:4.9180002 17:5.152 18:7.7280002 19:2.576 20:1.874 #
0.67179437759933779972243428346701 1:12.371 2:3.0929999 3:1.031 4:4.6389999 5:5.6700001 6:4.6389999 7:2.5769999 8:7.2160001 9:4.1240001 10:8.2469997 11:4.1240001 12:1.031 13:1.546 14:5.6700001 15:3.0929999 16:9.7939997 17:6.7010002 18:7.2160001 19:4.6389999 20:2.5769999 #
-0.50000126421251644970311645010952 1:11.215 2:2.4300001 3:3.3640001 4:2.6170001 5:5.2340002 6:11.776 7:1.495 8:5.7940001 9:3.178 10:9.1590004 11:3.5510001 12:2.4300001 13:4.2989998 14:2.4300001 15:4.2989998 16:6.355 17:5.6069999 18:9.533 19:2.8039999 20:2.4300001 #
-0.50000126421251644970311645010952 1:11.208 2:1.401 3:6.6550002 4:5.6040001 5:2.102 6:10.683 7:3.152 8:4.553 9:7.5310001 10:6.3049998 11:2.977 12:5.079 13:2.977 14:2.4519999 15:3.152 16:6.3049998 17:5.954 18:8.4060001 19:0.70099998 20:2.802 #
-0.50000126421251644970311645010952 1:12.162 2:0.676 3:4.73 4:3.378 5:3.378 6:12.162 7:1.351 8:5.4050002 9:8.7840004 10:8.7840004 11:2.027 12:3.378 13:2.027 14:0.676 15:2.027 16:8.1079998 17:7.4320002 18:8.1079998 19:1.351 20:4.0539999 #
0.71406250691894057602837619924685 1:4.9390001 2:1.09 3:4.618 4:6.0300002 5:4.875 6:4.6820002 7:1.026 8:8.9160004 9:6.158 10:11.931 11:2.5020001 12:5.5809999 13:3.6559999 14:2.8859999 15:4.618 16:9.3649998 17:5.1960001 18:6.7350001 19:1.283 20:3.9130001 #
0.49716200091429674223775236896472 1:4.448 2:2.0109999 3:5.138 4:5.7880001 5:6.2140002 6:3.9809999 7:2.0309999 8:7.5949998 9:6.2350001 10:12.449 11:1.523 12:5.849 13:4.224 14:3.493 15:3.3099999 16:9.7679996 17:5.1789999 18:5.869 19:0.995 20:3.8989999 #
2.3000058153775753133629677904537 1:7.908 2:0.255 3:5.3569999 4:7.1430001 5:5.3569999 6:3.316 7:1.786 8:7.1430001 9:8.6730003 10:10.204 11:1.02 12:6.1220002 13:4.0819998 14:3.316 15:3.0610001 16:8.1630001 17:5.612 18:7.1430001 19:0.76499999 20:3.5710001 #
-0.50000126421251644970311645010952 1:9.6890001 2:0 3:4.0219998 4:5.8499999 5:4.9359999 6:6.2160001 7:2.194 8:5.6669998 9:3.839 10:16.819 11:2.7420001 12:3.6559999 13:3.473 14:4.0219998 15:5.6669998 16:4.9359999 17:5.8499999 18:5.6669998 19:2.194 20:2.559 #
-0.50000126421251644970311645010952 1:5.882 2:2.2620001 3:3.1670001 4:1.8099999 5:5.882 6:7.2399998 7:0.90499997 8:4.5250001 9:2.2620001 10:17.646999 11:2.7149999 12:3.1670001 13:4.072 14:4.5250001 15:4.5250001 16:6.335 17:7.2399998 18:7.2399998 19:2.7149999 20:5.882 #
-0.50000126421251644970311645010952 1:5.1279998 2:1.056 3:8.2959995 4:6.6370001 5:5.2789998 6:4.223 7:1.961 8:7.6919999 9:7.8429999 10:9.5019999 11:1.357 12:4.6760001 13:5.4299998 14:3.6199999 15:3.4690001 16:7.3909998 17:6.4860001 18:5.5809999 19:1.207 20:3.1670001 #
1.4162119199626361787380801615654 1:10.69 2:1.724 3:6.552 4:4.8280001 5:2.7590001 6:13.103 7:2.414 8:5.1719999 9:6.2069998 10:8.276 11:2.414 12:3.448 13:3.793 14:2.069 15:3.1029999 16:5.5170002 17:5.862 18:5.862 19:3.448 20:2.7590001 #
1.859207644976094364608343312284 1:9.8039999 2:0.98000002 3:6.427 4:5.882 5:4.1389999 6:8.2790003 7:1.525 8:6.9720001 9:5.2290001 10:9.368 11:2.6140001 12:2.832 13:3.9219999 14:2.941 15:3.595 16:6.427 17:6.2090001 18:8.8240004 19:1.6339999 20:2.3970001 #
1.9625183399042294141167985799257 1:8.2130003 2:2.8989999 3:2.8989999 4:3.382 5:6.763 6:7.2459998 7:2.8989999 8:10.628 9:5.7969999 10:7.7290001 11:1.932 12:4.8309999 13:0.48300001 14:2.415 15:2.415 16:6.2800002 17:8.6960001 18:5.3140001 19:4.8309999 20:4.348 #
-0.50000126421251644970311645010952 1:7.3610001 2:2.6930001 3:3.052 4:5.3860002 5:5.7449999 6:8.2589998 7:1.077 8:8.4379997 9:3.5910001 10:6.822 11:2.6930001 12:4.4879999 13:3.95 14:2.8729999 15:4.4879999 16:9.1560001 17:6.822 18:6.6430001 19:1.975 20:4.4879999 #
-0.50000126421251644970311645010952 1:6.8559999 2:2.5079999 3:3.177 4:3.177 5:7.6919999 6:7.5250001 7:1.839 8:7.6919999 9:4.1810002 10:7.5250001 11:3.5120001 12:4.849 13:3.5120001 14:1.839 15:2.5079999 16:10.201 17:6.6890001 18:6.02 19:3.3440001 20:5.3509998 #
-0.50000126421251644970311645010952 1:7.5570002 2:1.582 3:3.8659999 4:5.448 5:7.9089999 6:8.0839996 7:1.406 8:7.2059999 9:4.3940001 10:9.3149996 11:2.6359999 12:4.7449999 13:2.6359999 14:3.1630001 15:4.2179999 16:8.0839996 17:7.0300002 18:5.448 19:1.757 20:3.5150001 #
1.4466907140850673307852503057802 1:6.7030001 2:1.505 3:3.694 4:4.9250002 5:6.1560001 6:5.4720001 7:1.915 8:6.0190001 9:3.4200001 10:16.278999 11:3.01 12:3.967 13:4.7880001 14:4.5139999 15:4.7880001 16:5.4720001 17:3.694 18:7.3870001 19:2.1889999 20:4.1040001 #
1.2868829833541512996930578083266 1:7.5560002 2:1.3329999 3:1.778 4:2.2219999 5:5.3330002 6:6.2220001 7:1.3329999 8:8.4440002 9:1.3329999 10:18.667 11:4 12:1.3329999 13:4.4439998 14:4.4439998 15:8 16:5.3330002 17:6.2220001 18:4.8889999 19:4.4439998 20:2.6670001 #
1.607156842463089319039681868162 1:5.802 2:1.069 3:4.5799999 4:6.7179999 5:6.1069999 6:6.1069999 7:2.29 8:5.6490002 9:4.2750001 10:9.7709999 11:1.832 12:3.5109999 13:4.8850002 14:9.9239998 15:5.0380001 16:7.3280001 17:5.191 18:6.5650001 19:0.76300001 20:2.595 #
-0.50000126421251644970311645010952 1:11.018 2:0.167 3:5.5089998 4:5.1750002 5:4.6739998 6:6.678 7:2.5039999 8:5.5089998 9:3.6730001 10:10.017 11:3.6730001 12:3.339 13:2.5039999 14:4.007 15:6.678 16:5.8429999 17:6.3439999 18:10.017 19:1.002 20:1.669 #
-0.50000126421251644970311645010952 1:8.5270004 2:1.55 3:2.7130001 4:5.8140001 5:8.5270004 6:4.2639999 7:1.163 8:7.3639998 9:3.1010001 10:12.791 11:3.4879999 12:1.938 13:6.2020001 14:2.326 15:3.4879999 16:6.5890002 17:4.651 18:10.853 19:0.77499998 20:3.8759999 #
-0.50000126421251644970311645010952 1:8.5129995 2:1.637 3:4.257 4:4.6500001 5:4.8460002 6:6.4180002 7:2.03 8:5.8280001 9:3.7980001 10:13.36 11:2.358 12:3.2739999 13:4.5190001 14:4.322 15:4.8460002 16:7.5970001 17:4.8460002 18:8.1859999 19:1.899 20:2.816 #
0.098887650218932698908957945604925 1:8.6689997 2:1.858 3:4.6440001 4:4.0250001 5:5.263 6:5.882 7:2.477 8:6.8109999 9:4.6440001 10:7.4299998 11:2.477 12:4.3340001 13:3.096 14:2.1670001 15:6.5019999 16:11.765 17:7.4299998 18:4.954 19:0.92900002 20:4.6440001 #
1.5885411197963723584081208173302 1:7.9229999 2:2.4590001 3:3.0050001 4:4.3720002 5:4.645 6:5.7379999 7:1.0930001 8:7.1040001 9:6.2839999 10:9.0159998 11:4.3720002 12:5.191 13:3.825 14:2.7320001 15:5.191 16:10.929 17:6.5570002 18:4.9180002 19:2.4590001 20:2.1860001 #
1.829984772966507522440338107117 1:5.6160002 2:1.63 3:5.7969999 4:6.3410001 5:5.072 6:6.8839998 7:1.812 8:9.6009998 9:4.1669998 10:7.428 11:2.355 12:4.348 13:3.4419999 14:3.0799999 15:5.4349999 16:6.1589999 17:6.5219998 18:7.9710002 19:2.8989999 20:3.4419999 #
-0.50000126421251644970311645010952 1:4.4250002 2:2.655 3:4.4250002 4:8.8500004 5:7.0799999 6:7.0799999 7:1.77 8:2.655 9:5.3099999 10:9.7349997 11:3.54 12:5.3099999 13:3.54 14:1.77 15:4.4250002 16:11.504 17:2.655 18:8.8500004 19:2.655 20:1.77 #
-0.50000126421251644970311645010952 1:3.796 2:1.168 3:6.8610001 4:5.401 5:5.1090002 6:6.131 7:2.7739999 8:6.277 9:4.9640002 10:8.7589998 11:3.066 12:6.5689998 13:4.0879998 14:3.9419999 15:4.8179998 16:7.737 17:6.5689998 18:5.2550001 19:2.1900001 20:4.526 #
-0.50000126421251644970311645010952 1:4.2449999 2:3.302 3:3.302 4:4.717 5:8.9619999 6:5.4250002 7:1.179 8:10.849 9:6.368 10:10.849 11:2.8299999 12:7.5469999 13:1.651 14:2.358 15:4.0089998 16:6.8400002 17:4.9530001 18:5.8959999 19:0.472 20:4.2449999 #
2.3000058153775753133629677904537 1:9.2250004 2:2.7679999 3:2.3989999 4:4.059 5:6.4580002 6:7.1960001 7:0.92299998 8:7.3800001 9:4.9819999 10:12.731 11:1.661 12:3.506 13:3.6900001 14:2.5829999 15:4.7969999 16:7.5650001 17:6.6420002 18:6.6420002 19:1.107 20:3.6900001 #
1.6407690617821641954066080870689 1:6.9710002 2:0.84100002 3:4.2069998 4:5.5289998 5:5.8889999 6:6.3699999 7:2.6440001 8:5.4089999 9:4.6880002 10:12.861 11:1.803 12:2.7639999 13:4.2069998 14:3.125 15:5.2880001 16:8.4130001 17:5.0479999 18:9.8559999 19:1.322 20:2.7639999 #
2.3000058153775753133629677904537 1:7.7459998 2:1.937 3:3.1689999 4:4.2249999 5:6.5139999 6:8.2749996 7:1.761 8:6.6900001 9:2.8169999 10:12.5 11:2.8169999 12:3.697 13:3.8729999 14:3.5209999 15:3.1689999 16:7.7459998 17:4.401 18:10.035 19:1.408 20:3.697 #
-0.50000126421251644970311645010952 1:8.2720003 2:1.034 3:2.954 4:4.4310002 5:5.3179998 6:6.3520002 7:2.5109999 8:8.5670004 9:5.4650002 10:12.851 11:2.954 12:4.1360002 13:3.6930001 14:2.954 15:3.9879999 16:9.158 17:4.7270002 18:7.3860002 19:1.034 20:2.2160001 #
-0.50000126421251644970311645010952 1:10.959 2:2.283 3:2.5880001 4:4.566 5:6.849 6:6.849 7:0.60900003 8:5.4790001 9:3.5009999 10:13.242 11:3.0439999 12:2.74 13:4.1100001 14:2.74 15:3.6530001 16:7.6100001 17:5.9359999 18:7.915 19:1.522 20:3.8050001 #
-0.50000126421251644970311645010952 1:6.2659998 2:1.253 3:4.2880001 4:5.079 5:5.277 6:6.1350002 7:2.1110001 8:6.5960002 9:4.4850001 10:12.137 11:2.375 12:3.2320001 13:3.694 14:3.2320001 15:4.947 16:9.8940001 17:6.0029998 18:8.5089998 19:2.0450001 20:2.441 #
2.136849077562245735606438756804 1:4.211 2:0.72899997 3:7.4489999 4:5.1009998 5:4.4530001 6:5.6680002 7:3.158 8:6.073 9:6.8829999 10:8.0159998 11:2.267 12:6.7210002 13:4.0489998 14:3.3199999 15:6.3969998 16:10.04 17:6.2350001 18:4.3720002 19:1.296 20:3.563 #
0.84908940427088064328842165195965 1:6.5040002 2:0 3:4.0650001 4:8.1300001 5:5.691 6:2.4389999 7:2.4389999 8:8.9429998 9:5.691 10:6.5040002 11:4.8779998 12:5.691 13:1.626 14:5.691 15:4.0650001 16:7.3169999 17:6.5040002 18:6.5040002 19:1.626 20:5.691 #
1.3894867372447972098115087646875 1:8.8500004 2:0.442 3:6.6370001 4:9.2919998 5:2.2119999 6:3.54 7:0.442 8:7.0799999 9:10.619 10:10.619 11:4.4250002 12:3.9820001 13:2.2119999 14:8.8500004 15:6.1950002 16:2.2119999 17:2.655 18:6.6370001 19:0 20:3.0969999 #
-0.50000126421251644970311645010952 1:14.479 2:0.193 3:3.668 4:2.3169999 5:3.8610001 6:11.004 7:2.51 8:7.1430001 9:0.579 10:14.672 11:3.089 12:1.737 13:4.6329999 14:3.089 15:5.2119999 16:4.4400001 17:3.8610001 18:9.2659998 19:2.1240001 20:2.1240001 #
-0.50000126421251644970311645010952 1:8.7180004 2:1.026 3:3.5899999 4:2.5639999 5:5.1279998 6:8.2049999 7:3.5899999 8:11.795 9:2.5639999 10:13.333 11:1.538 12:3.0769999 13:4.6149998 14:1.026 15:0.51300001 16:5.1279998 17:6.6669998 18:7.1789999 19:5.6409998 20:4.1030002 #
-0.50000126421251644970311645010952 1:9.0319996 2:2.5810001 3:5.1609998 4:8.3870001 5:5.8060002 6:5.8060002 7:1.9349999 8:5.1609998 9:1.9349999 10:7.7420001 11:3.2260001 12:4.5159998 13:4.5159998 14:9.0319996 15:2.5810001 16:5.1609998 17:7.0970001 18:6.4520001 19:0.64499998 20:3.2260001 #
1.7024621140182290002229592573713 1:6.283 2:0.87300003 3:3.7520001 4:6.1950002 5:4.4499998 6:6.632 7:2.1819999 8:6.632 9:6.0209999 10:13.176 11:2.1819999 12:3.2290001 13:3.5780001 14:3.316 15:4.0139999 16:10.384 17:5.1479998 18:7.5040002 19:1.483 20:2.967 #
-0.2484334796697049152491842960444 1:10.377 2:0.94300002 3:1.415 4:1.887 5:8.9619999 6:8.4910002 7:0.472 8:8.0190001 9:6.132 10:14.151 11:1.887 12:3.7739999 13:2.8299999 14:1.887 15:1.887 16:6.6040001 17:5.6599998 18:8.0190001 19:0.94300002 20:5.6599998 #
2.3000058153775753133629677904537 1:9.5860004 2:2.0680001 3:2.444 4:3.3829999 5:5.263 6:7.3309999 7:1.692 8:8.835 9:4.1350002 10:14.474 11:2.444 12:4.323 13:3.7590001 14:2.444 15:3.1949999 16:9.2110004 17:3.5710001 18:7.895 19:1.316 20:2.632 #
-0.50000126421251644970311645010952 1:8.526 2:2.131 3:3.197 4:3.73 5:5.8610001 6:6.75 7:1.776 8:7.638 9:5.329 10:11.368 11:1.776 12:4.4400001 13:2.664 14:2.309 15:4.618 16:10.124 17:6.927 18:6.75 19:1.421 20:2.664 #
-0.50000126421251644970311645010952 1:4.908 2:2.454 3:3.3740001 4:5.0609999 5:5.368 6:7.5149999 7:1.84 8:6.7480001 9:3.3740001 10:12.883 11:3.221 12:4.1409998 13:3.9879999 14:4.448 15:5.8280001 16:7.2090001 17:5.5209999 18:7.5149999 19:0.76700002 20:3.8340001 #
-0.50000126421251644970311645010952 1:5.5170002 2:1.3789999 3:5.1030002 4:4.552 5:5.5170002 6:7.0339999 7:1.2410001 8:6.3449998 9:4.414 10:12.138 11:2.069 12:3.448 13:3.724 14:2.8970001 15:6.0689998 16:10.483 17:5.7930002 18:7.862 19:1.2410001 20:3.1719999 #
0.56175449226215135034578906925162 1:9.7629995 2:1.479 3:3.2539999 4:3.846 5:3.55 6:8.5799999 7:2.9590001 8:4.1420002 9:2.9590001 10:8.2840004 11:5.6209998 12:5.6209998 13:3.55 14:5.0300002 15:6.5089998 16:7.3959999 17:6.5089998 18:5.0300002 19:0.88800001 20:5.0300002 #
0.39477107666720590017916947545018 1:9.2390003 2:1.624 3:4.2639999 4:5.178 5:3.2490001 6:10.457 7:2.6400001 8:4.6700001 9:3.553 10:8.2229996 11:2.234 12:4.6700001 13:4.2639999 14:8.6289997 15:4.7719998 16:7.3099999 17:5.6849999 18:5.9899998 19:0.81199998 20:2.5380001 #
0.9571333848131954313842584269878 1:16.455999 2:0 3:3.7969999 4:2.5320001 5:5.0630002 6:12.658 7:0 8:10.127 9:1.266 10:15.19 11:10.127 12:2.5320001 13:3.7969999 14:2.5320001 15:2.5320001 16:0 17:1.266 18:7.5949998 19:0 20:2.5320001 #
-0.50000126421251644970311645010952 1:11.795 2:1.026 3:0.51300001 4:6.1539998 5:3.0769999 6:10.769 7:0.51300001 8:6.1539998 9:4.6149998 10:8.2049999 11:2.0510001 12:2.0510001 13:10.256 14:4.1030002 15:5.6409998 16:3.5899999 17:5.6409998 18:7.6919999 19:2.5639999 20:3.5899999 #
-0.50000126421251644970311645010952 1:10.722 2:1.8559999 3:2.6800001 4:2.474 5:7.4229999 6:7.4229999 7:3.299 8:6.598 9:3.711 10:10.103 11:2.474 12:4.1240001 13:3.5050001 14:2.6800001 15:2.474 16:6.598 17:5.9790001 18:7.6290002 19:3.5050001 20:4.7420001 #
-0.50000126421251644970311645010952 1:16.4 2:0.80000001 3:2.8 4:1.6 5:6.8000002 6:14.4 7:2 8:7.1999998 9:1.6 10:10 11:1.6 12:2 13:4 14:0.80000001 15:0.80000001 16:7.5999999 17:5.1999998 18:10 19:1.2 20:3.2 #
2.3000058153775753133629677904537 1:2.767 2:1.779 3:3.7550001 4:4.1500001 5:8.4980001 6:6.1259999 7:1.383 8:7.7080002 9:5.336 10:12.846 11:2.569 12:3.9530001 13:2.767 14:1.976 15:4.1500001 16:9.8809996 17:7.1149998 18:8.1029997 19:0.98799998 20:4.1500001 #
-0.50000126421251644970311645010952 1:5.2750001 2:1.29 3:5.158 4:6.5650001 5:4.2199998 6:4.1030002 7:1.876 8:6.9169998 9:7.855 10:13.365 11:1.641 12:6.6820002 13:3.165 14:3.6340001 15:5.6269999 16:9.4960003 17:5.5100002 18:3.9860001 19:0.82099998 20:2.8139999 #
-0.50000126421251644970311645010952 1:5.9039998 2:1.107 3:5.4429998 4:7.3800001 5:4.8889999 6:3.1370001 7:1.845 8:7.3800001 9:6.6420002 10:11.9 11:2.7679999 12:5.1659999 13:3.2290001 14:5.8119998 15:3.506 16:6.6420002 17:5.6269999 18:7.4720001 19:1.107 20:3.0439999 #
-0.50000126421251644970311645010952 1:7.1350002 2:1.381 3:5.178 4:8.6309996 5:3.4519999 6:3.7969999 7:2.4170001 8:5.5240002 9:7.25 10:11.277 11:1.4960001 12:4.6030002 13:3.9130001 14:3.9130001 15:4.7179999 16:10.932 17:3.2219999 18:8.1700001 19:0.69 20:2.3010001 #
2.0767630695848726674057616037317 1:6.6669998 2:4.2030001 3:3.6229999 4:3.4779999 5:5.507 6:5.9419999 7:0.87 8:8.2609997 9:5.507 10:12.029 11:1.8839999 12:3.9130001 13:5.362 14:3.4779999 15:3.043 16:7.2459998 17:7.5359998 18:7.9710002 19:2.029 20:1.449 #
0.96882994878408335015507191201323 1:5.8179998 2:3.273 3:4.7270002 4:2.5450001 5:8 6:10.182 7:0.727 8:4.7270002 9:1.818 10:13.818 11:2.9089999 12:5.8179998 13:3.6359999 14:2.1819999 15:2.5450001 16:9.0909996 17:7.6360002 18:4.7270002 19:1.818 20:4 #
-0.50000126421251644970311645010952 1:4.7420001 2:2.062 3:3.5050001 4:3.918 5:6.8039999 6:6.1859999 7:1.443 8:8.2469997 9:5.1550002 10:13.608 11:3.711 12:4.3299999 13:2.6800001 14:2.474 15:2.062 16:9.2779999 17:7.2160001 18:8.4540005 19:0.61900002 20:3.5050001 #
-0.50000126421251644970311645010952 1:6.4450002 2:2.2869999 3:2.911 4:2.2869999 5:4.3660002 6:6.6529999 7:2.079 8:8.1079998 9:3.7420001 10:14.969 11:3.119 12:3.326 13:5.198 14:3.326 15:2.911 16:9.1479998 17:6.0289998 18:9.3559999 19:1.04 20:2.7030001 #
-0.50000126421251644970311645010952 1:7.54 2:1.3890001 3:2.579 4:3.5710001 5:6.7459998 6:6.349 7:2.1830001 8:7.3410001 9:4.1669998 10:14.087 11:3.3729999 12:4.1669998 13:3.5710001 14:1.587 15:2.579 16:9.1269999 17:5.7540002 18:8.7299995 19:0.59500003 20:4.5630002 #
1.5244244412215710582358951796778 1:6.322 2:0 3:7.4710002 4:7.4710002 5:2.8740001 6:2.299 7:1.149 8:5.1719999 9:12.644 10:9.1949997 11:2.299 12:4.0229998 13:2.8740001 14:5.1719999 15:4.0229998 16:10.345 17:5.7470002 18:7.4710002 19:1.149 20:2.299 #
2.0885668892770867799413281318266 1:7.0250001 2:0.82599998 3:6.8179998 4:7.645 5:2.273 6:4.9590001 7:3.306 8:3.9260001 9:4.9590001 10:8.8839998 11:1.653 12:2.8929999 13:7.0250001 14:6.4050002 15:7.4380002 16:11.157 17:2.4790001 18:6.198 19:1.24 20:2.8929999 #
1.3033403757593506888667889143107 1:9.375 2:1.0420001 3:4.1669998 4:11.458 5:5.2080002 6:3.125 7:1.0420001 8:3.125 9:11.458 10:11.458 11:2.0829999 12:7.2919998 13:4.1669998 14:2.0829999 15:3.125 16:5.2080002 17:3.125 18:8.3330002 19:0 20:3.125 #
-0.50000126421251644970311645010952 1:7.1539998 2:2.4879999 3:5.132 4:5.132 5:5.2880001 6:8.3979998 7:1.8660001 8:4.6659999 9:4.8210001 10:11.82 11:1.8660001 12:3.266 13:4.8210001 14:3.5769999 15:6.9980001 16:5.4429998 17:4.9770002 18:7.1539998 19:1.244 20:3.888 #
-0.50000126421251644970311645010952 1:6.6669998 2:1.026 3:5.1279998 4:7.4359999 5:3.5899999 6:5.3850002 7:2.0510001 8:5.1279998 9:6.6669998 10:7.4359999 11:2.0510001 12:2.3080001 13:7.9489999 14:5.3850002 15:8.2049999 16:7.4359999 17:5.3850002 18:5.3850002 19:1.795 20:3.5899999 #
-0.50000126421251644970311645010952 1:5.8990002 2:2.5280001 3:3.9330001 4:6.461 5:5.0560002 6:7.0219998 7:3.3710001 8:4.2129998 9:5.8990002 10:9.5509996 11:2.809 12:3.0899999 13:5.3369999 14:5.618 15:4.7750001 16:7.5840001 17:5.0560002 18:6.7420001 19:1.6849999 20:3.3710001 #
0.84528550700944371509848451751168 1:7.434 2:0.71899998 3:5.7550001 4:3.118 5:6.954 6:5.7550001 7:2.638 8:9.592 9:4.796 10:13.909 11:2.638 12:5.7550001 13:2.158 14:1.918 15:2.878 16:9.592 17:5.5159998 18:5.9949999 19:0.95899999 20:1.918 #
0.15237017847787770463696688238997 1:8.3900003 2:2.0409999 3:2.948 4:5.8959999 5:6.1220002 6:6.5760002 7:1.814 8:8.1630001 9:3.628 10:13.379 11:3.855 12:4.0819998 13:3.401 14:4.0819998 15:0.90700001 16:9.0699997 17:4.3080001 18:7.4829998 19:1.3609999 20:2.494 #
-0.50000126421251644970311645010952 1:9.04 2:0.75300002 3:3.3900001 4:4.1430001 5:7.9099998 6:6.026 7:0.565 8:9.7930002 9:4.52 10:12.053 11:2.26 12:4.7080002 13:4.1430001 14:3.766 15:2.825 16:7.533 17:6.026 18:6.026 19:2.072 20:2.448 #
-0.50000126421251644970311645010952 1:9.1520004 2:2.2320001 3:1.786 4:2.902 5:4.6880002 6:5.5799999 7:2.2320001 8:11.607 9:3.125 10:13.616 11:3.125 12:3.348 13:4.6880002 14:2.6789999 15:3.5710001 16:8.9289999 17:4.9109998 18:7.8119998 19:0.67000002 20:3.348 #
-0.50000126421251644970311645010952 1:7.4180002 2:1.78 3:2.3740001 4:2.671 5:7.4180002 6:8.6049995 7:0.59299999 8:9.1990004 9:5.3410001 10:15.43 11:2.3740001 12:4.4510002 13:4.1539998 14:2.671 15:1.484 16:7.4180002 17:5.638 18:6.2309999 19:0.29699999 20:4.4510002 #
-0.23115535707473366944242343379301 1:7.118 2:2.257 3:3.6459999 4:4.8610001 5:7.2919998 6:9.2010002 7:0.86799997 8:7.4650002 9:5.0349998 10:6.7709999 11:3.4719999 12:3.819 13:3.819 14:2.431 15:3.125 16:6.9439998 17:6.25 18:8.8540001 19:2.257 20:4.5139999 #
1.9072799238968722868037275475217 1:7.3909998 2:0.21699999 3:5.8699999 4:8.4779997 5:3.043 6:9.783 7:1.522 8:5.8699999 9:4.348 10:9.1300001 11:3.2609999 12:2.391 13:4.348 14:4.348 15:5.652 16:5.4349999 17:5.217 18:10.217 19:0.21699999 20:3.2609999 #
-0.50000126421251644970311645010952 1:6.4310002 2:0.88300002 3:5.296 4:5.5489998 5:5.4219999 6:6.5570002 7:1.892 8:6.6830001 9:5.6750002 10:10.719 11:2.9000001 12:2.7739999 13:4.414 14:3.405 15:5.6750002 16:9.9619999 17:5.927 18:6.6830001 19:1.261 20:1.892 #
-0.50000126421251644970311645010952 1:8.0209999 2:2.4059999 3:4.8130002 4:8.2889996 5:2.674 6:6.4169998 7:2.1389999 8:9.0909996 9:7.2189999 10:8.8240004 11:5.348 12:4.2779999 13:3.2090001 14:1.604 15:5.348 16:6.684 17:6.4169998 18:4.2779999 19:1.337 20:1.604 #
-0.50000126421251644970311645010952 1:7.132 2:0.759 3:4.0970001 4:5.0079999 5:5.9180002 6:6.98 7:1.3660001 8:5.7659998 9:4.8559999 10:10.015 11:3.642 12:3.0350001 13:6.5250001 14:1.973 15:4.704 16:8.4980001 17:7.132 18:7.2839999 19:1.973 20:3.3380001 #
1.212592331001388856748235411942 1:8.5760002 2:4.1350002 3:2.757 4:3.5220001 5:5.8189998 6:5.513 7:1.531 8:7.8099999 9:5.2069998 10:12.864 11:3.063 12:3.5220001 13:3.5220001 14:2.6029999 15:4.2880001 16:6.7379999 17:4.7470002 18:8.1160002 19:1.9910001 20:3.675 #
-0.50000126421251644970311645010952 1:3.7360001 2:1.099 3:2.6370001 4:3.9560001 5:9.6700001 6:5.0549998 7:1.538 8:10.33 9:4.835 10:12.308 11:4.6149998 12:2.6370001 13:2.198 14:3.7360001 15:4.3959999 16:8.5710001 17:5.4949999 18:7.033 19:1.758 20:4.3959999 #
-0.50000126421251644970311645010952 1:7.2059999 2:2.812 3:2.9879999 4:4.0419998 5:6.151 6:8.0839996 7:1.23 8:5.0970001 9:4.3940001 10:15.466 11:3.5150001 12:3.339 13:4.2179999 14:4.3940001 15:3.339 16:7.381 17:5.0970001 18:6.8540001 19:1.757 20:2.6359999 #
-0.50000126421251644970311645010952 1:8.0310001 2:3.4649999 3:3.4649999 4:3.3069999 5:6.6139998 6:9.4490004 7:1.102 8:5.3540001 9:3.1500001 10:11.496 11:2.9920001 12:2.9920001 13:5.197 14:2.0469999 15:2.9920001 16:5.3540001 17:4.724 18:9.4490004 19:3.78 20:5.039 #
2.2838818097770454684791729960125 1:4.79 2:1.597 3:4.9899998 4:5.5890002 5:5.7880001 6:6.1880002 7:1.597 8:4.9899998 9:6.3870001 10:10.379 11:3.9920001 12:2.994 13:5.1900001 14:4.9899998 15:4.9899998 16:8.7819996 17:6.7859998 18:5.9879999 19:1.198 20:2.7939999 #
1.4620021729736785154329936631257 1:7.7589998 2:1.552 3:3.6210001 4:4.138 5:3.276 6:8.1029997 7:2.586 8:7.2410002 9:5.5170002 10:10 11:3.448 12:4.4829998 13:2.7590001 14:3.1029999 15:6.0339999 16:9.8280001 17:6.552 18:5.6900001 19:1.207 20:3.1029999 #
1.2756217240615939090275787748396 1:8.4759998 2:1.931 3:4.3990002 4:4.8280001 5:3.8629999 6:7.5110002 7:1.717 8:5.2579999 9:6.1160002 10:10.086 11:1.502 12:2.1459999 13:4.6139998 14:4.7210002 15:6.8670001 16:10.622 17:6.1160002 18:5.7940001 19:1.395 20:2.039 #
-0.50000126421251644970311645010952 1:8.5539999 2:1.5140001 3:4.9959998 4:5.829 5:5.829 6:7.6459999 7:1.211 8:7.9489999 9:4.9959998 10:8.4779997 11:2.7249999 12:3.5580001 13:2.8770001 14:4.921 15:5.223 16:7.3429999 17:5.6020002 18:6.8889999 19:0.98400003 20:2.8770001 #
-0.50000126421251644970311645010952 1:6.5450001 2:2.3559999 3:4.4499998 4:4.974 5:5.4970002 6:6.0209999 7:2.0940001 8:5.4970002 9:7.0679998 10:8.6389999 11:1.832 12:3.927 13:5.4970002 14:4.4499998 15:4.7119999 16:9.6859999 17:3.665 18:7.3299999 19:1.571 20:4.1880002 #
-0.50000126421251644970311645010952 1:10.964 2:1.089 3:4.4320002 4:5.3649998 5:4.355 6:7.0760002 7:1.8660001 8:6.454 9:5.132 10:9.8760004 11:2.4879999 12:3.3440001 13:3.1099999 14:3.888 15:5.21 16:8.7869997 17:4.5879998 18:7.8540001 19:1.166 20:2.9549999 #
0.89210277244551472453082396896207 1:5.263 2:0.95700002 3:4.7849998 4:3.349 5:10.526 6:3.349 7:0 8:14.354 9:6.6989999 10:14.354 11:1.4349999 12:4.7849998 13:1.914 14:1.914 15:2.8710001 16:5.7420001 17:5.7420001 18:6.2199998 19:0.47799999 20:5.263 #
0.89176039163410703025647308095358 1:10.7 2:2.1140001 3:4.756 4:4.6240001 5:4.6240001 6:11.361 7:2.378 8:4.756 9:2.9059999 10:8.0579996 11:1.849 12:2.51 13:12.814 14:2.378 15:5.2839999 16:4.888 17:4.6240001 18:5.02 19:1.585 20:2.7739999 #
-0.50000126421251644970311645010952 1:7.3080001 2:2.0510001 3:3.846 4:4.8720002 5:4.3590002 6:8.8459997 7:2.3080001 8:6.026 9:4.6149998 10:13.974 11:2.5639999 12:5.1279998 13:4.2309999 14:1.795 15:3.846 16:4.8720002 17:6.4099998 18:8.5900002 19:1.538 20:2.8210001 #
-0.50000126421251644970311645010952 1:7.9840002 2:1.597 3:1.796 4:5.3889999 5:6.1880002 6:7.7839999 7:0.59899998 8:7.7839999 9:3.194 10:14.172 11:2.595 12:2.994 13:4.9899998 14:4.3909998 15:3.3929999 16:6.5869999 17:4.5910001 18:9.3809996 19:1.198 20:3.3929999 #
-0.50000126421251644970311645010952 1:9.0909996 2:0 3:0.82599998 4:4.9590001 5:4.9590001 6:9.9169998 7:0.82599998 8:11.57 9:5.7849998 10:16.528999 11:4.132 12:1.653 13:0.82599998 14:0 15:1.653 16:8.2639999 17:5.7849998 18:7.4380002 19:2.4790001 20:3.306 #
1.1238441731359509745402647240553 1:9.1470003 2:1.98 3:4.164 4:5.461 5:2.457 6:7.2350001 7:2.457 8:7.2350001 9:5.0510001 10:9.0100002 11:3.003 12:3.345 13:4.915 14:4.71 15:3.618 16:8.6009998 17:5.5970001 18:9.625 19:0.75099999 20:1.638 #
0.74295295099758973389469929315965 1:6.8400002 2:1.887 3:3.066 4:6.368 5:4.4809999 6:4.4809999 7:2.1229999 8:9.434 9:4.717 10:8.4910002 11:3.5380001 12:5.1890001 13:3.302 14:3.5380001 15:7.5469999 16:7.783 17:6.132 18:8.2550001 19:1.179 20:1.651 #
0.81426785634403975322470614628401 1:11.306 2:0.77999997 3:5.4580002 4:6.0430002 5:2.7290001 6:9.3570004 7:1.365 8:7.7969999 9:4.678 10:8.967 11:1.949 12:3.119 13:3.5090001 14:5.4580002 15:5.6529999 16:6.2379999 17:4.4829998 18:7.7969999 19:0.19499999 20:3.119 #
-0.50000126421251644970311645010952 1:4.5539999 2:2.7720001 3:3.96 4:5.5450001 5:3.96 6:6.1389999 7:4.5539999 8:6.1389999 9:4.158 10:8.9110003 11:2.97 12:3.168 13:5.5450001 14:5.941 15:6.5349998 16:12.079 17:3.7620001 18:5.1490002 19:1.7819999 20:2.3759999 #
-0.50000126421251644970311645010952 1:10.683 2:1.762 3:6.0570002 4:6.2779999 5:3.5239999 6:8.2600002 7:2.8629999 8:4.9559999 9:3.414 10:7.599 11:2.4230001 12:4.1849999 13:4.5149999 14:4.8460002 15:6.9380002 16:5.2859998 17:4.7360001 18:7.1589999 19:1.322 20:3.194 #
-0.50000126421251644970311645010952 1:7.5219998 2:1.0319999 3:6.0469999 4:8.8500004 5:4.4250002 6:6.6370001 7:3.0969999 8:3.9820001 9:5.605 10:8.7019997 11:2.802 12:3.392 13:4.4250002 14:3.54 15:5.3099999 16:6.342 17:5.1620002 18:7.0799999 19:1.327 20:4.7199998 #
2.3000058153775753133629677904537 1:6.8470001 2:2.342 3:3.063 4:4.5050001 5:5.586 6:7.5679998 7:1.441 8:7.5679998 9:3.243 10:12.793 11:3.4230001 12:3.7839999 13:5.586 14:2.8829999 15:5.586 16:5.586 17:5.0450001 18:6.6669998 19:2.523 20:3.964 #
1.6101357127279012360077103949152 1:7.2420001 2:1.671 3:2.786 4:4.178 5:6.6849999 6:9.1920004 7:2.2279999 8:8.3570004 9:4.4569998 10:13.092 11:2.507 12:4.4569998 13:3.3429999 14:1.393 15:2.786 16:8.3570004 17:4.7350001 18:8.3570004 19:1.393 20:2.786 #
-0.50000126421251644970311645010952 1:7.5640001 2:1.538 3:4.3590002 4:5.1279998 5:5.1279998 6:6.4099998 7:0.76899999 8:9.2309999 9:5.1279998 10:11.154 11:1.538 12:3.5899999 13:4.1030002 14:3.974 15:3.846 16:7.3080001 17:5.6409998 18:9.7440004 19:0.76899999 20:3.0769999 #
-0.50000126421251644970311645010952 1:7.1960001 2:1.845 3:2.03 4:4.428 5:5.9039998 6:7.934 7:1.661 8:6.4580002 9:3.6900001 10:13.653 11:2.7679999 12:3.3210001 13:6.4580002 14:3.1370001 15:4.6129999 16:7.934 17:6.0890002 18:6.0890002 19:2.214 20:2.5829999 #
-0.50000126421251644970311645010952 1:10.87 2:3.2609999 3:2.174 4:3.2609999 5:7.8260002 6:5.652 7:1.522 8:6.3039999 9:3.4779999 10:13.043 11:2.826 12:3.6960001 13:5 14:2.826 15:3.4779999 16:8.2609997 17:5.4349999 18:7.6090002 19:1.522 20:1.957 #
0.74970739133397412690129613110912 1:15.254 2:1.13 3:5.085 4:9.6049995 5:3.3900001 6:4.52 7:1.13 8:5.6500001 9:4.52 10:10.169 11:3.9549999 12:3.3900001 13:1.6950001 14:5.085 15:6.2150002 16:6.7800002 17:2.26 18:9.04 19:0.565 20:0.565 #
-0.50000126421251644970311645010952 1:4.0510001 2:2.2780001 3:4.8099999 4:3.2909999 5:7.0890002 6:7.0890002 7:2.5320001 8:9.3669996 9:4.0510001 10:8.6079998 11:4.0510001 12:4.5570002 13:4.0510001 14:3.2909999 15:5.5700002 16:5.823 17:6.329 18:6.835 19:1.5190001 20:4.8099999 #
0.73628131360671145166918449831428 1:6.1220002 2:0.292 3:4.9559999 4:4.665 5:5.539 6:5.1020002 7:9.184 8:5.1020002 9:3.3529999 10:10.933 11:2.4779999 12:3.0610001 13:4.2270002 14:7.1430001 15:5.1020002 16:9.6210003 17:4.5190001 18:4.5190001 19:0.72899997 20:3.3529999 #
-0.50000126421251644970311645010952 1:6.3959999 2:0.60900003 3:5.4819999 4:6.9039998 5:2.8429999 6:6.4970002 7:2.7409999 8:2.335 9:5.4819999 10:10.254 11:2.03 12:2.437 13:9.3400002 14:5.5840001 15:7.3099999 16:11.878 17:4.2639999 18:5.888 19:0.50800002 20:1.2180001 #
-0.50000126421251644970311645010952 1:6.2750001 2:0.39199999 3:3.9219999 4:5.6859999 5:4.5100002 6:10 7:1.765 8:5.6859999 9:5.6859999 10:9.8039999 11:1.765 12:4.902 13:4.118 14:10 15:3.529 16:6.0780001 17:9.2159996 18:4.5100002 19:0.588 20:1.569 #
-0.50000126421251644970311645010952 1:4.151 2:0.99900001 3:5.2270002 4:6.7639999 5:4.381 6:2.6900001 7:2.3829999 8:6.3800001 9:8.993 10:9.9919996 11:1.998 12:7.1479998 13:4.612 14:5.4569998 15:4.612 16:10.3 17:5.9949999 18:4.0739999 19:0.53799999 20:3.3050001 #
-0.50000126421251644970311645010952 1:9.665 2:0.71899998 3:4.473 4:5.112 5:5.1919999 6:8.3070002 7:1.597 8:6.789 9:4.473 10:9.8240004 11:2.3959999 12:2.875 13:2.556 14:3.8340001 15:5.5110002 16:8.7860003 17:5.4310002 18:8.2270002 19:0.639 20:3.5940001 #
-0.50000126421251644970311645010952 1:8.7840004 2:1.351 3:3.7160001 4:3.378 5:4.3920002 6:9.1219997 7:2.027 8:8.1079998 9:3.378 10:10.473 11:2.7030001 12:4.0539999 13:4.3920002 14:2.7030001 15:3.0409999 16:7.77 17:5.743 18:10.473 19:1.0140001 20:3.378 #
-0.50000126421251644970311645010952 1:8.1879997 2:1.568 3:4.704 4:4.8779998 5:3.6589999 6:8.0139999 7:2.0910001 8:8.3620005 9:5.401 10:12.195 11:4.355 12:3.8329999 13:3.8329999 14:2.4389999 15:3.1359999 16:5.7490001 17:5.7490001 18:9.5819998 19:0.69700003 20:1.568 #
1.1285246753911979400442078258493 1:7.6269999 2:0 3:7.6269999 4:11.017 5:5.9320002 6:4.237 7:2.5420001 8:10.169 9:7.6269999 10:7.6269999 11:0.847 12:4.237 13:4.237 14:3.3900001 15:5.085 16:2.5420001 17:9.3219995 18:4.237 19:0 20:1.6950001 #
1.0624378838929380286515424813842 1:7.7670002 2:1.942 3:9.2229996 4:11.65 5:0.97100002 6:6.796 7:0.48500001 8:5.3400002 9:5.8249998 10:7.7670002 11:6.3109999 12:6.796 13:0.97100002 14:6.3109999 15:8.2519999 16:4.8540001 17:3.398 18:4.369 19:0.48500001 20:0.48500001 #
1.0770366273168268111959378074971 1:11.594 2:0 3:4.348 4:11.594 5:1.449 6:4.348 7:0 8:5.7969999 9:10.145 10:11.594 11:1.449 12:1.449 13:5.7969999 14:2.8989999 15:10.145 16:4.348 17:1.449 18:5.7969999 19:0 20:5.7969999 #
-0.50000126421251644970311645010952 1:7.0310001 2:0.74800003 3:5.2360001 4:5.46 5:4.1880002 6:6.9559999 7:2.3929999 8:5.1609998 9:4.7870002 10:13.762 11:2.244 12:2.767 13:2.9170001 14:4.1139998 15:7.105 16:9.0500002 17:5.7589998 18:6.3579998 19:1.197 20:2.767 #
-0.50000126421251644970311645010952 1:7.007 2:1.557 3:5.882 4:7.526 5:3.3740001 6:5.3629999 7:2.1630001 8:5.796 9:4.9310002 10:12.284 11:1.817 12:3.9790001 13:4.2389998 14:4.8439999 15:4.152 16:10.64 17:4.3249998 18:5.4499998 19:1.3839999 20:3.2869999 #
-0.50000126421251644970311645010952 1:9.1949997 2:0 3:6.8969998 4:12.644 5:2.299 6:3.448 7:0 8:3.448 9:13.793 10:10.345 11:2.299 12:4.598 13:3.448 14:4.598 15:1.149 16:5.7470002 17:3.448 18:4.598 19:2.299 20:5.7470002 #
2.3000058153775753133629677904537 1:8.434 2:1.205 3:3.2130001 4:3.414 5:7.4299998 6:8.434 7:3.6140001 8:6.6269999 9:2.8110001 10:10.241 11:3.2130001 12:3.2130001 13:4.217 14:3.6140001 15:2.6099999 16:7.4299998 17:5.823 18:8.6350002 19:2.2090001 20:3.6140001 #
2.1924704142929778427628662029747 1:9.573 2:1.552 3:4.2690001 4:4.1399999 5:4.9159999 6:7.6329999 7:1.552 8:7.3740001 9:2.846 10:12.807 11:3.7520001 12:3.881 13:3.7520001 14:3.493 15:4.3979998 16:6.8559999 17:5.3039999 18:7.7620001 19:1.164 20:2.9749999 #
-0.50000126421251644970311645010952 1:7.7800002 2:1.6210001 3:3.566 4:3.2409999 5:7.618 6:8.1040001 7:2.1070001 8:6.4829998 9:3.7279999 10:12.642 11:2.1070001 12:3.8900001 13:4.052 14:2.7550001 15:3.079 16:5.5110002 17:5.348 18:8.4280005 19:3.079 20:4.862 #
-0.50000126421251644970311645010952 1:10.34 2:2.3150001 3:3.2409999 4:5.401 5:5.401 6:9.1049995 7:0.30899999 8:5.0929999 9:3.2409999 10:10.957 11:2.1600001 12:3.858 13:3.704 14:3.2409999 15:4.9380002 16:8.1789999 17:6.0190001 18:6.9439998 19:1.698 20:3.858 #
-0.50000126421251644970311645010952 1:7.4310002 2:2.2620001 3:3.5539999 4:4.6849999 5:6.4619999 6:6.947 7:2.0999999 8:7.5929999 9:4.8470001 10:9.6929998 11:1.939 12:4.1999998 13:3.7160001 14:3.069 15:3.7160001 16:9.6929998 17:4.039 18:8.401 19:1.777 20:3.8770001 #
1.2105796099249537256525854900246 1:11.801 2:0.62099999 3:6.211 4:10.559 5:3.1059999 6:1.242 7:0.62099999 8:5.5900002 9:12.422 10:8.0749998 11:2.484 12:4.9689999 13:6.8319998 14:3.1059999 15:1.863 16:4.348 17:3.727 18:5.5900002 19:3.1059999 20:3.727 #
1.3034873809179818859860233715153 1:4.4120002 2:4.4120002 3:5.882 4:7.3530002 5:1.471 6:8.8240004 7:2.941 8:2.941 9:11.765 10:11.765 11:4.4120002 12:2.941 13:2.941 14:0 15:1.471 16:7.3530002 17:7.3530002 18:8.8240004 19:0 20:2.941 #
1.1678782629175561424972329405136 1:5.217 2:0.87 3:0 4:4.348 5:2.609 6:8.6960001 7:1.739 8:6.9569998 9:11.304 10:13.913 11:0.87 12:5.217 13:2.609 14:6.0869999 15:2.609 16:9.5649996 17:2.609 18:6.0869999 19:0 20:8.6960001 #
-0.50000126421251644970311645010952 1:6.75 2:2 3:7.75 4:5.5 5:6.75 6:5.5 7:1.5 8:11 9:9.5 10:8.25 11:2 12:5 13:4.5 14:1 15:1.75 16:6.75 17:4.75 18:4.5 19:0.75 20:4.5 #
-0.50000126421251644970311645010952 1:11.795 2:2.0510001 3:3.0769999 4:12.308 5:6.6669998 6:5.6409998 7:1.538 8:4.6149998 9:11.795 10:6.6669998 11:1.538 12:6.1539998 13:2.5639999 14:1.538 15:3.0769999 16:4.1030002 17:5.6409998 18:3.5899999 19:1.026 20:4.6149998 #
-0.50000126421251644970311645010952 1:6.4029999 2:0.81699997 3:3.1340001 4:7.493 5:5.4499998 6:4.0869999 7:2.0439999 8:5.3130002 9:7.493 10:10.627 11:2.8610001 12:4.9050002 13:3.951 14:2.1800001 15:5.0409999 16:7.6290002 17:6.131 18:10.899 19:1.499 20:2.0439999 #
0.84115389542733165484378332621418 1:6.947 2:1.895 3:5.158 4:4.421 5:4.947 6:6.421 7:3.053 8:5.053 9:3.263 10:11.789 11:1.684 12:3.053 13:6.211 14:4.737 15:6.105 16:8.9469995 17:5.474 18:6.632 19:1.053 20:3.158 #
-0.50000126421251644970311645010952 1:6.835 2:2.0799999 3:4.6059999 4:3.8629999 5:5.349 6:6.835 7:1.6339999 8:5.9439998 9:3.418 10:13.373 11:3.1199999 12:3.1199999 13:4.9029999 14:4.9029999 15:5.9439998 16:8.0240002 17:5.2010002 18:5.349 19:1.6339999 20:3.8629999 #
-0.50000126421251644970311645010952 1:5.8070002 2:1.892 3:4.6630001 4:6.027 5:5.3670001 6:6.6430001 7:2.2880001 8:5.9390001 9:4.223 10:12.099 11:2.464 12:3.96 13:5.6750002 14:4.3109999 15:4.927 16:6.9070001 17:5.895 18:6.2030001 19:1.848 20:2.8599999 #
-0.50000126421251644970311645010952 1:9.2559996 2:0.99199998 3:4.132 4:3.471 5:5.289 6:8.099 7:2.9749999 8:6.4460001 9:2.3139999 10:10.413 11:2.9749999 12:3.1400001 13:4.4629998 14:4.2979999 15:4.132 16:9.7519999 17:5.9499998 18:7.2729998 19:1.488 20:3.1400001 #
1.3068120295152227949841972076683 1:10.169 2:0 3:5.085 4:3.3900001 5:10.169 6:6.7800002 7:0 8:3.3900001 9:10.169 10:5.085 11:3.3900001 12:5.085 13:8.4750004 14:0 15:5.085 16:5.085 17:3.3900001 18:8.4750004 19:1.6950001 20:5.085 #
0.94704632321004622586002597017796 1:12.281 2:0 3:5.263 4:13.158 5:0.87699997 6:5.263 7:1.7539999 8:8.7720003 9:19.298 10:7.0180001 11:0.87699997 12:2.632 13:0.87699997 14:6.1399999 15:1.7539999 16:3.5090001 17:2.632 18:6.1399999 19:0 20:1.7539999 #
0.86733516485938322304605208046269 1:8.4069996 2:0 3:0.442 4:1.327 5:3.9820001 6:3.54 7:2.655 8:12.832 9:2.655 10:19.469 11:5.3099999 12:4.8670001 13:6.1950002 14:3.0969999 15:1.77 16:5.7519999 17:11.504 18:3.54 19:1.327 20:1.327 #
-0.50000126421251644970311645010952 1:8.974 2:0 3:7.6919999 4:17.948999 5:2.5639999 6:5.1279998 7:1.2819999 8:8.974 9:5.1279998 10:6.4099998 11:2.5639999 12:3.846 13:1.2819999 14:5.1279998 15:1.2819999 16:3.846 17:7.6919999 18:8.974 19:0 20:1.2819999 #
-0.50000126421251644970311645010952 1:8.75 2:1.25 3:1.25 4:10 5:3.75 6:7.5 7:1.25 8:12.5 9:13.75 10:5 11:1.25 12:2.5 13:3.75 14:3.75 15:3.75 16:2.5 17:2.5 18:11.25 19:0 20:3.75 #
-0.50000126421251644970311645010952 1:9.4119997 2:1.569 3:6.2750001 4:8.6269999 5:1.176 6:6.6669998 7:0.78399998 8:5.4899998 9:9.8039999 10:10.588 11:1.961 12:1.569 13:5.098 14:3.529 15:5.882 16:2.3529999 17:5.882 18:12.157 19:0.39199999 20:0.78399998 #
-0.50000126421251644970311645010952 1:7.4359999 2:1.643 3:4.355 4:5.7519999 5:4.684 6:6.5739999 7:2.3829999 8:4.355 9:4.0669999 10:12.161 11:2.5469999 12:3.78 13:5.8340001 14:4.5190001 15:4.848 16:7.888 17:5.4229999 18:7.0250001 19:1.561 20:3.164 #
-0.50000126421251644970311645010952 1:6.697 2:1.37 3:3.5009999 4:4.2620001 5:6.0879998 6:7.4580002 7:1.826 8:6.697 9:5.632 10:11.872 11:3.349 12:4.7179999 13:3.957 14:3.1960001 15:4.414 16:8.3710003 17:5.9359999 18:6.3930001 19:0.76099998 20:3.5009999 #
-0.50000126421251644970311645010952 1:8.0749998 2:1.48 3:4.441 4:4.711 5:6.3260002 6:7.2680001 7:0.94199997 8:6.0570002 9:4.3070002 10:10.498 11:3.4990001 12:3.096 13:5.5180001 14:4.711 15:4.1719999 16:7.402 17:5.9219999 18:6.8639998 19:1.077 20:3.6340001 #
0.80530808498002715012376029335428 1:14.839 2:0 3:1.9349999 4:2.5810001 5:4.5159998 6:12.903 7:0 8:10.323 9:3.2260001 10:11.613 11:5.1609998 12:1.29 13:2.5810001 14:2.5810001 15:1.9349999 16:9.677 17:2.5810001 18:9.0319996 19:0 20:3.2260001 #
0.90847074107276581944603321971954 1:9.2779999 2:0 3:5.1550002 4:1.031 5:4.1240001 6:5.1550002 7:3.0929999 8:16.495001 9:4.1240001 10:13.402 11:8.2469997 12:4.1240001 13:1.031 14:2.062 15:2.062 16:4.1240001 17:2.062 18:13.402 19:0 20:1.031 #
0.98804536475519544325152310193516 1:3.03 2:1.515 3:7.5760002 4:4.5450001 5:6.0609999 6:16.667 7:0 8:6.0609999 9:4.5450001 10:10.606 11:3.03 12:4.5450001 13:4.5450001 14:1.515 15:9.0909996 16:4.5450001 17:3.03 18:4.5450001 19:0 20:4.5450001 #
-0.50000126421251644970311645010952 1:9.5889997 2:1.37 3:1.37 4:2.74 5:8.2189999 6:1.37 7:1.37 8:5.4790001 9:1.37 10:10.959 11:8.2189999 12:2.74 13:5.4790001 14:2.74 15:5.4790001 16:8.2189999 17:5.4790001 18:12.329 19:4.1100001 20:1.37 #
-0.50000126421251644970311645010952 1:8.2989998 2:0.41499999 3:7.4689999 4:7.4689999 5:2.49 6:7.8839998 7:3.3199999 8:8.7139997 9:2.905 10:11.203 11:2.075 12:3.3199999 13:3.3199999 14:2.49 15:9.1289997 16:4.9790001 17:4.1490002 18:7.8839998 19:0 20:2.49 #
-0.50000126421251644970311645010952 1:6.3600001 2:3.5339999 3:2.473 4:4.947 5:4.947 6:6.007 7:3.8870001 8:6.007 9:4.2399998 10:10.954 11:2.473 12:3.1800001 13:4.2399998 14:2.473 15:6.7140002 16:8.1269999 17:4.2399998 18:9.8940001 19:2.1199999 20:3.1800001 #
-0.50000126421251644970311645010952 1:8.2089996 2:1.493 3:3.98 4:9.2040005 5:1.493 6:8.7060003 7:2.2390001 8:7.2140002 9:4.9749999 10:8.7060003 11:3.483 12:2.9849999 13:5.7210002 14:1.7410001 15:6.7160001 16:3.98 17:5.473 18:9.7010002 19:0.249 20:3.7309999 #
-0.50000126421251644970311645010952 1:7.1820002 2:3.5910001 3:2.6240001 4:4.5580001 5:7.1820002 6:8.0109997 7:1.5190001 8:6.7680001 9:4.8340001 10:10.359 11:2.072 12:4.1440001 13:5.3870001 14:3.039 15:2.6240001 16:9.9449997 17:6.3540001 18:5.5250001 19:1.243 20:3.039 #
-0.50000126421251644970311645010952 1:8.3170004 2:1.7819999 3:2.178 4:4.158 5:6.7329998 6:6.7329998 7:2.3759999 8:8.3170004 9:3.5639999 10:13.069 11:3.5639999 12:3.168 13:5.3470001 14:3.5639999 15:2.3759999 16:6.9310002 17:6.3369999 18:6.9310002 19:0.59399998 20:3.96 #
-0.50000126421251644970311645010952 1:7.3790002 2:2.5239999 3:2.9130001 4:4.4660001 5:6.9899998 6:6.6020002 7:1.165 8:8.3500004 9:2.7179999 10:11.456 11:2.1359999 12:3.1070001 13:5.243 14:2.7179999 15:3.4949999 16:8.5439997 17:5.8249998 18:8.9320002 19:1.553 20:3.8829999 #
1.0903642022049779836123661880265 1:6.7280002 2:1.835 3:9.1739998 4:4.5869999 5:3.0580001 6:7.9510002 7:2.141 8:5.5050001 9:1.835 10:13.15 11:3.9760001 12:2.4460001 13:4.5869999 14:3.3640001 15:8.8690004 16:5.5050001 17:4.2810001 18:7.0339999 19:2.4460001 20:1.529 #
0.64686729664164899222811300205649 1:12.23 2:0 3:4.3169999 4:9.3529997 5:1.439 6:8.6330004 7:4.3169999 8:7.914 9:5.7550001 10:8.6330004 11:4.3169999 12:0.71899998 13:2.878 14:5.7550001 15:3.5969999 16:5.7550001 17:4.3169999 18:7.1939998 19:0 20:2.878 #
0.037612934284431048803654107359762 1:9.0909996 2:2.398 3:5.2950001 4:7.8920002 5:3.596 6:6.6929998 7:0.89899999 8:6.993 9:5.2950001 10:9.6899996 11:2.8970001 12:3.796 13:4.5949998 14:2.2980001 15:5.0949998 16:4.9949999 17:6.3940001 18:8.4919996 19:1.299 20:2.2980001 #
-0.50000126421251644970311645010952 1:10.738 2:1.2079999 3:3.221 4:6.8460002 5:3.0869999 6:7.3829999 7:2.2820001 8:4.2950001 9:3.7579999 10:12.617 11:2.2820001 12:1.745 13:4.698 14:4.8319998 15:7.9190001 16:6.309 17:3.8929999 18:7.651 19:1.6109999 20:3.6240001 #
-0.50000126421251644970311645010952 1:9.7449999 2:1.5140001 3:5.8660002 4:7.0960002 5:3.122 6:5.487 7:2.5539999 8:5.2030001 9:7.474 10:11.542 11:1.608 12:4.0679998 13:4.0679998 14:3.5 15:4.1630001 16:7.3790002 17:5.1090002 18:6.9060001 19:1.041 20:2.5539999 #
-0.50000126421251644970311645010952 1:7.6919999 2:1.748 3:5.2449999 4:7.3429999 5:4.1960001 6:6.6430001 7:1.923 8:6.8179998 9:6.119 10:10.664 11:1.923 12:4.7199998 13:4.895 14:5.4200001 15:4.895 16:4.3709998 17:4.895 18:6.4689999 19:0.52399999 20:3.497 #
-0.50000126421251644970311645010952 1:9.073 2:1.5779999 3:3.3529999 4:3.55 5:8.6789999 6:8.8760004 7:1.5779999 8:9.2700005 9:3.3529999 10:10.454 11:3.3529999 12:3.3529999 13:3.9449999 14:2.9590001 15:3.9449999 16:5.5229998 17:4.1420002 18:8.6789999 19:1.775 20:2.5639999 #
-0.50000126421251644970311645010952 1:10.409 2:1.487 3:4.8330002 4:2.23 5:4.8330002 6:10.037 7:1.859 8:8.5500002 9:2.974 10:12.268 11:1.115 12:4.0890002 13:2.602 14:2.974 15:4.0890002 16:8.5500002 17:5.5760002 18:8.1780005 19:1.487 20:1.859 #
-0.50000126421251644970311645010952 1:10.56 2:0.64700001 3:2.3710001 4:3.8789999 5:6.25 6:8.8360004 7:1.293 8:7.7589998 9:3.664 10:12.931 11:4.9569998 12:3.017 13:3.017 14:2.586 15:4.526 16:5.8189998 17:5.8189998 18:7.3280001 19:2.586 20:2.155 #
-0.1571420508359648582352718904076 1:7.0830002 2:0.625 3:2.2920001 4:3.9579999 5:6.0419998 6:8.3330002 7:0.208 8:9.7919998 9:4.5830002 10:13.75 11:2.9170001 12:2.7079999 13:5 14:4.7919998 15:3.9579999 16:7.5 17:6.25 18:5.4169998 19:1.0420001 20:3.75 #
-0.50000126421251644970311645010952 1:8.2349997 2:4.4120002 3:2.941 4:3.529 5:5 6:4.7059999 7:1.471 8:7.059 9:5 10:15.588 11:3.529 12:2.059 13:6.1760001 14:2.6470001 15:3.8239999 16:6.7649999 17:6.7649999 18:5.5879998 19:1.176 20:3.529 #
-0.50000126421251644970311645010952 1:6.8969998 2:1.326 3:4.244 4:4.5089998 5:4.244 6:6.8969998 7:3.714 8:8.7530003 9:3.9790001 10:8.2229996 11:2.6530001 12:4.244 13:3.1830001 14:3.714 15:4.7750001 16:8.4879999 17:7.1620002 18:5.836 19:1.592 20:5.5700002 #
-0.50000126421251644970311645010952 1:5.2579999 2:2.062 3:3.5050001 4:5.8759999 5:5.9790001 6:4.6389999 7:2.062 8:8.1440001 9:3.608 10:10.722 11:2.99 12:4.8449998 13:4.6389999 14:4.5359998 15:4.3299999 16:11.134 17:5.052 18:6.598 19:0.82499999 20:3.1960001 #
2.0829738428826254370562764961505 1:11.089 2:1.751 3:3.891 4:2.1400001 5:7.0040002 6:11.284 7:1.946 8:4.6690001 9:2.335 10:10.117 11:2.335 12:3.3069999 13:2.918 14:1.556 15:3.6960001 16:9.7279997 17:7.198 18:6.4200001 19:2.529 20:4.086 #
0.63323064011538843232074214029126 1:6.9809999 2:0.87300003 3:5.0609999 4:3.316 5:4.3629999 6:8.5509996 7:2.967 8:8.901 9:4.0139999 10:11.867 11:2.0940001 12:3.665 13:4.1880002 14:3.141 15:2.0940001 16:8.5509996 17:6.283 18:7.6789999 19:2.0940001 20:3.316 #
-0.50000126421251644970311645010952 1:7.8169999 2:1.887 3:4.717 4:6.8730001 5:7.8169999 6:10.243 7:2.0220001 8:4.178 9:3.5039999 10:9.5690002 11:2.9649999 12:2.5610001 13:2.8299999 14:3.0999999 15:5.526 16:7.5469999 17:4.3130002 18:7.1430001 19:1.887 20:3.5039999 #
-0.50000126421251644970311645010952 1:6.0760002 2:1.562 3:3.819 4:4.6880002 5:6.9439998 6:6.9439998 7:2.0829999 8:7.118 9:4.3400002 10:11.458 11:3.299 12:3.299 13:5.2080002 14:2.951 15:4.1669998 16:6.4239998 17:5.2080002 18:8.6809998 19:1.91 20:3.819 #
-0.50000126421251644970311645010952 1:8.6689997 2:2.477 3:3.4059999 4:4.3340001 5:5.263 6:10.526 7:2.1670001 8:8.0500002 9:4.6440001 10:8.0500002 11:3.096 12:2.786 13:3.7149999 14:2.477 15:3.4059999 16:6.5019999 17:5.882 18:10.217 19:2.1670001 20:2.1670001 #
1.7383805197372499407038048957475 1:11.146 2:2.2290001 3:2.8659999 4:3.1849999 5:4.4590001 6:4.777 7:2.8659999 8:7.9619999 9:5.0960002 10:7.006 11:3.1849999 12:4.4590001 13:5.414 14:4.1399999 15:2.2290001 16:10.191 17:8.599 18:3.822 19:1.911 20:4.4590001 #
0.91863819126360046762869160374976 1:8.059 2:0.73299998 3:3.6630001 4:9.5240002 5:6.5929999 6:3.2969999 7:3.2969999 8:8.059 9:5.4949999 10:12.821 11:2.9300001 12:3.2969999 13:4.3959999 14:4.0289998 15:6.5929999 16:3.6630001 17:2.198 18:8.4250002 19:1.465 20:1.465 #
0.62268065220724189146039861952886 1:18.662001 2:0.352 3:2.8169999 4:3.1689999 5:3.5209999 6:8.8030005 7:1.761 8:4.2249999 9:0.704 10:17.254 11:2.1129999 12:0 13:5.6339998 14:2.4649999 15:9.1549997 16:3.8729999 17:4.9299998 18:8.4510002 19:1.761 20:0.352 #
-0.50000126421251644970311645010952 1:7.6090002 2:0.36199999 3:6.5219998 4:2.8989999 5:4.71 6:7.9710002 7:2.174 8:5.7969999 9:8.6960001 10:9.4200001 11:0.72500002 12:4.71 13:3.2609999 14:2.536 15:1.812 16:10.87 17:9.783 18:7.6090002 19:0.36199999 20:2.174 #
-0.50000126421251644970311645010952 1:14.286 2:3.8099999 3:1.905 4:6.6669998 5:1.905 6:4.7620001 7:0 8:8.5710001 9:7.619 10:5.7140002 11:1.905 12:7.619 13:3.8099999 14:5.7140002 15:2.8570001 16:9.5240002 17:6.6669998 18:2.8570001 19:0.95200002 20:2.8570001 #
-0.50000126421251644970311645010952 1:5.0479999 2:1.082 3:7.6919999 4:6.0100002 5:3.846 6:3.9660001 7:1.803 8:9.1350002 9:8.0530005 10:14.904 11:0.96200001 12:6.9710002 13:2.1630001 14:3.4860001 15:2.885 16:9.0139999 17:5.2880001 18:4.447 19:0.361 20:2.885 #
-0.50000126421251644970311645010952 1:8.2270002 2:1.28 3:4.0219998 4:4.2049999 5:5.119 6:6.2160001 7:1.28 8:7.1300001 9:4.7529998 10:9.6890001 11:3.108 12:6.5809999 13:4.5700002 14:2.7420001 15:4.5700002 16:8.9580002 17:4.5700002 18:6.033 19:1.8279999 20:5.119 #
-0.50000126421251644970311645010952 1:7.6680002 2:1.721 3:4.6950002 4:3.756 5:6.7290001 6:6.4159999 7:0.78200001 8:9.0769997 9:5.3210001 10:8.7639999 11:1.5650001 12:5.4770002 13:3.4430001 14:1.721 15:3.286 16:8.1379995 17:6.2600002 18:6.4159999 19:3.1300001 20:5.6339998 #
-0.50000126421251644970311645010952 1:9.7959995 2:1.497 3:3.8099999 4:4.3540001 5:5.3060002 6:7.4829998 7:1.224 8:7.7550001 9:4.3540001 10:10.34 11:3.5369999 12:3.1289999 13:3.6730001 14:2.721 15:2.313 16:7.211 17:6.6669998 18:8.0270004 19:1.633 20:5.1700001 #
0.83010906507575987767211245227372 1:17.742001 2:0 3:1.613 4:3.2260001 5:1.613 6:3.2260001 7:0 8:4.8390002 9:6.4520001 10:6.4520001 11:1.613 12:4.8390002 13:3.2260001 14:6.4520001 15:4.8390002 16:11.29 17:11.29 18:3.2260001 19:1.613 20:6.4520001 #
0.7504061624832857324562951362168 1:8.4770002 2:1.724 3:2.586 4:2.4430001 5:2.155 6:7.902 7:2.586 8:3.3050001 9:1.724 10:6.178 11:4.3099999 12:5.0289998 13:7.902 14:14.943 15:4.7410002 16:8.908 17:4.1669998 18:5.8909998 19:0.71799999 20:4.3099999 #
0.69940121924968035038716607232345 1:8.5530005 2:10.526 3:4.605 4:4.605 5:4.605 6:11.184 7:3.289 8:3.947 9:3.947 10:5.263 11:3.289 12:2.632 13:1.974 14:5.921 15:4.605 16:4.605 17:5.921 18:4.605 19:1.974 20:3.947 #
-0.50000126421251644970311645010952 1:6.0749998 2:1.869 3:7.4770002 4:8.1780005 5:5.6069999 6:4.9070001 7:2.5699999 8:6.0749998 9:6.776 10:9.5790005 11:3.5050001 12:3.7379999 13:3.5050001 14:5.3740001 15:5.8410001 16:4.6729999 17:3.5050001 18:8.4110003 19:0 20:2.336 #
-0.50000126421251644970311645010952 1:10.059 2:2.0710001 3:3.846 4:4.1420002 5:8.8760004 6:5.0300002 7:2.0710001 8:4.1420002 9:4.1420002 10:7.3959999 11:2.9590001 12:5.9169998 13:7.1009998 14:5.0300002 15:3.846 16:6.8049998 17:5.0300002 18:6.8049998 19:2.0710001 20:2.6630001 #
-0.50000126421251644970311645010952 1:8.1630001 2:1.4579999 3:3.9360001 4:4.5190001 5:3.4990001 6:8.309 7:1.749 8:2.77 9:2.6240001 10:17.055 11:2.187 12:2.332 13:4.665 14:6.5599999 15:6.2680001 16:6.8509998 17:4.5190001 18:8.0170002 19:1.749 20:2.77 #
1.3743457034841903841027033195132 1:8.8500004 2:0 3:3.54 4:4.4250002 5:5.3099999 6:6.1950002 7:1.77 8:11.504 9:4.4250002 10:12.389 11:4.4250002 12:2.655 13:3.54 14:0.88499999 15:1.77 16:5.3099999 17:9.7349997 18:9.7349997 19:0 20:3.54 #
-0.50000126421251644970311645010952 1:4.651 2:1.395 3:1.86 4:3.721 5:6.9770002 6:7.9070001 7:2.326 8:8.8369999 9:2.7909999 10:10.233 11:4.1859999 12:1.86 13:4.1859999 14:2.326 15:4.651 16:6.5120001 17:7.9070001 18:10.233 19:2.7909999 20:4.651 #
-0.50000126421251644970311645010952 1:5.3099999 2:1.327 3:2.2119999 4:1.327 5:7.9650002 6:8.8500004 7:2.2119999 8:7.9650002 9:1.327 10:12.832 11:5.3099999 12:1.77 13:3.54 14:3.9820001 15:6.6370001 16:6.6370001 17:5.7519999 18:6.6370001 19:3.54 20:4.8670001 #
-0.50000126421251644970311645010952 1:7.112 2:0.99599999 3:4.4099998 4:4.125 5:6.5430002 6:8.25 7:1.28 8:7.2550001 9:3.2720001 10:10.1 11:3.1289999 12:2.987 13:3.698 14:3.2720001 15:6.2589998 16:8.1079998 17:7.3969998 18:6.401 19:1.4220001 20:3.983 #
0.098117466051791391024039512558375 1:5.7969999 2:1.739 3:6.9569998 4:8.1160002 5:4.928 6:4.638 7:1.449 8:6.9569998 9:3.4779999 10:11.014 11:2.319 12:6.3769999 13:2.609 14:4.638 15:4.348 16:6.9569998 17:6.3769999 18:4.0580001 19:1.159 20:6.0869999 #
2.2077971782273873024848853674484 1:8.9390001 2:1.117 3:5.0279999 4:6.4250002 5:6.8439999 6:6.4250002 7:1.117 8:6.006 9:5.1680002 10:7.961 11:3.073 12:5.8660002 13:2.3740001 14:3.2119999 15:4.888 16:7.1230001 17:5.7259998 18:7.402 19:1.117 20:4.1900001 #
0.046664448893783294636250502662733 1:4.1919999 2:4.1919999 3:5.5890002 4:6.7859998 5:6.1880002 6:4.79 7:3.3929999 8:4.9899998 9:5.3889999 10:8.3830004 11:2.994 12:4.1919999 13:5.1900001 14:2.7939999 15:4.3909998 16:7.9840002 17:5.3889999 18:7.3850002 19:0.79799998 20:4.9899998 #
-0.50000126421251644970311645010952 1:5.5500002 2:1.693 3:5.1739998 4:7.0560002 5:5.5500002 6:2.822 7:2.54 8:7.3379998 9:6.303 10:11.007 11:3.8570001 12:6.4910002 13:2.822 14:5.5500002 15:3.4809999 16:5.2680001 17:5.5500002 18:7.902 19:1.1289999 20:2.9159999 #
-0.50000126421251644970311645010952 1:6.2880001 2:1.0140001 3:6.085 4:6.085 5:4.868 6:6.2880001 7:3.8540001 8:6.6939998 9:5.4770002 10:9.533 11:2.8399999 12:3.8540001 13:2.8399999 14:2.8399999 15:4.868 16:10.142 17:3.651 18:9.1280003 19:1.0140001 20:2.6370001 #
-0.50000126421251644970311645010952 1:4.3909998 2:2.3050001 3:4.7199998 4:6.6960001 5:6.3670001 6:4.8299999 7:1.5369999 8:8.7819996 9:6.1469998 10:9.0010004 11:2.8540001 12:4.9400001 13:4.7199998 14:3.9519999 15:4.7199998 16:5.0489998 17:5.7080002 18:6.0370002 19:1.8660001 20:5.3790002 #
2.3000058153775753133629677904537 1:9.4139996 2:2.309 3:2.309 4:3.375 5:4.618 6:8.3479996 7:1.776 8:4.4400001 9:2.309 10:14.032 11:3.552 12:3.02 13:5.329 14:5.8610001 15:5.329 16:6.3940001 17:5.684 18:6.927 19:1.776 20:3.197 #
-0.26606292280368520897226858323847 1:5.882 2:1.502 3:3.6300001 4:3.1289999 5:7.5089998 6:5.882 7:1.502 8:7.3839998 9:5.257 10:8.8859997 11:2.753 12:5.757 13:5.382 14:2.753 15:3.2539999 16:6.5079999 17:6.1329999 18:8.0100002 19:3.2539999 20:5.632 #
-0.50000126421251644970311645010952 1:5.0209999 2:0.83700001 3:6.0669999 4:8.9960003 5:3.138 6:5.0209999 7:1.046 8:8.7869997 9:8.7869997 10:7.322 11:1.255 12:4.184 13:7.9499998 14:3.9749999 15:4.8119998 16:7.1129999 17:4.8119998 18:6.276 19:1.464 20:3.138 #
-0.50000126421251644970311645010952 1:9.8210001 2:2.8269999 3:2.6789999 4:3.5710001 5:5.2080002 6:9.5240002 7:1.488 8:4.9109998 9:1.488 10:13.393 11:3.5710001 12:2.0829999 13:5.3569999 14:2.8269999 15:4.9109998 16:7.2919998 17:4.0180001 18:9.2259998 19:2.2320001 20:3.5710001 #
-0.50000126421251644970311645010952 1:12.167 2:1.141 3:0.75999999 4:3.4219999 5:6.8439999 6:9.8859997 7:2.2809999 8:3.4219999 9:1.141 10:14.449 11:1.901 12:3.0420001 13:4.9429998 14:3.0420001 15:4.9429998 16:7.224 17:4.9429998 18:9.5059996 19:1.901 20:3.0420001 #
-0.50000126421251644970311645010952 1:12.83 2:1.132 3:1.132 4:4.151 5:6.415 6:8.6789999 7:1.132 8:6.415 9:2.642 10:13.585 11:1.887 12:4.151 13:4.9060001 14:3.0190001 15:3.7739999 16:6.415 17:5.6599998 18:8.302 19:1.5089999 20:2.2639999 #
0.034453473743689289054970004144707 1:5.204 2:1.357 3:4.5250001 4:8.3710003 5:6.5609999 6:4.5250001 7:2.7149999 8:7.9190001 9:5.4299998 10:12.217 11:3.846 12:4.9770002 13:2.7149999 14:4.2989998 15:3.1670001 16:3.846 17:5.882 18:7.9190001 19:2.036 20:2.4890001 #
1.6172996924699196696906255965587 1:4.158 2:3.5639999 3:2.7720001 4:6.1389999 5:6.9310002 6:5.3470001 7:2.97 8:7.1290002 9:7.3270001 10:9.5050001 11:0.792 12:5.5450001 13:4.3559999 14:4.7519999 15:2.97 16:8.1190004 17:5.743 18:6.9310002 19:1.386 20:3.5639999 #
0.86120457362714553095628389201011 1:6.316 2:1.053 3:2.105 4:3.158 5:6.316 6:8.4209995 7:6.842 8:5.263 9:3.158 10:8.9469995 11:8.9469995 12:3.158 13:3.684 14:3.158 15:1.579 16:9.474 17:6.316 18:7.368 19:0.52600002 20:4.211 #
-0.50000126421251644970311645010952 1:7.2989998 2:1.825 3:4.8660002 4:5.961 5:2.7980001 6:4.7449999 7:1.825 8:6.448 9:4.9879999 10:12.044 11:3.4059999 12:5.2309999 13:5.1090002 14:4.6230001 15:5.2309999 16:7.2989998 17:6.8130002 18:6.5689998 19:0.36500001 20:2.5550001 #
-0.50000126421251644970311645010952 1:8.9289999 2:2.273 3:3.5710001 4:5.6820002 5:5.0320001 6:7.9549999 7:0.32499999 8:6.9809999 9:5.1950002 10:10.877 11:2.9219999 12:5.0320001 13:2.273 14:3.5710001 15:3.247 16:8.6040001 17:6.1690001 18:5.1950002 19:2.4349999 20:3.734 #
-0.50000126421251644970311645010952 1:5.9829998 2:0.85500002 3:4.4439998 4:6.4959998 5:5.4699998 6:4.4439998 7:3.0769999 8:3.9319999 9:4.9569998 10:12.479 11:2.7349999 12:4.2740002 13:6.6669998 14:4.7859998 15:5.1279998 16:6.6669998 17:5.1279998 18:5.8119998 19:2.5639999 20:4.1030002 #
-0.50000126421251644970311645010952 1:7.48 2:1.789 3:2.7639999 4:3.74 5:6.3410001 6:6.1789999 7:1.301 8:8.1300001 9:4.8779998 10:10.569 11:2.927 12:3.74 13:3.089 14:2.602 15:3.74 16:10.569 17:6.5040002 18:6.3410001 19:2.276 20:5.0409999 #
-0.50000126421251644970311645010952 1:6.5029998 2:3.1630001 3:3.5150001 4:5.6240001 5:7.5570002 6:8.0839996 7:0.70300001 8:7.0300002 9:4.3940001 10:7.381 11:3.691 12:3.691 13:3.691 14:1.933 15:3.5150001 16:8.2600002 17:6.3270001 18:8.2600002 19:1.933 20:4.7449999 #
-0.50000126421251644970311645010952 1:6.4650002 2:1.926 3:2.8889999 4:5.5019999 5:6.8779998 6:7.428 7:1.651 8:6.052 9:4.402 10:11.004 11:3.3010001 12:3.9890001 13:5.0890002 14:2.3380001 15:3.026 16:8.1160002 17:4.9520001 18:8.8030005 19:1.926 20:4.2639999 #
0.74799335969689195735554676502943 1:10.333 2:0.667 3:5.3330002 4:3 5:3 6:6.6669998 7:3 8:8.3330002 9:1 10:12.667 11:3.6670001 12:1.3329999 13:3.6670001 14:5.3330002 15:6 16:9.3330002 17:4 18:8 19:2 20:2.6670001 #
-0.50000126421251644970311645010952 1:10.117 2:0.19499999 3:2.529 4:4.086 5:6.6149998 6:7.7820001 7:1.946 8:5.447 9:2.1400001 10:13.035 11:5.0580001 12:2.529 13:4.4749999 14:5.8369999 15:4.2800002 16:4.8639998 17:5.6420002 18:6.4200001 19:3.5020001 20:3.5020001 #
-0.50000126421251644970311645010952 1:9.2729998 2:2.3640001 3:2.9089999 4:3.0910001 5:5.4549999 6:7.2729998 7:0.90899998 8:5.2729998 9:2.727 10:14.727 11:3.273 12:1.818 13:5.2729998 14:5.0910001 15:4.9089999 16:8.3640003 17:6.5450001 18:7.0910001 19:2.3640001 20:1.273 #
-0.50000126421251644970311645010952 1:11.83 2:0.67000002 3:2.2320001 4:1.786 5:5.5799999 6:12.277 7:0.67000002 8:4.4640002 9:2.0090001 10:14.732 11:3.7950001 12:2.4549999 13:3.7950001 14:3.5710001 15:3.7950001 16:6.9200001 17:4.9109998 18:9.8210001 19:2.2320001 20:2.4549999 #
-0.24609342729290620277460277520731 1:7.0640001 2:1.104 3:5.7399998 4:10.155 5:2.6489999 6:5.0770001 7:0.88300002 8:1.766 9:6.6230001 10:13.687 11:1.766 12:2.8699999 13:5.0770001 14:5.5190001 15:6.8429999 16:8.6090002 17:3.753 18:7.947 19:1.545 20:1.325 #
-0.50000126421251644970311645010952 1:4.9089999 2:0.56099999 3:4.6279998 4:3.086 5:7.5739999 6:5.8909998 7:2.1040001 8:9.257 9:4.9089999 10:10.519 11:2.8050001 12:6.0310001 13:4.9089999 14:2.244 15:4.7690001 16:10.519 17:4.9089999 18:6.4520001 19:0.84200001 20:3.086 #
-0.50000126421251644970311645010952 1:7.368 2:4.211 3:6.316 4:5.263 5:3.158 6:11.579 7:0 8:4.211 9:6.316 10:6.316 11:7.368 12:5.263 13:2.105 14:6.316 15:7.368 16:7.368 17:2.105 18:4.211 19:1.053 20:2.105 #
-0.50000126421251644970311645010952 1:10.876 2:0.60399997 3:8.1569996 4:4.8340001 5:2.115 6:8.4589996 7:2.115 8:6.9489999 9:3.625 10:11.178 11:2.7190001 12:1.511 13:3.927 14:2.4170001 15:8.7609997 16:5.7399998 17:6.0419998 18:8.1569996 19:0.60399997 20:1.2079999 #
-0.50000126421251644970311645010952 1:8.4580002 2:1.493 3:3.8139999 4:4.4780002 5:6.302 6:7.4629998 7:1.327 8:7.131 9:4.3119998 10:10.945 11:2.322 12:4.4780002 13:3.8139999 14:1.493 15:3.98 16:9.6190004 17:6.6329999 18:7.2969999 19:2.1559999 20:2.4879999 #
-0.50000126421251644970311645010952 1:8.1479998 2:1.6670001 3:2.4070001 4:4.2589998 5:5.7410002 6:9.6300001 7:1.296 8:7.5929999 9:3.704 10:12.778 11:1.4809999 12:2.7780001 13:5.9260001 14:2.9630001 15:4.8150001 16:6.8520002 17:5.5560002 18:7.7779999 19:1.4809999 20:3.148 #
-0.50000126421251644970311645010952 1:10.036 2:0.89600003 3:3.5840001 4:3.763 5:6.2719998 6:8.7810001 7:1.613 8:8.9610004 9:3.405 10:10.573 11:1.075 12:3.9430001 13:4.3010001 14:1.434 15:3.9430001 16:7.527 17:4.48 18:8.4230003 19:2.151 20:4.8390002 #
0.69984356528698032917645832640119 1:19.872 2:0.64099997 3:5.1279998 4:11.538 5:1.923 6:1.923 7:0.64099997 8:8.3330002 9:9.6149998 10:8.974 11:1.923 12:2.5639999 13:1.2819999 14:6.4099998 15:6.4099998 16:3.2049999 17:1.923 18:6.4099998 19:0.64099997 20:0.64099997 #
0.75102968873626407830812468091608 1:7.1430001 2:1.724 3:4.6799998 4:4.4330001 5:4.4330001 6:4.9260001 7:1.97 8:3.941 9:5.9109998 10:7.3889999 11:9.1129999 12:6.158 13:3.448 14:3.2019999 15:1.724 16:16.995001 17:5.9109998 18:3.6949999 19:0.98500001 20:2.217 #
0.62356534783053629844573606533231 1:13.754 2:1.433 3:7.1630001 4:4.2979999 5:4.8709998 6:6.8769999 7:1.719 8:1.146 9:3.438 10:12.321 11:2.579 12:1.146 13:5.158 14:2.006 15:6.8769999 16:5.4439998 17:7.1630001 18:8.309 19:0.86000001 20:3.438 #
-0.50000126421251644970311645010952 1:12 2:0 3:2 4:3 5:3 6:9 7:2 8:11 9:0 10:20 11:5 12:4 13:1 14:5 15:6 16:6 17:2 18:6 19:1 20:2 #
-0.50000126421251644970311645010952 1:14.667 2:1 3:3.3329999 4:3 5:5.3330002 6:13 7:0.667 8:2.3329999 9:5.3330002 10:8.3330002 11:3 12:1.3329999 13:5 14:4 15:4.3330002 16:7 17:6 18:8.6669998 19:0.667 20:3 #
-0.50000126421251644970311645010952 1:7.5469999 2:0.80900002 3:4.5819998 4:7.0079999 5:2.9649999 6:7.5469999 7:2.6949999 8:5.6599998 9:4.0430002 10:10.782 11:2.9649999 12:3.5039999 13:5.3909998 14:5.9299998 15:6.4689999 16:4.5819998 17:3.7739999 18:11.59 19:0.53899997 20:1.617 #
-0.50000126421251644970311645010952 1:8.2469997 2:0.34400001 3:5.1550002 4:4.8109999 5:3.9519999 6:6.5289998 7:1.546 8:8.0760002 9:3.9519999 10:10.309 11:4.467 12:3.608 13:2.234 14:4.296 15:6.5289998 16:8.5909996 17:6.1859999 18:8.0760002 19:0.85900003 20:2.234 #
-0.50000126421251644970311645010952 1:6.2280002 2:1.601 3:2.135 4:3.737 5:7.2950001 6:6.5840001 7:1.068 8:8.7189999 9:4.27 10:13.879 11:1.779 12:4.0929999 13:3.381 14:2.8469999 15:3.381 16:10.142 17:5.8720002 18:6.9400001 19:1.423 20:4.6259999 #
-0.50000126421251644970311645010952 1:5.0749998 2:4.3280001 3:3.1340001 4:4.776 5:6.5669999 6:8.9549999 7:1.642 8:7.7610002 9:5.9699998 10:10.896 11:3.4330001 12:3.582 13:3.881 14:2.9849999 15:2.836 16:6.8660002 17:6.4180002 18:6.2690001 19:0.89600003 20:3.7309999 #
0.12231311958994814381718185813952 1:17.098 2:0.69099998 3:5.0089998 4:3.9719999 5:3.2820001 6:7.7719998 7:1.727 8:5.3540001 9:0.51800001 10:12.608 11:1.036 12:1.554 13:4.3179998 14:3.8 15:7.2540002 16:4.836 17:6.908 18:9.8450003 19:1.9 20:0.51800001 #
0.5210774144193686119308495108271 1:15.354 2:0.39399999 3:5.118 4:5.118 5:5.9060001 6:9.0550003 7:1.575 8:3.1500001 9:2.362 10:15.354 11:0.787 12:1.575 13:7.48 14:3.1500001 15:8.2679996 16:3.1500001 17:5.118 18:6.2989998 19:0.39399999 20:0.39399999 #
-0.50000126421251644970311645010952 1:9.9139996 2:1.863 3:3.3929999 4:4.724 5:4.5910001 6:7.3850002 7:1.929 8:3.7260001 9:3.3269999 10:13.972 11:1.597 12:1.9960001 13:5.1900001 14:5.5890002 15:5.921 16:7.7179999 17:4.5240002 18:8.5159998 19:2.329 20:1.796 #
-0.50000126421251644970311645010952 1:7.9920001 2:1.6390001 3:3.279 4:4.9180002 5:5.3280001 6:5.533 7:2.2539999 8:3.484 9:4.7129998 10:14.959 11:2.2539999 12:2.664 13:5.3280001 14:3.279 15:6.1479998 16:8.1969995 17:4.9180002 18:8.1969995 19:1.844 20:3.0739999 #
-0.50000126421251644970311645010952 1:14.098 2:1.316 3:3.7590001 4:4.323 5:3.947 6:7.3309999 7:1.5039999 8:4.323 9:1.316 10:13.722 11:2.444 12:1.692 13:8.0830002 14:1.692 15:5.6389999 16:6.579 17:4.323 18:8.6470003 19:1.128 20:4.1350002 #
0.89829783093687254336145997513086 1:4.9790001 2:4.5640001 3:4.9790001 4:4.9790001 5:5.3940001 6:6.6389999 7:0.82999998 8:7.8839998 9:6.6389999 10:9.9589996 11:2.49 12:2.905 13:2.905 14:2.905 15:4.1490002 16:8.7139997 17:5.3940001 18:5.3940001 19:2.905 20:5.3940001 #
-0.50000126421251644970311645010952 1:3.2160001 2:2.632 3:2.339 4:2.632 5:9.3570004 6:5.263 7:2.0469999 8:8.7720003 9:6.4330001 10:13.45 11:1.17 12:5.5560002 13:2.632 14:3.2160001 15:3.5090001 16:8.4799995 17:7.0180001 18:6.4330001 19:1.17 20:4.678 #
-0.50000126421251644970311645010952 1:7.8239999 2:1.145 3:4.198 4:5.1529999 5:4.9619999 6:7.0609999 7:0.382 8:9.5419998 9:5.5339999 10:10.496 11:4.198 12:3.8169999 13:3.244 14:2.6719999 15:3.053 16:6.2979999 17:7.2519999 18:10.305 19:0.76300001 20:2.099 #
-0.50000126421251644970311645010952 1:6.5500002 2:1.528 3:3.2750001 4:2.1830001 5:8.5150003 6:9.1700001 7:1.3099999 8:9.3889999 9:5.2399998 10:12.664 11:3.0569999 12:4.3670001 13:3.0569999 14:2.8380001 15:2.6199999 16:7.4239998 17:6.1139998 18:6.987 19:1.092 20:2.6199999 #
-0.50000126421251644970311645010952 1:12.26 2:0.72100002 3:1.202 4:1.442 5:3.846 6:11.779 7:1.202 8:5.0479999 9:1.442 10:20.433001 11:4.0869999 12:1.923 13:5.5289998 14:3.365 15:3.365 16:6.4899998 17:5.7690001 18:6.7309999 19:1.923 20:1.442 #
-0.50000126421251644970311645010952 1:9.8360004 2:4.5079999 3:5.7379999 4:5.3280001 5:3.6889999 6:5.7379999 7:2.4590001 8:5.7379999 9:5.7379999 10:6.967 11:3.6889999 12:5.3280001 13:5.7379999 14:3.6889999 15:4.098 16:5.7379999 17:4.9180002 18:5.7379999 19:0.81999999 20:4.5079999 #
-0.50000126421251644970311645010952 1:8.1079998 2:1.351 3:4.9549999 4:3.6040001 5:2.2520001 6:13.964 7:1.802 8:5.4050002 9:6.3060002 10:13.063 11:2.7030001 12:5.4050002 13:4.9549999 14:3.1530001 15:2.2520001 16:8.1079998 17:5.4050002 18:3.6040001 19:1.351 20:2.2520001 #
0.77726204755737093865519682367449 1:5.244 2:0.97600001 3:4.0240002 4:5.8540001 5:5.8540001 6:7.073 7:3.415 8:8.2930002 9:4.756 10:12.317 11:1.829 12:2.5610001 13:6.3410001 14:2.6830001 15:4.5120001 16:7.4390001 17:5 18:8.1709995 19:1.22 20:2.4389999 #
-0.50000126421251644970311645010952 1:5.882 2:1.961 3:2.8010001 4:2.8010001 5:7.0029998 6:6.1620002 7:3.0810001 8:5.6020002 9:4.7620001 10:14.286 11:1.401 12:2.8010001 13:4.4819999 14:4.2020001 15:2.2409999 16:8.4029999 17:4.2020001 18:9.8039999 19:3.641 20:4.4819999 #
-0.50000126421251644970311645010952 1:6.1880002 2:2.2279999 3:2.4749999 4:3.4649999 5:5.4460001 6:4.9499998 7:1.733 8:12.376 9:3.4649999 10:12.129 11:3.96 12:4.4549999 13:3.7130001 14:2.723 15:4.2080002 16:8.6630001 17:4.2080002 18:6.9310002 19:2.2279999 20:4.4549999 #
-0.50000126421251644970311645010952 1:9.7919998 2:0.29699999 3:3.2639999 4:4.1539998 5:6.2309999 6:5.3410001 7:1.484 8:9.1990004 9:4.7480001 10:11.573 11:2.967 12:3.2639999 13:4.7480001 14:4.7480001 15:5.638 16:6.5279999 17:6.5279999 18:5.0450001 19:2.3740001 20:2.0769999 #
0.62756236357979044981902916333638 1:9.5609999 2:1.575 3:3.937 4:4.9489999 5:4.4990001 6:8.2110004 7:1.687 8:4.9489999 9:3.487 10:8.2110004 11:3.1500001 12:2.7 13:11.811 14:4.0489998 15:7.1989999 16:7.7620001 17:3.5999999 18:4.9489999 19:1.012 20:2.7 #
-0.50000126421251644970311645010952 1:6.5149999 2:0.65100002 3:7.4920001 4:8.4689999 5:3.9089999 6:8.1429996 7:1.954 8:2.9319999 9:3.257 10:9.1210003 11:2.9319999 12:0.65100002 13:9.4460001 14:5.5370002 15:4.8860002 16:10.098 17:3.9089999 18:5.8629999 19:1.6289999 20:2.6059999 #
-0.50000126421251644970311645010952 1:9.967 2:0.33199999 3:7.309 4:6.3119998 5:4.3189998 6:9.6350002 7:2.658 8:3.987 9:3.654 10:10.631 11:2.326 12:1.993 13:4.3189998 14:1.993 15:8.6379995 16:4.3189998 17:6.645 18:7.6409998 19:0.66399997 20:2.658 #
-0.50000126421251644970311645010952 1:9.7980003 2:0.62199998 3:5.3649998 4:5.677 5:5.21 6:8.5539999 7:1.011 8:7.6209998 9:6.3759999 10:9.4090004 11:2.3329999 12:2.799 13:2.4879999 14:4.0440001 15:4.1209998 16:8.7089996 17:5.2880001 18:7.8540001 19:0.69999999 20:2.0220001 #
-0.50000126421251644970311645010952 1:5.3109999 2:1.3660001 3:4.552 4:5.4629998 5:5.3109999 6:7.5869999 7:2.8829999 8:6.3730001 9:6.677 10:11.988 11:3.187 12:3.9449999 13:3.187 14:3.642 15:6.3730001 16:6.3730001 17:4.2490001 18:6.0700002 19:0.759 20:4.704 #
-0.50000126421251644970311645010952 1:6.1360002 2:0.64600003 3:4.198 4:6.566 5:5.1669998 6:7.3200002 7:1.507 8:5.7049999 9:3.552 10:15.823 11:2.4760001 12:2.0450001 13:6.8889999 14:3.552 15:4.9520001 16:6.4590001 17:5.2740002 18:7.8579998 19:1.184 20:2.691 #
-0.50000126421251644970311645010952 1:8.559 2:2.714 3:1.67 4:3.549 5:6.8889999 6:7.098 7:2.0880001 8:7.9330001 9:2.714 10:14.196 11:4.802 12:2.0880001 13:5.2189999 14:3.132 15:2.9230001 16:7.5159998 17:5.2189999 18:7.724 19:0.83499998 20:3.132 #
-0.50000126421251644970311645010952 1:13.77 2:1.311 3:1.967 4:4.5900002 5:4.5900002 6:9.1800003 7:1.967 8:6.5570002 9:3.6070001 10:8.8520002 11:2.2950001 12:3.6070001 13:7.5409999 14:0.98400003 15:3.6070001 16:5.902 17:8.5249996 18:8.1969995 19:0.98400003 20:1.967 #
-0.50000126421251644970311645010952 1:10.738 2:1.007 3:3.3559999 4:3.02 5:6.04 6:8.3889999 7:2.6849999 8:6.711 9:2.6849999 10:7.3829999 11:3.691 12:3.691 13:4.362 14:3.02 15:3.3559999 16:8.7250004 17:7.3829999 18:9.7320004 19:1.678 20:2.349 #
-0.50000126421251644970311645010952 1:8.165 2:2.5450001 3:3.181 4:3.3929999 5:5.1960001 6:7.5289998 7:2.0150001 8:6.0450001 9:2.757 10:8.6960001 11:3.7119999 12:4.348 13:6.3629999 14:4.0300002 15:3.924 16:9.1199999 17:6.0450001 18:6.8930001 19:1.909 20:4.1360002 #
0.23773070442123148127144816044165 1:5.7290001 2:3.9059999 3:3.6459999 4:5.9899998 5:9.1149998 6:5.2080002 7:1.562 8:6.5100002 9:5.4689999 10:12.5 11:1.823 12:2.6040001 13:6.25 14:3.6459999 15:3.9059999 16:5.9899998 17:4.948 18:6.7709999 19:1.0420001 20:3.385 #
