SVM-light Version V6.02
2 # kernel type
3 # kernel parameter -d 
0.009 # kernel parameter -g 
1 # kernel parameter -s 
1 # kernel parameter -r 
empty# kernel parameter -u 
400 # highest feature index 
1104 # number of training documents 
428 # number of support vectors plus 1 
0.76761284 # threshold b, each following line is a SV (starting with alpha*y)
-1.067745575323642670539925347839 1:1.431 2:0 3:0.15899999 4:0.954 5:0.31799999 6:1.908 7:0 8:0 9:0.477 10:0.79500002 11:0.15899999 12:0.15899999 13:0.31799999 14:0.63599998 15:0.15899999 16:1.59 17:0.31799999 18:0.477 19:0 20:0 21:0 22:0 23:0 24:0 25:0 26:0 27:0 28:0 29:0 30:0 31:0 32:0 33:0 34:0 35:0.15899999 36:0.15899999 37:0 38:0.31799999 39:0 40:0 41:0.477 42:0.15899999 43:0.31799999 44:0.477 45:0.31799999 46:0.15899999 47:0 48:0.31799999 49:0 50:1.113 51:0.15899999 52:0 53:0.63599998 54:0.31799999 55:0.15899999 56:0.477 57:0.31799999 58:0.31799999 59:0 60:0.15899999 61:0.79500002 62:0 63:0.63599998 64:0.31799999 65:0.15899999 66:0.31799999 67:0.15899999 68:0.15899999 69:0.31799999 70:1.272 71:0.15899999 72:0.31799999 73:0.31799999 74:0 75:0.477 76:0.31799999 77:0.15899999 78:0.477 79:0.15899999 80:0 81:0 82:0 83:0.15899999 84:0 85:0 86:0.31799999 87:0.15899999 88:0 89:0 90:0.477 91:0 92:0 93:0.31799999 94:0.31799999 95:0.15899999 96:0.79500002 97:0.31799999 98:0 99:0.31799999 100:0 101:0.954 102:0 103:0.954 104:0.31799999 105:0.31799999 106:0 107:0.15899999 108:0 109:0 110:1.908 111:0.15899999 112:0.31799999 113:0.31799999 114:0.31799999 115:0.31799999 116:1.272 117:0.477 118:0.31799999 119:0.31799999 120:0 121:0.15899999 122:0.15899999 123:0 124:0.15899999 125:0 126:0.31799999 127:0 128:0 129:0.15899999 130:0 131:0 132:0 133:0 134:0 135:0 136:0.15899999 137:0.31799999 138:0 139:0.15899999 140:0 141:0.31799999 142:0 143:0.15899999 144:0.31799999 145:0 146:0.31799999 147:0.15899999 148:0.15899999 149:0.15899999 150:0.31799999 151:0 152:0 153:0.31799999 154:0 155:0.31799999 156:0 157:0.15899999 158:0.15899999 159:0 160:0 161:0.15899999 162:0 163:0.63599998 164:0.63599998 165:0.15899999 166:0.63599998 167:0 168:0.15899999 169:0.31799999 170:0.15899999 171:0 172:0.477 173:0 174:0.15899999 175:0 176:0.31799999 177:0 178:0.63599998 179:0.15899999 180:0 181:1.113 182:0 183:0.477 184:1.113 185:0.63599998 186:0.63599998 187:0.15899999 188:0.15899999 189:0.79500002 190:3.1800001 191:0.15899999 192:0.477 193:1.272 194:1.272 195:0.31799999 196:1.59 197:0.477 198:0.63599998 199:0.15899999 200:0.31799999 201:0 202:0 203:0 204:0.31799999 205:0 206:0 207:0 208:0.15899999 209:0.15899999 210:0.477 211:0 212:0.15899999 213:0 214:0 215:0 216:0.31799999 217:0.15899999 218:0 219:0 220:0 221:0.63599998 222:0 223:0 224:0.31799999 225:0.31799999 226:0.15899999 227:0 228:0.15899999 229:0.15899999 230:0.31799999 231:0.15899999 232:0 233:0 234:0.15899999 235:0.15899999 236:0.31799999 237:0 238:0 239:0 240:0.15899999 241:0.79500002 242:0 243:0.15899999 244:0.31799999 245:0 246:1.272 247:0.15899999 248:0.15899999 249:0 250:0.31799999 251:0.31799999 252:0.31799999 253:0.31799999 254:0 255:0.31799999 256:0.15899999 257:0 258:0.31799999 259:0 260:0.15899999 261:0.79500002 262:0 263:0.15899999 264:0 265:0 266:0.31799999 267:0 268:0.31799999 269:0.31799999 270:0.63599998 271:0 272:0.477 273:0.63599998 274:0.15899999 275:0.15899999 276:0.31799999 277:0.31799999 278:0.31799999 279:0 280:0.15899999 281:0.15899999 282:0.15899999 283:0.15899999 284:0.31799999 285:0.31799999 286:0.15899999 287:0.15899999 288:0.15899999 289:0 290:0.954 291:0 292:0 293:0 294:0.15899999 295:0.15899999 296:0.31799999 297:0.15899999 298:0.15899999 299:0.31799999 300:0 301:1.113 302:0 303:0.954 304:0.63599998 305:0.477 306:0.477 307:0.31799999 308:0.477 309:0.63599998 310:1.59 311:0 312:0.15899999 313:0.31799999 314:0.477 315:0 316:0.954 317:0.477 318:0 319:0.31799999 320:0.477 321:0 322:0 323:0.15899999 324:0.15899999 325:0 326:1.113 327:0 328:0 329:0.477 330:0.15899999 331:0.15899999 332:0.15899999 333:0.31799999 334:0.63599998 335:0.15899999 336:0.31799999 337:0 338:0.31799999 339:0 340:0 341:0.79500002 342:0 343:0.477 344:0.15899999 345:0.15899999 346:0.15899999 347:0 348:0.31799999 349:0.63599998 350:0.31799999 351:0.15899999 352:0 353:0 354:0.15899999 355:0.477 356:0.31799999 357:0.477 358:0.477 359:0 360:0 361:0.15899999 362:0.15899999 363:0.31799999 364:0 365:0.15899999 366:0 367:0.15899999 368:0 369:0 370:0.477 371:0 372:0 373:0 374:0.15899999 375:0 376:0.15899999 377:0 378:0.15899999 379:0.15899999 380:0 381:0.15899999 382:0 383:0 384:0 385:0 386:0.15899999 387:0 388:0.15899999 389:0 390:0.477 391:0 392:0 393:0 394:0.15899999 395:0.31799999 396:0 397:0 398:0 399:0 400:0 #
-1.0224333739131750142803412018111 1:1.237 2:0 3:0.206 4:0.412 5:0.206 6:1.649 7:0 8:0.82499999 9:0.412 10:0.412 11:0.412 12:1.443 13:0 14:0.61900002 15:0 16:1.443 17:0.61900002 18:0.206 19:0 20:0 21:0 22:0 23:0 24:0 25:0 26:0 27:0 28:0 29:0 30:0 31:0 32:0 33:0 34:0 35:0 36:0 37:0 38:0 39:0 40:0 41:0.412 42:0 43:0.82499999 44:0.82499999 45:0.206 46:0 47:0.61900002 48:0 49:2.474 50:0.206 51:0 52:0.61900002 53:0 54:0.61900002 55:0.412 56:0.412 57:0.61900002 58:0.412 59:0 60:0 61:0.61900002 62:0 63:1.031 64:0.206 65:0 66:0.206 67:0.82499999 68:0 69:0.61900002 70:0.206 71:0 72:1.031 73:0.412 74:0.412 75:0.206 76:1.237 77:0.206 78:0 79:0 80:0 81:0.412 82:0 83:0 84:0.206 85:0 86:0.206 87:0 88:0 89:0.206 90:0 91:0 92:0 93:0.206 94:0 95:0 96:0 97:0 98:0 99:0 100:0 101:1.8559999 102:0 103:0 104:0 105:0 106:1.031 107:0 108:0 109:0.61900002 110:0.412 111:0.412 112:0.206 113:0 114:0.61900002 115:0 116:0.412 117:0.82499999 118:0.412 119:0 120:0.206 121:0.206 122:0 123:0.61900002 124:0.412 125:0 126:0 127:0.61900002 128:0 129:0 130:0 131:0 132:0.82499999 133:0.206 134:0.61900002 135:0 136:0.82499999 137:0.412 138:0 139:0 140:0 141:0.61900002 142:0 143:0.412 144:0.412 145:0.206 146:0.61900002 147:0 148:0.206 149:0.206 150:0 151:0 152:0 153:0.206 154:0.206 155:0.412 156:0 157:0 158:0.206 159:0 160:0 161:0.61900002 162:0 163:2.2679999 164:0.82499999 165:0 166:0.61900002 167:0.61900002 168:0.412 169:0.82499999 170:0 171:0 172:0.61900002 173:0.412 174:0.412 175:0.206 176:1.443 177:0 178:0.412 179:0 180:0 181:0.61900002 182:0 183:0 184:0.206 185:0 186:0 187:0 188:0.412 189:0 190:0.206 191:0 192:0.206 193:0.206 194:0 195:0 196:0.206 197:0 198:0 199:0 200:0.206 201:0.412 202:0 203:0.206 204:0 205:0 206:0.206 207:0 208:0 209:0 210:0 211:0 212:0 213:0 214:0 215:0 216:0.206 217:0 218:0 219:0 220:0 221:1.031 222:0 223:0.82499999 224:0.412 225:0.206 226:1.031 227:0.412 228:0.206 229:1.031 230:0.206 231:0 232:2.474 233:0 234:1.443 235:0.206 236:0.82499999 237:0.82499999 238:0.412 239:0 240:0 241:0 242:0 243:0 244:0.412 245:0 246:0 247:0.206 248:0.206 249:0.206 250:0.206 251:0 252:0 253:0.206 254:0.206 255:0.206 256:0.206 257:0 258:0 259:0 260:0.206 261:0.82499999 262:0 263:1.031 264:0.412 265:0.206 266:0.206 267:0.206 268:0.206 269:0 270:0 271:0 272:1.443 273:0.206 274:2.062 275:0.61900002 276:0.61900002 277:0.206 278:0.412 279:0 280:0.206 281:0.206 282:0 283:0.412 284:0 285:0 286:0 287:0.206 288:0.206 289:0.412 290:0 291:0 292:0.412 293:0 294:0.61900002 295:0.82499999 296:0 297:0 298:0 299:0 300:0 301:0.412 302:0 303:0.61900002 304:0.82499999 305:0 306:0.82499999 307:0.82499999 308:0.206 309:2.062 310:0 311:0 312:1.031 313:0.206 314:0.82499999 315:0 316:0.206 317:1.031 318:0 319:0 320:0 321:0.412 322:0 323:0.206 324:1.031 325:0 326:0.206 327:0 328:0.61900002 329:0.412 330:0 331:0 332:0.61900002 333:0.206 334:0 335:0 336:0.61900002 337:0 338:0.61900002 339:0 340:0 341:0.206 342:0 343:0 344:0.61900002 345:0 346:0 347:0.206 348:0.206 349:0.206 350:0.412 351:0 352:0.412 353:0 354:0.206 355:0 356:0.412 357:0.206 358:0 359:0 360:0 361:0 362:0 363:0 364:0 365:0 366:0 367:0 368:0 369:0 370:0 371:0 372:0 373:0 374:0 375:0 376:0 377:0 378:0 379:0 380:0 381:0 382:0 383:0 384:0 385:0.206 386:0.206 387:0 388:0 389:0 390:0 391:0 392:0.206 393:0 394:0 395:0.206 396:0 397:0 398:0 399:0 400:0.412 #
-0.32552001333309232844470670897863 1:0.229 2:0.458 3:0 4:0 5:1.1440001 6:0.458 7:0.458 8:0.458 9:0.229 10:0.229 11:0.458 12:0.229 13:0.68599999 14:0 15:0.229 16:0.458 17:0.458 18:0.68599999 19:0.458 20:0.229 21:0 22:0 23:0 24:0 25:0 26:0.458 27:0 28:0.229 29:0 30:0.458 31:0.229 32:0 33:0 34:0 35:0 36:0 37:0.458 38:0.229 39:0 40:0.458 41:0.229 42:0 43:0 44:0.229 45:0 46:0 47:0 48:0 49:0 50:0.229 51:0.229 52:0 53:0.229 54:0 55:0.229 56:0.458 57:0.458 58:0 59:0.229 60:0 61:0 62:0 63:0.229 64:0 65:0 66:0 67:0.229 68:0.458 69:0.68599999 70:0.458 71:0 72:0 73:0 74:0 75:0 76:0.458 77:0.229 78:0 79:0.229 80:0.229 81:0.91500002 82:0 83:0 84:0 85:0.68599999 86:0.68599999 87:0 88:1.373 89:0 90:0.68599999 91:0.458 92:0.229 93:0.91500002 94:0.458 95:0.458 96:0.458 97:0.91500002 98:0.91500002 99:0.229 100:0.229 101:0.68599999 102:0 103:0 104:0.68599999 105:0.91500002 106:0.458 107:0.229 108:0.229 109:0.68599999 110:1.373 111:0.229 112:0 113:0.229 114:0 115:0 116:0.68599999 117:0 118:0.91500002 119:0.229 120:0 121:0 122:0 123:0 124:0.458 125:0.229 126:0 127:0.229 128:0.229 129:0 130:0.229 131:0 132:0 133:0.229 134:0.229 135:0 136:0 137:0 138:0.68599999 139:0 140:0 141:0.68599999 142:0.229 143:0.458 144:0.458 145:1.602 146:0.91500002 147:0 148:0.458 149:0.458 150:1.602 151:0 152:0.229 153:0 154:0.229 155:0.229 156:0.229 157:0 158:0.229 159:0.229 160:0.68599999 161:0.68599999 162:0 163:0.458 164:0.229 165:0.229 166:0 167:0.229 168:0.229 169:0 170:0.229 171:0.229 172:0.229 173:0.458 174:0.229 175:0 176:0 177:0 178:0.229 179:0 180:0.229 181:1.373 182:0.458 183:0.229 184:0.458 185:1.373 186:0.458 187:0 188:0.458 189:1.1440001 190:1.1440001 191:0.458 192:0.458 193:0.229 194:0.229 195:0.229 196:0.458 197:0 198:0.229 199:0 200:0.229 201:0.68599999 202:0 203:0 204:0 205:0.68599999 206:0.458 207:0 208:0.458 209:0 210:0.458 211:0 212:0 213:0 214:0 215:0 216:0 217:0 218:0.91500002 219:0 220:0.229 221:0 222:0.229 223:0.229 224:0 225:0 226:0 227:0.458 228:0.229 229:0 230:0 231:0.229 232:0.229 233:0.229 234:0 235:0 236:0.458 237:0.458 238:0.68599999 239:0 240:0 241:0.91500002 242:0 243:0.229 244:0.229 245:0.229 246:0.458 247:0.229 248:0.229 249:0.229 250:0.458 251:0.229 252:0.458 253:1.373 254:0.229 255:0 256:0.458 257:0.229 258:0 259:0 260:0.229 261:0 262:0 263:0.229 264:0 265:0 266:0.229 267:0 268:0.229 269:0 270:0.229 271:0.229 272:0 273:0.229 274:0 275:0.458 276:0 277:0 278:0 279:0.229 280:0 281:0.458 282:0 283:0 284:0 285:0.68599999 286:0.229 287:0 288:0.229 289:0 290:0.229 291:0 292:0 293:0.458 294:0 295:0 296:0 297:0 298:0 299:0 300:0.229 301:0 302:0.229 303:0.229 304:0.458 305:0.68599999 306:0.229 307:0 308:0.229 309:0.229 310:0.458 311:0 312:0 313:0.229 314:0.229 315:0.229 316:0.458 317:1.1440001 318:0.229 319:0.458 320:0 321:0.229 322:0.229 323:0 324:0 325:0.68599999 326:0.91500002 327:0.229 328:1.1440001 329:0 330:0 331:0.229 332:0 333:0 334:0.229 335:0.229 336:0.229 337:0 338:0.229 339:0.229 340:0 341:0.229 342:0 343:0.229 344:0 345:0 346:1.1440001 347:0 348:0.91500002 349:0.229 350:0.458 351:0.229 352:0.91500002 353:0.229 354:0 355:0.229 356:0.68599999 357:0.229 358:0 359:0.229 360:0.68599999 361:0 362:0.229 363:0 364:0 365:0.458 366:0.229 367:0 368:0.458 369:0 370:0 371:0.229 372:0.458 373:0 374:0 375:0 376:0.229 377:0 378:0.458 379:0 380:0 381:0.229 382:0.458 383:0 384:0 385:0 386:0.229 387:0.229 388:0.68599999 389:0 390:0.68599999 391:0 392:0 393:0.68599999 394:0 395:0 396:0 397:0.229 398:0.229 399:0 400:0.229 #
-0.74482145114134001850914046372054 1:0.866 2:0.21600001 3:0 4:0.21600001 5:1.299 6:0.866 7:0 8:0.866 9:0 10:1.732 11:0.64899999 12:0.64899999 13:0.433 14:0 15:0.21600001 16:0.866 17:0.866 18:1.515 19:0.21600001 20:0 21:0 22:0 23:0 24:0 25:0 26:0.21600001 27:0 28:0 29:0 30:0.21600001 31:0 32:0 33:0 34:0 35:0 36:0 37:0 38:0.64899999 39:0 40:0 41:0 42:0 43:0 44:0.21600001 45:0 46:0.433 47:0 48:0 49:0 50:0.21600001 51:0 52:0 53:0.21600001 54:0.21600001 55:0.433 56:0 57:0.433 58:0.21600001 59:0.21600001 60:0 61:0.21600001 62:0 63:0.21600001 64:0 65:0 66:0.21600001 67:0 68:0 69:0 70:0.21600001 71:0 72:0 73:0 74:0.21600001 75:0.433 76:0 77:0 78:0 79:0 80:0 81:1.299 82:0.21600001 83:0 84:0 85:1.082 86:1.299 87:0 88:1.299 89:0 90:1.082 91:0.64899999 92:0.21600001 93:0.433 94:0.21600001 95:0.21600001 96:0.866 97:0.433 98:0 99:0.21600001 100:0.21600001 101:1.732 102:0 103:0 104:0 105:1.515 106:1.732 107:0.21600001 108:0.21600001 109:0 110:0.866 111:0.21600001 112:0.21600001 113:0.21600001 114:0.433 115:0.433 116:1.732 117:0.433 118:0.433 119:0 120:0 121:0 122:0 123:0 124:0 125:0 126:0 127:0 128:0 129:0 130:0.21600001 131:0 132:0 133:0 134:0 135:0 136:0.433 137:0 138:0 139:0 140:0 141:0.64899999 142:0 143:0 144:0 145:1.299 146:0.866 147:0 148:0.64899999 149:0.21600001 150:0.64899999 151:0.21600001 152:0 153:0.433 154:0 155:0 156:1.082 157:0.433 158:0 159:0.21600001 160:0 161:0.64899999 162:0 163:0 164:0.21600001 165:0 166:0 167:0 168:0 169:0.21600001 170:0.21600001 171:0 172:0 173:0 174:0.64899999 175:0.21600001 176:0 177:0.21600001 178:0.433 179:0 180:0 181:1.732 182:0.21600001 183:0 184:0 185:0.866 186:1.299 187:0 188:0.433 189:0.21600001 190:1.299 191:0.21600001 192:0.21600001 193:0.866 194:0.21600001 195:0.21600001 196:0.64899999 197:1.082 198:0.64899999 199:0.433 200:0.433 201:0.64899999 202:0 203:0.21600001 204:0 205:0 206:0.21600001 207:0 208:0.21600001 209:0.21600001 210:0.64899999 211:0 212:0.21600001 213:0 214:0.21600001 215:0.21600001 216:0.433 217:0 218:0.21600001 219:0 220:0 221:0.21600001 222:0 223:0.21600001 224:0 225:0.64899999 226:0.21600001 227:0 228:0.21600001 229:0 230:0.433 231:0.21600001 232:0 233:0 234:0 235:0 236:0 237:0 238:0 239:0 240:0 241:0.21600001 242:0.433 243:0.433 244:0.433 245:0.433 246:0 247:0 248:0.21600001 249:0.64899999 250:0.21600001 251:0 252:0 253:0 254:0 255:0 256:0.21600001 257:0.21600001 258:0.433 259:0 260:0.433 261:0 262:0 263:0.21600001 264:0 265:0.21600001 266:0.64899999 267:0 268:0.21600001 269:0.21600001 270:0.64899999 271:0.21600001 272:0 273:0.21600001 274:0.21600001 275:0.433 276:0 277:0 278:0 279:0 280:0.21600001 281:0.433 282:0 283:0 284:0.21600001 285:0 286:0.433 287:0.21600001 288:0.21600001 289:0.21600001 290:0.21600001 291:0 292:0.21600001 293:0.21600001 294:0 295:0.21600001 296:0.21600001 297:0 298:0.64899999 299:0.21600001 300:0 301:1.082 302:0 303:0.433 304:0 305:0.866 306:0.64899999 307:0.21600001 308:0.433 309:0.64899999 310:0.866 311:0.21600001 312:0 313:0.21600001 314:0.21600001 315:0.21600001 316:0.64899999 317:0.64899999 318:1.082 319:0.21600001 320:0 321:0.866 322:0 323:0.866 324:0.21600001 325:0.433 326:0.64899999 327:0 328:0.21600001 329:0 330:0.433 331:0.21600001 332:0 333:0.21600001 334:0.21600001 335:0.21600001 336:0.433 337:0.21600001 338:0 339:0.21600001 340:0 341:0.433 342:0 343:0 344:0 345:0.866 346:0.433 347:0 348:0.64899999 349:0.433 350:0.21600001 351:0.21600001 352:0.433 353:0.866 354:0.433 355:0 356:0.64899999 357:0.21600001 358:0.433 359:0.433 360:0.21600001 361:0.21600001 362:0 363:0 364:0 365:0.21600001 366:0 367:0 368:0.64899999 369:0 370:0.21600001 371:0.21600001 372:0 373:0 374:0.21600001 375:0.21600001 376:0 377:0.21600001 378:0.21600001 379:0 380:0 381:0.21600001 382:0 383:0 384:0 385:0 386:0.21600001 387:0 388:0.21600001 389:0 390:0.433 391:0 392:0 393:0 394:0 395:0 396:0.433 397:0 398:0 399:0 400:0 #
-1.067745575323642670539925347839 1:0.345 2:0 3:0.23 4:0.46000001 5:0.115 6:0.23 7:0 8:0.345 9:0.57499999 10:0.345 11:0.115 12:0.115 13:0.69 14:0 15:0 16:1.609 17:0.57499999 18:0.46000001 19:0 20:0 21:0 22:0 23:0 24:0.115 25:0 26:0 27:0.115 28:0 29:0 30:0 31:0 32:0 33:0 34:0 35:0 36:0 37:0 38:0 39:0 40:0 41:0.23 42:0.115 43:0.23 44:0.69 45:0.115 46:0.23 47:0 48:0.345 49:0.23 50:0.23 51:0.23 52:0.115 53:0.23 54:0 55:0.115 56:1.3789999 57:0.115 58:0.115 59:0.115 60:0.23 61:0.46000001 62:0 63:0.345 64:0.57499999 65:0.115 66:0.57499999 67:0 68:0.23 69:0.46000001 70:0.80500001 71:0 72:0.57499999 73:0.46000001 74:0.345 75:0.23 76:0.345 77:0.23 78:0.345 79:0.115 80:0.115 81:0.23 82:0 83:0.115 84:0.115 85:0 86:0.345 87:0 88:0 89:0 90:0.115 91:0 92:0.345 93:0.46000001 94:0 95:0 96:0.115 97:0.345 98:0.345 99:0 100:0 101:0.23 102:0 103:0.115 104:0.345 105:0.115 106:0.345 107:0 108:0.23 109:0.69 110:0.80500001 111:0 112:0.345 113:0.23 114:0 115:0.23 116:0.46000001 117:0.345 118:0.23 119:0.23 120:0 121:0 122:0 123:0 124:0 125:0 126:0.115 127:0 128:0 129:0 130:0 131:0 132:0 133:0 134:0 135:0.23 136:0.46000001 137:0 138:0.115 139:0 140:0.115 141:0.115 142:0 143:0.57499999 144:0.345 145:0.23 146:0.23 147:0 148:0 149:0.345 150:0.345 151:0 152:0.115 153:0.57499999 154:0.23 155:0 156:1.034 157:0.46000001 158:0.23 159:0 160:0 161:0.57499999 162:0 163:0.345 164:0.69 165:0.115 166:0.69 167:0 168:0.345 169:0.46000001 170:0.345 171:0.115 172:0.23 173:0.23 174:0.345 175:0.57499999 176:1.034 177:0.46000001 178:0.345 179:0 180:0.115 181:0.23 182:0 183:0.57499999 184:0.23 185:0 186:0.345 187:0.23 188:0.57499999 189:0.92000002 190:0.46000001 191:0.115 192:0.46000001 193:0.80500001 194:0.115 195:0.345 196:1.2640001 197:0.345 198:0.115 199:0 200:0.345 201:0.115 202:0 203:0.115 204:0 205:0.23 206:0 207:0 208:0.115 209:0.115 210:0 211:0 212:0.115 213:0.345 214:0 215:0.115 216:0.23 217:0.115 218:0 219:0 220:0 221:0.345 222:0 223:0.46000001 224:0.57499999 225:0.345 226:0.115 227:0 228:0.23 229:0.23 230:0.345 231:0.23 232:0.46000001 233:0 234:0.23 235:0.345 236:0.46000001 237:0.23 238:0.46000001 239:0.115 240:0.115 241:0.92000002 242:0 243:0.23 244:0.23 245:0 246:0.46000001 247:0 248:0.57499999 249:0.46000001 250:0.80500001 251:0 252:0.345 253:0.80500001 254:0.345 255:0.115 256:2.184 257:0.80500001 258:0.345 259:0 260:0.23 261:0 262:0 263:0 264:0.115 265:0.115 266:0.23 267:0 268:0 269:0.345 270:0.115 271:0 272:0.345 273:0.345 274:0.115 275:0.115 276:0.345 277:0 278:0 279:0 280:0.115 281:0 282:0 283:0.23 284:0.115 285:0.345 286:0.23 287:0 288:0 289:0.46000001 290:0.345 291:0.115 292:0.115 293:0.69 294:0.115 295:0.115 296:0.80500001 297:0.23 298:0.115 299:0.115 300:0.23 301:1.3789999 302:0 303:0.92000002 304:0.57499999 305:0.345 306:0.23 307:0.345 308:1.034 309:1.2640001 310:1.2640001 311:0.23 312:1.149 313:1.724 314:0.345 315:1.149 316:4.368 317:0.92000002 318:1.034 319:0 320:0.23 321:0.46000001 322:0.115 323:0.46000001 324:0.345 325:0.115 326:0.345 327:0 328:0.46000001 329:0.46000001 330:0.115 331:0 332:0 333:0.46000001 334:0.115 335:0.57499999 336:1.494 337:0.23 338:0.115 339:0 340:0 341:0.345 342:0 343:0.115 344:0.46000001 345:0 346:0.115 347:0.115 348:0.23 349:0 350:0.80500001 351:0.23 352:0.23 353:0.69 354:0 355:0.115 356:0.57499999 357:0.46000001 358:0.115 359:0.115 360:0 361:0 362:0 363:0 364:0.115 365:0 366:0 367:0 368:0 369:0.115 370:0.115 371:0.115 372:0.115 373:0 374:0 375:0 376:0.23 377:0 378:0 379:0.115 380:0 381:0.23 382:0 383:0 384:0.23 385:0.23 386:0.115 387:0.23 388:0.115 389:0 390:0.115 391:0 392:0.115 393:0.115 394:0 395:0 396:0.115 397:0 398:0.23 399:0 400:0.115 #
4.9116296464887563288925775850657 1:1.016 2:0 3:0.30500001 4:0.40700001 5:0.20299999 6:0.30500001 7:0.102 8:0.102 9:0.30500001 10:0.40700001 11:0.102 12:0.30500001 13:0.40700001 14:0.30500001 15:0.102 16:1.423 17:0.102 18:0.50800002 19:0 20:0 21:0 22:0 23:0 24:0 25:0 26:0 27:0.102 28:0 29:0 30:0.20299999 31:0 32:0.102 33:0.102 34:0 35:0 36:0.102 37:0 38:0 39:0 40:0 41:0.20299999 42:0 43:0.20299999 44:0.20299999 45:0.30500001 46:0.40700001 47:0.30500001 48:0.20299999 49:0.40700001 50:0.71100003 51:0.102 52:0 53:0.30500001 54:0.20299999 55:0.61000001 56:0.61000001 57:0.20299999 58:0.30500001 59:0 60:0.20299999 61:0.102 62:0.102 63:0.61000001 64:1.016 65:0.20299999 66:0.30500001 67:0.20299999 68:0.102 69:0.61000001 70:0.81300002 71:0.102 72:0.20299999 73:0.40700001 74:0.30500001 75:0.40700001 76:0.50800002 77:0.30500001 78:0.40700001 79:0.102 80:0.102 81:0.102 82:0 83:0.20299999 84:0.102 85:0.102 86:0.50800002 87:0 88:0 89:0.102 90:0.20299999 91:0.102 92:0.30500001 93:0 94:0.20299999 95:0.20299999 96:0.30500001 97:0.20299999 98:0 99:0 100:0.20299999 101:0 102:0.102 103:0.61000001 104:0.30500001 105:0.40700001 106:0.40700001 107:0 108:0.20299999 109:0.20299999 110:0.91500002 111:0.20299999 112:0.20299999 113:0.30500001 114:0.50800002 115:0.50800002 116:0.91500002 117:0.20299999 118:0.50800002 119:0 120:0 121:0.30500001 122:0 123:0.102 124:0.102 125:0 126:0 127:0 128:0 129:0.102 130:0.50800002 131:0.102 132:0 133:0.40700001 134:0.20299999 135:0.40700001 136:0.30500001 137:0 138:0.20299999 139:0 140:0 141:0 142:0 143:0 144:0.20299999 145:0 146:0.20299999 147:0 148:0.102 149:0.102 150:0.61000001 151:0 152:0 153:0.30500001 154:0 155:0.102 156:0.30500001 157:0.20299999 158:0.20299999 159:0 160:0 161:0.50800002 162:0.102 163:0.50800002 164:1.118 165:0 166:0.20299999 167:0 168:0.102 169:0.30500001 170:0.30500001 171:0.102 172:0.20299999 173:0.40700001 174:0.102 175:0.30500001 176:0.20299999 177:0.102 178:0.61000001 179:0.20299999 180:0.102 181:0.91500002 182:0 183:0.50800002 184:1.321 185:0 186:0.81300002 187:0.30500001 188:0 189:0.71100003 190:1.016 191:0.20299999 192:0.102 193:0.91500002 194:0.81300002 195:0.50800002 196:1.524 197:0.102 198:0.40700001 199:0 200:0.102 201:0.102 202:0 203:0.20299999 204:0 205:0 206:0.20299999 207:0.102 208:0.102 209:0.102 210:0.30500001 211:0 212:0 213:0.102 214:0 215:0.102 216:0.30500001 217:0.102 218:0.20299999 219:0 220:0.102 221:0 222:0 223:0.102 224:0.102 225:0.102 226:0.102 227:0 228:0.102 229:0.30500001 230:0.40700001 231:0 232:0.102 233:0.20299999 234:0 235:0.30500001 236:0.40700001 237:0 238:0.102 239:0 240:0.102 241:1.22 242:0.102 243:0 244:0.30500001 245:0.40700001 246:0.91500002 247:0.61000001 248:0.40700001 249:0.30500001 250:1.016 251:0.20299999 252:0 253:0.40700001 254:0.50800002 255:0.40700001 256:1.22 257:0.61000001 258:0.71100003 259:0 260:0 261:0.40700001 262:0 263:0.102 264:0.30500001 265:0 266:0.30500001 267:0.102 268:0 269:0.20299999 270:0.61000001 271:0.102 272:0.20299999 273:0.61000001 274:0.71100003 275:0.91500002 276:0.20299999 277:0.30500001 278:0.40700001 279:0 280:0 281:0.20299999 282:0 283:0.71100003 284:0.30500001 285:0.20299999 286:0.102 287:0 288:0.40700001 289:0.40700001 290:0.30500001 291:0.102 292:0.30500001 293:0.91500002 294:0.30500001 295:1.016 296:1.016 297:0.40700001 298:0.30500001 299:0.102 300:0.20299999 301:0.81300002 302:0.20299999 303:0.40700001 304:0.30500001 305:0.20299999 306:1.321 307:0.50800002 308:0.102 309:0.71100003 310:0.81300002 311:0.40700001 312:0.20299999 313:1.524 314:0.71100003 315:0.71100003 316:1.626 317:0.40700001 318:0.81300002 319:0 320:0.102 321:0.40700001 322:0 323:0.102 324:0.20299999 325:0.102 326:0.30500001 327:0 328:0.102 329:0.30500001 330:0.30500001 331:0.102 332:0.20299999 333:0.91500002 334:0.102 335:0.30500001 336:0.40700001 337:0.40700001 338:0 339:0 340:0 341:0.102 342:0 343:0.61000001 344:0.50800002 345:0.20299999 346:0.102 347:0.30500001 348:0.30500001 349:0.30500001 350:0.71100003 351:0 352:0 353:0.91500002 354:0.50800002 355:0.20299999 356:0.50800002 357:0.30500001 358:0.20299999 359:0.102 360:0 361:0 362:0 363:0.102 364:0 365:0.30500001 366:0 367:0.102 368:0 369:0 370:0 371:0 372:0 373:0 374:0 375:0 376:0 377:0 378:0 379:0 380:0 381:0 382:0 383:0.102 384:0.102 385:0.102 386:0 387:0 388:0 389:0 390:0.102 391:0 392:0 393:0.20299999 394:0.102 395:0.20299999 396:0 397:0.30500001 398:0 399:0 400:0 #
4.9116296464887563288925775850657 1:0.42699999 2:0.213 3:0.42699999 4:0.42699999 5:0.107 6:0.53399998 7:0 8:0.31999999 9:0.53399998 10:0.85399997 11:0.107 12:0.31999999 13:0.63999999 14:0.53399998 15:0.107 16:0.85399997 17:0.31999999 18:1.281 19:0 20:0 21:0.107 22:0 23:0.107 24:0.107 25:0 26:0 27:0.107 28:0.213 29:0.31999999 30:0.31999999 31:0 32:0.107 33:0 34:0 35:0 36:0.107 37:0.107 38:0 39:0 40:0.107 41:0 42:0 43:0.213 44:0 45:0.31999999 46:0.31999999 47:0 48:0.31999999 49:0.107 50:0.74699998 51:0 52:0.107 53:0.42699999 54:0.107 55:0.107 56:0.42699999 57:0.42699999 58:0.63999999 59:0.107 60:0.42699999 61:0.74699998 62:0.213 63:0.107 64:0.63999999 65:0.42699999 66:0 67:0 68:0.42699999 69:0.213 70:0.42699999 71:0.42699999 72:0.213 73:0.42699999 74:0.107 75:0.31999999 76:0.213 77:0.53399998 78:0.42699999 79:0 80:0.107 81:0.213 82:0 83:0 84:0.31999999 85:0.213 86:0.31999999 87:0.107 88:0.42699999 89:0.31999999 90:0.31999999 91:0.107 92:0.107 93:0.213 94:0.31999999 95:0.213 96:0.213 97:0.213 98:0.42699999 99:0 100:0.107 101:0.31999999 102:0.107 103:0.63999999 104:0.213 105:0.107 106:0.63999999 107:0.213 108:0.107 109:0 110:0.53399998 111:0.107 112:0.213 113:0.31999999 114:0.107 115:0.213 116:0.31999999 117:0.107 118:0.213 119:0 120:0.42699999 121:0 122:0.107 123:0.213 124:0.213 125:0 126:0 127:0.107 128:0.107 129:0 130:0.31999999 131:0.107 132:0 133:0.107 134:0 135:0.107 136:0.213 137:0.107 138:0 139:0 140:0 141:0.31999999 142:0.107 143:0.213 144:0.213 145:0.31999999 146:0.42699999 147:0.213 148:0.31999999 149:0.31999999 150:0.74699998 151:0 152:0.42699999 153:0.107 154:0.42699999 155:0.53399998 156:0.42699999 157:0.31999999 158:0.42699999 159:0 160:0 161:0.53399998 162:0 163:0.107 164:0.213 165:0.42699999 166:0.31999999 167:0.107 168:0.213 169:0.63999999 170:0.42699999 171:0 172:0.53399998 173:0.107 174:0.31999999 175:0.213 176:0.31999999 177:0.63999999 178:0.31999999 179:0 180:0.213 181:1.281 182:0.31999999 183:0.107 184:0.74699998 185:0.53399998 186:0.74699998 187:0.213 188:0.85399997 189:0.53399998 190:1.921 191:0 192:0.74699998 193:0.107 194:0.96100003 195:0.74699998 196:0.85399997 197:0.213 198:0.63999999 199:0 200:0.213 201:0.213 202:0.213 203:0.213 204:0.107 205:0.107 206:0.213 207:0 208:0 209:0 210:0.107 211:0 212:0 213:0.213 214:0 215:0.107 216:0 217:0 218:0 219:0 220:0.107 221:0.63999999 222:0.107 223:0.213 224:0 225:0.31999999 226:0.213 227:0 228:0.42699999 229:0.42699999 230:1.281 231:0 232:0.213 233:0.42699999 234:0.213 235:0.213 236:0.213 237:0 238:0.213 239:0 240:0 241:0.74699998 242:0 243:0.213 244:0.42699999 245:0.107 246:0.107 247:0 248:0.107 249:0.213 250:0.213 251:0.213 252:0.31999999 253:0.74699998 254:0.107 255:0.107 256:0.42699999 257:0.63999999 258:0.31999999 259:0.107 260:0 261:0.213 262:0.107 263:0.31999999 264:0.213 265:0.53399998 266:0.107 267:0.31999999 268:0.53399998 269:0.107 270:0.42699999 271:0.107 272:0.31999999 273:0.107 274:0.42699999 275:0.42699999 276:0.107 277:0.213 278:0.213 279:0 280:0 281:0.42699999 282:0 283:0.213 284:0.53399998 285:0.107 286:0.213 287:0 288:0.31999999 289:0 290:0.96100003 291:0.107 292:0.213 293:0 294:0.213 295:0 296:0.53399998 297:0.213 298:0.213 299:0.107 300:0.31999999 301:0.74699998 302:0 303:0.42699999 304:0.74699998 305:0 306:0.107 307:0.107 308:0.31999999 309:0.74699998 310:0.31999999 311:0.107 312:0.53399998 313:0.31999999 314:0.31999999 315:0.53399998 316:0.53399998 317:0.85399997 318:0.74699998 319:0 320:0.107 321:0.213 322:0 323:0.31999999 324:0.63999999 325:0.213 326:0.107 327:0.107 328:0.31999999 329:0.42699999 330:0.53399998 331:0.107 332:0.213 333:0.213 334:0.213 335:0.107 336:0.85399997 337:0.213 338:0.74699998 339:0.107 340:0.213 341:0.53399998 342:0.213 343:0.74699998 344:0.213 345:0.31999999 346:0.31999999 347:0.107 348:0.31999999 349:0.63999999 350:0.74699998 351:0 352:0.53399998 353:0.53399998 354:0.42699999 355:0.31999999 356:0.74699998 357:0.31999999 358:0.31999999 359:0.107 360:0 361:0 362:0 363:0 364:0 365:0 366:0 367:0 368:0 369:0.107 370:0.107 371:0 372:0 373:0 374:0 375:0 376:0 377:0.107 378:0 379:0 380:0.213 381:0.31999999 382:0 383:0 384:0 385:0.107 386:0.213 387:0 388:0.213 389:0 390:0.42699999 391:0 392:0 393:0.107 394:0 395:0.31999999 396:0.213 397:0.31999999 398:0.31999999 399:0 400:0.107 #
4.9116296464887563288925775850657 1:0 2:0.221 3:0 4:1.549 5:0.442 6:1.1059999 7:0 8:0 9:0.66399997 10:0.88499999 11:0 12:0.221 13:0.442 14:0 15:0.442 16:0.442 17:0.221 18:0.221 19:0 20:0.221 21:0.221 22:0 23:0.221 24:0 25:0 26:0 27:0 28:0 29:0.221 30:0 31:0 32:0 33:0.221 34:0 35:0.221 36:0 37:0 38:0 39:0 40:0 41:0.221 42:0 43:0 44:0.66399997 45:0.442 46:0 47:0 48:0.221 49:0 50:0.66399997 51:0 52:0.442 53:0.221 54:0.442 55:0.221 56:0.66399997 57:0.66399997 58:0.66399997 59:0.221 60:0 61:1.549 62:0 63:0.221 64:1.327 65:0 66:0.221 67:0 68:0 69:1.549 70:1.77 71:0 72:0 73:0.442 74:0.442 75:0.88499999 76:0.66399997 77:0 78:0.88499999 79:0.221 80:0 81:0.221 82:0 83:0.221 84:0 85:0 86:0 87:0 88:0 89:0.221 90:0.442 91:0.221 92:0.221 93:0 94:0.221 95:0 96:0.221 97:0.221 98:0 99:0.221 100:0.221 101:0.221 102:0 103:0.442 104:0.442 105:0.221 106:0.66399997 107:0 108:0.221 109:0.221 110:0.88499999 111:0 112:0 113:0.221 114:0 115:0 116:0.221 117:0 118:1.327 119:0 120:0 121:0.221 122:0 123:0 124:0 125:0.221 126:0 127:0 128:0 129:0 130:0 131:0 132:0 133:0.221 134:0 135:0 136:0.221 137:0 138:0 139:0 140:0 141:0 142:0 143:0 144:0.221 145:0 146:0 147:0 148:0 149:0 150:0.442 151:0 152:0 153:0 154:0.221 155:0 156:0.442 157:0 158:0.221 159:0 160:0.221 161:0.66399997 162:0 163:0.221 164:1.1059999 165:0.221 166:0.221 167:0 168:0.221 169:0.221 170:0.66399997 171:0.221 172:0 173:0.442 174:0.442 175:0.88499999 176:0.221 177:0 178:0.66399997 179:0.221 180:0 181:0.66399997 182:0.442 183:1.1059999 184:1.1059999 185:0.221 186:0.442 187:0.221 188:0 189:1.327 190:1.549 191:0.221 192:0 193:0.442 194:1.327 195:0.88499999 196:2.2119999 197:0 198:1.1059999 199:0 200:0.221 201:0.221 202:0 203:0 204:0 205:0 206:0.221 207:0 208:0 209:0.221 210:0.221 211:0 212:0 213:0 214:0.221 215:0 216:0.221 217:0 218:0.221 219:0.221 220:0 221:0.221 222:0 223:0.221 224:0 225:0 226:0.442 227:0 228:0 229:0.221 230:0 231:0.221 232:0 233:0.442 234:0 235:0.221 236:0.88499999 237:0 238:0 239:0 240:0 241:0.66399997 242:0 243:0.442 244:0.442 245:0 246:0 247:0 248:0 249:0.221 250:1.327 251:0 252:0.221 253:0.221 254:0 255:0.66399997 256:0.221 257:0.221 258:0.442 259:0 260:0 261:0.221 262:0 263:0.66399997 264:0.66399997 265:0 266:0.442 267:0 268:0.221 269:0.221 270:1.1059999 271:0.221 272:0.442 273:0 274:0 275:0.66399997 276:0.221 277:0.442 278:0 279:0 280:0 281:0.66399997 282:0.221 283:0.221 284:0.66399997 285:0 286:0.442 287:0.221 288:0.66399997 289:0.442 290:0.66399997 291:0.221 292:0.221 293:0 294:0.442 295:0.66399997 296:0.442 297:0.442 298:0.221 299:0 300:0 301:0.221 302:0.221 303:0.442 304:0.88499999 305:0.221 306:0 307:0.442 308:0 309:0.442 310:0.88499999 311:0.221 312:0.221 313:0.88499999 314:0.66399997 315:0.66399997 316:0.66399997 317:0.442 318:0.66399997 319:0.442 320:0 321:0 322:0 323:0.442 324:0.221 325:0.221 326:0 327:0 328:0 329:0.221 330:0.88499999 331:0 332:0.442 333:0 334:0.221 335:0 336:0 337:0.221 338:0.88499999 339:0 340:0 341:0.442 342:0 343:0.66399997 344:0.66399997 345:0.442 346:0.66399997 347:0 348:0 349:0.221 350:1.1059999 351:0 352:0.442 353:0.88499999 354:0.221 355:0.221 356:0.442 357:0.66399997 358:0.442 359:0 360:0.442 361:0.221 362:0 363:0.221 364:0.221 365:0 366:0.221 367:0 368:0.221 369:0 370:0 371:0 372:0 373:0 374:0 375:0 376:0.221 377:0.221 378:0 379:0 380:0 381:0.221 382:0 383:0 384:0 385:0 386:0 387:0 388:0 389:0 390:0.221 391:0 392:0 393:0 394:0.66399997 395:0.221 396:0 397:0 398:0 399:0 400:0 #
4.506982821716661646860302425921 1:0.43099999 2:0 3:0.86199999 4:1.724 5:0.43099999 6:0 7:0 8:0.86199999 9:0.86199999 10:1.293 11:0.43099999 12:0.43099999 13:0 14:0 15:0.86199999 16:0 17:0 18:0.43099999 19:0 20:0 21:0 22:0 23:0.43099999 24:0 25:0 26:0 27:0 28:0 29:0.43099999 30:0 31:0 32:0 33:0 34:0 35:0 36:0 37:0 38:0 39:0 40:0 41:0.43099999 42:0 43:0 44:0.43099999 45:0.43099999 46:0.43099999 47:0.43099999 48:0 49:0 50:0.43099999 51:0 52:0.43099999 53:0 54:0 55:0 56:0.43099999 57:0.43099999 58:0.86199999 59:0 60:0 61:0 62:0 63:0 64:0 65:0 66:0.86199999 67:0 68:0.43099999 69:0 70:1.724 71:1.293 72:0.43099999 73:0.43099999 74:0 75:0.43099999 76:0 77:0 78:0 79:0 80:0 81:0 82:0 83:0 84:0 85:0 86:0 87:0.43099999 88:0.43099999 89:0 90:0.43099999 91:0 92:0.43099999 93:0 94:0.43099999 95:0 96:0.43099999 97:0.43099999 98:0 99:0 100:0 101:0.43099999 102:0 103:0.43099999 104:1.724 105:0.43099999 106:0.86199999 107:0 108:0 109:0.86199999 110:0.86199999 111:0 112:0.43099999 113:0 114:0.43099999 115:0.43099999 116:1.293 117:0.43099999 118:0 119:0 120:0 121:0 122:0 123:0.43099999 124:0 125:0 126:0 127:0.43099999 128:0 129:0 130:0.86199999 131:0 132:0.43099999 133:0 134:0 135:0.86199999 136:0 137:0 138:0 139:0 140:0 141:0.43099999 142:0 143:0 144:0 145:0.86199999 146:0.43099999 147:0 148:0 149:0 150:0.43099999 151:0 152:0.43099999 153:0 154:0 155:0 156:0 157:0 158:0.43099999 159:0 160:0.43099999 161:0.86199999 162:0 163:0 164:0 165:0 166:0 167:0 168:0.43099999 169:0.86199999 170:0.86199999 171:0 172:0 173:0.43099999 174:0 175:0.86199999 176:0.43099999 177:0 178:0 179:0 180:0 181:0.86199999 182:0.43099999 183:1.293 184:1.293 185:0 186:1.293 187:0.86199999 188:0.43099999 189:0.43099999 190:2.586 191:0.43099999 192:0.43099999 193:0.43099999 194:1.293 195:0.43099999 196:1.293 197:0.43099999 198:1.293 199:0 200:0 201:0.43099999 202:0 203:0 204:0 205:0 206:0.43099999 207:0 208:0 209:0 210:0.43099999 211:0.43099999 212:0.43099999 213:0.43099999 214:0 215:0.43099999 216:0.86199999 217:0 218:0 219:0 220:0 221:0.43099999 222:0 223:0 224:0 225:0 226:0.43099999 227:0.43099999 228:0 229:0.43099999 230:0.86199999 231:0 232:0.43099999 233:0.43099999 234:0.43099999 235:0.43099999 236:0.43099999 237:0 238:0.86199999 239:0 240:0 241:0.43099999 242:0 243:0.43099999 244:0 245:0 246:0 247:0 248:0 249:0 250:0.43099999 251:0.43099999 252:0 253:0 254:0 255:0.43099999 256:0.43099999 257:0.86199999 258:0 259:0 260:0 261:0 262:0.43099999 263:0 264:0.43099999 265:0.43099999 266:0.43099999 267:0 268:0 269:0.43099999 270:1.293 271:0 272:0 273:0.43099999 274:0 275:0.43099999 276:0 277:0.43099999 278:0 279:0 280:0 281:1.293 282:0 283:0.43099999 284:0 285:0 286:0 287:0 288:0 289:0 290:1.293 291:0.43099999 292:0.86199999 293:0.43099999 294:0.86199999 295:0 296:0 297:0 298:0.43099999 299:0 300:0.43099999 301:0.43099999 302:0 303:0 304:0.43099999 305:0.43099999 306:1.724 307:0 308:0.43099999 309:0.43099999 310:0.43099999 311:0 312:0 313:0 314:0 315:0.86199999 316:0.86199999 317:0.43099999 318:0.86199999 319:0 320:0 321:1.293 322:0 323:0.43099999 324:0 325:0 326:0.43099999 327:0.43099999 328:0 329:0 330:0.43099999 331:0 332:0 333:0.43099999 334:0 335:0 336:0.43099999 337:0 338:0 339:0 340:0 341:0.86199999 342:0 343:0 344:0 345:0 346:1.293 347:0 348:0.43099999 349:0 350:0.86199999 351:0 352:0.43099999 353:0 354:0.43099999 355:0 356:0.43099999 357:0.43099999 358:0.43099999 359:0 360:0 361:0 362:0 363:0 364:0 365:0 366:0 367:0 368:0 369:0 370:0 371:0 372:0 373:0 374:0 375:0 376:0 377:0 378:0 379:0 380:0 381:0 382:0 383:0 384:0 385:0 386:0 387:0 388:0 389:0 390:0 391:0 392:0 393:0 394:0.86199999 395:0 396:0 397:0 398:0 399:0 400:0 #
1.1293787489158453318793817743426 1:0.48699999 2:0 3:0.122 4:0.36500001 5:2.5550001 6:0.73000002 7:0 8:0.122 9:2.3110001 10:0.36500001 11:0 12:0.97299999 13:0.243 14:0.48699999 15:0 16:0.60799998 17:0.60799998 18:0.122 19:0 20:0.122 21:0 22:0 23:0 24:0 25:0 26:0 27:0 28:0 29:0 30:0 31:0 32:0 33:0 34:0 35:0 36:0 37:0 38:0 39:0 40:0 41:0.60799998 42:0 43:0.60799998 44:1.3380001 45:0 46:0.60799998 47:0 48:0.122 49:0.48699999 50:0.122 51:0 52:0.852 53:0 54:0.36500001 55:0 56:0.48699999 57:0.122 58:0.243 59:0 60:0 61:0.243 62:0 63:0.36500001 64:0.60799998 65:0 66:0.122 67:0.122 68:0.122 69:1.46 70:0.243 71:0 72:0.60799998 73:0.36500001 74:0.36500001 75:0.122 76:0.48699999 77:0.36500001 78:0.122 79:0 80:0 81:0 82:0 83:0.122 84:0.243 85:0 86:4.0149999 87:0 88:0 89:0 90:0.122 91:0 92:0.60799998 93:0 94:0 95:0 96:2.3110001 97:0.122 98:0 99:0 100:0 101:2.9200001 102:0 103:0.36500001 104:0.122 105:0.243 106:0.73000002 107:0 108:0 109:0.243 110:0.122 111:0 112:0.852 113:0 114:0.122 115:0 116:1.217 117:0.97299999 118:0 119:0 120:0 121:0 122:0 123:0 124:0 125:0.243 126:0 127:0 128:0 129:0 130:0 131:0 132:0 133:0 134:0 135:0 136:0.122 137:0 138:0 139:0 140:0 141:0 142:0 143:0.243 144:0.122 145:0 146:0 147:0 148:0 149:0.243 150:0.122 151:0 152:0.48699999 153:0 154:0.122 155:0 156:0.243 157:0.122 158:0.122 159:0 160:0 161:0.48699999 162:0 163:0.852 164:0.243 165:0 166:0.122 167:0 168:0.36500001 169:1.46 170:0.122 171:0 172:0.36500001 173:3.5280001 174:0.36500001 175:0.122 176:1.46 177:1.217 178:0 179:0.122 180:0 181:0 182:0 183:0.60799998 184:0.243 185:0.36500001 186:0.122 187:0 188:0.243 189:0.243 190:0.122 191:0 192:0.48699999 193:0 194:0.122 195:0.122 196:0.60799998 197:0.122 198:0.243 199:0 200:0.122 201:0.122 202:0 203:0 204:0 205:0 206:0 207:0 208:0 209:0 210:0 211:0 212:0.122 213:0 214:0 215:0 216:0 217:0 218:0 219:0 220:0 221:0.36500001 222:0 223:0.36500001 224:1.217 225:0.48699999 226:0.122 227:0 228:0.243 229:1.217 230:0.36500001 231:0 232:2.1900001 233:0.243 234:0.243 235:0 236:2.1900001 237:1.46 238:0.243 239:0 240:0 241:2.7980001 242:0 243:0.36500001 244:0.48699999 245:0.122 246:0 247:0 248:0 249:0 250:0 251:0 252:0.122 253:0 254:0.122 255:0 256:0.36500001 257:0.48699999 258:0.243 259:0 260:0 261:0.243 262:0 263:0.36500001 264:0 265:0 266:0 267:0 268:0.243 269:0.36500001 270:0.48699999 271:0 272:0.36500001 273:0.122 274:0.48699999 275:0 276:0.243 277:0.243 278:0.122 279:0 280:0.243 281:0 282:0 283:0 284:0 285:0 286:0 287:0 288:0 289:0 290:0 291:0 292:0 293:0 294:0.243 295:0 296:0.122 297:0 298:0 299:0 300:0 301:0.852 302:0 303:1.3380001 304:0 305:2.7980001 306:0.36500001 307:0.243 308:0.243 309:1.825 310:1.217 311:0 312:1.7029999 313:0 314:0.48699999 315:0 316:2.1900001 317:1.095 318:0.122 319:0.122 320:0 321:1.095 322:0 323:0.122 324:0.48699999 325:0.60799998 326:0.852 327:0 328:0 329:0.73000002 330:0.243 331:0 332:1.095 333:0.60799998 334:0 335:0 336:1.3380001 337:1.217 338:0.122 339:0 340:0 341:0 342:0 343:0 344:0.243 345:0.122 346:0.122 347:0 348:0 349:0.243 350:0.122 351:0.122 352:0.122 353:0 354:0 355:0 356:0.48699999 357:0.122 358:0.122 359:0 360:0 361:0 362:0 363:0.122 364:0 365:0 366:0 367:0 368:0 369:0 370:0 371:0 372:0 373:0 374:0 375:0 376:0 377:0.122 378:0 379:0 380:0 381:0 382:0 383:0 384:0 385:0 386:0 387:0 388:0.122 389:0.122 390:0 391:0 392:0 393:0 394:0 395:0 396:0.122 397:0.122 398:0 399:0 400:0 #
-1.067745575323642670539925347839 1:0.46000001 2:0.030999999 3:0.24600001 4:1.136 5:0.153 6:0.24600001 7:0.030999999 8:0.215 9:0.491 10:0.829 11:0.061000001 12:0.24600001 13:0.123 14:0.88999999 15:0.123 16:0.368 17:0.061000001 18:0.27599999 19:0 20:0.030999999 21:0.030999999 22:0 23:0.092 24:0.061000001 25:0.030999999 26:0.030999999 27:0.061000001 28:0.030999999 29:0.030999999 30:0 31:0.030999999 32:0.030999999 33:0.030999999 34:0.061000001 35:0.030999999 36:0.092 37:0.030999999 38:0.092 39:0 40:0 41:0.368 42:0.030999999 43:0.24600001 44:0.43000001 45:0.061000001 46:0.153 47:0.092 48:0.123 49:0.43000001 50:0.55199999 51:0.030999999 52:0.215 53:0.061000001 54:0.46000001 55:0.27599999 56:0.27599999 57:0.215 58:0.368 59:0.030999999 60:0.092 61:0.829 62:0.030999999 63:0.491 64:2.793 65:0.215 66:0.30700001 67:0.27599999 68:1.013 69:1.6569999 70:2.302 71:0.52200001 72:0.88999999 73:0.123 74:1.044 75:0.79799998 76:0.88999999 77:0.64499998 78:0.61400002 79:0.061000001 80:0.153 81:0.030999999 82:0 83:0.061000001 84:0.061000001 85:0 86:0.030999999 87:0.061000001 88:0.030999999 89:0.092 90:0.123 91:0 92:0.061000001 93:0.061000001 94:0.123 95:0.030999999 96:0.39899999 97:0.092 98:0.092 99:0 100:0 101:0.123 102:0 103:0.215 104:0.27599999 105:0 106:0.061000001 107:0.030999999 108:0.092 109:0.153 110:0.338 111:0 112:0.123 113:0.030999999 114:0.215 115:0.092 116:0.123 117:0.215 118:0.123 119:0.030999999 120:0 121:0.153 122:0.030999999 123:0.24600001 124:0.30700001 125:0 126:0 127:0.092 128:0.092 129:0.153 130:0.39899999 131:0.061000001 132:0.061000001 133:0.061000001 134:0.184 135:0.092 136:0.153 137:0.061000001 138:0.061000001 139:0.030999999 140:0.030999999 141:0.27599999 142:0 143:0.184 144:0.491 145:0 146:0.184 147:0.153 148:0.215 149:0.338 150:0.30700001 151:0.061000001 152:0.184 153:0.061000001 154:0.55199999 155:0.30700001 156:0.61400002 157:0.215 158:0.092 159:0.030999999 160:0.092 161:0.64499998 162:0.123 163:0.76700002 164:2.3329999 165:0.184 166:0.092 167:0.27599999 168:0.368 169:0.70599997 170:1.074 171:0.24600001 172:0.338 173:0.061000001 174:0.79799998 175:0.24600001 176:0.61400002 177:0.27599999 178:0.368 179:0.030999999 180:0.092 181:0.583 182:0.184 183:0.368 184:2.1489999 185:0.061000001 186:0.092 187:0.30700001 188:0.43000001 189:1.535 190:1.351 191:0.215 192:0.55199999 193:0.123 194:2.118 195:0.67500001 196:1.381 197:0.43000001 198:0.30700001 199:0.030999999 200:0.092 201:0.061000001 202:0 203:0.092 204:0.43000001 205:0 206:0 207:0.030999999 208:0.030999999 209:0.368 210:0.061000001 211:0.030999999 212:0.153 213:0.030999999 214:0.123 215:0.092 216:0.24600001 217:0.030999999 218:0.092 219:0 220:0 221:0.153 222:0.030999999 223:0.153 224:0.61400002 225:0.061000001 226:0.061000001 227:0.030999999 228:0.184 229:0.583 230:0.61400002 231:0.092 232:0.123 233:0.030999999 234:0.46000001 235:0.153 236:0.30700001 237:0.24600001 238:0.123 239:0 240:0.092 241:0.184 242:0.030999999 243:0.123 244:0.153 245:0 246:0.123 247:0 248:0.061000001 249:0.030999999 250:0.27599999 251:0 252:0.030999999 253:0.030999999 254:0.092 255:0 256:0.123 257:0.061000001 258:0.030999999 259:0 260:0 261:0.85900003 262:0.030999999 263:0.368 264:1.381 265:0.153 266:0.215 267:0.24600001 268:0.64499998 269:0.98199999 270:1.842 271:0.153 272:0.491 273:0.153 274:1.166 275:0.27599999 276:0.61400002 277:0.39899999 278:0.491 279:0 280:0.123 281:0.215 282:0 283:0.338 284:0.39899999 285:0.030999999 286:0.092 287:0.123 288:0.184 289:0.55199999 290:0.583 291:0.061000001 292:0.092 293:0.030999999 294:0.338 295:0.215 296:0.338 297:0.215 298:0.368 299:0 300:0.061000001 301:0.43000001 302:0.123 303:0.153 304:0.88999999 305:0.27599999 306:0.215 307:0.24600001 308:0.30700001 309:0.67500001 310:1.136 311:0.24600001 312:0.27599999 313:0.153 314:0.88999999 315:0.46000001 316:0.98199999 317:0.52200001 318:0.215 319:0.061000001 320:0.123 321:0.30700001 322:0.030999999 323:0.184 324:0.85900003 325:0.030999999 326:0.153 327:0 328:0.215 329:0.39899999 330:0.52200001 331:0 332:0.092 333:0.061000001 334:0.43000001 335:0.184 336:0.43000001 337:0.061000001 338:0.215 339:0 340:0 341:0.24600001 342:0.061000001 343:0.092 344:0.583 345:0.061000001 346:0.123 347:0.153 348:0.092 349:0.39899999 350:0.52200001 351:0.030999999 352:0.030999999 353:0.092 354:0.46000001 355:0.153 356:0.368 357:0.39899999 358:0.215 359:0 360:0.061000001 361:0 362:0 363:0.030999999 364:0.092 365:0 366:0 367:0 368:0 369:0.061000001 370:0 371:0 372:0.030999999 373:0.030999999 374:0.061000001 375:0 376:0 377:0 378:0 379:0 380:0 381:0.061000001 382:0.030999999 383:0.061000001 384:0.215 385:0.030999999 386:0.061000001 387:0.061000001 388:0.030999999 389:0 390:0.184 391:0 392:0.092 393:0 394:0.123 395:0.030999999 396:0.061000001 397:0 398:0 399:0 400:0 #
-0.8101765197405811358422056400741 1:1.421 2:0 3:0.64600003 4:0.77499998 5:0 6:0.38800001 7:0 8:0.38800001 9:0.12899999 10:1.421 11:0 12:0.25799999 13:0 14:0.51700002 15:1.034 16:1.034 17:0.51700002 18:0.12899999 19:0 20:0.25799999 21:0 22:0 23:0.12899999 24:0.12899999 25:0 26:0 27:0 28:0 29:0 30:0 31:0 32:0 33:0 34:0.12899999 35:0 36:0.12899999 37:0 38:0 39:0 40:0 41:0.12899999 42:0 43:0.38800001 44:0.12899999 45:0.12899999 46:0.38800001 47:0.12899999 48:0 49:0.38800001 50:0.77499998 51:0 52:0 53:0.25799999 54:0.38800001 55:0.77499998 56:0.64600003 57:0.25799999 58:0.51700002 59:0.12899999 60:0 61:1.2920001 62:0 63:0.51700002 64:2.0669999 65:0.25799999 66:0.51700002 67:0.12899999 68:0.25799999 69:1.55 70:2.0669999 71:0.12899999 72:0.25799999 73:0.12899999 74:0.90399998 75:0.77499998 76:0.25799999 77:0.51700002 78:0.90399998 79:0 80:0.12899999 81:0.12899999 82:0 83:0 84:0.25799999 85:0.12899999 86:0.38800001 87:0 88:0 89:0 90:0.25799999 91:0 92:0 93:0.12899999 94:0.12899999 95:0.12899999 96:0.12899999 97:0 98:0 99:0 100:0 101:0.12899999 102:0 103:0.25799999 104:0.77499998 105:0.12899999 106:0.77499998 107:0 108:0 109:0.25799999 110:0.51700002 111:0.12899999 112:0.12899999 113:0.51700002 114:0 115:0.38800001 116:0 117:0.25799999 118:0.38800001 119:0 120:0 121:0.12899999 122:0 123:0.12899999 124:0.12899999 125:0.25799999 126:0.12899999 127:0 128:0.12899999 129:0.12899999 130:0 131:0 132:0 133:0 134:0.51700002 135:0.38800001 136:0.12899999 137:0 138:0 139:0 140:0 141:0.12899999 142:0 143:0 144:0.25799999 145:0 146:0 147:0 148:0.12899999 149:0.12899999 150:0.38800001 151:0.25799999 152:0 153:0 154:0.12899999 155:0.25799999 156:0.25799999 157:0.25799999 158:0 159:0 160:0.12899999 161:0.51700002 162:0 163:0.77499998 164:0.90399998 165:0.12899999 166:0.25799999 167:0.12899999 168:0 169:0.51700002 170:0.64600003 171:0.38800001 172:0.51700002 173:0 174:1.163 175:0.38800001 176:0.90399998 177:0.38800001 178:0.12899999 179:0 180:0.12899999 181:1.938 182:0.12899999 183:0.77499998 184:2.326 185:0 186:0.38800001 187:0.51700002 188:0.12899999 189:1.938 190:0.90399998 191:0.12899999 192:0 193:0.51700002 194:1.938 195:0.77499998 196:0.25799999 197:1.163 198:0 199:0 200:0.25799999 201:0 202:0 203:0 204:0.51700002 205:0 206:0 207:0 208:0 209:0.12899999 210:0.12899999 211:0 212:0.12899999 213:0.12899999 214:0 215:0.38800001 216:0 217:0 218:0 219:0 220:0 221:0 222:0 223:0 224:0.12899999 225:0.12899999 226:0 227:0 228:0.25799999 229:0.25799999 230:0.25799999 231:0 232:0 233:0 234:0.25799999 235:0 236:0 237:0.12899999 238:0.12899999 239:0 240:0 241:0.25799999 242:0 243:0.38800001 244:0.12899999 245:0.12899999 246:0.38800001 247:0 248:0 249:0.12899999 250:0.12899999 251:0 252:0 253:0.38800001 254:0 255:0.12899999 256:0.38800001 257:0.25799999 258:0.12899999 259:0 260:0 261:0.51700002 262:0 263:0.38800001 264:1.55 265:0 266:0 267:0.25799999 268:0.25799999 269:0.64600003 270:2.1960001 271:0.12899999 272:0 273:0.12899999 274:0.90399998 275:0.38800001 276:0.51700002 277:0.25799999 278:0.64600003 279:0 280:0.12899999 281:0.77499998 282:0.25799999 283:0.51700002 284:0.64600003 285:0.12899999 286:0.12899999 287:0.12899999 288:0.12899999 289:0.51700002 290:1.6799999 291:0.12899999 292:0 293:0.12899999 294:0.51700002 295:0.12899999 296:0.38800001 297:0.25799999 298:0.12899999 299:0 300:0.12899999 301:0.12899999 302:0.12899999 303:0.25799999 304:0.90399998 305:0 306:0.51700002 307:0.51700002 308:0.12899999 309:0.25799999 310:1.163 311:0 312:0.12899999 313:0.38800001 314:0.25799999 315:0.38800001 316:1.163 317:0.38800001 318:0.38800001 319:0.25799999 320:0.12899999 321:0.64600003 322:0 323:0 324:0.12899999 325:0.25799999 326:0.12899999 327:0.12899999 328:0.25799999 329:0.51700002 330:0.77499998 331:0 332:0 333:0 334:0.77499998 335:0.25799999 336:0.77499998 337:0 338:0.12899999 339:0 340:0.12899999 341:0.51700002 342:0 343:0.25799999 344:0.77499998 345:0 346:0.25799999 347:0.12899999 348:0.12899999 349:0 350:0.51700002 351:0 352:0.12899999 353:0 354:0.12899999 355:0.12899999 356:0.38800001 357:0.25799999 358:0.25799999 359:0 360:0 361:0 362:0 363:0 364:0 365:0 366:0 367:0 368:0 369:0.12899999 370:0 371:0 372:0 373:0.12899999 374:0 375:0 376:0.12899999 377:0 378:0 379:0.12899999 380:0 381:0.25799999 382:0 383:0 384:0.12899999 385:0 386:0 387:0 388:0.12899999 389:0.25799999 390:0.25799999 391:0 392:0 393:0 394:0.25799999 395:0.12899999 396:0 397:0 398:0 399:0 400:0.12899999 #
-0.0042820813362093868015278985694749 1:0 2:0 3:0 4:0 5:0.75800002 6:0 7:0 8:0 9:0.75800002 10:0.75800002 11:0 12:0 13:1.515 14:0.75800002 15:0 16:0.75800002 17:0 18:0.75800002 19:0 20:2.273 21:0 22:0.75800002 23:0 24:0 25:0 26:0 27:0 28:0 29:0 30:1.515 31:0 32:0 33:0 34:0 35:0 36:0 37:0 38:0 39:0 40:0 41:0 42:0 43:0 44:0 45:0 46:0 47:0.75800002 48:0 49:0 50:0 51:0 52:0 53:0 54:0 55:0.75800002 56:0 57:0 58:0.75800002 59:0 60:0 61:0 62:0 63:0 64:0.75800002 65:0 66:0 67:0.75800002 68:0 69:0 70:0 71:0.75800002 72:0 73:0 74:0 75:0 76:0 77:0.75800002 78:0.75800002 79:0 80:0 81:0.75800002 82:0 83:0 84:0 85:0.75800002 86:0 87:0 88:0.75800002 89:0 90:0 91:0.75800002 92:0.75800002 93:0 94:0.75800002 95:0 96:0.75800002 97:0 98:0 99:0 100:0 101:1.515 102:0 103:0.75800002 104:0 105:0.75800002 106:0 107:0 108:0.75800002 109:0 110:0 111:0 112:0 113:0 114:0.75800002 115:0 116:0 117:0 118:0 119:0 120:0 121:0 122:0 123:0 124:0.75800002 125:0 126:0 127:0 128:0.75800002 129:0 130:0 131:0 132:0.75800002 133:0 134:0 135:0 136:0 137:0.75800002 138:0.75800002 139:0 140:0 141:0.75800002 142:0 143:0 144:0 145:0.75800002 146:0 147:0.75800002 148:0 149:0 150:2.273 151:0 152:0 153:0.75800002 154:0 155:0.75800002 156:0 157:0 158:0.75800002 159:0.75800002 160:0 161:0 162:0.75800002 163:0 164:0.75800002 165:0 166:0 167:0 168:0 169:0 170:0 171:0.75800002 172:0 173:0 174:0 175:0 176:0.75800002 177:0 178:0 179:0 180:0 181:0 182:0 183:0 184:0 185:1.515 186:2.273 187:0 188:2.273 189:0.75800002 190:0.75800002 191:0.75800002 192:0.75800002 193:0 194:0 195:0 196:0 197:0 198:0 199:0 200:0 201:0 202:0 203:0 204:0 205:0 206:0 207:0 208:0 209:0 210:0.75800002 211:0 212:1.515 213:0 214:0 215:0 216:0 217:0.75800002 218:0.75800002 219:0 220:0 221:0 222:0 223:0 224:0 225:0 226:0 227:0.75800002 228:0.75800002 229:0 230:0 231:0 232:0 233:1.515 234:0 235:0 236:0.75800002 237:0.75800002 238:0 239:0 240:0.75800002 241:0.75800002 242:0.75800002 243:0.75800002 244:0 245:0 246:0 247:0.75800002 248:0 249:0 250:0 251:0 252:0.75800002 253:1.515 254:0 255:0 256:0 257:0.75800002 258:1.515 259:0 260:0 261:1.515 262:0 263:0 264:0 265:0 266:0 267:0 268:0 269:0 270:0 271:0 272:0 273:0.75800002 274:0 275:0 276:0 277:0.75800002 278:0 279:0 280:0 281:0 282:0 283:0.75800002 284:0 285:0 286:0 287:0 288:0 289:0.75800002 290:0 291:0 292:0 293:0 294:0 295:0 296:0.75800002 297:0 298:0 299:0 300:0 301:0 302:0 303:0 304:0.75800002 305:0 306:0.75800002 307:0 308:0 309:0 310:0.75800002 311:0 312:0 313:0.75800002 314:0 315:0.75800002 316:0 317:1.515 318:1.515 319:0 320:0 321:0.75800002 322:0 323:0 324:0 325:0.75800002 326:0.75800002 327:0 328:0.75800002 329:0 330:0.75800002 331:0 332:0 333:0 334:0 335:0 336:1.515 337:0 338:1.515 339:0 340:0 341:0.75800002 342:0 343:0 344:0 345:0 346:0.75800002 347:0 348:1.515 349:0.75800002 350:1.515 351:0 352:0.75800002 353:0.75800002 354:0.75800002 355:0 356:0 357:0.75800002 358:0.75800002 359:0.75800002 360:0 361:0.75800002 362:0 363:0 364:0 365:0 366:0 367:0 368:0 369:0 370:0 371:0 372:0 373:0 374:0 375:0 376:0.75800002 377:0 378:0 379:0 380:0 381:0.75800002 382:0 383:0 384:0.75800002 385:0 386:0.75800002 387:0 388:0 389:0 390:0 391:0 392:0 393:0 394:0 395:0 396:0.75800002 397:0 398:0 399:0 400:0 #
4.9116296464887563288925775850657 1:0.98799998 2:0 3:0 4:0 5:0.741 6:0.49399999 7:0.24699999 8:0.49399999 9:0 10:1.235 11:0.24699999 12:0.24699999 13:0.24699999 14:0.24699999 15:0.741 16:0.49399999 17:0.49399999 18:1.235 19:0.24699999 20:0.49399999 21:0 22:0 23:0 24:0 25:0 26:0 27:0 28:0 29:0 30:0 31:0 32:0 33:0 34:0 35:0 36:0 37:0 38:0.24699999 39:0 40:0 41:0.24699999 42:0 43:0.24699999 44:0 45:0.24699999 46:0.24699999 47:0 48:0 49:0.24699999 50:0.24699999 51:0 52:0.24699999 53:0 54:0 55:0 56:0 57:0.24699999 58:0 59:0.24699999 60:0 61:0.24699999 62:0 63:0.49399999 64:0 65:0.24699999 66:0.24699999 67:0.24699999 68:0 69:0 70:1.235 71:0 72:0.24699999 73:0 74:0.24699999 75:0 76:0 77:0 78:0.741 79:0 80:0.24699999 81:0.49399999 82:0 83:0 84:0.24699999 85:0.741 86:0.49399999 87:0.24699999 88:0.49399999 89:0.49399999 90:1.4809999 91:0 92:0.24699999 93:0.49399999 94:0.24699999 95:0.49399999 96:0.24699999 97:0 98:0.741 99:0.741 100:0.741 101:0.741 102:0 103:0.49399999 104:0.24699999 105:0 106:0.49399999 107:0.24699999 108:0.49399999 109:0 110:1.4809999 111:0 112:0 113:0 114:0.49399999 115:0 116:0 117:0.98799998 118:0.741 119:0 120:0 121:0 122:0 123:0 124:0.24699999 125:0 126:0 127:0 128:0.49399999 129:0.24699999 130:0 131:0 132:0 133:0 134:0 135:0.24699999 136:0 137:0.24699999 138:0.24699999 139:0 140:0.49399999 141:1.4809999 142:0 143:0 144:0.49399999 145:0.741 146:0.24699999 147:0 148:0.49399999 149:0.24699999 150:0.49399999 151:0.24699999 152:0.49399999 153:0.49399999 154:0.49399999 155:0 156:0.49399999 157:0.741 158:0.741 159:0 160:0.49399999 161:0 162:0 163:0 164:0.24699999 165:0 166:0 167:0 168:0.24699999 169:0 170:0.24699999 171:0 172:0.49399999 173:0.24699999 174:0 175:0.24699999 176:0.24699999 177:0 178:0.24699999 179:0 180:0 181:0.24699999 182:0 183:0.49399999 184:0.49399999 185:1.235 186:0.741 187:0 188:1.728 189:0 190:0.49399999 191:0.741 192:0.24699999 193:0.741 194:0.24699999 195:0.49399999 196:0.98799998 197:0 198:1.235 199:0 200:0.49399999 201:0.24699999 202:0 203:0 204:0 205:0.24699999 206:0.49399999 207:0 208:0 209:0 210:0 211:0 212:0.24699999 213:0 214:0 215:0.24699999 216:0.24699999 217:0.49399999 218:0 219:0 220:0.24699999 221:0.49399999 222:0 223:0 224:0.24699999 225:0.24699999 226:0 227:0 228:0.24699999 229:0 230:0 231:0.24699999 232:0.24699999 233:0 234:0.24699999 235:0 236:0.24699999 237:0 238:0.49399999 239:0.24699999 240:0.24699999 241:0 242:0 243:0 244:0.24699999 245:0.24699999 246:0.49399999 247:0.49399999 248:0.49399999 249:0.24699999 250:0 251:0 252:0 253:0.24699999 254:0 255:0 256:0.24699999 257:0.24699999 258:0.24699999 259:0 260:0.24699999 261:0.24699999 262:0 263:0 264:0.49399999 265:0.24699999 266:0 267:0 268:0.49399999 269:0 270:0.24699999 271:0 272:0 273:0 274:0.24699999 275:0.49399999 276:0 277:0.24699999 278:0.49399999 279:0 280:0.49399999 281:0.24699999 282:0 283:0 284:0.49399999 285:0.49399999 286:0.24699999 287:0.24699999 288:0.49399999 289:0.49399999 290:0.49399999 291:0 292:0 293:0 294:0 295:0 296:0.24699999 297:0.24699999 298:0.49399999 299:0.49399999 300:0 301:0.98799998 302:0 303:0 304:0 305:0.741 306:0.24699999 307:0.24699999 308:0.741 309:0 310:0.49399999 311:0 312:0 313:0.49399999 314:0 315:0 316:0.24699999 317:0.24699999 318:0.24699999 319:0.24699999 320:0 321:0.741 322:0 323:0 324:0 325:0.24699999 326:0.49399999 327:0.24699999 328:0.49399999 329:0 330:1.4809999 331:0.24699999 332:0.24699999 333:0.24699999 334:0.24699999 335:0.24699999 336:0 337:0.24699999 338:0.24699999 339:0.24699999 340:0 341:0.741 342:0.24699999 343:0.24699999 344:0.741 345:0.98799998 346:0.98799998 347:0 348:0.741 349:0 350:0.49399999 351:0 352:0.24699999 353:0.24699999 354:0.24699999 355:0.741 356:0.49399999 357:0.98799998 358:0.49399999 359:0.49399999 360:0.24699999 361:0.24699999 362:0 363:0 364:0 365:0.49399999 366:0 367:0 368:0 369:0 370:0 371:0 372:0 373:0 374:0.741 375:0.24699999 376:0.741 377:0.24699999 378:0.24699999 379:0 380:0.24699999 381:0.49399999 382:0 383:0.24699999 384:0 385:0.741 386:0.49399999 387:0 388:0.24699999 389:0.24699999 390:0.49399999 391:0.49399999 392:0 393:0 394:0 395:0.49399999 396:0.24699999 397:0 398:0.24699999 399:0.24699999 400:0.49399999 #
4.9116296464887563288925775850657 1:0.45199999 2:0 3:0.226 4:0.226 5:0.45199999 6:0.67900002 7:0.226 8:0.90499997 9:1.131 10:1.357 11:0.226 12:0.226 13:0 14:0.45199999 15:0.226 16:1.131 17:0.45199999 18:0.90499997 19:0 20:0 21:0 22:0 23:0 24:0 25:0.226 26:0 27:0 28:0 29:0 30:0.226 31:0 32:0 33:0 34:0 35:0 36:0 37:0 38:0 39:0 40:0 41:0.45199999 42:0 43:0 44:0 45:0.45199999 46:0 47:0 48:0 49:0.226 50:0.226 51:0 52:0.226 53:0 54:0 55:0 56:0 57:0 58:0 59:0 60:0 61:0 62:0 63:0 64:0 65:0.226 66:0.226 67:0 68:0.226 69:0 70:0.226 71:0.226 72:0 73:0 74:0.90499997 75:0.45199999 76:0.45199999 77:0.226 78:0 79:0 80:0 81:1.131 82:0.226 83:0 84:0 85:0.67900002 86:0.45199999 87:0 88:0.45199999 89:0 90:0.45199999 91:0.45199999 92:0.45199999 93:0.226 94:0.45199999 95:0.226 96:0.226 97:0.226 98:0.90499997 99:0 100:0.67900002 101:0.90499997 102:0 103:0.226 104:0.90499997 105:0.226 106:1.131 107:0 108:1.584 109:0 110:1.131 111:0.226 112:0.226 113:0 114:0.45199999 115:0.67900002 116:0.226 117:1.131 118:0.226 119:0.226 120:0.226 121:0 122:0 123:0 124:0 125:0.226 126:0 127:0 128:0 129:0 130:0.226 131:0 132:0 133:0.226 134:0 135:0 136:0 137:0.226 138:0 139:0 140:0 141:0.67900002 142:0.226 143:0.45199999 144:0.45199999 145:1.131 146:0.90499997 147:0 148:1.584 149:0.226 150:0.226 151:0.45199999 152:0.226 153:0.90499997 154:0.226 155:0.226 156:0.90499997 157:0.45199999 158:0.90499997 159:0 160:0 161:0.226 162:0 163:0 164:0.226 165:0 166:0.45199999 167:0 168:0.226 169:0.67900002 170:0.226 171:0 172:0 173:0 174:0.226 175:0.45199999 176:0.226 177:0 178:0.67900002 179:0 180:0.226 181:0.67900002 182:0 183:0.226 184:0.226 185:0.45199999 186:0.67900002 187:0.226 188:0.67900002 189:1.131 190:1.584 191:0.45199999 192:0 193:0.67900002 194:0.226 195:0 196:0.226 197:0.67900002 198:1.8099999 199:0 200:0.90499997 201:0.67900002 202:0 203:0.226 204:0 205:0.67900002 206:0 207:0 208:0 209:0.226 210:0 211:0.226 212:0 213:0.45199999 214:0.226 215:0.226 216:0.226 217:0.226 218:0 219:0.226 220:0 221:0 222:0 223:0 224:0 225:0 226:0.226 227:0 228:0 229:0 230:0.45199999 231:0.67900002 232:0 233:0.45199999 234:0 235:0 236:0 237:0 238:0 239:0.226 240:0.226 241:0.67900002 242:0 243:0 244:0.226 245:0.226 246:1.584 247:0 248:0.226 249:0 250:0.45199999 251:0 252:0.226 253:0.226 254:0 255:0.226 256:0 257:0.226 258:0 259:0 260:0.226 261:0.226 262:0 263:0 264:0 265:0 266:0.67900002 267:0 268:0.226 269:0 270:0.226 271:0 272:0 273:0.67900002 274:0.45199999 275:0.45199999 276:0.67900002 277:0.45199999 278:0.226 279:0 280:0.45199999 281:0.226 282:0 283:0.226 284:0.226 285:0 286:0.67900002 287:0 288:0.45199999 289:0.226 290:0.45199999 291:0 292:0 293:0.226 294:0.45199999 295:0.90499997 296:0 297:0 298:0.226 299:0 300:0.226 301:0.90499997 302:0 303:0 304:0 305:0.226 306:0.67900002 307:0 308:1.131 309:0 310:0.67900002 311:0 312:0 313:0 314:0.45199999 315:0.226 316:0.45199999 317:0.226 318:0 319:0.226 320:0 321:0.90499997 322:0 323:0 324:0.226 325:0.45199999 326:0.67900002 327:0.226 328:0.90499997 329:0 330:0.90499997 331:0.226 332:0 333:0 334:0 335:0.45199999 336:0.226 337:0.226 338:0.226 339:0 340:0 341:0.45199999 342:0 343:0 344:0.226 345:0.90499997 346:0.226 347:0.226 348:0.90499997 349:0 350:1.131 351:0.226 352:0.45199999 353:0.45199999 354:0.226 355:0 356:0.226 357:0.45199999 358:1.584 359:0 360:0.226 361:0 362:0 363:0 364:0 365:0.226 366:0 367:0 368:0 369:0 370:0.45199999 371:0 372:0.226 373:0 374:0 375:0 376:0 377:0 378:0 379:0 380:0 381:0.67900002 382:0 383:0 384:0.226 385:0.45199999 386:0.45199999 387:0 388:0.67900002 389:0 390:0.226 391:0 392:0 393:0 394:0 395:0 396:0 397:0.45199999 398:0.226 399:0 400:0 #
4.9116296464887563288925775850657 1:0.83499998 2:0 3:0 4:0.20900001 5:0.83499998 6:0 7:0 8:0.41800001 9:0.41800001 10:1.253 11:0.20900001 12:0 13:0.62599999 14:0.20900001 15:0 16:0.62599999 17:0.62599999 18:0.62599999 19:0 20:0.20900001 21:0.41800001 22:0 23:0 24:0 25:0 26:0 27:0 28:0 29:0 30:0.20900001 31:0 32:0 33:0 34:0 35:0 36:0 37:0 38:0 39:0 40:0 41:0 42:0 43:0 44:0.20900001 45:0 46:0 47:0 48:0.20900001 49:0.20900001 50:0.83499998 51:0 52:0 53:0.41800001 54:0.20900001 55:0.20900001 56:0 57:0 58:0 59:0 60:0 61:0.62599999 62:0 63:0 64:0 65:0.20900001 66:0.41800001 67:0 68:0.20900001 69:0 70:1.044 71:0 72:0 73:0 74:0.20900001 75:0.20900001 76:0.41800001 77:0.41800001 78:0.20900001 79:0 80:0 81:0.41800001 82:0 83:0 84:0.41800001 85:0.20900001 86:0.20900001 87:0.20900001 88:0 89:0.41800001 90:1.044 91:0 92:0 93:0 94:1.044 95:0.20900001 96:0.41800001 97:0.41800001 98:0.41800001 99:0.20900001 100:0.41800001 101:1.044 102:0 103:0 104:0 105:0.62599999 106:0.41800001 107:0 108:0.83499998 109:0.41800001 110:0.62599999 111:0.20900001 112:0.20900001 113:0.20900001 114:0.62599999 115:0.20900001 116:0.83499998 117:1.044 118:0.62599999 119:0 120:0.41800001 121:0 122:0 123:0 124:0 125:0 126:0 127:0 128:0 129:0 130:0.20900001 131:0 132:0 133:0 134:0 135:0 136:0 137:0 138:0 139:0 140:0 141:1.044 142:0.20900001 143:0 144:0.20900001 145:1.253 146:0.62599999 147:0 148:0.62599999 149:0.41800001 150:1.044 151:0.20900001 152:0.20900001 153:0.41800001 154:0.20900001 155:0.83499998 156:0.62599999 157:0.41800001 158:0.62599999 159:0.20900001 160:0.62599999 161:0 162:0 163:0.41800001 164:0.41800001 165:0 166:0.20900001 167:0 168:0.20900001 169:0.41800001 170:0.41800001 171:0 172:0.20900001 173:0.20900001 174:0.41800001 175:0.41800001 176:0 177:0.41800001 178:0.62599999 179:0 180:0.20900001 181:0.62599999 182:0 183:0.62599999 184:0.20900001 185:1.253 186:1.67 187:0 188:1.8789999 189:0.20900001 190:2.0880001 191:1.044 192:0 193:0.83499998 194:0.83499998 195:0.20900001 196:0.83499998 197:0.20900001 198:0.62599999 199:0 200:0.62599999 201:0.41800001 202:0 203:0 204:0 205:0.41800001 206:0 207:0 208:0.20900001 209:0 210:0.62599999 211:0 212:0 213:0 214:0 215:0 216:0.41800001 217:0.41800001 218:0.20900001 219:0 220:0 221:0 222:0 223:0 224:0 225:0 226:0.20900001 227:0 228:0.41800001 229:0 230:0.41800001 231:0.20900001 232:0 233:0.20900001 234:0.20900001 235:0.41800001 236:0.20900001 237:0.20900001 238:0 239:0 240:0.20900001 241:0 242:0 243:0 244:0.62599999 245:0.20900001 246:0.41800001 247:0 248:1.253 249:0 250:0.83499998 251:0 252:0.20900001 253:0 254:0.20900001 255:0.20900001 256:0.20900001 257:0.62599999 258:0 259:0 260:0.20900001 261:0.20900001 262:0 263:0.20900001 264:0 265:0.41800001 266:0.83499998 267:0 268:1.253 269:0.62599999 270:0.41800001 271:0.20900001 272:0 273:0.20900001 274:0 275:0 276:0.20900001 277:0 278:0.20900001 279:0 280:0 281:0.62599999 282:0 283:0.20900001 284:0.62599999 285:0 286:0.62599999 287:0 288:0 289:0.41800001 290:0.20900001 291:0 292:0 293:0.41800001 294:0 295:0 296:0.20900001 297:0.20900001 298:0.20900001 299:0 300:0.20900001 301:0.20900001 302:0.20900001 303:0.83499998 304:0.41800001 305:0.20900001 306:1.044 307:0 308:0.41800001 309:0.62599999 310:0.83499998 311:0.20900001 312:0.83499998 313:0.41800001 314:0.20900001 315:0 316:0.62599999 317:0.20900001 318:0.20900001 319:0 320:0 321:0.41800001 322:0 323:0 324:0 325:0.20900001 326:0.41800001 327:0 328:0.62599999 329:0.41800001 330:0.41800001 331:0 332:0.62599999 333:0.20900001 334:0.41800001 335:0 336:1.253 337:0.62599999 338:0.41800001 339:0.20900001 340:0 341:0.20900001 342:0.20900001 343:0 344:0.20900001 345:0.20900001 346:0.20900001 347:0 348:0.62599999 349:0 350:0.83499998 351:0.41800001 352:0.20900001 353:0.41800001 354:0 355:0.41800001 356:0.62599999 357:0 358:0.41800001 359:0.20900001 360:0.20900001 361:0 362:0 363:0 364:0 365:0 366:0.20900001 367:0 368:0.20900001 369:0 370:0.20900001 371:0 372:0 373:0 374:0 375:0.20900001 376:0 377:0.20900001 378:0 379:0 380:0 381:0 382:0 383:0 384:0.41800001 385:0 386:0.83499998 387:0 388:0.41800001 389:0 390:0.20900001 391:0 392:0.20900001 393:0.41800001 394:0 395:0.41800001 396:0 397:0.20900001 398:0 399:0.20900001 400:0.41800001 #
-0.80136897642905946526070692925714 1:1.3329999 2:0.333 3:0.333 4:0.667 5:0.667 6:0 7:0 8:0.333 9:0.333 10:1 11:0.667 12:0.333 13:0.667 14:0 15:0.333 16:1 17:0 18:1.3329999 19:0.333 20:0 21:0 22:0 23:0 24:0 25:0 26:0 27:0 28:0.333 29:0 30:0 31:0 32:0 33:0 34:0 35:0 36:0 37:0.333 38:0 39:0.333 40:0 41:0.333 42:0 43:0 44:0 45:0 46:0.333 47:1 48:0 49:0 50:0 51:0 52:0 53:0 54:0.333 55:0.333 56:0 57:0 58:0 59:0.333 60:0.333 61:0.333 62:0 63:0 64:0 65:0.333 66:0 67:0.333 68:0 69:0 70:1.3329999 71:0 72:0 73:0.667 74:0 75:0.333 76:0.333 77:0 78:1 79:0 80:0 81:1.3329999 82:0 83:0 84:0 85:0 86:0.333 87:0 88:0.333 89:0 90:0.667 91:0 92:0 93:0 94:0.333 95:0 96:0.667 97:0 98:0 99:0 100:0.333 101:0.667 102:0 103:0.667 104:0.333 105:0.333 106:0.333 107:0 108:0.333 109:0 110:0.667 111:0 112:0 113:0 114:1 115:0 116:1 117:0.333 118:0 119:0 120:0 121:0 122:0 123:0.333 124:0.333 125:0.333 126:0 127:0 128:0.333 129:0.333 130:0.333 131:0 132:0.333 133:0.667 134:0 135:0.667 136:0.333 137:0 138:0 139:0 140:0.333 141:0.667 142:0 143:0 144:0.667 145:0.333 146:0.667 147:0 148:0 149:0 150:0.333 151:0.333 152:0 153:0 154:0 155:0 156:0.333 157:0.333 158:0.333 159:0 160:0 161:0.333 162:0 163:0 164:0.333 165:0.333 166:0 167:0 168:0 169:0.333 170:0.667 171:0 172:0 173:0.333 174:0.333 175:0 176:0 177:0.333 178:0 179:0 180:0 181:1 182:0.333 183:0.667 184:0 185:0.667 186:0 187:0 188:0.667 189:0.667 190:1.3329999 191:0.333 192:1 193:1 194:0.333 195:0 196:1 197:0.333 198:0.667 199:0 200:0.333 201:0 202:0 203:0 204:0 205:0 206:0 207:0.667 208:0.333 209:0 210:0 211:0 212:0 213:0 214:0.333 215:0 216:0.333 217:0 218:1 219:0 220:0 221:0 222:0 223:0 224:0.667 225:0 226:0 227:0 228:0.333 229:0 230:0.333 231:0 232:0 233:0 234:0 235:0 236:0.333 237:0 238:0.667 239:0 240:0 241:0.667 242:0 243:0.333 244:0.667 245:0.333 246:1.6670001 247:0.333 248:0 249:0 250:0.667 251:0 252:0.333 253:3.3329999 254:0 255:0.333 256:1 257:0.333 258:0 259:0 260:0 261:0.667 262:0 263:0.333 264:0.333 265:0.333 266:0 267:0 268:0 269:0 270:0.667 271:0 272:0 273:0.667 274:0 275:0 276:0.333 277:0 278:0 279:0 280:0 281:0.333 282:0 283:0 284:0 285:0 286:0.333 287:0.333 288:0 289:0.333 290:0.333 291:0.333 292:0 293:0.333 294:0.333 295:1 296:1.3329999 297:0.333 298:0 299:0 300:0 301:1 302:0 303:0 304:0.333 305:0 306:2 307:0.667 308:0 309:0.333 310:0.667 311:0.333 312:0.333 313:0.667 314:0 315:1.6670001 316:0.667 317:1.6670001 318:0.333 319:0.333 320:0.333 321:0 322:0.333 323:0.333 324:0 325:0 326:0 327:0 328:0.333 329:0 330:0.333 331:0 332:0 333:0.667 334:0 335:0 336:1.3329999 337:1 338:0.667 339:0 340:0.333 341:0.667 342:0 343:0 344:0.333 345:0.333 346:0 347:1 348:0.333 349:0.667 350:0.667 351:0.333 352:0 353:0.333 354:0.333 355:0 356:1 357:0.333 358:0.333 359:0 360:0 361:0.333 362:0 363:0 364:0 365:0 366:0 367:0 368:0.333 369:0 370:0 371:0 372:0 373:0 374:0 375:0.333 376:0 377:0 378:0.333 379:0 380:0 381:0.333 382:0 383:0 384:0 385:0 386:0 387:0 388:0 389:0 390:0.333 391:0 392:0 393:0.667 394:0 395:0.333 396:0.333 397:0 398:0 399:0 400:0 #
-1.067745575323642670539925347839 1:0.27000001 2:0 3:0.53899997 4:0.27000001 5:0.53899997 6:0.27000001 7:0 8:0.80900002 9:0 10:1.348 11:0 12:0.53899997 13:0 14:0.27000001 15:0.53899997 16:1.348 17:0.27000001 18:0.27000001 19:0 20:0 21:0 22:0 23:0 24:0 25:0 26:0 27:0 28:0 29:0 30:0 31:0 32:0 33:0 34:0 35:0 36:0 37:0 38:0.27000001 39:0 40:0 41:0.53899997 42:0 43:0 44:0 45:0 46:0 47:0 48:0.27000001 49:0.27000001 50:0 51:0.53899997 52:0 53:0 54:0 55:0 56:0.27000001 57:0 58:0.53899997 59:0 60:0.53899997 61:0 62:0 63:0.27000001 64:0.27000001 65:0 66:0 67:0 68:0 69:0 70:0.53899997 71:0 72:0.80900002 73:0 74:0.27000001 75:0.80900002 76:0 77:0.27000001 78:0.27000001 79:0 80:0 81:1.0779999 82:0.27000001 83:0 84:0 85:0.27000001 86:0.27000001 87:0.27000001 88:1.348 89:0.27000001 90:1.0779999 91:0 92:0.53899997 93:0.27000001 94:0.53899997 95:0.27000001 96:0.53899997 97:0.27000001 98:0.80900002 99:0 100:0.27000001 101:0 102:0 103:0 104:0 105:0 106:0 107:0 108:0.27000001 109:0 110:0.80900002 111:0.53899997 112:0.27000001 113:0.53899997 114:0 115:0.53899997 116:0.27000001 117:0.27000001 118:0.27000001 119:0.27000001 120:0 121:0 122:0 123:0 124:0 125:0.27000001 126:0 127:0 128:0.27000001 129:0 130:0.53899997 131:0 132:0 133:0.27000001 134:0 135:0.27000001 136:0 137:0 138:0.27000001 139:0 140:0.27000001 141:0.27000001 142:0 143:0 144:0 145:0.53899997 146:0.27000001 147:0 148:0.27000001 149:0.27000001 150:0.80900002 151:0.27000001 152:0.80900002 153:0.27000001 154:0.53899997 155:0.80900002 156:0.53899997 157:0.27000001 158:0.53899997 159:0 160:0.53899997 161:0 162:0 163:0 164:0 165:0.80900002 166:0 167:0 168:0 169:0 170:0 171:0 172:0.27000001 173:0.53899997 174:0 175:0 176:0 177:0 178:0 179:0 180:0 181:0.27000001 182:0 183:0.53899997 184:0.27000001 185:1.0779999 186:1.348 187:0.27000001 188:0.27000001 189:0.27000001 190:2.4260001 191:0 192:0 193:1.0779999 194:0 195:0 196:1.348 197:0.27000001 198:0 199:0.27000001 200:0.80900002 201:0 202:0 203:0 204:0 205:0.80900002 206:0.53899997 207:0 208:0.27000001 209:0 210:0.27000001 211:0 212:0 213:0 214:0.53899997 215:0 216:0.27000001 217:0 218:0.27000001 219:0 220:0 221:1.0779999 222:0 223:0.53899997 224:0.27000001 225:0.27000001 226:0 227:0 228:0.80900002 229:0 230:0.27000001 231:0.27000001 232:0 233:0.53899997 234:0.27000001 235:0.27000001 236:0.27000001 237:0.53899997 238:0 239:0 240:0 241:0.53899997 242:0 243:0 244:0.53899997 245:0.27000001 246:0.53899997 247:0 248:0.53899997 249:0 250:0.27000001 251:0.27000001 252:0 253:0.53899997 254:0 255:0 256:0.80900002 257:1.348 258:0.27000001 259:0 260:0.27000001 261:1.0779999 262:0 263:0 264:0 265:0.27000001 266:0 267:0 268:0.27000001 269:0 270:0.27000001 271:0.27000001 272:0.53899997 273:0.27000001 274:0.27000001 275:0.27000001 276:0 277:1.0779999 278:0.27000001 279:0 280:0.53899997 281:0.80900002 282:0 283:0.27000001 284:0.27000001 285:0.53899997 286:0 287:0 288:0.27000001 289:0 290:0.80900002 291:0 292:0.27000001 293:0.53899997 294:0.53899997 295:0 296:0.27000001 297:0.53899997 298:0 299:0 300:0 301:0.27000001 302:0 303:0.27000001 304:0.27000001 305:0.80900002 306:0.27000001 307:1.0779999 308:0 309:0 310:0.53899997 311:0 312:0.80900002 313:0.53899997 314:0.53899997 315:0.27000001 316:1.887 317:1.348 318:0.53899997 319:0.27000001 320:0 321:0.80900002 322:0 323:0.27000001 324:0.53899997 325:0.80900002 326:0.53899997 327:0.27000001 328:0.53899997 329:0.27000001 330:0.27000001 331:0.27000001 332:0.27000001 333:0.27000001 334:0 335:0.27000001 336:1.0779999 337:0 338:0.53899997 339:0 340:0 341:0.27000001 342:0 343:0 344:0.80900002 345:1.0779999 346:0 347:0 348:0.27000001 349:0.27000001 350:0.27000001 351:0 352:0 353:0.53899997 354:0.53899997 355:0.27000001 356:0.27000001 357:0.27000001 358:0.27000001 359:0 360:0.27000001 361:0 362:0 363:0 364:0 365:0 366:0 367:0 368:0 369:0 370:0 371:0 372:0.27000001 373:0 374:0.27000001 375:0.53899997 376:0 377:0.27000001 378:0 379:0 380:0 381:0 382:0 383:0.27000001 384:0 385:0 386:0 387:0.27000001 388:0.53899997 389:0 390:0 391:0.27000001 392:0 393:0 394:0.80900002 395:0 396:0.53899997 397:0 398:0 399:0.53899997 400:0.53899997 #
-0.55114930466828870869733236759203 1:1.028 2:0 3:0 4:0.77100003 5:0 6:0.77100003 7:0.257 8:0.77100003 9:0.257 10:0.77100003 11:0.514 12:0 13:1.028 14:0 15:0.257 16:0.514 17:0.514 18:0.257 19:0.257 20:0 21:0.514 22:0 23:0 24:0 25:0 26:0 27:0 28:0 29:0 30:0.77100003 31:0 32:0 33:0 34:0 35:0 36:0 37:0 38:0.257 39:0 40:0 41:0 42:0 43:0 44:0 45:0.514 46:0.514 47:0 48:0.257 49:0.514 50:0.257 51:0 52:0 53:0.77100003 54:0 55:0.514 56:0.257 57:0.514 58:0.514 59:0 60:0.257 61:0.257 62:0 63:0 64:0.257 65:0.514 66:0.514 67:0.257 68:0.257 69:0.257 70:0.257 71:0.257 72:0 73:0.257 74:0.257 75:0.257 76:0.257 77:0 78:0.514 79:0 80:0 81:0.257 82:0 83:0.257 84:0.257 85:0.514 86:0.257 87:0 88:0 89:0.257 90:0.77100003 91:0 92:0.514 93:0.514 94:0 95:0.257 96:0.257 97:0 98:0.514 99:0 100:0.77100003 101:0.514 102:0 103:0 104:0.514 105:0.257 106:0.514 107:0.257 108:0.257 109:0.514 110:1.028 111:0 112:0 113:0 114:0.514 115:1.028 116:1.5420001 117:0.514 118:0.257 119:0.257 120:0 121:0 122:0.257 123:0.514 124:0 125:0.77100003 126:0 127:0 128:0 129:0 130:0.257 131:0 132:0 133:0.514 134:0 135:0 136:0 137:0 138:0 139:0.257 140:0 141:0 142:0 143:0.514 144:0 145:0 146:0.514 147:0 148:0.77100003 149:0 150:0 151:0 152:0 153:0.257 154:0.257 155:0.257 156:1.028 157:0.514 158:0.257 159:0 160:0.257 161:0.257 162:0 163:0.257 164:0.257 165:0.257 166:1.028 167:0.514 168:0 169:0.514 170:0.514 171:0 172:0.257 173:0 174:0.257 175:0.514 176:0 177:0.77100003 178:0 179:0 180:0 181:1.028 182:0.257 183:0.514 184:0.514 185:0.514 186:1.028 187:0 188:0.77100003 189:0.77100003 190:1.5420001 191:0.257 192:0 193:0.77100003 194:0 195:0.77100003 196:0.514 197:0.257 198:0 199:0 200:0.514 201:0.257 202:0 203:0 204:0.257 205:0.257 206:0.257 207:0 208:0 209:0 210:0.514 211:0 212:0 213:0.257 214:0 215:0 216:0.257 217:0.257 218:0 219:0 220:0 221:0 222:0 223:0 224:0 225:0 226:0 227:0 228:0 229:0.257 230:0.257 231:0 232:0 233:0 234:0 235:0.257 236:0 237:0 238:0 239:0 240:0 241:1.028 242:0.257 243:1.028 244:0.77100003 245:0.514 246:0.514 247:0.514 248:0.514 249:0 250:0.257 251:0 252:0 253:2.3139999 254:0.514 255:0.514 256:0.514 257:0.257 258:0.514 259:0 260:0 261:0.257 262:0 263:0.257 264:0 265:0 266:0 267:0 268:0.514 269:0 270:0.257 271:0.514 272:0 273:0.257 274:0 275:0.257 276:0.257 277:0.257 278:0 279:0 280:0 281:1.285 282:0 283:0.514 284:0.77100003 285:0 286:0 287:0.257 288:0.514 289:0.257 290:1.285 291:0 292:0 293:0.77100003 294:0.257 295:0.514 296:0.514 297:0.77100003 298:0.514 299:0 300:0 301:0.514 302:0.77100003 303:0.514 304:0 305:0.257 306:1.5420001 307:0 308:0 309:0.77100003 310:0.257 311:0 312:0 313:1.028 314:0 315:0.514 316:0.514 317:0 318:0 319:0.257 320:0.514 321:0.514 322:0 323:0.257 324:0 325:0.514 326:0.257 327:0.257 328:0 329:0.77100003 330:0.514 331:0.257 332:0 333:0.77100003 334:0.257 335:0.77100003 336:0.257 337:0 338:0 339:0 340:0 341:0 342:0 343:0 344:0 345:0 346:0.257 347:0.257 348:0 349:0.257 350:0 351:0 352:0 353:0.514 354:0.257 355:1.028 356:0.257 357:0.514 358:0.77100003 359:0.257 360:0 361:0 362:0 363:0.257 364:0 365:0 366:0 367:0 368:0 369:0 370:0.514 371:0 372:0 373:0 374:0 375:0 376:0.257 377:0 378:0 379:0 380:0.257 381:0.257 382:0 383:0.257 384:0 385:0.514 386:0 387:0 388:0 389:0 390:0 391:0.257 392:0 393:0 394:0.257 395:0.514 396:0.257 397:0.257 398:0 399:0 400:0 #
4.9116296464887563288925775850657 1:1.3329999 2:0 3:0.333 4:1.1109999 5:0.333 6:0.667 7:0.111 8:0.55599999 9:0.44400001 10:0.778 11:0.333 12:0.44400001 13:0.111 14:0.778 15:0.222 16:0.333 17:0.333 18:0.44400001 19:0 20:0.333 21:0 22:0 23:0 24:0 25:0 26:0.111 27:0.111 28:0.111 29:0 30:0 31:0 32:0 33:0.111 34:0 35:0 36:0 37:0 38:0 39:0 40:0 41:0.55599999 42:0 43:0.333 44:0.667 45:0.111 46:0.222 47:0 48:0.55599999 49:0.111 50:0.44400001 51:0 52:0.222 53:0.222 54:0.111 55:0.222 56:0.55599999 57:0.222 58:0.667 59:0.111 60:0.44400001 61:1.222 62:0 63:0.55599999 64:0.889 65:0.333 66:0.55599999 67:0.333 68:0 69:1 70:0.778 71:0.55599999 72:0.44400001 73:0.222 74:0.222 75:1 76:0.55599999 77:0.333 78:0.889 79:0.111 80:0.333 81:0.333 82:0 83:0.44400001 84:0.333 85:0 86:0.222 87:0.111 88:0 89:0.111 90:0.111 91:0 92:0 93:0 94:0.222 95:0.222 96:0.44400001 97:0.111 98:0 99:0 100:0.111 101:0.111 102:0 103:0.111 104:0.778 105:0.111 106:0.333 107:0.111 108:0.44400001 109:0.44400001 110:0.55599999 111:0.667 112:0 113:0.111 114:0.111 115:0.778 116:0.44400001 117:0.55599999 118:0.333 119:0 120:0.222 121:0.222 122:0 123:0.111 124:0.222 125:0.333 126:0.111 127:0.111 128:0.111 129:0 130:0.333 131:0 132:0.111 133:0.111 134:0.222 135:0 136:0 137:0.111 138:0.222 139:0 140:0.111 141:0.44400001 142:0 143:0.333 144:0.667 145:0.111 146:0.111 147:0.111 148:0.667 149:0.44400001 150:0.222 151:0.222 152:0.333 153:0.44400001 154:0.222 155:0.44400001 156:0.333 157:0.222 158:0.44400001 159:0 160:0.222 161:0.44400001 162:0 163:0.333 164:0.778 165:0.111 166:0.55599999 167:0.111 168:0.333 169:0.111 170:0.667 171:0 172:0.111 173:0.111 174:0.333 175:0.44400001 176:0.222 177:0.222 178:0.55599999 179:0 180:0.222 181:0.778 182:0 183:0.55599999 184:0.889 185:0.222 186:0.44400001 187:0.44400001 188:0.667 189:0.333 190:0.55599999 191:0.222 192:0.333 193:0.44400001 194:0.333 195:0.778 196:0.44400001 197:0.667 198:0.667 199:0.111 200:0.222 201:0.222 202:0 203:0.222 204:0.44400001 205:0.111 206:0 207:0.111 208:0.111 209:0.111 210:0.44400001 211:0.222 212:0 213:0.222 214:0.222 215:0.667 216:0 217:0.222 218:0.111 219:0.111 220:0.111 221:0.44400001 222:0 223:0.55599999 224:0.667 225:0.111 226:0 227:0 228:0.222 229:0.111 230:0.333 231:0.222 232:0.222 233:0.111 234:0.222 235:0.222 236:0.111 237:0 238:0.111 239:0 240:0.111 241:0.667 242:0.222 243:0.111 244:0.55599999 245:0 246:0.333 247:0.111 248:0.111 249:0.111 250:0.222 251:0.111 252:0 253:0.111 254:0.111 255:0 256:0 257:0.222 258:0.111 259:0.111 260:0 261:0.44400001 262:0.111 263:0.111 264:0.333 265:0 266:0.44400001 267:0 268:0.222 269:0.111 270:0.44400001 271:0.111 272:0.222 273:0.111 274:0.222 275:0.778 276:0.222 277:0.333 278:0.333 279:0 280:0 281:0.333 282:0.111 283:0.333 284:0.55599999 285:0.111 286:0.44400001 287:0.44400001 288:0.333 289:0.889 290:0.55599999 291:0.333 292:0.44400001 293:0.222 294:0.44400001 295:0.55599999 296:0.111 297:0.55599999 298:0.44400001 299:0.111 300:0 301:0.111 302:0 303:0.44400001 304:0.44400001 305:0.111 306:0.44400001 307:0.111 308:0.667 309:0.222 310:0.44400001 311:0.222 312:0.111 313:0.222 314:0.111 315:0.55599999 316:0.333 317:0.111 318:0.111 319:0.111 320:0 321:0.667 322:0 323:0.111 324:0.44400001 325:0.222 326:0.55599999 327:0 328:0.44400001 329:0.333 330:0.778 331:0.111 332:0.333 333:0.111 334:0 335:0.111 336:0 337:0 338:0.333 339:0 340:0.111 341:0.333 342:0 343:0.55599999 344:0.333 345:0.333 346:0.44400001 347:0.111 348:0.222 349:0.222 350:0.778 351:0.111 352:0.44400001 353:0.111 354:0.44400001 355:0.333 356:0.44400001 357:0.44400001 358:0.667 359:0 360:0.222 361:0 362:0 363:0.111 364:0 365:0 366:0 367:0 368:0 369:0.111 370:0.111 371:0 372:0 373:0 374:0.222 375:0 376:0.111 377:0 378:0.111 379:0 380:0 381:0.333 382:0 383:0.111 384:0.222 385:0.111 386:0.222 387:0 388:0.222 389:0.44400001 390:0.55599999 391:0.111 392:0 393:0.111 394:0.111 395:0 396:0.222 397:0 398:0 399:0 400:0 #
4.9116296464887563288925775850657 1:1.085 2:0 3:0.25 4:0.417 5:0.25 6:0.082999997 7:0.082999997 8:0.25 9:0.50099999 10:0.58399999 11:0.25 12:0.25 13:0.58399999 14:0.58399999 15:0.33399999 16:0.75099999 17:0.167 18:0.66799998 19:0.167 20:0 21:0.082999997 22:0 23:0 24:0.25 25:0.25 26:0.082999997 27:0 28:0.167 29:0.082999997 30:0.25 31:0 32:0 33:0 34:0 35:0 36:0.25 37:0 38:0.167 39:0 40:0.082999997 41:0.33399999 42:0 43:0.25 44:0.83499998 45:0.167 46:0.25 47:0.167 48:0.58399999 49:0.66799998 50:1.002 51:0 52:0.082999997 53:0.33399999 54:0.25 55:0.082999997 56:0.58399999 57:0.167 58:0.167 59:0 60:0 61:0.50099999 62:0.167 63:0.75099999 64:1.419 65:0.082999997 66:0.58399999 67:0.167 68:0.167 69:1.002 70:0.66799998 71:0.167 72:0.25 73:0.417 74:0.25 75:0.58399999 76:0.58399999 77:0 78:0.50099999 79:0.082999997 80:0 81:0.25 82:0 83:0.082999997 84:0.082999997 85:0.082999997 86:0.082999997 87:0.167 88:0.082999997 89:0.167 90:0.167 91:0 92:0.082999997 93:0.082999997 94:0.167 95:0.082999997 96:0.25 97:0.167 98:0.25 99:0.082999997 100:0.167 101:0.25 102:0 103:0.082999997 104:0.417 105:0 106:0 107:0.25 108:0.25 109:0.25 110:0.25 111:0.25 112:0 113:0.082999997 114:0 115:0 116:0.167 117:0.33399999 118:0.66799998 119:0 120:0.167 121:0 122:0 123:0.167 124:0.25 125:0.167 126:0.082999997 127:0.167 128:0.25 129:0.25 130:0.25 131:0 132:0 133:0.082999997 134:0 135:0.25 136:0.25 137:0.167 138:0.33399999 139:0 140:0 141:0.417 142:0.417 143:0.417 144:0.25 145:0.082999997 146:0 147:0.082999997 148:0.417 149:0.50099999 150:0.58399999 151:0.25 152:0.082999997 153:0.25 154:0.417 155:0.50099999 156:0.417 157:0.33399999 158:0.167 159:0 160:0 161:0.58399999 162:0.082999997 163:0.75099999 164:0.83499998 165:0.167 166:0.58399999 167:0.25 168:0.33399999 169:1.92 170:1.169 171:0.167 172:0.33399999 173:0.33399999 174:0.33399999 175:0.33399999 176:0.417 177:0.25 178:0.50099999 179:0 180:0.25 181:1.002 182:0.082999997 183:0.91799998 184:0.91799998 185:0.25 186:0.33399999 187:0.082999997 188:0.75099999 189:0.83499998 190:1.002 191:0.33399999 192:0.25 193:0.50099999 194:0.66799998 195:0.33399999 196:0.75099999 197:0.58399999 198:0.50099999 199:0 200:0.33399999 201:0.167 202:0 203:0 204:0.167 205:0.082999997 206:0 207:0 208:0 209:0.082999997 210:0.33399999 211:0 212:0.082999997 213:0.25 214:0 215:0 216:0.66799998 217:0.33399999 218:0.167 219:0 220:0.167 221:0.25 222:0 223:0.167 224:0.167 225:0.082999997 226:0.167 227:0.167 228:0.167 229:0 230:0.417 231:0.082999997 232:0.167 233:0.25 234:0.167 235:0 236:0.082999997 237:0.167 238:0.25 239:0.082999997 240:0.167 241:0.33399999 242:0.082999997 243:0.167 244:0.50099999 245:0.167 246:0.417 247:0 248:0.167 249:0.58399999 250:0.50099999 251:0.167 252:0.167 253:0.417 254:0.25 255:0.33399999 256:0.417 257:0.082999997 258:0.50099999 259:0 260:0.25 261:0.417 262:0.33399999 263:0.25 264:0.417 265:0.167 266:0.167 267:0.082999997 268:0.167 269:0.66799998 270:0.33399999 271:0.25 272:0.25 273:0.082999997 274:0.167 275:0.33399999 276:0.50099999 277:0.082999997 278:0.167 279:0 280:0.167 281:0.25 282:0 283:0.25 284:0.25 285:0 286:0.082999997 287:0.417 288:0.082999997 289:0.58399999 290:0.58399999 291:0.082999997 292:0.33399999 293:0.33399999 294:0.167 295:0.58399999 296:0.082999997 297:0 298:0.33399999 299:0 300:0.082999997 301:0.58399999 302:0.33399999 303:0.58399999 304:0.33399999 305:0.25 306:0.167 307:0.167 308:0.75099999 309:0.33399999 310:0.75099999 311:0.25 312:0.167 313:0.50099999 314:0.50099999 315:0.167 316:1.252 317:0.50099999 318:0.50099999 319:0.082999997 320:0.167 321:0 322:0 323:0.082999997 324:0.33399999 325:0.082999997 326:0.167 327:0.25 328:0.167 329:0.33399999 330:0.50099999 331:0 332:0.33399999 333:0.33399999 334:0.167 335:0.33399999 336:0.25 337:0.50099999 338:0.167 339:0 340:0.25 341:0.50099999 342:0.167 343:0.50099999 344:0.417 345:0.167 346:0.082999997 347:0.082999997 348:0.25 349:0.75099999 350:0.58399999 351:0.167 352:0.167 353:0.58399999 354:0.75099999 355:0.082999997 356:0.50099999 357:0.417 358:0.25 359:0 360:0.082999997 361:0.082999997 362:0 363:0 364:0 365:0 366:0 367:0 368:0.167 369:0 370:0.082999997 371:0 372:0 373:0 374:0 375:0 376:0 377:0 378:0.082999997 379:0 380:0.082999997 381:0.167 382:0.082999997 383:0.25 384:0.082999997 385:0 386:0.082999997 387:0.082999997 388:0.417 389:0.082999997 390:0.417 391:0 392:0 393:0.082999997 394:0.167 395:0.167 396:0.167 397:0 398:0.167 399:0 400:0 #
4.9116296464887563288925775850657 1:0.62699997 2:0.47 3:0.47 4:0.47 5:0.31299999 6:0.31299999 7:0 8:1.097 9:1.2539999 10:1.097 11:0.31299999 12:0.47 13:0 14:0.62699997 15:0.47 16:0.47 17:0.62699997 18:0.47 19:0 20:0.47 21:0 22:0 23:0 24:0.15700001 25:0 26:0 27:0 28:0 29:0 30:0.15700001 31:0 32:0 33:0 34:0 35:0 36:0 37:0 38:0 39:0 40:0.31299999 41:0.47 42:0 43:0.31299999 44:0.94 45:0.47 46:0.31299999 47:0.15700001 48:0.31299999 49:0.15700001 50:0.78399998 51:0.15700001 52:0.15700001 53:0.78399998 54:0 55:0.15700001 56:0.31299999 57:0.31299999 58:0 59:0 60:0.31299999 61:0.94 62:0 63:0.47 64:0.31299999 65:0.31299999 66:0.47 67:0 68:0.31299999 69:0.78399998 70:0.62699997 71:0 72:0.78399998 73:0.47 74:0.15700001 75:0.15700001 76:0.47 77:0.15700001 78:0.47 79:0 80:0.15700001 81:0.47 82:0 83:0.78399998 84:0.15700001 85:0.94 86:0.15700001 87:0.15700001 88:0.31299999 89:0.15700001 90:0.31299999 91:0 92:0.47 93:0.15700001 94:0.31299999 95:0 96:0 97:0.62699997 98:0 99:0 100:0.15700001 101:0.31299999 102:0 103:0.47 104:0.31299999 105:0.15700001 106:0 107:0 108:0.47 109:0.31299999 110:0.31299999 111:0.15700001 112:0.31299999 113:0.15700001 114:0.31299999 115:0.15700001 116:0.47 117:0.31299999 118:0 119:0 120:0.15700001 121:0 122:0 123:0 124:0 125:0.31299999 126:0 127:0 128:0 129:0 130:0.15700001 131:0 132:0 133:0.15700001 134:0 135:0.15700001 136:0.31299999 137:0 138:0.15700001 139:0 140:0 141:0.31299999 142:0 143:0.15700001 144:0.62699997 145:0.47 146:0.47 147:0.15700001 148:0.15700001 149:0.78399998 150:0.78399998 151:0 152:0.15700001 153:0 154:0.31299999 155:0 156:0.47 157:0.15700001 158:0 159:0 160:0 161:1.097 162:0 163:0.47 164:0.31299999 165:0.62699997 166:0.47 167:0 168:0.62699997 169:0.47 170:0.62699997 171:0.15700001 172:0.94 173:0.15700001 174:0.62699997 175:0.78399998 176:0.31299999 177:0 178:0.47 179:0 180:0.15700001 181:1.567 182:0.15700001 183:0.62699997 184:0.78399998 185:0.15700001 186:0.15700001 187:0.15700001 188:0.15700001 189:1.097 190:1.411 191:0 192:0.78399998 193:0.47 194:0.78399998 195:0.62699997 196:0.94 197:0.78399998 198:0.15700001 199:0 200:0.31299999 201:0.15700001 202:0 203:0.15700001 204:0.31299999 205:0.15700001 206:0 207:0 208:0 209:0.15700001 210:0.31299999 211:0 212:0 213:0 214:0 215:0 216:0 217:0 218:0 219:0 220:0.31299999 221:0.47 222:0 223:0.15700001 224:0.94 225:0.31299999 226:0.31299999 227:0.15700001 228:0.15700001 229:0.78399998 230:0.62699997 231:0 232:0.31299999 233:0.31299999 234:0 235:0.31299999 236:0.47 237:0.47 238:0.15700001 239:0 240:0.15700001 241:0 242:0 243:0.31299999 244:0.47 245:0 246:0 247:0 248:0.15700001 249:0 250:0.31299999 251:0.15700001 252:0.47 253:0.15700001 254:0 255:0.15700001 256:0.47 257:0.78399998 258:0.15700001 259:0 260:0.15700001 261:0.62699997 262:0 263:0.31299999 264:0.47 265:0 266:0.15700001 267:0 268:0.15700001 269:0.47 270:0.94 271:0.31299999 272:0.15700001 273:0 274:0.94 275:0.31299999 276:0.47 277:0 278:0.31299999 279:0 280:0.31299999 281:0.47 282:0 283:0 284:0.15700001 285:0.15700001 286:0.62699997 287:0 288:0 289:0.31299999 290:0.47 291:0 292:0.31299999 293:0 294:0.47 295:0.31299999 296:0.15700001 297:0.15700001 298:0 299:0 300:0.15700001 301:1.097 302:0 303:0.15700001 304:0.47 305:0.15700001 306:0.31299999 307:0.15700001 308:0.31299999 309:0.31299999 310:1.097 311:0 312:0.62699997 313:0.15700001 314:0.62699997 315:0 316:0.47 317:0.31299999 318:0.47 319:0 320:0.15700001 321:0.62699997 322:0 323:0.62699997 324:0.15700001 325:0.31299999 326:0.31299999 327:0 328:0.15700001 329:0.94 330:0.47 331:0.15700001 332:0 333:0.15700001 334:0.15700001 335:0 336:0.31299999 337:0.31299999 338:0.31299999 339:0 340:0.15700001 341:0.31299999 342:0 343:0.31299999 344:0 345:0.15700001 346:0.31299999 347:0 348:0.15700001 349:0 350:0.62699997 351:0 352:0.15700001 353:0.15700001 354:0.31299999 355:0 356:0.47 357:0 358:0.15700001 359:0 360:0.31299999 361:0 362:0 363:0 364:0 365:0 366:0 367:0 368:0 369:0 370:0 371:0 372:0 373:0 374:0 375:0 376:0 377:0 378:0 379:0 380:0 381:0.47 382:0 383:0.31299999 384:0 385:0.15700001 386:0 387:0.31299999 388:0.47 389:0.31299999 390:0.15700001 391:0 392:0 393:0.47 394:0.31299999 395:0.15700001 396:0.31299999 397:0.15700001 398:0.15700001 399:0 400:0.47 #
-0.21889118768846133056271696659678 1:0.86400002 2:0 3:0.43200001 4:0.21600001 5:0.21600001 6:0.43200001 7:0 8:0 9:0.21600001 10:0.86400002 11:0.648 12:0 13:0 14:0.21600001 15:0.43200001 16:0.43200001 17:0 18:1.08 19:0 20:0.21600001 21:0.21600001 22:0.21600001 23:0 24:0 25:0 26:0.21600001 27:0 28:0 29:0 30:1.296 31:0 32:0.21600001 33:0 34:0 35:0 36:0 37:0.21600001 38:0.43200001 39:0.21600001 40:0 41:0.21600001 42:0 43:0 44:0.648 45:0.21600001 46:0.21600001 47:0 48:0 49:0.21600001 50:0.86400002 51:0.21600001 52:0.21600001 53:0.43200001 54:0 55:0 56:0.21600001 57:0.21600001 58:0.21600001 59:0.21600001 60:0.21600001 61:0.21600001 62:0 63:1.296 64:0.43200001 65:0 66:0 67:0 68:0 69:0.43200001 70:0.86400002 71:0 72:0.21600001 73:0.43200001 74:0.21600001 75:0.648 76:0.43200001 77:0.21600001 78:0 79:0 80:0.21600001 81:0 82:0.21600001 83:0 84:0.43200001 85:0.43200001 86:0.43200001 87:0 88:0 89:0.43200001 90:0.21600001 91:0.21600001 92:0 93:0.21600001 94:0.43200001 95:0.43200001 96:0.648 97:0.21600001 98:0.21600001 99:0 100:0 101:0.21600001 102:0.43200001 103:0.21600001 104:0 105:0.43200001 106:0.21600001 107:0.21600001 108:0 109:0.43200001 110:1.296 111:0 112:0 113:0.648 114:0 115:0.648 116:0.86400002 117:0 118:0.43200001 119:0.21600001 120:0.21600001 121:0.21600001 122:0 123:0.21600001 124:0.43200001 125:0.21600001 126:0.43200001 127:0 128:0.43200001 129:0 130:0.21600001 131:0 132:0.43200001 133:0.21600001 134:0.21600001 135:0.21600001 136:0.21600001 137:0.21600001 138:0.21600001 139:0 140:0 141:0.21600001 142:0 143:0.21600001 144:0 145:0.21600001 146:0 147:0.21600001 148:0 149:0 150:0.21600001 151:0.21600001 152:0 153:0 154:0.43200001 155:0.21600001 156:0 157:0.21600001 158:0.21600001 159:0 160:0 161:0 162:0.21600001 163:0 164:0.21600001 165:0.43200001 166:0.21600001 167:0.43200001 168:0 169:0 170:0.86400002 171:0 172:0.21600001 173:0.43200001 174:0 175:0.21600001 176:0 177:0 178:0.43200001 179:0.21600001 180:0 181:1.512 182:0.648 183:0.648 184:0.43200001 185:0.43200001 186:1.296 187:0.43200001 188:0.21600001 189:0 190:3.0239999 191:0.21600001 192:0.43200001 193:1.296 194:1.296 195:0.86400002 196:0.43200001 197:0.43200001 198:2.1600001 199:0.21600001 200:0 201:0.21600001 202:0 203:0.21600001 204:0 205:0.21600001 206:0.21600001 207:0.43200001 208:0 209:0.43200001 210:0.21600001 211:0 212:0 213:0 214:0.21600001 215:0.21600001 216:0 217:0 218:0 219:0.21600001 220:0.21600001 221:0.21600001 222:0 223:0 224:0 225:0.43200001 226:0.21600001 227:0.21600001 228:0 229:0 230:0.648 231:0 232:0.21600001 233:0.21600001 234:0.21600001 235:0.21600001 236:0.21600001 237:0 238:0 239:0.21600001 240:0.21600001 241:0.648 242:0 243:0.21600001 244:0.21600001 245:0.21600001 246:0.43200001 247:0.21600001 248:0 249:0 250:1.296 251:0.21600001 252:0.21600001 253:0.21600001 254:0 255:0.43200001 256:0.43200001 257:0 258:0.43200001 259:0.21600001 260:0 261:0.21600001 262:0 263:0 264:0 265:0.21600001 266:0 267:0.43200001 268:0.21600001 269:0.21600001 270:0.648 271:0.21600001 272:0.43200001 273:0 274:0.21600001 275:0 276:0.21600001 277:0.21600001 278:0.21600001 279:0 280:0.43200001 281:0.648 282:0 283:0.21600001 284:1.08 285:0 286:0.21600001 287:0.21600001 288:0.21600001 289:0.21600001 290:0.86400002 291:0.21600001 292:0 293:0.21600001 294:0 295:0.21600001 296:0.648 297:0 298:0.21600001 299:0.43200001 300:0 301:0.43200001 302:0.21600001 303:0 304:0.43200001 305:0.21600001 306:0.43200001 307:0.21600001 308:0.648 309:0.43200001 310:0.648 311:0.21600001 312:0.21600001 313:0.43200001 314:0.21600001 315:0.21600001 316:0.648 317:0.21600001 318:0.21600001 319:0.43200001 320:0 321:0 322:0 323:0 324:0.86400002 325:0 326:0.21600001 327:0 328:0 329:0 330:0.43200001 331:0 332:0.21600001 333:0.43200001 334:0 335:0.21600001 336:0.43200001 337:0 338:0.43200001 339:0 340:0 341:0.21600001 342:1.08 343:0.21600001 344:0 345:0.43200001 346:0.86400002 347:0.21600001 348:0.43200001 349:0.43200001 350:1.08 351:0.21600001 352:0.21600001 353:0 354:0.21600001 355:0 356:0.21600001 357:1.08 358:0.86400002 359:0 360:0.21600001 361:0 362:0 363:0.21600001 364:0 365:0.21600001 366:0 367:0.43200001 368:0 369:0.43200001 370:0.21600001 371:0 372:0 373:0 374:0 375:0.43200001 376:0 377:0.21600001 378:0.21600001 379:0 380:0.21600001 381:0 382:0 383:0.21600001 384:0.21600001 385:0 386:0.43200001 387:0.21600001 388:0.21600001 389:0 390:0.21600001 391:0 392:0 393:0.21600001 394:0 395:0 396:0.43200001 397:0 398:0 399:0 400:0.21600001 #
-1.067745575323642670539925347839 1:0.17900001 2:0 3:0.35699999 4:0.71399999 5:0 6:0.17900001 7:0.17900001 8:0.53600001 9:0.17900001 10:0.53600001 11:0 12:0 13:0.35699999 14:0.53600001 15:0.53600001 16:0.35699999 17:0.71399999 18:0.71399999 19:0 20:0.35699999 21:0 22:0 23:0 24:0 25:0 26:0 27:0 28:0 29:0 30:0.17900001 31:0 32:0 33:0.17900001 34:0 35:0.17900001 36:0 37:0.17900001 38:0.17900001 39:0 40:0 41:0.53600001 42:0 43:0.17900001 44:0.35699999 45:0.17900001 46:0.53600001 47:0 48:0 49:0.17900001 50:0.89300001 51:0.53600001 52:0.17900001 53:0 54:0.17900001 55:0 56:0.17900001 57:0.35699999 58:0.17900001 59:0 60:0.35699999 61:1.071 62:0.17900001 63:0.17900001 64:0.53600001 65:0.35699999 66:0.71399999 67:0.17900001 68:0.53600001 69:0.89300001 70:0.71399999 71:0.17900001 72:0.53600001 73:0.35699999 74:0.17900001 75:0 76:0.17900001 77:0.17900001 78:0.53600001 79:0.17900001 80:0.89300001 81:0.35699999 82:0 83:0.17900001 84:0.53600001 85:0 86:0.17900001 87:0 88:0.17900001 89:0.35699999 90:0.17900001 91:0.17900001 92:0.17900001 93:0 94:0.17900001 95:0.53600001 96:0.17900001 97:0 98:0.53600001 99:0.35699999 100:0.35699999 101:0 102:0.17900001 103:1.071 104:0.89300001 105:0.35699999 106:0.35699999 107:0 108:0.17900001 109:0.17900001 110:0.71399999 111:0.35699999 112:0.17900001 113:0 114:0.53600001 115:0.35699999 116:0.35699999 117:0.53600001 118:0.35699999 119:0.35699999 120:0.35699999 121:0.17900001 122:0 123:0.35699999 124:0 125:0.17900001 126:0.17900001 127:0 128:0.17900001 129:0.17900001 130:0.17900001 131:0 132:0 133:0 134:0 135:0.35699999 136:0 137:0.17900001 138:0.17900001 139:0 140:0 141:0.17900001 142:0 143:0.17900001 144:0.35699999 145:0.17900001 146:0.17900001 147:0 148:0.17900001 149:0.53600001 150:0.35699999 151:0 152:0.53600001 153:0.71399999 154:0.17900001 155:0.35699999 156:0.17900001 157:0 158:0.53600001 159:0.17900001 160:0.53600001 161:0.17900001 162:0 163:0.35699999 164:0.89300001 165:0.17900001 166:1.071 167:0 168:0.35699999 169:1.25 170:0.35699999 171:0.17900001 172:0 173:0.35699999 174:0.17900001 175:0.71399999 176:0.71399999 177:0.35699999 178:0.71399999 179:0.17900001 180:0.17900001 181:0.53600001 182:0.17900001 183:0.35699999 184:0.53600001 185:0.35699999 186:0.71399999 187:0 188:0.89300001 189:0.53600001 190:0.53600001 191:0.17900001 192:0 193:0.35699999 194:0.35699999 195:0.17900001 196:0.17900001 197:0.35699999 198:1.071 199:0 200:0.71399999 201:0 202:0 203:0 204:0.35699999 205:0.17900001 206:0.17900001 207:0.17900001 208:0 209:0 210:0.17900001 211:0.17900001 212:0.17900001 213:0.17900001 214:0 215:0.35699999 216:0.35699999 217:0.17900001 218:0.35699999 219:0.17900001 220:0.17900001 221:0 222:0 223:0 224:0.17900001 225:0 226:0.35699999 227:0.17900001 228:0.17900001 229:0.35699999 230:0.17900001 231:0.17900001 232:0.17900001 233:0.17900001 234:0 235:0.17900001 236:0 237:0 238:0.53600001 239:0 240:0.17900001 241:0 242:0 243:0.17900001 244:0.17900001 245:0.35699999 246:0.35699999 247:0.17900001 248:0.35699999 249:0.53600001 250:0.53600001 251:0.17900001 252:0 253:0.17900001 254:0.17900001 255:0 256:0 257:0.35699999 258:0.17900001 259:0.53600001 260:0 261:0.35699999 262:0 263:0.17900001 264:0 265:0.35699999 266:0.71399999 267:0.17900001 268:0.35699999 269:0.17900001 270:0 271:0.17900001 272:0 273:0.35699999 274:0 275:0 276:0 277:0.35699999 278:0 279:0 280:0.17900001 281:0.71399999 282:0.17900001 283:0.35699999 284:0.53600001 285:0 286:0.17900001 287:0.35699999 288:0 289:0.71399999 290:0.53600001 291:0.35699999 292:0.53600001 293:0.17900001 294:0.35699999 295:0.17900001 296:0 297:0 298:0.17900001 299:0.17900001 300:0.17900001 301:0.17900001 302:0 303:0.35699999 304:0.53600001 305:0.53600001 306:0 307:0.17900001 308:0 309:0.89300001 310:0.35699999 311:0 312:0 313:0 314:0.17900001 315:0.17900001 316:0.17900001 317:0 318:0.17900001 319:0 320:0 321:0.71399999 322:0 323:0.17900001 324:0.53600001 325:0.35699999 326:0 327:0 328:0 329:0 330:0.17900001 331:0 332:0 333:0.17900001 334:0.17900001 335:0.53600001 336:0 337:0 338:0.53600001 339:0.17900001 340:0.35699999 341:0.35699999 342:0.17900001 343:0.53600001 344:0.71399999 345:0 346:1.071 347:0.17900001 348:0.53600001 349:0.71399999 350:0.53600001 351:0.17900001 352:0.17900001 353:0.35699999 354:0 355:0.71399999 356:0.35699999 357:0 358:0.17900001 359:0 360:0.71399999 361:0 362:0 363:0 364:0.17900001 365:0.53600001 366:0 367:0 368:0.35699999 369:0 370:0.53600001 371:0 372:0 373:0 374:0 375:0.17900001 376:0.35699999 377:0 378:0.35699999 379:0.17900001 380:0 381:0.89300001 382:0 383:0 384:0.53600001 385:0.35699999 386:0.35699999 387:0.35699999 388:0.53600001 389:0.53600001 390:0.35699999 391:0.17900001 392:0.17900001 393:0.35699999 394:0.17900001 395:0.17900001 396:0.17900001 397:0.17900001 398:0 399:0.17900001 400:0.89300001 #
-1.067745575323642670539925347839 1:0.50199997 2:0.167 3:0.33399999 4:0.66900003 5:0.33399999 6:0.33399999 7:0.167 8:0.66900003 9:0.33399999 10:1.3380001 11:0.167 12:0.167 13:0.33399999 14:0.50199997 15:0.33399999 16:0.66900003 17:0.167 18:0.33399999 19:0 20:0.167 21:0.167 22:0 23:0 24:0.167 25:0 26:0.50199997 27:0.167 28:0 29:0 30:0 31:0 32:0 33:0 34:0 35:0 36:0.167 37:0 38:0.167 39:0 40:0.33399999 41:1.003 42:0 43:0.167 44:0 45:0.33399999 46:0.167 47:0.167 48:0.83600003 49:0.167 50:1.003 51:0.167 52:0.50199997 53:0.33399999 54:0 55:0.83600003 56:0.50199997 57:0.33399999 58:0.33399999 59:0 60:0.50199997 61:0.66900003 62:0.167 63:0.167 64:0.167 65:0 66:0.66900003 67:0 68:0.50199997 69:0.50199997 70:0.66900003 71:0.33399999 72:0 73:0.33399999 74:0 75:1.171 76:0.167 77:0.33399999 78:1.003 79:0 80:0.167 81:0 82:0 83:0.50199997 84:0 85:0.167 86:0.167 87:0 88:0.167 89:0.33399999 90:0.33399999 91:0 92:0 93:0.167 94:0.167 95:0.33399999 96:0.33399999 97:0.167 98:0 99:0 100:0.167 101:0.33399999 102:0 103:0.66900003 104:0.50199997 105:0.66900003 106:0.33399999 107:0.167 108:0.50199997 109:0.66900003 110:0.50199997 111:0 112:0.50199997 113:0.167 114:0.33399999 115:0.167 116:0 117:0.33399999 118:0.83600003 119:0.167 120:0.167 121:0 122:0 123:0 124:0 125:0 126:0.50199997 127:0 128:0.33399999 129:0 130:0 131:0.33399999 132:0 133:0 134:0 135:0.167 136:0 137:0 138:0.33399999 139:0 140:0 141:0.66900003 142:0.167 143:0.83600003 144:0.167 145:0.167 146:0.33399999 147:0.167 148:0.83600003 149:0.50199997 150:0.167 151:0 152:0.167 153:0.50199997 154:0.50199997 155:0.33399999 156:0.167 157:0.66900003 158:0.167 159:0 160:0.33399999 161:0.50199997 162:0.33399999 163:0.50199997 164:0.167 165:0 166:0.167 167:0 168:0.167 169:0.66900003 170:0.50199997 171:0.167 172:0.50199997 173:0.167 174:0.66900003 175:0.50199997 176:0.33399999 177:0.167 178:0.50199997 179:0 180:0 181:1.003 182:0.167 183:0.83600003 184:0.66900003 185:0.33399999 186:1.003 187:0.33399999 188:1.003 189:0.33399999 190:0.66900003 191:0 192:0.50199997 193:0.83600003 194:0.33399999 195:0.50199997 196:0.50199997 197:0.33399999 198:0.66900003 199:0 200:0 201:0.167 202:0 203:0.33399999 204:0.50199997 205:0 206:0 207:0 208:0 209:0.50199997 210:0.167 211:0 212:0 213:0 214:0 215:0 216:0.167 217:0 218:0.33399999 219:0 220:0 221:0.167 222:0.167 223:0.167 224:0 225:0.50199997 226:0.33399999 227:0 228:0.33399999 229:0.33399999 230:0 231:0.167 232:0.167 233:0.167 234:0.167 235:0.167 236:0.167 237:0 238:0.50199997 239:0 240:0.167 241:0.50199997 242:0 243:0 244:0.66900003 245:0 246:0.33399999 247:0 248:0.167 249:0.167 250:0.167 251:0.167 252:0 253:0.33399999 254:0.50199997 255:0.167 256:0.167 257:0.167 258:0.50199997 259:0 260:0 261:0.66900003 262:0 263:0.167 264:0.33399999 265:0.167 266:0.167 267:0 268:0.33399999 269:0.33399999 270:0.33399999 271:0 272:0.167 273:0 274:0.167 275:0 276:0.167 277:0.50199997 278:0.66900003 279:0 280:0 281:0 282:0.33399999 283:0.50199997 284:1.003 285:0.167 286:0.66900003 287:0 288:0.33399999 289:0.50199997 290:0.66900003 291:0.167 292:0.33399999 293:0 294:0.167 295:0 296:0.33399999 297:0.167 298:0.50199997 299:0 300:0 301:0.33399999 302:0 303:0.83600003 304:0 305:0 306:0 307:0 308:0.167 309:0.167 310:0.83600003 311:0.167 312:0 313:0.167 314:0.167 315:0.66900003 316:0.50199997 317:0.66900003 318:0.167 319:0.167 320:0.167 321:0.33399999 322:0 323:0.167 324:0.167 325:0 326:0.33399999 327:0.33399999 328:0.167 329:0 330:1.171 331:0 332:0.167 333:0.33399999 334:0 335:0 336:0.33399999 337:0.33399999 338:0.33399999 339:0 340:0.50199997 341:0.33399999 342:0.167 343:1.003 344:0.83600003 345:0 346:0.83600003 347:0 348:0.33399999 349:0.50199997 350:1.003 351:0.167 352:0.167 353:0.167 354:0.33399999 355:0.50199997 356:0.50199997 357:0.167 358:0.83600003 359:0 360:0.50199997 361:0 362:0 363:0 364:0 365:0.167 366:0 367:0 368:0 369:0 370:0.167 371:0 372:0 373:0 374:0 375:0 376:0 377:0 378:0 379:0 380:0 381:0.33399999 382:0 383:0.167 384:1.003 385:0 386:0.167 387:0.167 388:0 389:0.167 390:0.33399999 391:0 392:0.33399999 393:0 394:0.167 395:0 396:0 397:0.167 398:0.167 399:0 400:0 #
