SVM-light Version V6.02
2 # kernel type
3 # kernel parameter -d 
0.02 # kernel parameter -g 
1 # kernel parameter -s 
1 # kernel parameter -r 
empty# kernel parameter -u 
20 # highest feature index 
1104 # number of training documents 
351 # number of support vectors plus 1 
0.77622826 # threshold b, each following line is a SV (starting with alpha*y)
-0.13418472378465329253316440372146 1:12.167 2:1.141 3:0.75999999 4:3.4219999 5:6.8439999 6:9.8859997 7:2.2809999 8:3.4219999 9:1.141 10:14.449 11:1.901 12:3.0420001 13:4.9429998 14:3.0420001 15:4.9429998 16:7.224 17:4.9429998 18:9.5059996 19:1.901 20:3.0420001 #
-0.22069656746379021083903637645562 1:11.34 2:0.51499999 3:0 4:0 5:1.031 6:9.2779999 7:2.5769999 8:1.546 9:1.031 10:1.546 11:3.608 12:3.0929999 13:19.587999 14:4.6389999 15:1.546 16:8.2469997 17:10.825 18:8.7629995 19:0.51499999 20:10.309 #
-0.46830587625404679341656333235733 1:7.237 2:0.65799999 3:8.5530005 4:5.263 5:2.632 6:8.5530005 7:2.632 8:8.5530005 9:4.605 10:7.237 11:3.289 12:0.65799999 13:5.921 14:3.289 15:6.579 16:4.605 17:3.947 18:10.526 19:2.632 20:2.632 #
-0.38028052102807696766006984034902 1:7.2399998 2:1.8099999 3:5.882 4:8.5970001 5:5.882 6:4.072 7:2.2620001 8:5.204 9:8.1450005 10:7.2399998 11:1.584 12:6.1090002 13:4.5250001 14:2.941 15:2.941 16:7.6919999 17:4.5250001 18:4.2989998 19:2.7149999 20:6.335 #
-0.24650239457138553578197104343417 1:8.1429996 2:2.28 3:5.8629999 4:7.8179998 5:1.303 6:3.9089999 7:1.6289999 8:0.977 9:12.052 10:16.287001 11:0.65100002 12:4.5599999 13:4.5599999 14:7.1659999 15:7.4920001 16:4.2350001 17:3.5829999 18:5.8629999 19:0.977 20:0.65100002 #
2.0000054549882464449694907671073 1:5.882 2:2.1670001 3:6.5019999 4:6.1919999 5:4.3340001 6:4.3340001 7:2.477 8:3.7149999 9:7.7399998 10:11.765 11:2.786 12:4.6440001 13:6.1919999 14:4.954 15:4.3340001 16:4.954 17:3.096 18:8.3590002 19:0.92900002 20:4.6440001 #
2.0000054549882464449694907671073 1:4.3740001 2:1.789 3:4.1750002 4:7.5549998 5:5.1690001 6:5.7649999 7:2.5840001 8:8.7480001 9:6.5609999 10:10.736 11:5.1690001 12:4.3740001 13:4.573 14:2.187 15:5.1690001 16:5.368 17:4.7709999 18:6.362 19:1.193 20:3.3800001 #
1.105265888556298259359778057842 1:10.185 2:1.852 3:3.704 4:5.5560002 5:3.704 6:12.963 7:2.7780001 8:4.6300001 9:13.889 10:7.4070001 11:1.852 12:4.6300001 13:4.6300001 14:2.7780001 15:2.7780001 16:0.926 17:6.4809999 18:4.6300001 19:0.926 20:3.704 #
2.0000054549882464449694907671073 1:8.1450005 2:0.60299999 3:3.017 4:3.017 5:8.7480001 6:9.3509998 7:3.017 8:9.3509998 9:3.017 10:9.2010002 11:4.9770002 12:3.1670001 13:4.223 14:1.961 15:2.5639999 16:4.072 17:6.033 18:8.5970001 19:3.9219999 20:3.017 #
1.6943406256047905955597343563568 1:8.5369997 2:4.8779998 3:9.7559996 4:14.634 5:6.098 6:3.6589999 7:1.22 8:7.3169999 9:2.4389999 10:3.6589999 11:6.098 12:1.22 13:8.5369997 14:2.4389999 15:1.22 16:3.6589999 17:3.6589999 18:4.8779998 19:0 20:6.098 #
-0.50000136374706161124237269177684 1:6.2859998 2:1.143 3:8.2860003 4:6.5710001 5:4.8569999 6:4.5710001 7:2.286 8:4.8569999 9:9.4289999 10:10.286 11:2.8570001 12:4.8569999 13:6.5710001 14:2.8570001 15:5.1430001 16:2.8570001 17:4.5710001 18:5.7140002 19:2 20:4 #
-0.053529833220428160722725863251981 1:5.085 2:0.565 3:7.9099998 4:3.9549999 5:6.7800002 6:9.04 7:1.13 8:3.3900001 9:9.04 10:6.7800002 11:0.565 12:6.2150002 13:2.26 14:4.52 15:7.3449998 16:5.085 17:5.6500001 18:7.3449998 19:2.26 20:5.085 #
-0.037960540899303597817127098323908 1:9.4980001 2:0 3:5.5560002 4:5.7350001 5:1.613 6:10.394 7:1.7920001 8:3.5840001 9:3.405 10:7.1680002 11:1.434 12:6.631 13:6.0929999 14:5.197 15:4.48 16:9.4980001 17:10.394 18:6.2719998 19:0.17900001 20:1.075 #
2.0000054549882464449694907671073 1:10.728 2:0.57499999 3:3.0650001 4:5.1719999 5:7.6630001 6:7.6630001 7:1.149 8:6.1300001 9:4.0229998 10:11.686 11:4.2150002 12:2.49 13:3.448 14:3.8310001 15:3.8310001 16:5.9390001 17:5.5560002 18:6.8969998 19:2.49 20:3.448 #
2.0000054549882464449694907671073 1:10.683 2:1.762 3:6.0570002 4:6.2779999 5:3.5239999 6:8.2600002 7:2.8629999 8:4.9559999 9:3.414 10:7.599 11:2.4230001 12:4.1849999 13:4.5149999 14:4.8460002 15:6.9380002 16:5.2859998 17:4.7360001 18:7.1589999 19:1.322 20:3.194 #
2.0000054549882464449694907671073 1:4.651 2:1.395 3:1.86 4:3.721 5:6.9770002 6:7.9070001 7:2.326 8:8.8369999 9:2.7909999 10:10.233 11:4.1859999 12:1.86 13:4.1859999 14:2.326 15:4.651 16:6.5120001 17:7.9070001 18:10.233 19:2.7909999 20:4.651 #
-0.50000136374706161124237269177684 1:6.9330001 2:1.867 3:2.6670001 4:6.4000001 5:8 6:7.7329998 7:3.733 8:4.8000002 9:3.733 10:10.667 11:3.467 12:1.867 13:5.5999999 14:3.2 15:4.533 16:5.3330002 17:4.8000002 18:8.533 19:2.4000001 20:3.733 #
-0.50000136374706161124237269177684 1:13.406 2:0.36199999 3:1.087 4:5.4349999 5:8.3330002 6:9.0579996 7:1.812 8:6.5219998 9:1.812 10:13.406 11:3.6229999 12:1.812 13:2.8989999 14:3.6229999 15:4.348 16:4.71 17:3.2609999 18:9.4200001 19:3.6229999 20:1.449 #
-0.50000136374706161124237269177684 1:10.56 2:0.64700001 3:2.3710001 4:3.8789999 5:6.25 6:8.8360004 7:1.293 8:7.7589998 9:3.664 10:12.931 11:4.9569998 12:3.017 13:3.017 14:2.586 15:4.526 16:5.8189998 17:5.8189998 18:7.3280001 19:2.586 20:2.155 #
2.0000054549882464449694907671073 1:6.75 2:2 3:7.75 4:5.5 5:6.75 6:5.5 7:1.5 8:11 9:9.5 10:8.25 11:2 12:5 13:4.5 14:1 15:1.75 16:6.75 17:4.75 18:4.5 19:0.75 20:4.5 #
2.0000054549882464449694907671073 1:5.967 2:2.0580001 3:4.9380002 4:3.9089999 5:6.79 6:4.7329998 7:3.4979999 8:6.79 9:5.7610002 10:9.8769999 11:4.3210001 12:4.527 13:5.1440001 14:3.4979999 15:5.7610002 16:8.0249996 17:3.9089999 18:5.7610002 19:1.235 20:3.4979999 #
2.0000054549882464449694907671073 1:7.0339999 2:1.711 3:4.7529998 4:9.5059996 5:3.802 6:4.9429998 7:1.331 8:3.612 9:9.5059996 10:9.316 11:2.471 12:3.4219999 13:7.0339999 14:6.0840001 15:3.612 16:5.513 17:3.9920001 18:7.414 19:1.521 20:3.4219999 #
-0.50000136374706161124237269177684 1:6.8179998 2:2.9549999 3:5.9089999 4:5.2270002 5:3.4089999 6:3.4089999 7:3.1819999 8:4.0910001 9:7.7270002 10:10.455 11:3.4089999 12:4.0910001 13:5.9089999 14:3.4089999 15:5 16:7.0450001 17:3.6359999 18:7.2729998 19:2.273 20:4.7729998 #
-0.11480687060729238835321552869573 1:9.8800001 2:0 3:7.7839999 4:8.0839996 5:4.1919999 6:5.3889999 7:0.59899998 8:6.8860002 9:5.9879999 10:6.5869999 11:2.994 12:2.994 13:2.994 14:2.395 15:9.5810003 16:6.2870002 17:5.6890001 18:8.3830004 19:0.29899999 20:2.994 #
-0.50000136374706161124237269177684 1:6.6989999 2:2.1530001 3:4.7849998 4:5.9809999 5:5.263 6:4.5450001 7:2.8710001 8:3.589 9:7.895 10:11.244 11:2.632 12:2.632 13:5.9809999 14:4.3060002 15:5.7420001 16:5.5019999 17:5.5019999 18:7.4159999 19:1.4349999 20:3.8280001 #
2.0000054549882464449694907671073 1:9.2309999 2:0.92299998 3:2.4619999 4:3.0769999 5:9.2309999 6:8 7:1.2309999 8:8 9:2.4619999 10:12.615 11:4.9229999 12:2.7690001 13:4.6149998 14:3.6919999 15:3.0769999 16:5.8460002 17:3.6919999 18:8.6149998 19:3.0769999 20:2.4619999 #
2.0000054549882464449694907671073 1:11.256 2:0.48899999 3:2.2839999 4:2.447 5:6.1989999 6:9.625 7:2.447 8:5.3829999 9:2.447 10:16.15 11:4.7309999 12:3.263 13:2.9360001 14:1.794 15:2.6099999 16:5.3829999 17:5.3829999 18:9.4619999 19:2.6099999 20:3.0999999 #
1.0120879867516547889749745081645 1:8.8409996 2:0.58899999 3:1.768 4:2.5539999 5:7.8590002 6:9.0369997 7:2.161 8:7.8590002 9:2.5539999 10:14.931 11:5.1079998 12:1.572 13:4.322 14:3.9289999 15:2.358 16:6.0900002 17:5.1079998 18:6.8759999 19:3.3399999 20:3.1429999 #
-0.16136516457253410883332378489285 1:3.7360001 2:1.099 3:2.6370001 4:3.9560001 5:9.6700001 6:5.0549998 7:1.538 8:10.33 9:4.835 10:12.308 11:4.6149998 12:2.6370001 13:2.198 14:3.7360001 15:4.3959999 16:8.5710001 17:5.4949999 18:7.033 19:1.758 20:4.3959999 #
-0.50000136374706161124237269177684 1:3.6900001 2:0.73799998 3:2.5829999 4:2.214 5:10.701 6:5.1659999 7:3.3210001 8:5.5349998 9:5.5349998 10:12.177 11:5.5349998 12:1.845 13:2.9519999 14:3.3210001 15:4.428 16:6.6420002 17:7.7490001 18:7.7490001 19:2.9519999 20:5.1659999 #
-0.50000136374706161124237269177684 1:4.0510001 2:2.2780001 3:4.8099999 4:3.2909999 5:7.0890002 6:7.0890002 7:2.5320001 8:9.3669996 9:4.0510001 10:8.6079998 11:4.0510001 12:4.5570002 13:4.0510001 14:3.2909999 15:5.5700002 16:5.823 17:6.329 18:6.835 19:1.5190001 20:4.8099999 #
2.0000054549882464449694907671073 1:7.5219998 2:1.0319999 3:6.0469999 4:8.8500004 5:4.4250002 6:6.6370001 7:3.0969999 8:3.9820001 9:5.605 10:8.7019997 11:2.802 12:3.392 13:4.4250002 14:3.54 15:5.3099999 16:6.342 17:5.1620002 18:7.0799999 19:1.327 20:4.7199998 #
2.0000054549882464449694907671073 1:7.6919999 2:1.748 3:5.2449999 4:7.3429999 5:4.1960001 6:6.6430001 7:1.923 8:6.8179998 9:6.119 10:10.664 11:1.923 12:4.7199998 13:4.895 14:5.4200001 15:4.895 16:4.3709998 17:4.895 18:6.4689999 19:0.52399999 20:3.497 #
2.0000054549882464449694907671073 1:6.5380001 2:1.7309999 3:3.846 4:8.0769997 5:2.6919999 6:8.0769997 7:2.5 8:5.3850002 9:5.9619999 10:10 11:3.0769999 12:3.2690001 13:5.5770001 14:2.5 15:5.9619999 16:3.846 17:6.7309999 18:7.6919999 19:2.115 20:4.4229999 #
-0.50000136374706161124237269177684 1:9.4659996 2:0.17200001 3:4.9910002 4:6.1960001 5:3.6140001 6:8.6059999 7:1.549 8:4.6469998 9:6.54 10:9.6389999 11:2.582 12:3.9590001 13:5.8520002 14:3.6140001 15:6.368 16:5.336 17:5.6799998 18:7.7449999 19:0.51599997 20:2.9260001 #
-0.50000136374706161124237269177684 1:7.2270002 2:1.1799999 3:6.342 4:8.2600002 5:3.9820001 6:6.6370001 7:2.655 8:3.835 9:5.3099999 10:8.8500004 11:2.655 12:3.54 13:4.1300001 14:3.835 15:5.7519999 16:6.4899998 17:5.9000001 18:7.375 19:1.327 20:4.7199998 #
-0.42575872049927726559204188561125 1:8.0570002 2:0.237 3:6.1609998 4:4.5019999 5:2.9619999 6:7.8200002 7:0.59200001 8:4.5019999 9:4.7389998 10:9.8339996 11:3.1989999 12:4.1469998 13:6.1609998 14:7.4640002 15:7.1090002 16:5.9239998 17:4.7389998 18:6.7540002 19:1.54 20:3.5550001 #
1.9959245983068292229489770761575 1:5.3099999 2:1.327 3:2.2119999 4:1.327 5:7.9650002 6:8.8500004 7:2.2119999 8:7.9650002 9:1.327 10:12.832 11:5.3099999 12:1.77 13:3.54 14:3.9820001 15:6.6370001 16:6.6370001 17:5.7519999 18:6.6370001 19:3.54 20:4.8670001 #
2.0000054549882464449694907671073 1:12 2:0 3:2 4:3 5:3 6:9 7:2 8:11 9:0 10:20 11:5 12:4 13:1 14:5 15:6 16:6 17:2 18:6 19:1 20:2 #
1.6486795064199994964582174361567 1:7.3390002 2:0.917 3:1.835 4:0.917 5:4.5869999 6:6.4219999 7:5.5050001 8:10.092 9:1.835 10:9.1739998 11:10.092 12:4.5869999 13:1.835 14:0.917 15:0 16:8.257 17:8.257 18:11.927 19:3.6700001 20:1.835 #
-0.50000136374706161124237269177684 1:9.5690002 2:1.4349999 3:3.8280001 4:7.6560001 5:4.7849998 6:4.3060002 7:1.914 8:6.6989999 9:8.6120005 10:11.483 11:2.8710001 12:4.7849998 13:5.263 14:3.8280001 15:2.8710001 16:2.8710001 17:5.263 18:5.7420001 19:1.4349999 20:4.7849998 #
-0.085176966586985758400629720199504 1:6.1539998 2:0.65899998 3:5.4949999 4:7.033 5:4.3959999 6:4.3959999 7:1.978 8:5.934 9:7.2529998 10:12.088 11:1.099 12:6.8130002 13:4.1760001 14:6.5929999 15:5.7140002 16:3.0769999 17:3.9560001 18:6.8130002 19:1.319 20:5.0549998 #
-0.50000136374706161124237269177684 1:10.39 2:0.64899999 3:8.4420004 4:9.7399998 5:3.8959999 6:5.1950002 7:1.948 8:5.8439999 9:4.5450001 10:9.7399998 11:2.5969999 12:4.5450001 13:4.5450001 14:4.5450001 15:5.1950002 16:1.948 17:4.5450001 18:9.0909996 19:0.64899999 20:1.948 #
2.0000054549882464449694907671073 1:6.6669998 2:1.026 3:5.1279998 4:7.4359999 5:3.5899999 6:5.3850002 7:2.0510001 8:5.1279998 9:6.6669998 10:7.4359999 11:2.0510001 12:2.3080001 13:7.9489999 14:5.3850002 15:8.2049999 16:7.4359999 17:5.3850002 18:5.3850002 19:1.795 20:3.5899999 #
2.0000054549882464449694907671073 1:11.579 2:1.579 3:5.526 4:3.158 5:2.632 6:9.7370005 7:2.895 8:3.947 9:2.368 10:9.474 11:2.105 12:1.316 13:6.053 14:3.421 15:8.684 16:6.842 17:7.368 18:7.895 19:2.105 20:1.316 #
2.0000054549882464449694907671073 1:6.7160001 2:0 3:7.4629998 4:11.194 5:1.493 6:4.4780002 7:4.4780002 8:5.9699998 9:7.4629998 10:8.2089996 11:2.2390001 12:2.2390001 13:2.9849999 14:2.2390001 15:2.9849999 16:8.2089996 17:7.4629998 18:6.7160001 19:2.9849999 20:4.4780002 #
-0.50000136374706161124237269177684 1:8.1969995 2:2.869 3:5.0549998 4:6.421 5:3.9619999 6:8.1969995 7:3.415 8:3.6889999 9:3.0050001 10:10.656 11:2.322 12:2.869 13:5.0549998 14:4.5079999 15:6.967 16:5.0549998 17:5.0549998 18:5.0549998 19:3.142 20:4.5079999 #
-0.50000136374706161124237269177684 1:5.7140002 2:1.818 3:6.2340002 4:10.779 5:2.987 6:7.013 7:2.0780001 8:4.2859998 9:8.3120003 10:5.974 11:2.5969999 12:4.026 13:4.4159999 14:2.727 15:4.5450001 16:8.5710001 17:5.8439999 18:6.2340002 19:3.1170001 20:2.727 #
-0.50000136374706161124237269177684 1:8.5530005 2:2.1930001 3:4.8249998 4:6.3600001 5:2.4119999 6:7.237 7:2.632 8:7.6750002 9:5.4819999 10:6.579 11:4.1669998 12:3.947 13:6.1399999 14:3.7279999 15:5.263 16:4.3860002 17:7.0180001 18:6.579 19:2.1930001 20:2.632 #
2.0000054549882464449694907671073 1:9.4119997 2:1.569 3:6.2750001 4:8.6269999 5:1.176 6:6.6669998 7:0.78399998 8:5.4899998 9:9.8039999 10:10.588 11:1.961 12:1.569 13:5.098 14:3.529 15:5.882 16:2.3529999 17:5.882 18:12.157 19:0.39199999 20:0.78399998 #
2.0000054549882464449694907671073 1:4.7059999 2:0.588 3:11.765 4:6.4710002 5:4.7059999 6:11.176 7:0.588 8:6.4710002 9:5.882 10:8.8240004 11:0.588 12:4.7059999 13:0.588 14:5.2940001 15:2.3529999 16:6.4710002 17:5.882 18:5.882 19:2.3529999 20:4.7059999 #
2.0000054549882464449694907671073 1:7.1999998 2:1.6 3:5.5999999 4:4.8000002 5:1.6 6:6.4000001 7:4.8000002 8:6.4000001 9:5.5999999 10:8 11:4 12:8 13:4.8000002 14:2.4000001 15:1.6 16:7.1999998 17:8 18:8 19:1.6 20:2.4000001 #
-0.50000136374706161124237269177684 1:7.2919998 2:0.347 3:4.8610001 4:8.6809998 5:5.2080002 6:7.6389999 7:2.431 8:4.8610001 9:7.9860001 10:10.417 11:2.431 12:2.0829999 13:4.8610001 14:4.8610001 15:2.0829999 16:6.25 17:5.9029999 18:9.375 19:0.347 20:2.0829999 #
-0.026750891661554924289001533566079 1:6.1950002 2:1.1059999 3:3.7609999 4:8.1859999 5:5.7519999 6:5.3099999 7:2.8759999 8:7.0799999 9:7.3010001 10:9.9560003 11:2.8759999 12:5.0879998 13:6.1950002 14:4.4250002 15:2.8759999 16:7.0799999 17:3.0969999 18:6.6370001 19:1.327 20:2.8759999 #
-0.50000136374706161124237269177684 1:7.3909998 2:0.21699999 3:5.8699999 4:8.4779997 5:3.043 6:9.783 7:1.522 8:5.8699999 9:4.348 10:9.1300001 11:3.2609999 12:2.391 13:4.348 14:4.348 15:5.652 16:5.4349999 17:5.217 18:10.217 19:0.21699999 20:3.2609999 #
2.0000054549882464449694907671073 1:11.795 2:1.026 3:0.51300001 4:6.1539998 5:3.0769999 6:10.769 7:0.51300001 8:6.1539998 9:4.6149998 10:8.2049999 11:2.0510001 12:2.0510001 13:10.256 14:4.1030002 15:5.6409998 16:3.5899999 17:5.6409998 18:7.6919999 19:2.5639999 20:3.5899999 #
1.769166837329628982899976108456 1:11.795 2:2.0510001 3:3.0769999 4:12.308 5:6.6669998 6:5.6409998 7:1.538 8:4.6149998 9:11.795 10:6.6669998 11:1.538 12:6.1539998 13:2.5639999 14:1.538 15:3.0769999 16:4.1030002 17:5.6409998 18:3.5899999 19:1.026 20:4.6149998 #
1.6763517307117929977522408080404 1:6.4520001 2:6.4520001 3:11.29 4:6.4520001 5:3.2260001 6:8.0649996 7:0 8:0 9:8.0649996 10:3.2260001 11:4.8390002 12:1.613 13:8.0649996 14:3.2260001 15:11.29 16:3.2260001 17:1.613 18:6.4520001 19:3.2260001 20:3.2260001 #
-0.50000136374706161124237269177684 1:12.045 2:2.727 3:4.3179998 4:6.3639998 5:3.4089999 6:10 7:1.818 8:1.818 9:1.818 10:8.6359997 11:1.364 12:1.818 13:8.1820002 14:3.6359999 15:8.6359997 16:5.9089999 17:5.4549999 18:8.8640003 19:1.136 20:2.0450001 #
-0.50000136374706161124237269177684 1:10.135 2:1.351 3:5.743 4:6.757 5:3.378 6:5.743 7:1.351 8:5.4050002 9:3.0409999 10:6.4190001 11:2.027 12:3.7160001 13:7.4320002 14:2.365 15:11.824 16:5.4050002 17:6.0809999 18:5.743 19:3.0409999 20:3.0409999 #
-0.50000136374706161124237269177684 1:12 2:0.211 3:5.263 4:4.421 5:1.263 6:8.632 7:2.737 8:4.421 9:0.84200001 10:10.737 11:2.316 12:2.105 13:6.947 14:3.368 15:8.632 16:6.947 17:7.579 18:9.474 19:0.63200003 20:1.474 #
1.8136598671728676457348683470627 1:5.691 2:4.0650001 3:4.0650001 4:10.569 5:5.691 6:7.3169999 7:2.4389999 8:2.4389999 9:8.1300001 10:6.5040002 11:1.626 12:4.0650001 13:4.8779998 14:4.0650001 15:3.2520001 16:5.691 17:4.0650001 18:9.7559996 19:1.626 20:4.0650001 #
1.2214720288958746952090450577089 1:8.2089996 2:1.493 3:3.98 4:9.2040005 5:1.493 6:8.7060003 7:2.2390001 8:7.2140002 9:4.9749999 10:8.7060003 11:3.483 12:2.9849999 13:5.7210002 14:1.7410001 15:6.7160001 16:3.98 17:5.473 18:9.7010002 19:0.249 20:3.7309999 #
-0.50000136374706161124237269177684 1:6.4169998 2:0.89099997 3:4.9910002 4:8.5559998 5:4.4559999 6:7.3080001 7:2.1389999 8:5.348 9:8.1999998 10:8.0209999 11:3.2090001 12:2.852 13:4.2779999 14:3.3870001 15:5.704 16:3.743 17:3.9219999 18:7.487 19:2.674 20:6.4169998 #
-0.50000136374706161124237269177684 1:7.0339999 2:4.3730001 3:5.7030001 4:7.9850001 5:5.7030001 6:6.4640002 7:2.6619999 8:4.5630002 9:5.7030001 10:9.6960001 11:2.471 12:3.612 13:4.1830001 14:4.3730001 15:4.7529998 16:5.513 17:4.7529998 18:5.323 19:0.56999999 20:4.5630002 #
-0.50000136374706161124237269177684 1:5.7690001 2:2.3499999 3:5.1279998 4:7.9060001 5:3.4189999 6:4.915 7:4.2740002 8:6.8379998 9:6.197 10:8.974 11:2.3499999 12:4.915 13:4.487 14:2.9909999 15:6.6240001 16:5.7690001 17:5.7690001 18:5.7690001 19:0.64099997 20:4.915 #
1.6103545467485622655345878229127 1:13.58 2:2.4690001 3:6.1729999 4:4.9380002 5:4.9380002 6:4.9380002 7:3.704 8:6.1729999 9:1.235 10:4.9380002 11:4.9380002 12:4.9380002 13:6.1729999 14:3.704 15:11.111 16:3.704 17:3.704 18:6.1729999 19:1.235 20:1.235 #
1.7577009689083948895671483114711 1:20 2:5.3330002 3:5.3330002 4:2.6670001 5:1.3329999 6:6.6669998 7:1.3329999 8:0 9:14.667 10:5.3330002 11:0 12:1.3329999 13:5.3330002 14:4 15:0 16:5.3330002 17:9.3330002 18:5.3330002 19:2.6670001 20:4 #
1.7332497053961766209084771617199 1:1.852 2:7.4070001 3:12.963 4:9.2589998 5:3.704 6:11.111 7:0 8:3.704 9:5.5560002 10:1.852 11:1.852 12:3.704 13:11.111 14:1.852 15:0 16:3.704 17:1.852 18:11.111 19:1.852 20:5.5560002 #
-0.50000136374706161124237269177684 1:13.265 2:1.02 3:2.0409999 4:1.786 5:6.6329999 6:8.1630001 7:0.50999999 8:7.3979998 9:1.786 10:12.755 11:6.888 12:3.316 13:2.806 14:2.806 15:4.3369999 16:6.1220002 17:4.8470001 18:8.1630001 19:2.5510001 20:2.806 #
-0.50000136374706161124237269177684 1:10.697 2:1.244 3:2.7360001 4:2.2390001 5:6.2189999 6:10.199 7:0.995 8:6.2189999 9:2.2390001 10:14.925 11:6.2189999 12:0.995 13:3.7309999 14:3.7309999 15:6.7160001 16:5.7210002 17:3.234 18:6.7160001 19:2.7360001 20:2.4879999 #
-0.50000136374706161124237269177684 1:5.8140001 2:1.163 3:5.2329998 4:0.58099997 5:4.651 6:10.465 7:4.651 8:10.465 9:2.9070001 10:10.465 11:6.395 12:1.744 13:5.8140001 14:1.744 15:2.9070001 16:5.2329998 17:3.4879999 18:7.5580001 19:6.395 20:2.326 #
-0.50000136374706161124237269177684 1:7.7340002 2:0.94999999 3:5.02 4:8.9549999 5:2.714 6:6.6490002 7:2.0350001 8:3.256 9:7.0560002 10:8.1409998 11:2.171 12:4.0710001 13:8.8199997 14:4.0710001 15:4.7490001 16:8.4119997 17:5.2919998 18:6.513 19:0.54299998 20:2.849 #
-0.50000136374706161124237269177684 1:7.6789999 2:1.669 3:7.3460002 4:7.0120001 5:3.0050001 6:7.0120001 7:1.669 8:6.8449998 9:6.177 10:10.017 11:2.1700001 12:3.6730001 13:4.007 14:4.1739998 15:5.8429999 16:5.1750002 17:4.6739998 18:8.3470001 19:0.33399999 20:3.1719999 #
-0.50000136374706161124237269177684 1:7.8119998 2:1.309 3:4.941 4:6.1659999 5:5.1939998 6:6.757 7:2.4070001 8:4.7719998 9:4.3920002 10:8.6149998 11:3.2520001 12:4.434 13:7.5170002 14:3.632 15:8.1499996 16:5.9970002 17:5.0679998 18:5.3210001 19:1.309 20:2.9560001 #
1.8488854408036790033520446741022 1:9.7629995 2:0.792 3:3.4300001 4:2.6389999 5:6.3319998 6:7.652 7:1.0549999 8:6.5960002 9:1.5829999 10:11.873 11:5.013 12:4.2220001 13:3.694 14:1.847 15:4.4850001 16:4.2220001 17:6.8600001 18:10.026 19:4.2220001 20:3.694 #
1.4718212924541242969667109719012 1:7.1430001 2:1.323 3:2.9100001 4:2.1159999 5:7.4070001 6:8.7299995 7:0.52899998 8:6.349 9:1.587 10:16.931 11:4.2329998 12:2.6459999 13:5.2909999 14:2.381 15:4.4970002 16:5.5560002 17:3.9679999 18:8.9949999 19:4.4970002 20:2.9100001 #
-0.50000136374706161124237269177684 1:11.132 2:0.377 3:3.2079999 4:4.151 5:7.3579998 6:7.3579998 7:2.4530001 8:8.4910002 9:2.8299999 10:14.34 11:3.3959999 12:3.0190001 13:3.585 14:2.8299999 15:2.4530001 16:5.283 17:4.9060001 18:9.434 19:1.132 20:2.2639999 #
-0.50000136374706161124237269177684 1:8.3929996 2:1.918 3:1.439 4:2.638 5:13.429 6:8.6330004 7:0.95899999 8:7.914 9:2.878 10:12.95 11:3.3570001 12:3.8369999 13:2.878 14:2.638 15:2.878 16:6.954 17:4.5560002 18:6.954 19:1.439 20:3.3570001 #
-0.50000136374706161124237269177684 1:10.741 2:0.926 3:2.2219999 4:3.8889999 5:7.5929999 6:10 7:2.5929999 8:7.4070001 9:2.5929999 10:12.037 11:3.3329999 12:2.7780001 13:4.6300001 14:3.8889999 15:3.3329999 16:4.4439998 17:6.1110001 18:8.1479998 19:1.4809999 20:1.852 #
1.2442889606146181336043810006231 1:6.6669998 2:5 3:5 4:10 5:4.4439998 6:7.7779999 7:0.55599999 8:5.5560002 9:6.1110001 10:8.3330002 11:3.3329999 12:2.2219999 13:7.2220001 14:2.2219999 15:7.2220001 16:2.7780001 17:4.4439998 18:5 19:1.1109999 20:5 #
-0.50000136374706161124237269177684 1:6.8800001 2:0.491 3:5.4050002 4:8.8450003 5:3.931 6:5.1599998 7:2.7030001 8:6.1430001 9:7.3709998 10:8.8450003 11:1.474 12:4.914 13:4.914 14:6.388 15:7.125 16:3.931 17:6.388 18:5.8969998 19:0.73699999 20:2.457 #
-0.50000136374706161124237269177684 1:6.5419998 2:1.869 3:6.0749998 4:7.4770002 5:3.2709999 6:6.5419998 7:0.46700001 8:4.2059999 9:7.4770002 10:9.3459997 11:3.2709999 12:3.2709999 13:3.7379999 14:6.0749998 15:5.1399999 16:6.5419998 17:2.8039999 18:6.0749998 19:2.8039999 20:7.0089998 #
-0.50000136374706161124237269177684 1:9.0319996 2:2.5810001 3:5.1609998 4:8.3870001 5:5.8060002 6:5.8060002 7:1.9349999 8:5.1609998 9:1.9349999 10:7.7420001 11:3.2260001 12:4.5159998 13:4.5159998 14:9.0319996 15:2.5810001 16:5.1609998 17:7.0970001 18:6.4520001 19:0.64499998 20:3.2260001 #
2.0000054549882464449694907671073 1:10.117 2:0.19499999 3:2.529 4:4.086 5:6.6149998 6:7.7820001 7:1.946 8:5.447 9:2.1400001 10:13.035 11:5.0580001 12:2.529 13:4.4749999 14:5.8369999 15:4.2800002 16:4.8639998 17:5.6420002 18:6.4200001 19:3.5020001 20:3.5020001 #
-0.50000136374706161124237269177684 1:9.9560003 2:1.549 3:3.0969999 4:3.0969999 5:7.3010001 6:10.398 7:1.549 8:6.8579998 9:3.54 10:10.841 11:4.8670001 12:2.8759999 13:5.3099999 14:2.2119999 15:3.7609999 16:4.4250002 17:3.319 18:6.8579998 19:3.319 20:4.8670001 #
-0.10374000041721045950460222684342 1:2.724 2:1.556 3:3.1129999 4:1.1670001 5:3.891 6:6.2259998 7:1.1670001 8:10.506 9:4.6690001 10:6.2259998 11:1.946 12:11.673 13:5.8369999 14:4.6690001 15:2.335 16:9.7279997 17:8.5600004 18:6.2259998 19:1.556 20:6.2259998 #
-0.50000136374706161124237269177684 1:7.5380001 2:1.005 3:2.01 4:3.5179999 5:7.5380001 6:7.0349998 7:2.01 8:3.5179999 9:2.513 10:16.08 11:3.0150001 12:2.513 13:4.5229998 14:1.508 15:5.0250001 16:8.04 17:7.0349998 18:7.5380001 19:3.0150001 20:5.0250001 #
1.9135865136556131638201350142481 1:7.2069998 2:1.802 3:5.4050002 4:5.4050002 5:2.7030001 6:9.0089998 7:1.802 8:4.5050001 9:13.514 10:7.2069998 11:1.802 12:2.7030001 13:3.6040001 14:1.802 15:2.7030001 16:6.3060002 17:8.1079998 18:8.1079998 19:0.90100002 20:5.4050002 #
2.0000054549882464449694907671073 1:5.9089999 2:2.273 3:5.9089999 4:6.3639998 5:2.727 6:6.8179998 7:0.45500001 8:5 9:4.0910001 10:6.3639998 11:5.4549999 12:5 13:6.3639998 14:5 15:7.2729998 16:4.5450001 17:4.0910001 18:10 19:1.818 20:4.5450001 #
2.0000054549882464449694907671073 1:9.8360004 2:4.5079999 3:5.7379999 4:5.3280001 5:3.6889999 6:5.7379999 7:2.4590001 8:5.7379999 9:5.7379999 10:6.967 11:3.6889999 12:5.3280001 13:5.7379999 14:3.6889999 15:4.098 16:5.7379999 17:4.9180002 18:5.7379999 19:0.81999999 20:4.5079999 #
-0.50000136374706161124237269177684 1:6.8309999 2:3.552 3:6.0110002 4:6.8309999 5:3.825 6:6.5570002 7:2.7320001 8:6.8309999 9:6.2839999 10:5.7379999 11:2.7320001 12:3.552 13:6.5570002 14:1.3660001 15:5.191 16:3.825 17:5.4640002 18:9.0159998 19:2.7320001 20:4.3720002 #
-0.50000136374706161124237269177684 1:12.23 2:0 3:4.3169999 4:9.3529997 5:1.439 6:8.6330004 7:4.3169999 8:7.914 9:5.7550001 10:8.6330004 11:4.3169999 12:0.71899998 13:2.878 14:5.7550001 15:3.5969999 16:5.7550001 17:4.3169999 18:7.1939998 19:0 20:2.878 #
-0.50000136374706161124237269177684 1:9.7629995 2:1.479 3:3.2539999 4:3.846 5:3.55 6:8.5799999 7:2.9590001 8:4.1420002 9:2.9590001 10:8.2840004 11:5.6209998 12:5.6209998 13:3.55 14:5.0300002 15:6.5089998 16:7.3959999 17:6.5089998 18:5.0300002 19:0.88800001 20:5.0300002 #
1.5626640401558538062687375713722 1:8.4029999 2:0.83999997 3:2.5209999 4:1.681 5:6.723 6:10.084 7:4.2020001 8:9.2440004 9:2.5209999 10:15.126 11:5.0419998 12:1.681 13:6.723 14:0.83999997 15:3.3610001 16:3.3610001 17:2.5209999 18:10.084 19:3.3610001 20:1.681 #
2.0000054549882464449694907671073 1:11.34 2:0.206 3:2.2679999 4:1.8559999 5:5.1550002 6:9.2779999 7:1.443 8:6.1859999 9:1.649 10:17.938 11:3.918 12:2.6800001 13:4.3299999 14:2.2679999 15:2.8870001 16:7.6290002 17:3.299 18:9.4849997 19:1.8559999 20:4.3299999 #
-0.50000136374706161124237269177684 1:9.8839998 2:0.29100001 3:1.744 4:2.6159999 5:4.0700002 6:6.105 7:0.87199998 8:10.465 9:1.744 10:19.476999 11:4.9419999 12:3.779 13:4.9419999 14:3.779 15:3.4879999 16:4.651 17:4.0700002 18:9.5930004 19:1.4529999 20:2.0350001 #
-0.50000136374706161124237269177684 1:5.4980001 2:0 3:2.7490001 4:2.7490001 5:9.6219997 6:10.653 7:1.7180001 8:8.2469997 9:1.031 10:10.997 11:4.1240001 12:3.0929999 13:6.5289998 14:4.1240001 15:6.1859999 16:5.1550002 17:2.7490001 18:7.5599999 19:2.7490001 20:4.467 #
-0.50000136374706161124237269177684 1:10.27 2:0.81099999 3:2.7030001 4:2.4319999 5:3.243 6:9.4589996 7:1.081 8:9.4589996 9:1.622 10:15.946 11:3.7839999 12:1.622 13:5.4050002 14:2.973 15:4.0539999 16:3.243 17:5.4050002 18:11.622 19:3.5139999 20:1.351 #
1.9740577796789779974062639666954 1:11.076 2:0.949 3:4.4299998 4:11.392 5:5.3800001 6:6.013 7:1.899 8:1.899 9:8.2279997 10:10.127 11:4.1139998 12:4.4299998 13:3.165 14:5.0630002 15:4.4299998 16:3.7969999 17:4.4299998 18:4.1139998 19:0.63300002 20:4.4299998 #
1.3932553136391538917138177566812 1:9.6389999 2:3.0120001 3:5.4219999 4:9.0360003 5:3.0120001 6:6.6269999 7:5.4219999 8:7.8309999 9:4.217 10:6.6269999 11:2.4100001 12:3.0120001 13:6.0240002 14:6.0240002 15:4.8189998 16:3.0120001 17:4.8189998 18:5.4219999 19:0.602 20:3.0120001 #
-0.4368072910948003761966162983299 1:8.0830002 2:2.309 3:6.0050001 4:7.1589999 5:5.7740002 6:6.928 7:3.6949999 8:6.2360001 9:3.9260001 10:9.2379999 11:3.233 12:3.0020001 13:3.233 14:3.6949999 15:6.467 16:6.0050001 17:4.388 18:7.3899999 19:1.155 20:2.079 #
-0.50000136374706161124237269177684 1:9.783 2:0 3:4.348 4:13.043 5:3.2609999 6:5.4349999 7:1.087 8:2.174 9:11.957 10:9.783 11:4.348 12:3.2609999 13:3.2609999 14:2.174 15:2.174 16:7.6090002 17:5.4349999 18:5.4349999 19:2.174 20:3.2609999 #
-0.50000136374706161124237269177684 1:5.2870002 2:2.299 3:5.2870002 4:9.4250002 5:4.368 6:5.0570002 7:2.9890001 8:4.598 9:7.1259999 10:8.5059996 11:2.9890001 12:3.678 13:6.8969998 14:4.138 15:5.5170002 16:7.586 17:4.138 18:5.2870002 19:1.839 20:2.9890001 #
1.5067512354306022981376145253307 1:7.652 2:1.847 3:7.652 4:5.8049998 5:2.6389999 6:7.652 7:0.528 8:13.72 9:11.082 10:8.4429998 11:1.319 12:6.3319998 13:3.1659999 14:1.0549999 15:2.1110001 16:8.4429998 17:3.1659999 18:3.694 19:0.264 20:3.4300001 #
-0.50000136374706161124237269177684 1:11.83 2:0.67000002 3:2.2320001 4:1.786 5:5.5799999 6:12.277 7:0.67000002 8:4.4640002 9:2.0090001 10:14.732 11:3.7950001 12:2.4549999 13:3.7950001 14:3.5710001 15:3.7950001 16:6.9200001 17:4.9109998 18:9.8210001 19:2.2320001 20:2.4549999 #
-0.50000136374706161124237269177684 1:10.239 2:1.706 3:0.68300003 4:1.706 5:5.802 6:10.58 7:1.365 8:8.191 9:1.706 10:15.358 11:2.3889999 12:3.4130001 13:3.7539999 14:2.0480001 15:2.3889999 16:6.8260002 17:6.4850001 18:7.8499999 19:3.072 20:4.4369998 #
-0.50000136374706161124237269177684 1:12.26 2:0.72100002 3:1.202 4:1.442 5:3.846 6:11.779 7:1.202 8:5.0479999 9:1.442 10:20.433001 11:4.0869999 12:1.923 13:5.5289998 14:3.365 15:3.365 16:6.4899998 17:5.7690001 18:6.7309999 19:1.923 20:1.442 #
-0.25044820760906466583506357892475 1:7.263 2:1.117 3:4.4689999 4:6.704 5:5.5869999 6:5.5869999 7:1.117 8:12.291 9:9.4969997 10:10.056 11:3.352 12:2.2349999 13:3.911 14:1.676 15:3.911 16:5.0279999 17:5.0279999 18:6.145 19:2.2349999 20:2.793 #
-0.24593601726194025403060550161172 1:6.3829999 2:0.53200001 3:4.2550001 4:5.8509998 5:2.6600001 6:7.447 7:1.596 8:10.106 9:8.5109997 10:6.3829999 11:8.5109997 12:3.723 13:4.7870002 14:3.191 15:4.2550001 16:6.915 17:5.3189998 18:4.7870002 19:0.53200001 20:4.2550001 #
-0.50000136374706161124237269177684 1:9.0909996 2:2.398 3:5.2950001 4:7.8920002 5:3.596 6:6.6929998 7:0.89899999 8:6.993 9:5.2950001 10:9.6899996 11:2.8970001 12:3.796 13:4.5949998 14:2.2980001 15:5.0949998 16:4.9949999 17:6.3940001 18:8.4919996 19:1.299 20:2.2980001 #
-0.50000136374706161124237269177684 1:9.5889997 2:1.37 3:1.37 4:2.74 5:8.2189999 6:1.37 7:1.37 8:5.4790001 9:1.37 10:10.959 11:8.2189999 12:2.74 13:5.4790001 14:2.74 15:5.4790001 16:8.2189999 17:5.4790001 18:12.329 19:4.1100001 20:1.37 #
-0.50000136374706161124237269177684 1:8.1470003 2:2.596 3:4.4759998 4:5.9980001 5:2.954 6:7.4310002 7:3.4909999 8:3.4909999 9:4.8340001 10:9.0419998 11:1.522 12:2.2379999 13:8.0570002 14:5.8189998 15:8.415 16:7.073 17:5.1030002 18:5.9089999 19:1.253 20:2.1489999 #
-0.50000136374706161124237269177684 1:12 2:0.667 3:4 4:2 5:5 6:8.3330002 7:1 8:6 9:1.6670001 10:15.333 11:4.3330002 12:3.6670001 13:5.6669998 14:3.3329999 15:4 16:4.3330002 17:3.3329999 18:11 19:2 20:2.3329999 #
2.0000054549882464449694907671073 1:11.208 2:1.401 3:6.6550002 4:5.6040001 5:2.102 6:10.683 7:3.152 8:4.553 9:7.5310001 10:6.3049998 11:2.977 12:5.079 13:2.977 14:2.4519999 15:3.152 16:6.3049998 17:5.954 18:8.4060001 19:0.70099998 20:2.802 #
-0.50000136374706161124237269177684 1:10.69 2:1.724 3:6.552 4:4.8280001 5:2.7590001 6:13.103 7:2.414 8:5.1719999 9:6.2069998 10:8.276 11:2.414 12:3.448 13:3.793 14:2.069 15:3.1029999 16:5.5170002 17:5.862 18:5.862 19:3.448 20:2.7590001 #
-0.50000136374706161124237269177684 1:5.6409998 2:1.026 3:5.1279998 4:7.6919999 5:5.1279998 6:5.6409998 7:3.0769999 8:6.1539998 9:2.5639999 10:9.2309999 11:3.0769999 12:1.538 13:6.1539998 14:3.0769999 15:3.0769999 16:4.6149998 17:8.7180004 18:10.256 19:2.5639999 20:5.6409998 #
-0.28570501997346431366509023064282 1:3.5350001 2:3.03 3:5.0510001 4:6.0609999 5:4.04 6:7.0710001 7:2.02 8:6.566 9:5.5560002 10:10.606 11:2.02 12:5.0510001 13:5.5560002 14:5.0510001 15:4.5450001 16:6.566 17:4.04 18:9.0909996 19:0.505 20:4.04 #
1.1830918807810690829285249492386 1:7.0799999 2:1.77 3:4.4250002 4:5.3099999 5:3.54 6:10.619 7:2.655 8:4.4250002 9:15.044 10:4.4250002 11:3.54 12:6.1950002 13:4.4250002 14:2.655 15:2.655 16:5.3099999 17:7.9650002 18:2.655 19:0.88499999 20:4.4250002 #
-0.50000136374706161124237269177684 1:6.316 2:1.053 3:2.105 4:3.158 5:6.316 6:8.4209995 7:6.842 8:5.263 9:3.158 10:8.9469995 11:8.9469995 12:3.158 13:3.684 14:3.158 15:1.579 16:9.474 17:6.316 18:7.368 19:0.52600002 20:4.211 #
-0.16159117743816148182744996120164 1:10.059 2:2.0710001 3:3.846 4:4.1420002 5:8.8760004 6:5.0300002 7:2.0710001 8:4.1420002 9:4.1420002 10:7.3959999 11:2.9590001 12:5.9169998 13:7.1009998 14:5.0300002 15:3.846 16:6.8049998 17:5.0300002 18:6.8049998 19:2.0710001 20:2.6630001 #
-0.28766308399790807559526228942559 1:12.752 2:0.671 3:4.027 4:6.711 5:4.027 6:8.7250004 7:0.671 8:4.698 9:9.3959999 10:4.698 11:1.342 12:8.0539999 13:2.013 14:5.369 15:5.369 16:9.3959999 17:4.698 18:3.3559999 19:0.671 20:3.3559999 #
-0.50000136374706161124237269177684 1:4.7969999 2:1.476 3:6.6420002 4:9.9630003 5:2.9519999 6:5.1659999 7:2.9519999 8:4.428 9:10.701 10:7.7490001 11:2.9519999 12:4.059 13:4.428 14:4.7969999 15:4.059 16:2.5829999 17:4.7969999 18:7.7490001 19:2.9519999 20:4.7969999 #
-0.50000136374706161124237269177684 1:9.033 2:0.792 3:6.973 4:6.4980001 5:3.487 6:9.6669998 7:1.585 8:3.803 9:3.3280001 10:9.033 11:2.536 12:1.585 13:6.4980001 14:3.645 15:7.7649999 16:3.803 17:4.1199999 18:6.8150001 19:3.9619999 20:5.0710001 #
-0.50000136374706161124237269177684 1:6.0300002 2:1.7589999 3:3.266 4:1.7589999 5:7.789 6:6.7839999 7:1.508 8:8.7939997 9:3.266 10:13.819 11:5.7789998 12:4.5229998 13:2.7639999 14:2.513 15:3.266 16:7.5380001 17:5.0250001 18:7.5380001 19:1.508 20:4.7740002 #
-0.28633371452787054201039040890464 1:4.73 2:6.0809999 3:2.7030001 4:5.4050002 5:6.757 6:4.0539999 7:4.73 8:6.757 9:7.4320002 10:13.514 11:2.027 12:4.73 13:7.4320002 14:4.73 15:4.73 16:2.7030001 17:0.676 18:6.757 19:0.676 20:3.378 #
-0.055713570649302629478327730794263 1:3.6630001 2:1.465 3:3.6630001 4:1.465 5:9.8900003 6:5.1279998 7:2.198 8:10.623 9:3.6630001 10:13.553 11:2.5639999 12:7.3260002 13:3.6630001 14:4.7620001 15:4.0289998 16:9.158 17:2.5639999 18:2.5639999 19:1.832 20:6.2270002 #
-0.50000136374706161124237269177684 1:4.4120002 2:4.4120002 3:5.882 4:7.3530002 5:1.471 6:8.8240004 7:2.941 8:2.941 9:11.765 10:11.765 11:4.4120002 12:2.941 13:2.941 14:0 15:1.471 16:7.3530002 17:7.3530002 18:8.8240004 19:0 20:2.941 #
-0.035181056943229177536025531480846 1:15.088 2:0.35100001 3:1.7539999 4:2.105 5:4.9120002 6:8.0699997 7:0.70200002 8:4.9120002 9:2.105 10:11.93 11:6.6669998 12:1.7539999 13:4.211 14:4.5609999 15:5.263 16:4.5609999 17:6.6669998 18:11.579 19:1.053 20:1.7539999 #
-0.070317080108295307305787957830034 1:10.067 2:1.007 3:4.027 4:3.3559999 5:4.698 6:8.0539999 7:1.342 8:4.362 9:7.0469999 10:10.403 11:4.698 12:4.698 13:4.698 14:2.349 15:5.0339999 16:5.0339999 17:6.711 18:6.711 19:1.342 20:4.362 #
-0.50000136374706161124237269177684 1:8.6960001 2:0.93199998 3:1.553 4:5.5900002 5:3.727 6:8.6960001 7:2.174 8:7.7639999 9:8.6960001 10:8.3850002 11:2.484 12:4.0370002 13:5.2800002 14:4.0370002 15:4.348 16:5.2800002 17:6.5219998 18:7.4530001 19:0.31099999 20:4.0370002 #
-0.50000136374706161124237269177684 1:11.18 2:0 3:4.9689999 4:9.3170004 5:3.1059999 6:6.211 7:1.863 8:6.8319998 9:14.907 10:8.6960001 11:1.242 12:1.242 13:1.242 14:2.484 15:1.242 16:4.9689999 17:5.5900002 18:9.3170004 19:1.242 20:4.348 #
-0.18439791517820552924078469914093 1:4.632 2:1.053 3:6.105 4:5.684 5:3.579 6:3.789 7:1.895 8:9.0530005 9:9.474 10:9.0530005 11:1.895 12:5.895 13:5.474 14:3.158 15:3.579 16:8.842 17:6.316 18:5.684 19:0.84200001 20:4 #
-0.45756284035508903995648211093794 1:7.1999998 2:1.6 3:0.80000001 4:1.6 5:6.4000001 6:4 7:3.2 8:10.4 9:3.2 10:16.799999 11:4 12:0 13:6.4000001 14:3.2 15:7.1999998 16:4 17:3.2 18:8 19:6.4000001 20:2.4000001 #
-0.50000136374706161124237269177684 1:6.901 2:4.5570002 3:5.8590002 4:8.5939999 5:5.7290001 6:6.5100002 7:2.0829999 8:3.125 9:5.7290001 10:7.1609998 11:3.125 12:4.5570002 13:5.0780001 14:2.865 15:4.6880002 16:5.8590002 17:7.0310001 18:4.427 19:1.1720001 20:4.948 #
-0.50000136374706161124237269177684 1:6.0609999 2:0.25299999 3:8.0810003 4:9.5959997 5:3.5350001 6:4.7979999 7:3.03 8:7.0710001 9:4.5450001 10:9.5959997 11:2.7780001 12:3.7880001 13:5.8080001 14:3.03 15:4.5450001 16:7.0710001 17:3.283 18:5.0510001 19:2.7780001 20:5.303 #
-0.50000136374706161124237269177684 1:6.5809999 2:1.605 3:5.4569998 4:8.9890003 5:2.7290001 6:5.7779999 7:4.013 8:5.1360002 9:8.6680002 10:11.717 11:3.852 12:3.6919999 13:4.3340001 14:4.013 15:5.4569998 16:4.1729999 17:5.1360002 18:4.9759998 19:1.124 20:2.5680001 #
-0.50000136374706161124237269177684 1:13.244 2:1.339 3:2.2320001 4:2.53 5:5.506 6:7.5890002 7:2.381 8:6.3990002 9:2.0829999 10:16.815001 11:4.9109998 12:1.637 13:4.0180001 14:2.381 15:4.0180001 16:6.994 17:4.3150001 18:7.4400001 19:2.381 20:1.786 #
-0.50000136374706161124237269177684 1:8.4540005 2:0.48300001 3:2.8989999 4:3.382 5:6.2800002 6:8.9370003 7:0.48300001 8:8.2130003 9:3.1400001 10:16.184 11:4.5890002 12:1.691 13:3.6229999 14:2.6570001 15:6.039 16:6.2800002 17:4.5890002 18:7.0050001 19:2.415 20:2.6570001 #
-0.50000136374706161124237269177684 1:9.6459999 2:0.39399999 3:2.165 4:1.969 5:7.0869999 6:7.8740001 7:1.772 8:9.0550003 9:2.559 10:14.173 11:4.3309999 12:2.756 13:6.8899999 14:2.165 15:2.756 16:7.8740001 17:3.346 18:9.2519999 19:1.575 20:2.362 #
-0.50000136374706161124237269177684 1:9.7010002 2:0.74599999 3:3.7309999 4:8.2089996 5:4.4780002 6:2.2390001 7:2.9849999 8:2.9849999 9:3.7309999 10:8.2089996 11:5.224 12:2.9849999 13:3.7309999 14:3.7309999 15:8.2089996 16:3.7309999 17:7.4629998 18:11.94 19:0.74599999 20:5.224 #
-0.50000136374706161124237269177684 1:9.375 2:1.0420001 3:4.1669998 4:11.458 5:5.2080002 6:3.125 7:1.0420001 8:3.125 9:11.458 10:11.458 11:2.0829999 12:7.2919998 13:4.1669998 14:2.0829999 15:3.125 16:5.2080002 17:3.125 18:8.3330002 19:0 20:3.125 #
-0.50000136374706161124237269177684 1:9.5240002 2:2.619 3:3.8099999 4:6.6669998 5:5.2379999 6:7.8569999 7:3.095 8:1.6670001 9:3.095 10:6.1900001 11:3.5710001 12:4.0479999 13:7.619 14:2.619 15:6.9050002 16:5.4759998 17:6.9050002 18:9.2860003 19:0.47600001 20:3.3329999 #
-0.50000136374706161124237269177684 1:3.155 2:1.262 3:2.5239999 4:4.7319999 5:5.994 6:5.994 7:2.2079999 8:10.41 9:3.7850001 10:12.303 11:3.155 12:3.155 13:4.4159999 14:2.839 15:3.155 16:5.994 17:6.625 18:6.9400001 19:4.7319999 20:6.625 #
-0.38224030936730751806251760172017 1:11.594 2:0 3:4.348 4:11.594 5:1.449 6:4.348 7:0 8:5.7969999 9:10.145 10:11.594 11:1.449 12:1.449 13:5.7969999 14:2.8989999 15:10.145 16:4.348 17:1.449 18:5.7969999 19:0 20:5.7969999 #
-0.37196586777063966877676648437046 1:12.039 2:0 3:7.3839998 4:6.5809999 5:3.21 6:7.0630002 7:0.64200002 8:5.7779999 9:7.3839998 10:8.8280001 11:2.5680001 12:5.1360002 13:2.8889999 14:8.6680002 15:3.5309999 16:5.1360002 17:4.013 18:6.2600002 19:0.32100001 20:2.5680001 #
-0.45675970856520142771017845007009 1:4.1609998 2:0.55500001 3:5.9640002 4:7.7670002 5:3.1900001 6:5.8249998 7:2.0799999 8:11.512 9:8.0439997 10:9.0150003 11:2.7739999 12:6.796 13:3.6059999 14:1.387 15:5.4089999 16:4.4380002 17:5.8249998 18:6.5190001 19:0.83200002 20:4.3000002 #
-0.50000136374706161124237269177684 1:4.6669998 2:3.3329999 3:5.3330002 4:7.3330002 5:4 6:5.3330002 7:3.3329999 8:9.3330002 9:7.3330002 10:5.3330002 11:1.3329999 12:3.3329999 13:8 14:2 15:4 16:6 17:6 18:6 19:1.3329999 20:6.6669998 #
-0.42135401071156763919134391471744 1:5.618 2:0.80299997 3:7.0630002 4:5.618 5:4.6550002 6:7.7049999 7:2.0869999 8:6.7420001 9:8.3470001 10:7.7049999 11:3.05 12:6.421 13:4.8150001 14:1.926 15:3.21 16:8.8280001 17:4.013 18:5.7779999 19:1.926 20:3.6919999 #
-0.50000136374706161124237269177684 1:8.0310001 2:3.4649999 3:3.4649999 4:3.3069999 5:6.6139998 6:9.4490004 7:1.102 8:5.3540001 9:3.1500001 10:11.496 11:2.9920001 12:2.9920001 13:5.197 14:2.0469999 15:2.9920001 16:5.3540001 17:4.724 18:9.4490004 19:3.78 20:5.039 #
-0.50000136374706161124237269177684 1:7.9660001 2:2.5420001 3:1.864 4:3.898 5:5.763 6:6.7800002 7:1.525 8:8.6440001 9:4.4070001 10:11.186 11:5.4239998 12:3.898 13:6.6100001 14:3.22 15:2.881 16:4.4070001 17:5.9320002 18:7.7969999 19:1.6950001 20:3.559 #
-0.47573409229727536828846723437891 1:10.33 2:1.758 3:2.6370001 4:4.1760001 5:5.4949999 6:6.8130002 7:1.319 8:7.9120002 9:4.3959999 10:5.4949999 11:5.4949999 12:3.2969999 13:9.4510002 14:5.934 15:2.198 16:6.5929999 17:3.516 18:5.934 19:2.418 20:4.835 #
-0.45662660506890889733355720636609 1:7.744 2:1.684 3:6.7340002 4:15.825 5:3.3670001 6:8.0810003 7:1.684 8:1.347 9:2.694 10:9.7639999 11:0.67299998 12:1.684 13:5.0510001 14:4.3769999 15:5.3870001 16:6.0609999 17:3.03 18:8.0810003 19:4.04 20:2.694 #
-0.27246880418392993572496152410167 1:8.7869997 2:0.41800001 3:2.51 4:7.5310001 5:2.092 6:3.766 7:0.83700001 8:4.6030002 9:7.5310001 10:5.4390001 11:1.674 12:2.9289999 13:16.736 14:5.0209999 15:5.8579998 16:5.4390001 17:5.8579998 18:10.879 19:0.83700001 20:1.255 #
-0.28292358646978749137090858312149 1:11.364 2:6.8179998 3:4.5450001 4:2.273 5:1.515 6:6.8179998 7:0 8:6.8179998 9:3.03 10:7.5760002 11:3.03 12:0.75800002 13:5.303 14:5.303 15:9.8479996 16:8.3330002 17:11.364 18:2.273 19:2.273 20:0.75800002 #
-0.50000136374706161124237269177684 1:10.619 2:0.66399997 3:2.8759999 4:2.655 5:7.743 6:7.0799999 7:1.327 8:7.5219998 9:3.0969999 10:11.062 11:4.4250002 12:3.0969999 13:4.6459999 14:1.9910001 15:3.319 16:6.4159999 17:6.4159999 18:9.7349997 19:1.549 20:3.7609999 #
-0.50000136374706161124237269177684 1:7.5469999 2:0.80900002 3:4.5819998 4:7.0079999 5:2.9649999 6:7.5469999 7:2.6949999 8:5.6599998 9:4.0430002 10:10.782 11:2.9649999 12:3.5039999 13:5.3909998 14:5.9299998 15:6.4689999 16:4.5819998 17:3.7739999 18:11.59 19:0.53899997 20:1.617 #
-0.50000136374706161124237269177684 1:11.156 2:1.623 3:2.0280001 4:3.043 5:5.6799998 6:9.1280003 7:1.42 8:7.5050001 9:2.8399999 10:13.387 11:3.8540001 12:3.651 13:2.434 14:2.8399999 15:3.651 16:6.2880001 17:4.2600002 18:7.7080002 19:2.434 20:5.0710001 #
-0.50000136374706161124237269177684 1:8.6730003 2:3.0610001 3:5.612 4:8.6730003 5:3.0610001 6:6.6329999 7:3.5710001 8:7.6529999 9:10.204 10:7.6529999 11:2.5510001 12:2.0409999 13:3.5710001 14:2.5510001 15:4.0819998 16:6.1220002 17:4.0819998 18:4.592 19:1.531 20:4.0819998 #
-0.47308816134904663197602303625899 1:6.8969998 2:0 3:8.0459995 4:9.1949997 5:3.448 6:5.7470002 7:1.149 8:2.299 9:17.240999 10:8.0459995 11:3.448 12:3.448 13:2.299 14:3.448 15:2.299 16:4.598 17:6.8969998 18:5.7470002 19:2.299 20:3.448 #
-0.50000136374706161124237269177684 1:9.967 2:0.33199999 3:7.309 4:6.3119998 5:4.3189998 6:9.6350002 7:2.658 8:3.987 9:3.654 10:10.631 11:2.326 12:1.993 13:4.3189998 14:1.993 15:8.6379995 16:4.3189998 17:6.645 18:7.6409998 19:0.66399997 20:2.658 #
-0.28154207358131305705128966110351 1:8.7589998 2:0 3:5.8390002 4:3.2850001 5:5.1090002 6:8.7589998 7:2.1900001 8:4.3800001 9:8.0290003 10:7.664 11:0.36500001 12:6.204 13:3.2850001 14:2.9200001 15:1.46 16:8.0290003 17:10.949 18:9.1239996 19:0.36500001 20:3.2850001 #
-0.26156505362966664396395799485617 1:12.883 2:0.61299998 3:5.5209999 4:3.0669999 5:2.1470001 6:9.5089998 7:0.92000002 8:6.7480001 9:3.3740001 10:7.6690001 11:0.92000002 12:4.6009998 13:8.2819996 14:2.1470001 15:5.2150002 16:7.362 17:8.2819996 18:8.5889997 19:0.61299998 20:1.534 #
-0.34770408268244379357270190666895 1:6.6950002 2:0 3:4.6030002 4:5.0209999 5:2.092 6:8.7869997 7:1.255 8:4.6030002 9:5.8579998 10:6.6950002 11:2.51 12:4.184 13:4.184 14:5.4390001 15:4.6030002 16:8.368 17:8.368 18:9.2049999 19:2.092 20:5.4390001 #
-0.3361655473030837892878253114759 1:7.7779999 2:4.4439998 3:5.5560002 4:11.111 5:0 6:3.3329999 7:3.3329999 8:1.1109999 9:7.7779999 10:10 11:8.8889999 12:1.1109999 13:4.4439998 14:5.5560002 15:6.6669998 16:7.7779999 17:2.2219999 18:5.5560002 19:0 20:3.3329999 #
-0.3317630881827406952311321219895 1:8.5530005 2:10.526 3:4.605 4:4.605 5:4.605 6:11.184 7:3.289 8:3.947 9:3.947 10:5.263 11:3.289 12:2.632 13:1.974 14:5.921 15:4.605 16:4.605 17:5.921 18:4.605 19:1.974 20:3.947 #
-0.4106546614846824927447244135692 1:7.8889999 2:3.625 3:2.132 4:3.4119999 5:5.757 6:7.0359998 7:2.559 8:3.198 9:0.426 10:17.697001 11:3.4119999 12:2.7720001 13:6.3969998 14:2.345 15:2.7720001 16:8.5290003 17:5.3299999 18:10.235 19:1.919 20:2.559 #
-0.35595703332782402394940390877309 1:10.7 2:2.1140001 3:4.756 4:4.6240001 5:4.6240001 6:11.361 7:2.378 8:4.756 9:2.9059999 10:8.0579996 11:1.849 12:2.51 13:12.814 14:2.378 15:5.2839999 16:4.888 17:4.6240001 18:5.02 19:1.585 20:2.7739999 #
-0.33409726222300789588715019817755 1:13.19 2:2.454 3:1.534 4:1.84 5:2.7609999 6:10.123 7:0.92000002 8:6.7480001 9:0.30700001 10:21.166 11:3.3740001 12:1.84 13:3.9879999 14:3.9879999 15:5.8280001 16:4.6009998 17:3.3740001 18:7.0549998 19:4.2940001 20:0.61299998 #
-0.33750932797510457827883101344923 1:1.575 2:0.787 3:3.937 4:10.236 5:4.724 6:9.4490004 7:1.575 8:7.0869999 9:13.386 10:4.724 11:5.5120001 12:4.724 13:1.575 14:3.1500001 15:1.575 16:4.724 17:9.4490004 18:9.4490004 19:0 20:2.362 #
-0.50000136374706161124237269177684 1:6.053 2:1.316 3:7.632 4:6.053 5:3.684 6:5.263 7:2.105 8:6.053 9:6.579 10:8.4209995 11:3.158 12:5.789 13:5.263 14:3.158 15:6.579 16:5.263 17:4.211 18:8.9469995 19:1.579 20:2.895 #
-0.31499097951506926928999519077479 1:6.2210002 2:1.498 3:8.0649996 4:5.184 5:4.3779998 6:6.4520001 7:3.687 8:6.5669999 9:7.1430001 10:7.1430001 11:2.5350001 12:2.4189999 13:5.5300002 14:3.802 15:5.5300002 16:5.9910002 17:4.954 18:7.1430001 19:2.0739999 20:3.687 #
-0.30451438875539027506533784617204 1:6.073 2:1.619 3:5.8699999 4:8.9069996 5:4.2509999 6:5.0609999 7:0.81 8:4.2509999 9:9.1090002 10:9.3120003 11:4.0489998 12:3.036 13:4.2509999 14:6.2750001 15:3.2390001 16:8.0970001 17:5.263 18:6.073 19:1.215 20:3.2390001 #
-0.27741795845960393052109793643467 1:8.974 2:0 3:7.6919999 4:17.948999 5:2.5639999 6:5.1279998 7:1.2819999 8:8.974 9:5.1279998 10:6.4099998 11:2.5639999 12:3.846 13:1.2819999 14:5.1279998 15:1.2819999 16:3.846 17:7.6919999 18:8.974 19:0 20:1.2819999 #
-0.39633785769866153314566759036097 1:11.801 2:0.62099999 3:6.211 4:10.559 5:3.1059999 6:1.242 7:0.62099999 8:5.5900002 9:12.422 10:8.0749998 11:2.484 12:4.9689999 13:6.8319998 14:3.1059999 15:1.863 16:4.348 17:3.727 18:5.5900002 19:3.1059999 20:3.727 #
-0.25026202987034268376831391833548 1:5.191 2:1.069 3:4.1220002 4:15.573 5:2.4430001 6:3.664 7:2.4430001 8:5.954 9:10.992 10:8.7019997 11:2.1370001 12:2.901 13:5.6490002 14:5.4959998 15:6.1069999 16:6.2600002 17:3.9690001 18:4.7329998 19:0.76300001 20:1.832 #
-0.32550905137084706897354635657393 1:9.0229998 2:3.2579999 3:4.2610002 4:4.7620001 5:4.2610002 6:8.0200005 7:3.0079999 8:4.5110002 9:5.5139999 10:11.779 11:2.256 12:4.0100002 13:5.013 14:4.7620001 15:4.0100002 16:3.7590001 17:4.0100002 18:4.2610002 19:1.253 20:8.2709999 #
-0.50000136374706161124237269177684 1:5.1869998 2:2.882 3:4.0349998 4:7.493 5:5.7639999 6:5.1869998 7:3.7460001 8:5.7639999 9:5.4759998 10:10.663 11:2.882 12:2.3050001 13:10.375 14:4.323 15:4.8990002 16:4.8990002 17:3.7460001 18:5.4759998 19:2.3050001 20:2.5940001 #
-0.50000136374706161124237269177684 1:4.6760001 2:1.439 3:3.5969999 4:4.6760001 5:8.2729998 6:6.835 7:5.0359998 8:8.2729998 9:3.957 10:13.669 11:3.237 12:3.237 13:3.5969999 14:3.957 15:3.957 16:5.0359998 17:2.878 18:6.835 19:2.878 20:3.957 #
-0.15359211342268086486484435226885 1:5.2420001 2:1.613 3:4.4349999 4:4.8390002 5:4.8390002 6:5.2420001 7:3.2260001 8:9.677 9:5.645 10:6.855 11:2.4189999 12:11.694 13:0.403 14:6.855 15:0.80599999 16:8.4680004 17:7.2579999 18:8.4680004 19:0.403 20:1.613 #
-0.43820468472440837759407372686837 1:11.228 2:1.404 3:6.6669998 4:5.6139998 5:3.8599999 6:5.9650002 7:0.35100001 8:6.316 9:6.6669998 10:7.7189999 11:2.8069999 12:4.211 13:2.8069999 14:6.316 15:4.9120002 16:5.263 17:4.5609999 18:10.175 19:0.35100001 20:2.8069999 #
-0.34004832671137685817797091658576 1:7.1430001 2:0 3:3.5710001 4:4.1669998 5:4.7620001 6:12.5 7:1.786 8:5.3569999 9:10.119 10:8.9289999 11:2.9760001 12:7.7379999 13:4.1669998 14:4.7620001 15:1.1900001 16:7.1430001 17:7.7379999 18:3.5710001 19:0 20:2.381 #
-0.46821303436723282764830855740001 1:10.753 2:1.72 3:2.151 4:2.796 5:7.0970001 6:9.2469997 7:1.075 8:12.258 9:3.0109999 10:8.8170004 11:5.5910001 12:2.5810001 13:2.3659999 14:3.441 15:2.151 16:5.8060002 17:6.0219998 18:7.527 19:2.5810001 20:3.0109999 #
-0.43912425797384935233225178308203 1:12.621 2:0 3:2.184 4:1.942 5:4.612 6:8.7379999 7:2.184 8:7.7670002 9:2.6700001 10:14.563 11:4.1259999 12:2.184 13:3.398 14:4.369 15:3.641 16:5.8249998 17:5.5830002 18:9.4659996 19:1.942 20:2.184 #
-0.45833978231515293266795652016299 1:7.5560002 2:1.3329999 3:1.778 4:2.2219999 5:5.3330002 6:6.2220001 7:1.3329999 8:8.4440002 9:1.3329999 10:18.667 11:4 12:1.3329999 13:4.4439998 14:4.4439998 15:8 16:5.3330002 17:6.2220001 18:4.8889999 19:4.4439998 20:2.6670001 #
-0.37278315496114339255839809084137 1:10.39 2:0 3:5.1950002 4:9.0909996 5:4.5450001 6:8.4420004 7:8.4420004 8:3.8959999 9:11.688 10:11.039 11:2.5969999 12:2.5969999 13:1.948 14:2.5969999 15:1.299 16:3.8959999 17:3.8959999 18:5.8439999 19:1.299 20:1.299 #
-0.23755186064938960122105982009089 1:6.993 2:6.993 3:6.6430001 4:8.3920002 5:5.2449999 6:2.098 7:4.1960001 8:3.497 9:5.5939999 10:5.5939999 11:1.399 12:8.3920002 13:4.1960001 14:4.5450001 15:5.5939999 16:7.6919999 17:4.895 18:5.5939999 19:0.699 20:1.748 #
-0.50000136374706161124237269177684 1:11.584 2:1.363 3:4.9400001 4:12.436 5:3.918 6:6.6440001 7:1.193 8:3.4070001 9:6.8140001 10:12.606 11:2.0439999 12:4.2589998 13:4.0890002 14:3.5780001 15:3.4070001 16:6.303 17:4.5999999 18:6.1329999 19:0.17 20:0.51099998 #
-0.50000136374706161124237269177684 1:5.9250002 2:1.257 3:3.95 4:3.77 5:7.1810002 6:7.0019999 7:1.257 8:5.9250002 9:2.513 10:13.465 11:3.95 12:2.513 13:4.8470001 14:2.8729999 15:5.566 16:7.7199998 17:5.9250002 18:8.618 19:2.154 20:3.5910001 #
-0.50000136374706161124237269177684 1:8.2969999 2:1.092 3:4.585 4:3.9300001 5:7.2049999 6:10.48 7:3.493 8:6.987 9:3.0569999 10:10.48 11:4.3670001 12:3.0569999 13:3.2750001 14:2.8380001 15:1.528 16:6.3319998 17:7.6420002 18:6.987 19:1.092 20:3.2750001 #
-0.50000136374706161124237269177684 1:7.8540001 2:1.341 3:2.49 4:3.6400001 5:7.6630001 6:9.9619999 7:1.341 8:7.8540001 9:3.6400001 10:9.5790005 11:3.448 12:2.6819999 13:4.2150002 14:3.448 15:4.2150002 16:6.513 17:5.3639998 18:9.0039997 19:2.299 20:3.448 #
-0.26722103363397886610641762672458 1:11.194 2:0.74599999 3:6.7160001 4:17.91 5:1.493 6:8.2089996 7:0 8:3.7309999 9:13.433 10:5.224 11:5.9699998 12:0.74599999 13:5.224 14:4.4780002 15:5.9699998 16:2.2390001 17:2.2390001 18:2.2390001 19:0 20:2.2390001 #
-0.22895454168618348256281080921326 1:16.667 2:0.49000001 3:3.9219999 4:17.157 5:1.961 6:9.8039999 7:0 8:0.49000001 9:4.902 10:9.3140001 11:2.941 12:0.98000002 13:13.235 14:4.4120002 15:3.9219999 16:3.9219999 17:1.961 18:1.961 19:0.49000001 20:1.471 #
-0.42856017590812189865800974075682 1:8.7180004 2:1.026 3:3.5899999 4:2.5639999 5:5.1279998 6:8.2049999 7:3.5899999 8:11.795 9:2.5639999 10:13.333 11:1.538 12:3.0769999 13:4.6149998 14:1.026 15:0.51300001 16:5.1279998 17:6.6669998 18:7.1789999 19:5.6409998 20:4.1030002 #
-0.24627695268250646143393112197373 1:10.714 2:1.531 3:3.0610001 4:1.531 5:6.1220002 6:7.6529999 7:1.531 8:2.5510001 9:4.0819998 10:12.245 11:1.531 12:3.0610001 13:4.592 14:5.612 15:6.1220002 16:5.612 17:6.6329999 18:7.1430001 19:4.592 20:4.0819998 #
-0.27456491044058567441155105370854 1:8.9390001 2:0.55900002 3:2.2349999 4:2.2349999 5:10.056 6:3.352 7:1.117 8:8.9390001 9:6.704 10:14.525 11:2.793 12:2.793 13:3.352 14:3.352 15:2.2349999 16:3.352 17:5.0279999 18:10.056 19:3.911 20:4.4689999 #
-0.48998974663530348028217531464179 1:8.0209999 2:2.4059999 3:4.8130002 4:8.2889996 5:2.674 6:6.4169998 7:2.1389999 8:9.0909996 9:7.2189999 10:8.8240004 11:5.348 12:4.2779999 13:3.2090001 14:1.604 15:5.348 16:6.684 17:6.4169998 18:4.2779999 19:1.337 20:1.604 #
-0.32580428683321777105774685878714 1:10.377 2:0.94300002 3:0 4:5.6599998 5:4.717 6:6.6040001 7:0.94300002 8:4.717 9:4.717 10:7.5469999 11:3.7739999 12:2.8299999 13:11.321 14:2.8299999 15:7.5469999 16:6.6040001 17:7.5469999 18:8.4910002 19:0 20:2.8299999 #
-0.25650819155248821834547356957046 1:13.014 2:0.685 3:5.4790001 4:4.1100001 5:4.7950001 6:10.274 7:0.685 8:7.5339999 9:7.5339999 10:5.4790001 11:3.425 12:4.7950001 13:2.0550001 14:0 15:4.1100001 16:8.9040003 17:5.4790001 18:7.5339999 19:1.37 20:2.74 #
-0.2871996096281805854744106909493 1:12.022 2:0.273 3:2.7320001 4:2.7320001 5:5.4640002 6:6.0110002 7:3.279 8:7.3769999 9:2.1860001 10:16.667 11:3.825 12:3.279 13:3.552 14:2.7320001 15:1.913 16:8.1969995 17:5.7379999 18:9.29 19:0.81999999 20:1.913 #
-0.2220446506368448924551017853446 1:30.879 2:0.47499999 3:4.7509999 4:10.689 5:1.425 6:4.9879999 7:0.23800001 8:3.325 9:15.677 10:4.513 11:1.188 12:2.6129999 13:2.375 14:4.7509999 15:2.138 16:5.2259998 17:1.425 18:1.9 19:0.23800001 20:1.188 #
-0.21976915146898706732159212151601 1:5.046 2:1.0700001 3:4.2810001 4:6.881 5:0.76499999 6:25.535 7:1.529 8:3.0580001 9:7.645 10:6.2690001 11:2.599 12:1.376 13:16.514 14:4.8930001 15:4.2810001 16:3.0580001 17:2.4460001 18:1.988 19:0.153 20:0.61199999 #
-0.29626793959344643880626790632959 1:9.0319996 2:0.64499998 3:4.5159998 4:5.8060002 5:4.5159998 6:9.677 7:1.9349999 8:5.8060002 9:7.0970001 10:7.0970001 11:1.9349999 12:4.5159998 13:3.2260001 14:5.1609998 15:4.5159998 16:6.4520001 17:3.8710001 18:8.3870001 19:2.5810001 20:3.2260001 #
-0.50000136374706161124237269177684 1:9.073 2:1.5779999 3:3.3529999 4:3.55 5:8.6789999 6:8.8760004 7:1.5779999 8:9.2700005 9:3.3529999 10:10.454 11:3.3529999 12:3.3529999 13:3.9449999 14:2.9590001 15:3.9449999 16:5.5229998 17:4.1420002 18:8.6789999 19:1.775 20:2.5639999 #
-0.22640883678792078637087570314179 1:16.455999 2:0 3:3.7969999 4:2.5320001 5:5.0630002 6:12.658 7:0 8:10.127 9:1.266 10:15.19 11:10.127 12:2.5320001 13:3.7969999 14:2.5320001 15:2.5320001 16:0 17:1.266 18:7.5949998 19:0 20:2.5320001 #
-0.24922743276392389510931479890132 1:7.2290001 2:0 3:4.8189998 4:4.8189998 5:2.4100001 6:7.2290001 7:1.205 8:6.0240002 9:1.205 10:4.8189998 11:3.6140001 12:9.6389999 13:2.4100001 14:6.0240002 15:10.843 16:10.843 17:3.6140001 18:8.434 19:0 20:4.8189998 #
-0.33917136482621357274069850973319 1:13.253 2:0 3:5.1199999 4:12.651 5:2.711 6:6.6269999 7:0.301 8:3.313 9:13.253 10:6.928 11:0.90399998 12:2.711 13:2.4100001 14:5.1199999 15:0.90399998 16:8.1330004 17:7.2290001 18:5.1199999 19:1.205 20:2.108 #
-0.17160556728465875542255503205524 1:9.5349998 2:1.222 3:2.934 4:3.178 5:7.335 6:10.269 7:2.4449999 8:7.8239999 9:3.6670001 10:10.758 11:4.8899999 12:3.4230001 13:2.934 14:3.4230001 15:1.711 16:6.3569999 17:6.112 18:7.8239999 19:1.222 20:2.934 #
-0.38165296430120204673741568512924 1:7.7800002 2:1.6210001 3:3.566 4:3.2409999 5:7.618 6:8.1040001 7:2.1070001 8:6.4829998 9:3.7279999 10:12.642 11:2.1070001 12:3.8900001 13:4.052 14:2.7550001 15:3.079 16:5.5110002 17:5.348 18:8.4280005 19:3.079 20:4.862 #
-0.25415005166080112397608559149376 1:6.5380001 2:5 3:5.7690001 4:2.6919999 5:6.5380001 6:6.5380001 7:0.76899999 8:6.5380001 9:3.4619999 10:9.6149998 11:4.2309999 12:6.9229999 13:3.846 14:3.846 15:3.4619999 16:5.7690001 17:4.2309999 18:5.7690001 19:3.846 20:4.6149998 #
-0.20206005345092925562511254611309 1:14.462 2:3.0769999 3:4.6149998 4:7.0770001 5:1.538 6:10.154 7:1.846 8:1.538 9:0.308 10:7.0770001 11:1.538 12:0.61500001 13:8.3079996 14:1.2309999 15:8.6149998 16:10.462 17:7.0770001 18:8.9230003 19:0.61500001 20:0.92299998 #
-0.35449223073883767698433189252682 1:10.68 2:0 3:0.97100002 4:5.8249998 5:3.8829999 6:5.8249998 7:0 8:6.796 9:7.7670002 10:8.7379999 11:1.942 12:3.8829999 13:5.8249998 14:3.8829999 15:3.8829999 16:3.8829999 17:6.796 18:12.621 19:1.942 20:4.8540001 #
-0.48979445455594255998121866468864 1:5.941 2:1.98 3:4.9499998 4:4.9499998 5:2.97 6:8.9110003 7:2.97 8:8.9110003 9:6.9310002 10:5.941 11:4.9499998 12:4.9499998 13:2.97 14:3.96 15:1.98 16:7.921 17:5.941 18:10.891 19:0 20:1.98 #
-0.34896263960337298160041541450482 1:10.734 2:1.13 3:8.757 4:9.04 5:2.26 6:7.6269999 7:1.4119999 8:4.52 9:5.085 10:8.757 11:1.4119999 12:3.3900001 13:4.237 14:4.237 15:3.9549999 16:8.757 17:4.237 18:6.2150002 19:2.26 20:1.977 #
-0.25259975535493051079782844681176 1:5.8920002 2:0.99599999 3:5.809 4:7.8839998 5:2.7390001 6:9.3780003 7:2.6559999 8:3.4849999 9:7.552 10:8.6309996 11:1.826 12:3.5680001 13:8.9630003 14:4.066 15:6.8049998 16:7.7179999 17:4.1490002 18:5.3109999 19:0.249 20:2.3239999 #
-0.15580534057740827447169351671619 1:7.2290001 2:0.40200001 3:4.4180002 4:8.0319996 5:1.205 6:6.8270001 7:1.6059999 8:4.0159998 9:6.0240002 10:10.04 11:3.6140001 12:2.8110001 13:9.2370005 14:4.8189998 15:6.0240002 16:8.835 17:6.0240002 18:5.2210002 19:0.40200001 20:3.2130001 #
-0.33025270383461780010492248038645 1:3.0610001 2:1.701 3:7.4829998 4:6.4629998 5:4.4219999 6:6.1220002 7:1.02 8:5.4419999 9:12.245 10:9.184 11:1.3609999 12:6.4629998 13:2.381 14:4.4219999 15:2.381 16:3.401 17:5.4419999 18:7.823 19:1.3609999 20:7.823 #
-0.43957585371560908837906822554942 1:12.162 2:0.676 3:4.73 4:3.378 5:3.378 6:12.162 7:1.351 8:5.4050002 9:8.7840004 10:8.7840004 11:2.027 12:3.378 13:2.027 14:0.676 15:2.027 16:8.1079998 17:7.4320002 18:8.1079998 19:1.351 20:4.0539999 #
-0.23855293920251410821897763980814 1:10.87 2:0.36199999 3:6.5219998 4:3.2609999 5:3.9860001 6:6.5219998 7:3.2609999 8:5.072 9:9.4200001 10:10.145 11:0.36199999 12:3.2609999 13:3.2609999 14:1.812 15:1.812 16:9.0579996 17:10.507 18:6.5219998 19:0 20:3.9860001 #
-0.30445829135317981073427517912933 1:10.494 2:1.029 3:5.3499999 4:4.527 5:3.704 6:6.3790002 7:2.0580001 8:7.6129999 9:3.2920001 10:12.346 11:4.9380002 12:2.4690001 13:4.3210001 14:3.2920001 15:7.2020001 16:5.1440001 17:3.9089999 18:6.1729999 19:2.675 20:3.086 #
-0.27065477243812313679072190097941 1:10.373 2:2.431 3:4.5380001 4:3.079 5:4.2140002 6:4.3759999 7:4.862 8:6.9689999 9:4.2140002 10:6.645 11:2.5929999 12:4.052 13:8.7519999 14:1.783 15:3.566 16:8.5900002 17:5.9970002 18:8.4280005 19:0.972 20:3.566 #
-0.24984388610877877878735375816177 1:12.548 2:3.0420001 3:1.901 4:4.9429998 5:6.8439999 6:6.4640002 7:3.0420001 8:4.1830001 9:2.6619999 10:12.928 11:3.4219999 12:2.6619999 13:5.323 14:2.2809999 15:7.224 16:4.5630002 17:3.0420001 18:4.5630002 19:2.6619999 20:5.7030001 #
-0.17827607272977241681388704819256 1:27.046 2:0 3:1.068 4:20.285 5:2.135 6:9.9639997 7:0.35600001 8:0 9:9.6090002 10:0.35600001 11:0.35600001 12:1.779 13:6.7620001 14:4.6259999 15:1.068 16:10.32 17:2.8469999 18:1.423 19:0 20:0 #
-0.17717893443297899613853019218368 1:26.818001 2:0 3:4.5450001 4:18.181999 5:0 6:6.8179998 7:0 8:0 9:12.727 10:0.45500001 11:0.45500001 12:0.90899998 13:11.364 14:3.1819999 15:0 16:8.6359997 17:3.1819999 18:2.273 19:0 20:0.45500001 #
-0.22304561313588119886297533867037 1:9.2779999 2:0 3:5.1550002 4:1.031 5:4.1240001 6:5.1550002 7:3.0929999 8:16.495001 9:4.1240001 10:13.402 11:8.2469997 12:4.1240001 13:1.031 14:2.062 15:2.062 16:4.1240001 17:2.062 18:13.402 19:0 20:1.031 #
-0.50000136374706161124237269177684 1:6.9060001 2:4.6960001 3:5.2490001 4:9.1160002 5:5.2490001 6:5.6630001 7:2.6240001 8:6.3540001 9:6.0770001 10:6.0770001 11:2.901 12:5.2490001 13:3.7290001 14:4.1440001 15:4.9720001 16:7.7350001 17:4.9720001 18:3.4530001 19:0.96700001 20:3.8670001 #
-0.50000136374706161124237269177684 1:5.9089999 2:2.727 3:4.7729998 4:6.3639998 5:5.6820002 6:5.9089999 7:4.3179998 8:4.5450001 9:6.8179998 10:9.5450001 11:2.9549999 12:3.4089999 13:4.0910001 14:3.8640001 15:3.8640001 16:5.4549999 17:5.6820002 18:7.5 19:2.273 20:4.3179998 #
-0.50000136374706161124237269177684 1:6.8889999 2:1.556 3:4.6669998 4:8.8889999 5:5.3330002 6:6.6669998 7:1.3329999 8:6.2220001 9:10.444 10:9.7779999 11:2.444 12:4.8889999 13:3.7780001 14:2.8889999 15:3.556 16:6.2220001 17:4 18:6.2220001 19:0.44400001 20:3.7780001 #
-0.20238295355334443015316026048822 1:4.145 2:1.036 3:10.881 4:2.332 5:3.109 6:11.917 7:4.9219999 8:5.4400001 9:0.259 10:18.912001 11:1.813 12:4.145 13:9.3260002 14:3.8859999 15:2.332 16:5.6989999 17:3.109 18:2.073 19:2.5910001 20:2.073 #
-0.18698630512539701764573862874386 1:17.112 2:0.53500003 3:2.1389999 4:2.674 5:2.674 6:18.181999 7:1.604 8:2.1389999 9:2.1389999 10:11.23 11:2.674 12:0.53500003 13:3.743 14:7.487 15:5.348 16:5.348 17:6.9520001 18:5.882 19:0 20:1.604 #
-0.16164269828375649185048246181395 1:4.171 2:0.52100003 3:2.503 4:1.9809999 5:6.257 6:12.513 7:0.73000002 8:2.8150001 9:4.6919999 10:6.9860001 11:1.043 12:15.016 13:4.6919999 14:6.3610001 15:1.46 16:14.39 17:9.5930004 18:2.9200001 19:0.104 20:1.251 #
-0.20113355375332067631610755142901 1:8.75 2:1.25 3:1.25 4:10 5:3.75 6:7.5 7:1.25 8:12.5 9:13.75 10:5 11:1.25 12:2.5 13:3.75 14:3.75 15:3.75 16:2.5 17:2.5 18:11.25 19:0 20:3.75 #
-0.17200653295410167631374065422278 1:4.5019999 2:2.572 3:6.4310002 4:6.4310002 5:1.929 6:20.257 7:3.859 8:1.608 9:3.2149999 10:8.3599997 11:0.64300001 12:1.929 13:8.6820002 14:2.2509999 15:8.0389996 16:8.3599997 17:2.2509999 18:4.5019999 19:1.608 20:2.572 #
-0.17126801012487519182414530405367 1:19.872 2:0.64099997 3:5.1279998 4:11.538 5:1.923 6:1.923 7:0.64099997 8:8.3330002 9:9.6149998 10:8.974 11:1.923 12:2.5639999 13:1.2819999 14:6.4099998 15:6.4099998 16:3.2049999 17:1.923 18:6.4099998 19:0.64099997 20:0.64099997 #
-0.29010075487757086554196916949877 1:5.882 2:2.2620001 3:3.1670001 4:1.8099999 5:5.882 6:7.2399998 7:0.90499997 8:4.5250001 9:2.2620001 10:17.646999 11:2.7149999 12:3.1670001 13:4.072 14:4.5250001 15:4.5250001 16:6.335 17:7.2399998 18:7.2399998 19:2.7149999 20:5.882 #
-0.24433184983899897124715039353759 1:10.592 2:2.181 3:1.869 4:2.181 5:2.8039999 6:7.165 7:0.62300003 8:7.165 9:1.558 10:17.445 11:4.0500002 12:2.4920001 13:6.8540001 14:2.8039999 15:4.6729999 16:4.9840002 17:4.6729999 18:8.7229996 19:3.7379999 20:3.427 #
-0.20834111431874180464518531152862 1:8.7889996 2:0.58600003 3:2.9300001 4:3.3199999 5:5.664 6:7.8119998 7:0.391 8:6.836 9:2.734 10:13.867 11:2.539 12:3.9059999 13:7.0310001 14:4.4920001 15:5.4689999 16:5.4689999 17:6.0549998 18:5.664 19:3.125 20:3.3199999 #
-0.18851368860557574103076206029073 1:10.082 2:0 3:8.6420002 4:7.2020001 5:1.235 6:6.9959998 7:4.7329998 8:3.704 9:9.6709995 10:2.263 11:1.029 12:11.523 13:2.4690001 14:8.8479996 15:3.2920001 16:9.0530005 17:4.9380002 18:3.086 19:0 20:1.235 #
-0.21869096580087082903887107931951 1:7.368 2:4.211 3:6.316 4:5.263 5:3.158 6:11.579 7:0 8:4.211 9:6.316 10:6.316 11:7.368 12:5.263 13:2.105 14:6.316 15:7.368 16:7.368 17:2.105 18:4.211 19:1.053 20:2.105 #
-0.14638482294778804027046703595261 1:3.385 2:1.2309999 3:6.7690001 4:6.1539998 5:4 6:3.385 7:1.846 8:7.6919999 9:12.923 10:4.3080001 11:2.154 12:13.538 13:2.7690001 14:4.9229999 15:1.538 16:9.8459997 17:6.1539998 18:3.385 19:0.308 20:3.6919999 #
-0.20222623322164628989483503573865 1:7.6269999 2:0 3:7.6269999 4:11.017 5:5.9320002 6:4.237 7:2.5420001 8:10.169 9:7.6269999 10:7.6269999 11:0.847 12:4.237 13:4.237 14:3.3900001 15:5.085 16:2.5420001 17:9.3219995 18:4.237 19:0 20:1.6950001 #
-0.27552000273403559615914559799421 1:7.1149998 2:0.79100001 3:5.138 4:3.5569999 5:3.9530001 6:7.1149998 7:1.581 8:7.1149998 9:5.138 10:11.067 11:5.9289999 12:5.5339999 13:5.138 14:8.6960001 15:1.581 16:5.5339999 17:3.9530001 18:5.9289999 19:2.767 20:2.372 #
-0.19903036446609229104254268349905 1:3.3559999 2:2.013 3:6.04 4:7.3829999 5:9.3959999 6:1.342 7:1.342 8:9.3959999 9:6.04 10:8.7250004 11:4.698 12:5.369 13:3.3559999 14:3.3559999 15:7.3829999 16:4.698 17:4.027 18:7.3829999 19:0 20:4.698 #
-0.16272597048338299785541494202334 1:17.742001 2:0 3:1.613 4:3.2260001 5:1.613 6:3.2260001 7:0 8:4.8390002 9:6.4520001 10:6.4520001 11:1.613 12:4.8390002 13:3.2260001 14:6.4520001 15:4.8390002 16:11.29 17:11.29 18:3.2260001 19:1.613 20:6.4520001 #
-0.17156142982830305254715597129689 1:8.1079998 2:3.243 3:7.027 4:4.3239999 5:2.1619999 6:3.7839999 7:1.622 8:6.4860001 9:5.9460001 10:5.9460001 11:3.7839999 12:4.8649998 13:1.622 14:4.3239999 15:3.243 16:11.892 17:8.6490002 18:7.027 19:1.081 20:4.8649998 #
-0.15533480384102177351834939145192 1:3.448 2:4.598 3:4.598 4:9.1949997 5:6.8969998 6:4.598 7:1.149 8:1.149 9:10.345 10:8.0459995 11:4.598 12:5.7470002 13:0 14:11.494 15:5.7470002 16:5.7470002 17:5.7470002 18:5.7470002 19:0 20:1.149 #
-0.1958415570415589501696018714938 1:10.169 2:0 3:5.085 4:3.3900001 5:10.169 6:6.7800002 7:0 8:3.3900001 9:10.169 10:5.085 11:3.3900001 12:5.085 13:8.4750004 14:0 15:5.085 16:5.085 17:3.3900001 18:8.4750004 19:1.6950001 20:5.085 #
-0.14812977812154595746996221805603 1:7.171 2:1.594 3:2.3900001 4:4.382 5:6.5739999 6:7.7690001 7:0.79699999 8:10.757 9:3.7850001 10:10.558 11:4.98 12:2.5899999 13:4.382 14:1.992 15:4.382 16:7.7690001 17:6.9720001 18:6.7729998 19:1.793 20:2.5899999 #
-0.18828483334915094293826598459418 1:9.8269997 2:0.289 3:2.6010001 4:3.1789999 5:10.405 6:6.3579998 7:0.86699998 8:11.561 9:3.1789999 10:10.116 11:4.335 12:3.757 13:3.757 14:1.156 15:3.757 16:7.5139999 17:5.4910002 18:5.7800002 19:1.734 20:4.335 #
-0.17017899216632786929537246578548 1:18.349001 2:0 3:1.835 4:1.835 5:7.3390002 6:10.092 7:0.917 8:7.3390002 9:4.5869999 10:17.431 11:2.7520001 12:1.835 13:0 14:2.7520001 15:3.6700001 16:4.5869999 17:0.917 18:8.257 19:4.5869999 20:0.917 #
-0.15360887610936382885462592184922 1:13.935 2:0.245 3:3.484 4:3.8269999 5:1.521 6:14.181 7:3.1400001 8:2.257 9:5.8390002 10:5.6430001 11:2.5020001 12:5.447 13:5.447 14:8.342 15:2.6010001 16:11.629 17:3.8269999 18:4.711 19:0.245 20:1.178 #
-0.16100766852362444203627944716573 1:10.207 2:0 3:5.954 4:5.711 5:7.533 6:7.8979998 7:0.36500001 8:1.823 9:10.936 10:3.767 11:0.243 12:10.936 13:5.1030002 14:3.5239999 15:0.36500001 16:14.581 17:8.5050001 18:1.823 19:0.243 20:0.486 #
-0.4001724358934912739726996733225 1:6.8969998 2:1.5089999 3:4.3099999 4:4.0949998 5:4.7410002 6:7.3280001 7:1.9400001 8:6.0339999 9:5.388 10:11.422 11:3.664 12:4.526 13:3.448 14:3.664 15:5.8189998 16:4.7410002 17:5.1719999 18:9.9139996 19:2.802 20:2.586 #
-0.35178119203840518824932814823114 1:6.0749998 2:1.869 3:7.4770002 4:8.1780005 5:5.6069999 6:4.9070001 7:2.5699999 8:6.0749998 9:6.776 10:9.5790005 11:3.5050001 12:3.7379999 13:3.5050001 14:5.3740001 15:5.8410001 16:4.6729999 17:3.5050001 18:8.4110003 19:0 20:2.336 #
-0.26670524107763482479782624068321 1:6.967 2:0 3:2.869 4:5.7379999 5:4.098 6:7.3769999 7:1.6390001 8:5.7379999 9:7.7870002 10:10.246 11:2.049 12:6.967 13:4.5079999 14:4.098 15:5.7379999 16:3.6889999 17:7.7870002 18:6.5570002 19:1.6390001 20:4.5079999 #
-0.15840031538248788844924774821266 1:14.286 2:3.8099999 3:1.905 4:6.6669998 5:1.905 6:4.7620001 7:0 8:8.5710001 9:7.619 10:5.7140002 11:1.905 12:7.619 13:3.8099999 14:5.7140002 15:2.8570001 16:9.5240002 17:6.6669998 18:2.8570001 19:0.95200002 20:2.8570001 #
-0.14710401002570283601755818381207 1:8.4770002 2:1.724 3:2.586 4:2.4430001 5:2.155 6:7.902 7:2.586 8:3.3050001 9:1.724 10:6.178 11:4.3099999 12:5.0289998 13:7.902 14:14.943 15:4.7410002 16:8.908 17:4.1669998 18:5.8909998 19:0.71799999 20:4.3099999 #
-0.13386963746739496960991289142839 1:9.7559996 2:1.626 3:2.4389999 4:6.5040002 5:2.4389999 6:4.8779998 7:3.2520001 8:3.2520001 9:1.626 10:21.138 11:2.4389999 12:0.81300002 13:5.691 14:9.7559996 15:3.2520001 16:8.1300001 17:5.691 18:4.0650001 19:3.2520001 20:0 #
-0.50000136374706161124237269177684 1:5.8410001 2:1.168 3:4.2059999 4:8.4110003 5:4.9070001 6:6.0749998 7:1.168 8:8.1780005 9:8.4110003 10:8.1780005 11:3.2709999 12:4.2059999 13:5.1399999 14:2.336 15:4.4390001 16:6.776 17:4.4390001 18:7.4770002 19:0.935 20:4.4390001 #
-0.13376053506605536935758493655158 1:6.5679998 2:1.271 3:4.6609998 4:7.6269999 5:2.119 6:8.8979998 7:2.3310001 8:6.3559999 9:5.085 10:9.5340004 11:2.119 12:4.237 13:3.8139999 14:2.3310001 15:7.415 16:8.0509996 17:4.237 18:8.6859999 19:1.483 20:3.178 #
-0.21540544121827723267337262313958 1:9.8310003 2:0 3:3.0510001 4:2.0339999 5:11.186 6:5.085 7:1.017 8:6.441 9:1.6950001 10:11.864 11:1.3559999 12:2.0339999 13:4.7459998 14:4.0679998 15:4.0679998 16:8.4750004 17:5.085 18:10.508 19:2.3729999 20:5.085 #
-0.22202324628467551281829628351261 1:3.7590001 2:0 3:4.1350002 4:1.88 5:6.0149999 6:6.7670002 7:1.5039999 8:12.03 9:5.263 10:15.789 11:5.6389999 12:1.88 13:3.7590001 14:2.632 15:5.263 16:7.5190001 17:5.263 18:6.7670002 19:1.5039999 20:2.632 #
-0.13945615634387306669417228022212 1:3.03 2:1.515 3:7.5760002 4:4.5450001 5:6.0609999 6:16.667 7:0 8:6.0609999 9:4.5450001 10:10.606 11:3.03 12:4.5450001 13:4.5450001 14:1.515 15:9.0909996 16:4.5450001 17:3.03 18:4.5450001 19:0 20:4.5450001 #
-0.14448838585109119447835723804019 1:7.1020002 2:3.125 3:0.28400001 4:5.9660001 5:7.9549999 6:6.25 7:1.42 8:6.25 9:2.273 10:7.6700001 11:4.2610002 12:4.8299999 13:5.3979998 14:2.5569999 15:2.8410001 16:7.3860002 17:7.9549999 18:8.8070002 19:1.989 20:5.6820002 #
-0.26470548813157651624194954820268 1:5.414 2:1.433 3:8.4390001 4:7.006 5:5.2550001 6:5.7319999 7:7.1659999 8:5.2550001 9:6.21 10:8.1210003 11:2.0699999 12:4.618 13:5.0960002 14:1.911 15:4.9359999 16:5.573 17:3.6619999 18:6.369 19:1.274 20:4.4590001 #
-0.39285642907637152720923268134356 1:8.5290003 2:0.86500001 3:5.3150001 4:2.8429999 5:4.3260002 6:10.26 7:1.2359999 8:5.1919999 9:5.8099999 10:7.4169998 11:4.079 12:4.3260002 13:6.5510001 14:3.832 15:3.7079999 16:5.1919999 17:7.54 18:7.1690001 19:2.349 20:3.461 #
-0.13186397261118390500378438900952 1:15.493 2:0 3:4.2249999 4:8.4510002 5:0 6:4.2249999 7:0 8:9.8590002 9:4.2249999 10:9.8590002 11:1.408 12:1.408 13:1.408 14:1.408 15:4.2249999 16:9.8590002 17:4.2249999 18:15.493 19:1.408 20:2.8169999 #
-0.11549677497319715824275476734329 1:6.316 2:1.053 3:5.263 4:2.632 5:5.263 6:3.684 7:2.105 8:8.4209995 9:3.158 10:8.9469995 11:4.737 12:6.842 13:3.684 14:3.684 15:6.316 16:12.105 17:4.737 18:6.316 19:1.053 20:3.684 #
-0.15299379506671539896700551253161 1:13.211 2:2.2360001 3:5.0809999 4:6.098 5:3.049 6:8.3330002 7:1.829 8:1.626 9:2.642 10:11.179 11:2.642 12:2.2360001 13:6.5040002 14:3.4549999 15:6.5040002 16:5.2849998 17:3.862 18:10.366 19:2.033 20:1.829 #
-0.19886674336376169991424944782921 1:9.8809996 2:0.86900002 3:3.6919999 4:6.8400002 5:2.1719999 6:4.0170002 7:1.086 8:3.9089999 9:9.5550003 10:7.5999999 11:1.6289999 12:5.2119999 13:8.6859999 14:5.3200002 15:7.3829999 16:8.3599997 17:6.8400002 18:4.8860002 19:0.65100002 20:1.4119999 #
-0.1361353528801757806210304124761 1:7.7670002 2:1.942 3:9.2229996 4:11.65 5:0.97100002 6:6.796 7:0.48500001 8:5.3400002 9:5.8249998 10:7.7670002 11:6.3109999 12:6.796 13:0.97100002 14:6.3109999 15:8.2519999 16:4.8540001 17:3.398 18:4.369 19:0.48500001 20:0.48500001 #
-0.1325689620178207850376139731452 1:14.105 2:0.18099999 3:3.9779999 4:11.212 5:2.7119999 6:4.3400002 7:0.542 8:6.5100002 9:4.882 10:8.1370001 11:2.1700001 12:4.3400002 13:1.989 14:7.2329998 15:7.2329998 16:5.4250002 17:6.691 18:7.776 19:0.18099999 20:0.36199999 #
-0.17689465086781236413671081209031 1:13.586 2:1.7819999 3:4.677 4:5.1220002 5:1.7819999 6:7.572 7:1.114 8:4.0089998 9:2.0039999 10:8.2410002 11:1.7819999 12:2.895 13:15.59 14:4.9000001 15:5.3449998 16:5.7909999 17:6.6820002 18:4.454 19:1.559 20:1.114 #
-0.12092427911808610596633428713176 1:4.6950002 2:0.704 3:3.404 4:4.5770001 5:2.3469999 6:5.869 7:3.052 8:5.2820001 9:6.573 10:5.7509999 11:2.582 12:10.798 13:10.563 14:8.5679998 15:2.23 16:11.033 17:4.9299998 18:4.9299998 19:0.58700001 20:1.526 #
-0.15609379406055440275835621832812 1:8.4659996 2:1.058 3:2.6459999 4:10.053 5:1.587 6:9.5240002 7:1.058 8:1.587 9:8.4659996 10:10.582 11:2.1159999 12:1.587 13:4.7620001 14:5.8200002 15:9.5240002 16:8.4659996 17:2.6459999 18:5.2909999 19:1.587 20:2.6459999 #
-0.12253527254657667344694971234276 1:5.0479999 2:1.082 3:7.6919999 4:6.0100002 5:3.846 6:3.9660001 7:1.803 8:9.1350002 9:8.0530005 10:14.904 11:0.96200001 12:6.9710002 13:2.1630001 14:3.4860001 15:2.885 16:9.0139999 17:5.2880001 18:4.447 19:0.361 20:2.885 #
-0.39590638084655377371134932218411 1:8.0869999 2:1.476 3:5.1950002 4:7.8509998 5:4.073 6:3.7780001 7:1.653 8:6.789 9:6.73 10:10.744 11:2.007 12:6.198 13:3.8369999 14:5.8439999 15:4.132 16:5.7849998 17:4.073 18:6.0209999 19:0.708 20:5.0180001 #
-0.082232215943951678105428015896905 1:8.0150003 2:2.29 3:4.198 4:6.8699999 5:2.29 6:3.4349999 7:3.8169999 8:4.198 9:3.053 10:13.74 11:3.053 12:3.8169999 13:6.1069999 14:5.3439999 15:6.1069999 16:4.5799999 17:6.4889998 18:6.4889998 19:3.053 20:3.053 #
-0.18065556482128861115477036491939 1:13.474 2:0.63200003 3:2.947 4:2.737 5:5.053 6:11.368 7:1.684 8:5.895 9:3.579 10:11.368 11:2.947 12:2.947 13:4.842 14:2.947 15:2.105 16:4.632 17:5.053 18:8.4209995 19:3.579 20:3.789 #
-0.18857522196947498760444261733937 1:12.037 2:0.926 3:3.086 4:5.5560002 5:5.5560002 6:8.0249996 7:1.543 8:6.4809999 9:3.704 10:10.802 11:2.4690001 12:1.852 13:6.79 14:4.0120001 15:4.6300001 16:4.3210001 17:7.099 18:8.3330002 19:0.926 20:1.852 #
-0.14367160586629196261654328736768 1:6.283 2:0 3:6.8060002 4:4.7119999 5:1.571 6:3.141 7:1.571 8:5.2360001 9:6.283 10:9.4239998 11:2.618 12:6.8060002 13:3.141 14:5.2360001 15:4.7119999 16:6.8060002 17:9.4239998 18:9.948 19:1.571 20:4.7119999 #
-0.10922277072799034536298989905845 1:7.1430001 2:1.724 3:4.6799998 4:4.4330001 5:4.4330001 6:4.9260001 7:1.97 8:3.941 9:5.9109998 10:7.3889999 11:9.1129999 12:6.158 13:3.448 14:3.2019999 15:1.724 16:16.995001 17:5.9109998 18:3.6949999 19:0.98500001 20:2.217 #
-0.16826693186873900587308128251607 1:7.2459998 2:3.865 3:3.865 4:3.382 5:8.2130003 6:7.2459998 7:2.415 8:6.2800002 9:1.449 10:14.01 11:1.932 12:2.415 13:2.8989999 14:5.7969999 15:3.382 16:6.763 17:3.865 18:6.763 19:2.8989999 20:5.3140001 #
-0.10313936512497337560922971988475 1:1.878 2:0.331 3:4.6409998 4:6.7399998 5:3.6459999 6:3.0940001 7:2.099 8:9.0609999 9:7.5139999 10:7.6240001 11:0.773 12:12.707 13:2.7620001 14:11.05 15:2.21 16:11.823 17:4.862 18:2.21 19:0.66299999 20:4.309 #
-0.12597447655623911222377842022979 1:5.7579999 2:0.60600001 3:5.7579999 4:14.242 5:0.90899998 6:6.3639998 7:2.1210001 8:3.03 9:6.9699998 10:6.9699998 11:0.90899998 12:1.212 13:6.3639998 14:7.8790002 15:5.4549999 16:12.424 17:6.9699998 18:3.3329999 19:1.515 20:1.212 #
-0.099523656897479079175283800395846 1:9.1429996 2:1.714 3:2.286 4:6.2859998 5:1.143 6:5.1430001 7:2.8570001 8:3.4289999 9:5.1430001 10:9.1429996 11:3.4289999 12:1.143 13:3.4289999 14:6.8569999 15:11.429 16:10.286 17:9.7139997 18:5.1430001 19:1.143 20:1.143 #
-0.21283153287399045328065483317914 1:8.6960001 2:1.127 3:6.119 4:3.382 5:4.026 6:8.6960001 7:2.0929999 8:3.865 9:6.9239998 10:7.8899999 11:2.2539999 12:5.6360002 13:6.441 14:2.0929999 15:4.348 16:6.441 17:6.2800002 18:5.1529999 19:2.576 20:5.9580002 #
-0.19029258691452730078985666750668 1:9.0349998 2:0.61299998 3:4.1350002 4:9.0349998 5:4.9000001 6:9.342 7:3.369 8:4.5939999 9:6.4320002 10:11.945 11:2.6029999 12:3.369 13:5.2069998 14:1.9910001 15:4.9000001 16:5.9720001 17:2.757 18:4.441 19:1.9910001 20:3.369 #
-0.11013518411699013688220816220564 1:6.4520001 2:4.3010001 3:3.2260001 4:7.527 5:6.4520001 6:8.6020002 7:0 8:2.151 9:8.6020002 10:7.527 11:4.3010001 12:9.677 13:1.075 14:8.6020002 15:1.075 16:8.6020002 17:3.2260001 18:5.3759999 19:0 20:3.2260001 #
-0.21649733293428233271704641538236 1:11.039 2:1.623 3:3.247 4:2.273 5:3.5710001 6:8.1169996 7:1.623 8:6.8179998 9:2.5969999 10:18.181999 11:2.9219999 12:3.8959999 13:3.5710001 14:3.5710001 15:4.8699999 16:4.5450001 17:5.1950002 18:7.4679999 19:2.5969999 20:2.273 #
-0.22912332026108336857639358186134 1:6.9109998 2:1.22 3:1.423 4:4.8779998 5:7.724 6:9.3500004 7:1.016 8:7.52 9:3.2520001 10:11.992 11:3.4549999 12:2.846 13:4.6750002 14:4.2680001 15:4.2680001 16:7.1139998 17:5.2849998 18:8.9429998 19:1.22 20:2.642 #
-0.14977624308695117183454215137317 1:8.559 2:2.714 3:1.67 4:3.549 5:6.8889999 6:7.098 7:2.0880001 8:7.9330001 9:2.714 10:14.196 11:4.802 12:2.0880001 13:5.2189999 14:3.132 15:2.9230001 16:7.5159998 17:5.2189999 18:7.724 19:0.83499998 20:3.132 #
-0.11617081794059710975197674542869 1:3.675 2:0.26199999 3:12.336 4:9.4490004 5:3.1500001 6:5.2490001 7:1.312 8:5.7740002 9:11.024 10:3.675 11:2.625 12:8.1359997 13:3.1500001 14:4.4619999 15:3.937 16:8.3990002 17:6.0370002 18:3.675 19:0.52499998 20:3.1500001 #
-0.12772693227689355111031943579292 1:8.0190001 2:1.415 3:5.6599998 4:3.5380001 5:5.6599998 6:5.1890001 7:3.5380001 8:3.5380001 9:3.5380001 10:10.142 11:2.5940001 12:2.358 13:7.3109999 14:4.717 15:11.792 16:7.0749998 17:4.4809999 18:4.9530001 19:0.708 20:3.7739999 #
-0.14970640051778549839411880384432 1:3.684 2:1.579 3:10 4:6.316 5:7.895 6:5.789 7:0.52600002 8:4.737 9:10 10:9.474 11:3.158 12:4.737 13:3.158 14:5.263 15:3.158 16:7.368 17:2.632 18:5.263 19:1.053 20:4.211 #
-0.13498771224027408810464123689599 1:5.2470002 2:2.4690001 3:1.852 4:2.4690001 5:7.099 6:4.6300001 7:2.4690001 8:11.42 9:4.9380002 10:7.4070001 11:4.9380002 12:3.395 13:4.6300001 14:1.852 15:2.7780001 16:11.111 17:6.4809999 18:8.3330002 19:1.235 20:5.2470002 #
-0.094529670587860242791933274020266 1:8.4069996 2:0 3:0.442 4:1.327 5:3.9820001 6:3.54 7:2.655 8:12.832 9:2.655 10:19.469 11:5.3099999 12:4.8670001 13:6.1950002 14:3.0969999 15:1.77 16:5.7519999 17:11.504 18:3.54 19:1.327 20:1.327 #
-0.10648263403104682445210471541941 1:5.381 2:4.9330001 3:1.794 4:4.0359998 5:6.2779999 6:5.8299999 7:2.691 8:2.691 9:5.8299999 10:6.7259998 11:0.44800001 12:4.9330001 13:8.5200005 14:3.1389999 15:3.5869999 16:5.381 17:8.5200005 18:10.762 19:2.691 20:5.8299999 #
-0.11041994930404511188193339421559 1:12.432 2:2.1619999 3:6.2160001 4:5.4050002 5:2.7030001 6:2.973 7:4.8649998 8:5.9460001 9:2.973 10:7.5679998 11:1.622 12:2.973 13:5.4050002 14:4.5949998 15:2.973 16:14.324 17:4.0539999 18:5.6760001 19:1.622 20:3.5139999 #
-0.1477010603049375425666056571572 1:9.9449997 2:0.73699999 3:6.6300001 4:7.3660002 5:3.131 6:5.7090001 7:2.3940001 8:5.3410001 9:6.4460001 10:8.2869997 11:3.6830001 12:2.3940001 13:3.4990001 14:1.842 15:6.2620001 16:8.1029997 17:8.1029997 18:8.4709997 19:0.73699999 20:0.921 #
-0.10151271382070220505866586790944 1:12.281 2:0 3:5.263 4:13.158 5:0.87699997 6:5.263 7:1.7539999 8:8.7720003 9:19.298 10:7.0180001 11:0.87699997 12:2.632 13:0.87699997 14:6.1399999 15:1.7539999 16:3.5090001 17:2.632 18:6.1399999 19:0 20:1.7539999 #
-0.14031277675452435982350607446278 1:4.5710001 2:0 3:5.4289999 4:7.4289999 5:5.4289999 6:5.7140002 7:1.429 8:14 9:7.7140002 10:12.571 11:1.714 12:4 13:3.1429999 14:0.28600001 15:4 16:3.1429999 17:6.5710001 18:8 19:0.57099998 20:4.2859998 #
-0.087817149556434326296283643387142 1:2.299 2:4.598 3:5.7470002 4:6.8969998 5:4.598 6:2.299 7:1.149 8:5.7470002 9:6.8969998 10:9.1949997 11:2.299 12:10.345 13:0 14:6.8969998 15:3.448 16:14.943 17:6.8969998 18:5.7470002 19:0 20:0 #
-0.094008996366407457379033019151393 1:4.2210002 2:1.948 3:1.948 4:1.299 5:8.7659998 6:3.5710001 7:2.9219999 8:6.494 9:2.273 10:17.532 11:3.247 12:4.2210002 13:2.9219999 14:3.247 15:5.8439999 16:10.39 17:4.8699999 18:7.1430001 19:4.2210002 20:2.9219999 #
-0.1226289731683393169348050832923 1:7.447 2:0 3:6.7379999 4:3.901 5:4.9650002 6:10.993 7:1.418 8:2.4820001 9:8.8649998 10:10.638 11:0.35499999 12:6.7379999 13:1.418 14:5.6739998 15:1.418 16:7.8010001 17:7.8010001 18:6.3829999 19:1.418 20:3.546 #
-0.10313489498179104209008016823645 1:12.147 2:1.13 3:5.085 4:3.3900001 5:7.3449998 6:10.452 7:3.9549999 8:6.4970002 9:2.26 10:9.3219995 11:2.5420001 12:4.802 13:3.3900001 14:2.5420001 15:3.6719999 16:5.9320002 17:3.6719999 18:5.085 19:2.825 20:3.9549999 #
-0.093008479258785622945104876180267 1:6.6389999 2:2.075 3:4.9790001 4:6.6389999 5:7.0539999 6:5.809 7:2.905 8:5.3940001 9:6.6389999 10:10.788 11:1.245 12:4.5640001 13:1.66 14:10.373 15:6.224 16:2.49 17:6.224 18:2.075 19:2.905 20:3.3199999 #
-0.098151093073885323225802324031974 1:3.3110001 2:1.325 3:4.6360002 4:9.934 5:2.6489999 6:5.2979999 7:2.6489999 8:5.96 9:8.6090002 10:10.596 11:3.3110001 12:4.6360002 13:5.96 14:1.325 15:4.6360002 16:7.947 17:8.6090002 18:4.6360002 19:1.325 20:2.6489999 #
-0.074043007418537962194271528915124 1:8.7559996 2:5.0689998 3:4.1469998 4:9.677 5:2.7650001 6:1.8430001 7:2.7650001 8:2.3039999 9:3.687 10:7.8340001 11:2.7650001 12:2.3039999 13:8.2950001 14:5.5300002 15:6.9120002 16:12.903 17:3.687 18:3.687 19:2.3039999 20:2.7650001 #
-0.1184440513407839928872178347774 1:10.36 2:0.44999999 3:1.802 4:2.7030001 5:7.658 6:5.8559999 7:2.7030001 8:8.559 9:8.1079998 10:13.063 11:5.8559999 12:4.0539999 13:4.9549999 14:2.2520001 15:2.2520001 16:2.7030001 17:5.4050002 18:8.559 19:0.44999999 20:2.2520001 #
-0.082112523840840570543697651828552 1:13.158 2:1.316 3:1.316 4:1.316 5:7.895 6:13.158 7:0 8:11.842 9:2.632 10:15.789 11:3.947 12:2.632 13:2.632 14:1.316 15:1.316 16:6.579 17:3.947 18:7.895 19:0 20:1.316 #
-0.057985649589170920603642400692479 1:8.1820002 2:2.727 3:0.90899998 4:1.818 5:4.5450001 6:10.909 7:0.90899998 8:13.636 9:0.90899998 10:14.545 11:3.6359999 12:1.818 13:4.5450001 14:1.818 15:2.727 16:7.2729998 17:6.3639998 18:4.5450001 19:3.6359999 20:4.5450001 #
-0.044676415403800129322320344726904 1:8.8500004 2:0.442 3:6.6370001 4:9.2919998 5:2.2119999 6:3.54 7:0.442 8:7.0799999 9:10.619 10:10.619 11:4.4250002 12:3.9820001 13:2.2119999 14:8.8500004 15:6.1950002 16:2.2119999 17:2.655 18:6.6370001 19:0 20:3.0969999 #
-0.10444798038296800035684697149918 1:3.625 2:1.635 3:4.691 4:4.8330002 5:6.112 6:5.1170001 7:2.914 8:8.3870001 9:7.5339999 10:8.9549999 11:1.99 12:12.509 13:2.6300001 14:2.9849999 15:2.4159999 16:8.7419996 17:5.3299999 18:5.402 19:0.71100003 20:3.483 #
-0.053060376486597518597143618990231 1:14.173 2:0 3:1.575 4:3.937 5:2.362 6:7.8740001 7:0.787 8:7.0869999 9:3.1500001 10:14.961 11:3.1500001 12:1.575 13:1.575 14:1.575 15:7.0869999 16:3.1500001 17:8.6610003 18:13.386 19:2.362 20:1.575 #
-0.051820690152519319204849068682961 1:6.1999998 2:0.23 3:5.052 4:6.3150001 5:2.526 6:4.9369998 7:1.033 8:4.822 9:7.118 10:7.4629998 11:1.607 12:5.2810001 13:8.8400002 14:2.296 15:4.3629999 16:18.485001 17:5.855 18:4.7069998 19:0.91799998 20:1.952 #
-0.0525948989120813420461431064723 1:3.5710001 2:1.429 3:7.8569999 4:4.2859998 5:3.5710001 6:4.2859998 7:0.71399999 8:9.2860003 9:3.5710001 10:14.286 11:5 12:2.1429999 13:4.2859998 14:3.5710001 15:1.429 16:7.8569999 17:10 18:3.5710001 19:2.8570001 20:6.4289999 #
-0.056693391966402509329903125490091 1:6.7389998 2:0.359 3:2.1559999 4:3.0550001 5:6.559 6:14.016 7:0.62900001 8:3.145 9:5.0310001 10:5.75 11:1.348 12:12.219 13:4.3130002 14:9.8830004 15:1.707 16:10.692 17:8.5349998 18:2.6059999 19:0 20:1.258 #
-0.19359926892120421504372984600195 1:6.1459999 2:1.6670001 3:5.5209999 4:6.875 5:5.7290001 6:5 7:2.188 8:6.4580002 9:6.4580002 10:8.9580002 11:2.9170001 12:3.5420001 13:5 14:2.7079999 15:6.25 16:5.8330002 17:5 18:7.2919998 19:1.4579999 20:5 #
-0.092575950828549913307341512336279 1:7.3509998 2:1.189 3:6.8109999 4:6.9190001 5:5.1890001 6:7.5679998 7:2.0539999 8:3.892 9:3.5680001 10:7.027 11:4 12:4.4320002 13:9.0810003 14:2.9189999 15:5.5139999 16:7.4590001 17:4.757 18:4.2160001 19:1.946 20:4.1079998 #
-0.08972134032956440019557220466595 1:5.0209999 2:0.83700001 3:6.0669999 4:8.9960003 5:3.138 6:5.0209999 7:1.046 8:8.7869997 9:8.7869997 10:7.322 11:1.255 12:4.184 13:7.9499998 14:3.9749999 15:4.8119998 16:7.1129999 17:4.8119998 18:6.276 19:1.464 20:3.138 #
-0.065911939197751720498352767663164 1:8.2130003 2:2.8989999 3:2.8989999 4:3.382 5:6.763 6:7.2459998 7:2.8989999 8:10.628 9:5.7969999 10:7.7290001 11:1.932 12:4.8309999 13:0.48300001 14:2.415 15:2.415 16:6.2800002 17:8.6960001 18:5.3140001 19:4.8309999 20:4.348 #
-0.052801959279544577463560983687785 1:6.1220002 2:0.292 3:4.9559999 4:4.665 5:5.539 6:5.1020002 7:9.184 8:5.1020002 9:3.3529999 10:10.933 11:2.4779999 12:3.0610001 13:4.2270002 14:7.1430001 15:5.1020002 16:9.6210003 17:4.5190001 18:4.5190001 19:0.72899997 20:3.3529999 #
-0.10068910604862887914201508010592 1:8.5240002 2:1.8710001 3:4.3660002 4:4.158 5:7.6919999 6:10.603 7:4.158 8:6.8610001 9:2.7030001 10:8.9399996 11:2.911 12:4.158 13:2.7030001 14:2.911 15:2.7030001 16:5.198 17:4.5739999 18:8.316 19:1.8710001 20:4.7820001 #
-0.088778846650761286674047312317271 1:11.329 2:1.525 3:1.961 4:3.2679999 5:6.3179998 6:8.0609999 7:2.1789999 8:3.4860001 9:2.3970001 10:17.865 11:2.3970001 12:1.961 13:5.0110002 14:3.4860001 15:4.3569999 16:7.625 17:5.2290001 18:6.9720001 19:1.525 20:3.05 #
-0.065349096926512112437634982597956 1:8.1309996 2:0.34599999 3:7.7849998 4:11.246 5:2.941 6:2.941 7:2.076 8:5.0170002 9:8.8240004 10:9.5159998 11:3.6329999 12:3.9790001 13:2.4219999 14:7.612 15:8.1309996 16:2.7679999 17:4.8439999 18:4.3249998 19:1.211 20:2.2490001 #
-0.031091047856680070760049261480162 1:12.972 2:0 3:4.717 4:7.783 5:1.415 6:3.5380001 7:0.472 8:2.8299999 9:5.4250002 10:7.5469999 11:0.472 12:3.302 13:7.783 14:3.302 15:9.9060001 16:10.849 17:6.6040001 18:6.6040001 19:0.236 20:4.2449999 #
-0.048793020486216968911730162972162 1:12.371 2:3.0929999 3:1.031 4:4.6389999 5:5.6700001 6:4.6389999 7:2.5769999 8:7.2160001 9:4.1240001 10:8.2469997 11:4.1240001 12:1.031 13:1.546 14:5.6700001 15:3.0929999 16:9.7939997 17:6.7010002 18:7.2160001 19:4.6389999 20:2.5769999 #
-0.072771677668956424867019450175576 1:8.2709999 2:2.256 3:2.256 4:3.7590001 5:5.263 6:5.263 7:3.7590001 8:7.5190001 9:3.0079999 10:9.0229998 11:3.7590001 12:5.263 13:7.5190001 14:3.0079999 15:2.256 16:6.7670002 17:6.7670002 18:9.7740002 19:1.5039999 20:3.0079999 #
-0.033678267653261491354488299521108 1:9.901 2:1.98 3:2.97 4:1.485 5:6.4359999 6:10.396 7:2.4749999 8:0.99000001 9:2.4749999 10:14.851 11:1.98 12:1.485 13:7.4260001 14:3.4649999 15:8.9110003 16:3.96 17:5.941 18:9.4060001 19:1.98 20:1.485 #
-0.028748881123323202779751284197118 1:5.217 2:0.87 3:0 4:4.348 5:2.609 6:8.6960001 7:1.739 8:6.9569998 9:11.304 10:13.913 11:0.87 12:5.217 13:2.609 14:6.0869999 15:2.609 16:9.5649996 17:2.609 18:6.0869999 19:0 20:8.6960001 #
-0.096939176893809930746215286490042 1:5.085 2:3.3900001 3:4.237 4:8.0509996 5:5.5079999 6:5.9320002 7:1.6950001 8:5.5079999 9:9.7460003 10:10.593 11:2.119 12:2.5420001 13:5.085 14:5.085 15:2.5420001 16:7.6269999 17:3.8139999 18:8.0509996 19:2.119 20:1.271 #
-0.033781608852529204645165350484604 1:5.204 2:1.357 3:4.5250001 4:8.3710003 5:6.5609999 6:4.5250001 7:2.7149999 8:7.9190001 9:5.4299998 10:12.217 11:3.846 12:4.9770002 13:2.7149999 14:4.2989998 15:3.1670001 16:3.846 17:5.882 18:7.9190001 19:2.036 20:2.4890001 #
-0.027973112806656597051357948657824 1:8.7440004 2:0.465 3:2.8840001 4:5.2090001 5:2.0469999 6:9.3950005 7:3.0699999 8:2.605 9:4.0929999 10:5.7670002 11:2.0469999 12:2.698 13:15.442 14:7.5349998 15:4.5580001 16:10.884 17:4.744 18:5.0229998 19:0.27900001 20:2.5120001 #
-0.02491880708488732748540073203003 1:9.0909996 2:0 3:0.82599998 4:4.9590001 5:4.9590001 6:9.9169998 7:0.82599998 8:11.57 9:5.7849998 10:16.528999 11:4.132 12:1.653 13:0.82599998 14:0 15:1.653 16:8.2639999 17:5.7849998 18:7.4380002 19:2.4790001 20:3.306 #
-0.025028171071643609546519826380973 1:4.0440001 2:3.309 3:3.309 4:2.2060001 5:8.8240004 6:3.6760001 7:8.8240004 8:2.5739999 9:1.471 10:15.809 11:2.2060001 12:2.5739999 13:6.9850001 14:3.6760001 15:2.941 16:7.7210002 17:5.1469998 18:7.7210002 19:4.0440001 20:2.941 #
-0.025664677966931951497153718833033 1:4.7210002 2:0.85799998 3:6.4380002 4:6.8670001 5:5.579 6:10.3 7:3.4330001 8:2.1459999 9:3.8629999 10:8.5839996 11:0.85799998 12:2.1459999 13:4.2919998 14:5.1500001 15:5.579 16:16.309 17:3.4330001 18:5.1500001 19:0.42899999 20:3.8629999 #
-0.015261050068260516993090547543943 1:6.993 2:0.699 3:6.2940001 4:2.098 5:11.189 6:6.993 7:0.699 8:13.287 9:2.098 10:11.888 11:2.098 12:4.1960001 13:4.1960001 14:1.399 15:2.098 16:9.79 17:2.098 18:6.2940001 19:0 20:5.5939999 #
-0.022854871531651277383190290493076 1:11.594 2:0.96600002 3:3.382 4:4.8309999 5:5.7969999 6:13.043 7:0.48300001 8:4.8309999 9:5.3140001 10:5.7969999 11:5.3140001 12:3.865 13:5.3140001 14:4.8309999 15:2.415 16:6.2800002 17:6.763 18:4.8309999 19:0 20:4.348 #
-0.021599547573099855957146075979836 1:5.0890002 2:3.053 3:4.0710001 4:5.598 5:4.5799999 6:4.0710001 7:2.29 8:4.3260002 9:6.8699999 10:6.6160002 11:1.527 12:4.0710001 13:8.651 14:4.3260002 15:1.527 16:9.6689997 17:9.415 18:9.9239998 19:2.036 20:2.29 #
-0.06290587668483349492731804275536 1:6.8470001 2:2.342 3:3.063 4:4.5050001 5:5.586 6:7.5679998 7:1.441 8:7.5679998 9:3.243 10:12.793 11:3.4230001 12:3.7839999 13:5.586 14:2.8829999 15:5.586 16:5.586 17:5.0450001 18:6.6669998 19:2.523 20:3.964 #
-0.053601626358837417551939097393188 1:8.5600004 2:0.58399999 3:4.086 4:2.918 5:6.6149998 6:8.9490004 7:0.19499999 8:6.0310001 9:4.4749999 10:13.23 11:3.1129999 12:4.6690001 13:4.086 14:4.2800002 15:3.1129999 16:4.6690001 17:7.5879998 18:6.0310001 19:2.335 20:4.4749999 #
-0.025389166268978170803993776871721 1:5.5300002 2:5.0689998 3:2.3039999 4:5.5300002 5:4.6079998 6:6.9120002 7:1.8430001 8:6.4520001 9:6.4520001 10:6.9120002 11:2.7650001 12:7.8340001 13:4.1469998 14:3.687 15:4.1469998 16:6.9120002 17:5.5300002 18:5.9910002 19:2.7650001 20:4.6079998 #
-0.014651273206323442085952102331703 1:13.504 2:0.233 3:5.006 4:5.006 5:3.3759999 6:8.033 7:2.5610001 8:3.9579999 9:1.513 10:12.456 11:1.513 12:1.397 13:5.704 14:3.26 15:8.2650003 16:4.8889999 17:6.5190001 18:9.0799999 19:1.863 20:1.863 #
-0.007744926111212416079687681502719 1:10.769 2:0.34200001 3:2.2219999 4:3.4189999 5:5.4699998 6:13.162 7:0.68400002 8:2.0510001 9:4.7859998 10:9.7440004 11:1.368 12:3.7609999 13:5.1279998 14:6.1539998 15:2.2219999 16:12.479 17:11.966 18:3.2479999 19:0.171 20:0.85500002 #
-0.0084421175868704748102011592436611 1:5.7140002 2:4.2859998 3:2.8570001 4:2.8570001 5:5 6:4.2859998 7:1.429 8:2.8570001 9:0.71399999 10:10.714 11:1.429 12:5.7140002 13:11.429 14:6.4289999 15:4.2859998 16:9.2860003 17:4.2859998 18:8.5710001 19:0.71399999 20:7.1430001 #
-0.0062972638286080996616878024951802 1:3.704 2:3.704 3:5.8200002 4:2.1159999 5:3.704 6:6.349 7:3.704 8:4.2329998 9:5.8200002 10:11.64 11:6.349 12:5.2909999 13:1.587 14:2.6459999 15:2.1159999 16:10.582 17:5.8200002 18:5.8200002 19:3.704 20:5.2909999 #
-0.0059476337853613609266134609754317 1:6.3559999 2:2.5420001 3:7.4860001 4:12.712 5:2.684 6:6.2150002 7:3.1070001 8:2.825 9:2.9660001 10:6.3559999 11:1.271 12:4.3790002 13:6.2150002 14:5.5079999 15:3.8139999 16:11.864 17:4.6609998 18:5.3670001 19:1.13 20:2.5420001 #
-0.0055355418526639331086580675389541 1:9.1949997 2:0 3:6.8969998 4:12.644 5:2.299 6:3.448 7:0 8:3.448 9:13.793 10:10.345 11:2.299 12:4.598 13:3.448 14:4.598 15:1.149 16:5.7470002 17:3.448 18:4.598 19:2.299 20:5.7470002 #
-0.0026378240605126959672510622567643 1:1.136 2:0.37900001 3:8.7119999 4:6.0609999 5:4.5450001 6:6.0609999 7:0.75800002 8:6.8179998 9:11.742 10:7.197 11:2.652 12:7.9549999 13:4.5450001 14:3.4089999 15:4.1669998 16:5.303 17:6.8179998 18:4.9239998 19:0.37900001 20:6.4390001 #
