SVM-light Version V6.02
2 # kernel type
3 # kernel parameter -d 
0.03 # kernel parameter -g 
1 # kernel parameter -s 
1 # kernel parameter -r 
empty# kernel parameter -u 
400 # highest feature index 
1104 # number of training documents 
472 # number of support vectors plus 1 
1.1364499 # threshold b, each following line is a SV (starting with alpha*y)
-0.25144318099987111869708655831346 1:0.67500001 2:0.056000002 3:0.169 4:0.169 5:0.61799997 6:0.169 7:0.169 8:0.44999999 9:0.28099999 10:1.068 11:0.112 12:0.33700001 13:0.169 14:0.22499999 15:0.44999999 16:0.61799997 17:0.22499999 18:0.56199998 19:0.112 20:0.112 21:0.056000002 22:0 23:0 24:0 25:0.112 26:0 27:0 28:0.056000002 29:0.112 30:0.056000002 31:0 32:0.056000002 33:0 34:0.056000002 35:0 36:0.056000002 37:0.056000002 38:0 39:0 40:0.056000002 41:0.22499999 42:0.056000002 43:0.056000002 44:0.28099999 45:0.22499999 46:0.169 47:0.22499999 48:0.39300001 49:0.112 50:0.28099999 51:0.112 52:0.169 53:0.056000002 54:0 55:0.39300001 56:0.67500001 57:0.22499999 58:0.39300001 59:0.112 60:0.112 61:0.50599998 62:0.056000002 63:0.33700001 64:0.73100001 65:0.056000002 66:0.33700001 67:0.22499999 68:0.44999999 69:0.33700001 70:0.56199998 71:0.056000002 72:0.28099999 73:0.112 74:0.39300001 75:0.112 76:0.112 77:0.39300001 78:0.28099999 79:0.169 80:0.28099999 81:0.28099999 82:0 83:0.22499999 84:0.169 85:0.89899999 86:0.28099999 87:0.056000002 88:0.33700001 89:0.22499999 90:0.89899999 91:0.22499999 92:0.28099999 93:0.056000002 94:0.39300001 95:0.33700001 96:0.50599998 97:0.56199998 98:0.61799997 99:0.22499999 100:0.28099999 101:0.22499999 102:0 103:0.22499999 104:0.39300001 105:0.67500001 106:0.22499999 107:0.169 108:0.50599998 109:0.44999999 110:0.61799997 111:0.112 112:0.169 113:0.056000002 114:0.28099999 115:0.56199998 116:0.28099999 117:0.169 118:0.22499999 119:0.056000002 120:0 121:0.112 122:0.056000002 123:0 124:0.112 125:0.169 126:0.112 127:0.056000002 128:0.112 129:0.112 130:0.22499999 131:0.056000002 132:0.056000002 133:0.112 134:0.112 135:0.22499999 136:0.169 137:0.056000002 138:0 139:0 140:0.22499999 141:0.44999999 142:0.112 143:0.28099999 144:0.169 145:0.61799997 146:0 147:0.056000002 148:0.50599998 149:0.28099999 150:0.89899999 151:0.169 152:0.169 153:0.169 154:0.44999999 155:0.39300001 156:0.39300001 157:0.112 158:0.56199998 159:0.39300001 160:0.50599998 161:0.33700001 162:0 163:0.22499999 164:0.22499999 165:0.22499999 166:0.22499999 167:0.056000002 168:0.33700001 169:0.28099999 170:0.56199998 171:0.169 172:0.28099999 173:0.33700001 174:0.112 175:0.112 176:0.39300001 177:0.33700001 178:0.22499999 179:0.28099999 180:0.22499999 181:1.124 182:0.056000002 183:0.39300001 184:0.44999999 185:0.73100001 186:0.67500001 187:0.169 188:0.56199998 189:0.61799997 190:1.349 191:0.28099999 192:0.22499999 193:0.39300001 194:0.44999999 195:0.89899999 196:0.67500001 197:0.44999999 198:0.61799997 199:0.44999999 200:0.56199998 201:0.169 202:0 203:0.112 204:0 205:0.056000002 206:0.112 207:0.169 208:0.169 209:0.169 210:0.22499999 211:0.169 212:0.169 213:0.22499999 214:0.169 215:0.22499999 216:0.112 217:0.056000002 218:0.169 219:0 220:0.112 221:0.44999999 222:0.056000002 223:0.112 224:0.50599998 225:0.22499999 226:0.169 227:0.112 228:0.33700001 229:0.169 230:0.39300001 231:0.112 232:0.056000002 233:0.169 234:0.39300001 235:0.056000002 236:0.112 237:0.169 238:0.169 239:0.112 240:0.22499999 241:0.112 242:0.056000002 243:0.33700001 244:0.28099999 245:0.112 246:0.112 247:0.056000002 248:0.112 249:0.112 250:0.22499999 251:0.112 252:0 253:0.22499999 254:0.169 255:0.056000002 256:0.22499999 257:0.112 258:0.28099999 259:0.056000002 260:0.22499999 261:0.28099999 262:0 263:0.169 264:0.169 265:0.44999999 266:0.169 267:0 268:0.33700001 269:0.22499999 270:0.50599998 271:0.056000002 272:0.169 273:0.056000002 274:0.056000002 275:0.169 276:0.33700001 277:0.33700001 278:0.39300001 279:0.112 280:0.169 281:0.28099999 282:0.112 283:0.44999999 284:0.56199998 285:0.39300001 286:0.61799997 287:0.112 288:0.28099999 289:0.169 290:0.73100001 291:0.33700001 292:0.44999999 293:0.169 294:0.28099999 295:0.50599998 296:0.22499999 297:0.22499999 298:0.33700001 299:0.056000002 300:0.112 301:0.39300001 302:0 303:0.169 304:0.44999999 305:0.28099999 306:0.33700001 307:0.169 308:0.28099999 309:0.39300001 310:0.67500001 311:0.22499999 312:0.44999999 313:0.112 314:0.169 315:0.50599998 316:0.39300001 317:0.33700001 318:0.56199998 319:0.39300001 320:0.22499999 321:0.112 322:0 323:0.28099999 324:0.22499999 325:0.28099999 326:0.50599998 327:0.112 328:0.44999999 329:0.33700001 330:0.33700001 331:0.056000002 332:0.169 333:0.112 334:0.056000002 335:0.28099999 336:0.33700001 337:0.22499999 338:0.61799997 339:0.112 340:0.056000002 341:0.50599998 342:0 343:0.28099999 344:0.56199998 345:0.28099999 346:0.67500001 347:0 348:0.44999999 349:0.33700001 350:0.73100001 351:0.056000002 352:0.22499999 353:0.28099999 354:0.22499999 355:0.50599998 356:0.33700001 357:0.28099999 358:0.56199998 359:0.056000002 360:0.44999999 361:0.056000002 362:0.056000002 363:0.056000002 364:0.112 365:0.22499999 366:0.169 367:0.112 368:0.33700001 369:0.169 370:0.28099999 371:0.112 372:0.28099999 373:0.112 374:0 375:0.112 376:0.169 377:0.112 378:0.056000002 379:0.112 380:0.169 381:0.39300001 382:0 383:0.39300001 384:0.22499999 385:0.22499999 386:0.33700001 387:0.056000002 388:0.22499999 389:0.056000002 390:0.50599998 391:0 392:0.112 393:0.056000002 394:0.169 395:0.50599998 396:0.39300001 397:0.22499999 398:0.22499999 399:0 400:0.28099999 #
-0.23802060857435611285204402065574 1:0.97100002 2:0 3:0 4:0 5:0.324 6:1.618 7:0 8:1.294 9:0.64700001 10:0.324 11:0 12:0 13:1.294 14:0 15:0 16:0.324 17:0.324 18:0.97100002 19:0 20:0 21:0 22:0 23:0 24:0 25:0 26:0 27:0 28:0 29:0 30:0.64700001 31:0 32:0 33:0 34:0 35:0 36:0 37:0 38:0 39:0 40:0 41:0 42:0.324 43:0 44:0 45:0.324 46:0 47:0.324 48:0 49:0 50:0.324 51:0 52:0.324 53:0 54:0 55:0 56:0 57:0.324 58:0.97100002 59:0 60:0 61:0.97100002 62:0 63:0 64:0.324 65:0 66:0.64700001 67:0 68:0 69:0.324 70:0.64700001 71:0.324 72:0 73:0 74:0 75:0 76:0 77:0 78:0.64700001 79:0 80:0 81:0.324 82:0 83:0.324 84:0.324 85:0.324 86:0.324 87:0 88:0.324 89:0.64700001 90:0 91:0 92:0.324 93:0.324 94:0.64700001 95:0.324 96:0.64700001 97:0.64700001 98:0.324 99:0 100:0.324 101:1.294 102:0.324 103:0 104:0.324 105:0.97100002 106:1.294 107:0.324 108:0.64700001 109:0.324 110:0.64700001 111:0 112:0.324 113:0.324 114:0 115:0 116:0 117:0.324 118:0.97100002 119:0 120:0.324 121:0 122:0 123:0 124:0 125:0 126:0 127:0 128:0 129:0 130:0.324 131:0 132:0 133:0.324 134:0 135:0 136:0 137:0 138:0.324 139:0 140:0.324 141:0.97100002 142:0 143:0.324 144:0.324 145:0.64700001 146:0.324 147:0 148:0.324 149:0.324 150:0.324 151:0 152:0 153:0 154:0.324 155:0.64700001 156:0 157:0.324 158:0.324 159:0.324 160:0.64700001 161:0.64700001 162:0 163:0 164:0.324 165:0.324 166:1.294 167:0 168:1.294 169:0.97100002 170:0.324 171:0 172:0.324 173:0 174:0.324 175:0.324 176:0.324 177:1.294 178:0.324 179:0 180:0.64700001 181:0.324 182:0 183:0.324 184:0.324 185:0.324 186:0 187:0 188:0.324 189:0 190:1.942 191:0.324 192:0.324 193:0.97100002 194:0.64700001 195:0.324 196:0.324 197:0.324 198:1.294 199:0.324 200:0.64700001 201:0 202:0 203:0.64700001 204:0.324 205:0 206:0 207:0 208:0 209:0 210:0 211:0 212:0 213:0 214:0.324 215:0.324 216:0 217:0.64700001 218:0 219:0 220:0.324 221:0.324 222:0 223:0.64700001 224:0 225:0 226:0.64700001 227:0 228:0 229:0 230:0 231:0 232:0 233:0 234:0 235:0.324 236:0.64700001 237:0.324 238:0.324 239:0.324 240:0 241:0.64700001 242:0 243:0 244:0 245:0.97100002 246:0.324 247:0 248:0.64700001 249:0.64700001 250:0.97100002 251:0 252:0.324 253:0 254:0 255:0 256:0.324 257:0.324 258:0 259:0 260:0 261:0 262:0 263:0.324 264:0 265:0.64700001 266:0 267:0 268:0.324 269:0.324 270:0.324 271:0 272:0 273:0 274:0 275:0.324 276:0 277:0.324 278:0.324 279:0 280:0 281:0.324 282:0 283:0 284:0.64700001 285:0 286:0 287:0.324 288:0.324 289:0.64700001 290:0.64700001 291:0.324 292:0.324 293:0.324 294:0 295:0 296:0.324 297:0 298:0 299:0 300:0 301:0.324 302:0 303:0 304:0.324 305:0 306:0.97100002 307:0.324 308:0.324 309:0 310:0.64700001 311:0 312:0 313:0.324 314:0.324 315:0.324 316:0.324 317:0.324 318:0.64700001 319:0 320:0 321:0.324 322:0 323:0 324:0.324 325:0.64700001 326:0.324 327:0 328:0.324 329:0.64700001 330:0 331:0 332:0.324 333:0.97100002 334:0.324 335:0.64700001 336:0.97100002 337:0.324 338:0.324 339:0 340:0 341:0.64700001 342:0 343:0.324 344:0.324 345:0.324 346:0.324 347:0 348:0 349:2.2650001 350:0.97100002 351:1.294 352:0.324 353:0 354:0 355:0 356:0.324 357:0.324 358:2.2650001 359:0 360:0.324 361:0 362:0 363:0 364:0 365:0 366:0 367:0 368:0 369:0 370:0 371:0 372:0.324 373:0 374:0 375:0.324 376:0.324 377:0 378:0 379:0 380:0 381:0 382:0 383:0 384:0 385:0.324 386:0.324 387:0 388:0 389:0.97100002 390:0 391:0 392:0.324 393:0.324 394:0.324 395:0.324 396:0.324 397:0.324 398:0 399:0 400:0 #
-0.57834914785358615407773186234408 1:0.92299998 2:0.185 3:0.36899999 4:0 5:0.36899999 6:0.73799998 7:0 8:0.36899999 9:0.185 10:1.476 11:0.36899999 12:0 13:0.185 14:0.36899999 15:0 16:0.36899999 17:0.55400002 18:1.2920001 19:0 20:0 21:0 22:0 23:0 24:0 25:0.36899999 26:0 27:0 28:0 29:0 30:0.185 31:0 32:0 33:0 34:0 35:0 36:0 37:0 38:0 39:0 40:0 41:0.185 42:0 43:0.185 44:0 45:0 46:0.185 47:0 48:0.185 49:0.185 50:0.36899999 51:0.185 52:0.185 53:0 54:0 55:0.185 56:0.73799998 57:0 58:0.36899999 59:0.185 60:0 61:0.73799998 62:0 63:0.36899999 64:0.73799998 65:0.185 66:0.185 67:0.185 68:0 69:0.36899999 70:0.36899999 71:0.73799998 72:0.55400002 73:0.36899999 74:0.185 75:0.185 76:0 77:0.55400002 78:0.185 79:0 80:0 81:0.185 82:0 83:0.36899999 84:0 85:0.185 86:0.36899999 87:0 88:0.36899999 89:0.73799998 90:0.73799998 91:0 92:0 93:0.36899999 94:0 95:0.185 96:0.36899999 97:0 98:0.55400002 99:0 100:0 101:0.73799998 102:0 103:0.185 104:0.36899999 105:0.36899999 106:0.55400002 107:0 108:0.73799998 109:0.73799998 110:0.92299998 111:0.36899999 112:0.36899999 113:0 114:0.55400002 115:0.185 116:0.185 117:0.73799998 118:0.73799998 119:0 120:0 121:0.185 122:0 123:0 124:0.185 125:0 126:0 127:0 128:0 129:0 130:0.185 131:0 132:0 133:0.185 134:0 135:0 136:0 137:0 138:0 139:0 140:0 141:0.92299998 142:0 143:0 144:0.185 145:0.185 146:0.92299998 147:0.36899999 148:1.476 149:0 150:0.36899999 151:0.36899999 152:0.36899999 153:0.185 154:0.185 155:0.36899999 156:0.36899999 157:1.107 158:1.476 159:0 160:0 161:0.185 162:0.185 163:0 164:0.55400002 165:0 166:0.185 167:0 168:0.36899999 169:0.55400002 170:0 171:0.55400002 172:0.36899999 173:0.36899999 174:0.185 175:0.55400002 176:0.36899999 177:0.185 178:0.36899999 179:0 180:0.185 181:0.55400002 182:0 183:0.55400002 184:0.185 185:0.36899999 186:1.2920001 187:0 188:1.2920001 189:0.185 190:1.2920001 191:0.185 192:0.36899999 193:0.92299998 194:0.55400002 195:0.55400002 196:0.185 197:0.73799998 198:1.2920001 199:0 200:0.36899999 201:0.185 202:0.185 203:0.185 204:0.55400002 205:0.185 206:0.73799998 207:0 208:0 209:0.36899999 210:0.36899999 211:0 212:0 213:0 214:0 215:0.55400002 216:0.185 217:0.36899999 218:0.36899999 219:0.185 220:0.36899999 221:0.36899999 222:0 223:0 224:0.73799998 225:0.36899999 226:0.55400002 227:0 228:0 229:0 230:0.185 231:0.73799998 232:0.55400002 233:0.185 234:0 235:0.185 236:0.185 237:0 238:0.36899999 239:0 240:0 241:0 242:0 243:0 244:0.185 245:0 246:0.55400002 247:0 248:0.36899999 249:0 250:0.55400002 251:0 252:0.185 253:0.185 254:0.185 255:0.185 256:0 257:0.185 258:0.55400002 259:0.185 260:0.36899999 261:0.55400002 262:0 263:0.185 264:0 265:0.185 266:0.36899999 267:0 268:0.185 269:0 270:0.36899999 271:0.185 272:0 273:0 274:0.185 275:0 276:0.36899999 277:0 278:0.36899999 279:0 280:0 281:0.185 282:0 283:0.185 284:0.73799998 285:0.185 286:0 287:0.185 288:0.36899999 289:0.36899999 290:0.55400002 291:0.55400002 292:0.36899999 293:0.185 294:0 295:0 296:0.185 297:0.36899999 298:0 299:0 300:0 301:0.185 302:0 303:0 304:0.36899999 305:0.36899999 306:0.185 307:0 308:0.36899999 309:0.185 310:0.73799998 311:0.185 312:0.36899999 313:0 314:0 315:0.185 316:0.73799998 317:0 318:0.55400002 319:0 320:0.55400002 321:1.107 322:0 323:0.185 324:0 325:0.185 326:0.185 327:0 328:0.73799998 329:0.73799998 330:0.92299998 331:0.185 332:0.185 333:0 334:0 335:0.55400002 336:0.55400002 337:0.73799998 338:0.55400002 339:0 340:0 341:0.36899999 342:0 343:0.36899999 344:0.73799998 345:0.36899999 346:0.73799998 347:0 348:2.03 349:0.36899999 350:1.107 351:0 352:0.55400002 353:0.55400002 354:0.36899999 355:0.185 356:0.185 357:1.107 358:0.55400002 359:0 360:0.185 361:0 362:0 363:0 364:0 365:0.185 366:0 367:0 368:0 369:0 370:0 371:0 372:0 373:0 374:0 375:0 376:0 377:0 378:0.185 379:0 380:0.185 381:0.185 382:0 383:0 384:0.36899999 385:0.36899999 386:0 387:0 388:0 389:0.185 390:0.185 391:0.185 392:0 393:0 394:0.185 395:0.36899999 396:0 397:0.185 398:0 399:0 400:0.185 #
-0.17513012294903401722123703621037 1:0 2:0.37799999 3:0 4:0.189 5:0.94499999 6:0.189 7:0 8:0.37799999 9:0 10:1.512 11:0.37799999 12:0 13:0.189 14:0 15:0.189 16:0.56699997 17:0.56699997 18:0.94499999 19:0 20:0.37799999 21:0 22:0.189 23:0 24:0 25:0.37799999 26:0.37799999 27:0 28:0.189 29:0 30:0.189 31:0 32:0 33:0 34:0 35:0 36:0 37:0.37799999 38:0.189 39:0 40:0.37799999 41:0 42:0 43:0 44:0 45:0 46:0 47:0 48:0 49:0.189 50:0 51:0.189 52:0 53:0.189 54:0 55:0 56:0.189 57:0.189 58:0 59:0 60:0.189 61:0 62:0 63:0 64:0.94499999 65:0 66:0.189 67:0.189 68:0.37799999 69:0.189 70:0.94499999 71:0 72:0.189 73:0.189 74:0 75:0.189 76:0.189 77:0 78:0 79:0 80:0 81:0.37799999 82:0 83:0 84:0.189 85:0.189 86:0.56699997 87:0 88:0.75599998 89:0 90:1.1339999 91:0 92:0 93:0.189 94:0.189 95:0 96:0.94499999 97:0.94499999 98:0.75599998 99:0.56699997 100:0 101:0.56699997 102:0 103:0.37799999 104:0.189 105:0.37799999 106:1.323 107:0.75599998 108:0.56699997 109:0.189 110:0.75599998 111:0 112:0.37799999 113:0.94499999 114:0.37799999 115:0 116:0.94499999 117:0 118:1.323 119:0.189 120:0.37799999 121:0 122:0 123:0 124:0 125:0.189 126:0.189 127:0 128:0.189 129:0 130:0.37799999 131:0 132:0 133:0 134:0 135:0.37799999 136:0.189 137:0 138:0.189 139:0 140:0 141:0 142:0 143:0 144:0 145:1.1339999 146:0.56699997 147:0.189 148:1.323 149:0.189 150:0.37799999 151:0.37799999 152:0.56699997 153:0.75599998 154:0.37799999 155:0 156:0.75599998 157:0.37799999 158:0 159:0 160:0 161:0 162:0.189 163:0 164:0.189 165:0 166:0.189 167:0 168:0 169:0.189 170:0.37799999 171:0 172:0.189 173:0.37799999 174:0 175:0 176:0.189 177:0.189 178:0.189 179:0 180:0 181:1.323 182:0.75599998 183:0 184:0.37799999 185:0.37799999 186:1.1339999 187:0.189 188:0.56699997 189:0.37799999 190:1.89 191:0.189 192:0.189 193:0.56699997 194:0.37799999 195:0.37799999 196:0.75599998 197:0.37799999 198:1.701 199:0.189 200:0 201:0.37799999 202:0 203:0 204:0 205:0 206:0.189 207:0 208:0.189 209:0 210:0.37799999 211:0 212:0 213:0.189 214:0 215:0.189 216:0.189 217:0.56699997 218:0.189 219:0 220:0.189 221:0.37799999 222:0.189 223:0 224:0 225:0.189 226:0.37799999 227:0 228:0.189 229:0 230:0.37799999 231:0 232:0 233:0.189 234:0 235:0 236:0.189 237:0 238:0.189 239:0 240:0.75599998 241:0.75599998 242:0 243:0 244:0 245:0 246:1.1339999 247:0 248:0.75599998 249:0.56699997 250:0.56699997 251:0.37799999 252:0.189 253:0.189 254:0.37799999 255:0.37799999 256:0.94499999 257:0.37799999 258:0.56699997 259:0 260:0 261:0 262:0 263:0 264:0.37799999 265:0 266:0.56699997 267:0 268:0.189 269:0 270:0 271:0 272:0 273:0.56699997 274:0.189 275:0 276:0 277:0 278:0.189 279:0 280:0 281:0.189 282:0.189 283:0.189 284:0.189 285:0.189 286:0 287:0 288:0.189 289:0.189 290:0.189 291:0 292:0 293:0.56699997 294:0 295:0.56699997 296:0.189 297:0 298:0.37799999 299:0.56699997 300:0 301:0.37799999 302:0 303:0.189 304:0.37799999 305:0.75599998 306:0.94499999 307:0.189 308:0.189 309:0.189 310:0.75599998 311:0.56699997 312:0.37799999 313:0.94499999 314:0 315:0.37799999 316:0.75599998 317:0.189 318:0.75599998 319:0.189 320:0 321:0.75599998 322:0 323:0.189 324:0.56699997 325:0.94499999 326:0.37799999 327:0 328:0.37799999 329:0 330:0.189 331:0 332:0.37799999 333:0.37799999 334:0.189 335:0.37799999 336:0.37799999 337:0 338:0.189 339:0.189 340:0.189 341:0.94499999 342:0.37799999 343:0.189 344:0 345:0.75599998 346:0.94499999 347:0.189 348:0.56699997 349:0 350:1.1339999 351:0.189 352:0.37799999 353:0.37799999 354:0.189 355:0.37799999 356:0.56699997 357:1.1339999 358:0.37799999 359:0.189 360:0.56699997 361:0.37799999 362:0 363:0 364:0 365:0 366:0.189 367:0 368:0 369:0 370:0 371:0.189 372:0.189 373:0 374:0 375:0.37799999 376:0.189 377:0 378:0.56699997 379:0 380:0 381:0.37799999 382:0 383:0 384:0 385:0.37799999 386:0.189 387:0 388:0 389:0 390:0.56699997 391:0 392:0 393:0.37799999 394:0 395:0 396:0 397:0.37799999 398:0.75599998 399:0 400:0 #
-0.29340901911657041312153637591109 1:0.62 2:0 3:0 4:0.207 5:0.62 6:1.24 7:0 8:0.41299999 9:0.82599998 10:1.033 11:0.41299999 12:0.41299999 13:0.207 14:0.207 15:0 16:0.41299999 17:0.41299999 18:1.24 19:0.207 20:0.207 21:0 22:0 23:0 24:0 25:0 26:0 27:0 28:0 29:0 30:0.207 31:0 32:0 33:0 34:0.207 35:0 36:0 37:0 38:0 39:0 40:0 41:0.41299999 42:0 43:0 44:0 45:0.207 46:0 47:0 48:0.207 49:0 50:0.207 51:0 52:0 53:0 54:0 55:0 56:0 57:0 58:0 59:0 60:0 61:0 62:0 63:0 64:0 65:0 66:0.62 67:0 68:0.62 69:0.207 70:0 71:0 72:0.207 73:0 74:0 75:0 76:0 77:0 78:0.207 79:0 80:0 81:0.207 82:0 83:0 84:0 85:1.033 86:0.82599998 87:0 88:1.033 89:0.82599998 90:0.62 91:0.207 92:0.207 93:0.41299999 94:0.41299999 95:0.207 96:1.033 97:0.41299999 98:0 99:0.207 100:0.207 101:0.62 102:0.207 103:0 104:0.207 105:0.82599998 106:1.033 107:0.207 108:1.24 109:0.41299999 110:0.62 111:0.62 112:0.41299999 113:0.207 114:0.207 115:0.41299999 116:0.82599998 117:0.82599998 118:0.62 119:0.207 120:0.41299999 121:0.207 122:0 123:0 124:0 125:0 126:0 127:0 128:0 129:0 130:0 131:0 132:0 133:0 134:0.207 135:0 136:0 137:0 138:0 139:0 140:0 141:0.62 142:0 143:0.207 144:0.41299999 145:1.24 146:1.24 147:0 148:1.446 149:0.41299999 150:1.86 151:0 152:0.207 153:0.82599998 154:0 155:0.41299999 156:0 157:0.82599998 158:0.62 159:0.207 160:0.62 161:0.41299999 162:0 163:0 164:0.62 165:0 166:0.62 167:0 168:0.41299999 169:1.033 170:0.41299999 171:0 172:0.82599998 173:0 174:0 175:0 176:0.62 177:0.62 178:0 179:0.207 180:0.207 181:1.653 182:0.207 183:0.207 184:0 185:1.033 186:1.446 187:0 188:0.82599998 189:0.82599998 190:0.82599998 191:0.207 192:0.207 193:0.82599998 194:0 195:0 196:1.446 197:0.82599998 198:0.82599998 199:0.41299999 200:0.207 201:0.41299999 202:0 203:0.207 204:0 205:0.207 206:0 207:0 208:0.207 209:0 210:0.62 211:0 212:0.207 213:0 214:0.207 215:0 216:0.207 217:0.41299999 218:0.41299999 219:0 220:0.207 221:0.41299999 222:0 223:0 224:0 225:0.207 226:0.207 227:0 228:0.207 229:0.207 230:0.207 231:0.207 232:0 233:0.41299999 234:0 235:0 236:0 237:0.62 238:0.62 239:0 240:0.207 241:0.41299999 242:0 243:0.207 244:0.207 245:0.62 246:0 247:0 248:0 249:0.207 250:0.62 251:0 252:0.207 253:0.207 254:0.207 255:0 256:0.62 257:0 258:0 259:0 260:0.41299999 261:0.41299999 262:0 263:0 264:0 265:0 266:0.207 267:0.207 268:0.207 269:0 270:0.62 271:0 272:0.207 273:0.207 274:0 275:0 276:0 277:0 278:0 279:0 280:0 281:0.207 282:0 283:0 284:0.207 285:0 286:0 287:0 288:0.41299999 289:0 290:0 291:0 292:0 293:0.207 294:0.207 295:0 296:0 297:0.207 298:0 299:0 300:0 301:0.41299999 302:0 303:0 304:0 305:0 306:0.207 307:0 308:1.033 309:0.62 310:1.24 311:0 312:0.207 313:0.207 314:0.207 315:0.41299999 316:1.24 317:0.62 318:0.82599998 319:0.62 320:0 321:0.82599998 322:0 323:0.207 324:0 325:0.82599998 326:0.82599998 327:0 328:1.446 329:0.41299999 330:0.41299999 331:0.62 332:0 333:0 334:0 335:0 336:0.41299999 337:0 338:0.207 339:0 340:0.207 341:0.207 342:0 343:0 344:0 345:0.41299999 346:1.033 347:0 348:0.62 349:0 350:1.446 351:0.62 352:0 353:0 354:0 355:0 356:0.62 357:0.41299999 358:0.62 359:0 360:0.41299999 361:0.207 362:0 363:0 364:0 365:0 366:0.62 367:0 368:0.207 369:0 370:0.62 371:0 372:0.207 373:0 374:0 375:0 376:0 377:0.207 378:0.207 379:0 380:0 381:0.41299999 382:0 383:0 384:0 385:0.62 386:0 387:0 388:0.82599998 389:0 390:0.41299999 391:0.207 392:0 393:0.207 394:0 395:0 396:0.41299999 397:0 398:0 399:0.207 400:0 #
2.1977267618436271412463156593731 1:0 2:0 3:0 4:0 5:0.324 6:0 7:0 8:0 9:0.97100002 10:0.64700001 11:0 12:0 13:0 14:0 15:0 16:0 17:0.324 18:0 19:0.324 20:0 21:0 22:0 23:0 24:0 25:0.324 26:0.324 27:0 28:0 29:0 30:0 31:0 32:0 33:0 34:0 35:0 36:0.64700001 37:0.324 38:0 39:0 40:0 41:0.324 42:0.324 43:0 44:0.324 45:0 46:0 47:0.324 48:0.324 49:0.324 50:0.324 51:0.324 52:0.324 53:0.324 54:0 55:0 56:0.324 57:0.324 58:0.97100002 59:0 60:0 61:0 62:0 63:0 64:0.324 65:0.64700001 66:0 67:0.324 68:0.97100002 69:0.324 70:0.97100002 71:0 72:1.294 73:0 74:0 75:0.324 76:0.64700001 77:0.324 78:0.324 79:0 80:0 81:0.324 82:0 83:0.64700001 84:0.64700001 85:0.324 86:0.324 87:0 88:0.324 89:0.97100002 90:0.64700001 91:0.324 92:0 93:0.64700001 94:0.97100002 95:0 96:0.324 97:0.324 98:0.324 99:0 100:0 101:0.324 102:0 103:0 104:0.324 105:0.97100002 106:0.324 107:0 108:0 109:0.324 110:0 111:0 112:0.324 113:0 114:0.324 115:0.324 116:0.324 117:0 118:0 119:0 120:0 121:0 122:0 123:0.324 124:0 125:0 126:0 127:0 128:0.324 129:0.324 130:0.324 131:0 132:0 133:0 134:0.324 135:0 136:0.324 137:0 138:0.324 139:0 140:0 141:0 142:0.324 143:0.324 144:0.324 145:1.294 146:0.324 147:0.324 148:0.64700001 149:0.324 150:0.64700001 151:0.97100002 152:0 153:0.64700001 154:0 155:0 156:0.324 157:0 158:0.64700001 159:0.324 160:0.324 161:0.97100002 162:0 163:0.97100002 164:0.64700001 165:0.324 166:0 167:0 168:0.64700001 169:0.97100002 170:0.64700001 171:0.324 172:0.64700001 173:0 174:0.97100002 175:0.64700001 176:0.64700001 177:0.324 178:0 179:0 180:0.324 181:0 182:0 183:0.64700001 184:0.64700001 185:0.64700001 186:0.64700001 187:0.324 188:1.294 189:1.618 190:1.294 191:0.324 192:0.64700001 193:0 194:0 195:0.64700001 196:0.64700001 197:0 198:0.97100002 199:0.324 200:0.324 201:0 202:0 203:0.324 204:0.324 205:0 206:0.324 207:0 208:0 209:0.64700001 210:0 211:0.324 212:0.64700001 213:0 214:0 215:0.324 216:0.64700001 217:0.324 218:0.64700001 219:0 220:0 221:0.324 222:0 223:0 224:0.324 225:0.324 226:0.324 227:0.64700001 228:1.294 229:0 230:1.294 231:0.97100002 232:1.618 233:0 234:0 235:0.324 236:0.324 237:0 238:0.324 239:0 240:0.64700001 241:0 242:0 243:0.324 244:0 245:0 246:0 247:0 248:0 249:0.324 250:0 251:0 252:0.64700001 253:0 254:0.324 255:0 256:0 257:0.324 258:0 259:0 260:0 261:0 262:0 263:0.324 264:0.324 265:0 266:0 267:0 268:0.64700001 269:0.324 270:0.64700001 271:0.324 272:0 273:0 274:0 275:0 276:0.64700001 277:0 278:0.324 279:0 280:0 281:0 282:0 283:0 284:0.324 285:0.64700001 286:0 287:0 288:0 289:0.64700001 290:0.324 291:0 292:0 293:0 294:0 295:0.324 296:0.64700001 297:0.324 298:0 299:0 300:0 301:0.324 302:0.324 303:0.324 304:0.97100002 305:0 306:0.97100002 307:0.324 308:0.64700001 309:0 310:0.64700001 311:0.324 312:2.589 313:0.324 314:0.324 315:0 316:1.942 317:0.324 318:0 319:0 320:0 321:0 322:0 323:0 324:0.324 325:0.324 326:0 327:0 328:0.324 329:0.64700001 330:0.64700001 331:0 332:0 333:0 334:0 335:0.324 336:0.64700001 337:0.324 338:0 339:0 340:0 341:0 342:0.64700001 343:0 344:0.64700001 345:0.64700001 346:0 347:0 348:0.324 349:0 350:1.942 351:0 352:0 353:0 354:0.64700001 355:0 356:0.324 357:0 358:0 359:0 360:0 361:0 362:0 363:0.64700001 364:0 365:0 366:0 367:0 368:0 369:0 370:0 371:0 372:0 373:0 374:0 375:0 376:0.324 377:0 378:0 379:0 380:0 381:0 382:0 383:0 384:0 385:0.324 386:0 387:0 388:0 389:0.324 390:0 391:0 392:0 393:0 394:0 395:0 396:0.64700001 397:0 398:0.324 399:0 400:0 #
2.1977267618436271412463156593731 1:1.6950001 2:0.169 3:0.33899999 4:0.33899999 5:0.33899999 6:0.847 7:0.33899999 8:0.169 9:0 10:0.67799997 11:0.169 12:0 13:0.33899999 14:1.017 15:0.847 16:0.847 17:0.50800002 18:0.847 19:0 20:0.169 21:0.169 22:0 23:0 24:0.169 25:0.169 26:0.169 27:0 28:0 29:0 30:0.169 31:0 32:0 33:0.169 34:0.169 35:0 36:0.169 37:0.169 38:0 39:0 40:0.33899999 41:0.169 42:0 43:0.169 44:0.169 45:0 46:0.33899999 47:0 48:0 49:0.33899999 50:0 51:0 52:0 53:0.50800002 54:0 55:0.169 56:0.50800002 57:0 58:0.169 59:0 60:0.169 61:0.169 62:0 63:0.169 64:0.169 65:0.169 66:0 67:0 68:0.169 69:0.33899999 70:0.847 71:0 72:0 73:0.169 74:0.33899999 75:0.169 76:0.169 77:0.33899999 78:0.169 79:0 80:0 81:0.33899999 82:0 83:0 84:0 85:0.33899999 86:0.169 87:0 88:0.33899999 89:0 90:1.3559999 91:0.169 92:0.33899999 93:0 94:0.33899999 95:0.169 96:0.50800002 97:0.33899999 98:0.50800002 99:0 100:0.33899999 101:0.67799997 102:0 103:0.33899999 104:0.169 105:0.33899999 106:0.33899999 107:0.50800002 108:0 109:0.169 110:1.525 111:0 112:0 113:0.847 114:0.169 115:0.33899999 116:0.169 117:0 118:0.847 119:0 120:0.33899999 121:0.169 122:0.169 123:0 124:0 125:0 126:0 127:0.169 128:0.169 129:0 130:0.169 131:0.169 132:0 133:0.50800002 134:0 135:0 136:0.169 137:0.169 138:0 139:0 140:0 141:0.67799997 142:0 143:0 144:0 145:0.169 146:0 147:0 148:0.33899999 149:0 150:0.33899999 151:0 152:0 153:0 154:0 155:0.33899999 156:0.169 157:0.67799997 158:0.33899999 159:0.169 160:0.169 161:0.169 162:0 163:0 164:0.169 165:0 166:0.169 167:0 168:0.169 169:0 170:0.50800002 171:0 172:0.169 173:0 174:0.33899999 175:0.33899999 176:0 177:0.169 178:0 179:0 180:0 181:1.186 182:0.67799997 183:0.169 184:0.33899999 185:0.67799997 186:2.0339999 187:0 188:0.33899999 189:0.169 190:2.2030001 191:0.169 192:0.169 193:0.33899999 194:0.50800002 195:1.3559999 196:1.186 197:0.33899999 198:1.3559999 199:0.50800002 200:0.169 201:0.33899999 202:0 203:0 204:0.169 205:0 206:0 207:0 208:0 209:0 210:0.33899999 211:0 212:0.169 213:0 214:0.169 215:0 216:0 217:0 218:0.169 219:0 220:0 221:0 222:0 223:0 224:0.33899999 225:0.169 226:0.169 227:0 228:0 229:0 230:0 231:0 232:0 233:0.169 234:0.169 235:0.169 236:0.33899999 237:0.169 238:0.169 239:0 240:0.169 241:1.017 242:0.169 243:0.33899999 244:0.50800002 245:0 246:0.847 247:0 248:0.169 249:0.169 250:0.169 251:0 252:0 253:0.50800002 254:0.50800002 255:0.169 256:0.67799997 257:0.169 258:1.017 259:0 260:0.33899999 261:0.847 262:0.169 263:0.169 264:0 265:0.33899999 266:0.33899999 267:0 268:0.33899999 269:0 270:0.847 271:0 272:0.169 273:0.33899999 274:0 275:0.50800002 276:0.33899999 277:0 278:0.33899999 279:0 280:0 281:0.169 282:0.169 283:0.169 284:0.33899999 285:0 286:0.67799997 287:0.50800002 288:0.169 289:0.169 290:0.169 291:0.33899999 292:0 293:0.67799997 294:0.33899999 295:0.169 296:0.50800002 297:0 298:0.67799997 299:0.33899999 300:0.33899999 301:0.847 302:0 303:0.50800002 304:0.169 305:0.67799997 306:0.169 307:0 308:0.33899999 309:0.50800002 310:1.3559999 311:0 312:0 313:0.847 314:0 315:0.169 316:0.847 317:0.33899999 318:1.3559999 319:0.169 320:0.67799997 321:0.169 322:0.169 323:0.169 324:0 325:0.67799997 326:0 327:0 328:0.33899999 329:0 330:0.50800002 331:0.169 332:0.33899999 333:0.67799997 334:0.169 335:0.33899999 336:0.50800002 337:0.33899999 338:0.169 339:0 340:0 341:0.50800002 342:0.169 343:0.169 344:0.33899999 345:0.847 346:0.33899999 347:0.33899999 348:0 349:0.33899999 350:1.3559999 351:0 352:0.33899999 353:0.67799997 354:0.33899999 355:0.50800002 356:0.67799997 357:0.847 358:0.33899999 359:0.169 360:0.50800002 361:0.169 362:0 363:0 364:0 365:0 366:0 367:0 368:0 369:0 370:0.33899999 371:0 372:0.169 373:0 374:0 375:0.169 376:0.33899999 377:0 378:0.169 379:0.169 380:0 381:0.169 382:0 383:0 384:0 385:0.33899999 386:0.169 387:0 388:0.33899999 389:0 390:1.017 391:0 392:0.169 393:0 394:0.33899999 395:0 396:0.847 397:0.169 398:0.169 399:0 400:0.33899999 #
2.1977267618436271412463156593731 1:1.222 2:0.69800001 3:0.34900001 4:0.34900001 5:0.69800001 6:0.87300003 7:0.175 8:0.87300003 9:0.34900001 10:1.0470001 11:0.34900001 12:0.175 13:0.87300003 14:0.175 15:0.175 16:0.69800001 17:0.69800001 18:0.69800001 19:0 20:0.175 21:0.52399999 22:0.52399999 23:0.175 24:0.34900001 25:0 26:0.34900001 27:0 28:0.34900001 29:0 30:0.175 31:0.175 32:0 33:0.34900001 34:0.175 35:0 36:0.175 37:0 38:0 39:0 40:0 41:0.175 42:0 43:0.175 44:0.175 45:0 46:0.69800001 47:0 48:0.175 49:0 50:0.34900001 51:0 52:0.34900001 53:0.175 54:0 55:0 56:0.175 57:0 58:0.34900001 59:0.175 60:0.34900001 61:0.52399999 62:0.175 63:0 64:0.175 65:0.175 66:0.34900001 67:0 68:0.34900001 69:0.175 70:0.34900001 71:0 72:0.34900001 73:0 74:0 75:0.175 76:0.175 77:0.175 78:0.34900001 79:0 80:0.175 81:0.87300003 82:0.175 83:0 84:0.34900001 85:0.175 86:0.52399999 87:0.175 88:0.87300003 89:0.175 90:0.52399999 91:0.175 92:0.175 93:0.52399999 94:0 95:0.175 96:0.34900001 97:0.175 98:0.52399999 99:0 100:0 101:1.0470001 102:0.175 103:0.34900001 104:0.175 105:1.0470001 106:0.52399999 107:0 108:0.52399999 109:0 110:1.0470001 111:0.34900001 112:0.34900001 113:0.52399999 114:0.175 115:0 116:0.52399999 117:0.52399999 118:0.69800001 119:0 120:0.52399999 121:0.34900001 122:0 123:0.175 124:0 125:0 126:0 127:0 128:0.175 129:0 130:0.175 131:0 132:0 133:0 134:0 135:0 136:0.175 137:0 138:0 139:0 140:0 141:0.34900001 142:0.175 143:0.175 144:0.175 145:0.34900001 146:1.571 147:0.175 148:0.87300003 149:0 150:0.87300003 151:0.34900001 152:0.175 153:0.52399999 154:0.34900001 155:0 156:0.69800001 157:0.175 158:1.0470001 159:0.175 160:0.175 161:0.175 162:0 163:0.34900001 164:0 165:0.175 166:0 167:0 168:0.34900001 169:0.34900001 170:0 171:0 172:0 173:0 174:0.175 175:0 176:0.175 177:0.69800001 178:0.175 179:0 180:0 181:1.222 182:0.34900001 183:0.175 184:0.52399999 185:0.34900001 186:0.52399999 187:0 188:1.396 189:0 190:1.0470001 191:0 192:0.34900001 193:0.87300003 194:0.34900001 195:0 196:0.69800001 197:0.52399999 198:1.0470001 199:0 200:0 201:0.175 202:0 203:0.34900001 204:0 205:0 206:0.34900001 207:0 208:0 209:0.52399999 210:0.69800001 211:0 212:0 213:0.34900001 214:0 215:0 216:0 217:0.34900001 218:0.34900001 219:0 220:0.175 221:0.34900001 222:0 223:0 224:0.175 225:0 226:0.34900001 227:0 228:0 229:0 230:0 231:0 232:0.175 233:0.175 234:0.175 235:0.87300003 236:0.69800001 237:0 238:0.175 239:0 240:0 241:0.34900001 242:0.175 243:0.175 244:0.52399999 245:0.52399999 246:0 247:0 248:0.52399999 249:0.34900001 250:0.52399999 251:0.52399999 252:0.34900001 253:0.69800001 254:0.175 255:0.34900001 256:0.34900001 257:0.34900001 258:0.34900001 259:0.175 260:0.175 261:0.34900001 262:0 263:0 264:0 265:0 266:0.175 267:0.175 268:0.175 269:0.175 270:0.175 271:0.175 272:0.175 273:0 274:0.175 275:0.175 276:0.175 277:0.175 278:0 279:0 280:0.175 281:0.175 282:0.175 283:0.34900001 284:0.175 285:0.52399999 286:0.175 287:0.175 288:0.175 289:0 290:0.52399999 291:0 292:0.175 293:0.34900001 294:0.175 295:0.175 296:0 297:0 298:0.175 299:0.175 300:0 301:0.69800001 302:0.175 303:0.175 304:0 305:0.34900001 306:0.52399999 307:0.175 308:0.52399999 309:0.175 310:0.69800001 311:0.34900001 312:0.34900001 313:0.175 314:0 315:0.34900001 316:0.34900001 317:0.34900001 318:1.396 319:0 320:0 321:0.69800001 322:0.175 323:0.175 324:0.175 325:0.69800001 326:0.52399999 327:0 328:0 329:0 330:0.175 331:0.175 332:0 333:0.69800001 334:0 335:0.69800001 336:0.34900001 337:0.34900001 338:0.34900001 339:0.175 340:0 341:1.222 342:0.175 343:0 344:0.34900001 345:0.52399999 346:0.175 347:0 348:0.87300003 349:0.175 350:0.87300003 351:0.52399999 352:0 353:0.34900001 354:0.175 355:0.52399999 356:0.87300003 357:0.87300003 358:0.69800001 359:0 360:0.175 361:0.34900001 362:0 363:0 364:0 365:0.175 366:0.175 367:0 368:0 369:0 370:0 371:0 372:0 373:0 374:0 375:0 376:0 377:0 378:0.175 379:0 380:0 381:0 382:0.175 383:0.175 384:0 385:0.175 386:0.69800001 387:0 388:0.175 389:0.175 390:0.175 391:0 392:0 393:0 394:0.175 395:0 396:0.175 397:0 398:0 399:0 400:0.175 #
2.1977267618436271412463156593731 1:1.3099999 2:0 3:0.21799999 4:1.092 5:0 6:0.87300003 7:0.87300003 8:0.21799999 9:0.43700001 10:1.092 11:0.21799999 12:0.43700001 13:0 14:0.21799999 15:0.65499997 16:1.092 17:1.528 18:1.3099999 19:0 20:0 21:0.21799999 22:0 23:0 24:0 25:0.21799999 26:0.65499997 27:0 28:0.21799999 29:0.21799999 30:0.21799999 31:0 32:0 33:0.21799999 34:0 35:0.21799999 36:0 37:0.43700001 38:0.21799999 39:0 40:0 41:0 42:0 43:0 44:0.21799999 45:0 46:0.21799999 47:0.21799999 48:0.21799999 49:0.21799999 50:0.43700001 51:0 52:0 53:0.21799999 54:0.21799999 55:0.21799999 56:0.43700001 57:0.21799999 58:0.65499997 59:0 60:0.21799999 61:0.21799999 62:0.21799999 63:0.87300003 64:0.21799999 65:0.21799999 66:0.21799999 67:0 68:0.43700001 69:0 70:0.87300003 71:0.43700001 72:0.43700001 73:0.65499997 74:0 75:0.21799999 76:0.43700001 77:0 78:0 79:0 80:0.21799999 81:0.43700001 82:0 83:0 84:0 85:0.21799999 86:0.65499997 87:0 88:0.87300003 89:0.21799999 90:0.43700001 91:0 92:0.43700001 93:0.21799999 94:0 95:0.43700001 96:0 97:0 98:0.43700001 99:0 100:0.21799999 101:0.65499997 102:0.21799999 103:0.21799999 104:1.092 105:0.21799999 106:0.43700001 107:0 108:0.21799999 109:0.21799999 110:1.3099999 111:0.21799999 112:0.21799999 113:0 114:0.21799999 115:0.43700001 116:0 117:0.43700001 118:0.65499997 119:0 120:0 121:0 122:0 123:0 124:0 125:0.21799999 126:0.43700001 127:0 128:0 129:0.43700001 130:0 131:0 132:0 133:0.21799999 134:0.43700001 135:0 136:0.65499997 137:0 138:0.21799999 139:0 140:0 141:0.87300003 142:0.21799999 143:0.43700001 144:0.21799999 145:0.21799999 146:0 147:0 148:0 149:0.21799999 150:0.43700001 151:0 152:0 153:0.21799999 154:0.21799999 155:0 156:0 157:0.43700001 158:0.21799999 159:0.21799999 160:0 161:0.65499997 162:0 163:0.21799999 164:0.21799999 165:0 166:0.21799999 167:0 168:0 169:0 170:0.65499997 171:0 172:0.43700001 173:0 174:0 175:0 176:0.21799999 177:0.43700001 178:0.87300003 179:0.21799999 180:0.21799999 181:3.2750001 182:0.65499997 183:0.21799999 184:0 185:0.43700001 186:0.65499997 187:0.43700001 188:0.21799999 189:0.21799999 190:1.092 191:0 192:0.43700001 193:0.21799999 194:0.21799999 195:0.65499997 196:0.43700001 197:0.65499997 198:1.092 199:0 200:0 201:0.43700001 202:0 203:0.21799999 204:0.65499997 205:0 206:0 207:0.43700001 208:0 209:0 210:0 211:0 212:0 213:0 214:0 215:0 216:0.21799999 217:0.21799999 218:0.21799999 219:0 220:0 221:0 222:0.21799999 223:0 224:0 225:0.21799999 226:0.21799999 227:0 228:0.21799999 229:0 230:0.21799999 231:0 232:0.21799999 233:0.43700001 234:0 235:0.21799999 236:0.43700001 237:0.21799999 238:0.21799999 239:0 240:0 241:0.21799999 242:0 243:0.21799999 244:0.65499997 245:0 246:0 247:0 248:0.21799999 249:0 250:0.43700001 251:0 252:0 253:0 254:0.21799999 255:0.43700001 256:0.21799999 257:0 258:0.43700001 259:0.21799999 260:0 261:0 262:0.43700001 263:0 264:0 265:0.43700001 266:0.21799999 267:0 268:0 269:0.21799999 270:0.43700001 271:0.21799999 272:0 273:0 274:0 275:0.21799999 276:0 277:0 278:0.21799999 279:0 280:0.21799999 281:0.43700001 282:0.21799999 283:0.21799999 284:0.43700001 285:0.65499997 286:0.21799999 287:0.43700001 288:0 289:0.43700001 290:0.21799999 291:0 292:0 293:0 294:0.21799999 295:0.43700001 296:0.21799999 297:0.21799999 298:0.65499997 299:0 300:0 301:0.43700001 302:0.43700001 303:0.21799999 304:0.21799999 305:0 306:0.21799999 307:0 308:0 309:0.87300003 310:1.092 311:0.21799999 312:0 313:0.43700001 314:0.21799999 315:0.21799999 316:0.65499997 317:0.21799999 318:0.65499997 319:0 320:0.43700001 321:0.65499997 322:0.21799999 323:0 324:0.21799999 325:0.65499997 326:0 327:0 328:0.65499997 329:0.21799999 330:0.87300003 331:0.43700001 332:0 333:0.21799999 334:0.21799999 335:0.21799999 336:0.21799999 337:0.43700001 338:1.3099999 339:0 340:0 341:1.3099999 342:0 343:0.43700001 344:0.21799999 345:0.65499997 346:1.3099999 347:0.21799999 348:0.43700001 349:0.43700001 350:1.3099999 351:0.43700001 352:0.21799999 353:0.21799999 354:0 355:0.21799999 356:1.092 357:0.65499997 358:1.528 359:0.21799999 360:0.21799999 361:0.43700001 362:0 363:0 364:0.21799999 365:0 366:0 367:0 368:0 369:0 370:0 371:0 372:0 373:0 374:0 375:0 376:0.21799999 377:0 378:0 379:0 380:0 381:0 382:0 383:0.21799999 384:0 385:0.21799999 386:0.21799999 387:0 388:0 389:0 390:0 391:0 392:0 393:0 394:0.21799999 395:0.21799999 396:0 397:0.43700001 398:0.21799999 399:0 400:0 #
2.1977267618436271412463156593731 1:2.336 2:0 3:0.70099998 4:0.234 5:0.70099998 6:0.70099998 7:0 8:1.168 9:0.234 10:2.336 11:0.46700001 12:0.46700001 13:0.234 14:0 15:0 16:0.70099998 17:1.402 18:0.935 19:0 20:0 21:0 22:0 23:0.234 24:0 25:0 26:0 27:0 28:0 29:0 30:0 31:0 32:0 33:0 34:0 35:0 36:0 37:0 38:0 39:0 40:0 41:0 42:0 43:0 44:0.234 45:0.234 46:0.46700001 47:0 48:0.70099998 49:0 50:0.234 51:0.234 52:0.234 53:0.234 54:0 55:0 56:0 57:0.234 58:0 59:0 60:0 61:0.46700001 62:0 63:0 64:0 65:0 66:0 67:0 68:0 69:0 70:0 71:0 72:0 73:0.234 74:0 75:0 76:0.234 77:0 78:0 79:0.234 80:0.46700001 81:0.234 82:0 83:0 84:0.234 85:0.70099998 86:0.234 87:0 88:0.46700001 89:0.234 90:0.46700001 91:0 92:0 93:0 94:0 95:0.70099998 96:0.46700001 97:0.46700001 98:1.168 99:0 100:0 101:1.636 102:0.234 103:0.234 104:0 105:1.402 106:0 107:0.234 108:0.70099998 109:0.234 110:1.168 111:0.234 112:0.234 113:0.234 114:0 115:0.46700001 116:0.46700001 117:0.46700001 118:0.70099998 119:0.46700001 120:0.234 121:0.234 122:0 123:0 124:0 125:0 126:0 127:0 128:0 129:0 130:0.234 131:0 132:0 133:0.234 134:0 135:0 136:0 137:0 138:0.46700001 139:0 140:0 141:1.168 142:0 143:0.234 144:0 145:0.46700001 146:0.70099998 147:0 148:0.70099998 149:0.46700001 150:0.46700001 151:0.46700001 152:0.234 153:0.70099998 154:0 155:0 156:0.46700001 157:0.234 158:1.869 159:0.234 160:0 161:0 162:0 163:0.46700001 164:0.234 165:0 166:0.46700001 167:0 168:0.234 169:0 170:0 171:0 172:0.234 173:0 174:0 175:0.234 176:0.234 177:0.234 178:0.234 179:0 180:0 181:1.869 182:0 183:0.234 184:0.234 185:0.935 186:2.1029999 187:0.70099998 188:0.70099998 189:0.234 190:2.8039999 191:0 192:0.234 193:0.46700001 194:0 195:0.70099998 196:1.168 197:0.935 198:1.636 199:0.46700001 200:0.234 201:0.46700001 202:0 203:0 204:0 205:0 206:0 207:0 208:0 209:0 210:0.70099998 211:0 212:0.234 213:0.234 214:0 215:0 216:0 217:0.46700001 218:0.46700001 219:0 220:0.234 221:0.46700001 222:0 223:0.234 224:0 225:0 226:0.46700001 227:0 228:0.46700001 229:0 230:0.234 231:0.46700001 232:0.234 233:0 234:0 235:0 236:0 237:0.234 238:0.46700001 239:0 240:0.234 241:0.46700001 242:0 243:0 244:0 245:0 246:0.234 247:0 248:0.46700001 249:0.46700001 250:0.46700001 251:0 252:0 253:0 254:0.234 255:0 256:0 257:0.234 258:0.935 259:0.234 260:0 261:0 262:0 263:0 264:0 265:0 266:0 267:0 268:0.234 269:0.234 270:0 271:0 272:0.234 273:0.234 274:0 275:0 276:0 277:0 278:0 279:0 280:0 281:0 282:0 283:0 284:0.234 285:0 286:0.70099998 287:0 288:0 289:0.234 290:0.46700001 291:0 292:0.234 293:0 294:0 295:0 296:0 297:0.234 298:0 299:0.234 300:0 301:0.70099998 302:0 303:0 304:0 305:0.234 306:0.70099998 307:0 308:0.46700001 309:0.234 310:0.935 311:0 312:0.234 313:0.234 314:0.234 315:0.234 316:0.234 317:0.234 318:0.234 319:0.234 320:0 321:0.935 322:0 323:0 324:0.234 325:0.234 326:1.168 327:0 328:0.46700001 329:0 330:1.869 331:0 332:0 333:0.46700001 334:0 335:0 336:0 337:0.234 338:0.234 339:0.234 340:0 341:0.70099998 342:0 343:0.234 344:0 345:0 346:0.70099998 347:0.234 348:1.402 349:0 350:2.8039999 351:0.70099998 352:0.234 353:0.234 354:0 355:0 356:0.935 357:0.46700001 358:1.168 359:0.46700001 360:0.46700001 361:0.46700001 362:0 363:0 364:0 365:0 366:0.46700001 367:0 368:0.234 369:0 370:0.234 371:0 372:0.46700001 373:0 374:0.46700001 375:0 376:0.234 377:0 378:0.234 379:0 380:0 381:0.46700001 382:0 383:0.234 384:0 385:0.46700001 386:0.234 387:0 388:0 389:0 390:0.46700001 391:0 392:0 393:0 394:0 395:0 396:0 397:0 398:0 399:0 400:0.234 #
-0.05857655369547153795251048791215 1:3.4619999 2:0.204 3:0.204 4:0.611 5:0.204 6:1.018 7:0 8:0 9:0.40700001 10:1.018 11:0.204 12:0 13:0.611 14:0.40700001 15:1.8329999 16:1.222 17:0.611 18:1.018 19:0.204 20:0 21:0 22:0 23:0 24:0.204 25:0 26:0.611 27:0.204 28:0 29:0 30:0.40700001 31:0 32:0 33:0.204 34:0 35:0.40700001 36:0 37:0 38:0.204 39:0 40:0 41:0.611 42:0 43:0.815 44:0.204 45:0 46:0.40700001 47:0 48:0.204 49:0 50:0.40700001 51:0.204 52:0 53:0.204 54:0 55:0 56:0.40700001 57:0.40700001 58:1.018 59:0 60:0.204 61:1.018 62:0 63:0.204 64:0.204 65:0.204 66:0.40700001 67:0 68:0 69:0.40700001 70:0.40700001 71:0.204 72:0 73:0 74:0.204 75:0.40700001 76:0.40700001 77:0 78:1.6289999 79:0.40700001 80:0 81:0.40700001 82:0.204 83:0 84:0 85:0.40700001 86:0.204 87:0 88:0 89:0 90:0.204 91:0 92:0 93:0.40700001 94:0 95:0.611 96:0 97:0.204 98:0.40700001 99:0 100:0 101:0.815 102:0 103:0.40700001 104:0.815 105:0 106:0.611 107:0.204 108:0.204 109:0.611 110:1.6289999 111:0.204 112:0.204 113:0.204 114:0.815 115:0.204 116:1.018 117:0 118:0 119:0.204 120:0.204 121:0.40700001 122:0.204 123:0 124:0 125:0 126:0.204 127:0 128:0 129:0 130:0 131:0.204 132:0 133:0.204 134:0 135:0 136:0 137:0 138:0.40700001 139:0 140:0.204 141:0.204 142:0 143:0.204 144:0.204 145:0 146:0 147:0 148:0 149:0 150:0.204 151:0 152:0 153:0.204 154:0 155:0 156:0.204 157:0 158:0 159:0.204 160:0.204 161:0.611 162:0 163:0.204 164:0.204 165:0 166:0.40700001 167:0.204 168:0 169:0 170:0 171:0 172:0.204 173:0.204 174:0.204 175:0.40700001 176:0 177:0 178:0 179:0 180:0 181:1.426 182:0.204 183:0.611 184:0.611 185:0.204 186:0.815 187:0.611 188:0.204 189:0.204 190:2.0369999 191:0.204 192:0.204 193:0.40700001 194:0.204 195:0.815 196:0.611 197:0 198:1.426 199:0.204 200:0.204 201:0.204 202:0 203:0.204 204:0.204 205:0 206:0.204 207:0 208:0 209:0 210:0 211:0.204 212:0 213:0.204 214:0.204 215:0.204 216:0.204 217:0.40700001 218:0.40700001 219:0 220:0 221:0.204 222:0.40700001 223:0.40700001 224:0 225:0.204 226:0.204 227:0 228:0 229:0 230:0 231:0 232:0 233:0 234:0 235:0 236:0.204 237:0.204 238:0.204 239:0 240:0.204 241:0.40700001 242:0.204 243:0.40700001 244:0.40700001 245:0.815 246:0.40700001 247:0.204 248:0.204 249:0 250:0.611 251:0 252:0 253:1.222 254:0.40700001 255:0.204 256:0 257:0.40700001 258:0.40700001 259:0.204 260:0 261:0.40700001 262:0 263:0.204 264:0.40700001 265:0.204 266:0.204 267:0 268:0 269:0 270:0.611 271:0.204 272:0.204 273:0.204 274:0.204 275:0 276:0 277:0.204 278:0 279:0 280:0.204 281:0.611 282:0.204 283:0.40700001 284:0.815 285:0.204 286:0.815 287:0 288:0.204 289:0.40700001 290:1.018 291:0 292:0.204 293:0.40700001 294:0.204 295:0.40700001 296:0 297:0.204 298:0.40700001 299:0 300:0 301:1.222 302:0.204 303:0.204 304:0 305:0 306:0.204 307:0.40700001 308:0.204 309:0.204 310:0.815 311:0.204 312:0.204 313:0.204 314:0 315:0 316:0.40700001 317:0 318:0.40700001 319:0.40700001 320:0 321:0.611 322:0.204 323:0.204 324:0 325:0.611 326:0 327:0 328:0 329:0 330:0.40700001 331:0 332:0.204 333:0.40700001 334:0.204 335:0.204 336:0.204 337:0.40700001 338:0.204 339:0 340:0 341:0.611 342:0 343:0.40700001 344:1.018 345:0 346:1.222 347:0 348:0.40700001 349:0.204 350:0.815 351:0.611 352:0.40700001 353:1.018 354:0.204 355:0.40700001 356:0.40700001 357:0.40700001 358:1.6289999 359:0.204 360:0.40700001 361:0 362:0.204 363:0 364:0 365:0 366:0.204 367:0 368:0 369:0.204 370:0.204 371:0 372:0.204 373:0.204 374:0.204 375:0.204 376:0 377:0 378:0.40700001 379:0 380:0 381:0 382:0 383:0 384:0.204 385:0 386:0.204 387:0 388:0 389:0 390:0.40700001 391:0 392:0.204 393:0 394:0 395:0.204 396:0 397:0.40700001 398:0.204 399:0 400:0 #
-0.45000303034121214018625778408023 1:2.96 2:0 3:0.62300003 4:0 5:0.935 6:0.935 7:0.156 8:1.869 9:0 10:1.869 11:0.156 12:0.156 13:0.156 14:0.46700001 15:1.2460001 16:0 17:0.77899998 18:1.7130001 19:0.156 20:0.46700001 21:0 22:0 23:0 24:0 25:0 26:0 27:0 28:0 29:0 30:0.31200001 31:0 32:0 33:0 34:0 35:0.156 36:0 37:0 38:0 39:0 40:0 41:0.156 42:0 43:0 44:0.156 45:0 46:0.31200001 47:0 48:0.31200001 49:0.31200001 50:0.31200001 51:0.156 52:0 53:0.46700001 54:0.156 55:0.46700001 56:0.156 57:0.46700001 58:0.31200001 59:0 60:0.156 61:0.156 62:0 63:0.156 64:0 65:0.156 66:0 67:0 68:0 69:0.156 70:0 71:0.31200001 72:0 73:0.156 74:0 75:0 76:0.156 77:0 78:0.156 79:0.156 80:0.31200001 81:0.31200001 82:0 83:0.156 84:0.156 85:0 86:0.46700001 87:0 88:0.156 89:0.156 90:0.46700001 91:0 92:0 93:0.31200001 94:0.156 95:0.46700001 96:0.31200001 97:0.46700001 98:0.46700001 99:0.156 100:0.156 101:1.869 102:0.156 103:0.156 104:0 105:0.46700001 106:0.31200001 107:0.156 108:0.46700001 109:0.31200001 110:1.09 111:0.156 112:0 113:0.156 114:0.46700001 115:0.46700001 116:0.62300003 117:0.31200001 118:0.62300003 119:0.46700001 120:0.156 121:0.156 122:0 123:0 124:0.156 125:0 126:0.31200001 127:0 128:0 129:0 130:0 131:0 132:0.156 133:0 134:0 135:0 136:0 137:0 138:0 139:0 140:0.31200001 141:0.935 142:0.156 143:0.31200001 144:0 145:0 146:1.09 147:0 148:0 149:0.156 150:0 151:0 152:0 153:0.31200001 154:0 155:0.46700001 156:0.156 157:0.31200001 158:0 159:0 160:0 161:0.156 162:0 163:0 164:0 165:0 166:0 167:0 168:0 169:0 170:0.31200001 171:0 172:0 173:0.31200001 174:0 175:0.46700001 176:0.156 177:0 178:0 179:0 180:0.156 181:2.336 182:0.156 183:0.156 184:0 185:0.31200001 186:1.402 187:0.156 188:0 189:0 190:1.869 191:0.31200001 192:0 193:0.77899998 194:0.46700001 195:0.77899998 196:0.77899998 197:1.402 198:1.558 199:0.62300003 200:0.156 201:0.46700001 202:0 203:0 204:0 205:0.156 206:0.156 207:0 208:0.31200001 209:0 210:0.62300003 211:0 212:0 213:0.31200001 214:0 215:0.31200001 216:0 217:0.156 218:0 219:0 220:0 221:0 222:0 223:0 224:0 225:0 226:0 227:0 228:0 229:0 230:0 231:0 232:0 233:0.156 234:0.31200001 235:0 236:0.156 237:0 238:0.156 239:0 240:0 241:0.77899998 242:0 243:0.31200001 244:0.156 245:0.31200001 246:0.31200001 247:0.156 248:0 249:0 250:0.46700001 251:0.46700001 252:0.31200001 253:0.77899998 254:0.31200001 255:0.156 256:0.31200001 257:0.31200001 258:0.156 259:0.31200001 260:0.46700001 261:0.156 262:0 263:0.31200001 264:0.156 265:0.62300003 266:0.31200001 267:0.156 268:0.156 269:0 270:0.31200001 271:0 272:0 273:0.46700001 274:0.156 275:0.156 276:0.156 277:0 278:0.156 279:0 280:0 281:0.77899998 282:0 283:0.62300003 284:0.156 285:0.46700001 286:0.46700001 287:0.31200001 288:0 289:0.31200001 290:1.09 291:0.156 292:0 293:0.31200001 294:0.156 295:0.935 296:0.156 297:0.62300003 298:0.31200001 299:0 300:0.156 301:0.77899998 302:0 303:0.156 304:0.156 305:0.31200001 306:0.46700001 307:0 308:0 309:0 310:0.46700001 311:0.31200001 312:0.156 313:0.31200001 314:0.156 315:0.31200001 316:0.46700001 317:0.31200001 318:0.31200001 319:0.156 320:0.31200001 321:0.77899998 322:0 323:0.46700001 324:0.156 325:0.156 326:0.46700001 327:0 328:0.156 329:0.156 330:1.09 331:0 332:0 333:0.31200001 334:0.156 335:0.156 336:0.31200001 337:0.46700001 338:1.2460001 339:0.46700001 340:0.156 341:1.2460001 342:0 343:0.46700001 344:0.46700001 345:0.31200001 346:0.935 347:0 348:0.156 349:0 350:1.7130001 351:0.31200001 352:0 353:0 354:0.156 355:0.156 356:0.46700001 357:0.46700001 358:1.402 359:0 360:0.31200001 361:0.31200001 362:0 363:0 364:0.156 365:0.156 366:0.156 367:0 368:0.156 369:0 370:0.46700001 371:0 372:0 373:0.156 374:0.156 375:0.31200001 376:0.46700001 377:0 378:0 379:0.156 380:0.156 381:0.46700001 382:0 383:0 384:0 385:0 386:0.31200001 387:0 388:0.156 389:0 390:0.77899998 391:0 392:0 393:0.62300003 394:0 395:0 396:0.31200001 397:0.62300003 398:0 399:0.156 400:0.31200001 #
-0.075585964045381828779746058444289 1:0.37900001 2:0.189 3:0.189 4:0.37900001 5:0.56800002 6:0.56800002 7:0 8:0.94700003 9:0 10:0.37900001 11:0.189 12:0.189 13:0.37900001 14:0 15:0.189 16:0.37900001 17:0.189 18:0.37900001 19:0 20:0.189 21:0.189 22:0.189 23:0 24:0 25:0 26:0.189 27:0 28:0.189 29:0 30:0.37900001 31:0 32:0 33:0.189 34:0 35:0 36:0.189 37:0 38:0 39:0 40:0 41:0.56800002 42:0 43:0.75800002 44:0.75800002 45:0.37900001 46:0.189 47:0 48:0.189 49:0 50:0.37900001 51:0.189 52:0.189 53:0.56800002 54:0 55:0.189 56:0.37900001 57:0.189 58:0 59:0 60:0 61:0.75800002 62:0 63:0.75800002 64:0.94700003 65:0 66:0.56800002 67:0 68:0.189 69:0.56800002 70:0.56800002 71:0.189 72:0 73:0 74:0.75800002 75:0.37900001 76:0.189 77:0.75800002 78:0.37900001 79:0 80:0.37900001 81:0.189 82:0.189 83:0.56800002 84:0.56800002 85:1.136 86:0 87:0.189 88:0.37900001 89:0.189 90:0.56800002 91:0 92:0.189 93:0.94700003 94:0.189 95:0.75800002 96:0.37900001 97:0.37900001 98:0 99:0.189 100:0.37900001 101:0 102:0.37900001 103:0.75800002 104:0.75800002 105:0 106:2.652 107:0 108:0.37900001 109:0.56800002 110:0.75800002 111:0 112:0.189 113:0.37900001 114:0.75800002 115:0.56800002 116:0.75800002 117:0.37900001 118:0.56800002 119:0 120:0.189 121:0 122:0 123:0 124:0 125:0 126:0.189 127:0.189 128:0 129:0 130:0 131:0 132:0 133:0 134:0 135:0.37900001 136:0.189 137:0 138:0.189 139:0 140:0 141:0.56800002 142:0 143:0.189 144:0 145:0.94700003 146:0.189 147:0 148:0.189 149:0 150:0.94700003 151:0.189 152:0.189 153:0.189 154:0 155:0.37900001 156:0.37900001 157:0.37900001 158:0.94700003 159:0 160:0 161:0 162:0 163:0 164:0 165:0 166:0.189 167:0 168:0.189 169:0 170:0.189 171:0 172:0 173:0.56800002 174:0 175:0.189 176:0.189 177:0.189 178:0 179:0 180:0 181:0.56800002 182:0.37900001 183:0.189 184:0.37900001 185:0.94700003 186:1.326 187:0 188:0.37900001 189:0 190:0.75800002 191:0 192:0 193:0.94700003 194:0.37900001 195:1.136 196:0.56800002 197:0.56800002 198:1.326 199:0 200:0.189 201:0 202:0 203:0 204:0 205:0 206:0.189 207:0 208:0 209:0 210:0.189 211:0 212:0.189 213:0 214:0 215:0.37900001 216:0.189 217:0.37900001 218:0 219:0 220:0.189 221:0 222:0 223:0 224:0.189 225:0.189 226:0.56800002 227:0 228:0.56800002 229:0 230:0 231:0 232:0.189 233:0 234:0 235:0.37900001 236:0 237:0 238:0.189 239:0 240:0.189 241:0.75800002 242:0 243:0.75800002 244:0.94700003 245:0.37900001 246:0.56800002 247:0.189 248:0 249:0 250:0.56800002 251:0.189 252:0 253:0 254:0.189 255:0 256:0.94700003 257:0.189 258:0.75800002 259:0 260:0.189 261:0.37900001 262:0 263:0.189 264:0.56800002 265:0.189 266:0.189 267:0 268:0.189 269:0 270:0.37900001 271:0 272:0.189 273:0.56800002 274:0.94700003 275:0.189 276:0.189 277:0 278:0.189 279:0 280:0.189 281:0.37900001 282:0 283:0 284:0.75800002 285:0.75800002 286:0.75800002 287:0.189 288:0.189 289:0 290:0.56800002 291:0.189 292:0.56800002 293:0.56800002 294:0.189 295:0.56800002 296:0.189 297:0.189 298:0.94700003 299:0 300:0 301:0.37900001 302:0 303:0 304:0.37900001 305:0.37900001 306:0.75800002 307:0 308:0.37900001 309:0.37900001 310:1.136 311:0.189 312:0.189 313:0.189 314:0.37900001 315:0.56800002 316:0.94700003 317:0.189 318:0.189 319:0 320:0.37900001 321:0 322:0.189 323:0.37900001 324:0.56800002 325:0.37900001 326:0.189 327:0.189 328:0.189 329:0 330:1.515 331:0.189 332:0 333:0.37900001 334:0.189 335:0 336:0 337:0.189 338:0.37900001 339:0 340:0 341:0.189 342:0 343:0.189 344:0.189 345:0.189 346:0.56800002 347:0 348:1.136 349:0 350:0.37900001 351:0 352:0.189 353:0.37900001 354:0.189 355:0.75800002 356:0.94700003 357:0.37900001 358:0.189 359:0.37900001 360:0.189 361:0.189 362:0 363:0 364:0 365:0.189 366:0 367:0 368:0 369:0 370:0.189 371:0 372:0 373:0 374:0 375:0 376:0 377:0 378:0 379:0.189 380:0 381:0.189 382:0 383:0 384:0 385:0.75800002 386:0.189 387:0.189 388:0 389:0 390:0.189 391:0 392:0 393:0.37900001 394:0.37900001 395:0 396:0 397:0.37900001 398:0 399:0 400:0.37900001 #
2.1977267618436271412463156593731 1:0 2:0 3:0.22 4:0 5:0.22 6:0 7:0.22 8:0.22 9:0 10:0.88099998 11:0.22 12:0 13:0.44100001 14:0.22 15:0.22 16:0.22 17:0.44100001 18:0.22 19:0 20:0 21:0 22:0 23:0 24:0 25:0 26:0 27:0 28:0 29:0 30:0.22 31:0 32:0 33:0.22 34:0 35:0 36:0 37:0.22 38:0.44100001 39:0 40:0 41:0.22 42:0 43:0 44:0 45:0 46:0 47:0 48:0.22 49:0 50:0.22 51:0.22 52:0 53:0.44100001 54:0 55:0.22 56:0.22 57:0.22 58:0.44100001 59:0 60:0.22 61:0 62:0 63:0 64:0.22 65:0 66:0 67:0 68:0.66100001 69:0.22 70:0.66100001 71:0 72:0.22 73:0 74:0.22 75:0.44100001 76:0 77:0.22 78:0.66100001 79:0 80:0.44100001 81:0.22 82:0 83:0.66100001 84:0.44100001 85:1.101 86:0.66100001 87:0.22 88:0.44100001 89:0.44100001 90:1.322 91:0.88099998 92:0.44100001 93:0.22 94:0.22 95:0 96:0.88099998 97:0 98:0.22 99:0.66100001 100:0.66100001 101:0.22 102:0 103:0.22 104:0.44100001 105:0.66100001 106:0 107:0 108:0.88099998 109:0.44100001 110:0.22 111:0.44100001 112:0 113:0 114:0 115:0 116:0.22 117:0 118:0.66100001 119:0.22 120:0.44100001 121:0 122:0 123:0 124:0 125:0 126:0.22 127:0 128:0.22 129:0.44100001 130:0 131:0 132:0.22 133:0 134:0 135:0.22 136:0 137:0 138:0 139:0.22 140:0 141:0 142:0 143:0.22 144:0.66100001 145:0.88099998 146:0.44100001 147:0 148:1.101 149:0.22 150:1.982 151:0.44100001 152:0.22 153:0 154:0.44100001 155:0.88099998 156:0.88099998 157:0.88099998 158:0.88099998 159:0 160:0.22 161:0 162:0 163:0.22 164:0.22 165:0.44100001 166:0.44100001 167:0.22 168:0.22 169:0.44100001 170:0.22 171:0.22 172:0 173:0.22 174:0.66100001 175:0.22 176:0.44100001 177:0.44100001 178:0 179:0 180:0.22 181:0.66100001 182:0.22 183:0 184:0.88099998 185:1.322 186:1.101 187:0.22 188:1.5420001 189:0 190:2.2030001 191:0.22 192:0.22 193:0 194:0.44100001 195:0.22 196:1.101 197:0.66100001 198:0.66100001 199:0.22 200:0.44100001 201:1.101 202:0 203:0.22 204:0 205:0.44100001 206:0.22 207:0 208:0.66100001 209:0 210:0 211:0 212:0.22 213:0.22 214:0 215:0.22 216:0.66100001 217:0 218:0.22 219:0 220:0.44100001 221:0 222:0.22 223:0 224:0 225:0.44100001 226:0 227:0 228:0.44100001 229:0.22 230:0.44100001 231:0 232:0 233:0 234:0 235:0 236:0.22 237:0 238:0.44100001 239:0 240:0.22 241:0 242:0 243:0 244:0.22 245:0.44100001 246:0 247:0 248:0.22 249:0.22 250:0.22 251:0 252:0 253:0 254:0 255:0 256:0.22 257:0 258:0.22 259:0 260:0.22 261:0.22 262:0 263:0 264:0.22 265:0.44100001 266:0 267:0.22 268:0.44100001 269:0.22 270:0.66100001 271:0.22 272:0 273:0 274:0.22 275:0.22 276:0 277:0.22 278:0.22 279:0 280:0.22 281:0 282:0 283:0 284:0 285:0 286:0.44100001 287:0 288:0.22 289:0 290:0.66100001 291:0.44100001 292:0.22 293:0 294:0.66100001 295:0.44100001 296:0 297:0.44100001 298:0.44100001 299:0.22 300:0.22 301:0.44100001 302:0.44100001 303:0 304:0.22 305:0.44100001 306:0.66100001 307:0 308:1.101 309:0.66100001 310:0 311:0.22 312:0.44100001 313:0.22 314:0.44100001 315:0.66100001 316:1.762 317:0 318:0.66100001 319:0 320:0.22 321:0.22 322:0 323:0.66100001 324:0.22 325:0.66100001 326:0 327:0 328:0.44100001 329:0.44100001 330:0.66100001 331:0.66100001 332:0 333:0 334:0 335:0.22 336:0.66100001 337:0.22 338:0.22 339:0 340:0.22 341:0 342:0 343:0.22 344:0 345:0.44100001 346:0.66100001 347:0.22 348:1.101 349:0.22 350:0.88099998 351:0 352:0.44100001 353:0.22 354:0.22 355:0 356:0.66100001 357:1.322 358:0.22 359:0.22 360:0 361:0 362:0 363:0 364:0 365:0.22 366:0.22 367:0 368:0 369:0.66100001 370:0.44100001 371:0 372:0 373:0 374:0 375:0 376:0.22 377:0 378:0 379:0 380:0 381:0.44100001 382:0.22 383:0 384:0.22 385:1.5420001 386:0 387:0.22 388:0.22 389:0 390:0.44100001 391:0.22 392:0 393:0 394:0 395:0.22 396:0.22 397:0.22 398:0.22 399:0 400:0 #
2.1977267618436271412463156593731 1:0.219 2:0.219 3:0 4:0 5:0.43799999 6:0.219 7:0 8:0.65600002 9:0 10:1.313 11:0.43799999 12:0.43799999 13:0 14:0 15:0.65600002 16:0.43799999 17:0 18:0.65600002 19:0.219 20:0 21:0.219 22:0 23:0 24:0 25:0.219 26:0.219 27:0 28:0 29:0 30:0.65600002 31:0 32:0 33:0 34:0 35:0 36:0.219 37:0.219 38:0.219 39:0.219 40:0 41:0 42:0 43:0 44:0 45:0.43799999 46:0 47:0 48:0.219 49:0 50:0.219 51:0 52:0.43799999 53:0.219 54:0 55:0 56:0 57:0 58:0 59:0 60:0.219 61:0 62:0 63:0 64:0.43799999 65:0 66:0.219 67:0 68:0.65600002 69:0.43799999 70:0.219 71:0 72:0.43799999 73:0 74:0.219 75:0 76:0.65600002 77:0.219 78:0 79:0 80:0.43799999 81:0.219 82:0 83:0.219 84:0 85:0.65600002 86:0.219 87:0.43799999 88:0.43799999 89:0.219 90:0.65600002 91:0.43799999 92:0.43799999 93:0.43799999 94:0 95:0.65600002 96:0.219 97:0.875 98:0.43799999 99:0.65600002 100:0 101:0.219 102:0 103:0 104:0 105:0.219 106:0.219 107:0 108:0.65600002 109:0.43799999 110:0.219 111:0.43799999 112:0.43799999 113:0.219 114:0.219 115:0 116:0.219 117:1.094 118:0.65600002 119:0 120:0.219 121:0.65600002 122:0 123:0.219 124:0.219 125:0 126:0 127:0 128:0 129:0.219 130:0.219 131:0 132:0.219 133:0 134:0 135:0 136:0 137:0 138:0 139:0 140:0 141:1.094 142:0.43799999 143:0 144:0.43799999 145:0.875 146:0.219 147:0 148:0.65600002 149:0.65600002 150:1.5319999 151:0.219 152:0.43799999 153:0.43799999 154:0.219 155:0 156:0.65600002 157:0.43799999 158:0.219 159:0.219 160:0.43799999 161:0.219 162:0 163:0 164:0.43799999 165:0 166:0.219 167:0.219 168:0.43799999 169:0.65600002 170:0 171:0.43799999 172:0 173:0 174:0 175:0.219 176:0.875 177:0.219 178:0.219 179:0 180:0.43799999 181:0.875 182:0.43799999 183:0.43799999 184:0.219 185:0.65600002 186:1.094 187:0.875 188:1.094 189:0 190:1.751 191:0.219 192:0 193:0 194:0.219 195:0.219 196:0.43799999 197:0.875 198:0.875 199:0.219 200:0.875 201:0.43799999 202:0 203:0 204:0 205:0.43799999 206:1.094 207:0 208:0.219 209:0.43799999 210:0.219 211:0.219 212:0 213:0 214:0 215:0 216:0.43799999 217:0.43799999 218:0.65600002 219:0 220:0 221:0.219 222:0 223:0.219 224:0.43799999 225:0.219 226:0 227:0 228:1.094 229:0.43799999 230:0.43799999 231:0.43799999 232:0 233:0 234:0.219 235:0.219 236:0.43799999 237:0.219 238:0 239:0.219 240:0.219 241:0.219 242:0 243:0 244:0 245:0.219 246:0 247:0 248:0 249:0 250:0.65600002 251:0.875 252:0 253:0.219 254:0 255:0 256:0.219 257:0.43799999 258:0 259:0.219 260:0.43799999 261:0.219 262:0 263:0 264:0.219 265:0.219 266:0.219 267:0 268:0.219 269:0 270:0.219 271:0 272:0 273:0 274:0 275:0 276:0 277:0 278:0.219 279:0 280:0.43799999 281:0 282:0 283:0 284:0.43799999 285:0 286:0 287:0 288:0.219 289:0.219 290:0.219 291:0 292:0.65600002 293:0 294:0.219 295:0 296:0 297:0 298:0.43799999 299:0.219 300:0 301:0.43799999 302:0.219 303:0 304:0.65600002 305:0.875 306:0.219 307:0 308:0.65600002 309:0.43799999 310:0.65600002 311:0 312:0.43799999 313:0.43799999 314:0 315:0 316:0.65600002 317:0 318:0.65600002 319:0 320:0.65600002 321:0 322:0 323:0.43799999 324:0.219 325:0.65600002 326:0.219 327:0 328:0.65600002 329:0.219 330:0.65600002 331:0.43799999 332:0.219 333:0 334:0.219 335:0.65600002 336:0 337:0.43799999 338:0.43799999 339:0.219 340:0.219 341:0.43799999 342:0.65600002 343:0 344:0.219 345:0.43799999 346:0.219 347:0 348:0.65600002 349:0.219 350:1.094 351:0.219 352:0 353:0.43799999 354:0.43799999 355:0 356:0.65600002 357:0.219 358:0.65600002 359:0 360:0.65600002 361:0 362:0.219 363:0 364:0 365:0 366:0.65600002 367:0.219 368:0 369:0 370:0.43799999 371:0 372:0 373:0 374:0 375:0 376:0.43799999 377:0 378:0.219 379:0.219 380:0.219 381:0.43799999 382:0 383:0.219 384:0 385:0.65600002 386:0.219 387:0 388:0.65600002 389:0 390:0 391:0 392:0.875 393:1.094 394:0 395:0 396:0.43799999 397:0.219 398:0.65600002 399:0 400:0.65600002 #
2.1977267618436271412463156593731 1:0.20299999 2:0.068000004 3:0.33899999 4:0.068000004 5:0.47499999 6:0.271 7:0.068000004 8:0.47499999 9:0.20299999 10:0.61000001 11:0.271 12:0.20299999 13:0.271 14:0 15:0.20299999 16:0.61000001 17:0.13600001 18:0.47499999 19:0 20:0.20299999 21:0 22:0 23:0.068000004 24:0.068000004 25:0.13600001 26:0.068000004 27:0 28:0.068000004 29:0.068000004 30:0.20299999 31:0 32:0 33:0 34:0.13600001 35:0 36:0 37:0.13600001 38:0.13600001 39:0.068000004 40:0 41:0.13600001 42:0.068000004 43:0.40700001 44:0.271 45:0.271 46:0.20299999 47:0.068000004 48:0.33899999 49:0.20299999 50:0.40700001 51:0.13600001 52:0.20299999 53:0.20299999 54:0.13600001 55:0.13600001 56:0.47499999 57:0.271 58:0.068000004 59:0 60:0 61:0.20299999 62:0.068000004 63:0.271 64:0.949 65:0.068000004 66:0.61000001 67:0.20299999 68:0.20299999 69:0.47499999 70:0.40700001 71:0.13600001 72:0.271 73:0.068000004 74:0.40700001 75:0.33899999 76:0.47499999 77:0.271 78:0.271 79:0.13600001 80:0.20299999 81:0.20299999 82:0.13600001 83:0.271 84:0.13600001 85:0.47499999 86:0.33899999 87:0.13600001 88:0.67799997 89:0.068000004 90:0.542 91:0.068000004 92:0.068000004 93:0.20299999 94:0.271 95:0.271 96:0.88099998 97:0.542 98:0.33899999 99:0.068000004 100:0.271 101:0.13600001 102:0.068000004 103:0 104:0.88099998 105:0.13600001 106:0.40700001 107:0.068000004 108:0.33899999 109:0.271 110:0.88099998 111:0.13600001 112:0.271 113:0.068000004 114:0.271 115:0.40700001 116:0.20299999 117:0.33899999 118:0.40700001 119:0 120:0.271 121:0.13600001 122:0 123:0 124:0.068000004 125:0.068000004 126:0.20299999 127:0.13600001 128:0.068000004 129:0.13600001 130:0.33899999 131:0 132:0 133:0.068000004 134:0 135:0.20299999 136:0.271 137:0.20299999 138:0.068000004 139:0 140:0 141:0.40700001 142:0.068000004 143:0.33899999 144:0.33899999 145:0.74599999 146:0.20299999 147:0.068000004 148:0.47499999 149:0.33899999 150:1.153 151:0.20299999 152:0.271 153:0.068000004 154:0.271 155:0.20299999 156:0.81400001 157:0.67799997 158:0.542 159:0.271 160:0.40700001 161:0.67799997 162:0.068000004 163:0.20299999 164:0.33899999 165:0.20299999 166:0.271 167:0.068000004 168:0.88099998 169:0.47499999 170:0.47499999 171:0.33899999 172:0.271 173:0.13600001 174:0.271 175:0.13600001 176:0.33899999 177:0.33899999 178:0.271 179:0.068000004 180:0.13600001 181:0.74599999 182:0.20299999 183:0.61000001 184:0.542 185:0.61000001 186:0.61000001 187:0.67799997 188:0.542 189:0.74599999 190:1.424 191:0.542 192:0.542 193:0.271 194:0.74599999 195:0.88099998 196:1.153 197:0.40700001 198:0.88099998 199:0.20299999 200:0.13600001 201:0.068000004 202:0.068000004 203:0 204:0.20299999 205:0.13600001 206:0.13600001 207:0 208:0.20299999 209:0.13600001 210:0.33899999 211:0.068000004 212:0.068000004 213:0.068000004 214:0.13600001 215:0.271 216:0.20299999 217:0.20299999 218:0.20299999 219:0 220:0.068000004 221:0.13600001 222:0 223:0.068000004 224:0.20299999 225:0.068000004 226:0.33899999 227:0.068000004 228:0.542 229:0.20299999 230:0.40700001 231:0.068000004 232:0.271 233:0.13600001 234:0 235:0.068000004 236:0.20299999 237:0.271 238:0.13600001 239:0.068000004 240:0 241:0.068000004 242:0 243:0.20299999 244:0 245:0.068000004 246:0.33899999 247:0 248:0.20299999 249:0 250:0.33899999 251:0.068000004 252:0.13600001 253:0 254:0.068000004 255:0.20299999 256:0.271 257:0.20299999 258:0.20299999 259:0 260:0.13600001 261:0.33899999 262:0 263:0.20299999 264:0.40700001 265:0.271 266:0.068000004 267:0 268:0.33899999 269:0.271 270:0.67799997 271:0.13600001 272:0.068000004 273:0.13600001 274:0.068000004 275:0.33899999 276:0.20299999 277:0.271 278:0.20299999 279:0.068000004 280:0.068000004 281:0.47499999 282:0.068000004 283:0.13600001 284:0.20299999 285:0.33899999 286:0.13600001 287:0.13600001 288:0.47499999 289:0.542 290:0.271 291:0.13600001 292:0 293:0.068000004 294:0.40700001 295:0.67799997 296:0.47499999 297:0.271 298:0.33899999 299:0.068000004 300:0.13600001 301:0.542 302:0.068000004 303:0.20299999 304:0.61000001 305:0.542 306:0.40700001 307:0.13600001 308:0.81400001 309:0.61000001 310:1.085 311:0.068000004 312:0.20299999 313:0.33899999 314:0.20299999 315:0.20299999 316:1.22 317:0.40700001 318:0.81400001 319:0.20299999 320:0.271 321:0.40700001 322:0 323:0.068000004 324:0.47499999 325:0.47499999 326:0.47499999 327:0.068000004 328:0.20299999 329:0.271 330:1.085 331:0 332:0 333:0.20299999 334:0.20299999 335:0.33899999 336:0.61000001 337:0.40700001 338:0.40700001 339:0.20299999 340:0.20299999 341:0.20299999 342:0.068000004 343:0.20299999 344:0.068000004 345:0.47499999 346:0.33899999 347:0.068000004 348:0.67799997 349:0.61000001 350:1.424 351:0.068000004 352:0.13600001 353:0.13600001 354:0.33899999 355:0.068000004 356:0.40700001 357:0.542 358:0.67799997 359:0.13600001 360:0.068000004 361:0.068000004 362:0.068000004 363:0.13600001 364:0.13600001 365:0.13600001 366:0 367:0 368:0.13600001 369:0.068000004 370:0.068000004 371:0 372:0.20299999 373:0.068000004 374:0.068000004 375:0.20299999 376:0 377:0.13600001 378:0 379:0 380:0.068000004 381:0 382:0.068000004 383:0.271 384:0.068000004 385:0.271 386:0.13600001 387:0 388:0.20299999 389:0.271 390:0.40700001 391:0.068000004 392:0.068000004 393:0 394:0.13600001 395:0.20299999 396:0.13600001 397:0.068000004 398:0.271 399:0 400:0.068000004 #
-0.57834914785358615407773186234408 1:0.20999999 2:0 3:0.14 4:0.14 5:0.20999999 6:0.07 7:0 8:0.07 9:0.49000001 10:0.63 11:0.07 12:0.41999999 13:0.14 14:0.20999999 15:0.14 16:0.34999999 17:0.34999999 18:0.14 19:0 20:0.20999999 21:0.07 22:0.07 23:0 24:0.07 25:0.07 26:0.07 27:0 28:0.07 29:0 30:0.07 31:0.07 32:0 33:0 34:0.07 35:0.20999999 36:0 37:0 38:0.20999999 39:0 40:0 41:0.07 42:0 43:0.56 44:0.34999999 45:0.28 46:0.28 47:0.14 48:0.34999999 49:0.34999999 50:0.83999997 51:0 52:0.41999999 53:0 54:0.14 55:0.14 56:0.49000001 57:0.34999999 58:0.14 59:0 60:0.20999999 61:0.14 62:0.20999999 63:0.34999999 64:0.41999999 65:0.28 66:0.41999999 67:0.20999999 68:0.56 69:0.76999998 70:0.91000003 71:0.28 72:0.83999997 73:0.07 74:0.07 75:0.20999999 76:0.41999999 77:0.14 78:0.14 79:0 80:0.34999999 81:0.07 82:0 83:0.20999999 84:0.20999999 85:0.28 86:0.14 87:0 88:0.69999999 89:0.56 90:0.56 91:0.20999999 92:0.34999999 93:0 94:0.49000001 95:0.28 96:0.34999999 97:0.41999999 98:0.20999999 99:0 100:0.20999999 101:0.07 102:0.14 103:0.41999999 104:0.14 105:0.28 106:0 107:0 108:0.41999999 109:0.07 110:0.41999999 111:0.20999999 112:0.41999999 113:0.14 114:0.07 115:0.14 116:0.34999999 117:0.14 118:0.14 119:0.07 120:0.07 121:0.07 122:0.07 123:0.14 124:0 125:0.14 126:0 127:0 128:0.41999999 129:0.14 130:0.28 131:0.07 132:0 133:0 134:0 135:0 136:0.49000001 137:0 138:0.07 139:0 140:0 141:0.28 142:0.07 143:0.28 144:0.69999999 145:0.41999999 146:0.49000001 147:0 148:0.63 149:0.41999999 150:0.76999998 151:0.07 152:0.49000001 153:0.41999999 154:0.07 155:0.41999999 156:0.56 157:0.49000001 158:0.34999999 159:0 160:0.20999999 161:0.49000001 162:0.07 163:0.41999999 164:0.76999998 165:0.20999999 166:0.14 167:0.20999999 168:0.41999999 169:0.63 170:0.56 171:0.41999999 172:0.49000001 173:0.49000001 174:0.34999999 175:0.41999999 176:0.41999999 177:0.20999999 178:0.41999999 179:0.07 180:0.49000001 181:0.34999999 182:0.14 183:0.76999998 184:0.83999997 185:0.34999999 186:0.49000001 187:0.14 188:0.56 189:0.91000003 190:1.61 191:0.28 192:0.63 193:0.28 194:0.34999999 195:0.69999999 196:0.83999997 197:1.05 198:0.83999997 199:0.07 200:0.14 201:0.28 202:0 203:0.07 204:0.14 205:0.28 206:0.07 207:0 208:0.07 209:0.07 210:0.14 211:0.07 212:0.20999999 213:0 214:0.20999999 215:0.14 216:0.34999999 217:0.14 218:0.28 219:0 220:0 221:0.28 222:0.07 223:0.28 224:0.91000003 225:0.34999999 226:0.49000001 227:0.28 228:0.49000001 229:0.83999997 230:0.49000001 231:0.14 232:0.63 233:0.14 234:0.28 235:0.34999999 236:0.76999998 237:0.34999999 238:0.49000001 239:0.07 240:0.07 241:0.07 242:0 243:0.14 244:0.28 245:0 246:0 247:0.20999999 248:0.41999999 249:0 250:0.63 251:0 252:0.07 253:0 254:0.07 255:0.20999999 256:0.28 257:0.14 258:0 259:0 260:0.20999999 261:0.20999999 262:0 263:0.14 264:0.14 265:0.34999999 266:0.07 267:0.07 268:0.28 269:0.28 270:0.56 271:0.07 272:0.41999999 273:0 274:0.28 275:0.14 276:0.20999999 277:0.20999999 278:0.14 279:0 280:0.28 281:0.20999999 282:0 283:0.34999999 284:0.34999999 285:0.41999999 286:0.14 287:0.28 288:0.14 289:0.20999999 290:0.63 291:0.20999999 292:0.56 293:0.20999999 294:0.20999999 295:0.41999999 296:0.28 297:0.07 298:0.28 299:0.14 300:0.14 301:0.34999999 302:0.07 303:0.41999999 304:0.28 305:0.63 306:0.34999999 307:0.14 308:0.69999999 309:0.63 310:0.69999999 311:0.14 312:0.34999999 313:0.49000001 314:0.41999999 315:0.34999999 316:0.98000002 317:0.98000002 318:0.63 319:0.07 320:0.20999999 321:0.20999999 322:0 323:0.07 324:0.49000001 325:0.20999999 326:0.14 327:0.07 328:0.41999999 329:0.63 330:0.56 331:0.07 332:0.34999999 333:0.28 334:0.34999999 335:0.49000001 336:0.83999997 337:0.41999999 338:0.34999999 339:0.07 340:0.07 341:0.49000001 342:0.07 343:0.14 344:0.41999999 345:0.34999999 346:0.20999999 347:0.14 348:0.41999999 349:0.34999999 350:0.56 351:0 352:0.56 353:0.07 354:0.14 355:0.28 356:0.49000001 357:0.49000001 358:0.14 359:0 360:0.07 361:0 362:0.07 363:0 364:0 365:0 366:0 367:0 368:0 369:0 370:0.14 371:0 372:0.28 373:0 374:0 375:0 376:0.07 377:0 378:0 379:0 380:0 381:0.07 382:0 383:0.20999999 384:0.14 385:0.14 386:0.14 387:0 388:0 389:0.34999999 390:0.28 391:0.07 392:0.28 393:0 394:0.07 395:0.28 396:0.34999999 397:0.14 398:0.41999999 399:0 400:0.07 #
-0.30761651246322907482522168720607 1:0.93900001 2:0 3:0 4:0.704 5:0.46900001 6:0.704 7:0 8:0.235 9:0.46900001 10:2.3469999 11:0.235 12:0 13:0.46900001 14:0.235 15:0.704 16:0.235 17:0.235 18:0.704 19:0.46900001 20:0 21:0 22:0.235 23:0 24:0 25:0 26:0.235 27:0 28:0 29:0 30:0.46900001 31:0 32:0 33:0 34:0 35:0 36:0.235 37:0.704 38:0.235 39:0 40:0 41:0.235 42:0 43:0 44:0 45:0 46:0 47:0 48:0.46900001 49:0 50:0.704 51:0 52:0.235 53:0 54:0 55:0 56:0 57:0.46900001 58:0.235 59:0.235 60:0 61:0.46900001 62:0 63:0 64:0 65:0.235 66:0 67:0 68:0 69:0.704 70:0.46900001 71:0.46900001 72:0 73:0.235 74:0.46900001 75:0.235 76:0.46900001 77:0 78:0.235 79:0 80:0 81:0 82:0 83:0 84:0 85:0 86:0.235 87:0.235 88:0 89:0 90:0.93900001 91:0.46900001 92:0.235 93:0 94:0 95:0.46900001 96:0 97:0 98:0.235 99:0 100:0.235 101:0.704 102:0.235 103:0.46900001 104:0.235 105:0.235 106:0.46900001 107:0.235 108:0.235 109:0.46900001 110:1.408 111:0 112:0 113:0.46900001 114:0.235 115:0.46900001 116:0 117:0.46900001 118:0.704 119:0.235 120:0.235 121:0.704 122:0 123:0 124:0 125:0 126:0 127:0 128:0 129:0 130:0.235 131:0.235 132:0.235 133:0.46900001 134:0.235 135:0.46900001 136:0 137:0.235 138:0.235 139:0.235 140:0 141:0 142:0 143:0.235 144:0 145:0 146:0.704 147:0 148:0 149:0 150:0.235 151:0 152:0.235 153:0.235 154:0.235 155:0 156:0.704 157:0.235 158:0.704 159:0 160:0 161:0.235 162:0.235 163:0 164:0.93900001 165:0 166:0 167:0.704 168:0.235 169:0 170:1.174 171:0.235 172:0 173:0 174:0.235 175:0.235 176:0.235 177:0 178:0 179:0 180:0 181:1.174 182:0.46900001 183:0.235 184:0.93900001 185:0.46900001 186:1.643 187:0.46900001 188:0.46900001 189:0.235 190:2.8169999 191:0.235 192:0.46900001 193:0.235 194:0.46900001 195:1.174 196:1.174 197:1.408 198:1.408 199:0.704 200:0.93900001 201:0 202:0 203:0.235 204:0 205:0.235 206:0.46900001 207:0.235 208:0.235 209:0.235 210:0.46900001 211:0.235 212:0.235 213:0 214:0 215:0 216:0 217:0.235 218:0.46900001 219:0.235 220:0 221:0.704 222:0 223:0 224:0 225:0.235 226:0.235 227:0 228:0 229:0.235 230:0.235 231:0 232:0 233:0 234:0.235 235:0 236:0.235 237:0.235 238:0 239:0 240:0 241:0.235 242:0.235 243:0 244:0.235 245:0 246:0.704 247:0 248:0.235 249:0 250:0.235 251:0 252:0 253:0.235 254:0.235 255:0.46900001 256:0.235 257:0 258:0.235 259:0.235 260:0 261:0.46900001 262:0 263:0.235 264:0.46900001 265:0 266:0.235 267:0 268:0.46900001 269:0 270:0.46900001 271:0 272:0.235 273:0.235 274:0.46900001 275:0.235 276:0.235 277:0 278:0.704 279:0 280:0.235 281:0.46900001 282:0 283:0.235 284:0.235 285:0.235 286:0.235 287:0.46900001 288:0 289:1.174 290:0.93900001 291:0 292:0 293:0 294:0.93900001 295:0.93900001 296:0.46900001 297:0 298:0.46900001 299:0 300:0 301:0.235 302:0 303:0.235 304:0 305:0 306:0.235 307:0.46900001 308:0.46900001 309:0.46900001 310:0.46900001 311:0.235 312:0 313:0.235 314:0.235 315:0 316:0.46900001 317:0.46900001 318:0.235 319:0.235 320:0.235 321:0.704 322:0 323:0.235 324:0.235 325:0.46900001 326:0.93900001 327:0.235 328:0.46900001 329:0.235 330:0.704 331:0.235 332:0 333:0 334:0 335:0.235 336:0.235 337:0.235 338:0 339:0 340:0 341:1.408 342:0.704 343:0.235 344:0 345:0 346:0 347:0.235 348:0 349:0.235 350:1.878 351:0.235 352:0.46900001 353:0.46900001 354:0.46900001 355:0.704 356:0 357:0 358:0.704 359:0 360:0 361:0.46900001 362:0 363:0 364:0 365:0.46900001 366:0.235 367:0 368:0 369:0 370:0.46900001 371:0.235 372:0 373:0.235 374:0 375:0.235 376:0 377:0 378:0.235 379:0 380:0 381:0 382:0 383:0.235 384:0 385:0 386:0.235 387:0 388:0 389:0.235 390:0.46900001 391:0.235 392:0 393:0 394:0 395:0.235 396:0 397:0.235 398:0 399:0 400:0 #
-0.13609627325431894462326454231516 1:0.163 2:0.081 3:0 4:0.40700001 5:0.081 6:0.081 7:0 8:0.48899999 9:0.163 10:0.56999999 11:0.163 12:0.244 13:0 14:0 15:0.163 16:0.56999999 17:0.32600001 18:0.163 19:0.081 20:0.163 21:0.081 22:0 23:0.081 24:0 25:0.32600001 26:0.081 27:0.081 28:0.163 29:0.244 30:0.081 31:0.081 32:0 33:0.081 34:0.081 35:0.081 36:0 37:0 38:0 39:0 40:0.081 41:0.163 42:0 43:0.244 44:0.40700001 45:0.56999999 46:0.163 47:0.081 48:0.56999999 49:0.65200001 50:0.73299998 51:0 52:0.48899999 53:0.163 54:0.163 55:0.163 56:0.244 57:0.163 58:0.244 59:0.163 60:0.48899999 61:0.40700001 62:0.081 63:0.244 64:0.65200001 65:0.081 66:0.081 67:0.244 68:0.40700001 69:0.56999999 70:0.815 71:0 72:0.73299998 73:0.163 74:0 75:0.40700001 76:0.48899999 77:0.56999999 78:0.163 79:0 80:0.40700001 81:0.244 82:0.081 83:0.163 84:0.48899999 85:0.32600001 86:0.244 87:0.163 88:0.244 89:0.48899999 90:0.815 91:0.081 92:0.40700001 93:0.163 94:0.48899999 95:0.163 96:0.73299998 97:0.244 98:0.244 99:0 100:0.081 101:0 102:0 103:0.40700001 104:0.163 105:0.244 106:0 107:0.081 108:0.081 109:0.081 110:0.244 111:0 112:0.163 113:0.081 114:0 115:0 116:0.32600001 117:0.163 118:0.163 119:0.081 120:0.081 121:0 122:0 123:0.163 124:0.081 125:0.081 126:0 127:0.081 128:0.163 129:0.32600001 130:0.244 131:0.081 132:0 133:0.081 134:0 135:0.081 136:0.244 137:0.081 138:0.163 139:0 140:0.081 141:0.32600001 142:0 143:0.65200001 144:0.65200001 145:0.40700001 146:0 147:0.163 148:0.65200001 149:0.73299998 150:0.56999999 151:0.081 152:0.40700001 153:0.244 154:0.32600001 155:0.081 156:0.40700001 157:0.56999999 158:0.163 159:0 160:0.163 161:0.32600001 162:0.244 163:0.56999999 164:0.65200001 165:0.56999999 166:0.40700001 167:0.163 168:0.48899999 169:0.48899999 170:1.222 171:0.163 172:0.244 173:0.244 174:0.163 175:0.40700001 176:0.65200001 177:0.73299998 178:0.48899999 179:0 180:0.244 181:0.48899999 182:0.32600001 183:0.32600001 184:0.244 185:0.65200001 186:0.163 187:0.081 188:0.48899999 189:1.059 190:1.059 191:0.163 192:0.65200001 193:0.32600001 194:0.97799999 195:0.73299998 196:1.467 197:0.89600003 198:0.56999999 199:0.32600001 200:0.244 201:0.163 202:0 203:0.081 204:0.163 205:0 206:0 207:0.32600001 208:0 209:0.40700001 210:0.081 211:0.081 212:0 213:0 214:0.163 215:0 216:0.32600001 217:0 218:0.163 219:0 220:0 221:0.081 222:0.081 223:0.65200001 224:0.40700001 225:0.32600001 226:0.244 227:0.163 228:0.081 229:0.40700001 230:0.73299998 231:0.081 232:0.48899999 233:0.32600001 234:0.163 235:0.244 236:0.32600001 237:0.73299998 238:0.163 239:0.163 240:0.48899999 241:0.081 242:0.081 243:0.163 244:0.081 245:0 246:0 247:0 248:0.244 249:0.56999999 250:0.32600001 251:0.081 252:0.163 253:0 254:0.163 255:0.163 256:0.48899999 257:0 258:0.244 259:0 260:0.244 261:0.244 262:0 263:0.32600001 264:0.244 265:0.40700001 266:0.244 267:0 268:0.081 269:0.081 270:0.32600001 271:0 272:0.65200001 273:0.163 274:0.081 275:0.40700001 276:0 277:0.081 278:0.244 279:0 280:0.163 281:0.244 282:0 283:0.244 284:0.244 285:0.32600001 286:0.163 287:0 288:0.56999999 289:0.73299998 290:0.32600001 291:0.244 292:0.163 293:0 294:0.081 295:0.32600001 296:0.163 297:0.081 298:0.32600001 299:0.081 300:0.244 301:0.32600001 302:0.081 303:0.244 304:0.48899999 305:0.32600001 306:0.163 307:0.081 308:0.73299998 309:0.65200001 310:0.815 311:0.081 312:0.73299998 313:0.32600001 314:0.32600001 315:0.32600001 316:1.059 317:0.56999999 318:0.73299998 319:0.163 320:0.48899999 321:0.163 322:0 323:0.48899999 324:0.48899999 325:0.244 326:0 327:0.081 328:0.081 329:0.48899999 330:0.89600003 331:0.081 332:0.244 333:0.32600001 334:0.244 335:0.40700001 336:0.40700001 337:0.244 338:0.65200001 339:0.081 340:0.32600001 341:0.163 342:0 343:0.244 344:0.56999999 345:0.48899999 346:0.244 347:0.081 348:0.48899999 349:0.163 350:0.56999999 351:0.163 352:0.40700001 353:0.163 354:0.081 355:0.32600001 356:0.48899999 357:0.244 358:0.081 359:0.163 360:0.163 361:0.081 362:0.244 363:0 364:0.081 365:0 366:0.081 367:0 368:0.32600001 369:0 370:0.244 371:0.081 372:0.081 373:0 374:0 375:0 376:0 377:0.081 378:0.081 379:0 380:0 381:0.163 382:0.244 383:0.56999999 384:0 385:0.40700001 386:0 387:0.081 388:0.244 389:0.163 390:0.56999999 391:0.163 392:0.081 393:0.244 394:0.244 395:0.081 396:0.32600001 397:0.163 398:0.32600001 399:0.081 400:0.40700001 #
2.1977267618436271412463156593731 1:1.9069999 2:0 3:0.212 4:0.212 5:0.847 6:1.271 7:0 8:0.847 9:0.212 10:1.059 11:0.212 12:0 13:1.483 14:0.212 15:1.059 16:0.63599998 17:0.847 18:1.059 19:0.212 20:0 21:0 22:0 23:0 24:0 25:0.212 26:0.212 27:0 28:0 29:0 30:0 31:0 32:0 33:0 34:0 35:0 36:0.212 37:0 38:0 39:0 40:0 41:0.212 42:0 43:0 44:0.212 45:0 46:0 47:0 48:0.212 49:0.42399999 50:0.212 51:0 52:0.42399999 53:0 54:0.212 55:0 56:0 57:0.212 58:0.212 59:0 60:0 61:0.847 62:0 63:0.212 64:0.212 65:0 66:0.42399999 67:0 68:0.212 69:0 70:0.212 71:0.42399999 72:0.212 73:0 74:0.212 75:0.212 76:0 77:0.212 78:0.212 79:0 80:0 81:0.42399999 82:0 83:0.212 84:0 85:0.212 86:1.059 87:0 88:0.63599998 89:0 90:0.42399999 91:0.212 92:0.847 93:0.212 94:0 95:0.42399999 96:0.42399999 97:0.212 98:0.42399999 99:0 100:0 101:1.483 102:0 103:0.212 104:0 105:0.42399999 106:2.5420001 107:0 108:1.271 109:0.42399999 110:1.271 111:1.059 112:0.63599998 113:0.42399999 114:0 115:0.42399999 116:0.212 117:1.059 118:0.42399999 119:0 120:0.212 121:0 122:0 123:0 124:0.212 125:0 126:0.212 127:0 128:0 129:0 130:0.212 131:0 132:0 133:0 134:0 135:0.212 136:0 137:0.42399999 138:0 139:0 140:0 141:0.42399999 142:0 143:0.212 144:0.42399999 145:1.483 146:0.847 147:0 148:0.847 149:0.212 150:1.271 151:0.42399999 152:0 153:0.42399999 154:0 155:0.42399999 156:0.212 157:0.63599998 158:0 159:0 160:0 161:0.42399999 162:0 163:0 164:0 165:0.212 166:0.42399999 167:0 168:0 169:0 170:0.212 171:0 172:0 173:0.212 174:0.212 175:0 176:0 177:0.42399999 178:0 179:0.42399999 180:0.212 181:2.5420001 182:0.63599998 183:0.212 184:1.059 185:0.63599998 186:1.9069999 187:0.212 188:1.271 189:0.212 190:1.9069999 191:0.212 192:0.212 193:0.42399999 194:0.212 195:0.212 196:0.212 197:0.42399999 198:1.059 199:0.212 200:0.42399999 201:0.212 202:0 203:0 204:0 205:0.212 206:0.847 207:0 208:0.212 209:0.212 210:0.42399999 211:0 212:0 213:0 214:0.212 215:0.212 216:0.212 217:0.212 218:0.63599998 219:0 220:0.212 221:0.212 222:0 223:0 224:0 225:0.212 226:0 227:0.212 228:0.42399999 229:0.212 230:0.212 231:0 232:0 233:0 234:0.212 235:0 236:0 237:0.42399999 238:0 239:0 240:0.42399999 241:0.212 242:0 243:0 244:0.42399999 245:0 246:0.212 247:0 248:0.42399999 249:0 250:1.271 251:0.42399999 252:0 253:0 254:0.63599998 255:0 256:0.212 257:0.212 258:0.42399999 259:0 260:0 261:0.212 262:0 263:0.212 264:0.212 265:0.42399999 266:0 267:0 268:0.212 269:0 270:0.847 271:0 272:0.212 273:0 274:0 275:0.42399999 276:0 277:0 278:0 279:0 280:0.212 281:0.212 282:0 283:0.212 284:0.212 285:0 286:0 287:0.212 288:0.212 289:0.212 290:0.42399999 291:0.42399999 292:0 293:0.42399999 294:0.42399999 295:0.42399999 296:0.212 297:0.212 298:0.63599998 299:0.212 300:0.212 301:0.63599998 302:0 303:0.212 304:0.212 305:0 306:0.63599998 307:0 308:0.42399999 309:0.212 310:0.212 311:0.212 312:0 313:0 314:0 315:0 316:0.212 317:0.212 318:0 319:0 320:0 321:0.63599998 322:0 323:0.42399999 324:0 325:0.212 326:0.847 327:0 328:0.212 329:0.212 330:1.6950001 331:0 332:0 333:0.63599998 334:0 335:0 336:0.212 337:0.212 338:0.63599998 339:0 340:0 341:1.483 342:0 343:0 344:0.212 345:0.42399999 346:0.63599998 347:0.42399999 348:0.42399999 349:0.212 350:1.6950001 351:0 352:0 353:0 354:0.212 355:0.42399999 356:0 357:0 358:0.212 359:0 360:0 361:0 362:0 363:0 364:0 365:0 366:0 367:0 368:0 369:0 370:0.42399999 371:0 372:0 373:0 374:0 375:0.212 376:0 377:0 378:0.42399999 379:0.212 380:0 381:0.212 382:0 383:0 384:0 385:0.212 386:0 387:0.212 388:0 389:0 390:0.212 391:0 392:0 393:0.212 394:0.212 395:0.212 396:0.212 397:0.212 398:0 399:0 400:0 #
2.1977267618436271412463156593731 1:1.342 2:0 3:0.447 4:0.22400001 5:0.22400001 6:1.119 7:0 8:0.22400001 9:0.22400001 10:1.566 11:0.671 12:0 13:0.447 14:0.447 15:0.671 16:0.671 17:1.566 18:1.119 19:0.22400001 20:0.671 21:0 22:0 23:0 24:0 25:0.22400001 26:0.22400001 27:0 28:0 29:0 30:0 31:0 32:0 33:0 34:0 35:0 36:0 37:0 38:0.22400001 39:0 40:0 41:0.22400001 42:0 43:0 44:0 45:0 46:0.22400001 47:0 48:0 49:0.22400001 50:0 51:0 52:0 53:0 54:0.22400001 55:0.671 56:0.22400001 57:0.22400001 58:0.22400001 59:0 60:0 61:0.22400001 62:0 63:0 64:0 65:0 66:0 67:0 68:0 69:0 70:0 71:0 72:0 73:0 74:0.671 75:0.22400001 76:0.22400001 77:0 78:0 79:0.22400001 80:0.22400001 81:0.447 82:0.22400001 83:0 84:0.22400001 85:0 86:1.119 87:0 88:0.89499998 89:0 90:0.89499998 91:0.22400001 92:0.22400001 93:0 94:0.22400001 95:0 96:0.671 97:0 98:0 99:0 100:0.447 101:2.013 102:0 103:0 104:0 105:0.89499998 106:1.119 107:0 108:0.671 109:0.22400001 110:1.566 111:0.89499998 112:0.22400001 113:0.447 114:0.22400001 115:0.671 116:0.447 117:0.671 118:1.566 119:0.671 120:0 121:0.22400001 122:0 123:0 124:0 125:0 126:0 127:0 128:0 129:0.22400001 130:0 131:0 132:0 133:0 134:0 135:0 136:0.22400001 137:0 138:0 139:0 140:0 141:0.671 142:0 143:0.22400001 144:0 145:0.447 146:1.119 147:0 148:0 149:0 150:0.22400001 151:0 152:0.22400001 153:0.22400001 154:0 155:0.22400001 156:0.22400001 157:0.22400001 158:0.671 159:0 160:0 161:0.22400001 162:0 163:0 164:0 165:0 166:0.447 167:0 168:0.22400001 169:0 170:0 171:0.22400001 172:0 173:0 174:0 175:0 176:0.447 177:0.22400001 178:0.22400001 179:0 180:0 181:1.566 182:0.22400001 183:0.671 184:0 185:0.22400001 186:2.461 187:0 188:0.671 189:0.22400001 190:2.6849999 191:0.447 192:0 193:0.671 194:0 195:0.22400001 196:1.119 197:0.89499998 198:2.461 199:0.22400001 200:0 201:0.22400001 202:0.22400001 203:0.22400001 204:0.22400001 205:0.22400001 206:0.447 207:0 208:0.22400001 209:0 210:0.447 211:0 212:0.22400001 213:0.447 214:0 215:0.22400001 216:0.22400001 217:0 218:0.447 219:0 220:0 221:0.22400001 222:0 223:0 224:0 225:0.22400001 226:0.22400001 227:0 228:0.22400001 229:0 230:0.22400001 231:0 232:0 233:0.22400001 234:0.447 235:0.22400001 236:0.22400001 237:0 238:0.22400001 239:0 240:0 241:0.671 242:0 243:0 244:0.671 245:0 246:0 247:0.22400001 248:0.22400001 249:0 250:0.671 251:0 252:0.22400001 253:0 254:0.22400001 255:0 256:0.22400001 257:0.447 258:0.22400001 259:0 260:0 261:0.447 262:0 263:0 264:0.22400001 265:0.22400001 266:0.22400001 267:0 268:0 269:0.22400001 270:0.22400001 271:0 272:0.22400001 273:0.22400001 274:0.22400001 275:0 276:0.671 277:0 278:0.447 279:0.22400001 280:0 281:0.447 282:0 283:0.22400001 284:0 285:1.119 286:0.22400001 287:0 288:0 289:0.447 290:0.22400001 291:0 292:0.22400001 293:0 294:0 295:0 296:0.22400001 297:0 298:0.22400001 299:0 300:0.447 301:1.342 302:0 303:0 304:0.22400001 305:0.447 306:0.89499998 307:0.22400001 308:0 309:0 310:1.566 311:0.447 312:0 313:0.22400001 314:0.22400001 315:0.22400001 316:0 317:0 318:0.671 319:0.447 320:0 321:0.447 322:0 323:0.22400001 324:0 325:0 326:0.447 327:0 328:0 329:0 330:1.119 331:0.22400001 332:0.22400001 333:0.22400001 334:0.22400001 335:0 336:0.447 337:0.22400001 338:0.447 339:0 340:0.447 341:0.447 342:0 343:0.22400001 344:0 345:1.119 346:1.342 347:0 348:1.119 349:0.22400001 350:2.237 351:0.22400001 352:0.22400001 353:0.447 354:0.22400001 355:0.22400001 356:0.447 357:0.22400001 358:0.671 359:0.22400001 360:0.22400001 361:0.22400001 362:0 363:0 364:0 365:0 366:0.22400001 367:0.22400001 368:0 369:0 370:0.671 371:0.22400001 372:0.22400001 373:0 374:0 375:0.22400001 376:0.22400001 377:0 378:0 379:0 380:0 381:0.447 382:0 383:0 384:0 385:0.22400001 386:0.447 387:0 388:0 389:0 390:0.447 391:0 392:0.22400001 393:0.22400001 394:0.22400001 395:0 396:0 397:0.22400001 398:0 399:0 400:0 #
2.1977267618436271412463156593731 1:0.866 2:0.21600001 3:0 4:0.21600001 5:1.299 6:0.866 7:0 8:0.866 9:0 10:1.732 11:0.64899999 12:0.64899999 13:0.433 14:0 15:0.21600001 16:0.866 17:0.866 18:1.515 19:0.21600001 20:0 21:0 22:0 23:0 24:0 25:0 26:0.21600001 27:0 28:0 29:0 30:0.21600001 31:0 32:0 33:0 34:0 35:0 36:0 37:0 38:0.64899999 39:0 40:0 41:0 42:0 43:0 44:0.21600001 45:0 46:0.433 47:0 48:0 49:0 50:0.21600001 51:0 52:0 53:0.21600001 54:0.21600001 55:0.433 56:0 57:0.433 58:0.21600001 59:0.21600001 60:0 61:0.21600001 62:0 63:0.21600001 64:0 65:0 66:0.21600001 67:0 68:0 69:0 70:0.21600001 71:0 72:0 73:0 74:0.21600001 75:0.433 76:0 77:0 78:0 79:0 80:0 81:1.299 82:0.21600001 83:0 84:0 85:1.082 86:1.299 87:0 88:1.299 89:0 90:1.082 91:0.64899999 92:0.21600001 93:0.433 94:0.21600001 95:0.21600001 96:0.866 97:0.433 98:0 99:0.21600001 100:0.21600001 101:1.732 102:0 103:0 104:0 105:1.515 106:1.732 107:0.21600001 108:0.21600001 109:0 110:0.866 111:0.21600001 112:0.21600001 113:0.21600001 114:0.433 115:0.433 116:1.732 117:0.433 118:0.433 119:0 120:0 121:0 122:0 123:0 124:0 125:0 126:0 127:0 128:0 129:0 130:0.21600001 131:0 132:0 133:0 134:0 135:0 136:0.433 137:0 138:0 139:0 140:0 141:0.64899999 142:0 143:0 144:0 145:1.299 146:0.866 147:0 148:0.64899999 149:0.21600001 150:0.64899999 151:0.21600001 152:0 153:0.433 154:0 155:0 156:1.082 157:0.433 158:0 159:0.21600001 160:0 161:0.64899999 162:0 163:0 164:0.21600001 165:0 166:0 167:0 168:0 169:0.21600001 170:0.21600001 171:0 172:0 173:0 174:0.64899999 175:0.21600001 176:0 177:0.21600001 178:0.433 179:0 180:0 181:1.732 182:0.21600001 183:0 184:0 185:0.866 186:1.299 187:0 188:0.433 189:0.21600001 190:1.299 191:0.21600001 192:0.21600001 193:0.866 194:0.21600001 195:0.21600001 196:0.64899999 197:1.082 198:0.64899999 199:0.433 200:0.433 201:0.64899999 202:0 203:0.21600001 204:0 205:0 206:0.21600001 207:0 208:0.21600001 209:0.21600001 210:0.64899999 211:0 212:0.21600001 213:0 214:0.21600001 215:0.21600001 216:0.433 217:0 218:0.21600001 219:0 220:0 221:0.21600001 222:0 223:0.21600001 224:0 225:0.64899999 226:0.21600001 227:0 228:0.21600001 229:0 230:0.433 231:0.21600001 232:0 233:0 234:0 235:0 236:0 237:0 238:0 239:0 240:0 241:0.21600001 242:0.433 243:0.433 244:0.433 245:0.433 246:0 247:0 248:0.21600001 249:0.64899999 250:0.21600001 251:0 252:0 253:0 254:0 255:0 256:0.21600001 257:0.21600001 258:0.433 259:0 260:0.433 261:0 262:0 263:0.21600001 264:0 265:0.21600001 266:0.64899999 267:0 268:0.21600001 269:0.21600001 270:0.64899999 271:0.21600001 272:0 273:0.21600001 274:0.21600001 275:0.433 276:0 277:0 278:0 279:0 280:0.21600001 281:0.433 282:0 283:0 284:0.21600001 285:0 286:0.433 287:0.21600001 288:0.21600001 289:0.21600001 290:0.21600001 291:0 292:0.21600001 293:0.21600001 294:0 295:0.21600001 296:0.21600001 297:0 298:0.64899999 299:0.21600001 300:0 301:1.082 302:0 303:0.433 304:0 305:0.866 306:0.64899999 307:0.21600001 308:0.433 309:0.64899999 310:0.866 311:0.21600001 312:0 313:0.21600001 314:0.21600001 315:0.21600001 316:0.64899999 317:0.64899999 318:1.082 319:0.21600001 320:0 321:0.866 322:0 323:0.866 324:0.21600001 325:0.433 326:0.64899999 327:0 328:0.21600001 329:0 330:0.433 331:0.21600001 332:0 333:0.21600001 334:0.21600001 335:0.21600001 336:0.433 337:0.21600001 338:0 339:0.21600001 340:0 341:0.433 342:0 343:0 344:0 345:0.866 346:0.433 347:0 348:0.64899999 349:0.433 350:0.21600001 351:0.21600001 352:0.433 353:0.866 354:0.433 355:0 356:0.64899999 357:0.21600001 358:0.433 359:0.433 360:0.21600001 361:0.21600001 362:0 363:0 364:0 365:0.21600001 366:0 367:0 368:0.64899999 369:0 370:0.21600001 371:0.21600001 372:0 373:0 374:0.21600001 375:0.21600001 376:0 377:0.21600001 378:0.21600001 379:0 380:0 381:0.21600001 382:0 383:0 384:0 385:0 386:0.21600001 387:0 388:0.21600001 389:0 390:0.433 391:0 392:0 393:0 394:0 395:0 396:0.433 397:0 398:0 399:0 400:0 #
-0.30998597270649458357283378973079 1:1.092 2:0.21799999 3:1.092 4:0.21799999 5:0.65499997 6:0.43700001 7:0 8:0.21799999 9:0.21799999 10:1.965 11:0.43700001 12:0.43700001 13:0.43700001 14:0.65499997 15:0.21799999 16:1.528 17:0.43700001 18:0.65499997 19:0.43700001 20:0 21:0.21799999 22:0 23:0 24:0 25:0.21799999 26:0 27:0 28:0 29:0 30:0.21799999 31:0 32:0 33:0 34:0 35:0.21799999 36:0.21799999 37:0 38:0.21799999 39:0.21799999 40:0 41:0.21799999 42:0 43:0 44:0 45:0.21799999 46:0 47:0 48:0.21799999 49:0 50:0.21799999 51:0 52:0 53:0.43700001 54:0 55:0 56:0.43700001 57:0 58:0.21799999 59:0 60:0 61:0.21799999 62:0 63:0 64:0 65:0.21799999 66:0.21799999 67:0 68:0.21799999 69:0.65499997 70:0.21799999 71:0 72:0 73:0.43700001 74:0.21799999 75:0 76:0 77:0.65499997 78:0.21799999 79:0 80:0 81:0.87300003 82:0.21799999 83:0 84:0 85:0 86:0.65499997 87:0 88:0 89:0 90:0.87300003 91:0.21799999 92:0.43700001 93:0.43700001 94:0.21799999 95:0.43700001 96:0.65499997 97:0.43700001 98:0.65499997 99:0.21799999 100:0 101:0.87300003 102:0.21799999 103:0.21799999 104:0.21799999 105:0.43700001 106:0.87300003 107:0.21799999 108:0.21799999 109:0 110:1.3099999 111:0.65499997 112:0 113:0.43700001 114:0 115:0.43700001 116:0.43700001 117:0.21799999 118:0.21799999 119:0 120:1.092 121:0 122:0 123:0 124:0 125:0.21799999 126:0 127:0.21799999 128:0 129:0 130:0.65499997 131:0 132:0 133:0 134:0 135:0.43700001 136:0 137:0 138:0.21799999 139:0.43700001 140:0 141:0.21799999 142:0 143:0 144:0 145:0.43700001 146:0.87300003 147:0 148:0 149:0 150:0.65499997 151:0 152:0 153:0.21799999 154:0 155:0.21799999 156:0 157:0.65499997 158:0.21799999 159:0 160:0 161:0.21799999 162:0 163:0 164:0.21799999 165:0 166:0.21799999 167:0.21799999 168:0 169:0 170:0.87300003 171:0 172:0 173:0.21799999 174:0 175:0 176:0.43700001 177:0 178:0 179:0 180:0 181:2.6199999 182:0.65499997 183:0 184:0.65499997 185:0.87300003 186:1.747 187:0.21799999 188:0.87300003 189:0.43700001 190:3.2750001 191:0.21799999 192:0.21799999 193:0.21799999 194:0.87300003 195:0.21799999 196:0.65499997 197:1.092 198:1.528 199:0.21799999 200:1.3099999 201:0.21799999 202:0 203:0 204:0.21799999 205:0.21799999 206:0 207:0 208:0 209:0.21799999 210:0.65499997 211:0 212:0.21799999 213:0 214:0.21799999 215:0 216:0 217:0.21799999 218:0.21799999 219:0 220:0 221:0 222:0 223:0 224:0 225:0.43700001 226:0.21799999 227:0 228:0.21799999 229:0 230:0 231:0 232:0 233:0.21799999 234:0 235:0.21799999 236:0.43700001 237:0 238:0.21799999 239:0 240:0 241:0.87300003 242:0 243:0 244:0.43700001 245:0.43700001 246:0 247:0.21799999 248:0 249:0.21799999 250:1.092 251:0 252:0 253:0.21799999 254:0.21799999 255:0.21799999 256:0 257:0.21799999 258:0.43700001 259:0 260:0.21799999 261:0.21799999 262:0 263:0.21799999 264:0.21799999 265:0.21799999 266:0.65499997 267:0.21799999 268:0 269:0 270:0.65499997 271:0 272:0 273:0 274:0.21799999 275:0.21799999 276:0.21799999 277:0 278:0 279:0 280:0.43700001 281:0.65499997 282:0 283:0 284:0.21799999 285:0.21799999 286:0.43700001 287:0.21799999 288:0.21799999 289:0.21799999 290:0.21799999 291:0.21799999 292:0 293:0.43700001 294:0.21799999 295:0.21799999 296:0.65499997 297:0.21799999 298:0 299:0 300:0 301:1.092 302:0 303:0.21799999 304:0 305:0.21799999 306:0.21799999 307:0.21799999 308:0.43700001 309:0.43700001 310:1.528 311:0 312:0.21799999 313:0.43700001 314:0 315:0.65499997 316:0.65499997 317:0.65499997 318:0.65499997 319:0 320:0 321:0.21799999 322:0 323:0 324:0.21799999 325:0.43700001 326:0.21799999 327:0 328:0.21799999 329:0 330:1.528 331:0.21799999 332:0 333:0.65499997 334:0.21799999 335:0.43700001 336:0.43700001 337:0.21799999 338:0.21799999 339:0 340:0 341:1.092 342:0 343:0 344:0.43700001 345:0.65499997 346:0.87300003 347:0.21799999 348:0.65499997 349:0 350:1.092 351:0 352:0.21799999 353:0 354:0.43700001 355:0.21799999 356:0.43700001 357:0 358:0.65499997 359:0 360:0 361:0 362:0 363:0.21799999 364:0 365:0 366:0 367:0.21799999 368:0 369:0 370:0.43700001 371:0 372:0 373:0 374:0 375:0 376:0.21799999 377:0.21799999 378:0.21799999 379:0 380:0 381:0.43700001 382:0.21799999 383:0 384:0.21799999 385:0.21799999 386:0.43700001 387:0 388:0 389:0 390:0.43700001 391:0.21799999 392:0.21799999 393:0.21799999 394:0 395:0 396:0.21799999 397:0 398:0.21799999 399:0 400:0 #
-0.29359895918729950192727073954302 1:1.307 2:0.163 3:0.49000001 4:0 5:0.98000002 6:1.1440001 7:0.49000001 8:0.32699999 9:0 10:1.7970001 11:0.49000001 12:0.49000001 13:0.32699999 14:0.163 15:0.163 16:0.65399998 17:0.32699999 18:0.98000002 19:0.65399998 20:0.32699999 21:0 22:0 23:0 24:0 25:0.163 26:0 27:0.163 28:0 29:0 30:0 31:0 32:0 33:0 34:0 35:0 36:0.163 37:0 38:0 39:0 40:0 41:0.32699999 42:0 43:0 44:0.163 45:0.32699999 46:0.32699999 47:0 48:0.163 49:0.163 50:0 51:0 52:0.163 53:0.32699999 54:0 55:0 56:0 57:0 58:0.163 59:0.163 60:0 61:0 62:0 63:0 64:0.163 65:0 66:0.32699999 67:0 68:0.32699999 69:0 70:0.49000001 71:0.163 72:0.32699999 73:0 74:0.49000001 75:0 76:0 77:0 78:0.163 79:0 80:0 81:0.98000002 82:0 83:0.163 84:0 85:0.65399998 86:0 87:0.32699999 88:0.65399998 89:0.32699999 90:1.1440001 91:0.163 92:0.32699999 93:0 94:0 95:0.32699999 96:0.32699999 97:0 98:0.65399998 99:0 100:0.163 101:1.307 102:0 103:0.32699999 104:0.32699999 105:1.1440001 106:0.49000001 107:0.163 108:0.49000001 109:0.65399998 110:1.1440001 111:0 112:0.163 113:0.163 114:0 115:0.32699999 116:0.49000001 117:0.32699999 118:1.471 119:0.163 120:0.49000001 121:0.65399998 122:0 123:0 124:0.163 125:0.163 126:0.49000001 127:0.163 128:0.163 129:0 130:0.32699999 131:0.163 132:0 133:0 134:0 135:0 136:0.163 137:0 138:0 139:0 140:0 141:0.65399998 142:0 143:0 144:0 145:0.49000001 146:0.98000002 147:0.49000001 148:0.163 149:0.163 150:0.98000002 151:0 152:0.163 153:0.32699999 154:0 155:0 156:0 157:0.163 158:0.81699997 159:0 160:0 161:0.32699999 162:0 163:0.163 164:0.163 165:0 166:0.32699999 167:0 168:0 169:0 170:0 171:0.163 172:0.163 173:0.163 174:0 175:0.49000001 176:0.32699999 177:0 178:0.163 179:0 180:0 181:2.6140001 182:0.32699999 183:0.163 184:0.163 185:0.65399998 186:1.1440001 187:0.163 188:1.307 189:0.163 190:2.451 191:1.1440001 192:0.32699999 193:0.81699997 194:0.32699999 195:0.49000001 196:0.98000002 197:0.49000001 198:1.6339999 199:0.32699999 200:0.49000001 201:0.32699999 202:0 203:0 204:0 205:0.163 206:0.163 207:0 208:0.163 209:0.163 210:0.81699997 211:0.163 212:0.32699999 213:0 214:0 215:0.163 216:0.49000001 217:0.49000001 218:0.81699997 219:0.163 220:0.32699999 221:0.163 222:0 223:0 224:0.163 225:0.163 226:0.65399998 227:0 228:0.49000001 229:0 230:0.65399998 231:0.32699999 232:0.163 233:0 234:0 235:0 236:0.32699999 237:0 238:0.163 239:0 240:0 241:0.32699999 242:0 243:0 244:0.163 245:0.163 246:0.163 247:0 248:0 249:0.163 250:1.307 251:0 252:0 253:0.163 254:0.163 255:0 256:0 257:0.163 258:0.163 259:0 260:0 261:0.163 262:0 263:0 264:0 265:0 266:0.163 267:0 268:0.32699999 269:0 270:0.163 271:0 272:0.163 273:0.163 274:0 275:0 276:0 277:0.65399998 278:0 279:0 280:0 281:0 282:0 283:0.163 284:0.163 285:0.32699999 286:0.32699999 287:0 288:0 289:0.163 290:0.163 291:0.163 292:0 293:0 294:0 295:0 296:0 297:0.32699999 298:0.32699999 299:0.32699999 300:0 301:0.81699997 302:0 303:0 304:0.32699999 305:0 306:0.32699999 307:0 308:0.49000001 309:0.163 310:0.49000001 311:0.65399998 312:0 313:0 314:0.32699999 315:0.49000001 316:0 317:0.32699999 318:0.65399998 319:0.163 320:0.163 321:0.49000001 322:0 323:0.32699999 324:0.163 325:0.32699999 326:0.163 327:0.49000001 328:0.163 329:0 330:0.81699997 331:0.49000001 332:0.163 333:0.32699999 334:0 335:0.163 336:0.49000001 337:0.163 338:0 339:0.49000001 340:0.163 341:0.49000001 342:0 343:0.163 344:0.163 345:0.49000001 346:2.2880001 347:0 348:0.163 349:0.32699999 350:1.7970001 351:0 352:0 353:0.163 354:0.32699999 355:0 356:0.32699999 357:1.307 358:1.1440001 359:0 360:0.32699999 361:0.163 362:0 363:0.163 364:0.163 365:0 366:0.163 367:0 368:0 369:0 370:0.81699997 371:0.163 372:0 373:0 374:0 375:0 376:0.163 377:0.163 378:0 379:0.163 380:0.49000001 381:0.163 382:0 383:0.163 384:0 385:0 386:0 387:0 388:0 389:0 390:0.81699997 391:0.32699999 392:0.32699999 393:0 394:0 395:0 396:0.49000001 397:0.49000001 398:0.163 399:0 400:0.163 #
-0.023941323481950438356591348565416 1:1.687 2:0 3:0.48199999 4:0 5:0.241 6:0.72299999 7:0.241 8:1.446 9:0 10:2.1689999 11:0.72299999 12:0 13:0 14:0.48199999 15:0.72299999 16:1.687 17:0.48199999 18:0.96399999 19:0.241 20:0 21:0 22:0 23:0 24:0 25:0 26:0.241 27:0 28:0 29:0 30:0.48199999 31:0 32:0 33:0 34:0 35:0 36:0 37:0 38:0 39:0 40:0 41:0.241 42:0 43:0 44:0 45:0 46:0.241 47:0 48:0 49:0 50:0 51:0 52:0.241 53:0 54:0 55:0.241 56:0.241 57:0 58:0 59:0 60:0 61:0.241 62:0 63:0 64:0 65:0 66:0 67:0.241 68:0 69:0 70:0.241 71:0 72:0.241 73:0.241 74:0 75:0.241 76:0 77:0 78:0 79:0 80:0 81:0.241 82:0 83:0 84:0 85:0.241 86:0.72299999 87:0 88:0.72299999 89:0 90:0.96399999 91:0 92:0 93:0 94:0 95:0.72299999 96:0 97:0 98:0.241 99:0 100:0 101:1.446 102:0 103:0.241 104:0 105:1.205 106:1.687 107:0 108:0.48199999 109:0.241 110:3.3729999 111:0 112:0 113:0 114:0 115:0.48199999 116:0.48199999 117:0.48199999 118:1.446 119:0.241 120:0 121:0 122:0 123:0 124:0 125:0.241 126:0 127:0 128:0 129:0 130:0 131:0 132:0 133:0.48199999 134:0 135:0 136:0.48199999 137:0 138:0 139:0 140:0 141:0.241 142:0 143:0 144:0 145:0 146:1.928 147:0 148:0.241 149:0 150:0.48199999 151:0 152:0.241 153:0.241 154:0.241 155:0 156:0.48199999 157:0.48199999 158:0.241 159:0 160:0.241 161:0 162:0 163:0 164:0 165:0 166:0 167:0 168:0 169:0.241 170:0.241 171:0 172:0 173:0 174:0.241 175:0 176:0.241 177:0.241 178:0.241 179:0 180:0 181:3.1329999 182:0.241 183:0 184:0 185:0.48199999 186:2.892 187:0 188:0.241 189:0.48199999 190:5.783 191:0.96399999 192:0.48199999 193:0.96399999 194:0.48199999 195:0.241 196:1.205 197:0.96399999 198:0.96399999 199:0.48199999 200:0.48199999 201:0.241 202:0 203:0 204:0 205:0.241 206:0 207:0 208:0.241 209:0 210:0.96399999 211:0.48199999 212:0.241 213:0.241 214:0.241 215:0 216:0.241 217:0.48199999 218:0.241 219:0.241 220:0 221:0.241 222:0 223:0 224:0 225:0 226:0.241 227:0 228:0 229:0.241 230:0.48199999 231:0 232:0 233:0 234:0 235:0 236:0 237:0 238:0.241 239:0.241 240:0.241 241:0.96399999 242:0 243:0 244:0.48199999 245:0 246:0.241 247:0 248:0 249:0 250:0.96399999 251:0.48199999 252:0 253:0.96399999 254:0.48199999 255:0.241 256:0.241 257:0 258:0.48199999 259:0 260:0 261:0.241 262:0 263:0 264:0 265:0 266:0 267:0 268:0.48199999 269:0 270:0 271:0.48199999 272:0.241 273:0.241 274:0 275:0 276:0.241 277:0.72299999 278:0.48199999 279:0 280:0.241 281:0.241 282:0 283:0 284:0.48199999 285:0.48199999 286:0.241 287:0.241 288:0.241 289:0.241 290:0.241 291:0 292:0 293:0.241 294:0.241 295:0 296:0 297:0 298:0.241 299:0 300:0.241 301:1.446 302:0 303:0.241 304:0 305:0.241 306:0.48199999 307:0 308:0.241 309:0 310:1.687 311:0 312:0 313:0.48199999 314:0 315:0 316:0.241 317:0.48199999 318:0.48199999 319:0.241 320:0 321:0.72299999 322:0.241 323:0 324:0 325:0.241 326:0.72299999 327:0.48199999 328:0 329:0 330:0.72299999 331:0.72299999 332:0 333:0.96399999 334:0.241 335:0 336:0.241 337:0 338:0.241 339:0.241 340:0 341:0.72299999 342:0.241 343:0 344:0.241 345:0.241 346:1.205 347:0 348:0.48199999 349:0 350:0.96399999 351:0 352:0 353:0.241 354:0.241 355:0.48199999 356:0.48199999 357:0.96399999 358:0.241 359:0 360:0 361:0 362:0 363:0.241 364:0 365:0 366:0 367:0 368:0.241 369:0 370:0.48199999 371:0 372:0.241 373:0 374:0.48199999 375:0 376:0 377:0.241 378:0 379:0 380:0 381:0.241 382:0 383:0 384:0.241 385:0 386:0.241 387:0 388:0 389:0 390:0.241 391:0 392:0 393:0.241 394:0 395:0 396:0 397:0.241 398:0 399:0 400:0 #
